\data\
ngram 1=4947
ngram 2=7953
ngram 3=6691
ngram 4=4886
ngram 5=3091
ngram 6=1470

\1-grams:
-3.9397113	<unk>	0
0	<s>	-0.6116546
-0.67623925	</s>	0
-2.7522862	persname	-0.026970994
-3.8588421	głębiami	-0.025466505
-3.6939383	date	-0.098041505
-3.8588421	ileż	-0.025466505
-3.8588421	zgonów,	-0.025466505
-3.8588421	narodzin	-0.025466505
-2.209729	,	-0.13994518
-3.8588421	krótkim	-0.025466505
-3.5848954	dni	-0.025466505
-3.8588421	przechodzim	-0.025466505
-3.8588421	zakresie!	-0.025466505
-3.4136183	tłum	-0.025466505
-3.1956596	nowych	-0.025466505
-3.8588421	pędów	-0.025466505
-3.1174564	wciąż	-0.025466505
-2.6436112	życia	-0.025466505
-3.6939383	rwie	-0.025466505
-3.8588421	pełnej	-0.025466505
-3.8588421	kwitło	-0.025466505
-3.8588421	sile,	-0.025466505
-3.6939383	spada	-0.025466505
-3.8588421	liście	-0.025466505
-3.8588421	obumarłe	-0.025466505
-3.8588421	lesie…	-0.025466505
-3.8588421	szybko	-0.025466505
-3.8588421	mkną	-0.025466505
-3.6939383	przeszłość	-0.025466505
-3.8588421	niepochwytne	-0.025466505
-3.8588421	chwile,	-0.025466505
-3.6939383	każda	-0.025466505
-3.8588421	cząstki	-0.025466505
-3.8588421	oderwane	-0.025466505
-3.4136183	niesie	-0.025466505
-3.8588421	wnętrza…	-0.025466505
-3.5848954	składa	-0.025466505
-3.8588421	mogile.	-0.025466505
-3.8588421	przybywa	-0.025466505
-3.8588421	ucieka;	-0.025466505
-3.1956596	myśli,	-0.025466505
-3.8588421	uczucia	-0.025466505
-3.8588421	rodzą	-0.025466505
-3.8588421	giną;	-0.025466505
-3.6939383	dzień	-0.025466505
-3.6939383	stwarza	-0.025466505
-3.8588421	świeży	-0.025466505
-3.6939383	kształt	-0.025466505
-3.6939383	człowieka,	-0.025466505
-3.8588421	dawną	-0.025466505
-3.5848954	wyrasta	-0.025466505
-3.8588421	ruiną…	-0.025466505
-3.6939383	pamięć	-0.025466505
-3.6939383	wiąże	-0.025466505
-3.6939383	całość	-0.025466505
-3.2911067	jedną	-0.025466505
-3.8588421	mgliste	-0.025466505
-3.6939383	obrazy,	-0.025466505
-3.8588421	przelocie	-0.025466505
-3.8588421	bledną.	-0.025466505
-3.8588421	-----	-0.025466505
-3.8588421	xxviii	-0.025466505
-3.5848954	jasność	-0.025466505
-3.8588421	żegnają	-0.025466505
-3.8588421	zniknioną	-0.025466505
-3.6939383	burza	-0.025466505
-3.1956596	całe	-0.025466505
-3.8588421	zniweczyła	-0.025466505
-3.6939383	żniwo,	-0.098041505
-3.8588421	spustoszoną	-0.025466505
-3.8588421	rozpaczając	-0.025466505
-3.8588421	niwą,	-0.025466505
-3.8588421	myślą,	-0.025466505
-3.2911067	ciemności	-0.025466505
-3.8588421	pochłoną,	-0.025466505
-3.8588421	dalszych	-0.025466505
-3.8588421	rozkwitów	-0.025466505
-3.8588421	mrożąc	-0.025466505
-3.8588421	siłę	-0.025466505
-3.8588421	żywą.	-0.025466505
-3.8588421	tymczasem	-0.025466505
-3.4136183	tą	-0.025466505
-3.8588421	osłoną,	-0.025466505
-3.8588421	dobroczynną	-0.025466505
-3.6939383	martwości	-0.025466505
-3.8588421	pokrywą,	-0.025466505
-3.6939383	tysiącem	-0.025466505
-3.8588421	kiełków	-0.025466505
-3.6939383	drży	-0.025466505
-3.4136183	ziemi	-0.025466505
-3.8588421	łono,	-0.025466505
-3.8588421	ręką	-0.025466505
-3.6939383	natury	-0.025466505
-3.8588421	rozrzuconych	-0.025466505
-3.8588421	skrzętną.	-0.025466505
-3.8588421	spowiciu	-0.025466505
-3.5848954	nocy,	-0.025466505
-3.6939383	zimowej	-0.025466505
-3.8588421	zamieci,	-0.025466505
-3.8588421	bijące	-0.025466505
-3.8588421	wewnątrz	-0.025466505
-3.8588421	ustaje	-0.025466505
-3.8588421	tętno.	-0.025466505
-3.6939383	życie	-0.025466505
-3.6939383	głębi	-0.025466505
-3.8588421	walką	-0.025466505
-3.8588421	wre	-0.025466505
-3.8588421	namiętną,	-0.025466505
-3.8588421	wydobyć,	-0.025466505
-3.8588421	oświeci	-0.025466505
-3.8588421	brzask	-0.025466505
-3.8588421	wiosen	-0.025466505
-3.8588421	stuleci.	-0.025466505
-3.6939383	dzieci	-0.025466505
-3.8588421	win	-0.025466505
-3.8588421	ojcowskich	-0.025466505
-3.6939383	brzemię,	-0.098041505
-3.8588421	lud	-0.025466505
-3.8588421	pokutuje	-0.025466505
-3.8588421	grzechy	-0.025466505
-3.8588421	zbrodniarza:	-0.025466505
-3.8588421	każde	-0.025466505
-3.8588421	gwałcące	-0.025466505
-3.8588421	sprawiedliwość	-0.025466505
-3.6939383	plemię,	-0.098041505
-3.5848954	nieszczęść	-0.025466505
-3.2911067	ludzkości	-0.025466505
-3.8588421	przysparza.	-0.025466505
-3.8588421	złe,	-0.025466505
-3.8588421	zaraza,	-0.025466505
-3.8588421	lot	-0.025466505
-3.8588421	obiega	-0.025466505
-3.8588421	ziemię…	-0.025466505
-3.8588421	łachman	-0.025466505
-3.8588421	nędzarza,	-0.025466505
-3.8588421	książęcym	-0.025466505
-3.5848954	kroczy	-0.025466505
-3.8588421	dyademie,	-0.025466505
-3.8588421	zatrutem	-0.025466505
-3.6939383	tchnieniem	-0.025466505
-2.856446	świat	-0.025466505
-3.8588421	zaraża.	-0.025466505
-3.8588421	wobec	-0.025466505
-3.8588421	praw,	-0.025466505
-3.8588421	światem	-0.025466505
-3.8588421	rządzących	-0.025466505
-3.8588421	wszechwładnie,	-0.025466505
-3.8588421	nikt	-0.025466505
-3.8588421	ujść	-0.025466505
-3.8588421	złych	-0.025466505
-3.8588421	wpływów	-0.025466505
-3.8588421	przekleństwa;	-0.025466505
-3.8588421	każdemu	-0.025466505
-3.8588421	dziale	-0.025466505
-3.8588421	część	-0.025466505
-3.6939383	winy	-0.025466505
-3.8588421	przypadnie	-0.025466505
-3.8588421	cudze	-0.025466505
-3.8588421	zbrodnie	-0.025466505
-3.8588421	szaleństwa;	-0.025466505
-3.8588421	nosi	-0.025466505
-3.4136183	duszy	-0.025466505
-3.1174564	swojej	-0.025466505
-3.6939383	dnie	-0.098041505
-3.8588421	odpowiedzialność	-0.025466505
-3.5848954	wspólną	-0.025466505
-3.8588421	człowieczeństwa.	-0.025466505
-3.5848954	odpowiedzi	-0.025466505
-3.8588421	znali	-0.025466505
-3.8588421	dostatek,	-0.025466505
-3.6939383	trud	-0.025466505
-3.8588421	potrzeba;	-0.025466505
-3.5848954	nieraz	-0.025466505
-3.8588421	brakło	-0.025466505
-3.8588421	mleka	-0.025466505
-3.5848954	piersiach	-0.025466505
-3.6939383	matek,	-0.025466505
-3.8588421	zagonach	-0.025466505
-3.8588421	chleba.	-0.025466505
-3.8588421	pomyślnej	-0.025466505
-3.8588421	doli,	-0.025466505
-3.8588421	troski	-0.025466505
-3.8588421	jutrzejszą	-0.025466505
-3.8588421	strawę,	-0.025466505
-3.4136183	duch	-0.04833663
-3.6939383	ludzki	-0.025466505
-3.8588421	mroku	-0.025466505
-3.5848954	budząc	-0.025466505
-3.8588421	powoli,	-0.025466505
-3.5848954	światło	-0.025466505
-3.4136183	oczy	-0.025466505
-3.6939383	otwiera	-0.025466505
-3.8588421	ciekawe,	-0.025466505
-3.8588421	kolebki	-0.025466505
-3.8588421	czatowała	-0.025466505
-3.8588421	bieda,	-0.025466505
-3.8588421	dziecka	-0.025466505
-3.8588421	rozwinąć	-0.025466505
-3.8588421	da.	-0.025466505
-3.5848954	los	-0.025466505
-3.8588421	poskąpił	-0.025466505
-3.2911067	swoich	-0.025466505
-3.8588421	darów,	-0.025466505
-3.8588421	dał	-0.025466505
-3.6939383	środków	-0.025466505
-3.8588421	walki	-0.025466505
-3.8588421	…	-0.025466505
-3.8588421	prócz	-0.025466505
-3.8588421	trudów	-0.025466505
-3.8588421	ciężarów,	-0.025466505
-3.8588421	prawo	-0.025466505
-3.8588421	zostało;	-0.025466505
-3.8588421	znosili	-0.025466505
-3.1174564	swą	-0.025466505
-3.8588421	nędzę	-0.025466505
-3.8588421	cierpliwie,	-0.025466505
-3.5848954	istnienia	-0.025466505
-3.8588421	warunek	-0.025466505
-3.8588421	niezmienny;	-0.025466505
-3.6939383	marząc	-0.025466505
-3.8588421	przyszłem,	-0.025466505
-3.8588421	bogatszem	-0.025466505
-3.8588421	żniwie,	-0.025466505
-3.8588421	zapominali	-0.025466505
-3.8588421	trosce	-0.025466505
-3.8588421	codziennej,	-0.025466505
-3.8588421	żądając	-0.025466505
-3.8588421	wzamian	-0.025466505
-3.6939383	pracę	-0.025466505
-3.8588421	mozolną:	-0.025466505
-3.4136183	wraz	-0.025466532
-3.8588421	dziećmi	-0.025466505
-3.8588421	wyżyć	-0.025466505
-3.8588421	wolno.	-0.025466505
-3.6939383	próżne	-0.025466505
-3.8588421	wszelkie	-0.025466505
-3.8588421	wysilenia!	-0.025466505
-3.8588421	wytrwałość	-0.025466505
-3.8588421	zbawić	-0.025466505
-3.8588421	głód,	-0.025466505
-3.8588421	ciała	-0.025466505
-3.6939383	żywe	-0.025466505
-3.8588421	szkielety	-0.025466505
-3.8588421	zamienia,	-0.025466505
-3.8588421	kładąc	-0.025466505
-3.6939383	ciemnościach	-0.025466505
-3.8588421	zmrożone	-0.025466505
-3.8588421	łoże.	-0.025466505
-3.8588421	sytość,	-0.025466505
-3.6939383	żywot	-0.025466505
-3.8588421	idzie,	-0.025466505
-3.8588421	zwykłej	-0.025466505
-3.8588421	nędzy	-0.025466505
-3.5848954	widmo	-0.025466505
-3.8588421	blade,	-0.025466505
-3.5848954	śmierć	-0.025466532
-3.8588421	głodowa	-0.025466505
-3.8588421	całej	-0.025466505
-2.8975704	swej	-0.025466477
-3.8588421	ohydzie	-0.025466505
-3.8588421	tysiącom	-0.025466505
-3.8588421	rodzin	-0.025466505
-3.8588421	zwiastuje	-0.025466505
-3.8588421	zagładę,	-0.025466505
-3.4136183	nocy	-0.025466505
-3.8588421	wchodzi	-0.025466505
-3.8588421	mieszkania,	-0.025466505
-3.8588421	przynosząc	-0.025466505
-3.6939383	męki	-0.025466505
-3.8588421	wolnego	-0.025466505
-3.8588421	konania.	-0.025466505
-3.8588421	głodowa!	-0.025466505
-3.8588421	zgasłem	-0.025466505
-3.8588421	ognisku	-0.025466505
-3.8588421	zasiada,	-0.025466505
-3.8588421	wlokąc	-0.025466505
-3.8588421	całun	-0.025466505
-3.8588421	lodowaty,	-0.025466505
-3.8588421	matkom	-0.025466505
-3.6939383	porywa	-0.025466505
-3.5848954	uścisku,	-0.29699942
-3.6939383	nagie	-0.025466505
-3.8588421	trupy	-0.025466505
-3.8588421	zostawia	-0.025466505
-3.8588421	chaty,	-0.025466505
-3.0512094	dalej	-0.025466532
-3.8588421	upiora	-0.025466505
-3.4136183	postaci,	-0.21164894
-3.8588421	rozpościerając	-0.025466505
-3.8588421	gorączkowe	-0.025466505
-3.8588421	dreszcze…	-0.025466505
-3.8588421	zmarły	-0.025466505
-3.8588421	wstaje,	-0.025466505
-3.8588421	zabijać	-0.025466505
-3.6939383	braci,	-0.098041505
-3.8588421	krzywdy	-0.025466505
-3.8588421	mszcząc	-0.025466505
-3.5848954	grobie	-0.025466505
-3.8588421	rozszerzając	-0.025466505
-3.8588421	zaraźliwe	-0.025466505
-3.8588421	tchnienia,	-0.025466505
-3.6939383	idzie	-0.025466505
-3.1956596	ludzi	-0.025466505
-3.8588421	przemawiać	-0.025466505
-3.8588421	sumienia.	-0.025466505
-3.8588421	mogił	-0.025466505
-3.8588421	zostali,	-0.025466505
-3.8588421	oglądać	-0.025466505
-3.8588421	męczarnie	-0.025466505
-3.2911067	swych	-0.025466505
-3.8588421	rodzin,	-0.025466505
-3.8588421	trawieni	-0.025466505
-3.8588421	ogniem,	-0.025466505
-3.8588421	wnętrzności	-0.025466505
-3.6939383	pali,	-0.098041505
-3.8588421	mierzą	-0.025466505
-3.8588421	ostatek	-0.025466505
-3.8588421	uchodzących	-0.025466505
-3.8588421	godzin,	-0.025466505
-3.6939383	patrzą	-0.025466505
-3.8588421	otchłań…	-0.025466505
-3.6939383	szukając	-0.025466505
-3.8588421	uchwyconej	-0.025466505
-3.8588421	ocalenia	-0.025466505
-3.6939383	mocy,	-0.025466505
-3.2911067	myśl	-0.025466505
-3.8588421	próżni	-0.025466505
-3.6939383	kręci	-0.025466505
-3.8588421	bezwładnie,	-0.025466505
-3.8588421	gaśnie	-0.025466505
-3.8588421	głuchej	-0.025466505
-3.8588421	odrętwienia	-0.025466505
-3.8588421	nocy…	-0.025466505
-3.8588421	mogąc	-0.025466505
-3.8588421	odnaleźć	-0.025466505
-3.8588421	nędzarze	-0.025466505
-3.8588421	chylą	-0.025466505
-3.8588421	rozpaczą	-0.025466505
-3.8588421	wychudzone	-0.025466505
-3.8588421	twarze.	-0.025466505
-3.8588421	wiedzą,	-0.025466505
-3.6939383	wszędzie	-0.025466505
-3.6939383	dokoła	-0.025466505
-3.4136183	śmierci	-0.025466505
-3.8588421	konieczność	-0.025466505
-3.8588421	straszliwa,	-0.025466505
-3.8588421	brat	-0.025466505
-3.8588421	ratunku	-0.025466505
-3.8588421	udzielić	-0.025466505
-3.6939383	zdoła,	-0.098041505
-3.8588421	daremnie	-0.025466505
-3.8588421	przyzywa.	-0.025466505
-3.8588421	milczą,	-0.025466505
-3.8588421	śniegu	-0.025466505
-3.8588421	posłanie,	-0.025466505
-3.8588421	słuchają	-0.025466505
-3.8588421	wiatru	-0.025466505
-3.8588421	żałobnego	-0.025466505
-3.8588421	wycia,	-0.025466505
-3.6939383	ciemność	-0.025466505
-3.6939383	smutne	-0.025466505
-3.8588421	rzucają	-0.025466505
-3.8588421	pytanie:	-0.025466505
-3.8588421	„prawo	-0.025466505
-3.5848954	najświętsze	-0.025466505
-3.8588421	życia?	-0.025466505
-3.8588421	„śmierć	-0.025466505
-3.8588421	skazani	-0.025466505
-3.5848954	?	-0.025466505
-3.8588421	„chleb	-0.025466505
-3.6939383	ciężką	-0.025466505
-3.8588421	zarabiali	-0.025466505
-3.8588421	pracą“.	-0.025466505
-3.8588421	odpowie	-0.025466505
-3.8588421	wykrzyk	-0.025466505
-3.8588421	głuchy?	-0.025466505
-3.5848954	ludzkość	-0.025466505
-3.6939383	zostanie	-0.025466505
-3.8588421	dłużną,	-0.025466505
-3.6939383	szlachetne	-0.025466505
-3.8588421	poruszą	-0.025466505
-3.5848954	duchy	-0.025466505
-3.8588421	miłosierdzie	-0.025466505
-3.8588421	pospieszy	-0.025466505
-3.8588421	jałmużną,	-0.025466505
-3.6939383	rzucone	-0.025466505
-3.8588421	wsparcie	-0.025466505
-3.8588421	rozstrzygnie	-0.025466505
-3.6939383	niczem,	-0.098041505
-3.8588421	niczem	-0.025466505
-3.6939383	ciemnych	-0.025466505
-3.8588421	pytań	-0.025466505
-3.8588421	rozświeci,	-0.025466505
-3.6939383	ziemia	-0.025466505
-3.8588421	sfinksowem	-0.025466505
-3.8588421	obliczem	-0.025466505
-3.8588421	pożerać	-0.025466505
-3.8588421	pracujące	-0.025466505
-3.8588421	dzieci,	-0.025466505
-3.8588421	roztrząsać	-0.025466505
-3.8588421	ciekawa,	-0.025466505
-3.8588421	zgrzyt	-0.025466505
-3.8588421	harmonii	-0.025466505
-3.8588421	społecznego	-0.025466505
-3.8588421	prawa.	-0.025466505
-3.6939383	sceny	-0.098041505
-3.0512094	świata	-0.025466505
-3.6939383	piękne	-0.025466505
-3.4136183	dzieło	-0.025466505
-3.8588421	zniszczenia!	-0.025466505
-3.6939383	cudne	-0.025466505
-3.8588421	wynalazki!	-0.025466505
-3.4136183	światu	-0.025466505
-3.1956596	nową	-0.025466505
-3.8588421	epokę	-0.025466505
-3.8588421	otwiera,	-0.025466505
-3.8588421	dotknięciem	-0.025466505
-3.8588421	laski,	-0.025466505
-3.8588421	zarazę	-0.025466505
-3.5848954	wkoło	-0.025466505
-3.8588421	rozpościera.	-0.025466505
-3.8588421	geniusz	-0.025466505
-3.8588421	wodza,	-0.025466505
-3.5848954	męstwo	-0.025466505
-3.8588421	bohatera,	-0.025466505
-3.8588421	nieśmiertelne	-0.025466505
-3.8588421	blaski:	-0.025466505
-3.8588421	bohater	-0.025466505
-3.8588421	niknie	-0.025466505
-3.6939383	tłumie,	-0.025466505
-3.6939383	umiera,	-0.098041505
-3.8588421	wiedząc,	-0.025466505
-3.6939383	monarcha	-0.025466505
-3.6939383	sypie	-0.025466505
-3.8588421	oklaski.	-0.025466505
-3.8588421	zwycięzcy,	-0.025466505
-3.8588421	zwyciężeni,	-0.025466505
-3.6939383	wielkim	-0.025466505
-3.6939383	dole	-0.025466505
-3.5848954	zarówno	-0.025466505
-3.8588421	zwycięstwa,	-0.025466505
-3.5848954	sławy,	-0.072478384
-3.6939383	imienia	-0.025466505
-3.8588421	spoczywają,	-0.025466505
-3.8588421	czole	-0.025466505
-3.8588421	pisze:	-0.025466505
-3.8588421	«ofiary	-0.025466505
-3.8588421	marne	-0.025466505
-3.8588421	zaślepienia,	-0.025466505
-3.8588421	odegrały	-0.025466505
-3.8588421	smutną	-0.025466505
-3.8588421	gladyatorów	-0.025466505
-3.8588421	rolę!»	-0.025466505
-3.8588421	zwycięzcą?…	-0.025466505
-3.5848954	anioł	-0.025466505
-3.8588421	zniszczenia.	-0.025466505
-3.8588421	xxix	-0.025466505
-3.8588421	póki	-0.025466505
-3.8588421	narodzie	-0.025466505
-3.8588421	swobody	-0.025466505
-3.8588421	żyje,	-0.025466505
-3.8588421	wola	-0.025466505
-3.6939383	godność	-0.025466505
-3.5848954	człowiecze,	-0.29699942
-3.5848954	ręce	-0.025466505
-3.6939383	odda	-0.025466505
-3.8588421	czyje	-0.025466505
-3.6939383	praw	-0.025466505
-3.8588421	zrzecze,	-0.025466505
-3.8588421	łańcuch,	-0.025466505
-3.8588421	ściska	-0.025466505
-3.8588421	szyję,	-0.025466505
-3.8588421	utkwione	-0.025466505
-3.8588421	miecze,	-0.025466505
-3.8588421	przemoc	-0.025466505
-3.8588421	zabije,	-0.025466505
-3.1956596	noc	-0.025466505
-3.6939383	dziejowej	-0.025466505
-3.6939383	hańby	-0.025466505
-3.8588421	zawlecze.	-0.025466505
-3.8588421	zginąć	-0.025466505
-3.4136183	własnej	-0.025466505
-3.8588421	ręki:	-0.025466505
-3.8588421	owładnie	-0.025466505
-3.2911067	rozpacz	-0.025466505
-3.8588421	senna,	-0.025466505
-3.6939383	głucha,	-0.098041505
-3.8588421	spoczynek	-0.025466505
-3.8588421	wskaże	-0.025466505
-3.6939383	miękki,	-0.098041505
-3.8588421	zwątpienie,	-0.025466505
-3.8588421	szepcze	-0.025466505
-3.8588421	ucha:	-0.025466505
-3.6939383	jednem	-0.025466505
-3.8588421	lekarstwem	-0.025466505
-3.8588421	dobrowolne	-0.025466505
-3.8588421	samobójstwo	-0.025466505
-3.8588421	ducha.	-0.025466505
-3.8588421	złość	-0.025466505
-3.8588421	zniweczy,	-0.025466505
-3.8588421	występek	-0.025466505
-3.8588421	zburzy,	-0.025466505
-3.1174564	miłość	-0.025466505
-3.8588421	gruzów	-0.025466505
-3.8588421	napowrót	-0.025466505
-3.8588421	postawi.	-0.025466505
-3.8588421	upadłą	-0.025466505
-3.1174564	krwi	-0.025466505
-3.2911067	łez	-0.025466505
-3.8588421	kałuży,	-0.025466505
-3.8588421	spychają	-0.025466505
-3.8588421	występni	-0.025466505
-3.8588421	krwawi,	-0.025466505
-3.4136183	czyn	-0.025466505
-3.6939383	poświęcenia	-0.025466505
-3.5848954	podniesie	-0.025466505
-3.8588421	zbawi.	-0.025466505
-3.6939383	myśl,	-0.025466505
-3.8588421	dobru	-0.025466505
-3.8588421	powszechnemu	-0.025466505
-3.6939383	służy,	-0.098041505
-3.8588421	wiedzie	-0.025466505
-3.4136183	duchów	-0.025466505
-3.5848954	zastęp	-0.025466505
-3.8588421	duży,	-0.025466505
-3.5848954	łańcuch	-0.025466505
-3.5848954	niebo	-0.025466505
-3.8588421	lecących	-0.025466505
-3.8588421	żórawi.	-0.025466505
-3.8588421	cichych	-0.025466505
-3.4136183	poświęceń	-0.025466505
-3.8588421	nieustanna	-0.025466505
-3.6939383	praca	-0.098041505
-3.5848954	serc	-0.025466505
-3.5848954	szlachetnych	-0.025466505
-3.8588421	dobroć	-0.025466505
-3.8588421	promienista	-0.025466505
-3.8588421	spuścizny	-0.025466505
-3.6939383	przekleństwo	-0.025466505
-3.8588421	odwraca,	-0.025466505
-3.8588421	głębiej	-0.025466505
-3.8588421	przenikając,	-0.025466505
-3.8588421	czysta,	-0.025466505
-3.8588421	powszechny	-0.025466505
-3.8588421	skarbiec	-0.025466505
-3.6939383	duchowy	-0.025466505
-3.8588421	wzbogaca,	-0.025466505
-3.8588421	czerpie	-0.025466505
-3.8588421	korzysta.	-0.025466505
-3.8588421	falach	-0.025466505
-3.8588421	toczy	-0.025466505
-3.8588421	słońc	-0.025466505
-3.8588421	miliony	-0.025466505
-3.5848954	wieczny	-0.025466505
-3.6939383	ocean	-0.025466505
-3.8588421	dna	-0.025466505
-3.6939383	wybrzeży,	-0.098041505
-3.8588421	goniec	-0.025466505
-3.8588421	uskrzydlony	-0.025466505
-3.6939383	przestrzeni,	-0.025466505
-3.8588421	promień	-0.025466505
-3.8588421	świetlany	-0.025466505
-3.8588421	zmierzy;	-0.025466505
-3.5848954	fantazyi	-0.025466505
-3.8588421	młodej	-0.025466505
-3.6939383	polot	-0.025466505
-3.6939383	świeży,	-0.098041505
-3.8588421	błysk	-0.025466505
-3.8588421	zwiady	-0.025466505
-3.8588421	rzucony,	-0.025466505
-3.8588421	krańców	-0.025466505
-3.8588421	nigdzie	-0.025466505
-3.8588421	dobieży	-0.025466505
-3.8588421	tajemniczej	-0.025466505
-3.8588421	przedrze	-0.025466505
-3.8588421	zasłony.	-0.025466505
-3.8588421	nieskończoności	-0.025466505
-3.8588421	wyciągnięty,	-0.025466505
-3.8588421	biegnąc	-0.025466505
-3.8588421	mroczne	-0.025466505
-3.5848954	przestrzeni	-0.025466505
-3.6939383	odmęty,	-0.098041505
-3.8588421	bezbrzeżnego	-0.025466505
-3.5848954	znika	-0.025466505
-3.8588421	ogromu,	-0.025466505
-3.8588421	niemocą	-0.025466505
-3.1174564	myśli	-0.025466505
-3.8588421	przedwcześnie	-0.025466505
-3.8588421	ucięty.	-0.025466505
-3.8588421	drugiej	-0.025466505
-3.5848954	strony	-0.025466505
-3.5848954	ginie	-0.025466505
-3.8588421	pokryjomu	-0.025466505
-3.6939383	nieskończonej	-0.025466505
-3.8588421	małości	-0.025466505
-3.8588421	atomu.	-0.025466505
-3.8588421	prolog	-0.025466505
-3.8588421	dopiero,	-0.025466505
-3.8588421	scenie	-0.025466505
-3.8588421	zwycięzca	-0.025466505
-3.5848954	łaski	-0.025466505
-3.5848954	posuwa	-0.025466505
-3.6939383	dalej,	-0.098041505
-3.8588421	więzi	-0.025466505
-3.8588421	morduje,	-0.025466505
-3.8588421	wsie	-0.025466505
-3.4136183	miasta	-0.025466505
-3.8588421	pali	-0.025466505
-3.8588421	zrabowanem	-0.025466505
-3.6939383	złotem	-0.025466505
-3.8588421	napycha	-0.025466505
-3.8588421	kieszenie.	-0.025466505
-3.8588421	podostatkiem,	-0.025466505
-3.8588421	słuchali,	-0.025466505
-3.8588421	padać	-0.025466505
-3.6939383	milczeniu	-0.025466505
-3.5848954	krwawej	-0.025466505
-3.8588421	arenie,	-0.025466505
-3.8588421	zaspokoić	-0.025466505
-3.8588421	pobożne	-0.025466505
-3.8588421	sumienie	-0.025466505
-3.8588421	okuć	-0.025466505
-3.8588421	krnąbrny	-0.025466505
-3.4136183	naród	-0.025466505
-3.8588421	obręczą	-0.025466505
-3.8588421	stali.	-0.025466505
-3.8588421	zwycięski	-0.025466505
-3.8588421	pochód!	-0.025466505
-3.2911067	wielkie	-0.025466505
-3.8588421	czyny!	-0.025466505
-3.8588421	hymn	-0.025466505
-3.8588421	tryumfu	-0.025466505
-3.5848954	ślad	-0.025466505
-3.8588421	orszak	-0.025466505
-3.8588421	śpiewa,	-0.025466505
-3.8588421	krok:	-0.025466505
-3.6939383	wyrok	-0.025466505
-3.8588421	śmierci,	-0.025466505
-3.8588421	pożar	-0.025466505
-3.8588421	ruiny,	-0.025466505
-3.8588421	wojsko,	-0.025466505
-3.8588421	szarańcza	-0.025466505
-3.6939383	rozlewa	-0.025466505
-3.1956596	ziemi,	-0.24666202
-3.8588421	utraciła	-0.025466505
-3.8588421	syny	-0.025466505
-3.8588421	nogą	-0.025466505
-3.8588421	najeźdźcy	-0.025466505
-3.8588421	omdlewa.	-0.025466505
-3.8588421	przestrzeń	-0.025466505
-3.8588421	złotych	-0.025466505
-3.5848954	gwiazd	-0.025466505
-3.8588421	kagańce,	-0.025466505
-3.8588421	wirujących	-0.025466505
-3.2911067	światów	-0.025466505
-3.8588421	zbiorowiska,	-0.025466505
-3.8588421	skupione	-0.025466505
-3.8588421	bytów	-0.025466505
-3.6939383	chwilowych	-0.025466505
-3.6939383	ogniska,	-0.098041505
-3.8588421	ogrom,	-0.025466505
-3.8588421	krańce	-0.025466505
-3.5848954	możem	-0.025466505
-3.8588421	sięgnąć	-0.025466505
-3.8588421	przygodni	-0.025466505
-3.8588421	mieszkańce,	-0.025466505
-3.5848954	toni	-0.072478384
-3.8588421	nazwiska	-0.025466505
-3.8588421	wzniósł	-0.025466505
-3.8588421	podobny	-0.025466505
-3.8588421	wirującej	-0.025466505
-3.8588421	bańce,	-0.025466505
-3.2911067	fali	-0.025466505
-3.8588421	tęczuje	-0.025466505
-3.8588421	pryska.	-0.025466505
-3.8588421	nieznana	-0.025466505
-3.6939383	fala,	-0.098041505
-3.8588421	bytem	-0.025466505
-3.8588421	będąc,	-0.025466505
-3.6939383	byt	-0.025466505
-3.8588421	okala,	-0.025466505
-3.8588421	łona	-0.025466505
-3.1956596	swego	-0.025466505
-3.8588421	wyprowadza,	-0.025466505
-3.2911067	nowe	-0.025466505
-3.6939383	słońca	-0.025466505
-3.8588421	przestrzeniach	-0.025466505
-3.8588421	zapala,	-0.025466505
-3.8588421	poruszy	-0.025466505
-3.8588421	kierująca	-0.025466505
-3.8588421	władza,	-0.025466505
-3.8588421	głębiach	-0.025466505
-3.6939383	nicestwa	-0.025466505
-3.8588421	osadza.	-0.025466505
-3.8588421	pompejański	-0.025466505
-3.8588421	zielone,	-0.025466505
-3.8588421	wonne	-0.025466505
-3.6939383	gaje	-0.025466505
-3.8588421	rozsiadły	-0.025466505
-3.8588421	wkoło,	-0.025466505
-3.8588421	uroczych	-0.025466505
-3.8588421	pagórkach	-0.025466505
-3.8588421	zbiegając	-0.025466505
-3.8588421	doliny;	-0.025466505
-3.8588421	gdzieniegdzie	-0.025466505
-3.8588421	dąb	-0.025466505
-3.8588421	kasztan	-0.025466505
-3.6939383	podnosi	-0.025466505
-3.1956596	swe	-0.025466505
-3.8588421	czoło,	-0.025466505
-3.8588421	drobniejsze	-0.025466505
-3.8588421	mirty,	-0.025466505
-3.8588421	laury	-0.025466505
-3.8588421	jaśminy.	-0.025466505
-3.8588421	łagodnie	-0.025466505
-3.8588421	pluszczą	-0.025466505
-3.8588421	źródła	-0.025466505
-3.5848954	skryte	-0.025466505
-3.6939383	zieleni,	-0.098041505
-3.8588421	melodyjnym	-0.025466505
-3.8588421	szmerem	-0.025466505
-3.1956596	skał	-0.025466505
-3.8588421	ściekają	-0.025466505
-3.8588421	srebrzystym	-0.025466505
-3.6939383	wężem	-0.025466505
-3.8588421	migną	-0.025466505
-3.8588421	łomu	-0.025466505
-3.8588421	kamieni	-0.025466505
-3.8588421	sklepieniem	-0.025466505
-3.8588421	dębów	-0.025466505
-3.6939383	cichej	-0.025466505
-3.8588421	płyną	-0.025466505
-3.8588421	fali.	-0.025466505
-3.8588421	powietrzu	-0.025466505
-3.8588421	pełno	-0.025466505
-3.6939383	woni,	-0.025466505
-3.8588421	ciepła,	-0.025466505
-3.6939383	barw	-0.025466505
-3.8588421	blasku,	-0.025466505
-3.6939383	błękit	-0.025466505
-3.8588421	przesiąknięty	-0.025466505
-3.5848954	tem	-0.025466505
-3.6939383	światłem	-0.025466505
-3.8588421	gorącem,	-0.025466505
-3.8588421	zda	-0.025466505
-3.8588421	lśnić	-0.025466505
-3.8588421	niby	-0.025466505
-3.8588421	pyłkiem	-0.025466505
-3.8588421	złocistego	-0.025466505
-3.8588421	piasku,	-0.025466505
-3.6939383	tęczowych	-0.025466505
-3.8588421	iskierek	-0.025466505
-3.8588421	połyskać	-0.025466505
-3.8588421	tysiącem.	-0.025466505
-3.8588421	ciepłem	-0.025466505
-3.8588421	oświetleniu	-0.025466505
-3.6939383	żywa	-0.025466505
-3.8588421	drzew	-0.025466505
-3.8588421	zieloność	-0.025466505
-3.8588421	przyjmując	-0.025466505
-3.8588421	połysk	-0.025466505
-3.6939383	złoty	-0.025466505
-3.8588421	szmaragdy	-0.025466505
-3.8588421	harmonijnie	-0.025466505
-3.8588421	błękitną	-0.025466505
-3.6939383	spływa	-0.025466505
-3.8588421	nieskończoność.	-0.025466505
-3.8588421	gaje,	-0.025466505
-3.8588421	błonia	-0.025466505
-3.8588421	wzgórza,	-0.025466505
-3.8588421	przejrzyste	-0.025466505
-3.8588421	zdroje,	-0.025466505
-3.5848954	pełne	-0.025466505
-3.8588421	uśmiechu	-0.025466505
-3.2911067	szczęścia	-0.025466505
-3.6939383	rozkoszy	-0.025466505
-3.8588421	dreszczu,	-0.025466505
-3.8588421	wdzięczą	-0.025466505
-3.8588421	złotym	-0.025466505
-3.8588421	bóstwa	-0.025466505
-3.8588421	deszczu.	-0.025466505
-3.5848954	płynie	-0.025466505
-3.8588421	weselem,	-0.025466505
-3.8588421	tchnie	-0.025466505
-3.6939383	rozkoszą,	-0.098041505
-3.8588421	czarem	-0.025466505
-3.8588421	młodego	-0.025466505
-3.8588421	wiośnianych	-0.025466505
-3.8588421	rojeń.	-0.025466505
-3.8588421	miłosne	-0.025466505
-3.5848954	marzenia	-0.025466505
-3.5848954	pierś	-0.025466505
-3.6939383	podnoszą	-0.025466505
-3.8588421	żądzą	-0.025466505
-3.5848954	namiętnych	-0.025466505
-3.8588421	wzruszeń	-0.025466505
-3.6939383	słodkich	-0.025466505
-3.8588421	upojeń.	-0.025466505
-3.8588421	różowo	-0.025466505
-3.8588421	płoną	-0.025466505
-3.8588421	laury,	-0.025466505
-3.8588421	mirty	-0.025466505
-3.8588421	pruszą	-0.025466505
-3.8588421	śniegiem	-0.025466505
-3.8588421	delikatnego	-0.025466505
-3.8588421	kwiecia,	-0.025466505
-3.8588421	wietrzyk	-0.025466505
-3.6939383	strąca,	-0.098041505
-3.8588421	wstydliwie	-0.025466505
-3.8588421	szeleszczą	-0.025466505
-3.2911067	wody	-0.025466505
-3.8588421	brzegiem,	-0.025466505
-3.8588421	białą	-0.025466505
-3.6939383	odsłoni	-0.025466505
-3.8588421	najada	-0.025466505
-3.8588421	płynąca.	-0.025466505
-3.8588421	głazie	-0.025466505
-3.8588421	zarośniętym	-0.025466505
-3.8588421	jedwabistą	-0.025466505
-3.6939383	pleśnią,	-0.098041505
-3.6939383	cieniu	-0.025466505
-3.8588421	starych	-0.025466505
-3.8588421	kasztanów	-0.025466505
-3.8588421	siedzi	-0.025466505
-3.8588421	rogaty:	-0.025466505
-3.8588421	ucieszne	-0.025466505
-3.8588421	bóstwo	-0.025466505
-3.8588421	lasów,	-0.025466505
-3.8588421	weselną	-0.025466505
-3.5848954	pieśnią	-0.025466505
-3.6939383	wypełnia	-0.025466505
-3.8588421	rozbawione,	-0.025466505
-3.8588421	szalejące	-0.025466505
-3.8588421	światy.	-0.025466505
-3.8588421	kosmate	-0.025466505
-3.8588421	koźle	-0.025466505
-3.6939383	nogi	-0.025466505
-3.8588421	podwinął	-0.025466505
-3.6939383	siebie,	-0.098041505
-3.8588421	uwieńczon	-0.025466505
-3.8588421	różami	-0.025466505
-3.8588421	flet	-0.025466505
-3.8588421	zawzięcie	-0.025466505
-3.8588421	dmucha,	-0.025466505
-3.8588421	śpiew	-0.025466505
-3.8588421	wodzie	-0.025466505
-3.6939383	niebie,	-0.098041505
-3.8588421	kwili,	-0.025466505
-3.8588421	wzdycha,	-0.025466505
-3.8588421	pieści	-0.025466505
-3.8588421	miłośnie	-0.025466505
-3.8588421	grucha,	-0.025466505
-3.8588421	upojony	-0.025466505
-3.6939383	własnych	-0.025466505
-3.8588421	brzmień	-0.025466505
-3.8588421	słodyczą,	-0.025466505
-3.6939383	twarz	-0.025466505
-3.8588421	przekrzywia	-0.025466505
-3.8588421	podziwem	-0.025466505
-3.8588421	muska	-0.025466505
-3.8588421	brodę,	-0.025466505
-3.6939383	patrząc	-0.025466505
-3.8588421	artysta	-0.025466505
-3.8588421	miną	-0.025466505
-3.8588421	tajemniczą	-0.025466505
-3.8588421	pląsające	-0.025466505
-3.8588421	nimfy	-0.025466505
-3.8588421	nadobne	-0.025466505
-3.8588421	młode.	-0.025466505
-3.8588421	przywabione	-0.025466505
-3.8588421	wybiegły	-0.025466505
-3.8588421	ukrycia,	-0.025466505
-3.8588421	tańczą	-0.025466505
-3.8588421	lotną	-0.025466505
-3.8588421	stopą	-0.025466505
-3.8588421	miękkiej	-0.025466505
-3.8588421	murawie…	-0.025466505
-3.6939383	szał	-0.025466505
-3.8588421	tańca	-0.025466505
-3.8588421	pustoty,	-0.025466505
-3.8588421	czar	-0.025466505
-3.6939383	wiosny	-0.025466505
-3.8588421	ogarnia	-0.025466505
-3.8588421	tanecznice.	-0.025466505
-3.8588421	rozkosznej	-0.025466505
-3.8588421	postawie	-0.025466505
-3.8588421	wzburzoną	-0.025466505
-3.8588421	piersią	-0.025466505
-3.8588421	świetlany,	-0.025466505
-3.8588421	wzlatują	-0.025466505
-3.8588421	rozpuściwszy	-0.025466505
-3.5848954	wiatr	-0.025466505
-3.8588421	włosów	-0.025466505
-3.8588421	sploty,	-0.025466505
-3.8588421	drażnią	-0.025466505
-3.8588421	mirtach	-0.025466505
-3.8588421	fauny	-0.025466505
-3.8588421	sylwany,	-0.025466505
-3.8588421	omdlewają	-0.025466505
-3.8588421	zbytku	-0.025466505
-3.8588421	namiętnej	-0.025466505
-3.8588421	pustoty.	-0.025466505
-3.8588421	jakże	-0.025466505
-3.8588421	plony!	-0.025466505
-3.8588421	smutnem	-0.025466505
-3.8588421	zwalisku	-0.025466505
-3.8588421	dzika	-0.025466505
-3.8588421	orgia	-0.025466505
-3.8588421	zapomnienia;	-0.025466505
-3.2911067	ludów	-0.044994827
-3.8588421	wschodzi	-0.025466505
-3.6939383	ciemna	-0.025466505
-3.8588421	jutrzenka	-0.025466505
-3.8588421	ucisku,	-0.025466505
-3.8588421	podeptanie	-0.025466505
-3.8588421	swobody,	-0.025466505
-3.8588421	sumienia;	-0.025466505
-3.8588421	jedność,	-0.025466505
-3.8588421	kupiona	-0.025466505
-3.8588421	drogo	-0.025466505
-3.8588421	pobojowisku,	-0.025466505
-3.8588421	więzienie	-0.025466505
-3.6939383	wolnych	-0.025466505
-3.8588421	zmienia;	-0.025466505
-3.8588421	pogwałcona	-0.025466505
-3.6939383	moralność	-0.025466505
-3.8588421	mści	-0.025466505
-3.6939383	dając	-0.025466505
-3.8588421	zysku	-0.025466505
-3.4136183	nowy	-0.025466505
-3.8588421	okres	-0.025466505
-3.8588421	prób	-0.025466505
-3.8588421	poniżenia.	-0.025466505
-3.8588421	gwałt	-0.025466505
-3.8588421	prawem,	-0.025466505
-3.8588421	świętością	-0.025466505
-3.8588421	siła,	-0.025466505
-3.8588421	pełzać	-0.025466505
-3.8588421	służalczy;	-0.025466505
-3.6939383	ginie,	-0.025466505
-3.5848954	przeciw	-0.025466505
-3.8588421	walczy;	-0.025466505
-3.8588421	zgnębiona	-0.025466505
-3.5848954	rzesza	-0.025466505
-3.8588421	modliła	-0.025466505
-3.8588421	posągu	-0.025466505
-3.5848954	persname,	-0.072478384
-3.8588421	cześci	-0.025466505
-3.8588421	bałwochwalczej…	-0.025466505
-3.8588421	stało	-0.025466505
-3.8588421	chciałem:	-0.025466505
-3.8588421	pokryła.	-0.025466505
-3.8588421	wstała	-0.025466505
-3.5848954	jutrznia	-0.025466505
-3.8588421	czerwona,	-0.025466505
-3.8588421	oświecając	-0.025466505
-3.8588421	łany,	-0.025466505
-3.8588421	zebrać	-0.025466505
-3.8588421	miano	-0.025466505
-3.8588421	pierwsze	-0.025466505
-3.5848954	krwawe	-0.025466505
-3.8588421	przekroczono	-0.025466505
-3.8588421	granice…	-0.025466505
-3.8588421	rozkaz	-0.025466505
-3.8588421	wydany	-0.025466505
-3.6939383	pędzi	-0.025466505
-3.8588421	boju	-0.025466505
-3.5848954	falę	-0.025466505
-3.8588421	żołnierzy	-0.025466505
-3.8588421	ruchliwą.	-0.025466505
-3.6939383	walka	-0.025466505
-3.8588421	wszczyna!	-0.025466505
-3.6939383	wróg	-0.025466505
-3.8588421	rozespany	-0.025466505
-3.8588421	napadnięty	-0.025466505
-3.8588421	znienacka	-0.025466505
-3.6939383	broń	-0.025466505
-3.6939383	chwyta	-0.025466505
-3.8588421	żywo	-0.025466505
-3.8588421	bagnetami	-0.025466505
-3.8588421	lukę	-0.025466505
-3.8588421	straszliwą…	-0.025466505
-3.8588421	zgiełk	-0.025466505
-3.8588421	jęki	-0.025466505
-3.8588421	ciżbie	-0.025466505
-3.1956596	krwią	-0.025466505
-3.5848954	ludzką	-0.025466505
-3.8588421	pijanej.	-0.025466505
-3.8588421	dodaje	-0.025466505
-3.8588421	męstwa,	-0.025466505
-3.8588421	morderczą,	-0.025466505
-3.6939383	śmiertelnym	-0.025466505
-3.8588421	pocałunku	-0.025466505
-3.8588421	pada	-0.025466505
-3.8588421	wrogu,	-0.025466505
-3.8588421	działa,	-0.025466505
-3.8588421	tętnią	-0.025466505
-3.8588421	jeźdźcy,	-0.025466505
-3.6939383	stosy	-0.025466505
-3.8588421	zwalisk	-0.025466505
-3.8588421	sterczą,	-0.025466505
-3.8588421	chata	-0.025466505
-3.8588421	płomieniach,	-0.025466505
-3.8588421	trup	-0.025466505
-3.4136183	każdym	-0.025466505
-3.8588421	progu,	-0.025466505
-3.6939383	nareszcie	-0.025466505
-3.6939383	tryumf	-0.025466505
-3.8588421	kończy	-0.025466505
-3.8588421	ucztę	-0.025466505
-3.8588421	ludożerczą,	-0.025466505
-3.6939383	dzięki	-0.025466505
-3.6939383	persname.	-0.025466505
-3.8588421	iii	-0.025466505
-3.8588421	powstał	-0.025466505
-3.5848954	krzyk	-0.025466505
-3.8588421	ogromny	-0.025466505
-3.8588421	monarszych	-0.025466505
-3.8588421	dworów,	-0.025466505
-3.8588421	najemnych	-0.025466505
-3.8588421	pochlebców,	-0.025466505
-3.8588421	łaknących	-0.025466505
-3.8588421	korzyści,	-0.025466505
-3.8588421	rozszedł	-0.025466505
-3.6939383	kraju	-0.025466505
-3.8588421	miast,	-0.025466505
-3.8588421	siół	-0.025466505
-3.6939383	borów,	-0.025466505
-3.8588421	wrzawą	-0.025466505
-3.6939383	bezmyślnej	-0.025466505
-3.8588421	dumy,	-0.025466505
-3.8588421	ślepej	-0.025466505
-3.6939383	nienawiści.	-0.098041505
-3.8588421	spędzono	-0.025466505
-3.8588421	trzodę	-0.025466505
-3.8588421	pastwisk	-0.025466505
-3.8588421	ugorów,	-0.025466505
-3.8588421	zdatnych	-0.025466505
-3.6939383	rzeź	-0.025466505
-3.8588421	wybrali	-0.025466505
-3.8588421	królewscy	-0.025466505
-3.8588421	artyści,	-0.025466505
-3.8588421	stanęły	-0.025466505
-3.6939383	szeregi	-0.025466505
-3.8588421	gladyatorów,	-0.025466505
-3.8588421	wołając:	-0.025466505
-3.8588421	«niechaj	-0.025466505
-3.5848954	słowo	-0.025466505
-3.8588421	monarsze	-0.025466505
-3.8588421	ziści!»	-0.025466505
-3.8588421	przygotowano	-0.025466505
-3.8588421	mordu	-0.025466505
-3.8588421	maszyny	-0.025466505
-3.8588421	żyjące,	-0.025466505
-3.8588421	dano	-0.025466505
-3.8588421	znak	-0.025466505
-3.8588421	potajemny	-0.025466505
-3.8588421	wojsko	-0.025466505
-3.8588421	ruszyło…	-0.025466505
-3.8588421	zostały	-0.025466505
-3.8588421	puste	-0.025466505
-3.8588421	domy	-0.025466505
-3.8588421	zboże	-0.025466505
-3.8588421	stojące,	-0.025466505
-3.8588421	płacz	-0.025466505
-3.6939383	synów	-0.025466505
-3.8588421	objęć	-0.025466505
-3.8588421	wzięto	-0.025466505
-3.6939383	siłą,	-0.025466505
-3.8588421	sąd	-0.025466505
-3.8588421	wojenny	-0.025466505
-3.8588421	krnąbrnych,	-0.025466505
-3.8588421	psy	-0.025466505
-3.8588421	nocą	-0.025466505
-3.8588421	wyjące,	-0.025466505
-3.8588421	widziałem,	-0.025466505
-3.6939383	mej	-0.025466505
-2.9937434	.	-0.56383145
-3.8588421	ii	-0.025466505
-3.5848954	wieczne	-0.025466505
-3.8588421	ciemności!	-0.025466505
-3.8588421	bezdenne	-0.025466505
-3.8588421	otchłanie!	-0.025466505
-3.8588421	otaczacie	-0.025466505
-3.8588421	tajemnicą	-0.025466505
-3.5848954	życie,	-0.072478384
-3.6939383	próżno	-0.025466505
-3.6939383	ciągle	-0.025466505
-3.6939383	pytamy:	-0.025466505
-3.8588421	milczycie,	-0.025466505
-3.8588421	głuche	-0.025466505
-3.5848954	skargi	-0.025466505
-3.8588421	wołanie.	-0.025466505
-3.8588421	próżna	-0.025466505
-3.8588421	ciekawość!	-0.025466505
-3.1174564	serca	-0.025466532
-3.8588421	bicie!	-0.025466505
-3.8588421	dostanie,	-0.025466505
-3.8588421	chyba	-0.025466505
-3.8588421	echo	-0.025466505
-3.8588421	odrzuci	-0.025466505
-3.8588421	pytanie,	-0.025466505
-3.8588421	tkwiącej	-0.025466505
-3.8588421	skrycie.	-0.025466505
-3.8588421	biedni	-0.025466505
-3.8588421	prawdę	-0.025466505
-3.8588421	bierzemy	-0.025466505
-3.8588421	głuchy	-0.025466505
-3.6939383	oddźwięk	-0.025466505
-3.8588421	wyobraźni,	-0.025466505
-3.8588421	sądząc,	-0.025466505
-3.8588421	słyszym	-0.025466505
-3.8588421	tajny	-0.025466505
-3.5848954	głos	-0.025466505
-3.6939383	natury,	-0.025466505
-3.6939383	wszechświat	-0.025466505
-3.4136183	stoi	-0.06023975
-3.8588421	niemy,	-0.025466505
-3.6939383	otchłań	-0.025466505
-3.8588421	póty	-0.025466505
-3.8588421	milczeniem	-0.025466505
-3.8588421	drażni,	-0.025466505
-3.6939383	mrok	-0.025466505
-3.0512094	swój	-0.025466505
-3.6939383	wciągnie	-0.025466505
-3.6939383	ponury.	-0.098041505
-3.8588421	tryumfuję,	-0.025466505
-3.2911067	ziemię	-0.025466505
-3.8588421	dyszącą	-0.025466505
-3.8588421	bólu,	-0.025466505
-3.8588421	łzach,	-0.025466505
-3.8588421	żałobie;	-0.025466505
-3.6939383	krwawy	-0.025466505
-3.6939383	rubin	-0.025466505
-3.8588421	dyademie	-0.025466505
-3.8588421	umieściłem	-0.025466505
-3.8588421	mojej	-0.025466505
-3.8588421	chwale	-0.025466505
-3.8588421	ozdobie.	-0.025466505
-3.8588421	klęsk	-0.025466505
-3.8588421	sprowadzając	-0.025466505
-3.8588421	brzemię	-0.025466505
-3.8588421	ród	-0.025466505
-3.6939383	pełen	-0.025466505
-3.8588421	złości,	-0.025466505
-3.6939383	wiedziałem,	-0.025466505
-3.8588421	robię,	-0.025466505
-3.8588421	wytracając	-0.025466505
-3.6939383	mieczem	-0.025466505
-3.8588421	przeklęte	-0.025466505
-3.8588421	oparłem	-0.025466505
-3.6939383	tron	-0.025466505
-3.8588421	własny	-0.025466505
-3.1174564	pokoleń	-0.025466505
-3.6939383	grobie.	-0.098041505
-3.8588421	skończone.	-0.025466505
-3.6939383	chmurach	-0.025466505
-3.8588421	skryty	-0.025466505
-3.8588421	spogląda	-0.025466505
-3.6939383	dół	-0.025466505
-3.8588421	okiem	-0.025466505
-3.8588421	ojcowskiej	-0.025466505
-3.8588421	litości,	-0.025466505
-3.8588421	gotów	-0.025466505
-3.8588421	łup	-0.025466505
-3.8588421	odebrać	-0.025466505
-3.8588421	pracowity	-0.025466505
-3.8588421	zniweczyć	-0.025466505
-3.8588421	miłości…	-0.025466505
-3.8588421	rozkazuje.	-0.025466505
-3.6939383	rzucam	-0.025466505
-3.8588421	błękity!	-0.025466505
-3.6939383	odlatywać	-0.025466505
-3.6939383	muszę	-0.025466505
-3.8588421	wieczyste	-0.025466505
-3.8588421	ciemności.	-0.025466505
-3.8588421	xxv	-0.025466505
-3.8588421	cząsteczka	-0.025466505
-3.5848954	wszechświata	-0.025466505
-3.8588421	myśląca,	-0.025466505
-3.8588421	szukam	-0.025466505
-3.5848954	celu	-0.025466505
-3.8588421	myślę,	-0.025466505
-3.6939383	mem	-0.025466505
-3.8588421	pojęciem	-0.025466505
-3.8588421	ściśle,	-0.025466505
-3.8588421	odczucie	-0.025466505
-3.5848954	światła	-0.025466505
-3.8588421	gorąca.	-0.025466505
-3.8588421	znam	-0.025466505
-3.8588421	form	-0.025466505
-3.8588421	tysiąca	-0.025466505
-3.8588421	odbitej	-0.025466505
-3.8588421	umyśle,	-0.025466505
-3.8588421	sądzę	-0.025466505
-3.8588421	przyśle	-0.025466505
-3.5848954	czem	-0.025466505
-3.8588421	władze	-0.025466505
-3.8588421	dane	-0.025466505
-3.8588421	potrąca.	-0.025466505
-3.8588421	natura	-0.025466505
-3.8588421	twórcza,	-0.025466505
-3.8588421	wieczna,	-0.025466505
-3.8588421	bezcelowa,	-0.025466505
-3.6939383	da	-0.025466505
-3.8588421	zmieścić	-0.025466505
-3.8588421	pojęć	-0.025466505
-3.8588421	ramie,	-0.025466505
-3.8588421	wiecznym	-0.025466505
-3.8588421	prawom,	-0.025466505
-3.6939383	swem	-0.025466505
-3.2911067	łonie	-0.025466505
-3.8588421	chowa,	-0.025466505
-3.8588421	konieczności,	-0.025466505
-3.6939383	łamie,	-0.098041505
-3.8588421	ludzkiej	-0.025466505
-3.8588421	dążności	-0.025466505
-3.8588421	narzucamy	-0.025466505
-3.6939383	znamię,	-0.098041505
-3.8588421	język	-0.025466505
-3.8588421	tłómacząc	-0.025466505
-3.8588421	słowa.	-0.025466505
-3.6939383	noc,	-0.025466505
-3.8588421	wieczysta,	-0.025466505
-3.8588421	głuszą	-0.025466505
-3.8588421	przedbytową	-0.025466505
-3.8588421	otacza	-0.025466505
-3.6939383	kręgi	-0.025466505
-3.8588421	drgające	-0.025466505
-3.8588421	istnienia,	-0.025466505
-3.8588421	pierwotny	-0.025466505
-3.8588421	eter	-0.025466505
-3.8588421	skupienia,	-0.025466505
-3.6939383	związku	-0.025466505
-3.8588421	fizyczną	-0.025466505
-3.8588421	budową,	-0.025466505
-3.8588421	jednolitą	-0.025466505
-3.8588421	nicość	-0.025466505
-3.6939383	rozprzestrzenia,	-0.098041505
-3.8588421	dopiero	-0.025466505
-3.8588421	nową,	-0.025466505
-3.8588421	wirami	-0.025466505
-3.8588421	mgławic	-0.025466505
-3.8588421	skłębionych	-0.025466505
-3.8588421	pierścienia,	-0.025466505
-3.4136183	przyszłości	-0.025466505
-3.6939383	twórcze	-0.025466505
-3.8588421	wyprowadzi	-0.025466505
-3.8588421	słowo.	-0.025466505
-3.8588421	wieczysta!	-0.025466505
-3.8588421	bezwładnej	-0.025466505
-3.8588421	czczości,	-0.025466505
-3.8588421	odblask	-0.025466505
-3.8588421	zagości;	-0.025466505
-3.8588421	zmienia,	-0.025466505
-3.8588421	drga,	-0.025466505
-3.8588421	mierzy	-0.025466505
-3.8588421	pustej	-0.025466505
-3.8588421	wieczności,	-0.025466505
-3.8588421	bezustannie	-0.025466505
-3.8588421	czuwa	-0.025466505
-3.5848954	przyszłych	-0.025466505
-3.5848954	istnień	-0.025466505
-2.9937434	siebie	-0.025466505
-3.8588421	nić	-0.025466505
-3.8588421	wysnuwa.	-0.025466505
-3.8588421	wzniosłe	-0.025466505
-3.8588421	dążenia,	-0.025466505
-3.8588421	pobudki,	-0.025466505
-3.8588421	rozpaczne	-0.025466505
-3.8588421	walki,	-0.025466505
-3.8588421	zgliszcza	-0.025466505
-3.6939383	cmentarze,	-0.098041505
-3.6939383	róże	-0.025466505
-3.6939383	miłości,	-0.025466505
-3.1956596	uczuć	-0.025466505
-3.8588421	niezabudki,	-0.025466505
-3.8588421	ukochanych	-0.025466505
-3.5848954	jasne	-0.025466505
-3.8588421	twarze,	-0.025466505
-3.6939383	mgłach	-0.025466505
-3.1956596	przeszłości	-0.025466505
-3.8588421	nikną,	-0.025466505
-2.943	sen	-0.039043535
-3.8588421	krótki…	-0.025466505
-3.6939383	czas	-0.025466505
-3.5848954	powoli	-0.025466505
-3.6939383	pamięci	-0.025466505
-3.8588421	zamaże	-0.025466505
-3.8588421	najdroższe	-0.025466505
-3.8588421	rysy	-0.025466505
-3.6939383	najcięższe	-0.025466505
-3.6939383	smutki,	-0.025466505
-3.8588421	echa	-0.025466505
-3.8588421	wspomnień	-0.025466505
-3.8588421	zgłuszy	-0.025466505
-3.8588421	dziennym	-0.025466505
-3.8588421	gwarze.	-0.025466505
-3.8588421	napróżno	-0.025466505
-3.1956596	serce	-0.025466505
-3.8588421	zatrzymać	-0.025466505
-3.8588421	głębi,	-0.025466505
-3.8588421	szron	-0.025466505
-3.6939383	jesienny	-0.025466505
-3.8588421	kurczy	-0.025466505
-3.8588421	ziębi,	-0.025466505
-3.8588421	wdzięczne	-0.025466505
-3.8588421	obrazy	-0.025466505
-3.8588421	błogości	-0.025466505
-3.8588421	dziecięcej;	-0.025466505
-3.8588421	wskrzeszać	-0.025466505
-3.8588421	bieg	-0.025466505
-3.8588421	minionej	-0.025466505
-3.8588421	chwili,	-0.025466505
-3.8588421	wspólnem	-0.025466505
-3.4136183	życiem	-0.025466505
-3.8588421	żyli:	-0.025466505
-3.8588421	przeszło,	-0.025466505
-3.8588421	powraca	-0.025466505
-2.7224636	!	-0.40968612
-3.8588421	młodych	-0.025466505
-3.8588421	szukajcie	-0.025466505
-3.2911067	prawdy	-0.025466505
-3.6939383	jasnego	-0.025466505
-3.6939383	płomienia,	-0.098041505
-3.8588421	nowych,	-0.025466505
-3.8588421	nieodkrytych	-0.025466505
-3.8588421	dróg!	-0.025466505
-3.8588421	krokiem	-0.025466505
-3.8588421	tajniki	-0.025466505
-3.8588421	stworzenia	-0.025466505
-3.6939383	dusza	-0.025466505
-3.2911067	ludzka	-0.025466505
-3.8588421	rozprzestrzenia	-0.025466505
-3.8588421	większym	-0.025466505
-3.6939383	staje	-0.025466505
-3.4136183	persname!	-0.21164894
-3.8588421	otrząśniecie	-0.025466505
-3.5848954	kwiaty	-0.025466505
-3.8588421	barwnych	-0.025466505
-3.8588421	mitów,	-0.025466505
-3.8588421	rozproszycie	-0.025466505
-3.8588421	legendowy	-0.025466505
-3.8588421	mrok,	-0.025466505
-3.6939383	mgłę	-0.025466505
-3.8588421	urojeń	-0.025466505
-3.8588421	zedrzecie	-0.025466505
-3.6939383	błękitów	-0.025466505
-2.943	—	-0.13627544
-3.6939383	ludziom	-0.025466505
-3.8588421	niebiańskich	-0.025466505
-3.8588421	zbraknie	-0.025466505
-3.8588421	zachwytów,	-0.025466505
-3.8588421	sięgnie	-0.025466505
-3.8588421	wzrok.	-0.025466505
-3.8588421	epoka	-0.025466505
-3.6939383	własne	-0.025466505
-3.6939383	cele	-0.025466505
-3.8588421	zapomina	-0.025466505
-3.8588421	wczorajszych	-0.025466505
-3.8588421	snach:	-0.025466505
-3.8588421	nieście	-0.025466505
-3.6939383	wiedzy	-0.025466505
-3.6939383	pochodnię	-0.025466505
-3.8588421	czele	-0.025466505
-3.6939383	udział	-0.025466505
-3.8588421	bierzcie	-0.025466505
-3.2911067	wieków	-0.025466505
-3.8588421	dziele	-0.025466505
-3.8588421	podnoście	-0.025466505
-3.8588421	gmach!	-0.025466505
-3.8588421	depczcie	-0.025466505
-3.8588421	ołtarzy,	-0.025466505
-3.8588421	macie	-0.025466505
-3.6939383	sami	-0.025466505
-3.8588421	doskonalsze	-0.025466505
-3.8588421	wznieść:	-0.025466505
-3.8588421	święty	-0.025466505
-3.4136183	ogień	-0.025466505
-3.8588421	żarzy,	-0.025466505
-3.6939383	straży,	-0.098041505
-3.8588421	winniście	-0.025466505
-3.8588421	cześć!	-0.025466505
-3.8588421	światem,	-0.025466505
-3.8588421	zachodzi	-0.025466505
-3.2911067	całą	-0.025466505
-3.8588421	tęczą	-0.025466505
-3.8588421	idealnych	-0.025466505
-3.8588421	snów,	-0.025466505
-3.8588421	prawdziwa	-0.025466505
-3.6939383	mądrość	-0.025466505
-3.6939383	niechaj	-0.025466505
-3.8588421	pogodzi:	-0.025466505
-3.8588421	gwiazdy,	-0.025466505
-3.8588421	zdobywcy	-0.025466505
-3.8588421	młodzi,	-0.025466505
-3.8588421	pogasną	-0.025466505
-3.8588421	datew	-0.025466505
-3.8588421	wyższe	-0.025466505
-3.8588421	przeradza	-0.025466505
-3.8588421	wzory	-0.025466505
-3.8588421	pył	-0.025466505
-3.8588421	ożywiony,	-0.025466505
-3.8588421	krąży;	-0.025466505
-3.8588421	ledwie	-0.025466505
-3.8588421	pogrąży,	-0.025466505
-3.6939383	wnet	-0.025466505
-3.8588421	świt	-0.025466505
-3.8588421	rozbudzi	-0.025466505
-3.8588421	skory.	-0.025466505
-3.6939383	śmierć,	-0.025466505
-3.8588421	ciągłego	-0.025466505
-3.8588421	postępu	-0.025466505
-3.8588421	chorąży!	-0.025466505
-3.8588421	prowadzi	-0.025466505
-3.8588421	tory,	-0.025466505
-3.8588421	wschodzącym	-0.025466505
-3.8588421	kiełkom	-0.025466505
-3.8588421	usuwa	-0.025466505
-3.8588421	zapory	-0.025466505
-3.8588421	rzeszą	-0.025466505
-3.8588421	istot	-0.025466505
-3.5848954	nieskończoność	-0.025466505
-3.8588421	dąży.	-0.025466505
-3.8588421	opatrznej,	-0.025466505
-3.8588421	surowej	-0.025466505
-3.8588421	zastyga	-0.025466505
-3.8588421	próchnem	-0.025466505
-3.6939383	młodości	-0.025466505
-3.8588421	przebrzmiewa	-0.025466505
-3.8588421	pieśnią,	-0.025466505
-3.6939383	przystraja	-0.025466505
-3.6939383	blaski,	-0.025466505
-3.8588421	mknąc	-0.025466505
-3.8588421	chyżej,	-0.025466505
-3.8588421	stopniach	-0.025466505
-3.5848954	przemian	-0.025466505
-3.8588421	wyżej.	-0.025466505
-3.8588421	xxxi	-0.025466505
-3.8588421	odkąd	-0.025466505
-3.8588421	padło	-0.025466505
-3.8588421	proch	-0.025466505
-3.6939383	twe	-0.025466505
-3.6939383	czoło	-0.025466505
-3.8588421	dumne,	-0.025466505
-3.5848954	twoich	-0.025466505
-3.8588421	dziwna	-0.025466505
-3.8588421	zeszła	-0.025466505
-3.8588421	trwoga;	-0.025466505
-3.4136183	wzrok	-0.025466505
-3.8588421	bezmyślny	-0.025466505
-3.6939383	widzi	-0.025466505
-3.8588421	trumnę,	-0.025466505
-3.8588421	wsparła	-0.025466505
-3.8588421	zwycięzcy	-0.025466505
-3.8588421	noga.	-0.025466505
-3.8588421	prochom	-0.025466505
-3.8588421	dziatek	-0.025466505
-3.8588421	posłuchanie	-0.025466505
-3.8588421	dajesz	-0.025466505
-3.8588421	śmią	-0.025466505
-3.8588421	narzekać,	-0.025466505
-3.8588421	najlepsza	-0.025466505
-3.8588421	matek!	-0.025466505
-3.5848954	orgname	-0.025466505
-3.8588421	porzuciła	-0.025466505
-3.6939383	pastwę	-0.025466505
-3.8588421	wroga;	-0.025466505
-3.8588421	wymową	-0.025466505
-3.8588421	cichą,	-0.025466505
-3.8588421	apostolską,	-0.025466505
-3.8588421	ucz	-0.025466505
-3.6939383	ludy	-0.025466505
-3.8588421	zginać	-0.025466505
-3.8588421	kolana,	-0.025466505
-3.5848954	bądź	-0.025466505
-3.6939383	błękitach	-0.025466505
-3.8588421	harfą	-0.025466505
-3.8588421	eolską,	-0.025466505
-3.8588421	wichry	-0.025466505
-3.8588421	głoszą	-0.025466505
-3.6939383	imię	-0.025466505
-3.8588421	jasnym	-0.025466505
-3.8588421	sztandarem	-0.025466505
-3.6939383	placename!	-0.098041505
-3.6939383	wstaniesz	-0.025466505
-3.8588421	prochu	-0.025466505
-3.8588421	nieskalana.	-0.025466505
-3.8588421	koniec?	-0.025466505
-3.8588421	ostatka	-0.025466505
-3.8588421	czuje	-0.025466505
-3.8588421	przymuszonym	-0.025466505
-3.8588421	bronić	-0.025466505
-3.8588421	ohydą	-0.025466505
-3.8588421	gwałtami	-0.025466505
-3.8588421	łupieżcy,	-0.025466505
-3.8588421	ojczyzna	-0.025466505
-3.8588421	matka	-0.025466505
-3.8588421	wydać	-0.025466505
-3.6939383	synów,	-0.025466505
-3.8588421	zań	-0.025466505
-3.6939383	ginąć	-0.025466505
-3.8588421	idą.	-0.025466505
-2.7224636	placename	-0.025466505
-3.8588421	pokryć	-0.025466505
-3.6939383	grobów	-0.025466505
-3.8588421	piramidą,	-0.025466505
-3.6939383	rozpaczy	-0.025466505
-3.4136183	wziąć	-0.025466505
-3.8588421	świadka	-0.025466505
-3.8588421	paść	-0.025466505
-3.8588421	gruzy,	-0.025466505
-3.8588421	krwawa	-0.025466505
-3.8588421	dziejowa	-0.025466505
-3.8588421	zagadka,	-0.025466505
-3.8588421	obcego	-0.025466505
-3.8588421	ciemięstwa	-0.025466505
-3.8588421	zostać	-0.025466505
-3.8588421	karyatydą.	-0.025466505
-3.8588421	pobożny	-0.025466505
-3.8588421	najeźdźca,	-0.025466505
-3.8588421	prorokuje	-0.025466505
-3.8588421	upadek	-0.025466505
-3.8588421	rychły	-0.025466505
-3.8588421	babylonu,	-0.025466505
-3.8588421	powołanym	-0.025466505
-3.8588421	surowy	-0.025466505
-3.8588421	dopełnić	-0.025466505
-3.8588421	wedle	-0.025466505
-3.8588421	starego	-0.025466505
-3.8588421	zakonu;	-0.025466505
-3.8588421	wyciąga	-0.025466505
-3.8588421	dłoń	-0.025466505
-3.6939383	krwawą	-0.025466505
-3.8588421	boskiego	-0.025466505
-3.8588421	tronu	-0.025466505
-3.8588421	namaszczenie	-0.025466505
-3.8588421	poświęcanej	-0.025466505
-3.8588421	głowy.	-0.025466505
-3.8588421	sonety	-0.025466505
-3.8588421	trennten	-0.025466505
-3.8588421	sich	-0.025466505
-3.8588421	endlich	-0.025466505
-3.6939383	und	-0.025466505
-3.8588421	sah’n	-0.025466505
-3.8588421	nicht.	-0.025466505
-3.8588421	nur	-0.025466505
-3.8588421	noch	-0.025466505
-3.8588421	zuweilen	-0.025466505
-3.8588421	traum;	-0.025466505
-3.8588421	waren	-0.025466505
-3.8588421	längst	-0.025466505
-3.8588421	gestorben	-0.025466505
-3.8588421	wussten	-0.025466505
-3.8588421	es	-0.025466505
-3.8588421	selber	-0.025466505
-3.8588421	kaum.	-0.025466505
-3.8588421	kiedym	-0.025466505
-3.8588421	żegnał,	-0.025466505
-3.8588421	usta	-0.025466505
-3.6939383	me	-0.025466505
-3.8588421	milczały,	-0.025466505
-3.8588421	rzucić:	-0.025466505
-3.6939383	słowa	-0.025466505
-3.8588421	pozostały,	-0.025466505
-3.8588421	zbiegło	-0.025466505
-3.8588421	powrócić.	-0.025466505
-3.8588421	powitała	-0.025466505
-3.8588421	domek	-0.025466505
-3.8588421	biały,	-0.025466505
-3.8588421	słowiki	-0.025466505
-3.8588421	wiosną	-0.025466505
-3.8588421	nucić,	-0.025466505
-3.8588421	przedziela	-0.025466505
-3.8588421	nieszczęścia	-0.025466505
-3.8588421	dom	-0.025466505
-3.5848954	mogę	-0.025466505
-3.8588421	wrócić.	-0.025466505
-3.8588421	pozostałem	-0.025466505
-3.8588421	samotny,	-0.025466505
-3.8588421	rady	-0.025466505
-3.8588421	smutki	-0.025466505
-3.6939383	tęsknoty	-0.025466505
-3.5848954	:	-0.072478384
-3.8588421	przebiegam	-0.025466505
-3.6939383	myślą	-0.025466505
-3.8588421	chwil	-0.025466505
-3.6939383	minionych	-0.025466505
-3.8588421	ślady,	-0.025466505
-3.8588421	zwiędłą	-0.025466505
-3.8588421	różą	-0.025466505
-3.8588421	zadumany	-0.025466505
-3.8588421	stoję…	-0.025466505
-3.8588421	wysyłam	-0.025466505
-3.8588421	zwiady,	-0.025466505
-3.8588421	pomyśleć	-0.025466505
-3.8588421	boję.	-0.025466505
-3.8588421	niedługo	-0.025466505
-3.4136183	dzieje	-0.06023975
-3.8588421	blady	-0.025466505
-3.2911067	cień	-0.025466505
-3.8588421	wspomnienia;	-0.025466505
-3.6939383	serdeczne	-0.025466505
-3.8588421	ślady	-0.025466505
-3.8588421	mroźny	-0.025466505
-3.8588421	rozwieje	-0.025466505
-3.8588421	zniknie	-0.025466505
-3.8588421	oddalenia.	-0.025466505
-3.8588421	zmusić	-0.025466505
-3.8588421	milczenia	-0.025466505
-3.8588421	drżące	-0.025466505
-3.8588421	struny,	-0.025466505
-3.6939383	pieśń	-0.025466505
-3.8588421	leje,	-0.025466505
-3.8588421	grobowego	-0.025466505
-3.8588421	pozór	-0.025466505
-3.8588421	kamienia,	-0.025466505
-3.8588421	pogrzebaną	-0.025466505
-3.6939383	pokrywa	-0.025466505
-3.6939383	nadzieję.	-0.098041505
-3.8588421	taką	-0.025466505
-3.8588421	przyszłość,	-0.025466505
-3.8588421	ołowianą	-0.025466505
-3.8588421	rozpostrzeć	-0.025466505
-3.5848954	przyszłość	-0.025466505
-3.6939383	ciemną	-0.025466505
-3.8588421	stroskaną,	-0.025466505
-3.4136183	ból	-0.025466505
-3.8588421	pogrzebie…	-0.025466505
-3.8588421	pamiątką	-0.025466505
-3.8588421	zostaną	-0.025466505
-3.8588421	przeżyją	-0.025466505
-3.1956596	razem	-0.04833663
-3.6939383	daje	-0.025466505
-3.8588421	mężów,	-0.025466505
-3.8588421	istnieli,	-0.025466505
-3.8588421	dziejach	-0.025466505
-3.5848954	kształty	-0.025466505
-3.6939383	rzeźbi	-0.025466505
-3.8588421	granicie,	-0.025466505
-3.8588421	mocą	-0.025466505
-3.8588421	duchową	-0.025466505
-3.8588421	obdzieli,	-0.025466505
-3.2911067	postać	-0.025466505
-3.6939383	czyny	-0.025466505
-3.6939383	legendą,	-0.098041505
-3.8588421	pełniej	-0.025466505
-3.8588421	trwalej	-0.025466505
-3.2911067	żyć	-0.05305878
-3.8588421	potem	-0.025466505
-3.6939383	dziejów	-0.025466505
-3.8588421	badacz	-0.025466505
-3.8588421	ścisły	-0.025466505
-3.8588421	legendową	-0.025466505
-3.8588421	przywrócić	-0.025466505
-3.8588421	rolę,	-0.025466505
-3.8588421	widząc	-0.025466505
-3.8588421	pomysły,	-0.025466505
-3.6939383	słoneczne	-0.025466505
-3.8588421	mity,	-0.025466505
-3.8588421	wierzeń	-0.025466505
-3.8588421	symbole;	-0.025466505
-3.8588421	cienie	-0.025466505
-3.8588421	pozbawić	-0.025466505
-3.6939383	ciała,	-0.098041505
-3.8588421	tradycya	-0.025466505
-3.8588421	ubrała.	-0.025466505
-3.8588421	ulotne	-0.025466505
-3.8588421	bellerofon,	-0.025466505
-3.6939383	głowę	-0.025466505
-3.8588421	odciął	-0.025466505
-3.8588421	zamachem	-0.025466505
-3.8588421	żelaza,	-0.025466505
-3.8588421	ujrzał	-0.025466505
-3.8588421	powstające	-0.025466505
-3.8588421	zjawiska:	-0.025466505
-3.8588421	lotnego	-0.025466505
-3.8588421	pegaza	-0.025466505
-3.8588421	chimerę,	-0.025466505
-3.8588421	pierwszym	-0.025466505
-3.8588421	skoku	-0.025466505
-3.6939383	chwili	-0.025466505
-3.8588421	dotknęła	-0.025466505
-3.8588421	różowym	-0.025466505
-3.8588421	zniknęła	-0.025466505
-3.8588421	obłoku,	-0.025466505
-3.8588421	ziejąc	-0.025466505
-3.5848954	koło	-0.025466505
-3.8588421	ogniami	-0.025466505
-3.8588421	złotemi.	-0.025466505
-3.8588421	odtąd	-0.025466505
-3.8588421	służy	-0.025466505
-3.8588421	rumak	-0.025466505
-3.8588421	skrzydlaty	-0.025466505
-3.8588421	wycieczek	-0.025466505
-3.8588421	światy,	-0.025466505
-3.5848954	ludzkie	-0.025466505
-3.8588421	goni.	-0.025466505
-3.6939383	twojego	-0.025466505
-3.8588421	ścieżka	-0.025466505
-3.6939383	geogname	-0.025466505
-3.8588421	kwieciste,	-0.025466505
-3.8588421	szczęście	-0.025466505
-3.8588421	zamieszka	-0.025466505
-3.6939383	niosąc	-0.025466505
-3.8588421	rozkosze	-0.025466505
-3.8588421	czyste;	-0.025466505
-3.8588421	doznasz	-0.025466505
-3.6939383	zawodów	-0.025466505
-3.5848954	tem,	-0.025466505
-3.8588421	najdroższem	-0.025466505
-3.8588421	zwiesz,	-0.025466505
-3.8588421	korzystaj	-0.025466505
-3.8588421	weselnych	-0.025466505
-3.8588421	godów,	-0.025466505
-3.8588421	patrz	-0.025466505
-3.8588421	niebo,	-0.025466505
-3.8588421	kochaj	-0.025466505
-3.8588421	wierz.	-0.025466505
-3.8588421	pomnij,	-0.025466505
-3.8588421	szczęśliwość	-0.025466505
-3.8588421	snem	-0.025466505
-3.8588421	zmysły	-0.025466505
-3.6939383	pieści,	-0.098041505
-3.8588421	spływała	-0.025466505
-3.5848954	łzy	-0.025466505
-3.8588421	boleści.	-0.025466505
-3.8588421	prawdziwie	-0.025466505
-3.8588421	samotnym	-0.025466505
-3.8588421	współczuć	-0.025466505
-3.6939383	umie	-0.025466505
-3.8588421	drugiemi.	-0.025466505
-3.8588421	waha,	-0.025466505
-3.8588421	obawy,	-0.025466505
-3.6939383	drzemie,	-0.098041505
-3.8588421	straci	-0.025466505
-3.8588421	piękności,	-0.025466505
-3.8588421	zstąpiwszy	-0.025466505
-3.5848954	ziemię,	-0.29699942
-3.8588421	przejść	-0.025466505
-3.5848954	walk	-0.025466505
-3.4136183	ludzkich	-0.025466505
-3.8588421	stopnie,	-0.025466505
-3.8588421	zwiędnie	-0.025466505
-3.8588421	pożądaniach,	-0.025466505
-3.8588421	niczego	-0.025466505
-3.8588421	dopnie.	-0.025466505
-3.8588421	v	-0.025466505
-3.8588421	rozumiemy	-0.025466505
-3.8588421	nikogo	-0.025466505
-3.8588421	przyczyny,	-0.025466505
-3.8588421	bliźnich	-0.025466505
-3.8588421	sądzimy	-0.025466505
-3.8588421	wrogo	-0.025466505
-3.8588421	czyny.	-0.025466505
-3.8588421	samych	-0.025466505
-3.6939383	pojąć	-0.025466505
-3.8588421	trudno,	-0.025466505
-3.6939383	samej	-0.025466505
-3.8588421	racyi	-0.025466505
-3.5848954	swoją	-0.025466505
-3.8588421	rolą,	-0.025466505
-3.8588421	choćby	-0.025466505
-3.8588421	obłudną,	-0.025466505
-3.8588421	jesteśmy	-0.025466505
-3.8588421	admiracyi.	-0.025466505
-3.8588421	skoro	-0.025466505
-3.8588421	rzuci	-0.025466505
-3.8588421	opinia	-0.025466505
-3.8588421	głową;	-0.025466505
-3.8588421	zaraz	-0.025466505
-3.8588421	krzyki:	-0.025466505
-3.8588421	«paradoks	-0.025466505
-3.8588421	dziki!	-0.025466505
-3.8588421	społeczeństw	-0.025466505
-3.8588421	kryjący	-0.025466505
-3.8588421	zbiór	-0.025466505
-3.8588421	niebezpieczeństw».	-0.025466505
-3.8588421	spoufali,	-0.025466505
-3.8588421	woła	-0.025466505
-3.8588421	opinii	-0.025466505
-3.8588421	trybunał:	-0.025466505
-3.8588421	«prosty	-0.025466505
-3.8588421	komunał!»	-0.025466505
-3.8588421	przemija!	-0.025466505
-3.8588421	smutki.	-0.025466505
-3.8588421	człowiek	-0.025466505
-3.6939383	kresu	-0.025466505
-3.8588421	blisko,	-0.025466505
-3.5848954	patrzy	-0.025466505
-3.8588421	wątłej	-0.025466505
-3.8588421	łódki	-0.025466505
-3.8588421	wściekłość	-0.025466505
-3.8588421	burzy	-0.025466505
-3.8588421	igrzysko,	-0.025466505
-3.6939383	inaczej	-0.025466505
-3.8588421	sądzi	-0.025466505
-3.5848954	żywota	-0.025466505
-3.8588421	krótki	-0.025466505
-3.8588421	niknące	-0.025466505
-3.8588421	zjawisko…	-0.025466505
-3.8588421	szarpie	-0.025466505
-3.8588421	żmija,	-0.025466505
-3.8588421	brzegu	-0.025466505
-3.8588421	cichego	-0.025466505
-3.8588421	dobija.	-0.025466505
-3.8588421	kult	-0.025466505
-3.8588421	równości	-0.025466505
-3.8588421	ukrytą	-0.025466505
-3.8588421	chętką,	-0.025466505
-3.8588421	wynieść	-0.025466505
-3.8588421	skutecznie	-0.025466505
-3.8588421	prędko,	-0.025466505
-3.8588421	hasła	-0.025466505
-3.8588421	wyrównania	-0.025466505
-3.8588421	służą	-0.025466505
-3.8588421	piedestał	-0.025466505
-3.8588421	równym	-0.025466505
-3.8588421	tłumowi	-0.025466505
-3.8588421	przestał.	-0.025466505
-3.8588421	wierzaj	-0.025466505
-3.6939383	piękność	-0.025466505
-3.8588421	idealną,	-0.025466505
-3.4136183	pięknością	-0.025466505
-3.8588421	karm	-0.025466505
-3.8588421	napawaj	-0.025466505
-3.8588421	rosę	-0.025466505
-3.8588421	zbieraj	-0.025466505
-3.8588421	niewidzialną;	-0.025466505
-3.8588421	próbę	-0.025466505
-3.8588421	dawaj,	-0.025466505
-3.8588421	doświadczaj	-0.025466505
-3.8588421	trwałości,	-0.025466505
-3.8588421	sączą	-0.025466505
-3.8588421	słodki	-0.025466505
-3.8588421	miłości.	-0.025466505
-3.8588421	x	-0.025466505
-3.8588421	zranionym	-0.025466505
-3.8588421	sercom	-0.025466505
-3.8588421	potrzeba	-0.025466505
-3.8588421	nieba,	-0.025466505
-3.8588421	skrzydlatej	-0.025466505
-3.8588421	modlitwy	-0.025466505
-3.8588421	gońca,	-0.025466505
-3.8588421	pogodnych	-0.025466505
-3.8588421	uśmiechów	-0.025466505
-3.8588421	ciszy	-0.025466505
-3.8588421	końca…	-0.025466505
-3.5848954	burzy,	-0.025466505
-3.8588421	przygłuszy	-0.025466505
-3.8588421	żrący	-0.025466505
-3.8588421	duszy,	-0.025466505
-3.8588421	czarnej,	-0.025466505
-3.8588421	wyjącej	-0.025466505
-3.8588421	osłonić	-0.025466505
-3.6939383	mocy	-0.025466505
-3.8588421	sierocy.	-0.025466505
-3.8588421	ruszając	-0.025466505
-3.8588421	drogę	-0.025466505
-3.8588421	poranek	-0.025466505
-3.8588421	widzimy	-0.025466505
-3.8588421	dali,	-0.025466505
-3.8588421	mgle,	-0.025466505
-3.8588421	zwodnicze	-0.025466505
-3.8588421	kwiatów	-0.025466505
-3.8588421	oazy,	-0.025466505
-3.8588421	postaci	-0.025466505
-3.8588421	niebianek.	-0.025466505
-3.8588421	dochodzimy	-0.025466505
-3.8588421	drogi,	-0.025466505
-3.8588421	spotykamy	-0.025466505
-3.8588421	złowrogi.	-0.025466505
-3.5848954	lśni	-0.025466505
-3.8588421	tęczami	-0.025466505
-3.6939383	początek	-0.025466505
-3.8588421	przebytej	-0.025466505
-3.8588421	drogi.	-0.025466505
-3.4136183	piersi	-0.025466505
-3.8588421	wysnuć	-0.025466505
-3.6939383	tęczy	-0.025466505
-3.8588421	jasnej	-0.025466505
-3.5848954	miłością	-0.025466505
-3.8588421	obdzielić;	-0.025466505
-3.6939383	raju	-0.025466505
-3.8588421	stworzyć	-0.025466505
-3.8588421	szczęściem	-0.025466505
-3.6939383	drugich	-0.025466505
-3.8588421	ożyć	-0.025466505
-3.6939383	losy	-0.025466505
-3.8588421	wcielić,	-0.025466505
-3.8588421	splami,	-0.025466505
-3.8588421	wyprosi	-0.025466505
-3.8588421	niebios	-0.025466505
-3.5848954	łzami	-0.025466505
-3.8588421	jałowemi.	-0.025466505
-3.8588421	wygnano,	-0.025466505
-3.8588421	kochać	-0.025466505
-3.8588421	kochaną	-0.025466505
-3.8588421	ziemi.	-0.025466505
-3.8588421	baw	-0.025466505
-3.8588421	bohatera!	-0.025466505
-3.8588421	błyszcz	-0.025466505
-3.8588421	cnotą:	-0.025466505
-3.5848954	górę	-0.025466505
-3.8588421	spoziera,	-0.025466505
-3.8588421	łatwo	-0.025466505
-3.8588421	wejdzie	-0.025466505
-3.8588421	błoto.	-0.025466505
-3.8588421	największe	-0.025466505
-3.8588421	hojności	-0.025466505
-3.8588421	porywy,	-0.025466505
-3.8588421	komu	-0.025466505
-3.8588421	fortuna	-0.025466505
-3.8588421	odmówiła	-0.025466505
-3.8588421	mienia;	-0.025466505
-3.8588421	najbardziej	-0.025466505
-3.8588421	bywa	-0.025466505
-3.8588421	gadatliwy,	-0.025466505
-3.8588421	powiedzenia.	-0.025466505
-3.8588421	antysemityzm	-0.025466505
-3.8588421	prowadzą	-0.025466505
-3.8588421	handlarze,	-0.025466505
-3.8588421	pewien	-0.025466505
-3.8588421	zysk	-0.025466505
-3.8588421	widzi;	-0.025466505
-3.8588421	interesem	-0.025466505
-3.8588421	korzystnym	-0.025466505
-3.8588421	pokaże,	-0.025466505
-3.8588421	niezawodnie	-0.025466505
-3.8588421	ujmą	-0.025466505
-3.6939383	placename.	-0.098041505
-3.6939383	najwyższą	-0.025466505
-3.8588421	drugim	-0.025466505
-3.8588421	radość	-0.025466505
-3.6939383	niedoli	-0.025466505
-3.8588421	przynoszą.	-0.025466505
-3.8588421	mroki	-0.025466505
-3.8588421	najlepszą	-0.025466505
-3.8588421	pociechą,	-0.025466505
-3.8588421	zapalać	-0.025466505
-3.8588421	ubogą	-0.025466505
-3.8588421	strzechą.	-0.025466505
-3.8588421	najczystszą	-0.025466505
-3.8588421	dumą:	-0.025466505
-3.8588421	potrzebie	-0.025466505
-3.8588421	żądamy	-0.025466505
-3.6939383	siebie.	-0.098041505
-3.8588421	zwierzeń,	-0.025466505
-3.8588421	wyznań	-0.025466505
-3.8588421	łączyło	-0.025466505
-3.8588421	wiosennych	-0.025466505
-3.4136183	marzeń	-0.025466505
-3.8588421	zdradnych;	-0.025466505
-3.8588421	blasków,	-0.025466505
-3.8588421	unoszących	-0.025466505
-3.8588421	przestrzeni;	-0.025466505
-3.8588421	szumiących	-0.025466505
-3.8588421	śpiewem	-0.025466505
-3.8588421	lasków	-0.025466505
-3.8588421	świeżej	-0.025466505
-3.5848954	łąk	-0.025466505
-3.8588421	zieleni;	-0.025466505
-3.8588421	kaskad	-0.025466505
-3.8588421	potoków,	-0.025466505
-3.8588421	zraszających	-0.025466505
-3.8588421	parów,	-0.025466505
-3.8588421	girlandy	-0.025466505
-3.8588421	tęcz,	-0.025466505
-3.8588421	obłoków,	-0.025466505
-3.8588421	czarów;	-0.025466505
-3.8588421	wspólnych,	-0.025466505
-3.5848954	jasnych	-0.025466505
-3.8588421	zdrojów,	-0.025466505
-3.8588421	zachwyt	-0.025466505
-3.8588421	piło;	-0.025466505
-3.8588421	pierwiosnków	-0.025466505
-3.8588421	powojów,—	-0.025466505
-3.6939383	wołający	-0.025466505
-3.8588421	puszczy	-0.025466505
-3.8588421	doleci	-0.025466505
-3.8588421	burzą	-0.025466505
-3.8588421	uszu	-0.025466505
-3.8588421	tłuszczy,	-0.025466505
-3.8588421	wodzów,	-0.025466505
-3.8588421	kłamstwu	-0.025466505
-3.8588421	służą,	-0.025466505
-3.8588421	puszczy.	-0.025466505
-3.8588421	grozą	-0.025466505
-3.6939383	przenika	-0.025466505
-3.8588421	serca;	-0.025466505
-3.8588421	porzuca	-0.025466505
-3.8588421	łoże,	-0.025466505
-3.8588421	drży,	-0.025466505
-3.8588421	schwytany	-0.025466505
-3.8588421	morderca,	-0.025466505
-3.8588421	przestróg	-0.025466505
-3.8588421	niezrozumiałym	-0.025466505
-3.8588421	dźwiękiem	-0.025466505
-3.8588421	pustyni,	-0.025466505
-3.8588421	śpią	-0.025466505
-3.8588421	łożu	-0.025466505
-3.8588421	miękkiem…	-0.025466505
-3.8588421	pokuty	-0.025466505
-3.8588421	czyni.	-0.025466505
-3.6939383	królewna	-0.098041505
-3.8588421	zaczarowana	-0.025466505
-3.8588421	mirtowym	-0.025466505
-3.8588421	lasku	-0.025466505
-3.8588421	drzemie;	-0.025466505
-3.8588421	nóg	-0.025466505
-3.8588421	lutnia	-0.025466505
-3.8588421	śpiewna	-0.025466505
-3.8588421	zsunęła	-0.025466505
-3.8588421	ziemię;	-0.025466505
-3.8588421	niedokończona	-0.025466505
-3.8588421	piosneczka	-0.025466505
-3.8588421	uśmiechem	-0.025466505
-3.8588421	twarzy;	-0.025466505
-3.8588421	usteczka…	-0.025466505
-3.8588421	czymś	-0.025466505
-3.8588421	rozkosznym	-0.025466505
-3.8588421	marzy.	-0.025466505
-3.8588421	marzy	-0.025466505
-3.8588421	rycerzy,	-0.025466505
-3.6939383	idąc	-0.025466505
-3.8588421	stóp	-0.025466505
-3.8588421	przybieży	-0.025466505
-3.8588421	przerwie	-0.025466505
-3.8588421	zaklęty.	-0.025466505
-3.8588421	rycerz,	-0.025466505
-3.8588421	walczył	-0.025466505
-3.8588421	przeceniał:	-0.025466505
-3.8588421	zabłąkał	-0.025466505
-3.8588421	otchłani…	-0.025466505
-3.8588421	zwątpił…	-0.025466505
-3.8588421	skamieniał.	-0.025466505
-3.8588421	xxxiii	-0.025466505
-3.5848954	pośród	-0.025466505
-3.8588421	narodów,	-0.025466505
-3.8588421	wyście	-0.025466505
-3.8588421	nędzarzami!	-0.025466505
-3.8588421	dumą	-0.025466505
-3.8588421	hidalgów	-0.025466505
-3.8588421	nosicie	-0.025466505
-3.8588421	łachmany,	-0.025466505
-3.8588421	odkrywacie	-0.025466505
-3.8588421	rany,	-0.025466505
-3.8588421	zarabiać	-0.025466505
-3.8588421	chleb	-0.025466505
-3.8588421	łzami.	-0.025466505
-3.6939383	własną	-0.025466505
-3.8588421	nikczemność	-0.025466505
-3.8588421	znacie	-0.025466505
-3.8588421	sami,	-0.025466505
-3.8588421	chowacie	-0.025466505
-3.8588421	pamiątek	-0.025466505
-3.8588421	kurhany,	-0.025466505
-3.8588421	skargę	-0.025466505
-3.8588421	stroskany,	-0.025466505
-3.8588421	wołacie:	-0.025466505
-3.8588421	świętość	-0.025466505
-3.4136183	grobu	-0.025466505
-3.8588421	plami.	-0.025466505
-3.4136183	mieć	-0.025466505
-3.8588421	litość	-0.025466505
-3.8588421	nędzarze,	-0.025466505
-3.8588421	życzyć	-0.025466505
-3.8588421	biedni,	-0.025466505
-3.8588421	ułomni!	-0.025466505
-3.8588421	żebyście	-0.025466505
-3.8588421	ciche	-0.025466505
-3.8588421	zalegli	-0.025466505
-3.8588421	zeszli	-0.025466505
-3.8588421	bezpotomni;	-0.025466505
-3.8588421	nadzieję	-0.025466505
-3.8588421	ukaże:	-0.025466505
-3.8588421	zapomni!	-0.025466505
-3.8588421	oko	-0.025466505
-3.8588421	płaszczami	-0.025466505
-3.8588421	ściśnięte	-0.025466505
-3.8588421	zaporą	-0.025466505
-3.8588421	ścian	-0.025466505
-3.8588421	olbrzymich,	-0.025466505
-3.8588421	zwarły,	-0.025466505
-3.8588421	ciemne	-0.025466505
-3.8588421	posępne	-0.025466505
-3.5848954	jezioro	-0.025466505
-3.8588421	odzwierciedlając	-0.025466505
-3.8588421	głazów	-0.025466505
-3.8588421	zamarły.	-0.025466505
-3.8588421	stoczone	-0.025466505
-3.8588421	szczytów	-0.025466505
-3.8588421	bryły,	-0.025466505
-3.8588421	mchu	-0.025466505
-3.6939383	pokryte	-0.025466505
-3.8588421	korą,	-0.025466505
-3.8588421	brzegach	-0.025466505
-3.8588421	rumowisko	-0.025466505
-3.8588421	rozpostarły,	-0.025466505
-3.8588421	niem	-0.025466505
-3.8588421	pogięte,	-0.025466505
-3.8588421	krzywe,	-0.025466505
-3.8588421	kosodrzewu	-0.025466505
-3.6939383	karły	-0.025466505
-3.8588421	nagą	-0.025466505
-3.8588421	pustkę	-0.025466505
-3.8588421	wianki	-0.025466505
-3.8588421	ubiorą.	-0.025466505
-3.8588421	granitowe	-0.025466505
-3.8588421	opoki	-0.025466505
-3.8588421	wyniesione	-0.025466505
-3.8588421	chmury	-0.025466505
-3.8588421	rzadko	-0.025466505
-3.8588421	żywsze	-0.025466505
-3.6939383	blaski	-0.025466505
-3.8588421	dopuszczą…	-0.025466505
-3.6939383	tajemnicze	-0.025466505
-3.8588421	głębie	-0.025466505
-3.6939383	kryje	-0.025466505
-3.8588421	cisza:	-0.025466505
-3.8588421	oddali	-0.025466505
-3.8588421	potoki	-0.025466505
-3.8588421	pluszczą,	-0.025466505
-3.8588421	wichry,	-0.025466505
-3.8588421	przelatując	-0.025466505
-3.8588421	zmartwiałą	-0.025466505
-3.8588421	puszczą,	-0.025466505
-3.1956596	swym	-0.025466505
-3.8588421	świstem	-0.025466505
-3.8588421	grozę	-0.025466505
-3.8588421	dzikiej	-0.025466505
-3.8588421	powiększą	-0.025466505
-3.8588421	natury.	-0.025466505
-3.8588421	twórcza	-0.025466505
-3.8588421	straszliwą	-0.025466505
-3.8588421	wykwita:	-0.025466505
-3.8588421	niezmierzonej	-0.025466505
-3.5848954	potęgi	-0.025466505
-3.8588421	siły,	-0.025466505
-3.8588421	gromami	-0.025466505
-3.8588421	skałach	-0.025466505
-3.8588421	rozdartych	-0.025466505
-3.8588421	wyryta	-0.025466505
-3.8588421	świadczy	-0.025466505
-3.8588421	przewrotach	-0.025466505
-3.8588421	ziemskiej	-0.025466505
-3.8588421	bryły.	-0.025466505
-3.6939383	dziki	-0.025466505
-3.8588421	zamęt!	-0.025466505
-3.8588421	głazami	-0.025466505
-3.8588421	zasłane	-0.025466505
-3.6939383	koryta	-0.025466505
-3.8588421	zdają	-0.025466505
-3.8588421	placem	-0.025466505
-3.6939383	boju,	-0.025466505
-3.6939383	niegdyś	-0.025466505
-3.8588421	walczyły	-0.025466505
-3.8588421	północne	-0.025466505
-3.8588421	groźne	-0.025466505
-3.8588421	bogi	-0.025466505
-3.5848954	krew	-0.025466505
-3.6939383	ofiar	-0.025466505
-3.8588421	piły	-0.025466505
-3.8588421	czary,	-0.025466505
-3.8588421	upadła,	-0.025466505
-3.8588421	rozbita.	-0.025466505
-3.8588421	ostrego	-0.025466505
-3.8588421	tonu	-0.025466505
-3.8588421	nagina:	-0.025466505
-3.8588421	poszarpane	-0.025466505
-3.6939383	gór	-0.025466505
-3.8588421	grzbiety,	-0.025466505
-3.8588421	czernieją,	-0.025466505
-3.8588421	skały,	-0.025466505
-3.8588421	wiszące	-0.025466505
-3.8588421	śniegi,	-0.025466505
-3.8588421	zarośla,	-0.025466505
-3.6939383	mgła	-0.025466505
-3.8588421	sina…	-0.025466505
-3.8588421	surowa	-0.025466505
-3.8588421	wielkość,	-0.025466505
-3.5848954	którą	-0.025466505
-3.8588421	maleją	-0.025466505
-3.8588421	sny	-0.025466505
-3.8588421	staje,	-0.025466505
-3.8588421	mała	-0.025466505
-3.8588421	dziecina,	-0.025466505
-3.8588421	skamieniałą	-0.025466505
-3.8588421	dawnych	-0.025466505
-3.5848954	bogów	-0.025466505
-3.8588421	epopeją!	-0.025466505
-3.8588421	słońce,	-0.025466505
-3.8588421	zachodzie	-0.025466505
-3.6939383	złotą	-0.025466505
-3.8588421	tarczę	-0.025466505
-3.8588421	skłoni,	-0.025466505
-3.8588421	purpurą	-0.025466505
-3.8588421	zdobi	-0.025466505
-3.8588421	korony	-0.025466505
-3.8588421	wierzchnie,	-0.025466505
-3.6939383	tysiąc	-0.025466505
-3.6939383	świateł	-0.025466505
-3.8588421	szczytach	-0.025466505
-3.5848954	goni,	-0.29699942
-3.8588421	zsinieje…	-0.025466505
-3.8588421	ogniem	-0.025466505
-3.8588421	zaświeci…	-0.025466505
-3.8588421	zmierzchnie.	-0.025466505
-3.8588421	jeziora	-0.025466505
-3.8588421	zamąconej	-0.025466505
-3.6939383	toni,	-0.098041505
-3.8588421	odbity	-0.025466505
-3.1174564	blask	-0.025466505
-3.8588421	zakrwawia	-0.025466505
-3.8588421	drżących	-0.025466505
-3.4136183	wód	-0.025466505
-3.8588421	powierzchnię,	-0.025466505
-3.8588421	skrwawionej	-0.025466505
-3.6939383	płaszcz	-0.025466505
-3.6939383	mgły	-0.025466505
-3.8588421	osłoni,	-0.025466505
-3.6939383	ostatni	-0.025466505
-3.8588421	rumieniec	-0.025466505
-3.8588421	wieczoru	-0.025466505
-3.8588421	pierzchnie.	-0.025466505
-3.8588421	zgasło…	-0.025466505
-3.8588421	napełniony	-0.025466505
-3.8588421	mrokiem…	-0.025466505
-3.8588421	olbrzymy	-0.025466505
-3.8588421	majaczeją	-0.025466505
-3.8588421	dali:	-0.025466505
-3.8588421	rosną	-0.025466505
-3.8588421	bezmiar	-0.025466505
-3.8588421	zmieniają	-0.025466505
-3.8588421	okiem…	-0.025466505
-3.8588421	pokryła	-0.025466505
-3.6939383	przepaści	-0.025466505
-3.8588421	szarym	-0.025466505
-3.8588421	obłokiem	-0.025466505
-3.8588421	zniknęło…	-0.025466505
-3.8588421	słychać	-0.025466505
-3.6939383	szum	-0.025466505
-3.5848954	fali,	-0.072478384
-3.8588421	lecący	-0.025466505
-3.8588421	potok	-0.025466505
-3.8588421	wymowniej	-0.025466505
-3.8588421	żali…	-0.025466505
-3.8588421	króluje:	-0.025466505
-3.8588421	kładzie	-0.025466505
-3.8588421	dyadem;	-0.025466505
-3.8588421	błękity	-0.025466505
-3.8588421	przesiąka	-0.025466505
-3.8588421	niepewna	-0.025466505
-3.8588421	drżąca	-0.025466505
-3.8588421	skrytego	-0.025466505
-3.6939383	oczu	-0.025466505
-3.8588421	miesiąca;	-0.025466505
-3.8588421	ulatują	-0.025466505
-3.8588421	śnieżnych	-0.025466505
-3.8588421	chmurek	-0.025466505
-3.8588421	stadem.	-0.025466505
-3.8588421	topnieje	-0.025466505
-3.6939383	świetle	-0.025466505
-3.8588421	niebieskiem	-0.025466505
-3.8588421	bladem	-0.025466505
-3.8588421	otchłanią	-0.025466505
-3.8588421	chwieje	-0.025466505
-3.8588421	wisząca.	-0.025466505
-3.8588421	szczelinę	-0.025466505
-3.6939383	wstał	-0.025466505
-3.8588421	wodospadem,	-0.025466505
-3.8588421	srebro	-0.025466505
-3.8588421	leje	-0.025466505
-3.8588421	przepaść	-0.025466505
-3.8588421	falami	-0.025466505
-3.8588421	strąca.	-0.025466505
-3.8588421	zwolna	-0.025466505
-3.8588421	kotlina	-0.025466505
-3.8588421	śpiących	-0.025466505
-3.8588421	topielą	-0.025466505
-3.8588421	wynurza	-0.025466505
-3.6939383	obraz	-0.025466505
-3.8588421	czarodziejskiej	-0.025466505
-3.8588421	księgi…	-0.025466505
-3.8588421	przeraźliwym	-0.025466505
-3.8588421	odblaskiem	-0.025466505
-3.8588421	bielą,	-0.025466505
-3.6939383	zmarłych	-0.025466505
-3.8588421	śmiertelną	-0.025466505
-3.8588421	pościelą;	-0.025466505
-3.8588421	czarne	-0.025466505
-3.8588421	płomienne	-0.025466505
-3.8588421	rysują	-0.025466505
-3.8588421	pręgi,	-0.025466505
-3.8588421	przypominając	-0.025466505
-3.8588421	piekieł	-0.025466505
-3.8588421	dantejskie	-0.025466505
-3.8588421	okręgi.	-0.025466505
-3.5848954	wielki	-0.025466505
-3.8588421	poemacie	-0.025466505
-3.8588421	natury!	-0.025466505
-3.8588421	któż	-0.025466505
-3.6939383	iść	-0.025466505
-3.4136183	twych	-0.025466505
-3.8588421	piękności	-0.025466505
-3.8588421	natchnieniem	-0.025466505
-3.8588421	wieczystem?	-0.025466505
-3.8588421	uchwyci	-0.025466505
-3.8588421	poranku	-0.025466505
-3.8588421	wzlatującą	-0.025466505
-3.6939383	zorzę	-0.025466505
-3.8588421	zapali	-0.025466505
-3.6939383	rumieńce	-0.025466505
-3.8588421	niebie	-0.025466505
-3.8588421	gwiaździstem?	-0.025466505
-3.8588421	wyrzeźbi	-0.025466505
-3.6939383	kamienne	-0.025466505
-3.8588421	wodospadu	-0.025466505
-3.8588421	łoże?	-0.025466505
-3.8588421	przemówi	-0.025466505
-3.6939383	szumem	-0.025466505
-3.8588421	wichru	-0.025466505
-3.8588421	dzikim	-0.025466505
-3.8588421	świstem?	-0.025466505
-3.8588421	srebrne	-0.025466505
-3.8588421	chmurki	-0.025466505
-3.8588421	zawiesi	-0.025466505
-3.8588421	szafirów	-0.025466505
-3.8588421	przestworze	-0.025466505
-3.8588421	odbije	-0.025466505
-3.8588421	ostrza	-0.025466505
-3.8588421	zwierciadle	-0.025466505
-3.8588421	czystem?	-0.025466505
-3.8588421	poemacie!	-0.025466505
-3.8588421	odczuć	-0.025466505
-3.8588421	wielbić	-0.025466505
-3.8588421	drgnieniu	-0.025466505
-3.6939383	skrytem,	-0.025466505
-3.8588421	pijąc	-0.025466505
-3.8588421	źrenica	-0.025466505
-3.8588421	pobożna	-0.025466505
-3.6939383	cichym	-0.025466505
-3.8588421	zachwycie	-0.025466505
-3.8588421	tryśnie	-0.025466505
-3.8588421	źródłem	-0.025466505
-3.8588421	obfitem,	-0.025466505
-3.8588421	skrzydłach	-0.025466505
-3.6939383	leci	-0.025466505
-3.8588421	trwożna	-0.025466505
-3.8588421	nakrywa	-0.025466505
-3.8588421	błękitem.	-0.025466505
-3.8588421	persnamegdy	-0.025466505
-3.8588421	gościł	-0.025466505
-3.8588421	źle	-0.025466505
-3.8588421	gościnie	-0.025466505
-3.8588421	serca,	-0.025466505
-3.8588421	zgubiło.	-0.025466505
-3.8588421	harfa	-0.025466505
-3.8588421	eolska,	-0.025466505
-3.8588421	powiewem,	-0.025466505
-3.8588421	miotany	-0.025466505
-3.8588421	miłością,	-0.025466505
-3.8588421	bolem	-0.025466505
-3.8588421	gniewem.	-0.025466505
-3.5848954	piękna	-0.025466505
-3.8588421	kochanek,	-0.025466505
-3.8588421	czciciel	-0.025466505
-3.6939383	czynu,	-0.098041505
-3.8588421	marzył	-0.025466505
-3.8588421	duchach	-0.025466505
-3.8588421	niezłomnych	-0.025466505
-3.8588421	szukał	-0.025466505
-3.8588421	gminu.	-0.025466505
-3.8588421	bratnie	-0.025466505
-3.8588421	podawał	-0.025466505
-3.6939383	dłonie,	-0.098041505
-3.8588421	wierzył,	-0.025466505
-3.6939383	pójdą	-0.025466505
-3.8588421	zbratani	-0.025466505
-3.8588421	wielkością	-0.025466505
-3.8588421	celu,	-0.025466505
-3.8588421	spojeni	-0.025466505
-3.8588421	żelazem.	-0.025466505
-3.8588421	anioła	-0.025466505
-3.8588421	widział	-0.025466505
-3.8588421	kobiecie,	-0.025466505
-3.8588421	rozdarła,	-0.025466505
-3.8588421	bracia?	-0.025466505
-3.8588421	zawiedli,	-0.025466505
-3.8588421	ziemska	-0.025466505
-3.8588421	umarła.	-0.025466505
-3.6939383	kraj	-0.025466505
-3.8588421	miłował	-0.025466505
-3.8588421	rodzinny	-0.025466505
-3.8588421	tęsknem	-0.025466505
-3.5848954	uczuciem	-0.025466505
-3.8588421	sieroty,	-0.025466505
-3.8588421	wierzył	-0.025466505
-3.8588421	zwycięstwo	-0.025466505
-3.6939383	ducha,	-0.098041505
-3.6939383	wolności	-0.025466505
-3.8588421	cnoty;	-0.025466505
-3.8588421	szlachetny	-0.025466505
-3.8588421	znajdzie	-0.025466505
-3.6939383	synu	-0.025466505
-3.4136183	bohatera.	-0.42193812
-3.8588421	rozwiane	-0.025466505
-3.8588421	mary,	-0.025466505
-3.8588421	strasznego	-0.025466505
-3.8588421	rozbicia	-0.025466505
-3.8588421	świadek	-0.025466505
-3.8588421	ostatniej	-0.025466505
-3.8588421	pozbył	-0.025466505
-3.8588421	wiary;	-0.025466505
-3.8588421	chociaż	-0.025466505
-3.6939383	uszedł	-0.025466505
-3.8588421	wrogiem,	-0.025466505
-3.8588421	potwarzy	-0.025466505
-3.8588421	ciosu,	-0.025466505
-3.8588421	kim	-0.025466505
-3.8588421	podzielić	-0.025466505
-3.6939383	goryczą	-0.025466505
-3.6939383	swojego	-0.025466505
-3.8588421	losu.	-0.025466505
-3.8588421	błądził	-0.025466505
-3.8588421	obcych	-0.025466505
-3.8588421	nieznany,	-0.025466505
-3.8588421	samotny	-0.025466505
-3.8588421	człowiek,	-0.025466505
-3.8588421	umarł	-0.025466505
-3.8588421	zdala	-0.025466505
-3.8588421	swoich,	-0.025466505
-3.8588421	zamknął	-0.025466505
-3.8588421	powiek,	-0.025466505
-3.8588421	wspomni,	-0.025466505
-3.8588421	garścią	-0.025466505
-3.8588421	popiołów,	-0.025466505
-3.8588421	twarda	-0.025466505
-3.8588421	wygnania	-0.025466505
-3.5848954	sercu	-0.025466505
-3.8588421	ołów.	-0.025466505
-3.8588421	proste	-0.025466505
-3.8588421	wierzące	-0.025466505
-3.8588421	słodyczą	-0.025466505
-3.8588421	gołębią,	-0.025466505
-3.8588421	przetrwawszy	-0.025466505
-3.8588421	losu	-0.025466505
-3.8588421	chłostę,	-0.025466505
-3.5848954	pragnień	-0.025466505
-3.8588421	wyziębią	-0.025466505
-3.8588421	niemi	-0.025466505
-3.6939383	miota,	-0.098041505
-3.8588421	widzą	-0.025466505
-3.8588421	piękno	-0.025466505
-3.8588421	dobro	-0.025466505
-3.8588421	żywota.	-0.025466505
-3.6939383	placename,	-0.025466505
-3.8588421	d.	-0.025466505
-3.8588421	odrodzenia	-0.025466505
-3.8588421	wielką	-0.025466505
-3.8588421	rocznicę	-0.025466505
-3.8588421	święci,	-0.025466505
-3.8588421	pieśniarz,	-0.025466505
-3.6939383	idę	-0.025466505
-3.8588421	gości	-0.025466505
-3.8588421	oddać	-0.025466505
-3.8588421	hołd	-0.025466505
-3.8588421	wieszcza	-0.025466505
-3.6939383	waszego	-0.025466505
-3.8588421	cichem	-0.025466505
-3.8588421	święcie	-0.025466505
-3.8588421	jedności	-0.025466505
-3.8588421	sercem	-0.025466505
-3.8588421	pospołu	-0.025466505
-3.6939383	uczcie	-0.025466505
-3.8588421	duchów,	-0.025466505
-3.8588421	wspólnego	-0.025466505
-3.8588421	stołu.	-0.025466505
-3.8588421	bohaterem,	-0.025466505
-3.8588421	bój	-0.025466505
-3.8588421	bezkrwawy	-0.025466505
-3.8588421	prowadził	-0.025466505
-3.8588421	naród,	-0.025466505
-3.8588421	życia,	-0.025466505
-3.8588421	uśpionej,	-0.025466505
-3.8588421	pięknej	-0.025466505
-3.8588421	córki	-0.025466505
-3.8588421	zbutwiałe	-0.025466505
-3.8588421	spowicia,	-0.025466505
-3.8588421	pokorą	-0.025466505
-3.8588421	uginam	-0.025466505
-3.8588421	kolano,	-0.025466505
-3.8588421	wpatrzony	-0.025466505
-3.8588421	geniuszu	-0.025466505
-3.8588421	świetlaną.	-0.025466505
-3.8588421	wodzem,	-0.025466505
-3.6939383	wówczas	-0.025466505
-3.8588421	stał	-0.025466505
-3.6939383	niewoli	-0.025466505
-3.8588421	ćmił	-0.025466505
-3.8588421	ludu	-0.025466505
-3.6939383	wszędzie,	-0.098041505
-3.8588421	podjął	-0.025466505
-3.8588421	cmentarzy,	-0.025466505
-3.8588421	kształcił	-0.025466505
-3.8588421	śpiewne	-0.025466505
-3.8588421	języka	-0.025466505
-3.6939383	narzędzie,	-0.098041505
-3.8588421	ojcem	-0.025466505
-3.2911067	pieśni	-0.025466505
-3.8588421	wiodącej	-0.025466505
-3.8588421	imieniu	-0.025466505
-3.8588421	składam	-0.025466505
-3.6939383	liść	-0.025466505
-3.8588421	wawrzynu.	-0.025466505
-3.8588421	bliższym	-0.025466505
-3.8588421	skupia,	-0.025466505
-3.8588421	rozprzęga,	-0.025466505
-3.8588421	droższym,	-0.025466505
-3.8588421	wskrzesza,	-0.025466505
-3.8588421	uśmierca,	-0.025466505
-3.8588421	władców	-0.025466505
-3.8588421	światowych	-0.025466505
-3.6939383	potęga,	-0.098041505
-3.8588421	chwała	-0.025466505
-3.8588421	równać	-0.025466505
-3.8588421	tą,	-0.025466505
-3.6939383	ludowi	-0.025466505
-3.8588421	zorzę.	-0.025466505
-3.6939383	cześć	-0.025466505
-3.8588421	śpiewakowi,	-0.025466505
-3.8588421	śnie	-0.025466505
-3.8588421	proroczym	-0.025466505
-3.8588421	czuł,	-0.025466505
-3.8588421	letargu	-0.025466505
-3.8588421	wskrzesi!	-0.025466505
-3.8588421	hetmanowi,	-0.025466505
-3.8588421	kroczym	-0.025466505
-3.8588421	odrodzeniu	-0.025466505
-3.6939383	bracia	-0.025466505
-3.8588421	torturę,	-0.025466505
-3.8588421	oswobodzić	-0.025466505
-3.8588421	piękną	-0.025466505
-3.5848954	sławy	-0.025466505
-3.8588421	córę.	-0.025466505
-3.8588421	córko	-0.025466505
-3.8588421	sławy!	-0.025466505
-3.8588421	zostań	-0.025466505
-3.8588421	wierną	-0.025466505
-3.8588421	sławie,	-0.025466505
-3.8588421	nieskalanej	-0.025466505
-3.8588421	cudzą:	-0.025466505
-3.8588421	rządzące	-0.025466505
-3.8588421	zwycięsko	-0.025466505
-3.6939383	bezprawie,	-0.025466505
-3.8588421	wszechwładztwa	-0.025466505
-3.6939383	pokusy	-0.025466505
-3.8588421	łudzą.	-0.025466505
-3.8588421	szukaj	-0.025466505
-3.5848954	natchnienia	-0.025466505
-3.6939383	sił	-0.025466505
-3.8588421	przeszłości,	-0.025466505
-3.8588421	żyje	-0.025466505
-3.8588421	grobie!	-0.025466505
-3.8588421	idź	-0.025466505
-3.8588421	raczej	-0.025466505
-3.6939383	tymi,	-0.025466505
-3.8588421	cierpią	-0.025466505
-3.8588421	walczą,	-0.025466505
-3.8588421	chcąc	-0.025466505
-3.6939383	zatracić	-0.025466505
-3.8588421	samobójczo	-0.025466505
-3.8588421	stać	-0.025466505
-3.8588421	tłuszczą	-0.025466505
-3.8588421	helotów	-0.025466505
-3.8588421	służalczą,	-0.025466505
-3.8588421	zapadnie	-0.025466505
-3.8588421	głucha:	-0.025466505
-3.8588421	olbrzymem,	-0.025466505
-3.8588421	krocząc	-0.025466505
-3.8588421	zuchwały	-0.025466505
-3.8588421	depcze	-0.025466505
-3.8588421	ideały.	-0.025466505
-3.8588421	przyjdzie	-0.025466505
-3.6939383	czas,	-0.025466505
-3.8588421	wypełnią	-0.025466505
-3.8588421	zmienionej	-0.025466505
-3.8588421	piewcy	-0.025466505
-3.8588421	wieszcze	-0.025466505
-3.8588421	świętej	-0.025466505
-3.8588421	zgodzie	-0.025466505
-3.8588421	braci.	-0.025466505
-3.8588421	urzeczywistni:	-0.025466505
-3.8588421	objęcia	-0.025466505
-3.8588421	padną	-0.025466505
-3.8588421	nienawistni!	-0.025466505
-3.8588421	prąd	-0.025466505
-3.8588421	duchowy,	-0.025466505
-3.8588421	kajdany	-0.025466505
-3.8588421	usamowolni,	-0.025466505
-3.8588421	staniemy	-0.025466505
-3.8588421	ramienia	-0.025466505
-3.8588421	ramię,	-0.025466505
-3.8588421	równi	-0.025466505
-3.8588421	równymi	-0.025466505
-3.8588421	wolnymi	-0.025466505
-3.8588421	wolni!	-0.025466505
-3.8588421	silna,	-0.025466505
-3.8588421	młoda,	-0.025466505
-3.8588421	bratniej	-0.025466505
-3.8588421	poda.	-0.025466505
-3.8588421	persnameniechaj	-0.025466505
-3.8588421	pracownik	-0.025466505
-3.8588421	żali	-0.025466505
-3.8588421	cichy,	-0.025466505
-3.5848954	ziarno	-0.072478384
-3.6939383	rzucając	-0.025466505
-3.8588421	świeże,	-0.025466505
-3.8588421	oklaskach	-0.025466505
-3.6939383	tłumu	-0.025466505
-3.6939383	pychy	-0.025466505
-3.8588421	głośnej	-0.025466505
-3.8588421	zapłaty	-0.025466505
-3.8588421	bierze.	-0.025466505
-3.8588421	rozgłos	-0.025466505
-3.8588421	sława	-0.025466505
-3.8588421	przemija	-0.025466505
-3.6939383	marnie,	-0.098041505
-3.8588421	tuman	-0.025466505
-3.8588421	pyłu,	-0.025466505
-3.8588421	wicher	-0.025466505
-3.8588421	kręci…	-0.025466505
-3.5848954	nagle	-0.025466505
-3.4136183	widnokrąg	-0.025466505
-3.8588421	ogarnie,	-0.025466505
-3.8588421	znikając	-0.025466505
-3.8588421	oczu,	-0.025466505
-3.8588421	pamięci.	-0.025466505
-3.8588421	opada	-0.025466505
-3.2911067	fala	-0.025466505
-3.8588421	uwielbieniem	-0.025466505
-3.6939383	wrząca,	-0.098041505
-3.8588421	wyniosła	-0.025466505
-3.6939383	krótkiej	-0.025466505
-3.6939383	grzebie	-0.025466505
-3.8588421	żywcem	-0.025466505
-3.8588421	zapomnienia	-0.025466505
-3.8588421	dźwięk	-0.025466505
-3.8588421	głuchnie,	-0.025466505
-3.8588421	zgłuszą	-0.025466505
-3.8588421	nowi	-0.025466505
-3.8588421	ulubieńce,	-0.025466505
-3.8588421	rozsypią	-0.025466505
-3.8588421	próchnie	-0.025466505
-3.8588421	oznaki	-0.025466505
-3.8588421	hołdów	-0.025466505
-3.8588421	laurowe	-0.025466505
-3.8588421	wieńce.	-0.025466505
-3.8588421	zginą	-0.025466505
-3.8588421	prądów	-0.025466505
-3.8588421	zawiśli	-0.025466505
-3.6939383	widmem	-0.025466505
-3.8588421	goniący	-0.025466505
-3.8588421	sztukmistrze,	-0.025466505
-3.8588421	zaginie	-0.025466505
-3.8588421	siew	-0.025466505
-3.8588421	przepadną	-0.025466505
-3.8588421	najczystsze.	-0.025466505
-3.8588421	pracownika	-0.025466505
-3.6939383	otoczy	-0.025466505
-3.8588421	wyrosną	-0.025466505
-3.8588421	cmentarnej	-0.025466505
-3.8588421	grzędzie,	-0.025466505
-3.8588421	nieśmiertelna	-0.025466505
-3.8588421	cząstka	-0.025466505
-3.6939383	ducha	-0.098041505
-3.8588421	późniejszych	-0.025466505
-3.6939383	czasów	-0.025466505
-3.8588421	dążenia	-0.025466505
-3.8588421	czyny,	-0.025466505
-3.8588421	nieświadomie	-0.025466505
-3.8588421	zeń	-0.025466505
-3.6939383	wiodą,	-0.098041505
-3.8588421	niewiędnące	-0.025466505
-3.8588421	wawrzyny,	-0.025466505
-3.8588421	nagrodą!	-0.025466505
-3.8588421	czasy,	-0.025466505
-3.6939383	obszar	-0.025466505
-3.8588421	daleki,	-0.025466505
-3.8588421	wiążą	-0.025466505
-3.8588421	kolejne	-0.025466505
-3.8588421	ogniwa;	-0.025466505
-3.8588421	pokoleń,	-0.025466505
-3.8588421	rzeki,	-0.025466505
-3.8588421	wspólny	-0.025466505
-3.8588421	spływa,	-0.025466505
-3.8588421	zasila	-0.025466505
-3.8588421	dalsze	-0.025466505
-3.6939383	wieki…	-0.098041505
-3.6939383	zniknionych	-0.025466505
-3.8588421	żywa,	-0.025466505
-3.8588421	strumienie,	-0.025466505
-3.8588421	mieszają	-0.025466505
-3.8588421	ścieki	-0.025466505
-3.8588421	drugą	-0.025466505
-3.8588421	porywa.	-0.025466505
-3.8588421	związani	-0.025466505
-3.8588421	macierzą:	-0.025466505
-3.8588421	umarli,	-0.025466505
-3.8588421	żywi,	-0.025466505
-3.8588421	wielcy,	-0.025466505
-3.8588421	mali,	-0.025466505
-3.8588421	wrogowie,	-0.025466505
-3.8588421	bracia,	-0.025466505
-3.8588421	dalecy	-0.025466505
-3.8588421	blizcy,	-0.025466505
-3.8588421	jedni	-0.025466505
-3.8588421	nawzajem	-0.025466505
-3.8588421	zależą,	-0.025466505
-3.8588421	odpowiadając,	-0.025466505
-3.8588421	wypadków	-0.025466505
-3.8588421	każdego	-0.025466505
-3.8588421	żale	-0.025466505
-3.8588421	daremne	-0.025466505
-3.6939383	żale,	-0.025466505
-3.6939383	próżny	-0.025466505
-3.8588421	trud,	-0.025466505
-3.8588421	bezsilne	-0.025466505
-3.8588421	złorzeczenia!	-0.025466505
-3.8588421	przeżytych	-0.025466505
-3.8588421	kształtów	-0.025466505
-3.8588421	cud	-0.025466505
-3.8588421	wróci	-0.025466505
-3.8588421	istnienia.	-0.025466505
-3.8588421	odda,	-0.025466505
-3.8588421	wstecz,	-0.025466505
-3.8588421	mar	-0.025466505
-3.8588421	szeregu:	-0.025466505
-3.6939383	zdoła	-0.025466505
-3.4136183	miecz	-0.025466505
-3.8588421	powstrzymać	-0.025466505
-3.8588421	biegu.	-0.025466505
-3.6939383	naprzód	-0.025466505
-3.8588421	iść,	-0.025466505
-3.8588421	sięgać	-0.025466505
-3.8588421	nowe:	-0.025466505
-3.8588421	uwiędłych	-0.025466505
-3.8588421	laurów	-0.025466505
-3.8588421	uporem	-0.025466505
-3.8588421	stroić	-0.025466505
-3.8588421	głowę!	-0.025466505
-3.8588421	cofniecie	-0.025466505
-3.8588421	fal!	-0.025466505
-3.8588421	pomogą!	-0.025466505
-3.8588421	gniewy,	-0.025466505
-3.8588421	żal!	-0.025466505
-3.8588421	pójdzie	-0.025466505
-3.8588421	drogą.	-0.025466505
-3.8588421	otaczają	-0.025466505
-3.8588421	zacieśnionej	-0.025466505
-3.8588421	zatrzymując	-0.025466505
-3.6939383	sieci,	-0.098041505
-3.8588421	sięga	-0.025466505
-3.4136183	drogi	-0.025466505
-3.8588421	krawędzie	-0.025466505
-3.8588421	dzieci.	-0.025466505
-3.8588421	drodze	-0.025466505
-3.8588421	roznieci,	-0.025466505
-3.8588421	szerszy	-0.025466505
-3.8588421	posiędzie,	-0.025466505
-3.8588421	miejsca,	-0.025466505
-3.8588421	oświeci,	-0.025466505
-3.6939383	większą	-0.025466505
-3.8588421	blaskiem	-0.025466505
-3.8588421	zdobytej	-0.025466505
-3.8588421	miarę	-0.025466505
-3.6939383	widzeń	-0.025466505
-3.6939383	krąg	-0.025466505
-3.8588421	mroków	-0.025466505
-3.8588421	nieprzebytych	-0.025466505
-3.6939383	rośnie…	-0.025466505
-3.8588421	dostrzedz	-0.025466505
-3.8588421	możemy,	-0.025466505
-3.8588421	nieznanem,	-0.025466505
-3.8588421	tajemniczem,	-0.025466505
-3.8588421	zasłania	-0.025466505
-3.8588421	zazdrośnie.	-0.025466505
-3.8588421	date,	-0.025466505
-3.8588421	grzesznych	-0.025466505
-3.8588421	braci	-0.025466505
-3.8588421	koła,	-0.025466505
-3.6939383	prawa	-0.025466505
-3.8588421	zdeptawszy	-0.025466505
-3.8588421	niegodnie,	-0.025466505
-3.8588421	rozpali	-0.025466505
-3.8588421	pożarów	-0.025466505
-3.8588421	pochodnię,	-0.025466505
-3.8588421	widziadło	-0.025466505
-3.6939383	mordów	-0.025466505
-3.8588421	przywoła	-0.025466505
-3.8588421	zaćmi	-0.025466505
-3.6939383	narodów	-0.025466505
-3.8588421	przewodnie,	-0.025466505
-3.8588421	klęską	-0.025466505
-3.8588421	dobrego	-0.025466505
-3.5848954	anioła,	-0.29699942
-3.8588421	chyląc	-0.025466505
-3.6939383	kornie	-0.025466505
-3.8588421	czoła,	-0.025466505
-3.8588421	winna	-0.025466505
-3.8588421	syna	-0.025466505
-3.8588421	pokutować	-0.025466505
-3.8588421	zbrodnie;	-0.025466505
-3.8588421	obchodzić	-0.025466505
-3.6939383	łzach	-0.025466505
-3.8588421	żałobie	-0.025466505
-3.8588421	grzech,	-0.025466505
-3.8588421	klątwą	-0.025466505
-3.8588421	obarczy	-0.025466505
-3.8588421	zwróci	-0.025466505
-3.8588421	jaśniejszej	-0.025466505
-3.8588421	dobie…	-0.025466505
-3.8588421	szukać	-0.025466505
-3.8588421	złemu	-0.025466505
-3.8588421	tarczy,	-0.025466505
-3.8588421	potęgując	-0.025466505
-3.8588421	miłość,	-0.025466505
-3.8588421	zbawienia	-0.025466505
-3.8588421	dostarczy.	-0.025466505
-3.8588421	zniszczeń,	-0.025466505
-3.8588421	ująłem	-0.025466505
-3.8588421	rzuciłem	-0.025466505
-3.8588421	ostry	-0.025466505
-3.8588421	szepnąłem	-0.025466505
-3.8588421	monarchom	-0.025466505
-3.8588421	siedzącym	-0.025466505
-3.8588421	tronie:	-0.025466505
-3.8588421	«czas	-0.025466505
-3.6939383	pokazać!	-0.025466505
-3.8588421	wycisnąć	-0.025466505
-3.8588421	zdoła?	-0.025466505
-3.8588421	krwawym	-0.025466505
-3.8588421	zagonie	-0.025466505
-3.8588421	położy	-0.025466505
-3.8588421	ludzkich?	-0.025466505
-3.8588421	sioła	-0.025466505
-3.8588421	poburzy	-0.025466505
-3.8588421	mściwą	-0.025466505
-3.8588421	ręką?	-0.025466505
-3.8588421	koronie	-0.025466505
-3.8588421	przysporzy	-0.025466505
-3.8588421	zdjęty	-0.025466505
-3.8588421	przeciwnika	-0.025466505
-3.8588421	czoła?	-0.025466505
-3.8588421	zrobi,	-0.025466505
-3.8588421	ręku	-0.025466505
-3.5848954	mógł	-0.025466505
-3.6939383	deptać	-0.025466505
-3.8588421	zabawy,	-0.025466505
-3.8588421	hekatomby	-0.025466505
-3.5848954	trupów	-0.025466505
-3.8588421	żyjących	-0.025466505
-3.8588421	jęku	-0.025466505
-3.8588421	wzniesie	-0.025466505
-3.8588421	pomnik	-0.025466505
-3.8588421	wiekopomnej	-0.025466505
-3.8588421	sławy;	-0.025466505
-3.8588421	monarchowie	-0.025466505
-3.8588421	przyjdą	-0.025466505
-3.8588421	położą	-0.025466505
-3.6939383	głowy	-0.025466505
-3.8588421	liktorskim	-0.025466505
-3.8588421	pęku».	-0.025466505
-3.8588421	nieprzerwalności	-0.025466505
-3.8588421	zbiorowego	-0.025466505
-3.4136183	bytu	-0.025466505
-3.8588421	współistnienia	-0.025466505
-3.8588421	wieczystego	-0.025466505
-3.8588421	świadom,	-0.025466505
-3.8588421	spokojem,	-0.025466505
-3.8588421	błękitu,	-0.025466505
-3.8588421	pochodu	-0.025466505
-3.8588421	przyglądać	-0.025466505
-3.8588421	śladom:	-0.025466505
-3.8588421	cząstkowym	-0.025466505
-3.8588421	zgonom,	-0.025466505
-3.8588421	pozornym	-0.025466505
-3.8588421	zagładom,	-0.025466505
-3.8588421	burzliwej	-0.025466505
-3.8588421	ciemnemu	-0.025466505
-3.8588421	korytu,	-0.025466505
-3.8588421	lecącym	-0.025466505
-3.8588421	stuleci	-0.025466505
-3.8588421	kaskadom,	-0.025466505
-3.8588421	pomrokom	-0.025466505
-3.8588421	jutrzenkom	-0.025466505
-3.8588421	świtu.	-0.025466505
-3.8588421	wydrze	-0.025466505
-3.8588421	błogiego	-0.025466505
-3.8588421	spokoju,	-0.025466505
-3.6939383	ziemskich	-0.025466505
-3.6939383	męczarni	-0.025466505
-3.8588421	małoduszna	-0.025466505
-3.8588421	trwoga,	-0.025466505
-3.8588421	wprawi	-0.025466505
-3.8588421	zamęt	-0.025466505
-3.6939383	klęski	-0.025466505
-3.8588421	złowroga;	-0.025466505
-3.8588421	widnieje	-0.025466505
-3.8588421	pewna	-0.025466505
-3.8588421	droga,	-0.025466505
-3.8588421	stopniem	-0.025466505
-3.8588421	wyższego	-0.025466505
-3.8588421	rozwoju.	-0.025466505
-3.5848954	dnia	-0.025466505
-3.8588421	słoneczność,	-0.025466505
-3.8588421	tchnienie,	-0.025466505
-3.8588421	morza	-0.025466505
-3.8588421	piany	-0.025466505
-3.8588421	błękity,	-0.025466505
-3.8588421	zlały	-0.025466505
-3.8588421	widzenie:	-0.025466505
-3.8588421	cudną	-0.025466505
-3.8588421	wymarzona	-0.025466505
-3.8588421	boska,	-0.025466505
-3.6939383	wpół	-0.025466505
-3.8588421	kobieca,	-0.025466505
-3.8588421	dała,	-0.025466505
-3.8588421	nieśmiertelną	-0.025466505
-3.8588421	wznieca.	-0.025466505
-3.8588421	miłosnych	-0.025466505
-3.6939383	siła	-0.025466505
-3.8588421	zwycięskiej	-0.025466505
-3.8588421	dążąc	-0.025466505
-3.6939383	chwale,	-0.098041505
-3.8588421	biegu	-0.025466505
-3.4136183	swoim	-0.025466505
-3.8588421	potrąciła	-0.025466505
-3.8588421	różnorodnych	-0.025466505
-3.6939383	fale.	-0.098041505
-3.8588421	duże	-0.025466505
-3.8588421	zataczając,	-0.025466505
-3.8588421	wzbiera…	-0.025466505
-3.8588421	kochanków	-0.025466505
-3.8588421	mirt	-0.025466505
-3.6939383	laur	-0.025466505
-3.8588421	zamienia	-0.025466505
-3.8588421	rozkoszy,	-0.025466505
-3.8588421	miłosny,	-0.025466505
-3.8588421	jedne	-0.025466505
-3.8588421	prześnią	-0.025466505
-3.8588421	wraca	-0.025466505
-3.8588421	wdziękiem	-0.025466505
-3.8588421	wiosny,	-0.025466505
-3.8588421	blaskiem,	-0.025466505
-3.8588421	wonią,	-0.025466505
-3.8588421	barwą,	-0.025466505
-3.8588421	pieśnią!	-0.025466505
-3.8588421	zawiedzionych	-0.025466505
-3.8588421	tęsknota,	-0.025466505
-3.8588421	piękność,	-0.025466505
-3.8588421	ciałem	-0.025466505
-3.8588421	dniach	-0.025466505
-3.6939383	żywota,	-0.098041505
-3.8588421	czynie.	-0.025466505
-3.8588421	czynem	-0.025466505
-3.8588421	wczora,	-0.025466505
-3.5848954	nowa	-0.072478384
-3.8588421	błyśnie	-0.025466505
-3.8588421	pora,	-0.025466505
-3.8588421	zmieniać	-0.025466505
-3.8588421	xxii	-0.025466505
-3.8588421	wyżej!	-0.025466505
-3.6939383	męczarnie,	-0.098041505
-3.8588421	otchłań,	-0.025466505
-3.8588421	podwoje,	-0.025466505
-3.5848954	szereg	-0.025466505
-3.8588421	padających	-0.025466505
-3.8588421	lecą	-0.025466505
-3.8588421	końca	-0.025466505
-3.8588421	tłoczące	-0.025466505
-3.8588421	roje.	-0.025466505
-3.8588421	senne	-0.025466505
-3.8588421	zarodki,	-0.025466505
-3.8588421	tkwiące	-0.025466505
-3.8588421	swojem	-0.025466505
-3.8588421	ziarnie,	-0.025466505
-3.8588421	głazy	-0.025466505
-3.8588421	zakute	-0.025466505
-3.8588421	bezwładności	-0.025466505
-3.6939383	zbroję,	-0.098041505
-3.8588421	czekają	-0.025466505
-3.8588421	tęsknie	-0.025466505
-3.8588421	zbudzenie	-0.025466505
-3.8588421	dreszcz	-0.025466505
-3.8588421	przejmie	-0.025466505
-3.8588421	ogarnie.	-0.025466505
-3.8588421	gwiaździste	-0.025466505
-3.8588421	ogromy,	-0.025466505
-3.8588421	przyśpieszonym	-0.025466505
-3.8588421	ruchem,	-0.025466505
-3.8588421	bezwiedne	-0.025466505
-3.8588421	atomy…	-0.025466505
-3.8588421	martwem	-0.025466505
-3.8588421	głuchem,	-0.025466505
-3.6939383	rzuca	-0.025466505
-3.8588421	świadomy,	-0.025466505
-3.8588421	duchem.	-0.025466505
-3.8588421	serca…]	-0.025466505
-3.8588421	jednego	-0.025466505
-3.8588421	serca!	-0.025466505
-3.8588421	ziemi!	-0.025466505
-3.8588421	coby	-0.025466505
-3.8588421	mojem	-0.025466505
-3.8588421	zadrżało,	-0.025466505
-3.8588421	byłbym	-0.025466505
-3.6939383	pomiędzy	-0.025466505
-3.8588421	cichemi.	-0.025466505
-3.8588421	jednych	-0.025466505
-3.5848954	ust	-0.025466505
-3.8588421	skądbym	-0.025466505
-3.6939383	wieczność	-0.098041505
-3.8588421	pił	-0.025466505
-3.8588421	napój	-0.025466505
-3.8588421	ustami	-0.025466505
-3.8588421	mojemi,	-0.025466505
-3.8588421	gdziebym	-0.025466505
-3.8588421	patrzał	-0.025466505
-3.8588421	śmiało,	-0.025466505
-3.8588421	świętym	-0.025466505
-3.8588421	świętemi.	-0.025466505
-3.6939383	rąk	-0.025466505
-3.8588421	białych	-0.025466505
-3.8588421	zasłoniły	-0.025466505
-3.8588421	zasnął	-0.025466505
-3.8588421	słodko,	-0.025466505
-3.8588421	aniele,	-0.025466505
-3.6939383	objęciach	-0.025466505
-3.8588421	nieba;	-0.025466505
-3.8588421	widzę,	-0.025466505
-3.6939383	żądam	-0.025466505
-3.8588421	żegnał…]	-0.025466505
-3.8588421	milczały	-0.025466505
-3.8588421	wiedziałem	-0.025466505
-3.8588421	rzucić,	-0.025466505
-3.8588421	boleśnie,	-0.025466505
-3.6939383	żem	-0.025466505
-3.8588421	odszedł	-0.025466505
-3.8588421	echa,	-0.025466505
-3.8588421	lepiej,	-0.025466505
-3.8588421	żadnem	-0.025466505
-3.8588421	wspomnieniem	-0.025466505
-3.8588421	spokoju	-0.025466505
-3.8588421	skłócę,	-0.025466505
-3.8588421	uśmiecha,	-0.025466505
-3.8588421	gasnącym	-0.025466505
-3.8588421	żegnam	-0.025466505
-3.8588421	promieniem	-0.025466505
-3.8588421	powrócę.	-0.025466505
-3.8588421	sokołów	-0.025466505
-3.8588421	lotu,	-0.025466505
-3.8588421	sokoły!	-0.025466505
-3.8588421	rozwińcie	-0.025466505
-3.8588421	skrzydlate	-0.025466505
-3.6939383	hufce,	-0.098041505
-3.8588421	jutrzenki	-0.025466505
-3.8588421	wesoły,	-0.025466505
-3.8588421	dążcie	-0.025466505
-3.8588421	wędrówce,	-0.025466505
-3.8588421	ciał	-0.025466505
-3.8588421	rozkwitu,	-0.025466505
-3.8588421	pełni	-0.025466505
-3.6939383	ludzkiego	-0.025466505
-3.8588421	bytu!	-0.025466505
-3.8588421	zatoczcie	-0.025466505
-3.6939383	naszą	-0.025466505
-3.8588421	ziemią	-0.025466505
-3.6939383	słonecznych	-0.025466505
-3.8588421	polotów	-0.025466505
-3.8588421	kręgi,	-0.025466505
-3.8588421	budźcie	-0.025466505
-3.8588421	drzemią,	-0.025466505
-3.8588421	hasłem	-0.025466505
-3.8588421	wskrzeszonej	-0.025466505
-3.6939383	potęgi,	-0.098041505
-3.8588421	tchnijcie	-0.025466505
-3.6939383	ożywcze	-0.025466505
-3.8588421	moce	-0.025466505
-3.8588421	dziedzictwo	-0.025466505
-3.8588421	sieroce.	-0.025466505
-3.8588421	szlachetnej	-0.025466505
-3.8588421	dumy	-0.025466505
-3.8588421	prowadźcie,	-0.025466505
-3.8588421	przewodnicy!	-0.025466505
-3.8588421	zwątlone,	-0.025466505
-3.8588421	skarlałe	-0.025466505
-3.8588421	tłumy	-0.025466505
-3.8588421	czystej	-0.025466505
-3.8588421	krynicy,	-0.025466505
-3.6939383	rzesze	-0.025466505
-3.8588421	napiły	-0.025466505
-3.6939383	źródeł	-0.025466505
-3.8588421	siły.	-0.025466505
-3.8588421	potężnieją	-0.025466505
-3.8588421	ramiona!	-0.025466505
-3.8588421	rozrasta	-0.025466505
-3.8588421	szeroko	-0.025466505
