\data\
ngram 1=4674
ngram 2=7531
ngram 3=6312
ngram 4=4514
ngram 5=2731
ngram 6=1206

\1-grams:
-3.9178987	<unk>	0
0	<s>	-0.62208235
-0.66728026	</s>	0
-2.8270872	persname	-0.02871113
-3.8389673	głębiami	-0.027356101
-3.8389673	xxvi	-0.027356101
-3.8389673	pierwotną	-0.027356101
-3.8389673	białość	-0.027356101
-3.6830227	słonecznych	-0.027356101
-3.8389673	promieni	-0.027356101
-3.8389673	ziemski	-0.027356101
-3.3697894	widnokrąg	-0.027356101
-3.8389673	rozszczepia	-0.027356101
-3.8389673	łamie	-0.027356101
-3.8389673	chmurach,	-0.027356101
-3.6830227	tęczy	-0.027356101
-3.8389673	różnobarwnej	-0.027356101
-3.8389673	bramie,	-0.027356101
-3.5316496	fala	-0.027356101
-3.5316496	światła	-0.027356101
-3.8389673	mieni	-0.027356101
-3.8389673	błękitach	-0.027356101
-3.6830227	morza,	-0.027356101
-3.6830227	żywej	-0.027356101
-3.5316496	łąk	-0.027356101
-3.6830227	zieleni,	-0.079779014
-3.8389673	złocistych	-0.027356101
-3.8389673	łanach	-0.027356101
-3.8389673	zórz	-0.027356101
-3.5316496	krwawej	-0.027356101
-3.8389673	plamie…	-0.027356101
-3.8389673	kwiatów	-0.027356101
-3.8389673	innej	-0.027356101
-3.6830227	barwy	-0.027356101
-3.8389673	znamię	-0.027356101
-3.8389673	grze	-0.027356101
-3.8389673	malowniczych	-0.027356101
-3.6830227	odbija	-0.027356101
-3.8389673	odcieni.	-0.027356101
-3.6830227	światło	-0.027356101
-3.2521448	prawdy	-0.027356101
-3.8389673	sferze,	-0.027356101
-3.6830227	mgły	-0.027356101
-3.8389673	spływając	-0.027356101
-3.8389673	tęcze	-0.027356101
-3.8389673	rozwionie,	-0.027356101
-3.8389673	ludzkim	-0.027356101
-3.8389673	duszom	-0.027356101
-3.3697894	niesie	-0.027356101
-3.6830227	blaski	-0.027356101
-3.8389673	świeże:	-0.027356101
-3.6830227	inne	-0.027356101
-3.8389673	chłonie,	-0.027356101
-3.6830227	całość	-0.027356101
-3.8389673	jednę	-0.027356101
-3.8389673	cząstkę	-0.027356101
-3.8389673	bierze:	-0.027356101
-1.8547786	,	-0.29090682
-3.5316496	sama	-0.027356101
-3.6830227	swem	-0.027356101
-3.8389673	łonie.	-0.027356101
-3.8389673	-----	-0.027356101
-3.6830227	sceny	-0.079779014
-3.0186687	świata	-0.027356101
-3.8389673	x	-0.027356101
-3.8389673	snują	-0.027356101
-3.6830227	krwawych	-0.027356101
-3.8389673	zdarzeń	-0.027356101
-3.8389673	wzory:	-0.027356101
-3.8389673	zasadzki,	-0.027356101
-3.8389673	skrytobójstwa,	-0.027356101
-3.3697894	miasta	-0.027356101
-3.8389673	pień	-0.027356101
-3.8389673	wyrznięte,	-0.027356101
-3.8389673	brodzące	-0.027356101
-3.0834723	krwi	-0.027356101
-3.8389673	potokach	-0.027356101
-3.8389673	znędzniałe	-0.027356101
-3.8389673	upiory,	-0.027356101
-3.8389673	przeklinające	-0.027356101
-3.5316496	los	-0.052777052
-3.8389673	przeklęte.	-0.027356101
-3.6830227	praw	-0.027356101
-3.2521448	ludzkości	-0.027356101
-3.8389673	zdeptane	-0.027356101
-3.8389673	pozory;	-0.027356101
-3.8389673	pustynie	-0.027356101
-3.8389673	zgnilizną	-0.027356101
-3.8389673	wskróś	-0.027356101
-3.8389673	przesiąknięte,	-0.027356101
-2.9123983	świat	-0.032878
-3.0186687	cały	-0.035020627
-3.8389673	okropności	-0.027356101
-3.8389673	chory,	-0.027356101
-3.8389673	niebiosa	-0.027356101
-3.8389673	milczące	-0.027356101
-3.6830227	przerażeniem	-0.027356101
-3.8389673	zdjęte.	-0.027356101
-3.8389673	motłoch,	-0.027356101
-3.6830227	zwycięstwa	-0.027356101
-3.8389673	spojony	-0.027356101
-3.8389673	blekotem,	-0.027356101
-3.8389673	niepomny,	-0.027356101
-3.3697894	sam	-0.027356101
-3.6830227	klęski	-0.027356101
-3.8389673	płaci,	-0.027356101
-3.8389673	niepomny	-0.027356101
-3.5316496	krew	-0.027356101
-3.8389673	ojców,	-0.027356101
-3.6830227	synów,	-0.027356101
-3.6830227	braci,	-0.079779014
-3.8389673	ginącym	-0.027356101
-3.8389673	helotem,	-0.027356101
-3.6830227	pokrywa	-0.027356101
-3.8389673	scenę	-0.027356101
-3.6830227	mordów	-0.027356101
-3.8389673	oklasków	-0.027356101
-3.8389673	grzmotem,	-0.027356101
-3.8389673	urągając	-0.027356101
-3.5316496	ludzką	-0.027356101
-3.6830227	godność	-0.027356101
-3.8389673	traci.	-0.027356101
-3.6830227	rzeź	-0.027356101
-3.8389673	rzezią	-0.027356101
-3.5316496	kroczy	-0.027356101
-3.8389673	stutysięczne	-0.027356101
-3.6830227	armie	-0.027356101
-3.8389673	armat	-0.027356101
-3.6830227	błysku	-0.079779014
-3.8389673	zwierają	-0.027356101
-3.8389673	morderczym	-0.027356101
-3.5316496	uścisku,	-0.82254726
-3.8389673	roztrącając	-0.027356101
-3.8389673	morskie	-0.027356101
-3.6830227	fale.	-0.079779014
-3.1596708	całe	-0.027356101
-3.8389673	gromady	-0.027356101
-3.8389673	giną	-0.027356101
-3.8389673	zdobytem	-0.027356101
-3.8389673	dziale,	-0.027356101
-3.8389673	szwadrony	-0.027356101
-3.6830227	leżą	-0.027356101
-3.8389673	strzaskane	-0.027356101
-3.8389673	urwisku,	-0.027356101
-3.6830227	szeregi	-0.027356101
-3.5316496	trupów	-0.027356101
-3.3697894	stoją	-0.027356101
-3.8389673	ścisku,	-0.027356101
-3.8389673	wał	-0.027356101
-3.6830227	żywych	-0.027356101
-3.8389673	przebiega	-0.027356101
-3.8389673	umarłych	-0.027356101
-3.8389673	wale!	-0.027356101
-3.8389673	sztuczne	-0.027356101
-3.3697894	śmierci	-0.027356101
-3.8389673	narzędzia	-0.027356101
-3.8389673	genialne	-0.027356101
-3.8389673	bronie	-0.027356101
-3.8389673	zmiatają	-0.027356101
-3.6830227	stosy	-0.027356101
-3.8389673	skrwawionego	-0.027356101
-3.8389673	cielska,	-0.027356101
-3.8389673	poszarpanej	-0.027356101
-3.8389673	odzieży,	-0.027356101
-3.8389673	szmat,	-0.027356101
-3.8389673	błota	-0.027356101
-3.8389673	zielska.	-0.027356101
-3.8389673	bezkształtne	-0.027356101
-3.8389673	masy	-0.027356101
-3.8389673	zmięszane	-0.027356101
-3.8389673	zgonie…	-0.027356101
-3.2521448	jedną	-0.027356101
-3.8389673	kałużę	-0.027356101
-3.6830227	spływa	-0.027356101
-3.8389673	nieprzyjacielska…	-0.027356101
-3.3697894	śmierć	-0.027356101
-3.8389673	wstrętem	-0.027356101
-3.6830227	kryje	-0.027356101
-3.3697894	oczy	-0.027356101
-3.8389673	dłonie.	-0.027356101
-3.8389673	iii	-0.027356101
-3.8389673	powstał	-0.027356101
-3.5316496	krzyk	-0.027356101
-3.8389673	ogromny	-0.027356101
-3.8389673	monarszych	-0.027356101
-3.8389673	dworów,	-0.027356101
-3.8389673	najemnych	-0.027356101
-3.8389673	pochlebców,	-0.027356101
-3.8389673	łaknących	-0.027356101
-3.8389673	korzyści,	-0.027356101
-3.8389673	rozszedł	-0.027356101
-3.6830227	kraju	-0.027356101
-3.8389673	miast,	-0.027356101
-3.8389673	siół	-0.027356101
-3.6830227	borów,	-0.027356101
-3.8389673	wrzawą	-0.027356101
-3.6830227	bezmyślnej	-0.027356101
-3.8389673	dumy,	-0.027356101
-3.8389673	ślepej	-0.027356101
-3.6830227	nienawiści.	-0.079779014
-3.8389673	spędzono	-0.027356101
-3.8389673	trzodę	-0.027356101
-3.8389673	pastwisk	-0.027356101
-3.8389673	ugorów,	-0.027356101
-3.8389673	zdatnych	-0.027356101
-3.8389673	wybrali	-0.027356101
-3.8389673	królewscy	-0.027356101
-3.8389673	artyści,	-0.027356101
-3.8389673	stanęły	-0.027356101
-3.1596708	nowych	-0.027356101
-3.8389673	gladyatorów,	-0.027356101
-3.8389673	wołając:	-0.027356101
-3.8389673	«niechaj	-0.027356101
-3.5316496	słowo	-0.027356101
-3.8389673	monarsze	-0.027356101
-3.8389673	ziści!»	-0.027356101
-3.8389673	przygotowano	-0.027356101
-3.8389673	mordu	-0.027356101
-3.8389673	maszyny	-0.027356101
-3.8389673	żyjące,	-0.027356101
-3.8389673	dano	-0.027356101
-3.8389673	znak	-0.027356101
-3.8389673	potajemny	-0.027356101
-3.8389673	wojsko	-0.027356101
-3.8389673	ruszyło…	-0.027356101
-3.8389673	puste	-0.027356101
-3.8389673	domy	-0.027356101
-3.8389673	zboże	-0.027356101
-3.8389673	stojące,	-0.027356101
-3.8389673	płacz	-0.027356101
-3.6830227	matek,	-0.027356101
-3.6830227	synów	-0.027356101
-3.8389673	objęć	-0.027356101
-3.8389673	wzięto	-0.027356101
-3.6830227	siłą,	-0.027356101
-3.8389673	sąd	-0.027356101
-3.8389673	wojenny	-0.027356101
-3.8389673	krnąbrnych,	-0.027356101
-3.8389673	psy	-0.027356101
-3.8389673	nocą	-0.027356101
-3.8389673	wyjące,	-0.027356101
-3.8389673	widziałem,	-0.027356101
-3.0834723	myśli	-0.027356101
-3.8389673	było.	-0.027356101
-3.8389673	oto	-0.027356101
-3.5316496	anioł	-0.027356101
-3.8389673	zniszczeń,	-0.027356101
-3.3697894	miecz	-0.027356101
-3.8389673	ująłem	-0.027356101
-3.6830227	dłonie,	-0.079779014
-3.8389673	rzuciłem	-0.027356101
-3.2521448	ziemię	-0.047572415
-3.8389673	ostry	-0.027356101
-3.5316496	anioła,	-0.82254726
-3.8389673	szepnąłem	-0.027356101
-3.8389673	monarchom	-0.027356101
-3.8389673	siedzącym	-0.027356101
-3.8389673	tronie:	-0.027356101
-3.8389673	«czas	-0.027356101
-3.6830227	pokazać!	-0.027356101
-3.8389673	wycisnąć	-0.027356101
-3.8389673	zdoła?	-0.027356101
-3.6830227	czas	-0.027356101
-3.8389673	krwawym	-0.027356101
-3.8389673	zagonie	-0.027356101
-3.8389673	położy	-0.027356101
-3.6830227	ofiar	-0.027356101
-3.8389673	ludzkich?	-0.027356101
-3.8389673	sioła	-0.027356101
-3.8389673	poburzy	-0.027356101
-3.8389673	mściwą	-0.027356101
-3.8389673	ręką?	-0.027356101
-3.8389673	koronie	-0.027356101
-3.8389673	przysporzy	-0.027356101
-3.6830227	rubin	-0.027356101
-3.8389673	zdjęty	-0.027356101
-3.8389673	przeciwnika	-0.027356101
-3.8389673	czoła?	-0.027356101
-3.8389673	zrobi,	-0.027356101
-3.3697894	mieć	-0.027356101
-3.8389673	ręku	-0.027356101
-3.8389673	mógł	-0.027356101
-3.6830227	deptać	-0.027356101
-3.8389673	zabawy,	-0.027356101
-3.8389673	hekatomby	-0.027356101
-3.8389673	żyjących	-0.027356101
-3.8389673	jęku	-0.027356101
-3.8389673	wzniesie	-0.027356101
-3.8389673	pomnik	-0.027356101
-3.8389673	wiekopomnej	-0.027356101
-3.8389673	sławy;	-0.027356101
-3.6830227	ludy	-0.027356101
-3.8389673	monarchowie	-0.027356101
-3.8389673	przyjdą	-0.027356101
-3.6830227	tron	-0.027356101
-3.6830227	krwawy	-0.027356101
-3.8389673	położą	-0.027356101
-3.6830227	głowy	-0.027356101
-3.8389673	liktorskim	-0.027356101
-3.8389673	pęku».	-0.027356101
-3.8389673	wstała	-0.027356101
-3.5316496	jutrznia	-0.027356101
-3.8389673	czerwona,	-0.027356101
-3.8389673	oświecając	-0.027356101
-3.8389673	łany,	-0.027356101
-3.8389673	zebrać	-0.027356101
-3.8389673	miano	-0.027356101
-3.8389673	pierwsze	-0.027356101
-3.5316496	krwawe	-0.027356101
-3.6830227	żniwo,	-0.079779014
-3.8389673	przekroczono	-0.027356101
-3.8389673	granice…	-0.027356101
-3.8389673	rozkaz	-0.027356101
-3.8389673	wydany	-0.027356101
-3.6830227	pędzi	-0.027356101
-3.8389673	boju	-0.027356101
-3.5316496	falę	-0.027356101
-3.8389673	żołnierzy	-0.027356101
-3.8389673	ruchliwą.	-0.027356101
-3.6830227	walka	-0.027356101
-3.8389673	wszczyna!	-0.027356101
-3.6830227	wróg	-0.027356101
-3.8389673	rozespany	-0.027356101
-3.8389673	napadnięty	-0.027356101
-3.6830227	broń	-0.027356101
-3.6830227	chwyta	-0.027356101
-3.8389673	bagnetami	-0.027356101
-3.8389673	lukę	-0.027356101
-3.6830227	otwiera	-0.027356101
-3.8389673	straszliwą…	-0.027356101
-3.8389673	zgiełk	-0.027356101
-3.8389673	jęki	-0.027356101
-3.8389673	ciżbie	-0.027356101
-3.1596708	krwią	-0.027356101
-3.8389673	pijanej.	-0.027356101
-3.2521448	rozpacz	-0.027356101
-3.8389673	dodaje	-0.027356101
-3.8389673	męstwa,	-0.027356101
-3.8389673	morderczą,	-0.027356101
-3.6830227	śmiertelnym	-0.027356101
-3.8389673	pocałunku	-0.027356101
-3.8389673	pada	-0.027356101
-3.8389673	wrogu,	-0.027356101
-3.8389673	działa,	-0.027356101
-3.8389673	tętnią	-0.027356101
-3.8389673	jeźdźcy,	-0.027356101
-3.8389673	zwalisk	-0.027356101
-3.8389673	sterczą,	-0.027356101
-3.8389673	chata	-0.027356101
-3.8389673	płomieniach,	-0.027356101
-3.8389673	trup	-0.027356101
-3.8389673	progu,	-0.027356101
-3.8389673	tryumf	-0.027356101
-3.8389673	kończy	-0.027356101
-3.8389673	ucztę	-0.027356101
-3.8389673	ludożerczą,	-0.027356101
-3.8389673	zwycięski	-0.027356101
-3.6830227	monarcha	-0.027356101
-3.5316496	składa	-0.027356101
-2.6409676	.	-0.91152465
-3.2521448	ludów	-0.04169965
-3.6830227	daje	-0.027356101
-3.6830227	życie	-0.027356101
-3.6830227	stwarza	-0.027356101
-3.8389673	mężów,	-0.027356101
-3.8389673	istnieli,	-0.027356101
-3.8389673	dziejach	-0.027356101
-3.5316496	kształty	-0.027356101
-3.6830227	rzeźbi	-0.027356101
-3.8389673	granicie,	-0.027356101
-3.8389673	mocą	-0.027356101
-3.8389673	duchową	-0.027356101
-3.8389673	obdzieli,	-0.027356101
-3.2521448	postać	-0.027356101
-3.6830227	czyny	-0.027356101
-3.6830227	legendą,	-0.079779014
-3.6830227	innych	-0.027356101
-3.3697894	żyć	-0.047572415
-3.8389673	dziejów	-0.027356101
-3.8389673	badacz	-0.027356101
-3.8389673	ścisły	-0.027356101
-3.3697894	chce	-0.027356101
-3.8389673	legendową	-0.027356101
-3.8389673	przywrócić	-0.027356101
-3.8389673	rolę,	-0.027356101
-3.8389673	widząc	-0.027356101
-3.6830227	fantazyi	-0.027356101
-3.8389673	pomysły,	-0.027356101
-3.6830227	słoneczne	-0.027356101
-3.8389673	mity,	-0.027356101
-3.8389673	wierzeń	-0.027356101
-3.8389673	symbole;	-0.027356101
-3.8389673	cienie	-0.027356101
-3.8389673	pozbawić	-0.027356101
-3.6830227	ciała,	-0.079779014
-3.2521448	wieków	-0.027356101
-3.8389673	ubrała.	-0.027356101
-3.8389673	żegnał…]	-0.027356101
-3.8389673	żegnał,	-0.027356101
-3.8389673	usta	-0.027356101
-3.8389673	milczały	-0.027356101
-3.8389673	wiedziałem	-0.027356101
-3.8389673	rzucić,	-0.027356101
-3.6830227	słowa	-0.027356101
-3.8389673	pozostały,	-0.027356101
-3.1596708	serce	-0.027356071
-3.8389673	zbiegło	-0.027356101
-3.8389673	powrócić.	-0.027356101
-3.8389673	powitała	-0.027356101
-3.8389673	domek	-0.027356101
-3.8389673	biały,	-0.027356101
-3.8389673	słowiki	-0.027356101
-3.8389673	wiosną	-0.027356101
-3.8389673	nucić,	-0.027356101
-3.8389673	przedziela	-0.027356101
-3.8389673	nieszczęścia	-0.027356101
-3.8389673	cały,	-0.027356101
-3.8389673	dom	-0.027356101
-3.5316496	mogę	-0.027356101
-3.8389673	wrócić.	-0.027356101
-3.8389673	odszedł	-0.027356101
-3.8389673	echa,	-0.027356101
-3.8389673	wspomnieniem	-0.027356101
-3.5316496	twych	-0.027356101
-3.5316496	jasnych	-0.027356101
-3.3697894	marzeń	-0.027356101
-3.8389673	spokoju	-0.027356101
-3.8389673	skłócę,	-0.027356101
-2.6409676	życia	-0.027356101
-3.8389673	uśmiecha,	-0.027356101
-3.8389673	gasnącym	-0.027356101
-3.8389673	żegnam	-0.027356101
-3.8389673	promieniem	-0.027356101
-3.6830227	ciemność	-0.027356101
-3.6830227	idę	-0.027356101
-3.8389673	powrócę.	-0.027356101
-3.8389673	date	-0.027356101
-3.6830227	dzieci	-0.027356101
-3.6830227	spada	-0.027356101
-3.8389673	win	-0.027356101
-3.8389673	ojcowskich	-0.027356101
-3.6830227	brzemię,	-0.079779014
-3.8389673	lud	-0.027356101
-3.8389673	pokutuje	-0.027356101
-3.8389673	grzechy	-0.027356101
-3.8389673	zbrodniarza:	-0.027356101
-3.8389673	gwałcące	-0.027356101
-3.8389673	sprawiedliwość	-0.027356101
-3.6830227	plemię,	-0.079779014
-3.6830227	nieszczęść	-0.027356101
-3.8389673	przysparza.	-0.027356101
-3.8389673	złe,	-0.027356101
-3.8389673	zaraza,	-0.027356101
-3.8389673	lot	-0.027356101
-3.8389673	obiega	-0.027356101
-3.8389673	ziemię…	-0.027356101
-3.3697894	ma	-0.027356101
-3.8389673	nędzarza,	-0.027356101
-3.8389673	książęcym	-0.027356101
-3.8389673	dyademie,	-0.027356101
-3.6830227	tchnieniem	-0.027356101
-3.8389673	zaraża.	-0.027356101
-3.8389673	praw,	-0.027356101
-3.8389673	światem	-0.027356101
-3.8389673	rządzących	-0.027356101
-3.8389673	ujść	-0.027356101
-3.1596708	może	-0.035020627
-3.8389673	złych	-0.027356101
-3.8389673	wpływów	-0.027356101
-3.8389673	przekleństwa;	-0.027356101
-3.8389673	dziale	-0.027356101
-3.8389673	część	-0.027356101
-3.6830227	winy	-0.027356101
-3.8389673	przypadnie	-0.027356101
-3.8389673	cudze	-0.027356101
-3.8389673	zbrodnie	-0.027356101
-3.8389673	szaleństwa;	-0.027356101
-3.8389673	nosi	-0.027356101
-3.3697894	duszy	-0.027356101
-3.6830227	dnie	-0.079779014
-3.8389673	odpowiedzialność	-0.027356101
-3.5316496	wspólną	-0.027356101
-3.8389673	człowieczeństwa.	-0.027356101
-3.2521448	orgname	-0.027356101
-3.8389673	odrodzenia	-0.027356101
-3.6830227	placename.	-0.079779014
-3.8389673	wielką	-0.027356101
-3.8389673	rocznicę	-0.027356101
-3.8389673	święci,	-0.027356101
-3.8389673	pieśniarz,	-0.027356101
-3.8389673	gości	-0.027356101
-3.8389673	oddać	-0.027356101
-3.8389673	hołd	-0.027356101
-3.8389673	wieszcza	-0.027356101
-3.6830227	pamięci	-0.027356101
-3.8389673	cichem	-0.027356101
-3.8389673	święcie	-0.027356101
-2.9123983	placename	-0.027356101
-3.8389673	jedności	-0.027356101
-3.8389673	sercem	-0.027356101
-3.6830227	udział	-0.027356101
-3.3697894	wziąć	-0.027356101
-3.8389673	pospołu	-0.027356101
-3.6830227	uczcie	-0.027356101
-3.8389673	duchów,	-0.027356101
-3.8389673	wspólnego	-0.027356101
-3.8389673	stołu.	-0.027356101
-3.8389673	bohaterem,	-0.027356101
-3.8389673	bój	-0.027356101
-3.8389673	bezkrwawy	-0.027356101
-3.8389673	prowadził	-0.027356101
-3.8389673	naród,	-0.027356101
-3.5316496	budząc	-0.061592497
-3.8389673	życia,	-0.027356101
-3.8389673	uśpionej,	-0.027356101
-3.8389673	pięknej	-0.027356101
-3.8389673	córki	-0.027356101
-3.5316496	sławy,	-0.061592497
-3.8389673	zbutwiałe	-0.027356101
-3.3697894	grobu	-0.027356101
-3.8389673	spowicia,	-0.027356101
-3.8389673	pokorą	-0.027356101
-3.8389673	uginam	-0.027356101
-3.8389673	kolano,	-0.027356101
-3.8389673	wpatrzony	-0.027356101
-3.6830227	zorzę	-0.027356101
-3.8389673	geniuszu	-0.027356101
-3.8389673	świetlaną.	-0.027356101
-3.8389673	wodzem,	-0.027356101
-3.8389673	stał	-0.027356101
-3.6830227	straży,	-0.079779014
-3.8389673	mrok	-0.027356101
-3.6830227	niewoli	-0.027356101
-3.8389673	ćmił	-0.027356101
-3.5316496	wzrok	-0.027356101
-3.8389673	ludu	-0.027356101
-3.8389673	podjął	-0.027356101
-3.6830227	pieśń	-0.027356101
-3.8389673	cmentarzy,	-0.027356101
-3.8389673	kształcił	-0.027356101
-3.8389673	śpiewne	-0.027356101
-3.8389673	języka	-0.027356101
-3.6830227	narzędzie,	-0.079779014
-3.8389673	ojcem	-0.027356101
-3.2521448	pieśni	-0.027356101
-3.8389673	wiodącej	-0.027356101
-3.6830227	czynu,	-0.079779014
-3.8389673	imieniu	-0.027356101
-3.8389673	składam	-0.027356101
-3.6830227	liść	-0.027356101
-3.8389673	wawrzynu.	-0.027356101
-3.8389673	bliższym	-0.027356101
-3.0834723	serca	-0.027356101
-3.8389673	skupia,	-0.027356101
-3.8389673	rozprzęga,	-0.027356101
-3.8389673	droższym,	-0.027356101
-3.8389673	wskrzesza,	-0.027356101
-3.8389673	uśmierca,	-0.027356101
-3.8389673	władców	-0.027356101
-3.8389673	światowych	-0.027356101
-3.6830227	potęga,	-0.079779014
-3.8389673	chwała	-0.027356101
-3.8389673	równać	-0.027356101
-3.6830227	ludowi	-0.027356101
-3.1596708	nową	-0.027356101
-3.8389673	zorzę.	-0.027356101
-3.6830227	cześć	-0.027356101
-3.8389673	śnie	-0.027356101
-3.8389673	proroczym	-0.027356101
-3.8389673	czuł,	-0.027356101
-3.8389673	letargu	-0.027356101
-3.3697894	naród	-0.027356101
-3.8389673	wskrzesi!	-0.027356101
-3.8389673	hetmanowi,	-0.027356101
-3.5316496	ślad	-0.027356101
-3.8389673	kroczym	-0.027356101
-3.8389673	odrodzeniu	-0.027356101
-3.6830227	bracia	-0.027356101
-3.8389673	placename!	-0.027356101
-3.6830227	trud	-0.027356101
-3.0834723	pokoleń	-0.027356101
-3.3697894	duchów	-0.027356101
-3.8389673	torturę,	-0.027356101
-3.8389673	oswobodzić	-0.027356101
-3.8389673	piękną	-0.027356101
-3.5316496	sławy	-0.027356101
-3.8389673	córę.	-0.027356101
-3.8389673	córko	-0.027356101
-3.8389673	sławy!	-0.027356101
-3.8389673	zostań	-0.027356101
-3.8389673	wierną	-0.027356101
-3.8389673	sławie,	-0.027356101
-3.8389673	nieskalanej	-0.027356101
-3.5316496	łzami	-0.027356101
-3.8389673	cudzą:	-0.027356101
-3.8389673	rządzące	-0.027356101
-3.8389673	zwycięsko	-0.027356101
-3.6830227	bezprawie,	-0.027356101
-3.8389673	wszechwładztwa	-0.027356101
-3.6830227	pokusy	-0.027356101
-3.8389673	łudzą.	-0.027356101
-3.8389673	szukaj	-0.027356101
-3.5316496	natchnienia	-0.027356101
-3.6830227	sił	-0.027356101
-3.6830227	samej	-0.027356101
-3.8389673	przeszłości,	-0.027356101
-3.8389673	żyje	-0.027356101
-3.8389673	grobie!	-0.027356101
-3.8389673	idź	-0.027356101
-3.8389673	cierpią	-0.027356101
-3.8389673	walczą,	-0.027356101
-3.8389673	chcąc	-0.027356101
-3.6830227	zatracić	-0.027356101
-3.6830227	ducha,	-0.079779014
-3.8389673	stać	-0.027356101
-3.8389673	tłuszczą	-0.027356101
-3.8389673	helotów	-0.027356101
-3.8389673	służalczą,	-0.027356101
-3.1596708	noc	-0.027356101
-3.8389673	zapadnie	-0.027356101
-3.8389673	głucha:	-0.027356101
-3.8389673	olbrzymem,	-0.027356101
-3.8389673	krocząc	-0.027356101
-3.8389673	zuchwały	-0.027356101
-3.8389673	depcze	-0.027356101
-3.8389673	ideały.	-0.027356101
-3.8389673	przyjdzie	-0.027356101
-3.6830227	czas,	-0.027356101
-3.8389673	wypełnią	-0.027356101
-3.8389673	zmienionej	-0.027356101
-3.3697894	dzieje	-0.052777052
-3.3697894	postaci,	-0.45893085
-3.8389673	piewcy	-0.027356101
-3.8389673	wieszcze	-0.027356101
-3.8389673	świętej	-0.027356101
-3.8389673	zgodzie	-0.027356101
-3.8389673	braci.	-0.027356101
-3.5316496	skryte	-0.027356101
-3.5316496	marzenia	-0.027356101
-3.8389673	urzeczywistni:	-0.027356101
-3.8389673	objęcia	-0.027356101
-3.8389673	padną	-0.027356101
-3.8389673	nienawistni!	-0.027356101
-3.8389673	prąd	-0.027356101
-3.8389673	duchowy,	-0.027356101
-3.8389673	kajdany	-0.027356101
-3.6830227	łamie,	-0.079779014
-3.5316496	podniesie	-0.027356101
-3.8389673	usamowolni,	-0.027356101
-3.8389673	staniemy	-0.027356101
-3.8389673	ramienia	-0.027356101
-3.8389673	ramię,	-0.027356101
-3.8389673	równi	-0.027356101
-3.8389673	równymi	-0.027356101
-3.8389673	wolnymi	-0.027356101
-3.8389673	wolni!	-0.027356101
-3.6830227	cała,	-0.027356101
-3.8389673	silna,	-0.027356101
-3.8389673	młoda,	-0.027356101
-3.8389673	bratniej	-0.027356101
-3.5316496	ręce	-0.027356101
-3.8389673	poda.	-0.027356101
-3.8389673	koniec?	-0.027356101
-2.5502274	!	-0.57745785
-3.8389673	ostatka	-0.027356101
-3.8389673	czuje	-0.027356101
-3.8389673	przymuszonym	-0.027356101
-3.8389673	bronić	-0.027356101
-3.8389673	ohydą	-0.027356101
-3.8389673	gwałtami	-0.027356101
-3.8389673	łupieżcy,	-0.027356101
-3.8389673	ojczyzna	-0.027356101
-3.8389673	matka	-0.027356101
-3.8389673	wydać	-0.027356101
-3.8389673	zań	-0.027356101
-3.6830227	ginąć	-0.027356101
-3.8389673	idą.	-0.027356101
-3.8389673	pokryć	-0.027356101
-3.5316496	cała	-0.027356101
-3.6830227	grobów	-0.027356101
-3.8389673	piramidą,	-0.027356101
-3.6830227	rozpaczy	-0.027356101
-3.5316496	niebo	-0.027356101
-3.8389673	świadka	-0.027356101
-3.8389673	paść	-0.027356101
-3.8389673	gruzy,	-0.027356101
-3.8389673	krwawa	-0.027356101
-3.8389673	dziejowa	-0.027356101
-3.8389673	zagadka,	-0.027356101
-3.8389673	obcego	-0.027356101
-3.8389673	ciemięstwa	-0.027356101
-3.8389673	zostać	-0.027356101
-3.8389673	karyatydą.	-0.027356101
-3.8389673	pobożny	-0.027356101
-3.8389673	najeźdźca,	-0.027356101
-3.3697894	nowy	-0.027356101
-3.8389673	prorokuje	-0.027356101
-3.8389673	upadek	-0.027356101
-3.8389673	rychły	-0.027356101
-3.8389673	babylonu,	-0.027356101
-3.6830227	widzi	-0.027356101
-3.8389673	powołanym	-0.027356101
-3.6830227	wyrok	-0.027356101
-3.8389673	surowy	-0.027356101
-3.8389673	dopełnić	-0.027356101
-3.6830227	mieczem	-0.027356101
-3.8389673	starego	-0.027356101
-3.8389673	zakonu;	-0.027356101
-3.8389673	wyciąga	-0.027356101
-3.8389673	dłoń	-0.027356101
-3.6830227	krwawą	-0.027356101
-3.8389673	boskiego	-0.027356101
-3.8389673	tronu	-0.027356101
-3.8389673	namaszczenie	-0.027356101
-3.8389673	poświęcanej	-0.027356101
-3.8389673	głowy.	-0.027356101
-3.8389673	xxiv	-0.027356101
-3.8389673	chwilę	-0.027356101
-3.3697894	możesz	-0.027356101
-3.8389673	ślepą	-0.027356101
-3.8389673	zaporą,	-0.027356101
-3.8389673	niszczącą	-0.027356101
-3.8389673	jadowitym	-0.027356101
-3.8389673	lekiem,	-0.027356101
-3.8389673	natura	-0.027356101
-3.8389673	leczy	-0.027356101
-3.5316496	ludzkość	-0.027356101
-3.8389673	chorą,	-0.027356101
-3.8389673	rzuconą	-0.027356101
-3.8389673	strumieni	-0.027356101
-3.8389673	ściekiem,	-0.027356101
-3.2521448	wielkie	-0.027356101
-3.8389673	rozlały	-0.027356101
-3.8389673	jezioro,	-0.027356101
-3.8389673	jutrem	-0.027356101
-3.8389673	niedalekiem,	-0.027356101
-3.8389673	wezbrane	-0.027356101
-3.2521448	wody	-0.027356101
-3.8389673	skruszą	-0.027356101
-3.8389673	zabiorą:	-0.027356101
-3.8389673	wolnym	-0.027356101
-3.8389673	człowiekiem!	-0.027356101
-3.6830227	wolności	-0.027356101
-3.5316496	wieczne	-0.027356101
-3.6830227	prawa	-0.027356101
-3.8389673	wywłaszczą,	-0.027356101
-3.8389673	zwalczysz	-0.027356101
-3.8389673	ziemską	-0.027356101
-3.8389673	władzą,	-0.027356101
-3.8389673	żądłem	-0.027356101
-3.8389673	żmii,	-0.027356101
-3.8389673	tygrysa	-0.027356101
-3.8389673	paszczą,	-0.027356101
-3.8389673	zgubnym	-0.027356101
-3.8389673	dążnościom	-0.027356101
-3.8389673	dadzą,	-0.027356101
-3.8389673	chwilą,	-0.027356101
-3.8389673	tajne	-0.027356101
-3.6830227	cele	-0.027356101
-3.8389673	przeprowadzą,	-0.027356101
-3.5316496	dzieło	-0.027356101
-3.8389673	zaprzepaszczą!	-0.027356101
-3.8389673	xxii	-0.027356101
-3.3697894	ból	-0.027356101
-3.6830227	ciemną	-0.027356101
-3.8389673	otchłań,	-0.027356101
-3.8389673	podwoje,	-0.027356101
-3.5316496	szereg	-0.027356101
-3.5316496	istnień	-0.027356101
-3.8389673	padających	-0.027356101
-3.8389673	lecą	-0.027356101
-3.8389673	końca	-0.027356101
-3.8389673	tłoczące	-0.027356101
-3.8389673	roje.	-0.027356101
-3.8389673	senne	-0.027356101
-3.8389673	zarodki,	-0.027356101
-3.8389673	tkwiące	-0.027356101
-3.8389673	swojem	-0.027356101
-3.8389673	ziarnie,	-0.027356101
-3.8389673	głazy	-0.027356101
-3.8389673	zakute	-0.027356101
-3.8389673	bezwładności	-0.027356101
-3.6830227	zbroję,	-0.079779014
-3.8389673	czekają	-0.027356101
-3.8389673	zbudzenie	-0.027356101
-3.8389673	dreszcz	-0.027356101
-3.8389673	przejmie	-0.027356101
-3.8389673	ogarnie.	-0.027356101
-3.8389673	gwiaździste	-0.027356101
-3.8389673	ogromy,	-0.027356101
-3.8389673	przyśpieszonym	-0.027356101
-3.8389673	ruchem,	-0.027356101
-3.6830227	porywa	-0.027356101
-3.6830227	głębi	-0.027356101
-3.8389673	bezwiedne	-0.027356101
-3.8389673	atomy…	-0.027356101
-3.5316496	było	-0.027356101
-3.8389673	martwem	-0.027356101
-3.8389673	głuchem,	-0.027356101
-3.6830227	rzuca	-0.027356101
-3.0834723	blask	-0.027356101
-3.1596708	myśli,	-0.027356101
-3.8389673	świadomy,	-0.027356101
-3.6830227	przenika	-0.027356101
-3.6830227	światłem	-0.027356101
-3.6830227	wypełnia	-0.027356101
-3.8389673	duchem.	-0.027356101
-3.8389673	treść,	-0.027356101
-3.8389673	całością	-0.027356101
-3.8389673	splata,	-0.027356101
-3.8389673	trąd	-0.027356101
-3.8389673	upośledza,	-0.027356101
-3.8389673	dzieli	-0.027356101
-3.8389673	egoizmu	-0.027356101
-3.8389673	miedza	-0.027356101
-3.8389673	ogniw	-0.027356101
-3.8389673	duchowych	-0.027356101
-3.8389673	wszechświata;	-0.027356101
-3.8389673	chwilowy	-0.027356101
-3.8389673	zakres	-0.027356101
-3.8389673	wyprzedza,	-0.027356101
-3.5316496	życiem	-0.027356101
-3.5316496	przyszłych	-0.027356101
-3.8389673	brata;	-0.027356101
-3.8389673	wspólnych	-0.027356101
-3.6830227	źródeł	-0.027356101
-3.8389673	samowiedza,	-0.027356101
-3.5316496	gwiazd	-0.027356101
-3.6830227	gwiazdy	-0.027356101
-3.8389673	wzlatuje	-0.027356101
-3.8389673	skrzydlata,	-0.027356101
-3.8389673	znajduje	-0.027356101
-3.6830227	minionych	-0.027356101
-3.8389673	zmierzchach,	-0.027356101
-3.8389673	mgle	-0.027356101
-3.8389673	stuleci,	-0.027356101
-3.8389673	sercach	-0.027356101
-3.8389673	współbraci	-0.027356101
-3.2521448	światów	-0.027356101
-3.8389673	ogromie,	-0.027356101
-3.8389673	drgającym	-0.027356101
-3.8389673	atomie:	-0.027356101
-3.8389673	jedna	-0.027356101
-3.6830227	czasu	-0.027356101
-3.8389673	wyplątana	-0.027356101
-3.6830227	sieci,	-0.079779014
-3.8389673	nieśmiertelnością	-0.027356101
-3.6830227	grób	-0.027356101
-3.8389673	uleci.	-0.027356101
-3.8389673	pól	-0.027356101
-3.8389673	odmładzasz	-0.027356101
-3.8389673	krąg,	-0.027356101
-3.8389673	roznosząc	-0.027356101
-3.8389673	woń	-0.027356101
-3.8389673	miłosną,	-0.027356101
-3.8389673	wrócisz	-0.027356101
-3.6830227	młodości	-0.027356101
-3.6830227	dni,	-0.079779014
-3.8389673	czarodziejko,	-0.027356101
-3.8389673	wskrzesisz	-0.027356101
-3.8389673	złud,	-0.027356101
-3.8389673	pojących	-0.027356101
-3.8389673	wprzód	-0.027356101
-3.8389673	zachwytem	-0.027356101
-3.6830227	rumieńce	-0.027356101
-3.8389673	róż	-0.027356101
-3.8389673	świeżych	-0.027356101
-3.1596708	uczuć	-0.027356101
-3.8389673	zdroje.	-0.027356101
-3.8389673	czary	-0.027356101
-3.6830227	rozkoszy	-0.027356101
-3.8389673	słodkie	-0.027356101
-3.8389673	miody,	-0.027356101
-3.8389673	szat	-0.027356101
-3.8389673	cudny	-0.027356101
-3.5316496	kwiat	-0.027356101
-3.8389673	kochanków	-0.027356101
-3.5316496	zastęp	-0.027356101
-3.8389673	młody.	-0.027356101
-3.8389673	daj!	-0.027356101
-3.8389673	szumiący	-0.027356101
-3.8389673	gaj	-0.027356101
-3.6830227	głową	-0.027356101
-3.8389673	senną…	-0.027356101
-3.8389673	otocz	-0.027356101
-3.8389673	głębokim	-0.027356101
-3.8389673	śnie,	-0.027356101
-3.5316496	miłością	-0.027356101
-3.6830227	dusz	-0.027356101
-3.8389673	promienną.	-0.027356101
-3.6830227	wstaniesz	-0.027356101
-3.8389673	mogiły!	-0.027356101
-3.6830227	dawnej	-0.027356101
-3.8389673	krasie;	-0.027356101
-3.6830227	musisz	-0.027356101
-3.8389673	porzucić	-0.027356101
-3.6830227	kształt	-0.027356101
-3.1596708	przeszłości	-0.027356101
-3.8389673	zgniły,	-0.027356101
-3.8389673	robactwo	-0.027356101
-3.8389673	pasie,	-0.027356101
-3.3697894	jeden	-0.027356101
-3.8389673	rys	-0.027356101
-3.8389673	miły,	-0.027356101
-3.8389673	wdzięk	-0.027356101
-3.8389673	dawniejszym	-0.027356101
-3.8389673	uwielbiany	-0.027356101
-3.8389673	czasie…	-0.027356101
-3.2521448	nowe	-0.027356101
-3.5316496	siły	-0.061592497
-3.6830227	oręż	-0.027356101
-3.8389673	zapasie.	-0.027356101
-3.6830227	odda	-0.027356101
-3.3697894	światu	-0.027356101
-3.6830227	widmem	-0.027356101
-3.8389673	bladem,	-0.027356101
-3.8389673	mogilnej	-0.027356101
-3.8389673	pleśni	-0.027356101
-3.8389673	zgnilizny	-0.027356101
-3.8389673	plamą,	-0.027356101
-3.8389673	wnętrza	-0.027356101
-3.8389673	przesiąkniętą	-0.027356101
-3.8389673	jadem…	-0.027356101
-3.8389673	przystrojona	-0.027356101
-3.8389673	królewski	-0.027356101
-3.8389673	dyadem,	-0.027356101
-3.8389673	wkroczyć	-0.027356101
-3.8389673	bramą:	-0.027356101
-3.8389673	inną,	-0.027356101
-3.8389673	samą!	-0.027356101
-3.8389673	date,	-0.027356101
-3.8389673	grzesznych	-0.027356101
-3.8389673	braci	-0.027356101
-3.8389673	koła,	-0.027356101
-3.5316496	najświętsze	-0.027356101
-3.8389673	zdeptawszy	-0.027356101
-3.8389673	rozpali	-0.027356101
-3.8389673	pożarów	-0.027356101
-3.8389673	pochodnię,	-0.027356101
-3.8389673	widziadło	-0.027356101
-3.8389673	przywoła	-0.027356101
-3.6830227	narodów	-0.027356101
-3.6830227	dzień	-0.027356101
-3.8389673	klęską	-0.027356101
-3.8389673	dobrego	-0.027356101
-3.8389673	chyląc	-0.027356101
-3.8389673	czoła,	-0.027356101
-3.8389673	winna	-0.027356101
-3.8389673	syna	-0.027356101
-3.8389673	pokutować	-0.027356101
-3.8389673	zbrodnie;	-0.027356101
-3.8389673	obchodzić	-0.027356101
-3.6830227	łzach	-0.027356101
-3.8389673	żałobie	-0.027356101
-3.8389673	grzech,	-0.027356101
-3.8389673	klątwą	-0.027356101
-3.8389673	zwróci	-0.027356101
-3.3697894	drogi	-0.027356101
-3.8389673	jaśniejszej	-0.027356101
-3.8389673	dobie…	-0.027356101
-3.8389673	powinna	-0.027356101
-3.8389673	szukać	-0.027356101
-3.8389673	tarczy,	-0.027356101
-3.8389673	potęgując	-0.027356101
-3.8389673	miłość,	-0.027356101
-3.6830227	środków	-0.027356101
-3.8389673	zbawienia	-0.027356101
-3.8389673	dostarczy.	-0.027356101
-3.8389673	żale	-0.027356101
-3.8389673	daremne	-0.027356101
-3.6830227	żale,	-0.027356101
-3.6830227	próżny	-0.027356101
-3.8389673	trud,	-0.027356101
-3.8389673	bezsilne	-0.027356101
-3.8389673	złorzeczenia!	-0.027356101
-3.8389673	przeżytych	-0.027356101
-3.8389673	kształtów	-0.027356101
-3.8389673	cud	-0.027356101
-3.8389673	wróci	-0.027356101
-3.8389673	istnienia.	-0.027356101
-3.8389673	odda,	-0.027356101
-3.6830227	idąc	-0.027356101
-3.6830227	zniknionych	-0.027356101
-3.8389673	szeregu:	-0.027356101
-3.6830227	zdoła	-0.027356101
-3.3697894	ogień	-0.027356101
-3.8389673	powstrzymać	-0.027356101
-3.8389673	biegu.	-0.027356101
-3.5316496	trzeba	-0.036428846
-3.8389673	iść,	-0.027356101
-3.8389673	sięgać	-0.027356101
-3.8389673	nowe:	-0.027356101
-3.8389673	uwiędłych	-0.027356101
-3.8389673	laurów	-0.027356101
-3.8389673	uporem	-0.027356101
-3.8389673	stroić	-0.027356101
-3.8389673	głowę!	-0.027356101
-3.8389673	cofniecie	-0.027356101
-3.8389673	fal!	-0.027356101
-3.5316496	skargi	-0.027356101
-3.8389673	pomogą!	-0.027356101
-3.8389673	gniewy,	-0.027356101
-3.8389673	żal!	-0.027356101
-3.8389673	pójdzie	-0.027356101
-3.8389673	drogą.	-0.027356101
-3.8389673	xxvii	-0.027356101
-3.3697894	smutny	-0.027356101
-3.6830227	schyłek	-0.027356101
-3.8389673	roku	-0.027356101
-3.8389673	pomroce!	-0.027356101
-3.5316496	wiatr	-0.027356101
-3.6830227	jesienny	-0.027356101
-3.8389673	zwiędłym	-0.027356101
-3.8389673	liściem	-0.027356101
-3.6830227	miota,	-0.079779014
-3.3697894	ostatnie	-0.027356101
-3.8389673	kwiaty,	-0.027356101
-3.8389673	owoce,	-0.027356101
-3.8389673	strąca	-0.027356101
-3.6830227	grzebie	-0.027356101
-3.8389673	całunem	-0.027356101
-3.8389673	błota.	-0.027356101
-3.8389673	smutniejszy!	-0.027356101
-3.8389673	koniec	-0.027356101
-3.8389673	bezsilny	-0.027356101
-3.6830227	żywota,	-0.079779014
-3.8389673	osamotnienie	-0.027356101
-3.8389673	starości	-0.027356101
-3.8389673	sieroce,	-0.027356101
-3.8389673	długie,	-0.027356101
-3.8389673	ciemne,	-0.027356101
-3.5316496	pełne	-0.027356101
-3.8389673	cierpień	-0.027356101
-3.8389673	noce,	-0.027356101
-3.2521448	ludzka	-0.027356101
-3.8389673	istota.	-0.027356101
-3.8389673	najsmutniejszy	-0.027356101
-3.6830227	duchowy	-0.027356101
-3.8389673	epoki,	-0.027356101
-3.8389673	niwecz	-0.027356101
-3.8389673	poszedł	-0.027356101
-3.8389673	wysiłek,	-0.027356101
-3.8389673	strawiwszy	-0.027356101
-3.8389673	żywotniejsze	-0.027356101
-3.8389673	soki,	-0.027356101
-3.8389673	spadku	-0.027356101
-3.8389673	błędów	-0.027356101
-3.8389673	pomyłek	-0.027356101
-3.5316496	dni	-0.027356101
-3.2521448	cień	-0.027356101
-3.8389673	głęboki!	-0.027356101
-3.8389673	viii	-0.027356101
-3.8389673	zupełny:	-0.027356101
-3.8389673	sta	-0.027356101
-3.8389673	tysięcy	-0.027356101
-3.8389673	mięsem	-0.027356101
-3.8389673	kreślą	-0.027356101
-3.8389673	krajobrazy,	-0.027356101
-3.8389673	podobne	-0.027356101
-3.8389673	ognistych	-0.027356101
-3.8389673	słupów,	-0.027356101
-3.8389673	powietrze	-0.027356101
-3.8389673	rozrzucając	-0.027356101
-3.8389673	głazy.	-0.027356101
-3.8389673	głód,	-0.027356101
-3.8389673	nędza,	-0.027356101
-3.8389673	rany	-0.027356101
-3.8389673	zaraźliwych	-0.027356101
-3.8389673	strupów,	-0.027356101
-3.8389673	stokroć	-0.027356101
-3.8389673	ohydniejsze	-0.027356101
-3.3697894	ludzkich	-0.027356101
-3.8389673	zarazy:	-0.027356101
-3.8389673	szpiegostwo,	-0.027356101
-3.6830227	zdrada,	-0.027356101
-3.8389673	rozbój,	-0.027356101
-3.8389673	chciwe	-0.027356101
-3.8389673	łupów,	-0.027356101
-3.8389673	naczelnemu	-0.027356101
-3.8389673	wodzowi	-0.027356101
-3.8389673	rozkazy.	-0.027356101
-3.8389673	zniszczone	-0.027356101
-3.8389673	prowincye	-0.027356101
-3.8389673	całe,	-0.027356101
-3.8389673	pobity	-0.027356101
-3.8389673	przeciwnik	-0.027356101
-3.8389673	upuszcza	-0.027356101
-3.8389673	ręki…	-0.027356101
-3.8389673	widowisko	-0.027356101
-3.8389673	wspaniałe!	-0.027356101
-3.8389673	gnie	-0.027356101
-3.8389673	stopy	-0.027356101
-3.8389673	wroga	-0.027356101
-3.8389673	układny	-0.027356101
-3.6830227	miękki,	-0.079779014
-3.8389673	zwycięzca	-0.027356101
-3.6830227	niebu	-0.027356101
-3.8389673	powołuje	-0.027356101
-3.6830227	rzesze	-0.027356101
-3.8389673	pozostałe!	-0.027356101
-3.8389673	sonety	-0.027356101
-3.8389673	trennten	-0.027356101
-3.8389673	sich	-0.027356101
-3.8389673	endlich	-0.027356101
-3.8389673	sah.	-0.027356101
-3.8389673	noch	-0.027356101
-3.8389673	zuweilen	-0.027356101
-3.8389673	traum;	-0.027356101
-3.8389673	waren	-0.027356101
-3.8389673	wussten	-0.027356101
-3.8389673	selber	-0.027356101
-3.8389673	kaum.	-0.027356101
-3.8389673	milczały,	-0.027356101
-3.6830227	wiedziałem,	-0.027356101
-3.8389673	rzucić:	-0.027356101
-3.8389673	pozostałem	-0.027356101
-3.8389673	samotny,	-0.027356101
-3.8389673	rady	-0.027356101
-3.8389673	smutki	-0.027356101
-3.6830227	tęsknoty	-0.027356101
-3.2521448	:	-0.047572415
-3.8389673	przebiegam	-0.027356101
-3.6830227	myślą	-0.027356101
-3.8389673	chwil	-0.027356101
-3.8389673	ślady,	-0.027356101
-3.8389673	zwiędłą	-0.027356101
-3.8389673	różą	-0.027356101
-3.8389673	zadumany	-0.027356101
-3.8389673	stoję…	-0.027356101
-3.8389673	wysyłam	-0.027356101
-3.8389673	zwiady,	-0.027356101
-3.3697894	przyszłości	-0.027356101
-3.8389673	pomyśleć	-0.027356101
-3.8389673	boję.	-0.027356101
-3.8389673	blady	-0.027356101
-3.8389673	wspomnienia;	-0.027356101
-3.6830227	serdeczne	-0.027356101
-3.8389673	ślady	-0.027356101
-3.8389673	mroźny	-0.027356101
-3.8389673	rozwieje	-0.027356101
-3.8389673	zniknie	-0.027356101
-3.6830227	mgłach	-0.027356101
-3.8389673	oddalenia.	-0.027356101
-3.8389673	zmusić	-0.027356101
-3.8389673	milczenia	-0.027356101
-3.8389673	drżące	-0.027356101
-3.8389673	struny,	-0.027356101
-3.8389673	leje,	-0.027356101
-3.8389673	grobowego	-0.027356101
-3.8389673	pozór	-0.027356101
-3.8389673	kamienia,	-0.027356101
-3.8389673	pogrzebaną	-0.027356101
-3.6830227	nadzieję.	-0.079779014
-3.8389673	przyszłość,	-0.027356101
-3.6830227	mgłę	-0.027356101
-3.8389673	ołowianą	-0.027356101
-3.8389673	rozpostrzeć	-0.027356101
-3.6830227	niebie,	-0.079779014
-3.5316496	przyszłość	-0.027356101
-3.8389673	stroskaną,	-0.027356101
-3.0834723	miłość	-0.027356101
-3.8389673	pogrzebie…	-0.027356101
-3.8389673	pamiątką	-0.027356101
-3.8389673	przeżyją	-0.027356101
-3.8389673	nieśmiertelności	-0.027356101
-3.8389673	poszukuj	-0.027356101
-3.8389673	czynnikach,	-0.027356101
-3.8389673	rozprzęgną;	-0.027356101
-3.8389673	kość	-0.027356101
-3.8389673	ścięgno,	-0.027356101
-3.6830227	żądz	-0.027356101
-3.8389673	płomyki,	-0.027356101
-3.8389673	dumne	-0.027356101
-3.8389673	głowie	-0.027356101
-3.8389673	lęgną,	-0.027356101
-3.6830227	pójdą	-0.027356101
-3.6830227	pastwę	-0.027356101
-3.5316496	przemian	-0.027356101
-3.8389673	druchnie,	-0.027356101
-3.8389673	zlepek	-0.027356101
-3.8389673	znikomy	-0.027356101
-3.8389673	sięgną,	-0.027356101
-3.8389673	osobistej	-0.027356101
-3.6830227	oddźwięk	-0.027356101
-3.8389673	świeci	-0.027356101
-3.8389673	cacek	-0.027356101
-3.8389673	kramie,	-0.027356101
-3.8389673	przypadkowe,	-0.027356101
-3.8389673	ułomne	-0.027356101
-3.8389673	liche,	-0.027356101
-3.8389673	zachceń	-0.027356101
-3.8389673	osobistych	-0.027356101
-3.6830227	znamię,	-0.079779014
-3.6830227	przystraja	-0.027356101
-3.8389673	odrębności	-0.027356101
-3.8389673	pychę,	-0.027356101
-3.8389673	skorupą	-0.027356101
-3.8389673	prochy	-0.027356101
-3.8389673	rozłamie,	-0.027356101
-3.8389673	dno	-0.027356101
-3.6830227	przepaści	-0.027356101
-3.8389673	opadając	-0.027356101
-3.8389673	ciche.	-0.027356101
-3.8389673	fazy	-0.027356101
-3.2521448	myśl	-0.027356071
-3.8389673	wielka	-0.027356101
-3.8389673	zajaśnieje	-0.027356101
-3.8389673	porwie	-0.027356101
-3.8389673	mętną	-0.027356101
-3.1596708	ludzi	-0.027356101
-3.8389673	falę,	-0.027356101
-3.8389673	burzliwym	-0.027356101
-3.8389673	prądem	-0.027356101
-3.6830227	niosąc	-0.027356101
-3.8389673	szczęściu,	-0.027356101
-3.8389673	prawdzie,	-0.027356101
-3.8389673	zwycięstwu	-0.027356101
-3.6830227	chwale,	-0.079779014
-3.6830227	pierś	-0.027356101
-3.8389673	olbrzymieje,	-0.027356101
-3.8389673	trwogi	-0.027356101
-3.6830227	wyrasta	-0.027356101
-3.8389673	nieśmiertelną	-0.027356101
-3.8389673	sięgając	-0.027356101
-3.8389673	owego	-0.027356101
-3.8389673	tajnego	-0.027356101
-3.6830227	ogniska,	-0.079779014
-3.6830227	ożywcze	-0.027356101
-3.8389673	spływają	-0.027356101
-3.8389673	promienie,	-0.027356101
-3.5316496	życie,	-0.061592497
-3.8389673	siłą	-0.027356101
-3.8389673	młodością	-0.027356101
-3.8389673	tryska,	-0.027356101
-3.8389673	zyskuje	-0.027356101
-3.8389673	wartości	-0.027356101
-3.8389673	cenie,	-0.027356101
-3.5316496	pięknością	-0.027356101
-3.8389673	połyska,	-0.027356101
-3.8389673	godne	-0.027356101
-3.8389673	męskiej	-0.027356101
-3.5316496	pracy	-0.027356101
-3.8389673	zakończenie.	-0.027356101
-3.8389673	zagaśnie	-0.027356101
-3.8389673	promieniej	-0.027356101
-3.8389673	zorzy,	-0.027356101
-3.8389673	ożywcza	-0.027356101
-3.8389673	sercami	-0.027356101
-3.8389673	włada,	-0.027356101
-3.5316496	duch	-0.027356101
-3.6830227	ludzki	-0.027356101
-3.8389673	waha	-0.027356101
-3.8389673	nikczemnieje	-0.027356101
-3.8389673	upada;	-0.027356101
-3.8389673	strach	-0.027356101
-3.5316496	ludzkie	-0.027356101
-3.8389673	stada,	-0.027356101
-3.8389673	zepsucie	-0.027356101
-3.8389673	mnoży…	-0.027356101
-3.5316496	rzesza	-0.027356101
-3.8389673	blada,	-0.027356101
-3.8389673	błądzi	-0.027356101
-3.5316496	celu	-0.027356101
-3.6830227	ciemnych	-0.027356101
-3.8389673	rozdroży.	-0.027356101
-3.8389673	zmieniony	-0.027356101
-3.8389673	stary,	-0.027356101
-3.8389673	samą	-0.027356101
-3.6830227	goryczą	-0.027356101
-3.8389673	dzieciom	-0.027356101
-3.8389673	płaci;	-0.027356101
-3.8389673	pragnień,	-0.027356101
-3.8389673	natchnień,	-0.027356101
-3.8389673	wiary,	-0.027356101
-3.8389673	urok,	-0.027356101
-3.3697894	całą	-0.027356101
-3.5316496	jasność	-0.027356101
-3.8389673	traci;	-0.027356101
-3.8389673	ohydnej	-0.027356101
-3.8389673	zjawia	-0.027356101
-3.8389673	straszne	-0.027356101
-3.5316496	widmo	-0.027356101
-3.8389673	nicości	-0.027356101
-3.8389673	kary!	-0.027356101
-3.8389673	xxviii	-0.027356101
-3.8389673	żegnają	-0.027356101
-3.8389673	zniknioną	-0.027356101
-3.6830227	burza	-0.027356101
-3.8389673	zniweczyła	-0.027356101
-3.8389673	spustoszoną	-0.027356101
-3.8389673	rozpaczając	-0.027356101
-3.8389673	niwą,	-0.027356101
-3.8389673	myślą,	-0.027356101
-3.3697894	ciemności	-0.027356101
-3.8389673	pochłoną,	-0.027356101
-3.8389673	dalszych	-0.027356101
-3.8389673	rozkwitów	-0.027356101
-3.8389673	mrożąc	-0.027356101
-3.8389673	siłę	-0.027356101
-3.8389673	żywą.	-0.027356101
-3.8389673	osłoną,	-0.027356101
-3.8389673	dobroczynną	-0.027356101
-3.6830227	martwości	-0.027356101
-3.8389673	pokrywą,	-0.027356101
-3.8389673	tysiącem	-0.027356101
-3.8389673	kiełków	-0.027356101
-3.6830227	drży	-0.027356101
-3.3697894	ziemi	-0.027356101
-3.8389673	łono,	-0.027356101
-3.8389673	ręką	-0.027356101
-3.6830227	natury	-0.027356101
-3.8389673	rozrzuconych	-0.027356101
-3.8389673	skrzętną.	-0.027356101
-3.8389673	spowiciu	-0.027356101
-3.5316496	nocy,	-0.027356101
-3.6830227	zimowej	-0.027356101
-3.8389673	zamieci,	-0.027356101
-3.8389673	bijące	-0.027356101
-3.8389673	ustaje	-0.027356101
-3.8389673	tętno.	-0.027356101
-3.8389673	walką	-0.027356101
-3.8389673	wre	-0.027356101
-3.8389673	namiętną,	-0.027356101
-3.8389673	wydobyć,	-0.027356101
-3.8389673	oświeci	-0.027356101
-3.8389673	brzask	-0.027356101
-3.8389673	wiosen	-0.027356101
-3.8389673	stuleci.	-0.027356101
-3.8389673	trojackim.	-0.027356101
-3.8389673	oceanu	-0.027356101
-3.6830227	wybrzeży,	-0.079779014
-3.8389673	cichej	-0.027356101
-3.8389673	grocie,	-0.027356101
-3.8389673	zwykła	-0.027356101
-3.8389673	kryć,	-0.027356101
-3.8389673	ranny	-0.027356101
-3.8389673	wilgotnych	-0.027356101
-3.8389673	mchach	-0.027356101
-3.8389673	leży,	-0.027356101
-3.8389673	umrzeć,	-0.027356101
-3.8389673	żyć.	-0.027356101
-3.8389673	wybiegnie	-0.027356101
-3.8389673	niebiosa,	-0.027356101
-3.8389673	przychodzi	-0.027356101
-3.8389673	synem	-0.027356101
-3.8389673	ronić	-0.027356101
-3.8389673	łzy,	-0.027356101
-3.8389673	macierzyńskich	-0.027356101
-3.2521448	łez	-0.027356101
-3.8389673	rosa	-0.027356101
-3.8389673	czoła	-0.027356101
-3.8389673	spędza	-0.027356101
-3.8389673	ciężkie	-0.027356101
-3.8389673	sny.	-0.027356101
-3.6830227	rwie	-0.027356101
-3.3697894	piersi	-0.027356101
-3.8389673	zbolałej	-0.027356101
-3.8389673	melodyjny,	-0.027356101
-3.8389673	ton,	-0.027356101
-3.8389673	przypomina	-0.027356101
-3.8389673	wielkości	-0.027356101
-3.6830227	chwały,	-0.079779014
-3.8389673	matce	-0.027356101
-3.6830227	skarży	-0.027356101
-3.8389673	«wyprosiła	-0.027356101
-3.8389673	trwania	-0.027356101
-3.8389673	pośmiertnego	-0.027356101
-3.6830227	straszny	-0.027356101
-3.8389673	dar?	-0.027356101
-3.8389673	pozostał	-0.027356101
-3.8389673	podziemnych	-0.027356101
-3.8389673	zagadką,	-0.027356101
-3.8389673	próżnych	-0.027356101
-3.8389673	żądać	-0.027356101
-3.5316496	bogów	-0.027356101
-3.8389673	świadomości,	-0.027356101
-3.5316496	płynie	-0.027356101
-3.8389673	ból,	-0.027356101
-3.8389673	zatrzymywać	-0.027356101
-3.8389673	progów,	-0.027356101
-3.8389673	miał	-0.027356101
-3.8389673	odejść	-0.027356101
-3.8389673	szczęśliwych	-0.027356101
-3.8389673	pól?	-0.027356101
-3.8389673	cieniami	-0.027356101
-3.8389673	stracić	-0.027356101
-3.6830227	pamięć	-0.027356101
-3.6830227	ziemskich	-0.027356101
-3.6830227	pozostać	-0.027356101
-3.8389673	nawpół	-0.027356101
-3.8389673	martwym	-0.027356101
-3.1596708	ziemi,	-0.4109223
-3.8389673	sercem,	-0.027356101
-3.8389673	śni.	-0.027356101
-3.8389673	przechował	-0.027356101
-3.8389673	zamkniętą	-0.027356101
-3.8389673	skrę	-0.027356101
-3.5316496	żywota	-0.027356101
-3.8389673	długą	-0.027356101
-3.6830227	noc,	-0.027356101
-3.8389673	dary	-0.027356101
-3.8389673	odjęto:	-0.027356101
-3.8389673	dzielność,	-0.027356101
-3.8389673	chwałę	-0.027356101
-3.8389673	królewską	-0.027356101
-3.8389673	moc!	-0.027356101
-3.8389673	znieważać	-0.027356101
-3.8389673	bezwładnego	-0.027356101
-3.8389673	lwa…	-0.027356101
-3.6830227	muszę	-0.027356101
-3.6830227	znosić	-0.027356101
-3.8389673	męczarnie,	-0.027356101
-3.8389673	chciała,	-0.027356101
-3.8389673	matko,	-0.027356101
-3.8389673	twa!»	-0.027356101
-3.8389673	macierzyńską	-0.027356101
-3.8389673	pieszczotą:	-0.027356101
-3.8389673	«synu	-0.027356101
-2.8676512	—	-0.18990722
-3.8389673	biedny	-0.027356101
-3.6830227	synu	-0.027356101
-3.8389673	powstać	-0.027356101
-3.6830227	ostatni	-0.027356101
-3.8389673	bój.	-0.027356101
-3.8389673	przeznaczenie	-0.027356101
-3.8389673	próśb	-0.027356101
-3.8389673	daremnych	-0.027356101
-3.8389673	słucha,	-0.027356101
-3.8389673	okupywać	-0.027356101
-3.5316496	grobie	-0.027356101
-3.8389673	zdobyć	-0.027356101
-3.6830227	moc	-0.027356101
-3.6830227	ducha	-0.079779014
-3.8389673	powrócić	-0.027356101
-3.8389673	bram».	-0.027356101
-3.8389673	młodych	-0.027356101
-3.8389673	szukajcie	-0.027356101
-3.6830227	jasnego	-0.027356101
-3.6830227	płomienia,	-0.079779014
-3.8389673	nowych,	-0.027356101
-3.8389673	nieodkrytych	-0.027356101
-3.8389673	dróg!	-0.027356101
-3.8389673	krokiem	-0.027356101
-3.8389673	tajniki	-0.027356101
-3.8389673	stworzenia	-0.027356101
-3.6830227	dusza	-0.027356101
-3.8389673	rozprzestrzenia	-0.027356101
-3.8389673	większym	-0.027356101
-3.6830227	staje	-0.027356101
-3.6830227	persname!	-0.027356101
-3.8389673	otrząśniecie	-0.027356101
-3.5316496	kwiaty	-0.027356101
-3.8389673	barwnych	-0.027356101
-3.8389673	mitów,	-0.027356101
-3.8389673	rozproszycie	-0.027356101
-3.8389673	legendowy	-0.027356101
-3.8389673	mrok,	-0.027356101
-3.8389673	urojeń	-0.027356101
-3.8389673	zedrzecie	-0.027356101
-3.6830227	błękitów	-0.027356101
-3.6830227	ludziom	-0.027356101
-3.8389673	niebiańskich	-0.027356101
-3.8389673	zbraknie	-0.027356101
-3.8389673	zachwytów,	-0.027356101
-3.8389673	sięgnie	-0.027356101
-3.8389673	wzrok.	-0.027356101
-3.8389673	epoka	-0.027356101
-3.6830227	własne	-0.027356101
-3.8389673	zapomina	-0.027356101
-3.8389673	wczorajszych	-0.027356101
-3.8389673	snach:	-0.027356101
-3.8389673	nieście	-0.027356101
-3.6830227	wiedzy	-0.027356101
-3.6830227	pochodnię	-0.027356101
-3.8389673	czele	-0.027356101
-3.8389673	bierzcie	-0.027356101
-3.8389673	dziele	-0.027356101
-3.8389673	podnoście	-0.027356101
-3.8389673	gmach!	-0.027356101
-3.8389673	depczcie	-0.027356101
-3.8389673	ołtarzy,	-0.027356101
-3.8389673	macie	-0.027356101
-3.6830227	sami	-0.027356101
-3.8389673	doskonalsze	-0.027356101
-3.8389673	wznieść:	-0.027356101
-3.8389673	święty	-0.027356101
-3.8389673	żarzy,	-0.027356101
-3.3697894	stoi	-0.052777052
-3.8389673	winniście	-0.027356101
-3.8389673	cześć!	-0.027356101
-3.8389673	zachodzi	-0.027356101
-3.8389673	tęczą	-0.027356101
-3.8389673	idealnych	-0.027356101
-3.8389673	snów,	-0.027356101
-3.8389673	prawdziwa	-0.027356101
-3.6830227	mądrość	-0.027356101
-3.8389673	pogodzi:	-0.027356101
-3.8389673	wasze	-0.027356101
-3.8389673	gwiazdy,	-0.027356101
-3.8389673	zdobywcy	-0.027356101
-3.8389673	młodzi,	-0.027356101
-3.6830227	ciemnościach	-0.027356101
-3.8389673	pogasną	-0.027356101
-3.8389673	rzekłem,	-0.027356101
-3.8389673	usłyszała	-0.027356101
-3.8389673	szalona	-0.027356101
-3.8389673	pycha	-0.027356101
-3.8389673	władzców,	-0.027356101
-3.8389673	ościenne	-0.027356101
-3.8389673	dzierżyli	-0.027356101
-3.8389673	narody,	-0.027356101
-3.8389673	powstał,	-0.027356101
-3.8389673	mówiąc:	-0.027356101
-3.8389673	«ludu!	-0.027356101
-3.8389673	pragnę	-0.027356101
-3.8389673	zgody,	-0.027356101
-3.8389673	sąsiad	-0.027356101
-3.8389673	bezpieczeństwo	-0.027356101
-3.8389673	czycha;	-0.027356101
-3.6830227	możem	-0.027356101
-3.8389673	patrzyć	-0.027356101
-3.8389673	przeszkody	-0.027356101
-3.8389673	wywyższa	-0.027356101
-3.8389673	dumie	-0.027356101
-3.8389673	przyjaźń	-0.027356101
-3.8389673	odpycha?	-0.027356101
-3.8389673	honor	-0.027356101
-3.8389673	zagrożony	-0.027356101
-3.6830227	laur	-0.027356101
-3.8389673	usycha,	-0.027356101
-3.8389673	trza	-0.027356101
-3.8389673	odświeżyć	-0.027356101
-3.8389673	rycerstwa	-0.027356101
-3.8389673	młodej!	-0.027356101
-3.6830227	imię	-0.027356101
-3.8389673	najwyższego,	-0.027356101
-3.6830227	da	-0.027356101
-3.8389673	zwycięstwo,	-0.027356101
-3.8389673	stojąc	-0.027356101
-3.8389673	słusznej	-0.027356101
-3.8389673	sprawie,	-0.027356101
-3.8389673	uderzmy	-0.027356101
-3.8389673	wroga!	-0.027356101
-3.5316496	strony	-0.027356101
-3.8389673	gwałt,	-0.027356101
-3.8389673	krzywoprzysięstwo,	-0.027356101
-3.8389673	chęć	-0.027356101
-3.8389673	zaboru,	-0.027356101
-3.8389673	rzezie	-0.027356101
-3.8389673	pożoga.	-0.027356101
-3.8389673	szlachetna	-0.027356101
-3.8389673	duma	-0.027356101
-3.8389673	rycerskie	-0.027356101
-3.8389673	męstwo:	-0.027356101
-3.8389673	uderzmy,	-0.027356101
-3.8389673	zwyciężym	-0.027356101
-3.8389673	zrządzeniem	-0.027356101
-3.8389673	persname!»	-0.027356101
-3.8389673	xxxii	-0.027356101
-3.8389673	szczęściu!	-0.027356101
-3.8389673	miłości!	-0.027356101
-3.6830227	owoc	-0.027356101
-3.8389673	dojrzewa:	-0.027356101
-3.8389673	rwiemy	-0.027356101
-3.8389673	inny	-0.027356101
-3.8389673	przeklętego	-0.027356101
-3.8389673	drzewa,	-0.027356101
-3.8389673	wiedzę	-0.027356101
-3.3697894	bytu	-0.027356101
-3.6830227	nicości.	-0.079779014
-3.8389673	znać	-0.027356101
-3.8389673	uniesień	-0.027356101
-3.8389673	młodości,	-0.027356101
-3.8389673	kolebce	-0.027356101
-3.8389673	truciznę	-0.027356101
-3.8389673	wlewa	-0.027356101
-3.8389673	haniebnej	-0.027356101
-3.8389673	przyszłości,	-0.027356101
-3.8389673	snu	-0.027356101
-3.8389673	straszliwe	-0.027356101
-3.8389673	śpiewa.	-0.027356101
-3.8389673	młodość	-0.027356101
-3.8389673	mija	-0.027356101
-3.8389673	błyskawica	-0.027356101
-3.8389673	bezpłodnej	-0.027356101
-3.5316496	burzy,	-0.027356101
-3.8389673	wypali	-0.027356101
-3.8389673	znuży,	-0.027356101
-3.8389673	podnieść	-0.027356101
-3.8389673	cierpieć	-0.027356101
-3.0186687	…	-0.535861
-3.8389673	wygnaniu	-0.027356101
-3.8389673	giniemy	-0.027356101
-3.8389673	narodów,	-0.027356101
-3.8389673	nędzarzami!	-0.027356101
-3.8389673	dumą	-0.027356101
-3.8389673	hidalgów	-0.027356101
-3.8389673	łachmany,	-0.027356101
-3.8389673	odkrywacie	-0.027356101
-3.8389673	rany,	-0.027356101
-3.8389673	zarabiać	-0.027356101
-3.8389673	chleb	-0.027356101
-3.8389673	łzami.	-0.027356101
-3.6830227	własną	-0.027356101
-3.8389673	nikczemność	-0.027356101
-3.8389673	znacie	-0.027356101
-3.8389673	sami,	-0.027356101
-3.8389673	chowacie	-0.027356101
-3.8389673	pamiątek	-0.027356101
-3.8389673	kurhany,	-0.027356101
-3.8389673	skargę	-0.027356101
-3.8389673	stroskany,	-0.027356101
-3.8389673	wołacie:	-0.027356101
-3.8389673	świętość	-0.027356101
-3.8389673	plami.	-0.027356101
-3.8389673	litość	-0.027356101
-3.8389673	życzyć	-0.027356101
-3.8389673	biedni,	-0.027356101
-3.8389673	ułomni!	-0.027356101
-3.8389673	ciche	-0.027356101
-3.8389673	zalegli	-0.027356101
-3.6830227	cmentarze,	-0.079779014
-3.8389673	zeszli	-0.027356101
-3.8389673	bezpotomni;	-0.027356101
-3.8389673	nadzieję	-0.027356101
-3.8389673	ukaże:	-0.027356101
-3.8389673	zapomni!	-0.027356101
-3.5316496	jasne	-0.027356101
-3.8389673	proste	-0.027356101
-3.8389673	wierzące	-0.027356101
-3.8389673	słodyczą	-0.027356101
-3.8389673	gołębią,	-0.027356101
-3.8389673	przetrwawszy	-0.027356101
-3.6830227	ciężką	-0.027356101
-3.8389673	losu	-0.027356101
-3.8389673	chłostę,	-0.027356101
-3.5316496	szlachetnych	-0.027356101
-3.5316496	pragnień	-0.027356101
-3.8389673	wyziębią	-0.027356101
-3.8389673	niemi	-0.027356101
-3.8389673	widzą	-0.027356101
-3.8389673	piękno	-0.027356101
-3.8389673	dobro	-0.027356101
-3.8389673	żywota.	-0.027356101
-3.6830227	placename,	-0.027356101
-3.8389673	piękne	-0.027356101
-3.8389673	plony!	-0.027356101
-3.8389673	smutnem	-0.027356101
-3.8389673	zwalisku	-0.027356101
-3.8389673	dzika	-0.027356101
-3.8389673	orgia	-0.027356101
-3.6830227	szał	-0.027356101
-3.8389673	zapomnienia;	-0.027356101
-3.8389673	wschodzi	-0.027356101
-3.6830227	ciemna	-0.027356101
-3.8389673	jutrzenka	-0.027356101
-3.8389673	ucisku,	-0.027356101
-3.8389673	podeptanie	-0.027356101
-3.8389673	swobody,	-0.027356101
-3.8389673	sumienia;	-0.027356101
-3.8389673	jedność,	-0.027356101
-3.8389673	kupiona	-0.027356101
-3.8389673	drogo	-0.027356101
-3.8389673	pobojowisku,	-0.027356101
-3.8389673	jedno	-0.027356101
-3.8389673	więzienie	-0.027356101
-3.6830227	wolnych	-0.027356101
-3.8389673	zmienia;	-0.027356101
-3.8389673	pogwałcona	-0.027356101
-3.6830227	moralność	-0.027356101
-3.8389673	mści	-0.027356101
-3.6830227	dając	-0.027356101
-3.8389673	zysku	-0.027356101
-3.8389673	okres	-0.027356101
-3.8389673	prób	-0.027356101
-3.8389673	poniżenia.	-0.027356101
-3.8389673	gwałt	-0.027356101
-3.8389673	prawem,	-0.027356101
-3.8389673	świętością	-0.027356101
-3.8389673	siła,	-0.027356101
-3.8389673	pełzać	-0.027356101
-3.3697894	tłum	-0.027356101
-3.8389673	służalczy;	-0.027356101
-3.8389673	wiedząc,	-0.027356101
-3.6830227	ginie,	-0.027356101
-3.8389673	walczy;	-0.027356101
-3.8389673	zgnębiona	-0.027356101
-3.8389673	modliła	-0.027356101
-3.8389673	posągu	-0.027356101
-3.8389673	persname,	-0.027356101
-3.8389673	cześci	-0.027356101
-3.8389673	bałwochwalczej…	-0.027356101
-3.8389673	stało	-0.027356101
-3.8389673	chciałem:	-0.027356101
-3.8389673	pokryła.	-0.027356101
-3.8389673	oko	-0.027356101
-3.8389673	płaszczami	-0.027356101
-3.8389673	ściśnięte	-0.027356101
-3.8389673	zaporą	-0.027356101
-3.8389673	ścian	-0.027356101
-3.8389673	olbrzymich,	-0.027356101
-3.6830227	koło	-0.027356101
-3.8389673	zwarły,	-0.027356101
-3.8389673	ciemne	-0.027356101
-3.6830227	rozlewa	-0.027356101
-3.8389673	posępne	-0.027356101
-3.5316496	jezioro	-0.027356101
-3.8389673	odzwierciedlając	-0.027356101
-3.2521448	łonie	-0.027356101
-3.8389673	głazów	-0.027356101
-3.8389673	zamarły.	-0.027356101
-3.8389673	stoczone	-0.027356101
-3.8389673	szczytów	-0.027356101
-3.8389673	bryły,	-0.027356101
-3.8389673	mchu	-0.027356101
-3.6830227	pokryte	-0.027356101
-3.8389673	korą,	-0.027356101
-3.8389673	brzegach	-0.027356101
-3.8389673	rumowisko	-0.027356101
-3.8389673	rozpostarły,	-0.027356101
-3.8389673	niem	-0.027356101
-3.8389673	pogięte,	-0.027356101
-3.8389673	krzywe,	-0.027356101
-3.8389673	kosodrzewu	-0.027356101
-3.6830227	karły	-0.027356101
-3.8389673	gdzieniegdzie	-0.027356101
-3.8389673	nagą	-0.027356101
-3.8389673	pustkę	-0.027356101
-3.8389673	wianki	-0.027356101
-3.8389673	ubiorą.	-0.027356101
-3.8389673	granitowe	-0.027356101
-3.8389673	opoki	-0.027356101
-3.8389673	wyniesione	-0.027356101
-3.8389673	chmury	-0.027356101
-3.8389673	żywsze	-0.027356101
-3.8389673	dopuszczą…	-0.027356101
-3.6830227	tajemnicze	-0.027356101
-3.8389673	głębie	-0.027356101
-3.6830227	ponury.	-0.079779014
-3.8389673	oddali	-0.027356101
-3.8389673	potoki	-0.027356101
-3.8389673	pluszczą,	-0.027356101
-3.8389673	wichry,	-0.027356101
-3.8389673	przelatując	-0.027356101
-3.8389673	zmartwiałą	-0.027356101
-3.8389673	puszczą,	-0.027356101
-3.8389673	świstem	-0.027356101
-3.8389673	grozę	-0.027356101
-3.8389673	dzikiej	-0.027356101
-3.8389673	powiększą	-0.027356101
-3.8389673	natury.	-0.027356101
-3.8389673	twórcza	-0.027356101
-3.8389673	straszliwą	-0.027356101
-3.8389673	wykwita:	-0.027356101
-3.8389673	niezmierzonej	-0.027356101
-3.5316496	potęgi	-0.027356101
-3.8389673	siły,	-0.027356101
-3.8389673	gromami	-0.027356101
-3.8389673	skałach	-0.027356101
-3.8389673	rozdartych	-0.027356101
-3.8389673	wyryta	-0.027356101
-3.8389673	świadczy	-0.027356101
-3.8389673	przewrotach	-0.027356101
-3.8389673	ziemskiej	-0.027356101
-3.8389673	bryły.	-0.027356101
-3.6830227	dziki	-0.027356101
-3.8389673	zamęt!	-0.027356101
-3.8389673	głazami	-0.027356101
-3.8389673	zasłane	-0.027356101
-3.6830227	koryta	-0.027356101
-3.8389673	zdają	-0.027356101
-3.8389673	placem	-0.027356101
-3.6830227	boju,	-0.027356101
-3.8389673	walczyły	-0.027356101
-3.8389673	północne	-0.027356101
-3.8389673	groźne	-0.027356101
-3.8389673	bogi	-0.027356101
-3.8389673	piły	-0.027356101
-3.8389673	czary,	-0.027356101
-3.8389673	upadła,	-0.027356101
-3.8389673	rozbita.	-0.027356101
-3.8389673	ostrego	-0.027356101
-3.8389673	tonu	-0.027356101
-3.8389673	nagina:	-0.027356101
-3.8389673	poszarpane	-0.027356101
-3.6830227	gór	-0.027356101
-3.8389673	grzbiety,	-0.027356101
-3.8389673	czernieją,	-0.027356101
-3.8389673	skały,	-0.027356101
-3.8389673	wiszące	-0.027356101
-3.8389673	śniegi,	-0.027356101
-3.8389673	zarośla,	-0.027356101
-3.6830227	mgła	-0.027356101
-3.8389673	sina…	-0.027356101
-3.8389673	surowa	-0.027356101
-3.8389673	wielkość,	-0.027356101
-3.8389673	maleją	-0.027356101
-3.8389673	sny	-0.027356101
-3.6830227	człowieka,	-0.027356101
-3.8389673	staje,	-0.027356101
-3.8389673	mała	-0.027356101
-3.8389673	dziecina,	-0.027356101
-3.8389673	skamieniałą	-0.027356101
-3.8389673	dawnych	-0.027356101
-3.8389673	epopeją!	-0.027356101
-3.8389673	słońce,	-0.027356101
-3.8389673	zachodzie	-0.027356101
-3.6830227	złotą	-0.027356101
-3.8389673	tarczę	-0.027356101
-3.8389673	skłoni,	-0.027356101
-3.8389673	purpurą	-0.027356101
-3.8389673	zdobi	-0.027356101
-3.1596708	skał	-0.027356101
-3.8389673	korony	-0.027356101
-3.8389673	wierzchnie,	-0.027356101
-3.6830227	tysiąc	-0.027356101
-3.6830227	tęczowych	-0.027356101
-3.6830227	świateł	-0.027356101
-3.8389673	szczytach	-0.027356101
-3.5316496	goni,	-0.82254726
-3.8389673	zsinieje…	-0.027356101
-3.8389673	ogniem	-0.027356101
-3.8389673	zaświeci…	-0.027356101
-3.8389673	zmierzchnie.	-0.027356101
-3.6830227	dole	-0.027356101
-3.8389673	jeziora	-0.027356101
-3.8389673	zamąconej	-0.027356101
-3.6830227	toni,	-0.079779014
-3.8389673	odbity	-0.027356101
-3.8389673	zakrwawia	-0.027356101
-3.8389673	drżących	-0.027356101
-3.3697894	wód	-0.027356101
-3.8389673	powierzchnię,	-0.027356101
-3.8389673	skrwawionej	-0.027356101
-3.2521448	fali	-0.027356101
-3.6830227	płaszcz	-0.027356101
-3.8389673	osłoni,	-0.027356101
-3.8389673	rumieniec	-0.027356101
-3.8389673	wieczoru	-0.027356101
-3.8389673	pierzchnie.	-0.027356101
-3.8389673	zgasło…	-0.027356101
-3.8389673	napełniony	-0.027356101
-3.8389673	mrokiem…	-0.027356101
-3.8389673	olbrzymy	-0.027356101
-3.8389673	majaczeją	-0.027356101
-3.8389673	dali:	-0.027356101
-3.8389673	rosną	-0.027356101
-3.8389673	bezmiar	-0.027356101
-3.8389673	zmieniają	-0.027356101
-3.8389673	okiem…	-0.027356101
-3.8389673	pokryła	-0.027356101
-3.8389673	szarym	-0.027356101
-3.8389673	obłokiem	-0.027356101
-3.8389673	zniknęło…	-0.027356101
-3.8389673	słychać	-0.027356101
-3.6830227	szum	-0.027356101
-3.5316496	fali,	-0.061592497
-3.8389673	lecący	-0.027356101
-3.8389673	potok	-0.027356101
-3.8389673	żali…	-0.027356101
-3.8389673	króluje:	-0.027356101
-3.6830227	głowę	-0.027356101
-3.8389673	kładzie	-0.027356101
-3.8389673	dyadem;	-0.027356101
-3.8389673	błękity	-0.027356101
-3.8389673	przesiąka	-0.027356101
-3.8389673	niepewna	-0.027356101
-3.8389673	drżąca	-0.027356101
-3.8389673	skrytego	-0.027356101
-3.6830227	oczu	-0.027356101
-3.8389673	miesiąca;	-0.027356101
-3.8389673	ulatują	-0.027356101
-3.5316496	górę	-0.027356101
-3.8389673	śnieżnych	-0.027356101
-3.8389673	chmurek	-0.027356101
-3.8389673	stadem.	-0.027356101
-3.8389673	topnieje	-0.027356101
-3.6830227	świetle	-0.027356101
-3.8389673	niebieskiem	-0.027356101
-3.8389673	bladem	-0.027356101
-3.8389673	otchłanią	-0.027356101
-3.8389673	chwieje	-0.027356101
-3.8389673	wisząca.	-0.027356101
-3.8389673	geogname	-0.027356101
-3.8389673	szczelinę	-0.027356101
-3.6830227	wstał	-0.027356101
-3.8389673	wodospadem,	-0.027356101
-3.8389673	srebro	-0.027356101
-3.8389673	leje	-0.027356101
-3.8389673	przepaść	-0.027356101
-3.8389673	falami	-0.027356101
-3.8389673	strąca.	-0.027356101
-3.8389673	zwolna	-0.027356101
-3.8389673	kotlina	-0.027356101
-3.8389673	śpiących	-0.027356101
-3.8389673	topielą	-0.027356101
-3.8389673	wynurza	-0.027356101
-3.6830227	obraz	-0.027356101
-3.8389673	czarodziejskiej	-0.027356101
-3.8389673	księgi…	-0.027356101
-3.8389673	przeraźliwym	-0.027356101
-3.8389673	odblaskiem	-0.027356101
-3.8389673	bielą,	-0.027356101
-3.6830227	zmarłych	-0.027356101
-3.8389673	śmiertelną	-0.027356101
-3.8389673	pościelą;	-0.027356101
-3.8389673	czarne	-0.027356101
-3.8389673	płomienne	-0.027356101
-3.8389673	rysują	-0.027356101
-3.8389673	pręgi,	-0.027356101
-3.8389673	przypominając	-0.027356101
-3.8389673	piekieł	-0.027356101
-3.8389673	dantejskie	-0.027356101
-3.8389673	okręgi.	-0.027356101
-3.5316496	wielki	-0.027356101
-3.8389673	poemacie	-0.027356101
-3.8389673	natury!	-0.027356101
-3.6830227	iść	-0.027356101
-3.8389673	piękności	-0.027356101
-3.8389673	natchnieniem	-0.027356101
-3.8389673	wieczystem?	-0.027356101
-3.8389673	uchwyci	-0.027356101
-3.8389673	poranku	-0.027356101
-3.8389673	wzlatującą	-0.027356101
-3.8389673	zapali	-0.027356101
-3.8389673	niebie	-0.027356101
-3.8389673	gwiaździstem?	-0.027356101
-3.8389673	wyrzeźbi	-0.027356101
-3.6830227	kamienne	-0.027356101
-3.8389673	wodospadu	-0.027356101
-3.8389673	łoże?	-0.027356101
-3.8389673	przemówi	-0.027356101
-3.6830227	szumem	-0.027356101
-3.8389673	wichru	-0.027356101
-3.8389673	dzikim	-0.027356101
-3.8389673	świstem?	-0.027356101
-3.8389673	srebrne	-0.027356101
-3.8389673	chmurki	-0.027356101
-3.8389673	zawiesi	-0.027356101
-3.8389673	szafirów	-0.027356101
-3.8389673	przestworze	-0.027356101
-3.8389673	odbije	-0.027356101
-3.8389673	ostrza	-0.027356101
-3.8389673	zwierciadle	-0.027356101
-3.8389673	czystem?	-0.027356101
-3.8389673	poemacie!	-0.027356101
-3.8389673	można	-0.027356101
-3.8389673	odczuć	-0.027356101
-3.8389673	wielbić	-0.027356101
-3.8389673	drgnieniu	-0.027356101
-3.6830227	skrytem,	-0.027356101
-3.8389673	pijąc	-0.027356101
-3.6830227	blaski,	-0.027356101
-3.8389673	źrenica	-0.027356101
-3.8389673	pobożna	-0.027356101
-3.8389673	cichym	-0.027356101
-3.8389673	zachwycie	-0.027356101
-3.8389673	źródłem	-0.027356101
-3.8389673	obfitem,	-0.027356101
-3.8389673	skrzydłach	-0.027356101
-3.6830227	leci	-0.027356101
-3.8389673	trwożna	-0.027356101
-3.8389673	nakrywa	-0.027356101
-3.6830227	własnych	-0.027356101
-3.8389673	błękitem.	-0.027356101
-3.8389673	persnameczego	-0.027356101
-3.8389673	posępny	-0.027356101
-3.8389673	tłumie…]	-0.027356101
-3.6830227	tłumie,	-0.027356101
-3.8389673	napełnić	-0.027356101
-3.8389673	otuchą?	-0.027356101
-3.8389673	kamiennej	-0.027356101
-3.8389673	zadumie,	-0.027356101
-3.6830227	łzy	-0.027356101
-3.8389673	przywołać	-0.027356101
-3.8389673	źrenicę	-0.027356101
-3.8389673	suchą?	-0.027356101
-3.8389673	anielskie	-0.027356101
-3.8389673	chóry,	-0.027356101
-3.6830227	ucho	-0.027356101
-3.8389673	dosłuchiwało	-0.027356101
-3.8389673	szumie,	-0.027356101
-3.8389673	przebrzmiały	-0.027356101
-3.8389673	martwo,	-0.027356101
-3.8389673	chwytać	-0.027356101
-3.8389673	umie.	-0.027356101
-3.8389673	zatracił,	-0.027356101
-3.8389673	myśląc,	-0.027356101
-3.8389673	osłaniać	-0.027356101
-3.8389673	chłód	-0.027356101
-3.8389673	rozwaga,	-0.027356101
-3.6830227	złudzeń	-0.027356101
-3.8389673	rozbierzesz	-0.027356101
-3.8389673	naga	-0.027356101
-3.8389673	prochu,	-0.027356101
-3.8389673	robak,	-0.027356101
-3.8389673	zasklepi,	-0.027356101
-3.8389673	niedola	-0.027356101
-3.8389673	smaga,	-0.027356101
-3.8389673	łza	-0.027356101
-3.8389673	pokrzepi!…	-0.027356101
-3.8389673	morza	-0.027356101
-3.8389673	wzdętej	-0.027356101
-3.5316496	toni	-0.061592497
-3.8389673	wzbierając	-0.027356101
-3.8389673	pędzi,	-0.027356101
-3.8389673	srebrzystą	-0.027356101
-3.8389673	pianą	-0.027356101
-3.6830227	wrząca,	-0.079779014
-3.8389673	podskokach	-0.027356101
-3.8389673	roztrąca	-0.027356101
-3.8389673	ostrej	-0.027356101
-3.8389673	krawędzi;	-0.027356101
-3.8389673	tocząc	-0.027356101
-3.6830227	brzeg	-0.027356101
-3.8389673	płaski	-0.027356101
-3.8389673	błyszczące,	-0.027356101
-3.8389673	mokre	-0.027356101
-3.8389673	piaski,	-0.027356101
-3.8389673	kamyczki	-0.027356101
-3.8389673	muszelki,	-0.027356101
-3.8389673	dźwiecznem	-0.027356101
-3.8389673	echem,	-0.027356101
-3.8389673	oddechem	-0.027356101
-3.6830227	ocean	-0.027356101
-3.6830227	wciągnie	-0.027356101
-3.8389673	wielki.	-0.027356101
-3.8389673	wie	-0.027356101
-3.6830227	bezsilnym	-0.027356101
-3.8389673	jakich	-0.027356101
-3.8389673	celów	-0.027356101
-3.6830227	służy,	-0.079779014
-3.8389673	powracając	-0.027356101
-3.5316496	ginie	-0.027356101
-3.8389673	bezdennej	-0.027356101
-3.8389673	głębinie,	-0.027356101
-3.8389673	krótkiej	-0.027356101
-3.8389673	podróży.	-0.027356101
-3.8389673	ciągła	-0.027356101
-3.6830227	praca	-0.079779014
-3.8389673	skalisty	-0.027356101
-3.8389673	wywraca,	-0.027356101
-3.8389673	zmienia	-0.027356101
-3.8389673	prądów,	-0.027356101
-3.8389673	pochłania	-0.027356101
-3.8389673	ziem	-0.027356101
-3.8389673	przestworza,	-0.027356101
-3.8389673	wznosi	-0.027356101
-3.8389673	lądów.	-0.027356101
-3.8389673	smutna	-0.027356101
-3.8389673	użala	-0.027356101
-3.8389673	marność	-0.027356101
-3.8389673	zabiegów:	-0.027356101
-3.6830227	śladu	-0.027356101
-3.8389673	tonie,	-0.027356101
-3.6830227	wielkiej	-0.027356101
-3.8389673	całości	-0.027356101
-3.8389673	brzegów.	-0.027356101
-3.8389673	widocznych	-0.027356101
-3.8389673	śladów	-0.027356101
-3.8389673	pozostało,	-0.027356101
-3.8389673	zamysły	-0.027356101
-3.8389673	odparte	-0.027356101
-3.8389673	pędzie	-0.027356101
-3.8389673	ostre	-0.027356101
-3.8389673	krawędzie,	-0.027356101
-3.8389673	piana	-0.027356101
-3.8389673	prysły.	-0.027356101
-3.6830227	siła	-0.027356101
-3.6830227	żywa	-0.027356101
-3.8389673	wiążąca	-0.027356101
-3.6830227	ogniwa	-0.079779014
-3.8389673	długie	-0.027356101
-3.8389673	lat	-0.027356101
-3.8389673	koleje,	-0.027356101
-3.5316496	pokolenia	-0.027356101
-3.8389673	zmienia.	-0.027356101
-3.8389673	dzieje.	-0.027356101
-2.9123983	sen	-0.037346665
-3.8389673	sen,	-0.027356101
-3.8389673	uroczy	-0.027356101
-3.8389673	roztacza	-0.027356101
-3.6830227	krąg	-0.027356101
-3.6830227	cudownych	-0.027356101
-3.8389673	scen,	-0.027356101
-3.8389673	walczym	-0.027356101
-3.8389673	przedzie,	-0.027356101
-3.6830227	złotem	-0.027356101
-3.8389673	lśniąc,	-0.027356101
-3.6830227	kraj	-0.027356101
-3.8389673	bohaterstwa	-0.027356101
-3.8389673	wiedzie.	-0.027356101
-3.8389673	mar,	-0.027356101
-3.8389673	skrzydlatych	-0.027356101
-3.8389673	złudny	-0.027356101
-3.5316496	znika	-0.027356101
-3.8389673	czar,	-0.027356101
-3.8389673	ziszcza!	-0.027356101
-3.8389673	gmach,	-0.027356101
-3.8389673	zostają	-0.027356101
-3.8389673	gruzy	-0.027356101
-3.8389673	xxix	-0.027356101
-3.8389673	narodzie	-0.027356101
-3.8389673	swobody	-0.027356101
-3.8389673	żyje,	-0.027356101
-3.8389673	wola	-0.027356101
-3.5316496	męstwo	-0.027356101
-3.5316496	człowiecze,	-0.82254726
-3.8389673	zrzecze,	-0.027356101
-3.8389673	łańcuch,	-0.027356101
-3.8389673	ściska	-0.027356101
-3.8389673	szyję,	-0.027356101
-3.8389673	utkwione	-0.027356101
-3.5316496	piersiach	-0.027356101
-3.8389673	miecze,	-0.027356101
-3.8389673	przemoc	-0.027356101
-3.8389673	zabije,	-0.027356101
-3.6830227	dziejowej	-0.027356101
-3.6830227	hańby	-0.027356101
-3.8389673	zawlecze.	-0.027356101
-3.8389673	zginąć	-0.027356101
-3.3697894	własnej	-0.027356101
-3.8389673	ręki:	-0.027356101
-3.8389673	owładnie	-0.027356101
-3.8389673	senna,	-0.027356101
-3.6830227	głucha,	-0.079779014
-3.8389673	spoczynek	-0.027356101
-3.8389673	wskaże	-0.027356101
-3.8389673	zwątpienie,	-0.027356101
-3.8389673	szepcze	-0.027356101
-3.8389673	ucha:	-0.027356101
-3.6830227	jednem	-0.027356101
-3.8389673	lekarstwem	-0.027356101
-3.6830227	męki	-0.027356101
-3.8389673	dobrowolne	-0.027356101
-3.8389673	samobójstwo	-0.027356101
-3.8389673	ducha.	-0.027356101
-3.8389673	falach	-0.027356101
-3.8389673	toczy	-0.027356101
-3.8389673	słońc	-0.027356101
-3.8389673	miliony	-0.027356101
-3.5316496	wieczny	-0.027356101
-3.8389673	dna	-0.027356101
-3.8389673	goniec	-0.027356101
-3.8389673	uskrzydlony	-0.027356101
-3.6830227	przestrzeni,	-0.027356101
-3.8389673	promień	-0.027356101
-3.8389673	świetlany	-0.027356101
-3.8389673	zmierzy;	-0.027356101
-3.8389673	młodej	-0.027356101
-3.6830227	polot	-0.027356101
-3.6830227	świeży,	-0.079779014
-3.8389673	błysk	-0.027356101
-3.8389673	zwiady	-0.027356101
-3.8389673	rzucony,	-0.027356101
-3.8389673	krańców	-0.027356101
-3.8389673	dobieży	-0.027356101
-3.8389673	tajemniczej	-0.027356101
-3.8389673	przedrze	-0.027356101
-3.8389673	zasłony.	-0.027356101
-3.8389673	nieskończoności	-0.027356101
-3.5316496	łańcuch	-0.027356101
-3.8389673	wyciągnięty,	-0.027356101
-3.8389673	biegnąc	-0.027356101
-3.8389673	mroczne	-0.027356101
-3.5316496	przestrzeni	-0.027356101
-3.6830227	odmęty,	-0.079779014
-3.8389673	ogromu,	-0.027356101
-3.8389673	niemocą	-0.027356101
-3.8389673	ucięty.	-0.027356101
-3.8389673	drugiej	-0.027356101
-3.8389673	pokryjomu	-0.027356101
-3.6830227	nieskończonej	-0.027356101
-3.8389673	małości	-0.027356101
-3.8389673	atomu.	-0.027356101
-3.8389673	ptaki,	-0.027356101
-3.6830227	odlatywać	-0.027356101
-3.8389673	poczną,	-0.027356101
-3.8389673	przerwy	-0.027356101
-3.8389673	ciągną	-0.027356101
-3.8389673	dal	-0.027356101
-3.8389673	siną,	-0.027356101
-3.8389673	horyzontu	-0.027356101
-3.8389673	granicę	-0.027356101
-3.8389673	widoczną	-0.027356101
-3.8389673	raz	-0.027356101
-3.8389673	przekroczywszy,	-0.027356101
-3.8389673	giną…	-0.027356101
-3.5316496	nieskończoność	-0.027356101
-3.8389673	mroczną	-0.027356101
-3.8389673	nieprzerwanemi	-0.027356101
-3.8389673	łańcuchami	-0.027356101
-3.8389673	płyną,	-0.027356101
-3.8389673	wiedząc	-0.027356101
-3.8389673	wyszły?…	-0.027356101
-3.8389673	spoczną?…	-0.027356101
-3.8389673	wznoszą	-0.027356101
-3.8389673	krainą?	-0.027356101
-3.6830227	chmurach	-0.027356101
-3.6830227	blasku	-0.027356101
-3.8389673	promieni,	-0.027356101
-3.8389673	podległe	-0.027356101
-3.8389673	skrytych	-0.027356101
-3.8389673	instynktów	-0.027356101
-3.8389673	wskazówce,	-0.027356101
-3.8389673	lecą,	-0.027356101
-3.8389673	badając	-0.027356101
-3.8389673	wązki	-0.027356101
-3.8389673	szlak	-0.027356101
-3.8389673	znaczą	-0.027356101
-3.8389673	poprzedników	-0.027356101
-3.6830227	hufce,	-0.079779014
-3.8389673	przelotną	-0.027356101
-3.8389673	grę	-0.027356101
-3.8389673	cieni,	-0.027356101
-3.8389673	zobaczą	-0.027356101
-3.8389673	wędrówce.	-0.027356101
-3.6830227	wczorajszy	-0.027356101
-3.8389673	teraźniejszość	-0.027356101
-3.8389673	wyklina,	-0.027356101
-3.8389673	gniewają	-0.027356101
-3.8389673	ludzie:	-0.027356101
-3.8389673	zalotna	-0.027356101
-3.8389673	dziewczyna	-0.027356101
-3.8389673	piesek,	-0.027356101
-3.8389673	szczeka	-0.027356101
-3.8389673	budzie.	-0.027356101
-3.8389673	gorszą	-0.027356101
-3.8389673	kierunki,	-0.027356101
-3.8389673	potępia	-0.027356101
-3.8389673	działalność	-0.027356101
-3.8389673	cudzą,	-0.027356101
-3.6830227	piastunki	-0.027356101
-3.8389673	odrazę	-0.027356101
-3.8389673	budzą.	-0.027356101
-3.8389673	ściga,	-0.027356101
-3.8389673	zwycięża	-0.027356101
-3.8389673	świecie	-0.027356101
-3.8389673	intryga	-0.027356101
-3.8389673	mularzy.	-0.027356101
-3.8389673	zalewa	-0.027356101
-3.8389673	bezwstydny	-0.027356101
-3.8389673	cynizm	-0.027356101
-3.8389673	hydra	-0.027356101
-3.6830227	podnosi	-0.027356101
-3.6830227	czoło	-0.027356101
-3.8389673	socyalizm	-0.027356101
-3.8389673	jakobinizm.	-0.027356101
-3.8389673	widać	-0.027356101
-3.8389673	pociechy,	-0.027356101
-3.8389673	przepowiada	-0.027356101
-3.8389673	narodom,	-0.027356101
-3.6830227	czasów	-0.027356101
-3.8389673	grzechy,	-0.027356101
-3.8389673	biblijnych	-0.027356101
-3.8389673	sodom.	-0.027356101
-3.6830227	«,	-0.027356101
-3.8389673	wspomnieć	-0.027356101
-3.8389673	kosztował	-0.027356101
-3.8389673	najem,	-0.027356101
-3.8389673	robiło	-0.027356101
-3.8389673	rajem.	-0.027356101
-3.8389673	podatków	-0.027356101
-3.8389673	gniotło	-0.027356101
-3.5316496	pan	-0.027356101
-3.8389673	sprzedawał	-0.027356101
-3.5316496	ziemię,	-0.82254726
-3.8389673	dobry	-0.027356101
-3.8389673	kawał.	-0.027356101
-3.8389673	kwitła	-0.027356101
-3.8389673	dole…	-0.027356101
-3.8389673	niższa	-0.027356101
-3.8389673	narodu	-0.027356101
-3.8389673	warstwa	-0.027356101
-3.8389673	znosiła	-0.027356101
-3.8389673	niedolę	-0.027356101
-3.6830227	szukając	-0.027356101
-3.8389673	modłach	-0.027356101
-3.8389673	lekarstwa.	-0.027356101
-3.8389673	próżnej,	-0.027356101
-3.8389673	godził	-0.027356101
-3.8389673	stanem,	-0.027356101
-3.8389673	żebrak,	-0.027356101
-3.6830227	żył	-0.027356101
-3.8389673	jałmużny,	-0.027356101
-3.8389673	panem.	-0.027356101
-3.8389673	nauki	-0.027356101
-3.8389673	zgubnego	-0.027356101
-3.8389673	jadu	-0.027356101
-3.8389673	dusze	-0.027356101
-3.8389673	szczepił,	-0.027356101
-3.8389673	śladu,	-0.027356101
-3.8389673	wioskę	-0.027356101
-3.8389673	przepił».	-0.027356101
-3.8389673	zżyma	-0.027356101
-3.8389673	biada	-0.027356101
-3.8389673	poczciwa	-0.027356101
-3.8389673	dusza,	-0.027356101
-3.8389673	przywdział	-0.027356101
-3.8389673	ubiór	-0.027356101
-3.8389673	pielgrzyma	-0.027356101
-3.8389673	drogą	-0.027356101
-3.3697894	nocy	-0.027356101
-3.8389673	rusza.	-0.027356101
-3.8389673	błocie	-0.027356101
-3.8389673	kosturem	-0.027356101
-3.8389673	grzebie,	-0.027356101
-3.8389673	zapalił	-0.027356101
-3.8389673	łojową	-0.027356101
-3.8389673	świeczkę	-0.027356101
-3.6830227	patrzy	-0.027356101
-3.8389673	«idziesz?	-0.027356101
-3.8389673	pytam	-0.027356101
-3.8389673	szukasz	-0.027356101
-3.8389673	?»	-0.027356101
-3.8389673	odrzecze:	-0.027356101
-3.8389673	«szukam	-0.027356101
-3.5316496	dnia	-0.027356101
-3.8389673	wczorajszego».	-0.027356101
-3.8389673	«sądzę,	-0.027356101
-3.8389673	zajdziesz,	-0.027356101
-3.8389673	pospieszaj	-0.027356101
-3.8389673	jegomość,	-0.027356101
-3.8389673	znajdziesz,	-0.027356101
-3.8389673	przyślij	-0.027356101
-3.8389673	pocztą	-0.027356101
-3.8389673	wiadomość».	-0.027356101
-3.8389673	nieprzerwalności	-0.027356101
-3.8389673	zbiorowego	-0.027356101
-3.8389673	współistnienia	-0.027356101
-3.8389673	wieczystego	-0.027356101
-3.8389673	świadom,	-0.027356101
-3.8389673	spokojem,	-0.027356101
-3.8389673	błękitu,	-0.027356101
-3.8389673	pochodu	-0.027356101
-3.8389673	przyglądać	-0.027356101
-3.8389673	śladom:	-0.027356101
-3.8389673	cząstkowym	-0.027356101
-3.8389673	zgonom,	-0.027356101
-3.8389673	pozornym	-0.027356101
-3.8389673	zagładom,	-0.027356101
-3.8389673	burzliwej	-0.027356101
-3.8389673	ciemnemu	-0.027356101
-3.8389673	korytu,	-0.027356101
-3.8389673	lecącym	-0.027356101
-3.6830227	otchłań	-0.027356101
-3.8389673	stuleci	-0.027356101
-3.8389673	kaskadom,	-0.027356101
-3.8389673	pomrokom	-0.027356101
-3.8389673	jutrzenkom	-0.027356101
-3.8389673	świtu.	-0.027356101
-3.8389673	wydrze	-0.027356101
-3.8389673	błogiego	-0.027356101
-3.8389673	spokoju,	-0.027356101
-3.6830227	męczarni	-0.027356101
-3.8389673	małoduszna	-0.027356101
-3.8389673	trwoga,	-0.027356101
-3.8389673	wprawi	-0.027356101
-3.8389673	zamęt	-0.027356101
-3.8389673	złowroga;	-0.027356101
-3.8389673	widnieje	-0.027356101
-3.8389673	pewna	-0.027356101
-3.8389673	droga,	-0.027356101
-3.8389673	stopniem	-0.027356101
-3.8389673	wyższego	-0.027356101
-3.8389673	rozwoju.	-0.027356101
-3.8389673	xxxi	-0.027356101
-3.8389673	padło	-0.027356101
-3.8389673	proch	-0.027356101
-3.8389673	dumne,	-0.027356101
-3.8389673	dziwna	-0.027356101
-3.8389673	zeszła	-0.027356101
-3.8389673	trwoga;	-0.027356101
-3.8389673	bezmyślny	-0.027356101
-3.8389673	trumnę,	-0.027356101
-3.8389673	wsparła	-0.027356101
-3.8389673	zwycięzcy	-0.027356101
-3.8389673	noga.	-0.027356101
-3.8389673	wiedzą,	-0.027356101
-3.8389673	prochom	-0.027356101
-3.8389673	posłuchanie	-0.027356101
-3.8389673	dajesz	-0.027356101
-3.8389673	śmią	-0.027356101
-3.8389673	narzekać,	-0.027356101
-3.8389673	najlepsza	-0.027356101
-3.8389673	matek!	-0.027356101
-3.8389673	porzuciła	-0.027356101
-3.8389673	wroga;	-0.027356101
-3.8389673	wymową	-0.027356101
-3.8389673	cichą,	-0.027356101
-3.8389673	apostolską,	-0.027356101
-3.8389673	ucz	-0.027356101
-3.8389673	zginać	-0.027356101
-3.8389673	kolana,	-0.027356101
-3.8389673	harfą	-0.027356101
-3.8389673	eolską,	-0.027356101
-3.8389673	wichry	-0.027356101
-3.8389673	głoszą	-0.027356101
-3.8389673	pana.	-0.027356101
-3.8389673	jasnym	-0.027356101
-3.8389673	sztandarem	-0.027356101
-3.8389673	prochu	-0.027356101
-3.8389673	nieskalana.	-0.027356101
-3.8389673	xxiii	-0.027356101
-3.8389673	niezmiennych	-0.027356101
-3.8389673	poruszasz	-0.027356101
-3.8389673	kole,	-0.027356101
-3.8389673	rozpoznasz	-0.027356101
-3.6830227	twórcze	-0.027356101
-3.8389673	zamysły,	-0.027356101
-3.8389673	związek	-0.027356101
-3.8389673	dobrem	-0.027356101
-3.8389673	ścisły,	-0.027356101
-3.8389673	cel	-0.027356101
-3.8389673	wcielisz	-0.027356101
-3.8389673	wolę,	-0.027356101
-3.8389673	swobodne	-0.027356101
-3.6830227	masz	-0.027356101
-3.8389673	czynu	-0.027356101
-3.8389673	pole:	-0.027356101
-3.8389673	opadło	-0.027356101
-3.8389673	jarzmo,	-0.027356101
-3.6830227	więzy	-0.027356101
-3.8389673	prysły,	-0.027356101
-3.8389673	czynnik	-0.027356101
-3.8389673	chętny,	-0.027356101
-3.8389673	niezawisły,	-0.027356101
-3.8389673	rozwoju	-0.027356101
-3.8389673	grasz	-0.027356101
-3.8389673	świadomą	-0.027356101
-3.8389673	rolę.	-0.027356101
-3.3697894	chcesz	-0.027356101
-3.8389673	działać	-0.027356101
-3.8389673	powszechnej	-0.027356101
-3.8389673	szkodzie,	-0.027356101
-3.8389673	gwałcić	-0.027356101
-3.8389673	istotne	-0.027356101
-3.8389673	zadania	-0.027356101
-3.8389673	wszelka	-0.027356101
-3.8389673	praca;	-0.027356101
-3.8389673	jarzmo	-0.027356101
-3.8389673	kark	-0.027356101
-3.8389673	bodzie,	-0.027356101
-3.8389673	wyższa	-0.027356101
-3.8389673	potęga	-0.027356101
-3.8389673	przemocą	-0.027356101
-3.8389673	wlecze	-0.027356101
-3.8389673	zwraca.	-0.027356101
-3.8389673	tryumfuję,	-0.027356101
-3.6830227	patrząc	-0.027356101
-3.8389673	dyszącą	-0.027356101
-3.8389673	bólu,	-0.027356101
-3.8389673	łzach,	-0.027356101
-3.8389673	żałobie;	-0.027356101
-3.8389673	jeden,	-0.027356101
-3.8389673	dyademie	-0.027356101
-3.8389673	umieściłem	-0.027356101
-3.8389673	chwale	-0.027356101
-3.8389673	ozdobie.	-0.027356101
-3.8389673	klęsk	-0.027356101
-3.8389673	sprowadzając	-0.027356101
-3.8389673	brzemię	-0.027356101
-3.8389673	ród	-0.027356101
-3.6830227	pełen	-0.027356101
-3.8389673	złości,	-0.027356101
-3.8389673	robię,	-0.027356101
-3.8389673	wytracając	-0.027356101
-3.8389673	przeklęte	-0.027356101
-3.8389673	oparłem	-0.027356101
-3.8389673	własny	-0.027356101
-3.6830227	grobie.	-0.079779014
-3.8389673	skończone.	-0.027356101
-3.8389673	skryty	-0.027356101
-3.8389673	spogląda	-0.027356101
-3.6830227	dół	-0.027356101
-3.8389673	okiem	-0.027356101
-3.8389673	ojcowskiej	-0.027356101
-3.8389673	litości,	-0.027356101
-3.8389673	gotów	-0.027356101
-3.8389673	łup	-0.027356101
-3.8389673	odebrać	-0.027356101
-3.3697894	czyn	-0.027356101
-3.8389673	pracowity	-0.027356101
-3.8389673	zniweczyć	-0.027356101
-3.5316496	łaski	-0.027356101
-3.8389673	miłości…	-0.027356101
-3.8389673	rozkazuje.	-0.027356101
-3.6830227	przekleństwo	-0.027356101
-3.6830227	rzucam	-0.027356101
-3.8389673	błękity!	-0.027356101
-3.8389673	wieczyste	-0.027356101
-3.8389673	ciemności.	-0.027356101
-3.8389673	gościł	-0.027356101
-3.8389673	gościnie	-0.027356101
-3.6830227	było,	-0.027356101
-3.8389673	serca,	-0.027356101
-3.8389673	zgubiło.	-0.027356101
-3.8389673	harfa	-0.027356101
-3.8389673	powiewem,	-0.027356101
-3.8389673	miotany	-0.027356101
-3.8389673	miłością,	-0.027356101
-3.8389673	bolem	-0.027356101
-3.8389673	gniewem.	-0.027356101
-3.5316496	piękna	-0.027356101
-3.8389673	kochanek,	-0.027356101
-3.8389673	czciciel	-0.027356101
-3.8389673	marzył	-0.027356101
-3.8389673	duchach	-0.027356101
-3.8389673	niezłomnych	-0.027356101
-3.8389673	szukał	-0.027356101
-3.8389673	gminu.	-0.027356101
-3.8389673	podawał	-0.027356101
-3.8389673	wierzył,	-0.027356101
-3.8389673	zbratani	-0.027356101
-3.8389673	wielkością	-0.027356101
-3.8389673	celu,	-0.027356101
-3.8389673	spojeni	-0.027356101
-3.8389673	żelazem.	-0.027356101
-3.8389673	anioła	-0.027356101
-3.8389673	widział	-0.027356101
-3.8389673	kobiecie,	-0.027356101
-3.8389673	rozdarła,	-0.027356101
-3.8389673	bracia?	-0.027356101
-3.8389673	zawiedli,	-0.027356101
-3.8389673	ziemska	-0.027356101
-3.8389673	umarła.	-0.027356101
-3.8389673	miłował	-0.027356101
-3.8389673	rodzinny	-0.027356101
-3.8389673	tęsknem	-0.027356101
-3.5316496	uczuciem	-0.027356101
-3.8389673	sieroty,	-0.027356101
-3.8389673	wierzył	-0.027356101
-3.8389673	zwycięstwo	-0.027356101
-3.8389673	cnoty;	-0.027356101
-3.8389673	szlachetny	-0.027356101
-3.6830227	umiera,	-0.079779014
-3.8389673	znajdzie	-0.027356101
-3.3697894	bohatera.	-0.947486
-3.8389673	ujrzał	-0.027356101
-3.8389673	rozwiane	-0.027356101
-3.8389673	mary,	-0.027356101
-3.8389673	strasznego	-0.027356101
-3.8389673	rozbicia	-0.027356101
-3.8389673	świadek	-0.027356101
-3.8389673	ostatniej	-0.027356101
-3.8389673	pozbył	-0.027356101
-3.8389673	wiary;	-0.027356101
-3.8389673	uszedł	-0.027356101
-3.8389673	wrogiem,	-0.027356101
-3.8389673	potwarzy	-0.027356101
-3.8389673	ciosu,	-0.027356101
-3.8389673	podzielić	-0.027356101
-3.8389673	losu.	-0.027356101
-3.8389673	błądził	-0.027356101
-3.8389673	obcych	-0.027356101
-3.8389673	nieznany,	-0.027356101
-3.8389673	samotny	-0.027356101
-3.8389673	człowiek,	-0.027356101
-3.8389673	umarł	-0.027356101
-3.8389673	zdala	-0.027356101
-3.8389673	zamknął	-0.027356101
-3.8389673	powiek,	-0.027356101
-3.8389673	wspomni,	-0.027356101
-3.8389673	garścią	-0.027356101
-3.8389673	popiołów,	-0.027356101
-3.8389673	twarda	-0.027356101
-3.6830227	ziemia	-0.027356101
-3.8389673	wygnania	-0.027356101
-3.5316496	sercu	-0.027356101
-3.8389673	ołów.	-0.027356101
-3.8389673	xxv	-0.027356101
-3.8389673	cząsteczka	-0.027356101
-3.5316496	wszechświata	-0.027356101
-3.8389673	myśląca,	-0.027356101
-3.8389673	szukam	-0.027356101
-3.8389673	myślę,	-0.027356101
-3.6830227	wiąże	-0.027356101
-3.6830227	mem	-0.027356101
-3.8389673	pojęciem	-0.027356101
-3.8389673	odczucie	-0.027356101
-3.8389673	gorąca.	-0.027356101
-3.8389673	znam	-0.027356101
-3.8389673	form	-0.027356101
-3.8389673	tysiąca	-0.027356101
-3.6830227	natury,	-0.027356101
-3.8389673	odbitej	-0.027356101
-3.8389673	umyśle,	-0.027356101
-3.8389673	sądzę	-0.027356101
-3.8389673	przyśle	-0.027356101
-3.6830227	czem	-0.027356101
-3.8389673	władze	-0.027356101
-3.8389673	dane	-0.027356101
-3.8389673	potrąca.	-0.027356101
-3.8389673	twórcza,	-0.027356101
-3.8389673	wieczna,	-0.027356101
-3.8389673	bezcelowa,	-0.027356101
-3.8389673	zmieścić	-0.027356101
-3.8389673	pojęć	-0.027356101
-3.8389673	ramie,	-0.027356101
-3.8389673	wiecznym	-0.027356101
-3.8389673	prawom,	-0.027356101
-3.8389673	chowa,	-0.027356101
-3.8389673	konieczności,	-0.027356101
-3.8389673	ludzkiej	-0.027356101
-3.8389673	dążności	-0.027356101
-3.8389673	narzucamy	-0.027356101
-3.8389673	język	-0.027356101
-3.8389673	tłómacząc	-0.027356101
-3.8389673	słowa.	-0.027356101
-3.8389673	związku	-0.027356101
-3.8389673	ogromem	-0.027356101
-3.8389673	człowiek	-0.027356101
-3.8389673	granice	-0.027356101
-3.5316496	istnienia	-0.027356101
-3.8389673	rozszerza;	-0.027356101
-3.6830227	mocy	-0.027356101
-3.8389673	naturą	-0.027356101
-3.8389673	przymierza	-0.027356101
-3.8389673	atomem,	-0.027356101
-3.8389673	tonącym	-0.027356101
-3.8389673	wnętrzu	-0.027356101
-3.6830227	nicestwa	-0.027356101
-3.8389673	łakomem;	-0.027356101
-3.8389673	odzyskuje	-0.027356101
-3.8389673	odwagę	-0.027356101
-3.8389673	żołnierza,	-0.027356101
-3.8389673	wie,	-0.027356101
-3.8389673	armia	-0.027356101
-3.8389673	świeża,	-0.027356101
-3.8389673	domem.	-0.027356101
-3.6830227	potęgi,	-0.079779014
-3.8389673	rozciąga	-0.027356101
-3.8389673	ogarniać	-0.027356101
-3.8389673	widnokręgi,	-0.027356101
-3.8389673	niewstrzymanym	-0.027356101
-3.8389673	pędzie,	-0.027356101
-3.8389673	tle	-0.027356101
-3.8389673	wijącej	-0.027356101
-3.8389673	wstęgi	-0.027356101
-3.6830227	jest	-0.027356101
-3.6830227	będzie.	-0.079779014
-3.8389673	datew	-0.027356101
-3.8389673	wyższe	-0.027356101
-3.8389673	przeradza	-0.027356101
-3.8389673	wzory	-0.027356101
-3.8389673	pył	-0.027356101
-3.8389673	ożywiony,	-0.027356101
-3.8389673	krąży;	-0.027356101
-3.8389673	cieniu	-0.027356101
-3.8389673	pogrąży,	-0.027356101
-3.8389673	świt	-0.027356101
-3.8389673	rozbudzi	-0.027356101
-3.8389673	skory.	-0.027356101
-3.6830227	śmierć,	-0.027356101
-3.8389673	ciągłego	-0.027356101
-3.8389673	postępu	-0.027356101
-3.8389673	chorąży!	-0.027356101
-3.8389673	prowadzi	-0.027356101
-3.8389673	tory,	-0.027356101
-3.8389673	wschodzącym	-0.027356101
-3.8389673	kiełkom	-0.027356101
-3.8389673	usuwa	-0.027356101
-3.8389673	zapory	-0.027356101
-3.8389673	rzeszą	-0.027356101
-3.8389673	istot	-0.027356101
-3.8389673	dąży.	-0.027356101
-3.8389673	opatrznej,	-0.027356101
-3.8389673	surowej	-0.027356101
-3.8389673	zastyga	-0.027356101
-3.8389673	próchnem	-0.027356101
-3.6830227	pleśnią,	-0.079779014
-3.8389673	przebrzmiewa	-0.027356101
-3.8389673	pieśnią,	-0.027356101
-3.8389673	mknąc	-0.027356101
-3.8389673	chyżej,	-0.027356101
-3.8389673	stopniach	-0.027356101
-3.5316496	posuwa	-0.027356101
-3.8389673	otaczają	-0.027356101
-3.8389673	zacieśnionej	-0.027356101
-3.8389673	zatrzymując	-0.027356101
-3.8389673	sięga	-0.027356101
-3.8389673	krawędzie	-0.027356101
-3.8389673	pytamy:	-0.027356101
-3.5316496	?	-0.027356101
-3.8389673	dzieci.	-0.027356101
-3.8389673	drodze	-0.027356101
-3.8389673	roznieci,	-0.027356101
-3.8389673	szerszy	-0.027356101
-3.8389673	posiędzie,	-0.027356101
-3.8389673	miejsca,	-0.027356101
-3.8389673	oświeci,	-0.027356101
-3.6830227	większą	-0.027356101
-3.8389673	blaskiem	-0.027356101
-3.8389673	zdobytej	-0.027356101
-3.8389673	miarę	-0.027356101
-3.6830227	widzeń	-0.027356101
-3.6830227	rozprzestrzenia,	-0.079779014
-3.6830227	obszar	-0.027356101
-3.8389673	mroków	-0.027356101
-3.8389673	nieprzebytych	-0.027356101
-3.6830227	rośnie…	-0.027356101
-3.8389673	dostrzedz	-0.027356101
-3.8389673	możemy,	-0.027356101
-3.6830227	niczem,	-0.079779014
-3.8389673	nieznanem,	-0.027356101
-3.8389673	tajemniczem,	-0.027356101
-3.8389673	zasłania	-0.027356101
-3.8389673	złość	-0.027356101
-3.8389673	zniweczy,	-0.027356101
-3.8389673	występek	-0.027356101
-3.8389673	zburzy,	-0.027356101
-3.8389673	gruzów	-0.027356101
-3.8389673	napowrót	-0.027356101
-3.8389673	postawi.	-0.027356101
-3.8389673	upadłą	-0.027356101
-3.8389673	kałuży,	-0.027356101
-3.8389673	spychają	-0.027356101
-3.8389673	występni	-0.027356101
-3.8389673	krwawi,	-0.027356101
-3.6830227	poświęcenia	-0.027356101
-3.8389673	zbawi.	-0.027356101
-3.6830227	myśl,	-0.027356101
-3.8389673	dobru	-0.027356101
-3.8389673	powszechnemu	-0.027356101
-3.8389673	wiedzie	-0.027356101
-3.8389673	duży,	-0.027356101
-3.8389673	lecących	-0.027356101
-3.8389673	żórawi.	-0.027356101
-3.8389673	cichych	-0.027356101
-3.3697894	poświęceń	-0.027356101
-3.8389673	nieustanna	-0.027356101
-3.5316496	serc	-0.027356101
-3.8389673	dobroć	-0.027356101
-3.8389673	promienista	-0.027356101
-3.8389673	spuścizny	-0.027356101
-3.8389673	odwraca,	-0.027356101
-3.8389673	przenikając,	-0.027356101
-3.8389673	czysta,	-0.027356101
-3.8389673	powszechny	-0.027356101
-3.8389673	skarbiec	-0.027356101
-3.8389673	wzbogaca,	-0.027356101
-3.8389673	czerpie	-0.027356101
-3.8389673	korzysta.	-0.027356101
-3.8389673	jaśminu	-0.027356101
-3.8389673	niebem	-0.027356101
-3.8389673	południa	-0.027356101
-3.8389673	palącem,	-0.027356101
-3.8389673	szło	-0.027356101
-3.8389673	mirtów	-0.027356101
-3.8389673	alei,	-0.027356101
-3.8389673	słów	-0.027356101
-3.5316496	namiętnych	-0.027356101
-3.6830227	rzucając	-0.027356101
-3.8389673	tysiącem;	-0.027356101
-3.8389673	nadziei.	-0.027356101
-3.8389673	pożegnanie	-0.027356101
-3.6830227	wieki…	-0.079779014
-3.8389673	trwa	-0.027356101
-3.8389673	księżyc	-0.027356101
-3.8389673	blady,	-0.027356101
-3.8389673	westchnienia	-0.027356101
-3.8389673	powtarzał	-0.027356101
-3.8389673	daleki	-0.027356101
-3.8389673	płaczącej	-0.027356101
-3.8389673	kaskady.	-0.027356101
-3.8389673	obcy	-0.027356101
-3.8389673	młodzian	-0.027356101
-3.8389673	opuszczał	-0.027356101
-3.8389673	dziewczynę,	-0.027356101
-3.8389673	powój	-0.027356101
-3.8389673	wrosła,	-0.027356101
-3.8389673	porzucał	-0.027356101
-3.8389673	słoneczną	-0.027356101
-3.8389673	krainę,	-0.027356101
-3.8389673	lecąc	-0.027356101
-3.8389673	niosła.	-0.027356101
-3.8389673	targając	-0.027356101
-3.8389673	wydziera,	-0.027356101
-3.8389673	jasna,	-0.027356101
-3.8389673	szczęśliwa,	-0.027356101
-3.8389673	uścisku	-0.027356101
-3.8389673	umiera.	-0.027356101
-3.8389673	biedne	-0.027356101
-3.8389673	dziewczę	-0.027356101
-3.8389673	zrozumieć	-0.027356101
-3.6830227	zdoła,	-0.079779014
-3.5316496	głos	-0.027356101
-3.6830227	smutny,	-0.027356101
-3.6830227	objęciach	-0.027356101
-3.8389673	dosięga,	-0.027356101
-3.8389673	dziecię	-0.027356101
-3.8389673	pieszczone:	-0.027356101
-3.8389673	niedobry,	-0.027356101
-3.8389673	smucić!	-0.027356101
-3.8389673	ranią	-0.027356101
-3.8389673	szalone,	-0.027356101
-3.8389673	mów,	-0.027356101
-3.8389673	rzucić!	-0.027356101
-3.8389673	droższego	-0.027356101
-3.8389673	miłość?…	-0.027356101
-3.8389673	wstrzyma,	-0.027356101
-3.8389673	idź»…	-0.027356101
-3.8389673	głosu	-0.027356101
-3.8389673	zabrakło	-0.027356101
-3.8389673	drżącego,	-0.027356101
-3.8389673	spojrzała	-0.027356101
-3.8389673	oczyma:	-0.027356101
-3.8389673	«patrz,	-0.027356101
-3.8389673	me	-0.027356101
-3.6830227	łonie,	-0.079779014
-3.8389673	braknie	-0.027356101
-3.5316496	oczach	-0.027356101
-3.8389673	dalekiej	-0.027356101
-3.8389673	stronie,	-0.027356101
-3.8389673	umrzyj	-0.027356101
-3.8389673	płakać,	-0.027356101
-3.8389673	smucić,	-0.027356101
-3.3697894	jednym	-0.027356101
-3.8389673	spoczniem	-0.027356101
-3.6830227	grobie,	-0.079779014
-3.8389673	porzucić;	-0.027356101
-3.6830227	wieczność	-0.079779014
-3.8389673	prześnimy	-0.027356101
-3.8389673	przebaczy	-0.027356101
-3.8389673	miłosierny!…	-0.027356101
-3.8389673	mam	-0.027356101
-3.8389673	idziesz	-0.027356101
-3.8389673	niewierny!?	-0.027356101
-3.8389673	umrzeć	-0.027356101
-3.8389673	?…	-0.027356101
-3.8389673	szczęśliwy!	-0.027356101
-3.8389673	kochanka	-0.027356101
-3.8389673	biedna	-0.027356101
-3.8389673	cudownej	-0.027356101
-3.8389673	obrazem	-0.027356101
-3.8389673	szczęście	-0.027356101
-3.8389673	wyjedna.	-0.027356101
-3.8389673	prośbie	-0.027356101
-3.8389673	serdecznej	-0.027356101
-3.8389673	uczyń	-0.027356101
-3.8389673	zadość,	-0.027356101
-3.8389673	cierpię	-0.027356101
-3.8389673	pomyślę,	-0.027356101
-3.8389673	rozłące	-0.027356101
-3.8389673	wiecznej	-0.027356101
-3.6830227	zapomnieć	-0.027356101
-3.8389673	lubił	-0.027356101
-3.8389673	wonny	-0.027356101
-3.8389673	jaśminu,	-0.027356101
-3.8389673	noszę»…	-0.027356101
-3.8389673	odpięła	-0.027356101
-3.8389673	chusteczkę	-0.027356101
-3.8389673	muślinu	-0.027356101
-3.8389673	mówiąc	-0.027356101
-3.8389673	«weź	-0.027356101
-3.8389673	gałązkę,	-0.027356101
-3.8389673	proszę,	-0.027356101
-3.8389673	druga	-0.027356101
-3.8389673	zostanie,	-0.027356101
-3.8389673	mówić	-0.027356101
-3.6830227	jedyny!	-0.079779014
-3.8389673	przyjdziesz	-0.027356101
-3.8389673	wołanie,	-0.027356101
-3.8389673	łzą	-0.027356101
-3.8389673	zroszą	-0.027356101
-3.8389673	jaśminy…»	-0.027356101
-3.8389673	oparta	-0.027356101
-3.8389673	ramieniu,	-0.027356101
-3.8389673	zemdlona	-0.027356101
-3.6830227	ust	-0.027356101
-3.8389673	ciśnie,	-0.027356101
-3.8389673	płomieniu,	-0.027356101
-3.8389673	kwiatach	-0.027356101
-3.8389673	zawiśnie,	-0.027356101
-3.8389673	wydarł	-0.027356101
-3.8389673	objęcia,	-0.027356101
-3.8389673	rzekł	-0.027356101
-3.8389673	żegnaj	-0.027356101
-3.8389673	droga!	-0.027356101
-3.8389673	zbawią	-0.027356101
-3.8389673	zaklęcia,	-0.027356101
-3.8389673	spotkamy	-0.027356101
-3.6830227	wieki,	-0.027356101
-3.8389673	dziewczyno!	-0.027356101
-3.5316496	duchy	-0.027356101
-3.8389673	wzywają	-0.027356101
-3.8389673	żałobie,	-0.027356101
-3.8389673	szedł	-0.027356101
-3.8389673	giną.	-0.027356101
-3.8389673	słyszę	-0.027356101
-3.8389673	okrzyk	-0.027356101
-3.8389673	krwawego	-0.027356101
-3.8389673	zagonu,	-0.027356101
-3.8389673	matkę	-0.027356101
-3.8389673	wołającą:	-0.027356101
-3.8389673	synu!	-0.027356101
-3.8389673	zachowam,	-0.027356101
-3.8389673	zachowam	-0.027356101
-3.8389673	zgonu	-0.027356101
-3.8389673	gałązkę	-0.027356101
-3.8389673	jaśminu…»	-0.027356101
-3.8389673	pompejański	-0.027356101
-3.8389673	zielone,	-0.027356101
-3.8389673	wonne	-0.027356101
-3.6830227	gaje	-0.027356101
-3.8389673	rozsiadły	-0.027356101
-3.8389673	uroczych	-0.027356101
-3.8389673	pagórkach	-0.027356101
-3.8389673	zbiegając	-0.027356101
-3.8389673	doliny;	-0.027356101
-3.8389673	dąb	-0.027356101
-3.8389673	kasztan	-0.027356101
-3.8389673	czoło,	-0.027356101
-3.8389673	drobniejsze	-0.027356101
-3.8389673	mirty,	-0.027356101
-3.8389673	laury	-0.027356101
-3.8389673	jaśminy.	-0.027356101
-3.8389673	pluszczą	-0.027356101
-3.8389673	źródła	-0.027356101
-3.8389673	melodyjnym	-0.027356101
-3.8389673	szmerem	-0.027356101
-3.8389673	ściekają	-0.027356101
-3.8389673	srebrzystym	-0.027356101
-3.6830227	wężem	-0.027356101
-3.8389673	migną	-0.027356101
-3.8389673	łomu	-0.027356101
-3.8389673	kamieni	-0.027356101
-3.8389673	sklepieniem	-0.027356101
-3.8389673	dębów	-0.027356101
-3.8389673	płyną	-0.027356101
-3.8389673	fali.	-0.027356101
-3.8389673	powietrzu	-0.027356101
-3.6830227	woni,	-0.027356101
-3.8389673	ciepła,	-0.027356101
-3.6830227	barw	-0.027356101
-3.8389673	blasku,	-0.027356101
-3.6830227	błękit	-0.027356101
-3.8389673	przesiąknięty	-0.027356101
-3.8389673	gorącem,	-0.027356101
-3.8389673	zda	-0.027356101
-3.8389673	lśnić	-0.027356101
-3.8389673	pyłkiem	-0.027356101
-3.8389673	złocistego	-0.027356101
-3.8389673	piasku,	-0.027356101
-3.8389673	iskierek	-0.027356101
-3.8389673	połyskać	-0.027356101
-3.8389673	tysiącem.	-0.027356101
-3.8389673	ciepłem	-0.027356101
-3.8389673	oświetleniu	-0.027356101
-3.8389673	drzew	-0.027356101
-3.8389673	zieloność	-0.027356101
-3.8389673	przyjmując	-0.027356101
-3.8389673	połysk	-0.027356101
-3.6830227	złoty	-0.027356101
-3.8389673	szmaragdy	-0.027356101
-3.8389673	błękitną	-0.027356101
-3.8389673	nieskończoność.	-0.027356101
-3.8389673	gaje,	-0.027356101
-3.8389673	błonia	-0.027356101
-3.8389673	wzgórza,	-0.027356101
-3.8389673	przejrzyste	-0.027356101
-3.8389673	zdroje,	-0.027356101
-3.8389673	uśmiechu	-0.027356101
-3.2521448	szczęścia	-0.027356101
-3.8389673	dreszczu,	-0.027356101
-3.8389673	wdzięczą	-0.027356101
-3.8389673	złotym	-0.027356101
-3.8389673	bóstwa	-0.027356101
-3.8389673	deszczu.	-0.027356101
-3.8389673	weselem,	-0.027356101
-3.8389673	tchnie	-0.027356101
-3.6830227	rozkoszą,	-0.079779014
-3.8389673	czarem	-0.027356101
-3.8389673	młodego	-0.027356101
-3.8389673	wiośnianych	-0.027356101
-3.8389673	rojeń.	-0.027356101
-3.8389673	miłosne	-0.027356101
-3.6830227	podnoszą	-0.027356101
-3.8389673	żądzą	-0.027356101
-3.8389673	wzruszeń	-0.027356101
-3.6830227	słodkich	-0.027356101
-3.8389673	upojeń.	-0.027356101
-3.8389673	płoną	-0.027356101
-3.8389673	laury,	-0.027356101
-3.8389673	mirty	-0.027356101
-3.8389673	pruszą	-0.027356101
-3.8389673	śniegiem	-0.027356101
-3.8389673	delikatnego	-0.027356101
-3.8389673	kwiecia,	-0.027356101
-3.8389673	wietrzyk	-0.027356101
-3.6830227	strąca,	-0.079779014
-3.8389673	szeleszczą	-0.027356101
-3.8389673	brzegiem,	-0.027356101
-3.8389673	białą	-0.027356101
-3.6830227	odsłoni	-0.027356101
-3.8389673	najada	-0.027356101
-3.8389673	płynąca.	-0.027356101
-3.8389673	głazie	-0.027356101
-3.8389673	zarośniętym	-0.027356101
-3.8389673	jedwabistą	-0.027356101
-3.8389673	starych	-0.027356101
-3.8389673	kasztanów	-0.027356101
-3.8389673	siedzi	-0.027356101
-3.8389673	rogaty:	-0.027356101
-3.8389673	ucieszne	-0.027356101
-3.8389673	bóstwo	-0.027356101
-3.8389673	lasów,	-0.027356101
-3.8389673	weselną	-0.027356101
-3.5316496	pieśnią	-0.027356101
-3.8389673	rozbawione,	-0.027356101
-3.8389673	szalejące	-0.027356101
-3.8389673	światy.	-0.027356101
-3.8389673	kosmate	-0.027356101
-3.8389673	koźle	-0.027356101
-3.6830227	nogi	-0.027356101
-3.8389673	podwinął	-0.027356101
-3.8389673	uwieńczon	-0.027356101
-3.8389673	różami	-0.027356101
-3.8389673	flet	-0.027356101
-3.8389673	dmucha,	-0.027356101
-3.8389673	śpiew	-0.027356101
-3.8389673	wodzie	-0.027356101
-3.8389673	kwili,	-0.027356101
-3.8389673	wzdycha,	-0.027356101
-3.8389673	pieści	-0.027356101
-3.8389673	miłośnie	-0.027356101
-3.8389673	grucha,	-0.027356101
-3.8389673	upojony	-0.027356101
-3.8389673	brzmień	-0.027356101
-3.8389673	słodyczą,	-0.027356101
-3.6830227	twarz	-0.027356101
-3.8389673	przekrzywia	-0.027356101
-3.8389673	podziwem	-0.027356101
-3.8389673	muska	-0.027356101
-3.8389673	brodę,	-0.027356101
-3.8389673	artysta	-0.027356101
-3.8389673	miną	-0.027356101
-3.8389673	tajemniczą	-0.027356101
-3.8389673	pląsające	-0.027356101
-3.8389673	nimfy	-0.027356101
-3.8389673	nadobne	-0.027356101
-3.8389673	młode.	-0.027356101
-3.8389673	przywabione	-0.027356101
-3.8389673	wybiegły	-0.027356101
-3.8389673	ukrycia,	-0.027356101
-3.8389673	tańczą	-0.027356101
-3.8389673	lotną	-0.027356101
-3.8389673	stopą	-0.027356101
-3.8389673	miękkiej	-0.027356101
-3.8389673	murawie…	-0.027356101
-3.8389673	tańca	-0.027356101
-3.8389673	pustoty,	-0.027356101
-3.8389673	czar	-0.027356101
-3.6830227	wiosny	-0.027356101
-3.8389673	ogarnia	-0.027356101
-3.8389673	tanecznice.	-0.027356101
-3.8389673	rozkosznej	-0.027356101
-3.8389673	postawie	-0.027356101
-3.8389673	wzburzoną	-0.027356101
-3.8389673	piersią	-0.027356101
-3.6830227	rzucone	-0.027356101
-3.8389673	świetlany,	-0.027356101
-3.8389673	wzlatują	-0.027356101
-3.8389673	rozpuściwszy	-0.027356101
-3.8389673	włosów	-0.027356101
-3.8389673	sploty,	-0.027356101
-3.8389673	drażnią	-0.027356101
-3.8389673	mirtach	-0.027356101
-3.8389673	fauny	-0.027356101
-3.8389673	sylwany,	-0.027356101
-3.8389673	omdlewają	-0.027356101
-3.8389673	zbytku	-0.027356101
-3.8389673	namiętnej	-0.027356101
-3.8389673	pustoty.	-0.027356101
-3.8389673	sokołów	-0.027356101
-3.8389673	lotu,	-0.027356101
-3.8389673	sokoły!	-0.027356101
-3.8389673	rozwińcie	-0.027356101
-3.8389673	skrzydlate	-0.027356101
-3.8389673	jutrzenki	-0.027356101
-3.8389673	wesoły,	-0.027356101
-3.8389673	dążcie	-0.027356101
-3.8389673	wędrówce,	-0.027356101
-3.8389673	ciał	-0.027356101
-3.8389673	rozkwitu,	-0.027356101
-3.8389673	pełni	-0.027356101
-3.6830227	ludzkiego	-0.027356101
-3.8389673	bytu!	-0.027356101
-3.8389673	zatoczcie	-0.027356101
-3.8389673	ziemią	-0.027356101
-3.8389673	polotów	-0.027356101
-3.8389673	kręgi,	-0.027356101
-3.8389673	budźcie	-0.027356101
-3.8389673	drzemią,	-0.027356101
-3.8389673	hasłem	-0.027356101
-3.8389673	wskrzeszonej	-0.027356101
-3.8389673	tchnijcie	-0.027356101
-3.8389673	moce	-0.027356101
-3.6830227	smutne	-0.027356101
-3.8389673	dziedzictwo	-0.027356101
-3.8389673	sieroce.	-0.027356101
-3.8389673	szlachetnej	-0.027356101
-3.8389673	dumy	-0.027356101
-3.8389673	prowadźcie,	-0.027356101
-3.8389673	przewodnicy!	-0.027356101
-3.8389673	zwątlone,	-0.027356101
