\data\
ngram 1=4548
ngram 2=9644
ngram 3=9515
ngram 4=7923
ngram 5=6207
ngram 6=4503

\1-grams:
-4.030742	<unk>	0
0	<s>	-0.8618387
-0.8147776	</s>	0
-2.6162114	persname	-0.07943123
-3.9269876	trojackim	-0.038168933
-3.9269876	niedaleko	-0.038168933
-3.9269876	oceanu	-0.038168933
-3.752925	wybrzeży	-0.15362066
-1.6491263	w	-0.08270613
-3.752925	cichej	-0.038168933
-3.9269876	grocie	-0.038168933
-3.1187358	gdzie	-0.052898787
-1.8759052	się	-0.10592366
-3.6155896	jutrznia	-0.038168933
-3.9269876	zwykła	-0.038168933
-3.9269876	kryć	-0.038168933
-3.9269876	ranny	-0.038168933
-1.9959791	na	-0.092582956
-3.9269876	wilgotnych	-0.038168933
-3.9269876	mchach	-0.038168933
-3.9269876	leży	-0.038168933
-1.7070216	i	-0.05615368
-2.0049956	nie	-0.09168349
-3.1823702	może	-0.087677404
-3.752925	umrzeć	-0.038168933
-3.4608948	ani	-0.038168903
-3.256956	żyć	-0.038168933
-2.2491612	co	-0.10952148
-3.0632448	noc	-0.038168933
-3.9269876	eos	-0.038168933
-3.256956	nim	-0.057004254
-3.9269876	wybiegnie	-0.038168933
-3.752925	niebiosa	-0.038168933
-3.1187358	tam	-0.038168933
-3.9269876	przychodzi	-0.038168933
-2.893046	nad	-0.038168903
-3.256956	swym	-0.038168933
-3.9269876	synem	-0.038168933
-3.9269876	ronić	-0.038168933
-3.4608948	łzy	-0.038168933
-3.752925	chwilę	-0.038168933
-3.9269876	macierzyńskich	-0.038168933
-3.256956	łez	-0.038168933
-3.9269876	rosa	-0.038168933
-1.9959791	z	-0.069329046
-3.1187358	jego	-0.038168933
-3.6155896	czoła	-0.11163315
-3.9269876	spędza	-0.038168933
-3.9269876	ciężkie	-0.038168933
-3.752925	sny	-0.038168933
-3.9269876	wtedy	-0.038168933
-3.752925	rwie	-0.15362066
-3.4608948	piersi	-0.038168933
-3.9269876	zbolałej	-0.038168933
-3.6155896	skargi	-0.038168933
-3.9269876	melodyjny	-0.038168933
-3.347063	smutny	-0.038168933
-3.9269876	ton	-0.038168933
-3.9269876	przypomina	-0.038168933
-3.4608948	dni	-0.09206962
-3.9269876	wielkości	-0.038168933
-3.6155896	chwały	-0.26867253
-3.0632448	swej	-0.038168933
-3.9269876	matce	-0.038168933
-2.893046	tak	-0.11972613
-3.752925	skarży	-0.038168933
-3.347063	on	-0.038168933
-3.9269876	czemuś	-0.038168933
-3.1187358	ty	-0.038168933
-2.7985156	mi	-0.07093807
-3.9269876	wyprosiła	-0.038168933
-2.5319026	o	-0.047933135
-3.752925	matko	-0.038168933
-3.752925	tego	-0.080741
-3.9269876	trwania	-0.038168933
-3.9269876	pośmiertnego	-0.038168933
-3.6155896	straszny	-0.038168933
-3.9269876	dar	-0.038168933
-3.9269876	pozostał	-0.038168933
-2.580501	dla	-0.11688242
-3.9269876	podziemnych	-0.038168933
-3.9269876	zagadką	-0.038168933
-3.0632448	a	-0.042243186
-3.752925	żywych	-0.038168933
-3.347063	jedną	-0.080741
-3.9269876	próżnych	-0.038168933
-3.4608948	mar	-0.09206962
-2.7710836	po	-0.05238247
-3.1823702	było	-0.078293696
-3.9269876	żądać	-0.038168933
-2.8277974	mnie	-0.051029995
-3.1187358	u	-0.09544259
-3.6155896	bogów	-0.038168933
-3.9269876	świadomości	-0.038168933
-3.4608948	której	-0.038168933
-3.4608948	płynie	-0.038168933
-2.7209277	tylko	-0.054700423
-3.347063	ból	-0.1614335
-3.9269876	zatrzymywać	-0.038168933
-3.9269876	progów	-0.038168933
-3.9269876	gdym	-0.038168933
-3.6155896	miał	-0.038168933
-3.9269876	odejść	-0.038168933
-2.4484942	do	-0.10596906
-3.9269876	szczęśliwych	-0.038168933
-3.752925	pól	-0.038168933
-3.6155896	lepiej	-0.038168933
-3.256956	wraz	-0.5697025
-3.9269876	cieniami	-0.038168933
-3.9269876	innemi	-0.038168933
-3.9269876	naraz	-0.038168933
-3.9269876	stracić	-0.038168933
-3.347063	całą	-0.038168933
-3.752925	pamięć	-0.038168933
-3.752925	ziemskich	-0.038168933
-3.4608948	niż	-0.07334952
-3.752925	pozostać	-0.038168933
-3.9269876	nawpół	-0.038168933
-3.9269876	martwym	-0.038168933
-3.256956	ziemi	-0.0642836
-3.752925	sercem	-0.038168933
-3.256956	które	-0.038168933
-3.1823702	przeszłości	-0.038168933
-3.9269876	śni	-0.038168933
-3.752925	żem	-0.038168933
-3.9269876	przechował	-0.038168933
-3.9269876	zamkniętą	-0.038168933
-3.9269876	skrę	-0.038168933
-3.347063	żywota	-0.080741
-2.929757	przez	-0.047484506
-3.256956	tę	-0.038168933
-3.9269876	długą	-0.038168933
-3.347063	grobu	-0.038168933
-2.9698606	gdy	-0.04926961
-2.9698606	wszystkie	-0.038168963
-3.9269876	dary	-0.038168933
-3.9269876	odjęto	-0.038168933
-3.9269876	dzielność	-0.038168933
-3.9269876	chwałę	-0.038168933
-3.9269876	królewską	-0.038168933
-3.6155896	moc	-0.038168933
-3.1823702	każdy	-0.055403065
-3.9269876	znieważać	-0.038168933
-3.9269876	bezkarnie	-0.038168933
-3.752925	śmiało	-0.038168933
-3.9269876	bezwładnego	-0.038168933
-3.752925	deptać	-0.038168933
-3.9269876	lwa	-0.038168933
-3.347063	ja	-0.07334952
-3.9269876	muszę	-0.038168933
-3.752925	znosić	-0.038168933
-3.6155896	męczarnie	-0.11163315
-3.752925	bo	-0.038168933
-3.9269876	chciała	-0.038168933
-2.9698606	miłość	-0.038168963
-3.752925	twa	-0.038168933
-2.6352315	to	-0.06680112
-3.9269876	macierzyńską	-0.038168933
-3.9269876	pieszczotą	-0.038168933
-3.4608948	synu	-0.09206962
-3.9269876	rzeknie	-0.038168933
-3.9269876	biedny	-0.038168933
-3.347063	mój	-0.038168933
-3.752925	musisz	-0.038168933
-3.9269876	taki	-0.038168933
-3.6155896	los	-0.038168933
-3.6155896	mógł	-0.038168933
-3.9269876	powstać	-0.038168933
-3.752925	ostatni	-0.038168933
-3.752925	bój	-0.038168933
-3.9269876	przeznaczenie	-0.038168933
-3.9269876	próśb	-0.038168933
-3.9269876	daremnych	-0.038168933
-3.9269876	słucha	-0.038168933
-3.347063	wszystko	-0.038168933
-3.1823702	trzeba	-0.055403065
-3.9269876	okupywać	-0.038168933
-2.8591974	nam	-0.038168933
-3.4608948	grobie	-0.20525113
-3.9269876	zdobyć	-0.038168933
-3.1823702	nową	-0.06814583
-3.347063	ducha	-0.49052125
-3.752925	chcąc	-0.038168933
-2.8591974	życia	-0.048427116
-3.1823702	znów	-0.038168933
-3.752925	powrócić	-0.038168933
-3.9269876	bram	-0.038168933
-3.9269876	----	-0.038168933
-3.9269876	głębiami	-0.038168933
-3.9269876	xxxii	-0.038168933
-2.929757	myśl	-0.038168933
-3.752925	szczęściu	-0.038168933
-3.4608948	miłości	-0.09206962
-2.929757	nas	-0.038168933
-2.8591974	ten	-0.054700423
-3.752925	owoc	-0.038168933
-3.347063	nigdy	-0.07334952
-3.9269876	dojrzewa	-0.038168933
-3.9269876	my	-0.038168933
-3.9269876	rwiemy	-0.038168933
-3.9269876	inny	-0.038168933
-3.9269876	przeklętego	-0.038168933
-3.9269876	drzewa	-0.038168933
-3.752925	daje	-0.038168933
-3.9269876	wiedzę	-0.038168933
-3.347063	bytu	-0.080741
-3.6155896	nicości	-0.11163315
-3.9269876	znać	-0.038168933
-3.752925	możem	-0.038168933
-3.9269876	uniesień	-0.038168933
-3.347063	młodości	-0.038168933
-2.7985156	już	-0.067369945
-3.9269876	kolebce	-0.038168933
-3.9269876	truciznę	-0.038168933
-3.9269876	wlewa	-0.038168933
-3.6155896	widmo	-0.038168933
-3.9269876	haniebnej	-0.038168933
-3.6155896	krwawej	-0.038168933
-3.1823702	przyszłości	-0.06814583
-3.9269876	snu	-0.038168933
-3.4608948	pieśni	-0.038168933
-3.9269876	straszliwe	-0.038168933
-3.752925	śpiewa	-0.15362066
-3.347063	więc	-0.038168933
-3.752925	młodość	-0.038168933
-3.9269876	nasza	-0.038168933
-3.9269876	mija	-0.038168933
-3.9269876	bezpowrotnie	-0.038168933
-2.5636902	jak	-0.06135541
-3.9269876	błyskawica	-0.038168933
-2.893046	wśród	-0.038168933
-3.9269876	bezpłodnej	-0.038168933
-3.4608948	burzy	-0.038168933
-3.0140476	serce	-0.038168933
-3.752925	nasze	-0.038168933
-3.9269876	wypali	-0.038168933
-3.9269876	znuży	-0.038168933
-3.256956	nic	-0.1621768
-3.6155896	zdoła	-0.080741
-3.9269876	podnieść	-0.038168933
-2.580501	go	-0.046038285
-3.9269876	istotnie	-0.038168933
-3.9269876	cierpieć	-0.038168933
-3.9269876	dłużej	-0.038168933
-3.9269876	wygnaniu	-0.038168933
-3.9269876	giniemy	-0.038168933
-3.9269876	samotnie	-0.038168933
-3.752925	date	-0.11163315
-3.4608948	dzieci	-0.038168933
-3.752925	spada	-0.038168933
-3.9269876	win	-0.038168933
-3.9269876	ojcowskich	-0.038168933
-3.752925	brzemię	-0.15362066
-3.752925	lud	-0.038168933
-3.9269876	pokutuje	-0.038168933
-2.4881992	za	-0.06890348
-3.752925	grzechy	-0.038168933
-3.9269876	zbrodniarza	-0.038168933
-3.9269876	każde	-0.038168933
-3.9269876	gwałcące	-0.038168933
-3.9269876	sprawiedliwość	-0.038168933
-3.9269876	plemię	-0.038168933
-3.752925	nieszczęść	-0.038168933
-3.256956	ludzkości	-0.038168933
-3.9269876	przysparza	-0.038168933
-3.752925	złe	-0.15362066
-3.9269876	zaraza	-0.038168933
-3.9269876	lot	-0.038168933
-3.9269876	obiega	-0.038168933
-3.256956	ziemię	-0.18049848
-3.4608948	czy	-0.080741
-3.256956	sobie	-0.18049848
-3.9269876	łachman	-0.038168933
-3.1823702	ma	-0.038168933
-3.9269876	nędzarza	-0.038168933
-3.9269876	też	-0.038168933
-3.9269876	książęcym	-0.038168933
-3.6155896	kroczy	-0.038168933
-3.9269876	dyademie	-0.038168933
-3.9269876	zatrutem	-0.038168933
-3.9269876	tchnieniem	-0.038168933
-2.9698606	cały	-0.052898787
-2.893046	świat	-0.067369945
-3.9269876	zaraża	-0.038168933
-3.752925	wobec	-0.038168933
-3.347063	praw	-0.038168933
-3.752925	światem	-0.038168933
-3.9269876	rządzących	-0.038168933
-3.9269876	wszechwładnie	-0.038168933
-3.752925	nikt	-0.038168933
-3.9269876	ujść	-0.038168933
-3.9269876	złych	-0.038168933
-3.9269876	wpływów	-0.038168933
-3.9269876	przekleństwa	-0.038168933
-3.9269876	każdemu	-0.038168933
-3.752925	dziale	-0.038168933
-3.9269876	część	-0.038168933
-3.752925	winy	-0.038168933
-3.9269876	przypadnie	-0.038168933
-3.256956	nawet	-0.038168933
-3.752925	cudze	-0.038168933
-3.752925	zbrodnie	-0.038168933
-3.9269876	szaleństwa	-0.038168933
-3.752925	nosi	-0.038168933
-3.4608948	duszy	-0.038168933
-3.1823702	swojej	-0.038168933
-3.9269876	dnie	-0.038168933
-3.9269876	odpowiedzialność	-0.038168933
-3.6155896	wspólną	-0.038168933
-3.9269876	człowieczeństwa	-0.038168933
-3.6155896	odpowiedzi	-0.038168933
-3.752925	znali	-0.038168933
-2.6759694	jest	-0.046355996
-3.9269876	dostatek	-0.038168933
-3.347063	lecz	-0.044551857
-3.347063	trud	-0.038168933
-3.752925	potrzeba	-0.15362066
-3.347063	nieraz	-0.038168933
-2.929757	im	-0.038168933
-3.9269876	brakło	-0.038168933
-3.9269876	mleka	-0.038168933
-3.752925	piersiach	-0.038168933
-3.6155896	matek	-0.11163315
-3.9269876	zagonach	-0.038168933
-3.9269876	chleba	-0.038168933
-2.929757	tej	-0.052898787
-3.9269876	pomyślnej	-0.038168933
-3.9269876	doli	-0.038168933
-2.6759694	bez	-0.057004254
-3.9269876	troski	-0.038168933
-3.9269876	jutrzejszą	-0.038168933
-3.9269876	strawę	-0.038168933
-3.347063	duch	-0.07334952
-3.752925	ludzki	-0.038168933
-3.9269876	mroku	-0.038168933
-3.6155896	budząc	-0.11163315
-3.6155896	powoli	-0.038168933
-3.6155896	światło	-0.038168933
-3.256956	oczy	-0.07334952
-3.6155896	otwiera	-0.038168933
-3.9269876	ciekawe	-0.038168933
-3.752925	gdyż	-0.038168933
-3.0632448	od	-0.038168903
-3.9269876	kolebki	-0.038168933
-3.9269876	czatowała	-0.038168933
-3.9269876	bieda	-0.038168933
-3.9269876	dziecka	-0.038168933
-3.9269876	rozwinąć	-0.038168933
-3.752925	da	-0.038168933
-3.9269876	poskąpił	-0.038168933
-3.256956	wszystkich	-0.038168933
-3.256956	swoich	-0.038168933
-3.9269876	darów	-0.038168933
-3.9269876	dał	-0.038168933
-3.752925	środków	-0.038168933
-3.752925	walki	-0.038168933
-3.4608948	mało	-0.12250655
-3.752925	prócz	-0.038168933
-3.9269876	trudów	-0.038168933
-3.9269876	ciężarów	-0.038168933
-3.752925	jedno	-0.038168933
-3.752925	prawo	-0.038168933
-3.9269876	zostało	-0.038168933
-3.6155896	jednak	-0.038168933
-3.9269876	znosili	-0.038168933
-3.1823702	swą	-0.038168933
-3.9269876	nędzę	-0.038168933
-3.9269876	cierpliwie	-0.038168933
-3.6155896	jako	-0.038168933
-3.256956	istnienia	-0.07334952
-3.9269876	warunek	-0.038168933
-3.9269876	niezmienny	-0.038168933
-3.752925	marząc	-0.15362066
-3.9269876	przyszłem	-0.038168933
-3.9269876	bogatszem	-0.038168933
-3.9269876	żniwie	-0.038168933
-3.9269876	zapominali	-0.038168933
-3.9269876	trosce	-0.038168933
-3.9269876	codziennej	-0.038168933
-3.9269876	żądając	-0.038168933
-3.9269876	wzamian	-0.038168933
-3.752925	pracę	-0.038168933
-3.9269876	mozolną	-0.038168933
-3.6155896	by	-0.038168933
-3.9269876	dziećmi	-0.038168933
-3.9269876	wyżyć	-0.038168933
-3.9269876	wolno	-0.038168933
-3.256956	teraz	-0.038168933
-3.752925	próżne	-0.038168933
-3.9269876	wszelkie	-0.038168933
-3.9269876	wysilenia	-0.038168933
-3.4608948	żadna	-0.038168933
-3.9269876	wytrwałość	-0.038168933
-3.9269876	zbawić	-0.038168933
-2.7985156	ich	-0.060054373
-3.9269876	głód	-0.038168933
-3.6155896	ciała	-0.11163315
-3.752925	żywe	-0.038168933
-3.9269876	szkielety	-0.038168933
-3.752925	zamienia	-0.038168933
-3.9269876	kładąc	-0.038168933
-3.9269876	ciemnościach	-0.038168933
-3.9269876	zmrożone	-0.038168933
-3.6155896	łoże	-0.26867253
-2.9698606	dziś	-0.038168933
-3.9269876	sytość	-0.038168933
-3.752925	żywot	-0.038168933
-3.6155896	idzie	-0.038168933
-3.9269876	zwykłej	-0.038168933
-3.9269876	nędzy	-0.038168933
-3.9269876	blade	-0.038168933
-3.0632448	śmierć	-0.07334952
-3.9269876	głodowa	-0.038168933
-3.9269876	całej	-0.038168933
-3.9269876	ohydzie	-0.038168933
-3.9269876	tysiącom	-0.038168933
-3.752925	rodzin	-0.038168933
-3.9269876	zwiastuje	-0.038168933
-3.9269876	zagładę	-0.038168933
-3.9269876	zimowej	-0.038168933
-3.1823702	nocy	-0.0642836
-3.9269876	wchodzi	-0.038168933
-3.9269876	mieszkania	-0.038168933
-3.9269876	przynosząc	-0.038168933
-3.752925	męki	-0.038168933
-3.9269876	wolnego	-0.038168933
-3.9269876	konania	-0.038168933
-3.0140476	przy	-0.038168933
-3.9269876	zgasłem	-0.038168933
-3.9269876	ognisku	-0.038168933
-3.9269876	zasiada	-0.038168933
-3.9269876	wlokąc	-0.038168933
-3.9269876	całun	-0.038168933
-3.9269876	lodowaty	-0.038168933
-3.9269876	matkom	-0.038168933
-3.6155896	porywa	-0.11163315
-3.4608948	uścisku	-0.19861488
-3.752925	nagie	-0.038168933
-3.9269876	trupy	-0.038168933
-3.9269876	zostawia	-0.038168933
-3.9269876	chaty	-0.038168933
-2.9698606	dalej	-0.11372406
-3.9269876	upiora	-0.038168933
-3.347063	postaci	-0.1614335
-3.9269876	rozpościerając	-0.038168933
-3.9269876	gorączkowe	-0.038168933
-3.9269876	dreszcze	-0.038168933
-3.9269876	zmarły	-0.038168933
-3.9269876	wstaje	-0.038168933
-3.9269876	zabijać	-0.038168933
-3.4608948	braci	-0.19861488
-3.9269876	krzywdy	-0.038168933
-2.929757	swoje	-0.08535695
-3.9269876	mszcząc	-0.038168933
-2.893046	jeszcze	-0.052898787
-3.9269876	rozszerzając	-0.038168933
-3.9269876	zaraźliwe	-0.038168933
-3.9269876	tchnienia	-0.038168933
-3.1823702	ludzi	-0.038168933
-3.9269876	przemawiać	-0.038168933
-3.6155896	sumienia	-0.11163315
-2.6759694	ci	-0.0579219
-3.9269876	mogił	-0.038168933
-3.9269876	zostali	-0.038168933
-3.9269876	aby	-0.038168933
-3.9269876	oglądać	-0.038168933
-3.347063	swych	-0.038168933
-3.9269876	trawieni	-0.038168933
-3.752925	ogniem	-0.038168933
-3.9269876	wnętrzności	-0.038168933
-3.6155896	pali	-0.26867253
-3.9269876	mierzą	-0.038168933
-3.9269876	ostatek	-0.038168933
-3.9269876	uchodzących	-0.038168933
-3.9269876	godzin	-0.038168933
-3.752925	patrzą	-0.038168933
-3.6155896	otchłań	-0.038168933
-3.752925	szukając	-0.038168933
-3.347063	gdzieś	-0.080741
-3.9269876	uchwyconej	-0.038168933
-3.9269876	ocalenia	-0.038168933
-3.4608948	mocy	-0.09206962
-3.752925	ale	-0.06814583
-3.9269876	próżni	-0.038168933
-3.6155896	kręci	-0.038168933
-3.9269876	bezwładnie	-0.038168933
-3.9269876	gaśnie	-0.038168933
-3.9269876	głuchej	-0.038168933
-3.9269876	odrętwienia	-0.038168933
-3.9269876	mogąc	-0.038168933
-3.9269876	odnaleźć	-0.038168933
-3.752925	nędzarze	-0.15362066
-3.9269876	chylą	-0.038168933
-3.9269876	rozpaczą	-0.038168933
-3.9269876	wychudzone	-0.038168933
-3.752925	twarze	-0.15362066
-3.6155896	wiedzą	-0.11163315
-2.6551228	że	-0.07026863
-3.347063	wszędzie	-0.12250655
-3.0140476	ta	-0.038168933
-3.347063	sama	-0.038168933
-3.9269876	dokoła	-0.038168933
-3.347063	śmierci	-0.038168933
-3.9269876	konieczność	-0.038168933
-3.752925	straszliwa	-0.15362066
-3.9269876	brat	-0.038168933
-3.9269876	ratunku	-0.038168933
-3.9269876	udzielić	-0.038168933
-3.1823702	sam	-0.038168933
-3.752925	daremnie	-0.038168933
-3.9269876	przyzywa	-0.038168933
-3.9269876	milczą	-0.038168933
-3.9269876	śniegu	-0.038168933
-3.9269876	posłanie	-0.038168933
-3.9269876	słuchają	-0.038168933
-3.9269876	wiatru	-0.038168933
-3.9269876	żałobnego	-0.038168933
-3.9269876	wycia	-0.038168933
-3.752925	ciemność	-0.038168933
-3.752925	smutne	-0.038168933
-3.9269876	rzucają	-0.038168933
-3.752925	pytanie	-0.15362066
-3.6155896	najświętsze	-0.038168933
-3.752925	czemu	-0.038168933
-3.4608948	są	-0.038168933
-3.9269876	skazani	-0.038168933
-3.9269876	chleb	-0.038168933
-3.752925	ciężką	-0.038168933
-3.9269876	zarabiali	-0.038168933
-3.6155896	pracą	-0.26867253
-3.1187358	kto	-0.038168933
-3.9269876	odpowie	-0.038168933
-3.9269876	wykrzyk	-0.038168933
-3.752925	głuchy	-0.038168933
-3.1823702	ludzkość	-0.038168933
-3.6155896	zostanie	-0.038168933
-3.9269876	dłużną	-0.038168933
-3.0140476	choć	-0.038168903
-3.752925	szlachetne	-0.038168933
-3.9269876	poruszą	-0.038168933
-3.6155896	duchy	-0.038168933
-3.9269876	miłosierdzie	-0.038168933
-3.9269876	pospieszy	-0.038168933
-3.9269876	jałmużną	-0.038168933
-3.752925	rzucone	-0.038168933
-3.9269876	wsparcie	-0.038168933
-3.9269876	rozstrzygnie	-0.038168933
-3.9269876	niczem	-0.038168933
-3.752925	ciemnych	-0.038168933
-3.9269876	pytań	-0.038168933
-3.9269876	rozświeci	-0.038168933
-3.752925	ziemia	-0.038168933
-3.9269876	sfinksowem	-0.038168933
-3.9269876	obliczem	-0.038168933
-2.8277974	będzie	-0.07093807
-3.9269876	pożerać	-0.038168933
-3.9269876	pracujące	-0.038168933
-3.9269876	roztrząsać	-0.038168933
-3.9269876	ciekawa	-0.038168933
-3.9269876	zgrzyt	-0.038168933
-3.9269876	harmonii	-0.038168933
-3.9269876	społecznego	-0.038168933
-3.6155896	prawa	-0.038168933
-3.752925	sceny	-0.15362066
-3.1187358	świata	-0.038168933
-3.9269876	jakże	-0.038168933
-3.752925	piękne	-0.038168933
-3.9269876	plony	-0.038168933
-3.9269876	smutnem	-0.038168933
-3.9269876	zwalisku	-0.038168933
-3.6155896	wyrasta	-0.038168933
-3.9269876	dzika	-0.038168933
-3.9269876	orgia	-0.038168933
-3.752925	szał	-0.038168933
-3.752925	zapomnienia	-0.038168933
-3.256956	ludów	-0.06814583
-3.9269876	wschodzi	-0.038168933
-3.752925	ciemna	-0.038168933
-3.9269876	jutrzenka	-0.038168933
-3.9269876	ucisku	-0.038168933
-3.9269876	podeptanie	-0.038168933
-3.752925	swobody	-0.038168933
-2.893046	myśli	-0.038168933
-3.9269876	jedność	-0.038168933
-3.9269876	kupiona	-0.038168933
-3.9269876	drogo	-0.038168933
-3.9269876	pobojowisku	-0.038168933
-3.256956	wielkie	-0.038168933
-3.9269876	więzienie	-0.038168933
-3.752925	wolnych	-0.038168933
-3.4608948	zmienia	-0.09206962
-3.9269876	pogwałcona	-0.038168933
-3.752925	moralność	-0.038168933
-3.9269876	mści	-0.038168933
-3.752925	dając	-0.038168933
-3.9269876	zysku	-0.038168933
-3.4608948	nowy	-0.038168933
-3.9269876	okres	-0.038168933
-3.9269876	prób	-0.038168933
-3.9269876	poniżenia	-0.038168933
-3.347063	znowu	-0.06814583
-3.752925	gwałt	-0.038168933
-3.9269876	prawem	-0.038168933
-3.9269876	świętością	-0.038168933
-3.6155896	siła	-0.11163315
-3.9269876	pełzać	-0.038168933
-3.4608948	tłum	-0.038168933
-3.9269876	służalczy	-0.038168933
-3.9269876	wiedząc	-0.038168933
-3.347063	ginie	-0.080741
-3.6155896	przeciw	-0.038168933
-3.9269876	walczy	-0.038168933
-3.9269876	zgnębiona	-0.038168933
-3.6155896	rzesza	-0.038168933
-3.9269876	modliła	-0.038168933
-3.9269876	posągu	-0.038168933
-3.9269876	cześci	-0.038168933
-3.9269876	bałwochwalczej	-0.038168933
-3.9269876	stało	-0.038168933
-3.9269876	chciałem	-0.038168933
-3.752925	pokryła	-0.038168933
-3.6155896	jaśminu	-0.26867253
-2.929757	pod	-0.038168933
-3.9269876	niebem	-0.038168933
-3.9269876	południa	-0.038168933
-3.9269876	palącem	-0.038168933
-3.9269876	szło	-0.038168933
-3.4608948	dwoje	-0.038168933
-3.9269876	mirtów	-0.038168933
-3.9269876	alei	-0.038168933
-3.9269876	słów	-0.038168933
-3.6155896	namiętnych	-0.038168933
-3.752925	rzucając	-0.038168933
-3.4608948	tysiącem	-0.09206962
-3.347063	słowa	-0.038168933
-3.9269876	nadziei	-0.038168933
-3.9269876	pożegnanie	-0.038168933
-3.9269876	ostatnie	-0.038168933
-3.6155896	wieki	-0.09206962
-3.9269876	trwa	-0.038168933
-3.9269876	długo	-0.038168933
-3.752925	wstał	-0.038168933
-3.9269876	księżyc	-0.038168933
-3.6155896	blady	-0.11163315
-3.9269876	westchnienia	-0.038168933
-3.9269876	powtarzał	-0.038168933
-3.752925	daleki	-0.15362066
-3.752925	szum	-0.038168933
-3.9269876	płaczącej	-0.038168933
-3.9269876	kaskady	-0.038168933
-3.9269876	obcy	-0.038168933
-3.9269876	młodzian	-0.038168933
-3.9269876	opuszczał	-0.038168933
-3.9269876	dziewczynę	-0.038168933
-3.9269876	powój	-0.038168933
-3.9269876	wrosła	-0.038168933
-3.9269876	porzucał	-0.038168933
-3.9269876	słoneczną	-0.038168933
-3.9269876	krainę	-0.038168933
-3.9269876	lecąc	-0.038168933
-3.347063	rozpacz	-0.038168933
-3.9269876	niosła	-0.038168933
-3.9269876	targając	-0.038168933
-3.752925	serdeczne	-0.038168933
-3.4608948	ogniwa	-0.39361125
-3.9269876	czuł	-0.038168933
-3.9269876	wydziera	-0.038168933
-3.9269876	jasna	-0.038168933
-3.9269876	szczęśliwa	-0.038168933
-2.9698606	jej	-0.038168963
-3.6155896	umiera	-0.26867253
-3.9269876	biedne	-0.038168933
-3.9269876	dziewczę	-0.038168933
-3.9269876	zrozumieć	-0.038168933
-3.752925	wyższa	-0.038168933
-3.6155896	potęga	-0.11163315
-3.4608948	głos	-0.038168933
-3.752925	grobów	-0.038168933
-3.4608948	anioła	-0.19861488
-3.752925	objęciach	-0.038168933
-3.9269876	dosięga	-0.038168933
-3.9269876	dziecię	-0.038168933
-3.9269876	pieszczone	-0.038168933
-3.9269876	niedobry	-0.038168933
-3.4608948	możesz	-0.038168933
-3.752925	smucić	-0.15362066
-3.0632448	twoje	-0.038168903
-3.9269876	ranią	-0.038168933
-3.9269876	szalone	-0.038168933
-3.9269876	mów	-0.038168933
-3.4608948	chcesz	-0.038168933
-3.752925	rzucić	-0.15362066
-3.752925	cóż	-0.038168933
-3.347063	mieć	-0.038168933
-3.9269876	droższego	-0.038168933
-3.752925	mą	-0.038168933
-2.8591974	cię	-0.06814583
-3.9269876	wstrzyma	-0.038168933
-3.752925	idź	-0.038168933
-3.347063	tu	-0.038168933
-3.9269876	głosu	-0.038168933
-3.9269876	zabrakło	-0.038168933
-3.9269876	drżącego	-0.038168933
-3.9269876	spojrzała	-0.038168933
-3.9269876	smutnemi	-0.038168933
-3.9269876	oczyma	-0.038168933
-3.9269876	patrz	-0.038168933
-3.752925	me	-0.038168933
-2.6551228	placename	-0.112210676
-3.347063	łonie	-0.12250655
-3.9269876	braknie	-0.038168933
-3.9269876	oczach	-0.038168933
-3.752925	ciemno	-0.038168933
-3.752925	masz	-0.038168933
-3.752925	ginąć	-0.038168933
-3.9269876	dalekiej	-0.038168933
-3.9269876	stronie	-0.038168933
-3.9269876	umrzyj	-0.038168933
-3.1823702	razem	-0.100346334
-3.0140476	ze	-0.09544259
-3.9269876	mną	-0.038168933
-3.752925	dobrze	-0.038168933
-3.9269876	będę	-0.038168933
-3.0632448	tobie	-0.102298886
-3.6155896	więcej	-0.038168933
-3.9269876	płakać	-0.038168933
-3.6155896	ni	-0.038168933
-3.9269876	gorzko	-0.038168933
-3.6155896	jednym	-0.038168933
-3.9269876	spoczniem	-0.038168933
-3.752925	będziesz	-0.038168933
-3.752925	porzucić	-0.038168933
-3.752925	wieczność	-0.15362066
-3.9269876	prześnimy	-0.038168933
-3.9269876	błogo	-0.038168933
-3.9269876	przebaczy	-0.038168933
-3.9269876	miłosierny	-0.038168933
-3.1823702	ciebie	-0.038168933
-3.9269876	mam	-0.038168933
-3.752925	nikogo	-0.15362066
-3.752925	idziesz	-0.038168933
-3.9269876	niewierny	-0.038168933
-3.9269876	szczęśliwy	-0.038168933
-3.9269876	kochanka	-0.038168933
-3.9269876	biedna	-0.038168933
-3.0632448	przed	-0.038168933
-3.9269876	cudownej	-0.038168933
-3.9269876	obrazem	-0.038168933
-3.752925	szczęście	-0.038168933
-3.9269876	wyjedna	-0.038168933
-3.752925	mej	-0.038168933
-3.9269876	prośbie	-0.038168933
-3.9269876	serdecznej	-0.038168933
-3.9269876	uczyń	-0.038168933
-3.9269876	zadość	-0.038168933
-3.9269876	cierpię	-0.038168933
-3.9269876	ogromnie	-0.038168933
-3.9269876	pomyślę	-0.038168933
-3.9269876	rozłące	-0.038168933
-3.9269876	wiecznej	-0.038168933
-3.752925	zapomnieć	-0.15362066
-3.9269876	lubił	-0.038168933
-3.9269876	wonny	-0.038168933
-3.6155896	kwiat	-0.038168933
-3.752925	odtąd	-0.038168933
-3.752925	mem	-0.038168933
-3.6155896	sercu	-0.038168933
-3.9269876	noszę	-0.038168933
-3.9269876	odpięła	-0.038168933
-3.9269876	chusteczkę	-0.038168933
-3.9269876	muślinu	-0.038168933
-3.752925	mówiąc	-0.038168933
-3.9269876	weź	-0.038168933
-3.752925	gałązkę	-0.038168933
-3.9269876	proszę	-0.038168933
-3.9269876	druga	-0.038168933
-3.9269876	mówić	-0.038168933
-3.752925	jedyny	-0.15362066
-3.9269876	przyjdziesz	-0.038168933
-3.4608948	moje	-0.1614335
-3.752925	wołanie	-0.15362066
-3.9269876	łzą	-0.038168933
-3.9269876	zroszą	-0.038168933
-3.752925	jaśminy	-0.15362066
-3.9269876	oparta	-0.038168933
-3.9269876	ramieniu	-0.038168933
-3.752925	wpół	-0.038168933
-3.9269876	zemdlona	-0.038168933
-3.4608948	kwiaty	-0.038168933
-3.6155896	ust	-0.038168933
-3.9269876	ciśnie	-0.038168933
-3.4608948	stoją	-0.038168933
-3.9269876	oboje	-0.038168933
-3.9269876	płomieniu	-0.038168933
-3.9269876	kwiatach	-0.038168933
-3.9269876	zawiśnie	-0.038168933
-3.752925	aż	-0.038168933
-3.6155896	nareszcie	-0.038168933
-3.9269876	wydarł	-0.038168933
-3.752925	objęcia	-0.038168933
-3.9269876	rzekł	-0.038168933
-3.752925	niej	-0.11163315
-3.9269876	żegnaj	-0.038168933
-3.752925	droga	-0.15362066
-3.9269876	mię	-0.038168933
-3.9269876	zbawią	-0.038168933
-3.9269876	zaklęcia	-0.038168933
-3.9269876	spotkamy	-0.038168933
-3.9269876	mogę	-0.038168933
-3.4608948	twój	-0.038168933
-3.9269876	jestem	-0.038168933
-3.9269876	dziewczyno	-0.038168933
-3.9269876	wzywają	-0.038168933
-3.752925	żałobie	-0.15362066
-3.9269876	szedł	-0.038168933
-3.9269876	tymi	-0.038168933
-3.6155896	marnie	-0.09206962
-3.256956	giną	-0.37470615
-3.9269876	słyszę	-0.038168933
-3.9269876	okrzyk	-0.038168933
-3.9269876	krwawego	-0.038168933
-3.9269876	zagonu	-0.038168933
-3.9269876	matkę	-0.038168933
-3.9269876	wołającą	-0.038168933
-3.752925	zachowam	-0.038168933
-3.9269876	zgonu	-0.038168933
-3.9269876	xxx	-0.038168933
-3.6155896	taką	-0.038168933
-3.9269876	byłaś	-0.038168933
-3.9269876	wstaniesz	-0.038168933
-3.9269876	mogiły	-0.038168933
-3.9269876	wrócisz	-0.038168933
-3.9269876	dawnej	-0.038168933
-3.9269876	krasie	-0.038168933
-3.752925	kształt	-0.038168933
-3.9269876	zgniły	-0.038168933
-3.347063	którym	-0.038168933
-3.9269876	robactwo	-0.038168933
-3.9269876	pasie	-0.038168933
-3.752925	zatracić	-0.038168933
-3.6155896	jeden	-0.038168933
-3.9269876	rys	-0.038168933
-3.9269876	miły	-0.038168933
-3.9269876	wdzięk	-0.038168933
-3.9269876	dawniejszym	-0.038168933
-3.9269876	uwielbiany	-0.038168933
-3.9269876	czasie	-0.038168933
-3.347063	postać	-0.038168933
-3.4608948	wziąć	-0.038168933
-3.1823702	nowe	-0.061303183
-3.4608948	siły	-0.19861488
-3.1187358	nowych	-0.038168933
-3.347063	wieków	-0.038168933
-3.752925	oręż	-0.038168933
-3.9269876	zapasie	-0.038168933
-3.6155896	grób	-0.038168933
-3.9269876	odda	-0.038168933
-3.4608948	światu	-0.038168933
-3.752925	widmem	-0.038168933
-3.752925	bladem	-0.15362066
-3.9269876	mogilnej	-0.038168933
-3.9269876	pleśni	-0.038168933
-3.9269876	zgnilizny	-0.038168933
-3.9269876	plamą	-0.038168933
-3.752925	wnętrza	-0.038168933
-3.9269876	przesiąkniętą	-0.038168933
-3.9269876	jadem	-0.038168933
-3.9269876	przystrojona	-0.038168933
-3.9269876	królewski	-0.038168933
-3.752925	dyadem	-0.15362066
-3.9269876	wkroczyć	-0.038168933
-3.9269876	bramą	-0.038168933
-3.347063	być	-0.038168933
-3.9269876	inną	-0.038168933
-3.347063	tą	-0.038168933
-3.752925	samą	-0.038168933
-3.9269876	grzesznych	-0.038168933
-3.9269876	koła	-0.038168933
-3.9269876	zdeptawszy	-0.038168933
-3.9269876	niegodnie	-0.038168933
-3.9269876	rozpali	-0.038168933
-3.752925	krwawą	-0.038168933
-3.9269876	pożarów	-0.038168933
-3.6155896	pochodnię	-0.038168933
-3.9269876	widziadło	-0.038168933
-3.752925	mordów	-0.038168933
-3.9269876	przywoła	-0.038168933
-3.9269876	zaćmi	-0.038168933
-3.6155896	światła	-0.038168933
-3.6155896	narodów	-0.038168933
-3.9269876	przewodnie	-0.038168933
-3.6155896	dzień	-0.038168933
-3.9269876	klęską	-0.038168933
-3.9269876	dobrego	-0.038168933
-3.347063	cała	-0.038168933
-3.9269876	chyląc	-0.038168933
-3.752925	kornie	-0.038168933
-3.9269876	winna	-0.038168933
-3.9269876	syna	-0.038168933
-3.9269876	pokutować	-0.038168933
-3.9269876	obchodzić	-0.038168933
-3.6155896	we	-0.11163315
-3.752925	łzach	-0.038168933
-3.9269876	grzech	-0.038168933
-3.1187358	który	-0.08153938
-3.9269876	klątwą	-0.038168933
-3.256956	ją	-0.038168933
-3.9269876	obarczy	-0.038168933
-3.9269876	zwróci	-0.038168933
-3.4608948	drogi	-0.080741
-3.4608948	ku	-0.038168933
-3.9269876	jaśniejszej	-0.038168933
-3.9269876	dobie	-0.038168933
-3.9269876	powinna	-0.038168933
-3.9269876	szukać	-0.038168933
-3.9269876	złemu	-0.038168933
-3.9269876	tarczy	-0.038168933
-3.256956	prawdy	-0.038168933
-3.9269876	potęgując	-0.038168933
-3.9269876	zbawienia	-0.038168933
-3.9269876	dostarczy	-0.038168933
-3.9269876	vii	-0.038168933
-3.6155896	dzieło	-0.038168933
-3.752925	zniszczenia	-0.038168933
-3.752925	cudne	-0.038168933
-3.9269876	wynalazki	-0.038168933
-3.6155896	nich	-0.038168933
-3.9269876	epokę	-0.038168933
-3.9269876	dotknięciem	-0.038168933
-3.9269876	laski	-0.038168933
-3.9269876	zarazę	-0.038168933
-3.4608948	ciemności	-0.038168933
-3.6155896	wkoło	-0.038168933
-3.9269876	rozpościera	-0.038168933
-3.9269876	geniusz	-0.038168933
-3.9269876	wodza	-0.038168933
-3.4608948	męstwo	-0.038168933
-3.1823702	bohatera	-0.6366493
-3.9269876	nieśmiertelne	-0.038168933
-3.347063	blaski	-0.080741
-3.9269876	bohater	-0.038168933
-3.9269876	niknie	-0.038168933
-3.752925	tłumie	-0.038168933
-3.752925	monarcha	-0.038168933
-3.752925	sypie	-0.038168933
-3.0140476	mu	-0.038168933
-3.9269876	oklaski	-0.038168933
-3.752925	zwycięzcy	-0.038168933
-3.9269876	zwyciężeni	-0.038168933
-3.752925	wielkim	-0.038168933
-3.6155896	dole	-0.11163315
-3.6155896	zarówno	-0.038168933
-3.6155896	zwycięstwa	-0.038168933
-3.1187358	sławy	-0.11102426
-3.752925	imienia	-0.038168933
-3.9269876	spoczywają	-0.038168933
-3.9269876	czole	-0.038168933
-3.9269876	pisze	-0.038168933
-3.9269876	ofiary	-0.038168933
-3.9269876	marne	-0.038168933
-3.9269876	zaślepienia	-0.038168933
-3.9269876	odegrały	-0.038168933
-3.9269876	smutną	-0.038168933
-3.752925	gladyatorów	-0.038168933
-3.6155896	rolę	-0.26867253
-3.9269876	tutaj	-0.038168933
-3.752925	zwycięzcą	-0.038168933
-3.752925	anioł	-0.038168933
-3.1823702	życie	-0.102298886
-3.752925	stwarza	-0.038168933
-3.9269876	mężów	-0.038168933
-3.6155896	którzy	-0.038168933
-3.9269876	istnieli	-0.038168933
-3.9269876	dziejach	-0.038168933
-3.6155896	kształty	-0.038168933
-3.752925	rzeźbi	-0.038168933
-3.9269876	granicie	-0.038168933
-3.9269876	mocą	-0.038168933
-3.9269876	duchową	-0.038168933
-3.9269876	obdzieli	-0.038168933
-3.6155896	czyny	-0.09206962
-3.752925	legendą	-0.15362066
-3.9269876	pełniej	-0.038168933
-3.9269876	trwalej	-0.038168933
-3.6155896	innych	-0.038168933
-3.256956	będą	-0.06814583
-3.9269876	potem	-0.038168933
-3.752925	dziejów	-0.038168933
-3.9269876	badacz	-0.038168933
-3.752925	ścisły	-0.15362066
-3.347063	chce	-0.038168933
-3.9269876	legendową	-0.038168933
-3.9269876	przywrócić	-0.038168933
-3.9269876	widząc	-0.038168933
-3.4608948	fantazyi	-0.038168933
-3.9269876	pomysły	-0.038168933
-3.752925	słoneczne	-0.038168933
-3.752925	mity	-0.038168933
-3.0632448	lub	-0.038168933
-3.9269876	wierzeń	-0.038168933
-3.9269876	symbole	-0.038168933
-3.752925	próżno	-0.038168933
-3.347063	te	-0.038168933
-3.9269876	cienie	-0.038168933
-3.9269876	pozbawić	-0.038168933
-3.4608948	je	-0.038168933
-3.9269876	tradycya	-0.038168933
-3.9269876	ubrała	-0.038168933
-3.9269876	xxix	-0.038168933
-3.9269876	póki	-0.038168933
-3.9269876	narodzie	-0.038168933
-3.752925	żyje	-0.038168933
-3.9269876	wola	-0.038168933
-3.752925	godność	-0.038168933
-3.6155896	człowiecze	-0.26867253
-3.4608948	ręce	-0.038168933
-3.9269876	czyje	-0.038168933
-3.9269876	zrzecze	-0.038168933
-3.4608948	łańcuch	-0.038168933
-3.9269876	ściska	-0.038168933
-3.9269876	szyję	-0.038168933
-3.9269876	utkwione	-0.038168933
-3.9269876	miecze	-0.038168933
-3.9269876	przemoc	-0.038168933
-3.9269876	zabije	-0.038168933
-3.752925	dziejowej	-0.038168933
-3.752925	hańby	-0.038168933
-3.9269876	zawlecze	-0.038168933
-3.9269876	zginąć	-0.038168933
-3.4608948	własnej	-0.038168933
-3.752925	ręki	-0.15362066
-3.9269876	owładnie	-0.038168933
-3.9269876	senna	-0.038168933
-3.6155896	głucha	-0.26867253
-3.9269876	spoczynek	-0.038168933
-3.9269876	wskaże	-0.038168933
-3.752925	miękki	-0.15362066
-3.9269876	zwątpienie	-0.038168933
-3.9269876	szepcze	-0.038168933
-3.9269876	ucha	-0.038168933
-3.9269876	jednem	-0.038168933
-3.9269876	lekarstwem	-0.038168933
-3.9269876	dobrowolne	-0.038168933
-3.9269876	samobójstwo	-0.038168933
-3.9269876	zmiennego	-0.038168933
-3.9269876	falo	-0.038168933
-3.752925	ruchliwa	-0.038168933
-3.9269876	unosisz	-0.038168933
-3.4608948	wszechświata	-0.038168933
-3.347063	toni	-0.29552492
-3.4608948	wzrok	-0.038168933
-3.4608948	nasz	-0.038168933
-3.752925	zatem	-0.038168933
-3.9269876	wszystkiem	-0.038168933
-3.4608948	goni	-0.39361125
-3.9269876	powierzchnią	-0.038168933
-3.9269876	twoją	-0.038168933
-3.9269876	ukrywa	-0.038168933
-3.9269876	błyskawic	-0.038168933
-3.6155896	blasku	-0.038168933
-3.752925	odsłoni	-0.038168933
-3.9269876	niezmierzona	-0.038168933
-3.752925	trudno	-0.038168933
-3.9269876	dotrzeć	-0.038168933
-3.9269876	spojrzeniami	-0.038168933
-3.9269876	pianę	-0.038168933
-3.752925	zjawisk	-0.15362066
-3.9269876	wierzchu	-0.038168933
-3.9269876	pływa	-0.038168933
-3.9269876	głębią	-0.038168933
-3.9269876	schyleni	-0.038168933
-3.9269876	ciemnic	-0.038168933
-3.752925	obraz	-0.038168933
-3.9269876	chwytamy	-0.038168933
-3.1187358	fala	-0.11102426
-3.9269876	zamiast	-0.038168933
-3.9269876	odwiecznych	-0.038168933
-3.9269876	tajemnic	-0.038168933
-3.752925	własną	-0.038168933
-3.752925	twarz	-0.038168933
-3.752925	naszą	-0.038168933
-3.9269876	ukazuje	-0.038168933
-3.752925	zdala	-0.038168933
-3.6155896	widnokrąg	-0.038168933
-3.9269876	powleka	-0.038168933
-3.9269876	rzuconem	-0.038168933
-3.752925	wszechświat	-0.038168933
-3.9269876	odbiciem	-0.038168933
-3.6155896	człowieka	-0.11163315
-3.9269876	żegnał	-0.038168933
-3.9269876	kiedym	-0.038168933
-3.9269876	usta	-0.038168933
-3.9269876	milczały	-0.038168933
-3.9269876	wiedziałem	-0.038168933
-3.752925	jakie	-0.038168933
-3.6155896	słowo	-0.038168933
-3.9269876	pozostały	-0.038168933
-3.9269876	zbiegło	-0.038168933
-3.9269876	powitała	-0.038168933
-3.0632448	swój	-0.038168903
-3.9269876	domek	-0.038168933
-3.9269876	biały	-0.038168933
-3.9269876	słowiki	-0.038168933
-3.9269876	wiosną	-0.038168933
-3.9269876	nucić	-0.038168933
-3.9269876	przedziela	-0.038168933
-3.9269876	nieszczęścia	-0.038168933
-3.9269876	dom	-0.038168933
-3.6155896	daleko	-0.038168933
-3.9269876	wrócić	-0.038168933
-3.9269876	boleśnie	-0.038168933
-3.9269876	odszedł	-0.038168933
-3.752925	echa	-0.038168933
-3.9269876	żadnem	-0.038168933
-3.9269876	wspomnieniem	-0.038168933
-3.4608948	twych	-0.038168933
-3.6155896	jasnych	-0.038168933
-3.347063	marzeń	-0.038168933
-3.752925	spokoju	-0.038168933
-3.9269876	skłócę	-0.038168933
-3.9269876	uśmiecha	-0.038168933
-3.9269876	gasnącym	-0.038168933
-3.9269876	żegnam	-0.038168933
-3.9269876	promieniem	-0.038168933
-3.752925	idę	-0.038168933
-3.9269876	powrócę	-0.038168933
-3.9269876	xxv	-0.038168933
-3.9269876	cząsteczka	-0.038168933
-3.9269876	myśląca	-0.038168933
-3.752925	szukam	-0.038168933
-3.4608948	celu	-0.038168933
-3.9269876	myślę	-0.038168933
-3.752925	wiąże	-0.038168933
-3.9269876	pojęciem	-0.038168933
-3.9269876	ściśle	-0.038168933
-3.9269876	odczucie	-0.038168933
-3.9269876	gorąca	-0.038168933
-3.9269876	znam	-0.038168933
-3.752925	bowiem	-0.038168933
-3.9269876	form	-0.038168933
-3.9269876	tysiąca	-0.038168933
-3.256956	natury	-0.07334952
-3.9269876	moim	-0.038168933
-3.9269876	odbitej	-0.038168933
-3.9269876	umyśle	-0.038168933
-3.752925	sądzę	-0.038168933
-3.9269876	przyśle	-0.038168933
-3.752925	czem	-0.038168933
-3.9269876	władze	-0.038168933
-3.9269876	dane	-0.038168933
-3.9269876	potrąca	-0.038168933
-3.752925	natura	-0.038168933
-3.752925	twórcza	-0.038168933
-3.9269876	wieczna	-0.038168933
-3.9269876	bezcelowa	-0.038168933
-3.9269876	zmieścić	-0.038168933
-3.6155896	naszych	-0.038168933
-3.9269876	pojęć	-0.038168933
-3.9269876	ramie	-0.038168933
-3.9269876	wiecznym	-0.038168933
-3.9269876	prawom	-0.038168933
-3.9269876	swem	-0.038168933
-3.9269876	chowa	-0.038168933
-3.9269876	konieczności	-0.038168933
-3.6155896	łamie	-0.26867253
-3.9269876	ludzkiej	-0.038168933
-3.9269876	dążności	-0.038168933
-3.9269876	narzucamy	-0.038168933
-3.6155896	znamię	-0.26867253
-3.9269876	język	-0.038168933
-3.9269876	tłómacząc	-0.038168933
-3.9269876	iv	-0.038168933
-3.9269876	wstała	-0.038168933
-3.9269876	czerwona	-0.038168933
-3.9269876	oświecając	-0.038168933
-3.9269876	łany	-0.038168933
-3.347063	których	-0.038168933
-3.9269876	zebrać	-0.038168933
-3.9269876	miano	-0.038168933
-3.9269876	pierwsze	-0.038168933
-3.6155896	krwawe	-0.038168933
-3.752925	żniwo	-0.15362066
-3.9269876	przekroczono	-0.038168933
-3.752925	granice	-0.038168933
-3.9269876	rozkaz	-0.038168933
-3.9269876	wydany	-0.038168933
-3.6155896	pędzi	-0.038168933
-3.6155896	boju	-0.038168933
-3.4608948	falę	-0.038168933
-3.9269876	żołnierzy	-0.038168933
-3.9269876	ruchliwą	-0.038168933
-3.752925	oto	-0.038168933
-3.752925	walka	-0.038168933
-3.9269876	wszczyna	-0.038168933
-3.752925	wróg	-0.038168933
-3.9269876	rozespany	-0.038168933
-3.9269876	napadnięty	-0.038168933
-3.9269876	znienacka	-0.038168933
-3.752925	broń	-0.038168933
-3.752925	chwyta	-0.038168933
-3.9269876	żywo	-0.038168933
-3.9269876	bagnetami	-0.038168933
-3.9269876	lukę	-0.038168933
-3.752925	straszliwą	-0.038168933
-3.9269876	zgiełk	-0.038168933
-3.9269876	jęki	-0.038168933
-3.9269876	ciżbie	-0.038168933
-3.256956	krwią	-0.06814583
-3.6155896	ludzką	-0.038168933
-3.9269876	pijanej	-0.038168933
-3.9269876	dodaje	-0.038168933
-3.9269876	męstwa	-0.038168933
-3.9269876	morderczą	-0.038168933
-3.752925	śmiertelnym	-0.038168933
-3.9269876	pocałunku	-0.038168933
-3.9269876	pada	-0.038168933
-3.9269876	wrogu	-0.038168933
-3.9269876	działa	-0.038168933
-3.9269876	tętnią	-0.038168933
-3.9269876	jeźdźcy	-0.038168933
-3.752925	stosy	-0.038168933
-3.9269876	zwalisk	-0.038168933
-3.9269876	sterczą	-0.038168933
-3.347063	każda	-0.038168933
-3.9269876	chata	-0.038168933
-3.9269876	płomieniach	-0.038168933
-3.9269876	trup	-0.038168933
-3.6155896	każdym	-0.038168933
-3.9269876	progu	-0.038168933
-3.4608948	tryumf	-0.038168933
-3.9269876	kończy	-0.038168933
-3.9269876	ucztę	-0.038168933
-3.9269876	ludożerczą	-0.038168933
-3.752925	zwycięski	-0.038168933
-3.752925	dzięki	-0.038168933
-3.6155896	składa	-0.038168933
-3.9269876	iii	-0.038168933
-3.9269876	łudząca	-0.038168933
-3.9269876	maja	-0.038168933
-3.9269876	otworzy	-0.038168933
-3.9269876	migając	-0.038168933
-3.9269876	widzeń	-0.038168933
-3.9269876	różnobarwną	-0.038168933
-3.752925	tęczą	-0.038168933
-3.9269876	splotami	-0.038168933
-3.9269876	wrażeń	-0.038168933
-3.9269876	zmysłowych	-0.038168933
-3.752925	otoczy	-0.038168933
-3.9269876	siecią	-0.038168933
-3.6155896	złudzeń	-0.038168933
-3.9269876	usidli	-0.038168933
-3.9269876	pajęczą	-0.038168933
-3.9269876	widzisz	-0.038168933
-3.9269876	tłoczy	-0.038168933
-3.9269876	słyszysz	-0.038168933
-3.9269876	melodye	-0.038168933
-3.9269876	uszach	-0.038168933
-3.9269876	dźwięczą	-0.038168933
-3.9269876	śnisz	-0.038168933
-2.9698606	sen	-0.057004254
-3.9269876	chwilami	-0.038168933
-3.752925	uroczy	-0.038168933
-3.9269876	widma	-0.038168933
-3.9269876	zagadkowe	-0.038168933
-3.9269876	dręczą	-0.038168933
-3.9269876	ścigając	-0.038168933
-3.9269876	przynęty	-0.038168933
-3.752925	zwodnicze	-0.038168933
-3.0632448	wciąż	-0.038168933
-3.9269876	twojej	-0.038168933
-3.9269876	usuwają	-0.038168933
-3.9269876	dłoni	-0.038168933
-3.9269876	pragniesz	-0.038168933
-3.9269876	rozpoznać	-0.038168933
-3.752925	więzy	-0.038168933
-3.752925	tajemnicze	-0.038168933
-3.752925	piastunki	-0.038168933
-3.9269876	zakryte	-0.038168933
-3.9269876	oblicze	-0.038168933
-3.752925	ledwie	-0.038168933
-3.752925	rękę	-0.038168933
-3.9269876	wyciągnąłeś	-0.038168933
-3.9269876	zasłoni	-0.038168933
-3.752925	królewna	-0.15362066
-3.9269876	zaczarowana	-0.038168933
-3.9269876	mirtowym	-0.038168933
-3.9269876	lasku	-0.038168933
-3.6155896	drzemie	-0.26867253
-3.9269876	nóg	-0.038168933
-3.9269876	lutnia	-0.038168933
-3.9269876	śpiewna	-0.038168933
-3.9269876	zsunęła	-0.038168933
-3.9269876	niedokończona	-0.038168933
-3.9269876	piosneczka	-0.038168933
-3.9269876	uśmiechem	-0.038168933
-3.6155896	lśni	-0.038168933
-3.9269876	twarzy	-0.038168933
-3.9269876	usteczka	-0.038168933
-3.9269876	czymś	-0.038168933
-3.9269876	rozkosznym	-0.038168933
-3.752925	marzy	-0.038168933
-3.9269876	rycerzy	-0.038168933
-3.752925	idąc	-0.038168933
-3.752925	odmęty	-0.15362066
-3.9269876	stóp	-0.038168933
-3.9269876	przybieży	-0.038168933
-3.9269876	przerwie	-0.038168933
-3.9269876	zaklęty	-0.038168933
-3.9269876	rycerz	-0.038168933
-3.9269876	walczył	-0.038168933
-3.256956	swe	-0.038168933
-3.9269876	przeceniał	-0.038168933
-3.9269876	zabłąkał	-0.038168933
-3.9269876	otchłani	-0.038168933
-3.9269876	zwątpił	-0.038168933
-3.9269876	skamieniał	-0.038168933
-3.9269876	persnamegdy	-0.038168933
-3.9269876	gościł	-0.038168933
-3.9269876	źle	-0.038168933
-3.9269876	gościnie	-0.038168933
-3.0140476	serca	-0.08153938
-3.752925	wiele	-0.15362066
-3.4608948	właśnie	-0.038168933
-3.9269876	zgubiło	-0.038168933
-3.4608948	był	-0.038168933
-3.9269876	harfa	-0.038168933
-3.9269876	eolska	-0.038168933
-3.6155896	drży	-0.038168933
-3.9269876	powiewem	-0.038168933
-3.9269876	miotany	-0.038168933
-3.6155896	strony	-0.038168933
-3.4608948	miłością	-0.038168933
-3.9269876	bolem	-0.038168933
-3.9269876	gniewem	-0.038168933
-3.6155896	piękna	-0.038168933
-3.9269876	kochanek	-0.038168933
-3.752925	czciciel	-0.038168933
-3.347063	potęgi	-0.12794432
-3.752925	czynu	-0.11163315
-3.9269876	marzył	-0.038168933
-3.9269876	duchach	-0.038168933
-3.9269876	niezłomnych	-0.038168933
-3.9269876	szukał	-0.038168933
-3.9269876	gminu	-0.038168933
-3.9269876	bratnie	-0.038168933
-3.9269876	podawał	-0.038168933
-3.6155896	dłonie	-0.26867253
-3.752925	wierzył	-0.11163315
-3.752925	pójdą	-0.038168933
-3.9269876	zbratani	-0.038168933
-3.9269876	wielkością	-0.038168933
-3.9269876	spojeni	-0.038168933
-3.9269876	żelazem	-0.038168933
-3.9269876	widział	-0.038168933
-3.9269876	kobiecie	-0.038168933
-3.9269876	rozdarła	-0.038168933
-3.4608948	bracia	-0.038168933
-3.9269876	zawiedli	-0.038168933
-3.9269876	ziemska	-0.038168933
-3.9269876	umarła	-0.038168933
-3.6155896	kraj	-0.038168933
-3.9269876	miłował	-0.038168933
-3.9269876	rodzinny	-0.038168933
-3.9269876	tęsknem	-0.038168933
-3.6155896	uczuciem	-0.038168933
-3.9269876	sieroty	-0.038168933
-3.752925	zwycięstwo	-0.038168933
-3.6155896	wolności	-0.038168933
-3.9269876	cnoty	-0.038168933
-3.347063	naród	-0.038168933
-3.9269876	szlachetny	-0.038168933
-3.752925	znajdzie	-0.038168933
-3.347063	kiedy	-0.038168933
-3.752925	ujrzał	-0.038168933
-3.9269876	rozwiane	-0.038168933
-3.9269876	mary	-0.038168933
-3.9269876	strasznego	-0.038168933
-3.9269876	rozbicia	-0.038168933
-3.9269876	świadek	-0.038168933
-3.9269876	ostatniej	-0.038168933
-3.9269876	pozbył	-0.038168933
-3.752925	wiary	-0.15362066
-3.6155896	chociaż	-0.038168933
-3.752925	uszedł	-0.038168933
-3.9269876	wrogiem	-0.038168933
-3.9269876	potwarzy	-0.038168933
-3.9269876	ciosu	-0.038168933
-3.9269876	kim	-0.038168933
-3.9269876	podzielić	-0.038168933
-3.752925	goryczą	-0.038168933
-3.752925	swojego	-0.038168933
-3.752925	losu	-0.038168933
-3.9269876	błądził	-0.038168933
-3.9269876	obcych	-0.038168933
-3.9269876	nieznany	-0.038168933
-3.752925	samotny	-0.038168933
-3.6155896	człowiek	-0.038168933
-3.9269876	umarł	-0.038168933
-3.9269876	zamknął	-0.038168933
-3.9269876	powiek	-0.038168933
-3.9269876	wspomni	-0.038168933
-3.9269876	garścią	-0.038168933
-3.9269876	popiołów	-0.038168933
-3.9269876	twarda	-0.038168933
-3.9269876	wygnania	-0.038168933
-3.9269876	ołów	-0.038168933
-3.6155896	nowa	-0.11163315
-3.9269876	szkoła	-0.038168933
-3.9269876	historyczna	-0.038168933
-3.9269876	metodę	-0.038168933
-3.9269876	badań	-0.038168933
-3.9269876	ścisłą	-0.038168933
-3.9269876	sprowadzoną	-0.038168933
-3.9269876	hurtem	-0.038168933
-3.9269876	rozpowszechnia	-0.038168933
-3.347063	ponad	-0.038168933
-3.6155896	geogname	-0.038168933
-3.9269876	nabywszy	-0.038168933
-3.9269876	pogląd	-0.038168933
-3.6155896	świeży	-0.11163315
-3.9269876	nowym	-0.038168933
-3.9269876	łokciem	-0.038168933
-3.4608948	dzieje	-0.1614335
-3.752925	mierzy	-0.038168933
-3.9269876	popaść	-0.038168933
-3.6155896	dawne	-0.038168933
-3.9269876	błędy	-0.038168933
-3.9269876	mesyanicznych	-0.038168933
-3.9269876	mglistych	-0.038168933
-3.9269876	mrzonek	-0.038168933
-3.752925	koło	-0.038168933
-3.9269876	sztywnych	-0.038168933
-3.9269876	karków	-0.038168933
-3.9269876	okręciła	-0.038168933
-3.9269876	postronek	-0.038168933
-3.9269876	zgiąć	-0.038168933
-3.9269876	żądzę	-0.038168933
-3.9269876	dziką	-0.038168933
-3.752925	dziejowych	-0.038168933
-3.9269876	logiką	-0.038168933
-3.9269876	czcząc	-0.038168933
-3.9269876	spełnionych	-0.038168933
-3.9269876	faktów	-0.038168933
-3.9269876	kolej	-0.038168933
-3.9269876	zwycięzców	-0.038168933
-3.9269876	chytre	-0.038168933
-3.9269876	godła	-0.038168933
-3.9269876	spostrzegła	-0.038168933
-3.6155896	cześć	-0.038168933
-3.9269876	zawiodła	-0.038168933
-3.752925	rąk	-0.038168933
-3.9269876	rozbiór	-0.038168933
-3.752925	wziął	-0.038168933
-3.9269876	chrzest	-0.038168933
-3.9269876	misyi	-0.038168933
-3.9269876	apostolskiej	-0.038168933
-3.9269876	pełnem	-0.038168933
-3.752925	świetle	-0.038168933
-3.9269876	dochodzeń	-0.038168933
-3.9269876	jasną	-0.038168933
-3.752925	gwiazdą	-0.038168933
-3.9269876	despotyzm	-0.038168933
-3.9269876	wychodzi	-0.038168933
-3.9269876	czysto	-0.038168933
-3.9269876	wierzch	-0.038168933
-3.9269876	patryotyzm	-0.038168933
-3.9269876	waryat	-0.038168933
-3.9269876	budował	-0.038168933
-3.9269876	proletaryat	-0.038168933
-3.1187358	coraz	-0.061303183
-3.9269876	śmielsze	-0.038168933
-3.9269876	wnioski	-0.038168933
-3.9269876	przędzie	-0.038168933
-3.9269876	nicując	-0.038168933
-3.9269876	sądy	-0.038168933
-3.9269876	powstrzyma	-0.038168933
-3.9269876	zapędzie	-0.038168933
-3.9269876	dowiedzie	-0.038168933
-3.9269876	król	-0.038168933
-3.9269876	sierot	-0.038168933
-3.9269876	ii	-0.038168933
-3.6155896	wieczne	-0.038168933
-3.9269876	bezdenne	-0.038168933
-3.9269876	otchłanie	-0.038168933
-3.9269876	otaczacie	-0.038168933
-3.9269876	tajemnicą	-0.038168933
-3.347063	was	-0.038168933
-3.752925	ciągle	-0.038168933
-3.9269876	pytamy	-0.038168933
-3.9269876	milczycie	-0.038168933
-3.9269876	głuche	-0.038168933
-3.9269876	próżna	-0.038168933
-3.9269876	ciekawość	-0.038168933
-3.9269876	bicie	-0.038168933
-3.9269876	dostanie	-0.038168933
-3.9269876	chyba	-0.038168933
-3.9269876	echo	-0.038168933
-3.9269876	odrzuci	-0.038168933
-3.9269876	tkwiącej	-0.038168933
-3.9269876	skrycie	-0.038168933
-3.752925	biedni	-0.038168933
-3.9269876	prawdę	-0.038168933
-3.9269876	bierzemy	-0.038168933
-3.752925	oddźwięk	-0.038168933
-3.9269876	wyobraźni	-0.038168933
-3.9269876	sądząc	-0.038168933
-3.9269876	słyszym	-0.038168933
-3.9269876	tajny	-0.038168933
-3.4608948	stoi	-0.038168933
-3.6155896	przedtem	-0.038168933
-3.9269876	niemy	-0.038168933
-3.9269876	póty	-0.038168933
-3.9269876	milczeniem	-0.038168933
-3.9269876	drażni	-0.038168933
-3.6155896	mrok	-0.038168933
-3.752925	wciągnie	-0.038168933
-3.752925	ponury	-0.15362066
-3.9269876	zwały	-0.038168933
-3.9269876	właściwie	-0.038168933
-3.9269876	ludem	-0.038168933
-3.9269876	nazywa	-0.038168933
-3.9269876	wieczną	-0.038168933
-3.6155896	nieba	-0.11163315
-3.9269876	skazały	-0.038168933
-3.752925	ramię	-0.038168933
-3.9269876	spoczywa	-0.038168933
-3.9269876	pracowity	-0.038168933
-3.9269876	silny	-0.038168933
-3.9269876	wytrwały	-0.038168933
-3.9269876	lwia	-0.038168933
-3.9269876	skóra	-0.038168933
-3.9269876	barki	-0.038168933
-3.6155896	pokrywa	-0.038168933
-3.752925	pana	-0.038168933
-3.9269876	nieśmiały	-0.038168933
-3.9269876	łańcuchów	-0.038168933
-3.9269876	kuje	-0.038168933
-3.9269876	spełnia	-0.038168933
-3.752925	najcięższe	-0.038168933
-3.9269876	zlecenia	-0.038168933
-3.4608948	podniesie	-0.09206962
-3.9269876	maczugę	-0.038168933
-3.9269876	stąpa	-0.038168933
-3.9269876	cicho	-0.038168933
-3.9269876	najzwyczajniej	-0.038168933
-3.9269876	pełen	-0.038168933
-3.9269876	zaparcia	-0.038168933
-3.9269876	upokorzenia	-0.038168933
-3.752925	śmieją	-0.038168933
-3.752925	niego	-0.038168933
-3.9269876	rubaszny	-0.038168933
-3.752925	widzą	-0.038168933
-3.9269876	augiaszowej	-0.038168933
-3.9269876	stajni	-0.038168933
-3.9269876	dziewicza	-0.038168933
-3.9269876	muza	-0.038168933
-3.9269876	wstydem	-0.038168933
-3.9269876	spłonie	-0.038168933
-3.9269876	grubej	-0.038168933
-3.9269876	oddany	-0.038168933
-3.9269876	swawoli	-0.038168933
-3.9269876	pijaną	-0.038168933
-3.9269876	orgią	-0.038168933
-3.752925	gasi	-0.038168933
-3.4608948	ogień	-0.038168933
-3.9269876	pragnąc	-0.038168933
-3.4608948	tem	-0.07334952
-3.9269876	boli	-0.038168933
-3.9269876	rozżarty	-0.038168933
-3.9269876	nadmiarem	-0.038168933
-3.752925	niedoli	-0.038168933
-3.9269876	szaleństwie	-0.038168933
-3.9269876	trujące	-0.038168933
-3.752925	bronie	-0.15362066
-3.752925	biegnie	-0.038168933
-3.9269876	niszczyciela	-0.038168933
-3.9269876	roli	-0.038168933
-3.9269876	niewinnych	-0.038168933
-3.752925	plami	-0.038168933
-3.9269876	pomimo	-0.038168933
-3.0632448	tych	-0.057004254
-3.9269876	wybuchów	-0.038168933
-3.9269876	szału	-0.038168933
-3.9269876	niwecz	-0.038168933
-3.4608948	praca	-0.39361125
-3.752925	wielkich	-0.038168933
-3.752925	czynów	-0.038168933
-3.752925	szereg	-0.038168933
-3.9269876	zaciera	-0.038168933
-3.9269876	obłędu	-0.038168933
-3.1823702	swego	-0.038168933
-3.9269876	pomału	-0.038168933
-3.9269876	stanowisko	-0.038168933
-3.6155896	wraca	-0.038168933
-3.9269876	bohaterstwo	-0.038168933
-3.9269876	ceni	-0.038168933
-3.752925	wie	-0.09206962
-3.9269876	cało	-0.038168933
-3.9269876	wyszedłszy	-0.038168933
-3.9269876	płomieni	-0.038168933
-3.752925	miejsce	-0.038168933
-3.1187358	siebie	-0.08153938
-3.9269876	zdobędzie	-0.038168933
-3.9269876	bogowie	-0.038168933
-3.9269876	strapieni	-0.038168933
-3.9269876	chcieli	-0.038168933
-3.9269876	posłuszne	-0.038168933
-3.752925	narzędzie	-0.15362066
-3.347063	orgname	-0.038168933
-3.752925	wściekłości	-0.038168933
-3.9269876	pieni	-0.038168933
-3.9269876	prześladuje	-0.038168933
-3.256956	zawsze	-0.038168933
-3.9269876	posyłał	-0.038168933
-3.9269876	gady	-0.038168933
-3.9269876	zgniotły	-0.038168933
-3.9269876	duszącym	-0.038168933
-3.9269876	olbrzymów	-0.038168933
-3.9269876	nań	-0.038168933
-3.9269876	godzi	-0.038168933
-3.9269876	bezsilne	-0.038168933
-3.9269876	gniewy	-0.038168933
-3.752925	zasadzki	-0.038168933
-3.9269876	zdrady	-0.038168933
-3.9269876	gromów	-0.038168933
-3.752925	błysku	-0.15362066
-3.9269876	więzów	-0.038168933
-3.9269876	wyswobodzi	-0.038168933
-3.9269876	xxviii	-0.038168933
-3.6155896	jasność	-0.038168933
-3.9269876	żegnają	-0.038168933
-3.9269876	zniknioną	-0.038168933
-3.752925	burza	-0.038168933
-3.1823702	całe	-0.038168903
-3.9269876	zniweczyła	-0.038168933
-3.9269876	spustoszoną	-0.038168933
-3.9269876	rozpaczając	-0.038168933
-3.9269876	niwą	-0.038168933
-3.6155896	myślą	-0.038168933
-3.9269876	pochłoną	-0.038168933
-3.9269876	dalszych	-0.038168933
-3.9269876	rozkwitów	-0.038168933
-3.9269876	mrożąc	-0.038168933
-3.9269876	siłę	-0.038168933
-3.9269876	żywą	-0.038168933
-3.9269876	tymczasem	-0.038168933
-3.9269876	osłoną	-0.038168933
-3.9269876	dobroczynną	-0.038168933
-3.752925	martwości	-0.038168933
-3.9269876	pokrywą	-0.038168933
-3.9269876	kiełków	-0.038168933
-3.9269876	łono	-0.038168933
-3.752925	ręką	-0.038168933
-3.9269876	rozrzuconych	-0.038168933
-3.9269876	skrzętną	-0.038168933
-3.9269876	spowiciu	-0.038168933
-3.9269876	zamieci	-0.038168933
-3.9269876	bijące	-0.038168933
-3.9269876	wewnątrz	-0.038168933
-3.9269876	ustaje	-0.038168933
-3.9269876	tętno	-0.038168933
-3.752925	głębi	-0.038168933
-3.9269876	walką	-0.038168933
-3.9269876	wre	-0.038168933
-3.9269876	namiętną	-0.038168933
-3.9269876	wydobyć	-0.038168933
-3.9269876	oświeci	-0.038168933
-3.9269876	brzask	-0.038168933
-3.9269876	wiosen	-0.038168933
-3.6155896	stuleci	-0.11163315
-3.9269876	rzekłem	-0.038168933
-3.9269876	usłyszała	-0.038168933
-3.9269876	szalona	-0.038168933
-3.9269876	pycha	-0.038168933
-3.9269876	dwóch	-0.038168933
-3.9269876	władzców	-0.038168933
-3.9269876	ościenne	-0.038168933
-3.9269876	dzierżyli	-0.038168933
-3.9269876	narody	-0.038168933
-3.752925	powstał	-0.038168933
-3.752925	ludu	-0.038168933
-3.9269876	pragnę	-0.038168933
-3.9269876	zgody	-0.038168933
-3.9269876	sąsiad	-0.038168933
-3.9269876	bezpieczeństwo	-0.038168933
-3.9269876	czycha	-0.038168933
-3.9269876	czyż	-0.038168933
-3.9269876	patrzyć	-0.038168933
-3.9269876	przeszkody	-0.038168933
-3.9269876	wywyższa	-0.038168933
-3.9269876	dumie	-0.038168933
-3.9269876	przyjaźń	-0.038168933
-3.9269876	odpycha	-0.038168933
-3.9269876	honor	-0.038168933
-3.9269876	zagrożony	-0.038168933
-3.6155896	laur	-0.038168933
-3.9269876	usycha	-0.038168933
-3.9269876	trza	-0.038168933
-3.9269876	odświeżyć	-0.038168933
-3.4608948	krwi	-0.038168933
-3.9269876	rycerstwa	-0.038168933
-3.752925	młodej	-0.038168933
-3.752925	imię	-0.038168933
-3.9269876	najwyższego	-0.038168933
-3.9269876	stojąc	-0.038168933
-3.9269876	słusznej	-0.038168933
-3.9269876	sprawie	-0.038168933
-3.752925	uderzmy	-0.038168933
-3.6155896	wroga	-0.11163315
-3.752925	zdrada	-0.038168933
-3.9269876	krzywoprzysięstwo	-0.038168933
-3.9269876	chęć	-0.038168933
-3.9269876	zaboru	-0.038168933
-3.752925	bezprawie	-0.038168933
-3.9269876	rzezie	-0.038168933
-3.9269876	pożoga	-0.038168933
-3.9269876	szlachetna	-0.038168933
-3.9269876	duma	-0.038168933
-3.9269876	rycerskie	-0.038168933
-3.9269876	zwyciężym	-0.038168933
-3.9269876	zrządzeniem	-0.038168933
-3.9269876	prolog	-0.038168933
-3.6155896	dopiero	-0.038168933
-3.9269876	scenie	-0.038168933
-3.752925	zwycięzca	-0.038168933
-3.752925	łaski	-0.038168933
-3.6155896	posuwa	-0.11163315
-3.9269876	więzi	-0.038168933
-3.9269876	morduje	-0.038168933
-3.9269876	wsie	-0.038168933
-3.4608948	miasta	-0.038168933
-3.9269876	zrabowanem	-0.038168933
-3.752925	złotem	-0.038168933
-3.9269876	napycha	-0.038168933
-3.9269876	kieszenie	-0.038168933
-3.9269876	podostatkiem	-0.038168933
-3.9269876	słuchali	-0.038168933
-3.752925	padać	-0.038168933
-3.9269876	milczeniu	-0.038168933
-3.752925	arenie	-0.15362066
-3.9269876	zaspokoić	-0.038168933
-3.9269876	pobożne	-0.038168933
-3.9269876	sumienie	-0.038168933
-3.9269876	okuć	-0.038168933
-3.9269876	krnąbrny	-0.038168933
-3.9269876	obręczą	-0.038168933
-3.9269876	stali	-0.038168933
-3.9269876	pochód	-0.038168933
-3.9269876	hymn	-0.038168933
-3.9269876	tryumfu	-0.038168933
-3.752925	ślad	-0.038168933
-3.9269876	orszak	-0.038168933
-3.9269876	krok	-0.038168933
-3.752925	wyrok	-0.038168933
-3.9269876	pożar	-0.038168933
-3.9269876	ruiny	-0.038168933
-3.752925	wojsko	-0.038168933
-3.9269876	szarańcza	-0.038168933
-3.752925	rozlewa	-0.038168933
-2.9698606	która	-0.076693684
-3.9269876	utraciła	-0.038168933
-3.9269876	syny	-0.038168933
-3.9269876	nogą	-0.038168933
-3.9269876	najeźdźcy	-0.038168933
-3.9269876	omdlewa	-0.038168933
-3.9269876	ix	-0.038168933
-3.9269876	koniec	-0.038168933
-3.9269876	ostatka	-0.038168933
-3.752925	czuje	-0.038168933
-3.9269876	przymuszonym	-0.038168933
-3.9269876	bronić	-0.038168933
-3.9269876	ohydą	-0.038168933
-3.9269876	gwałtami	-0.038168933
-3.9269876	łupieżcy	-0.038168933
-3.9269876	ojczyzna	-0.038168933
-3.9269876	matka	-0.038168933
-3.9269876	wydać	-0.038168933
-3.4608948	synów	-0.038168933
-3.9269876	zań	-0.038168933
-3.752925	idą	-0.038168933
-3.9269876	pokryć	-0.038168933
-3.9269876	piramidą	-0.038168933
-3.752925	rozpaczy	-0.038168933
-3.6155896	niebo	-0.038168933
-3.9269876	świadka	-0.038168933
-3.9269876	paść	-0.038168933
-3.752925	gruzy	-0.038168933
-3.9269876	krwawa	-0.038168933
-3.9269876	dziejowa	-0.038168933
-3.9269876	zagadka	-0.038168933
-3.9269876	obcego	-0.038168933
-3.9269876	ciemięstwa	-0.038168933
-3.9269876	zostać	-0.038168933
-3.9269876	karyatydą	-0.038168933
-3.9269876	pobożny	-0.038168933
-3.9269876	najeźdźca	-0.038168933
-3.9269876	prorokuje	-0.038168933
-3.9269876	upadek	-0.038168933
-3.9269876	rychły	-0.038168933
-3.9269876	babylonu	-0.038168933
-3.6155896	widzi	-0.038168933
-3.9269876	powołanym	-0.038168933
-3.9269876	surowy	-0.038168933
-3.9269876	dopełnić	-0.038168933
-3.9269876	mieczem	-0.038168933
-3.9269876	wedle	-0.038168933
-3.9269876	starego	-0.038168933
-3.9269876	zakonu	-0.038168933
-3.9269876	wyciąga	-0.038168933
-3.9269876	dłoń	-0.038168933
-3.9269876	boskiego	-0.038168933
-3.9269876	tronu	-0.038168933
-3.9269876	namaszczenie	-0.038168933
-3.9269876	poświęcanej	-0.038168933
-3.6155896	głowy	-0.11163315
-3.9269876	fazy	-0.038168933
-3.9269876	wielka	-0.038168933
-3.6155896	nagle	-0.038168933
-3.9269876	zajaśnieje	-0.038168933
-3.9269876	porwie	-0.038168933
-3.6155896	sobą	-0.038168933
-3.9269876	mętną	-0.038168933
-3.9269876	burzliwym	-0.038168933
-3.9269876	prądem	-0.038168933
-3.752925	niosąc	-0.038168933
-3.9269876	prawdzie	-0.038168933
-3.9269876	zwycięstwu	-0.038168933
-3.752925	chwale	-0.15362066
-3.752925	wtenczas	-0.038168933
-3.4608948	pierś	-0.038168933
-3.4608948	ludzka	-0.038168933
-3.9269876	olbrzymieje	-0.038168933
-3.9269876	trwogi	-0.038168933
-3.752925	powszednie	-0.038168933
-3.6155896	żale	-0.11163315
-3.9269876	zuchwale	-0.038168933
-3.752925	nieśmiertelną	-0.038168933
-3.9269876	sięgając	-0.038168933
-3.347063	nadzieję	-0.1614335
-3.9269876	owego	-0.038168933
-3.9269876	tajnego	-0.038168933
-3.752925	ogniska	-0.15362066
-3.752925	ożywcze	-0.038168933
-3.9269876	spływają	-0.038168933
-3.9269876	promienie	-0.038168933
-3.6155896	siłą	-0.038168933
-3.9269876	młodością	-0.038168933
-3.9269876	tryska	-0.038168933
-3.9269876	zyskuje	-0.038168933
-3.9269876	wartości	-0.038168933
-3.9269876	cenie	-0.038168933
-3.4608948	pięknością	-0.038168933
-3.9269876	połyska	-0.038168933
-3.9269876	godne	-0.038168933
-3.9269876	męskiej	-0.038168933
-3.6155896	pracy	-0.038168933
-3.9269876	zakończenie	-0.038168933
-3.9269876	zagaśnie	-0.038168933
-3.256956	blask	-0.038168933
-3.9269876	promieniej	-0.038168933
-3.9269876	zorzy	-0.038168933
-3.9269876	ożywcza	-0.038168933
-3.9269876	sercami	-0.038168933
-3.9269876	włada	-0.038168933
-3.752925	zaraz	-0.038168933
-3.752925	waha	-0.038168933
-3.9269876	trwoży	-0.038168933
-3.9269876	nikczemnieje	-0.038168933
-3.9269876	upada	-0.038168933
-3.752925	wówczas	-0.038168933
-3.9269876	strach	-0.038168933
-3.6155896	ludzkie	-0.038168933
-3.9269876	stada	-0.038168933
-3.752925	zepsucie	-0.038168933
-3.9269876	mnoży	-0.038168933
-3.752925	przerażeniem	-0.038168933
-3.9269876	blada	-0.038168933
-3.9269876	błądzi	-0.038168933
-3.9269876	rozdroży	-0.038168933
-3.9269876	dziwnie	-0.038168933
-3.9269876	zmieniony	-0.038168933
-3.9269876	stary	-0.038168933
-3.4608948	swoim	-0.038168933
-3.9269876	dzieciom	-0.038168933
-3.752925	płaci	-0.15362066
-3.4608948	pragnień	-0.038168933
-3.752925	natchnień	-0.038168933
-3.9269876	urok	-0.038168933
-3.752925	traci	-0.15362066
-3.9269876	ohydnej	-0.038168933
-3.9269876	zjawia	-0.038168933
-3.9269876	straszne	-0.038168933
-3.9269876	kary	-0.038168933
-3.9269876	odrodzenia	-0.038168933
-3.9269876	wasz	-0.038168933
-3.9269876	wielką	-0.038168933
-3.9269876	rocznicę	-0.038168933
-3.9269876	święci	-0.038168933
-3.9269876	pieśniarz	-0.038168933
-3.9269876	gości	-0.038168933
-3.9269876	oddać	-0.038168933
-3.9269876	hołd	-0.038168933
-3.9269876	wieszcza	-0.038168933
-3.752925	waszego	-0.038168933
-3.6155896	pamięci	-0.11163315
-3.9269876	cichem	-0.038168933
-3.9269876	święcie	-0.038168933
-3.9269876	jedności	-0.038168933
-3.752925	wami	-0.038168933
-3.752925	udział	-0.038168933
-3.9269876	pospołu	-0.038168933
-3.752925	uczcie	-0.038168933
-3.4608948	duchów	-0.038168933
-3.9269876	wspólnego	-0.038168933
-3.9269876	stołu	-0.038168933
-3.9269876	bohaterem	-0.038168933
-3.9269876	bezkrwawy	-0.038168933
-3.9269876	prowadził	-0.038168933
-3.9269876	uśpionej	-0.038168933
-3.9269876	pięknej	-0.038168933
-3.9269876	córki	-0.038168933
-3.9269876	zbutwiałe	-0.038168933
-3.9269876	spowicia	-0.038168933
-3.9269876	pokorą	-0.038168933
-3.9269876	uginam	-0.038168933
-3.9269876	kolano	-0.038168933
-3.9269876	wpatrzony	-0.038168933
-3.6155896	zorzę	-0.11163315
-3.9269876	geniuszu	-0.038168933
-3.9269876	świetlaną	-0.038168933
-3.9269876	wodzem	-0.038168933
-3.9269876	stał	-0.038168933
-3.9269876	straży	-0.038168933
-3.752925	niewoli	-0.038168933
-3.9269876	ćmił	-0.038168933
-3.9269876	podjął	-0.038168933
-3.752925	pieśń	-0.038168933
-3.9269876	cmentarzy	-0.038168933
-3.9269876	kształcił	-0.038168933
-3.9269876	śpiewne	-0.038168933
-3.9269876	języka	-0.038168933
-3.9269876	ojcem	-0.038168933
-3.9269876	wiodącej	-0.038168933
-3.9269876	imieniu	-0.038168933
-3.9269876	składam	-0.038168933
-3.752925	liść	-0.038168933
-3.9269876	wawrzynu	-0.038168933
-3.9269876	bliższym	-0.038168933
-3.9269876	skupia	-0.038168933
-3.9269876	rozprzęga	-0.038168933
-3.9269876	droższym	-0.038168933
-3.9269876	wskrzesza	-0.038168933
-3.9269876	uśmierca	-0.038168933
-3.9269876	władców	-0.038168933
-3.9269876	światowych	-0.038168933
-3.9269876	chwała	-0.038168933
-3.9269876	równać	-0.038168933
-3.752925	ludowi	-0.038168933
-3.347063	niesie	-0.038168933
-3.9269876	śpiewakowi	-0.038168933
-3.752925	śnie	-0.038168933
-3.9269876	proroczym	-0.038168933
-3.9269876	letargu	-0.038168933
-3.9269876	wskrzesi	-0.038168933
-3.9269876	hetmanowi	-0.038168933
-3.4608948	którego	-0.038168933
-3.9269876	kroczym	-0.038168933
-3.9269876	odrodzeniu	-0.038168933
-3.1823702	pokoleń	-0.038168933
-3.9269876	torturę	-0.038168933
-3.9269876	oswobodzić	-0.038168933
-3.9269876	piękną	-0.038168933
-3.9269876	córę	-0.038168933
-3.9269876	córko	-0.038168933
-3.9269876	zostań	-0.038168933
-3.9269876	wierną	-0.038168933
-3.9269876	sławie	-0.038168933
-3.9269876	nieskalanej	-0.038168933
-3.4608948	łzami	-0.15362066
-3.752925	cudzą	-0.15362066
-3.6155896	niech	-0.038168933
-3.9269876	rządzące	-0.038168933
-3.9269876	zwycięsko	-0.038168933
-3.9269876	wszechwładztwa	-0.038168933
-3.752925	pokusy	-0.038168933
-3.9269876	łudzą	-0.038168933
-3.9269876	szukaj	-0.038168933
-3.4608948	natchnienia	-0.038168933
-3.752925	sił	-0.038168933
-3.752925	samej	-0.038168933
-3.9269876	raczej	-0.038168933
-3.9269876	cierpią	-0.038168933
-3.9269876	walczą	-0.038168933
-3.9269876	samobójczo	-0.038168933
-3.752925	stać	-0.038168933
-3.9269876	tłuszczą	-0.038168933
-3.9269876	helotów	-0.038168933
-3.9269876	służalczą	-0.038168933
-3.4608948	którą	-0.038168933
-3.9269876	zapadnie	-0.038168933
-3.752925	tym	-0.038168933
-3.9269876	olbrzymem	-0.038168933
-3.9269876	krocząc	-0.038168933
-3.9269876	zuchwały	-0.038168933
-3.9269876	depcze	-0.038168933
-3.9269876	ideały	-0.038168933
-3.9269876	przyjdzie	-0.038168933
-3.347063	czas	-0.038168933
-3.9269876	wypełnią	-0.038168933
-3.9269876	zmienionej	-0.038168933
-3.9269876	piewcy	-0.038168933
-3.9269876	wieszcze	-0.038168933
-3.9269876	świętej	-0.038168933
-3.9269876	zgodzie	-0.038168933
-3.6155896	skryte	-0.038168933
-3.6155896	marzenia	-0.038168933
-3.9269876	urzeczywistni	-0.038168933
-3.9269876	padną	-0.038168933
-3.9269876	nienawistni	-0.038168933
-3.752925	prąd	-0.038168933
-3.752925	duchowy	-0.038168933
-3.9269876	kajdany	-0.038168933
-3.9269876	usamowolni	-0.038168933
-3.9269876	staniemy	-0.038168933
-3.9269876	ramienia	-0.038168933
-3.9269876	równi	-0.038168933
-3.9269876	równymi	-0.038168933
-3.9269876	wolnymi	-0.038168933
-3.9269876	wolni	-0.038168933
-3.9269876	silna	-0.038168933
-3.9269876	młoda	-0.038168933
-3.9269876	bratniej	-0.038168933
-3.9269876	poda	-0.038168933
-3.9269876	persnamemiejmy	-0.038168933
-3.9269876	miejmy	-0.038168933
-3.9269876	lichą	-0.038168933
-3.9269876	marną	-0.038168933
-3.9269876	rdzeń	-0.038168933
-3.9269876	spruchniały	-0.038168933
-3.9269876	wątły	-0.038168933
-3.9269876	ubiera	-0.038168933
-3.752925	niezłomną	-0.038168933
-3.9269876	tkwi	-0.038168933
-3.6155896	ziarno	-0.11163315
-3.4608948	przyszłych	-0.038168933
-3.4608948	poświęceń	-0.038168933
-3.9269876	chciwą	-0.038168933
-3.347063	szczęścia	-0.038168933
-3.9269876	płochą	-0.038168933
-3.9269876	zalotnicę	-0.038168933
-3.9269876	grobach	-0.038168933
-3.9269876	czeka	-0.038168933
-3.6155896	dnia	-0.038168933
-3.9269876	przebudzeń	-0.038168933
-3.9269876	przechowuje	-0.038168933
-3.9269876	przyłbicę	-0.038168933
-3.752925	odwagę	-0.038168933
-3.9269876	jednodniową	-0.038168933
-3.9269876	rozpaczliwem	-0.038168933
-3.9269876	przedsięwzięciu	-0.038168933
-3.752925	pryska	-0.15362066
-3.9269876	wiecznie	-0.038168933
-3.9269876	podniesioną	-0.038168933
-3.6155896	głową	-0.11163315
-3.9269876	zepchnąć	-0.038168933
-3.9269876	stanowiska	-0.038168933
-3.9269876	tchnącą	-0.038168933
-3.9269876	szałem	-0.038168933
-3.9269876	oślep	-0.038168933
-3.752925	leci	-0.038168933
-3.9269876	oręża	-0.038168933
-3.9269876	niezdobytym	-0.038168933
-3.9269876	wałem	-0.038168933
-3.9269876	przeciwne	-0.038168933
-3.752925	losy	-0.038168933
-3.9269876	stałością	-0.038168933
-3.752925	zwycięża	-0.038168933
-3.9269876	pogardę	-0.038168933
-3.9269876	wrzekomej	-0.038168933
-3.9269876	bezprawia	-0.038168933
-3.9269876	zwodniczej	-0.038168933
-3.9269876	strójmy	-0.038168933
-3.752925	płaszcz	-0.038168933
-3.9269876	męczeństwa	-0.038168933
-3.752925	krwawy	-0.15362066
-3.9269876	brząkajmy	-0.038168933
-3.9269876	niewolniczy	-0.038168933
-3.752925	pychy	-0.038168933
-3.752925	zwycięskiej	-0.038168933
-3.9269876	przyklaskiwać	-0.038168933
-3.9269876	przemocy	-0.038168933
-3.9269876	idźmy	-0.038168933
-3.9269876	wielbmy	-0.038168933
-3.9269876	poniesionej	-0.038168933
-3.6155896	klęski	-0.038168933
-3.9269876	słabości	-0.038168933
-3.9269876	szczyćmy	-0.038168933
-3.9269876	przestańmy	-0.038168933
-3.9269876	pieścić	-0.038168933
-3.752925	boleścią	-0.038168933
-3.9269876	ciągłym	-0.038168933
-3.9269876	lamentem	-0.038168933
-3.9269876	poić	-0.038168933
-3.752925	kochać	-0.038168933
-3.9269876	skargach	-0.038168933
-3.9269876	rzeczą	-0.038168933
-3.9269876	niewieścią	-0.038168933
-3.9269876	mężom	-0.038168933
-3.9269876	przystoi	-0.038168933
-3.9269876	zbroić	-0.038168933
-3.9269876	przestajmy	-0.038168933
-3.752925	czcić	-0.038168933
-3.752925	świętości	-0.038168933
-3.9269876	przechowywać	-0.038168933
-3.9269876	ideałów	-0.038168933
-3.9269876	czystość	-0.038168933
-3.9269876	należy	-0.038168933
-3.9269876	dać	-0.038168933
-3.752925	zbroję	-0.15362066
-3.752925	kraju	-0.038168933
-3.9269876	przeszły	-0.038168933
-3.9269876	rzeczywistość	-0.038168933
-3.9269876	daremne	-0.038168933
-3.752925	próżny	-0.038168933
-3.9269876	złorzeczenia	-0.038168933
-3.9269876	przeżytych	-0.038168933
-3.9269876	kształtów	-0.038168933
-3.6155896	żaden	-0.038168933
-3.9269876	cud	-0.038168933
-3.9269876	wróci	-0.038168933
-3.6155896	wam	-0.038168933
-3.9269876	wstecz	-0.038168933
-3.752925	zniknionych	-0.038168933
-3.9269876	szeregu	-0.038168933
-3.4608948	miecz	-0.038168933
-3.9269876	powstrzymać	-0.038168933
-3.9269876	biegu	-0.038168933
-3.6155896	naprzód	-0.038168933
-3.6155896	iść	-0.038168933
-3.9269876	sięgać	-0.038168933
-3.9269876	uwiędłych	-0.038168933
-3.9269876	laurów	-0.038168933
-3.9269876	uporem	-0.038168933
-3.9269876	stroić	-0.038168933
-3.6155896	głowę	-0.11163315
-3.752925	wy	-0.038168933
-3.9269876	cofniecie	-0.038168933
-3.9269876	fal	-0.038168933
-3.9269876	pomogą	-0.038168933
-3.6155896	żal	-0.11163315
-3.9269876	pójdzie	-0.038168933
-3.6155896	swoją	-0.038168933
-3.752925	drogą	-0.038168933
-3.9269876	vi	-0.038168933
-3.752925	rzeź	-0.038168933
-3.9269876	rzezią	-0.038168933
-3.9269876	wspaniale	-0.038168933
-3.9269876	stutysięczne	-0.038168933
-3.752925	armie	-0.038168933
-3.6155896	pośród	-0.038168933
-3.9269876	armat	-0.038168933
-3.9269876	zwierają	-0.038168933
-3.9269876	morderczym	-0.038168933
-3.9269876	roztrącając	-0.038168933
-3.9269876	wzajem	-0.038168933
-3.9269876	morskie	-0.038168933
-3.752925	fale	-0.15362066
-3.9269876	gromady	-0.038168933
-3.9269876	zdobytem	-0.038168933
-3.9269876	szwadrony	-0.038168933
-3.752925	leżą	-0.038168933
-3.9269876	strzaskane	-0.038168933
-3.9269876	urwisku	-0.038168933
-3.752925	szeregi	-0.038168933
-3.6155896	trupów	-0.038168933
-3.9269876	ścisku	-0.038168933
-3.9269876	wał	-0.038168933
-3.9269876	przebiega	-0.038168933
-3.9269876	umarłych	-0.038168933
-3.9269876	wale	-0.038168933
-3.9269876	sztuczne	-0.038168933
-3.9269876	narzędzia	-0.038168933
-3.9269876	genialne	-0.038168933
-3.9269876	zmiatają	-0.038168933
-3.9269876	skrwawionego	-0.038168933
-3.9269876	cielska	-0.038168933
-3.9269876	poszarpanej	-0.038168933
-3.9269876	odzieży	-0.038168933
-3.9269876	szmat	-0.038168933
-3.9269876	błota	-0.038168933
-3.9269876	zielska	-0.038168933
-3.9269876	bezkształtne	-0.038168933
-3.9269876	masy	-0.038168933
-3.9269876	zmięszane	-0.038168933
-3.9269876	zgonie	-0.038168933
-3.9269876	kałużę	-0.038168933
-3.6155896	spływa	-0.038168933
-3.6155896	krew	-0.038168933
-3.9269876	nieprzyjacielska	-0.038168933
-3.9269876	wstrętem	-0.038168933
-3.752925	kryje	-0.038168933
-3.9269876	xxxiii	-0.038168933
-3.9269876	wyście	-0.038168933
-3.9269876	nędzarzami	-0.038168933
-3.752925	dumą	-0.038168933
-3.9269876	hidalgów	-0.038168933
-3.9269876	nosicie	-0.038168933
-3.9269876	łachmany	-0.038168933
-3.9269876	odkrywacie	-0.038168933
-3.752925	rany	-0.038168933
-3.9269876	zarabiać	-0.038168933
-3.9269876	nikczemność	-0.038168933
-3.9269876	znacie	-0.038168933
-3.6155896	sami	-0.038168933
-3.9269876	chowacie	-0.038168933
-3.9269876	pamiątek	-0.038168933
-3.9269876	kurhany	-0.038168933
-3.9269876	skargę	-0.038168933
-3.9269876	stroskany	-0.038168933
-3.9269876	wołacie	-0.038168933
-3.9269876	świętość	-0.038168933
-3.9269876	litość	-0.038168933
-3.9269876	życzyć	-0.038168933
-3.9269876	ułomni	-0.038168933
-3.9269876	żebyście	-0.038168933
-3.752925	ciche	-0.038168933
-3.9269876	zalegli	-0.038168933
-3.752925	cmentarze	-0.15362066
-3.9269876	zeszli	-0.038168933
-3.9269876	bezpotomni	-0.038168933
-3.9269876	ukaże	-0.038168933
-3.6155896	przyszłość	-0.038168933
-3.9269876	zapomni	-0.038168933
-3.9269876	roztacza	-0.038168933
-3.752925	krąg	-0.038168933
-3.752925	cudownych	-0.038168933
-3.9269876	scen	-0.038168933
-3.9269876	walczym	-0.038168933
-3.9269876	przedzie	-0.038168933
-3.9269876	lśniąc	-0.038168933
-3.6155896	szlachetnych	-0.038168933
-3.752925	żądz	-0.038168933
-3.752925	bohaterstwa	-0.038168933
-3.752925	wiedzie	-0.038168933
-3.9269876	skrzydlatych	-0.038168933
-3.752925	szybko	-0.038168933
-3.9269876	złudny	-0.038168933
-3.4608948	znika	-0.038168933
-3.752925	czar	-0.038168933
-3.9269876	ziszcza	-0.038168933
-3.752925	topnieje	-0.15362066
-3.752925	gmach	-0.038168933
-3.9269876	zostają	-0.038168933
-3.752925	zgliszcza	-0.038168933
-3.9269876	persnameniechaj	-0.038168933
-3.9269876	pracownik	-0.038168933
-3.752925	żali	-0.038168933
-3.9269876	cichy	-0.038168933
-3.6155896	świeże	-0.11163315
-3.9269876	oklaskach	-0.038168933
-3.752925	tłumu	-0.038168933
-3.9269876	głośnej	-0.038168933
-3.9269876	zapłaty	-0.038168933
-3.752925	bierze	-0.15362066
-3.9269876	rozgłos	-0.038168933
-3.752925	sława	-0.038168933
-3.752925	przemija	-0.038168933
-3.9269876	tuman	-0.038168933
-3.9269876	pyłu	-0.038168933
-3.9269876	wicher	-0.038168933
-3.752925	ogarnie	-0.15362066
-3.9269876	znikając	-0.038168933
-3.6155896	oczu	-0.038168933
-3.9269876	opada	-0.038168933
-3.9269876	uwielbieniem	-0.038168933
-3.752925	wrząca	-0.15362066
-3.9269876	górę	-0.038168933
-3.9269876	wyniosła	-0.038168933
-3.752925	krótkiej	-0.038168933
-3.6155896	chwili	-0.038168933
-3.9269876	dół	-0.038168933
-3.6155896	strąca	-0.26867253
-3.752925	grzebie	-0.038168933
-3.9269876	żywcem	-0.038168933
-3.9269876	dźwięk	-0.038168933
-3.9269876	głuchnie	-0.038168933
-3.9269876	zgłuszą	-0.038168933
-3.9269876	nowi	-0.038168933
-3.9269876	ulubieńce	-0.038168933
-3.9269876	rozsypią	-0.038168933
-3.752925	próchnie	-0.15362066
-3.9269876	oznaki	-0.038168933
-3.9269876	hołdów	-0.038168933
-3.9269876	laurowe	-0.038168933
-3.9269876	wieńce	-0.038168933
-3.9269876	zginą	-0.038168933
-3.752925	prądów	-0.038168933
-3.752925	chwilowych	-0.038168933
-3.9269876	zawiśli	-0.038168933
-3.9269876	goniący	-0.038168933
-3.9269876	sztukmistrze	-0.038168933
-3.9269876	zaginie	-0.038168933
-3.9269876	siew	-0.038168933
-3.9269876	przepadną	-0.038168933
-3.9269876	najczystsze	-0.038168933
-3.9269876	pracownika	-0.038168933
-3.9269876	wyrosną	-0.038168933
-3.9269876	cmentarnej	-0.038168933
-3.9269876	grzędzie	-0.038168933
-3.9269876	nieśmiertelna	-0.038168933
-3.9269876	cząstka	-0.038168933
-3.9269876	późniejszych	-0.038168933
-3.752925	czasów	-0.038168933
-3.752925	dążenia	-0.038168933
-3.9269876	nieświadomie	-0.038168933
-3.9269876	zeń	-0.038168933
-3.752925	początek	-0.038168933
-3.752925	wiodą	-0.15362066
-3.9269876	niewiędnące	-0.038168933
-3.9269876	wawrzyny	-0.038168933
-3.752925	najwyższą	-0.038168933
-3.752925	nagrodą	-0.15362066
-3.9269876	x	-0.038168933
-3.9269876	snują	-0.038168933
-3.752925	krwawych	-0.038168933
-3.9269876	zdarzeń	-0.038168933
-3.752925	wzory	-0.15362066
-3.9269876	skrytobójstwa	-0.038168933
-3.9269876	pień	-0.038168933
-3.9269876	wyrznięte	-0.038168933
-3.9269876	brodzące	-0.038168933
-3.9269876	potokach	-0.038168933
-3.9269876	znędzniałe	-0.038168933
-3.9269876	upiory	-0.038168933
-3.9269876	przeklinające	-0.038168933
-3.9269876	przeklęte	-0.038168933
-3.9269876	zdeptane	-0.038168933
-3.9269876	pozory	-0.038168933
-3.9269876	pustynie	-0.038168933
-3.9269876	zgnilizną	-0.038168933
-3.9269876	wskróś	-0.038168933
-3.9269876	przesiąknięte	-0.038168933
-3.9269876	przesytem	-0.038168933
-3.9269876	okropności	-0.038168933
-3.9269876	chory	-0.038168933
-3.9269876	milczące	-0.038168933
-3.9269876	zdjęte	-0.038168933
-3.9269876	motłoch	-0.038168933
-3.9269876	spojony	-0.038168933
-3.9269876	blekotem	-0.038168933
-3.9269876	niepomny	-0.038168933
-3.9269876	ojców	-0.038168933
-3.9269876	ginącym	-0.038168933
-3.9269876	helotem	-0.038168933
-3.9269876	scenę	-0.038168933
-3.9269876	oklasków	-0.038168933
-3.9269876	grzmotem	-0.038168933
-3.9269876	urągając	-0.038168933
-3.9269876	grobom	-0.038168933
-3.9269876	sonety	-0.038168933
-3.9269876	sie	-0.038168933
-3.9269876	trennten	-0.038168933
-3.9269876	sich	-0.038168933
-3.9269876	endlich	-0.038168933
-3.752925	und	-0.038168933
-3.9269876	sah’n	-0.038168933
-3.9269876	nicht	-0.038168933
-3.9269876	nur	-0.038168933
-3.9269876	noch	-0.038168933
-3.9269876	zuweilen	-0.038168933
-3.9269876	traum	-0.038168933
-3.9269876	waren	-0.038168933
-3.9269876	längst	-0.038168933
-3.9269876	gestorben	-0.038168933
-3.9269876	wussten	-0.038168933
-3.9269876	es	-0.038168933
-3.9269876	selber	-0.038168933
-3.9269876	kaum	-0.038168933
-3.9269876	pozostałem	-0.038168933
-3.752925	rady	-0.15362066
-3.4608948	smutki	-0.09206962
-3.752925	tęsknoty	-0.038168933
-3.9269876	przebiegam	-0.038168933
-3.9269876	chwil	-0.038168933
-3.752925	minionych	-0.038168933
-3.752925	ślady	-0.038168933
-3.9269876	zwiędłą	-0.038168933
-3.9269876	różą	-0.038168933
-3.9269876	zadumany	-0.038168933
-3.9269876	stoję	-0.038168933
-3.9269876	wysyłam	-0.038168933
-3.9269876	zwiady	-0.038168933
-3.9269876	pomyśleć	-0.038168933
-3.9269876	boję	-0.038168933
-3.9269876	niedługo	-0.038168933
-3.4608948	cień	-0.038168933
-3.9269876	wspomnienia	-0.038168933
-3.9269876	mroźny	-0.038168933
-3.752925	wiatr	-0.038168933
-3.9269876	rozwieje	-0.038168933
-3.9269876	zniknie	-0.038168933
-3.9269876	mgłach	-0.038168933
-3.9269876	oddalenia	-0.038168933
-3.9269876	zmusić	-0.038168933
-3.9269876	milczenia	-0.038168933
-3.9269876	drżące	-0.038168933
-3.9269876	struny	-0.038168933
-3.752925	leje	-0.038168933
-3.9269876	grobowego	-0.038168933
-3.9269876	pozór	-0.038168933
-3.9269876	kamienia	-0.038168933
-3.9269876	pogrzebaną	-0.038168933
-3.752925	mgłę	-0.038168933
-3.9269876	ołowianą	-0.038168933
-3.9269876	rozpostrzeć	-0.038168933
-3.6155896	niebie	-0.11163315
-3.752925	ciemną	-0.038168933
-3.9269876	stroskaną	-0.038168933
-3.9269876	pogrzebie	-0.038168933
-3.6155896	niechaj	-0.038168933
-3.9269876	pamiątką	-0.038168933
-3.9269876	zostaną	-0.038168933
-3.9269876	przeżyją	-0.038168933
-3.9269876	viii	-0.038168933
-3.9269876	wieczysta	-0.038168933
-3.9269876	głuszą	-0.038168933
-3.9269876	przedbytową	-0.038168933
-3.752925	otacza	-0.038168933
-3.6155896	kręgi	-0.038168933
-3.9269876	drgające	-0.038168933
-3.9269876	pierwotny	-0.038168933
-3.9269876	eter	-0.038168933
-3.9269876	skupienia	-0.038168933
-3.752925	związku	-0.15362066
-3.347063	światów	-0.038168933
-3.9269876	fizyczną	-0.038168933
-3.9269876	budową	-0.038168933
-3.9269876	jednolitą	-0.038168933
-3.9269876	nicość	-0.038168933
-3.752925	rozprzestrzenia	-0.038168933
-3.9269876	wirami	-0.038168933
-3.9269876	mgławic	-0.038168933
-3.9269876	skłębionych	-0.038168933
-3.9269876	pierścienia	-0.038168933
-3.752925	twórcze	-0.038168933
-3.9269876	wyprowadzi	-0.038168933
-3.9269876	bezwładnej	-0.038168933
-3.9269876	czczości	-0.038168933
-3.9269876	odblask	-0.038168933
-3.9269876	zagości	-0.038168933
-3.9269876	drga	-0.038168933
-3.9269876	pustej	-0.038168933
-3.9269876	wieczności	-0.038168933
-3.9269876	bezustannie	-0.038168933
-3.9269876	czuwa	-0.038168933
-3.6155896	istnień	-0.038168933
-3.9269876	nić	-0.038168933
-3.9269876	wysnuwa	-0.038168933
-3.9269876	przestrzeń	-0.038168933
-3.9269876	złotych	-0.038168933
-3.6155896	gwiazd	-0.038168933
-3.9269876	kagańce	-0.038168933
-3.9269876	wirujących	-0.038168933
-3.9269876	zbiorowiska	-0.038168933
-3.9269876	skupione	-0.038168933
-3.9269876	bytów	-0.038168933
-3.9269876	ogrom	-0.038168933
-3.9269876	krańce	-0.038168933
-3.9269876	sięgnąć	-0.038168933
-3.9269876	przygodni	-0.038168933
-3.9269876	mieszkańce	-0.038168933
-3.752925	nieskończoności	-0.038168933
-3.9269876	nazwiska	-0.038168933
-3.9269876	wzniósł	-0.038168933
-3.9269876	podobny	-0.038168933
-3.9269876	wirującej	-0.038168933
-3.9269876	bańce	-0.038168933
-3.1187358	fali	-0.102298886
-3.9269876	tęczuje	-0.038168933
-3.9269876	nieznana	-0.038168933
-3.752925	poza	-0.038168933
-3.9269876	bytem	-0.038168933
-3.9269876	będąc	-0.038168933
-3.752925	byt	-0.038168933
-3.9269876	okala	-0.038168933
-3.9269876	łona	-0.038168933
-3.9269876	wyprowadza	-0.038168933
-3.752925	słońca	-0.038168933
-3.9269876	przestrzeniach	-0.038168933
-3.9269876	zapala	-0.038168933
-3.752925	nią	-0.038168933
-3.9269876	poruszy	-0.038168933
-3.9269876	kierująca	-0.038168933
-3.9269876	władza	-0.038168933
-3.9269876	głębiach	-0.038168933
-3.752925	nicestwa	-0.038168933
-3.9269876	osadza	-0.038168933
-3.9269876	złość	-0.038168933
-3.9269876	zniweczy	-0.038168933
-3.9269876	występek	-0.038168933
-3.9269876	zburzy	-0.038168933
-3.9269876	gruzów	-0.038168933
-3.9269876	napowrót	-0.038168933
-3.9269876	postawi	-0.038168933
-3.9269876	upadłą	-0.038168933
-3.9269876	kałuży	-0.038168933
-3.9269876	spychają	-0.038168933
-3.9269876	występni	-0.038168933
-3.9269876	krwawi	-0.038168933
-3.752925	czyn	-0.038168933
-3.752925	poświęcenia	-0.038168933
-3.9269876	zbawi	-0.038168933
-3.9269876	dobru	-0.038168933
-3.9269876	powszechnemu	-0.038168933
-3.6155896	służy	-0.11163315
-3.6155896	zastęp	-0.038168933
-3.9269876	duży	-0.038168933
-3.9269876	lecących	-0.038168933
-3.9269876	żórawi	-0.038168933
-3.9269876	cichych	-0.038168933
-3.9269876	nieustanna	-0.038168933
-3.4608948	serc	-0.080741
-3.9269876	dobroć	-0.038168933
-3.9269876	promienista	-0.038168933
-3.9269876	spuścizny	-0.038168933
-3.9269876	przekleństwo	-0.038168933
-3.9269876	odwraca	-0.038168933
-3.9269876	głębiej	-0.038168933
-3.9269876	przenikając	-0.038168933
-3.9269876	czysta	-0.038168933
-3.9269876	powszechny	-0.038168933
-3.9269876	skarbiec	-0.038168933
-3.9269876	wzbogaca	-0.038168933
-3.9269876	czerpie	-0.038168933
-3.9269876	korzysta	-0.038168933
-3.6155896	przemian	-0.038168933
-3.9269876	słoneczność	-0.038168933
-3.6155896	wiosny	-0.038168933
-3.9269876	tchnienie	-0.038168933
-3.4608948	morza	-0.038168933
-3.9269876	piany	-0.038168933
-3.752925	błękity	-0.038168933
-3.9269876	zlały	-0.038168933
-3.9269876	widzenie	-0.038168933
-3.9269876	cudną	-0.038168933
-3.9269876	wymarzona	-0.038168933
-3.6155896	piękność	-0.038168933
-3.9269876	boska	-0.038168933
-3.9269876	kobieca	-0.038168933
-3.752925	polot	-0.038168933
-3.9269876	dała	-0.038168933
-3.9269876	wznieca	-0.038168933
-3.9269876	miłosnych	-0.038168933
-3.9269876	dążąc	-0.038168933
-3.9269876	potrąciła	-0.038168933
-3.9269876	różnorodnych	-0.038168933
-3.256956	uczuć	-0.038168933
-3.9269876	duże	-0.038168933
-3.9269876	zataczając	-0.038168933
-3.9269876	rośnie	-0.038168933
-3.9269876	wzbiera	-0.038168933
-3.752925	kochanków	-0.038168933
-3.9269876	mirt	-0.038168933
-3.6155896	róże	-0.11163315
-3.6155896	rozkoszy	-0.038168933
-3.9269876	miłosny	-0.038168933
-3.9269876	jedne	-0.038168933
-3.9269876	prześnią	-0.038168933
-3.9269876	wdziękiem	-0.038168933
-3.9269876	blaskiem	-0.038168933
-3.9269876	wonią	-0.038168933
-3.9269876	barwą	-0.038168933
-3.347063	pieśnią	-0.1614335
-3.9269876	zawiedzionych	-0.038168933
-3.9269876	tęsknota	-0.038168933
-3.9269876	ciałem	-0.038168933
-3.9269876	dniach	-0.038168933
-3.9269876	czynie	-0.038168933
-3.752925	czynem	-0.038168933
-3.9269876	wczora	-0.038168933
-3.9269876	błyśnie	-0.038168933
-3.9269876	pora	-0.038168933
-3.9269876	zmieniać	-0.038168933
-3.9269876	nieprzerwalności	-0.038168933
-3.9269876	zbiorowego	-0.038168933
-3.9269876	współistnienia	-0.038168933
-3.9269876	wieczystego	-0.038168933
-3.9269876	świadom	-0.038168933
-3.752925	spokojem	-0.038168933
-3.752925	jasnego	-0.038168933
-3.9269876	błękitu	-0.038168933
-3.6155896	pochodu	-0.11163315
-3.9269876	przyglądać	-0.038168933
-3.9269876	śladom	-0.038168933
-3.9269876	cząstkowym	-0.038168933
-3.9269876	zgonom	-0.038168933
-3.9269876	pozornym	-0.038168933
-3.9269876	zagładom	-0.038168933
-3.9269876	burzliwej	-0.038168933
-3.9269876	ciemnemu	-0.038168933
-3.9269876	korytu	-0.038168933
-3.9269876	lecącym	-0.038168933
-3.9269876	kaskadom	-0.038168933
-3.9269876	pomrokom	-0.038168933
-3.9269876	jutrzenkom	-0.038168933
-3.9269876	świtu	-0.038168933
-3.9269876	jemu	-0.038168933
-3.9269876	wydrze	-0.038168933
-3.9269876	błogiego	-0.038168933
-3.752925	męczarni	-0.038168933
-3.9269876	małoduszna	-0.038168933
-3.752925	trwoga	-0.15362066
-3.9269876	wprawi	-0.038168933
-3.6155896	dziki	-0.11163315
-3.9269876	zamęt	-0.038168933
-3.9269876	złowroga	-0.038168933
-3.9269876	widnieje	-0.038168933
-3.9269876	pewna	-0.038168933
-3.9269876	stopniem	-0.038168933
-3.9269876	wyższego	-0.038168933
-3.752925	rozwoju	-0.038168933
-3.9269876	ileż	-0.038168933
-3.9269876	zgonów	-0.038168933
-3.9269876	narodzin	-0.038168933
-3.9269876	ile	-0.038168933
-3.9269876	krótkim	-0.038168933
-3.9269876	przechodzim	-0.038168933
-3.9269876	zakresie	-0.038168933
-3.9269876	pędów	-0.038168933
-3.9269876	pełnej	-0.038168933
-3.9269876	kwitło	-0.038168933
-3.9269876	sile	-0.038168933
-3.9269876	liście	-0.038168933
-3.9269876	obumarłe	-0.038168933
-3.9269876	lesie	-0.038168933
-3.9269876	mkną	-0.038168933
-3.752925	przeszłość	-0.038168933
-3.9269876	niepochwytne	-0.038168933
-3.9269876	chwile	-0.038168933
-3.9269876	cząstki	-0.038168933
-3.9269876	oderwane	-0.038168933
-3.9269876	naszego	-0.038168933
-3.9269876	mogile	-0.038168933
-3.752925	coś	-0.038168933
-3.9269876	przybywa	-0.038168933
-3.9269876	ucieka	-0.038168933
-3.9269876	uczucia	-0.038168933
-3.9269876	rodzą	-0.038168933
-3.9269876	dawną	-0.038168933
-3.9269876	ruiną	-0.038168933
-3.752925	całość	-0.038168933
-3.9269876	mgliste	-0.038168933
-3.6155896	obrazy	-0.038168933
-3.9269876	przelocie	-0.038168933
-3.9269876	bledną	-0.038168933
-3.9269876	xxiii	-0.038168933
-3.9269876	niezmiennych	-0.038168933
-3.9269876	poruszasz	-0.038168933
-3.9269876	kole	-0.038168933
-3.9269876	jeśli	-0.038168933
-3.9269876	rozpoznasz	-0.038168933
-3.752925	zamysły	-0.15362066
-3.752925	związek	-0.038168933
-3.9269876	dobrem	-0.038168933
-3.9269876	cel	-0.038168933
-3.752925	wieczny	-0.038168933
-3.9269876	wcielisz	-0.038168933
-3.9269876	wolę	-0.038168933
-3.9269876	swobodne	-0.038168933
-3.9269876	pole	-0.038168933
-3.9269876	opadło	-0.038168933
-3.752925	jarzmo	-0.038168933
-3.752925	prysły	-0.15362066
-3.9269876	czynnik	-0.038168933
-3.9269876	chętny	-0.038168933
-3.9269876	niezawisły	-0.038168933
-3.9269876	grasz	-0.038168933
-3.9269876	świadomą	-0.038168933
-3.9269876	działać	-0.038168933
-3.9269876	powszechnej	-0.038168933
-3.9269876	szkodzie	-0.038168933
-3.9269876	gwałcić	-0.038168933
-3.9269876	istotne	-0.038168933
-3.9269876	zadania	-0.038168933
-3.9269876	wszelka	-0.038168933
-3.9269876	twoja	-0.038168933
-3.9269876	kark	-0.038168933
-3.9269876	bodzie	-0.038168933
-3.9269876	przemocą	-0.038168933
-3.9269876	wlecze	-0.038168933
-3.9269876	zwraca	-0.038168933
-3.9269876	xxvi	-0.038168933
-3.9269876	pierwotną	-0.038168933
-3.9269876	białość	-0.038168933
-3.752925	słonecznych	-0.038168933
-3.752925	promieni	-0.15362066
-3.9269876	ziemski	-0.038168933
-3.9269876	rozszczepia	-0.038168933
-3.752925	chmurach	-0.038168933
-3.6155896	tęczy	-0.038168933
-3.9269876	różnobarwnej	-0.038168933
-3.9269876	bramie	-0.038168933
-3.752925	inaczej	-0.038168933
-3.9269876	mieni	-0.038168933
-3.9269876	błękitach	-0.038168933
-3.9269876	żywej	-0.038168933
-3.6155896	łąk	-0.11163315
-3.752925	zieleni	-0.15362066
-3.9269876	złocistych	-0.038168933
-3.9269876	łanach	-0.038168933
-3.9269876	zórz	-0.038168933
-3.9269876	plamie	-0.038168933
-3.752925	kwiatów	-0.038168933
-3.9269876	innej	-0.038168933
-3.752925	barwy	-0.038168933
-3.9269876	grze	-0.038168933
-3.9269876	malowniczych	-0.038168933
-3.752925	odbija	-0.038168933
-3.9269876	odcieni	-0.038168933
-3.9269876	podobnie	-0.038168933
-3.9269876	sferze	-0.038168933
-3.6155896	mgły	-0.038168933
-3.9269876	spływając	-0.038168933
-3.9269876	tęcze	-0.038168933
-3.9269876	rozwionie	-0.038168933
-3.9269876	ludzkim	-0.038168933
-3.9269876	duszom	-0.038168933
-3.752925	inne	-0.038168933
-3.9269876	chłonie	-0.038168933
-3.9269876	jednę	-0.038168933
-3.9269876	cząstkę	-0.038168933
-3.4608948	nami	-0.09206962
-3.9269876	między	-0.038168933
-3.752925	żadnych	-0.038168933
-3.9269876	zwierzeń	-0.038168933
-3.9269876	wyznań	-0.038168933
-3.9269876	łączyło	-0.038168933
-3.9269876	wiosennych	-0.038168933
-3.9269876	zdradnych	-0.038168933
-3.752925	woni	-0.038168933
-3.752925	barw	-0.15362066
-3.9269876	blasków	-0.038168933
-3.9269876	unoszących	-0.038168933
-3.347063	przestrzeni	-0.07334952
-3.9269876	szumiących	-0.038168933
-3.9269876	śpiewem	-0.038168933
-3.9269876	lasków	-0.038168933
-3.9269876	świeżej	-0.038168933
-3.9269876	kaskad	-0.038168933
-3.9269876	potoków	-0.038168933
-3.9269876	zraszających	-0.038168933
-3.9269876	parów	-0.038168933
-3.9269876	girlandy	-0.038168933
-3.9269876	tęcz	-0.038168933
-3.9269876	obłoków	-0.038168933
-3.752925	słodkich	-0.038168933
-3.752925	czarów	-0.038168933
-3.752925	wspólnych	-0.038168933
-3.9269876	zdrojów	-0.038168933
-3.9269876	zachwyt	-0.038168933
-3.9269876	piło	-0.038168933
-3.9269876	pierwiosnków	-0.038168933
-3.9269876	powojów,	-0.038168933
-3.9269876	odmładzasz	-0.038168933
-3.9269876	roznosząc	-0.038168933
-3.9269876	woń	-0.038168933
-3.9269876	miłosną	-0.038168933
-3.9269876	czarodziejko	-0.038168933
-3.9269876	wiosno	-0.038168933
-3.9269876	wskrzesisz	-0.038168933
-3.9269876	złud	-0.038168933
-3.9269876	pojących	-0.038168933
-3.9269876	wprzód	-0.038168933
-3.9269876	zachwytem	-0.038168933
-3.752925	rumieńce	-0.038168933
-3.9269876	róż	-0.038168933
-3.9269876	świeżych	-0.038168933
-3.752925	zdroje	-0.15362066
-3.9269876	czary	-0.038168933
-3.9269876	twej	-0.038168933
-3.9269876	lej	-0.038168933
-3.9269876	słodkie	-0.038168933
-3.9269876	miody	-0.038168933
-3.6155896	twoich	-0.038168933
-3.9269876	szat	-0.038168933
-3.9269876	cudny	-0.038168933
-3.9269876	młody	-0.038168933
-3.9269876	daj	-0.038168933
-3.9269876	szumiący	-0.038168933
-3.9269876	gaj	-0.038168933
-3.9269876	moją	-0.038168933
-3.9269876	senną	-0.038168933
-3.9269876	otocz	-0.038168933
-3.9269876	głębokim	-0.038168933
-3.752925	dusz	-0.038168933
-3.9269876	promienną	-0.038168933
-3.9269876	wzniosłe	-0.038168933
-3.9269876	pobudki	-0.038168933
-3.9269876	rozpaczne	-0.038168933
-3.9269876	niezabudki	-0.038168933
-3.9269876	ukochanych	-0.038168933
-3.6155896	jasne	-0.038168933
-3.9269876	nikną	-0.038168933
-3.752925	krótki	-0.15362066
-3.9269876	zamaże	-0.038168933
-3.9269876	najdroższe	-0.038168933
-3.9269876	rysy	-0.038168933
-3.9269876	wspomnień	-0.038168933
-3.9269876	zgłuszy	-0.038168933
-3.9269876	dziennym	-0.038168933
-3.9269876	gwarze	-0.038168933
-3.9269876	napróżno	-0.038168933
-3.9269876	zatrzymać	-0.038168933
-3.9269876	szron	-0.038168933
-3.9269876	jesienny	-0.038168933
-3.9269876	kurczy	-0.038168933
-3.9269876	ziębi	-0.038168933
-3.9269876	wdzięczne	-0.038168933
-3.9269876	błogości	-0.038168933
-3.9269876	dziecięcej	-0.038168933
-3.9269876	wskrzeszać	-0.038168933
-3.9269876	bieg	-0.038168933
-3.9269876	minionej	-0.038168933
-3.9269876	wspólnem	-0.038168933
-3.4608948	życiem	-0.038168933
-3.9269876	żyli	-0.038168933
-3.9269876	przeszło	-0.038168933
-3.9269876	powraca	-0.038168933
-3.9269876	xxiv	-0.038168933
-3.9269876	ślepą	-0.038168933
-3.752925	zaporą	-0.15362066
-3.9269876	niszczącą	-0.038168933
-3.9269876	jadowitym	-0.038168933
-3.9269876	lekiem	-0.038168933
-3.9269876	leczy	-0.038168933
-3.9269876	chorą	-0.038168933
-3.9269876	rzuconą	-0.038168933
-3.9269876	strumieni	-0.038168933
-3.9269876	ściekiem	-0.038168933
-3.9269876	ażeby	-0.038168933
-3.9269876	rozlały	-0.038168933
-3.4608948	jezioro	-0.09206962
-3.9269876	jutrem	-0.038168933
-3.9269876	niedalekiem	-0.038168933
-3.9269876	wezbrane	-0.038168933
-3.347063	wody	-0.038168933
-3.9269876	skruszą	-0.038168933
-3.9269876	zabiorą	-0.038168933
-3.9269876	wolnym	-0.038168933
-3.9269876	człowiekiem	-0.038168933
-3.9269876	wywłaszczą	-0.038168933
-3.9269876	zwalczysz	-0.038168933
-3.9269876	żadną	-0.038168933
-3.9269876	ziemską	-0.038168933
-3.9269876	władzą	-0.038168933
-3.9269876	żądłem	-0.038168933
-3.9269876	żmii	-0.038168933
-3.9269876	tygrysa	-0.038168933
-3.9269876	paszczą	-0.038168933
-3.9269876	zgubnym	-0.038168933
-3.752925	twym	-0.038168933
-3.9269876	dążnościom	-0.038168933
-3.9269876	dadzą	-0.038168933
-3.9269876	chwilą	-0.038168933
-3.9269876	tajne	-0.038168933
-3.752925	cele	-0.038168933
-3.9269876	przeprowadzą	-0.038168933
-3.752925	tobą	-0.038168933
-3.9269876	zaprzepaszczą	-0.038168933
-3.9269876	dobre	-0.038168933
-3.9269876	zdobyczą	-0.038168933
-3.9269876	ewangelią	-0.038168933
-3.752925	głoszą	-0.038168933
-3.9269876	zbrodniami	-0.038168933
-3.9269876	pustoszą	-0.038168933
-3.9269876	dzielą	-0.038168933
-3.9269876	plonem	-0.038168933
-3.9269876	spadek	-0.038168933
-3.9269876	dziedziczą	-0.038168933
-3.6155896	wszyscy	-0.038168933
-3.9269876	następstw	-0.038168933
-3.9269876	ciężary	-0.038168933
-3.9269876	ponoszą	-0.038168933
-3.9269876	dorobku	-0.038168933
-3.9269876	ciężkim	-0.038168933
-3.9269876	uczestniczą	-0.038168933
-3.9269876	napawa	-0.038168933
-3.9269876	bólem	-0.038168933
-3.6155896	rozkoszą	-0.26867253
-3.752925	ludzkiego	-0.038168933
-3.9269876	rodu	-0.038168933
-3.9269876	duszę	-0.038168933
-3.752925	tajemniczą	-0.15362066
-3.9269876	wzajemności	-0.038168933
-3.9269876	twardy	-0.038168933
-3.9269876	obowiązek	-0.038168933
-3.9269876	zależność	-0.038168933
-3.9269876	losów	-0.038168933
-3.9269876	wspólnictwo	-0.038168933
-3.9269876	pnia	-0.038168933
-3.9269876	odwiecznego	-0.038168933
-3.9269876	wyrosłych	-0.038168933
-3.9269876	gałązek	-0.038168933
-3.9269876	utrwala	-0.038168933
-3.4608948	wielki	-0.038168933
-3.9269876	religijny	-0.038168933
-3.9269876	łączący	-0.038168933
-3.9269876	członków	-0.038168933
-3.9269876	rozpierzchłej	-0.038168933
-3.9269876	rodziny	-0.038168933
-3.9269876	duchu	-0.038168933
-3.9269876	ożywia	-0.038168933
-3.9269876	pompejański	-0.038168933
-3.9269876	zielone	-0.038168933
-3.9269876	wonne	-0.038168933
-3.6155896	gaje	-0.038168933
-3.9269876	rozsiadły	-0.038168933
-3.9269876	uroczych	-0.038168933
-3.9269876	pagórkach	-0.038168933
-3.9269876	zbiegając	-0.038168933
-3.9269876	doliny	-0.038168933
-3.9269876	gdzieniegdzie	-0.038168933
-3.9269876	dąb	-0.038168933
-3.9269876	kasztan	-0.038168933
-3.752925	podnosi	-0.038168933
-3.6155896	czoło	-0.11163315
-3.9269876	drobniejsze	-0.038168933
-3.752925	mirty	-0.038168933
-3.752925	laury	-0.038168933
-3.9269876	łagodnie	-0.038168933
-3.752925	pluszczą	-0.038168933
-3.9269876	źródła	-0.038168933
-3.9269876	melodyjnym	-0.038168933
-3.9269876	szmerem	-0.038168933
-3.256956	skał	-0.038168933
-3.9269876	ściekają	-0.038168933
-3.9269876	srebrzystym	-0.038168933
-3.752925	wężem	-0.038168933
-3.9269876	migną	-0.038168933
-3.9269876	łomu	-0.038168933
-3.9269876	kamieni	-0.038168933
-3.9269876	sklepieniem	-0.038168933
-3.9269876	dębów	-0.038168933
-3.752925	płyną	-0.038168933
-3.9269876	powietrzu	-0.038168933
-3.9269876	pełno	-0.038168933
-3.9269876	ciepła	-0.038168933
-3.752925	błękit	-0.038168933
-3.9269876	przesiąknięty	-0.038168933
-3.752925	światłem	-0.038168933
-3.9269876	gorącem	-0.038168933
-3.9269876	zda	-0.038168933
-3.9269876	lśnić	-0.038168933
-3.9269876	niby	-0.038168933
-3.9269876	pyłkiem	-0.038168933
-3.9269876	złocistego	-0.038168933
-3.9269876	piasku	-0.038168933
-3.752925	tęczowych	-0.038168933
-3.9269876	iskierek	-0.038168933
-3.9269876	połyskać	-0.038168933
-3.9269876	ciepłem	-0.038168933
-3.9269876	oświetleniu	-0.038168933
-3.6155896	żywa	-0.11163315
-3.9269876	drzew	-0.038168933
-3.9269876	zieloność	-0.038168933
-3.9269876	przyjmując	-0.038168933
-3.9269876	połysk	-0.038168933
-3.752925	złoty	-0.038168933
-3.9269876	szmaragdy	-0.038168933
-3.9269876	harmonijnie	-0.038168933
-3.9269876	błękitną	-0.038168933
-3.752925	nieskończoność	-0.038168933
-3.9269876	błonia	-0.038168933
-3.9269876	wzgórza	-0.038168933
-3.9269876	przejrzyste	-0.038168933
-3.752925	pełne	-0.038168933
-3.9269876	uśmiechu	-0.038168933
-3.9269876	dreszczu	-0.038168933
-3.9269876	wdzięczą	-0.038168933
-3.9269876	złotym	-0.038168933
-3.9269876	bóstwa	-0.038168933
-3.9269876	deszczu	-0.038168933
-3.9269876	weselem	-0.038168933
-3.9269876	tchnie	-0.038168933
-3.9269876	czarem	-0.038168933
-3.9269876	młodego	-0.038168933
-3.9269876	wiośnianych	-0.038168933
-3.9269876	rojeń	-0.038168933
-3.9269876	miłosne	-0.038168933
-3.752925	podnoszą	-0.038168933
-3.9269876	żądzą	-0.038168933
-3.9269876	wzruszeń	-0.038168933
-3.9269876	upojeń	-0.038168933
-3.9269876	różowo	-0.038168933
-3.9269876	płoną	-0.038168933
-3.9269876	pruszą	-0.038168933
-3.9269876	śniegiem	-0.038168933
-3.9269876	delikatnego	-0.038168933
-3.9269876	kwiecia	-0.038168933
-3.9269876	wietrzyk	-0.038168933
-3.9269876	wstydliwie	-0.038168933
-3.9269876	szeleszczą	-0.038168933
-3.9269876	brzegiem	-0.038168933
-3.9269876	białą	-0.038168933
-3.9269876	najada	-0.038168933
-3.9269876	płynąca	-0.038168933
-3.9269876	głazie	-0.038168933
-3.9269876	zarośniętym	-0.038168933
-3.9269876	jedwabistą	-0.038168933
-3.752925	pleśnią	-0.15362066
-3.9269876	cieniu	-0.038168933
-3.9269876	starych	-0.038168933
-3.9269876	kasztanów	-0.038168933
-3.9269876	siedzi	-0.038168933
-3.6155896	pan	-0.038168933
-3.9269876	rogaty	-0.038168933
-3.9269876	ucieszne	-0.038168933
-3.9269876	bóstwo	-0.038168933
-3.9269876	lasów	-0.038168933
-3.9269876	weselną	-0.038168933
-3.752925	wypełnia	-0.038168933
-3.9269876	rozbawione	-0.038168933
-3.9269876	szalejące	-0.038168933
-3.752925	światy	-0.15362066
-3.9269876	kosmate	-0.038168933
-3.9269876	koźle	-0.038168933
-3.752925	nogi	-0.038168933
-3.9269876	podwinął	-0.038168933
-3.9269876	uwieńczon	-0.038168933
-3.9269876	różami	-0.038168933
-3.9269876	flet	-0.038168933
-3.9269876	zawzięcie	-0.038168933
-3.9269876	dmucha	-0.038168933
-3.9269876	śpiew	-0.038168933
-3.9269876	wodzie	-0.038168933
-3.9269876	kwili	-0.038168933
-3.9269876	wzdycha	-0.038168933
-3.6155896	pieści	-0.11163315
-3.9269876	miłośnie	-0.038168933
-3.9269876	grucha	-0.038168933
-3.9269876	upojony	-0.038168933
-3.752925	własnych	-0.038168933
-3.9269876	brzmień	-0.038168933
-3.752925	słodyczą	-0.038168933
-3.9269876	przekrzywia	-0.038168933
-3.9269876	podziwem	-0.038168933
-3.9269876	muska	-0.038168933
-3.9269876	brodę	-0.038168933
-3.9269876	patrząc	-0.038168933
-3.9269876	artysta	-0.038168933
-3.9269876	miną	-0.038168933
-3.9269876	pląsające	-0.038168933
-3.9269876	nimfy	-0.038168933
-3.9269876	nadobne	-0.038168933
-3.9269876	młode	-0.038168933
-3.9269876	przywabione	-0.038168933
-3.9269876	wybiegły	-0.038168933
-3.9269876	ukrycia	-0.038168933
-3.9269876	tańczą	-0.038168933
-3.9269876	lotną	-0.038168933
-3.9269876	stopą	-0.038168933
-3.9269876	miękkiej	-0.038168933
-3.9269876	murawie	-0.038168933
-3.9269876	tańca	-0.038168933
-3.752925	pustoty	-0.038168933
-3.9269876	ogarnia	-0.038168933
-3.9269876	tanecznice	-0.038168933
-3.9269876	rozkosznej	-0.038168933
-3.9269876	postawie	-0.038168933
-3.9269876	wzburzoną	-0.038168933
-3.9269876	piersią	-0.038168933
-3.752925	świetlany	-0.038168933
-3.9269876	wzlatują	-0.038168933
-3.9269876	rozpuściwszy	-0.038168933
-3.9269876	włosów	-0.038168933
-3.9269876	sploty	-0.038168933
-3.9269876	drażnią	-0.038168933
-3.9269876	mirtach	-0.038168933
-3.9269876	fauny	-0.038168933
-3.9269876	sylwany	-0.038168933
-3.9269876	omdlewają	-0.038168933
-3.9269876	zbytku	-0.038168933
-3.9269876	namiętnej	-0.038168933
-3.9269876	falach	-0.038168933
-3.9269876	toczy	-0.038168933
-3.9269876	słońc	-0.038168933
-3.9269876	miliony	-0.038168933
-3.6155896	ocean	-0.038168933
-3.9269876	dna	-0.038168933
-3.9269876	goniec	-0.038168933
-3.9269876	uskrzydlony	-0.038168933
-3.9269876	promień	-0.038168933
-3.9269876	zmierzy	-0.038168933
-3.9269876	błysk	-0.038168933
-3.9269876	rzucony	-0.038168933
-3.9269876	krańców	-0.038168933
-3.9269876	nigdzie	-0.038168933
-3.9269876	dobieży	-0.038168933
-3.9269876	tajemniczej	-0.038168933
-3.9269876	przedrze	-0.038168933
-3.9269876	zasłony	-0.038168933
-3.9269876	wyciągnięty	-0.038168933
-3.9269876	biegnąc	-0.038168933
-3.9269876	mroczne	-0.038168933
-3.9269876	bezbrzeżnego	-0.038168933
-3.9269876	ogromu	-0.038168933
-3.9269876	niemocą	-0.038168933
-3.9269876	przedwcześnie	-0.038168933
-3.9269876	ucięty	-0.038168933
-3.9269876	drugiej	-0.038168933
-3.9269876	pokryjomu	-0.038168933
-3.9269876	nieskończonej	-0.038168933
-3.9269876	małości	-0.038168933
-3.9269876	atomu	-0.038168933
-3.9269876	rącze	-0.038168933
-3.9269876	loty	-0.038168933
-3.9269876	szczęśliwe	-0.038168933
-3.9269876	wyspy	-0.038168933
-3.9269876	odnowić	-0.038168933
-3.752925	ludziom	-0.038168933
-3.9269876	wiek	-0.038168933
-3.9269876	krainie	-0.038168933
-3.9269876	dzisiaj	-0.038168933
-3.9269876	schodzi	-0.038168933
-3.9269876	trudem	-0.038168933
-3.752925	kamienne	-0.038168933
-3.9269876	żłobi	-0.038168933
-3.9269876	koryto	-0.038168933
-3.9269876	wydrzeć	-0.038168933
-3.9269876	zdobycz	-0.038168933
-3.752925	ukrytą	-0.038168933
-3.9269876	przygasło	-0.038168933
-3.9269876	dumnych	-0.038168933
-3.9269876	zarzewie	-0.038168933
-3.9269876	życiu	-0.038168933
-3.9269876	śpiewie	-0.038168933
-3.9269876	zwolna	-0.038168933
-3.752925	przebrzmiały	-0.038168933
-3.9269876	trwożnie	-0.038168933
-3.6155896	patrzy	-0.11163315
-3.9269876	nowej	-0.038168933
-3.6155896	gwiazdy	-0.038168933
-3.9269876	przewodniej	-0.038168933
-3.9269876	codziennym	-0.038168933
-3.9269876	rozmyśla	-0.038168933
-3.9269876	chlebie	-0.038168933
-3.9269876	głodni	-0.038168933
-3.9269876	stubarwnej	-0.038168933
-3.9269876	blednie	-0.038168933
-3.752925	tracą	-0.15362066
-3.752925	ludzie	-0.038168933
-3.752925	muszą	-0.038168933
-3.9269876	zdobywać	-0.038168933
-3.9269876	poezyi	-0.038168933
-3.9269876	czynach	-0.038168933
-3.9269876	bohaterów	-0.038168933
-3.9269876	musi	-0.038168933
-3.9269876	myśleć	-0.038168933
-3.9269876	synach	-0.038168933
-3.9269876	ginących	-0.038168933
-3.9269876	głodu	-0.038168933
-3.9269876	zupełny	-0.038168933
-3.9269876	sta	-0.038168933
-3.9269876	tysięcy	-0.038168933
-3.9269876	mięsem	-0.038168933
-3.9269876	kreślą	-0.038168933
-3.9269876	krajobrazy	-0.038168933
-3.9269876	podobne	-0.038168933
-3.9269876	ognistych	-0.038168933
-3.9269876	słupów	-0.038168933
-3.9269876	albo	-0.038168933
-3.752925	lecą	-0.038168933
-3.9269876	powietrze	-0.038168933
