\data\
ngram 1=4063
ngram 2=9629
ngram 3=9313
ngram 4=6769
ngram 5=4249
ngram 6=2108

\1-grams:
-4.0186853	<unk>	0
0	<s>	-0.8455117
-0.74925286	</s>	0
-2.3000515	persname	-0.09226754
-3.0172706	róża	-0.3526331
-3.1874514	rok	-0.15204261
-3.9054253	nieistnienie	-0.04361667
-3.7445905	nadchodzić	-0.04361667
-3.9054253	straszny	-0.04361667
-3.9054253	bezkwieć	-0.04361667
-3.1874514	dziewczę	-0.07683911
-3.9054253	wyginąć	-0.04361667
-3.1230278	motyl	-0.14054142
-3.1230278	pierwszy	-0.04361667
-3.9054253	blednę	-0.04361667
-3.7445905	samochcąc	-0.04361667
-3.1874514	umrzeć	-0.15633842
-3.1874514	musieć	-0.09445472
-3.0172706	chwila	-0.21662687
-3.3548248	umierać	-0.35726354
-3.7445905	spojrzyć	-0.04361667
-2.3681195	mieć	-0.14626758
-2.448875	świat	-0.15734778
-3.6307049	uczyć	-0.04361667
-3.7445905	pożądać	-0.04361667
-2.5325074	śmierć	-0.068333685
-3.9054253	ponętny	-0.04361667
-3.2631245	pieścić	-0.21433039
-3.2631245	całować	-0.09445472
-3.9054253	mrzonka	-0.04361667
-3.1230278	kształt	-0.04361667
-2.7726316	usta	-0.11101955
-3.7445905	czerwony	-0.04361667
-3.9054253	przybierać	-0.04361667
-3.1874514	wierzyć	-0.08379985
-3.4712174	radość	-0.04361667
-2.475003	cień	-0.3698686
-2.4617426	oko	-0.14666718
-3.9054253	obcowanie	-0.04361667
-3.066938	widzieć	-0.04361667
-3.9054253	obcować	-0.04361667
-2.9322898	kochać	-0.09828775
-3.6307049	umarłą	-0.043616697
-2.3897018	dłoń	-0.20485407
-2.0185978	być	-0.17141472
-3.9054253	zamknięty	-0.04361667
-3.9054253	powiekę	-0.04361667
-3.9054253	osobny	-0.04361667
-3.9054253	porozumiewać	-0.04361667
-3.6307049	piersią	-0.04361667
-2.8612475	pełny	-0.04361667
-2.598805	pieszczota	-0.142218
-3.2631245	mogiła	-0.5085428
-2.6361809	wiedzieć	-0.16084212
-3.2631245	czuć	-0.06680127
-3.9054253	zagrobna	-0.04361667
-3.6307049	pocałunek	-0.043616697
-3.9054253	bolą	-0.04361667
-2.6361809	mrok	-0.082990825
-3.9054253	nieistnieć	-0.04361667
-3.1874514	nadmiar	-0.15633842
-3.9054253	wyznaj	-0.04361667
-3.6307049	koniec	-0.043616697
-3.9054253	uczyń	-0.04361667
-3.0172706	tęsknota	-0.40018547
-3.9054253	zadość	-0.04361667
-3.9054253	zadrżyj	-0.04361667
-2.7222328	miłość	-0.08441435
-3.2631245	pośmiertny	-0.043616697
-3.9054253	jeślić	-0.04361667
-3.9054253	dostępny	-0.04361667
-2.7726316	czar	-0.15099788
-3.9054253	wątpić	-0.04361667
-3.9054253	zmarłej	-0.04361667
-3.1230278	cud	-0.21433039
-3.9054253	nawykać	-0.04361667
-3.3548248	posłuszny	-0.04361667
-2.8953176	szczęście	-0.093250856
-3.7445905	opierać	-0.04361667
-3.4712174	zanikać	-0.49961606
-3.9054253	pocałunka	-0.04361667
-3.4712174	napój	-0.15204261
-3.6307049	cienisty	-0.04361667
-3.2631245	modlitwa	-0.10222858
-3.7445905	młody	-0.043616697
-3.6307049	szeptać	-0.043616697
-3.9054253	skrycie	-0.04361667
-3.9054253	wydarzenie	-0.04361667
-3.9054253	tragiczny	-0.04361667
-3.4712174	przeżyć	-0.04361667
-2.9322898	łza	-0.11688703
-3.9054253	rosiście	-0.04361667
-3.9054253	przechowy	-0.04361667
-3.9054253	pokarm	-0.04361667
-3.6307049	mgieł	-0.043616697
-3.4712174	nocny	-0.04361667
-3.3548248	treść	-0.04361667
-2.8953176	słowo	-0.09824249
-3.4712174	nastać	-0.04361667
-2.8953176	dzień	-0.04361667
-3.2631245	zgroza	-0.043616697
-3.9054253	porazić	-0.04361667
-2.617091	dusza	-0.11590796
-2.972705	stać	-0.076413825
-3.066938	drzwi	-0.088503115
-3.1874514	zły	-0.14053574
-3.9054253	niweczyć	-0.04361667
-3.7445905	szumy	-0.04361667
-3.0172706	ogród	-0.04361667
-3.6307049	wszechrzeczy	-0.3746773
-3.7445905	zasłuchać	-0.04361667
-3.9054253	lada	-0.04361667
-3.3548248	szmer	-0.04361667
-3.9054253	dwór	-0.04361667
-3.9054253	zapukać	-0.04361667
-3.2631245	przyjść	-0.04361667
-2.8612475	móc	-0.19852987
-3.2631245	trwoga	-0.11281513
-3.4712174	wspominać	-0.15204261
-2.2491527	sen	-0.12056991
-3.9054253	tłumić	-0.04361667
-3.9054253	bezsterny	-0.04361667
-3.9054253	nieoględny	-0.04361667
-3.9054253	łatwowierny	-0.04361667
-3.9054253	panna	-0.04361667
-2.972705	jeden	-0.05863502
-3.1874514	chłopiec	-0.04361667
-3.7445905	drewno	-0.29688033
-3.7445905	znany	-0.04361667
-3.9054253	piosenka	-0.04361667
-3.0172706	wieczór	-0.115709685
-3.4712174	gaśnąć	-0.15204261
-3.9054253	ustawać	-0.04361667
-3.6307049	dzienny	-0.043616697
-3.1230278	znój	-0.41525552
-3.9054253	najwabniejszy	-0.04361667
-3.9054253	wdziewać	-0.04361667
-3.9054253	strój	-0.04361667
-3.7445905	palec	-0.04361667
-3.9054253	nurz	-0.04361667
-3.9054253	smukły	-0.04361667
-2.8953176	placename	-0.15901522
-3.7445905	skrzynia	-0.04361667
-3.7445905	wyciągać	-0.043616697
-3.9054253	kukła	-0.04361667
-3.9054253	utkwiony	-0.04361667
-3.6307049	wzrok	-0.1951684
-3.9054253	kochan	-0.04361667
-3.9054253	bezmyślny	-0.04361667
-3.6307049	martwy	-0.04361667
-3.3548248	moc	-0.11281513
-3.3548248	zaklęcie	-0.12808365
-3.9054253	śpiewien	-0.04361667
-3.0172706	istnieć	-0.17272043
-3.1874514	ruch	-0.10222858
-3.4712174	rozumieć	-0.49961606
-3.9054253	działać	-0.04361667
-3.2631245	umieć	-0.21433039
-3.1874514	wieczność	-0.04361667
-3.7445905	trwonić	-0.04361667
-3.6307049	żar	-0.043616697
-3.6307049	stronić	-0.3746773
-2.598805	noc	-0.14393668
-3.9054253	wielbić	-0.04361667
-3.9054253	sztywny	-0.04361667
-3.1874514	kark	-0.10222858
-3.9054253	nieugiętość	-0.04361667
-3.9054253	natarczywość	-0.04361667
-2.8953176	warga	-0.0912937
-3.7445905	zapomnieć	-0.04361667
-2.42423	niebo	-0.14585845
-3.6307049	samotny	-0.043616697
-3.7445905	gina	-0.04361667
-3.9054253	kogóż	-0.04361667
-3.7445905	pieść	-0.04361667
-2.6990693	cały	-0.104558945
-3.066938	sno	-0.04361667
-3.9054253	omdlewać	-0.04361667
-3.7445905	śmieszny	-0.04361667
-3.9054253	niezgrabny	-0.04361667
-3.9054253	drewniany	-0.04361667
-3.9054253	tężąc	-0.04361667
-3.7445905	szarpać	-0.04361667
-3.1230278	włos	-0.04361667
-3.9054253	jedwabny	-0.04361667
-2.488681	pierś	-0.05957158
-3.6307049	krwawić	-0.043616697
-3.2631245	skroń	-0.15633842
-3.066938	blady	-0.16074131
-3.9054253	poraniyć	-0.04361667
-3.1874514	ból	-0.04361667
-3.066938	rozkosz	-0.08379985
-3.9054253	kon	-0.04361667
-2.800209	mgła	-0.06228864
-2.9322898	krew	-0.08182646
-2.7222328	cisza	-0.1648007
-3.0172706	iść	-0.05863502
-3.6307049	cudny	-0.043616697
-2.617091	złoty	-0.21016774
-3.6307049	strach	-0.3746773
-3.3548248	kołysać	-0.21113552
-3.1874514	rosa	-0.15633842
-3.7445905	słychać	-0.04361667
-3.9054253	dany	-0.04361667
-3.3548248	znak	-0.11281513
-2.7726316	chcieć	-0.14116439
-3.9054253	oddychać	-0.04361667
-3.1874514	świt	-0.12864022
-3.6307049	czynić	-0.043616697
-3.6307049	dwojg	-0.043616697
-2.8296568	ręka	-0.19084005
-3.9054253	zatajać	-0.04361667
-3.9054253	sprawca	-0.04361667
-3.7445905	mąka	-0.04361667
-3.9054253	sztuczny	-0.04361667
-3.9054253	wpinać	-0.04361667
-3.1874514	czarny	-0.04361664
-3.7445905	ciężki	-0.04361667
-3.3548248	wonny	-0.12808365
-3.9054253	szal	-0.04361667
-3.9054253	klawiatura	-0.04361667
-3.9054253	błądzić	-0.04361667
-3.1230278	patrzeć	-0.04361667
-3.1230278	dal	-0.19169395
-3.4712174	dźwięk	-0.04361667
-2.9322898	płynąć	-0.29543987
-3.7445905	spędzić	-0.1951684
-3.9054253	zapomniany	-0.04361667
-2.972705	śnić	-0.072344854
-3.9054253	oek	-0.04361667
-3.1230278	snem	-0.04361667
-3.2631245	obłok	-0.15633842
-3.4712174	pamiętać	-0.043616697
-3.6307049	wiosenny	-0.043616697
-3.2631245	bezkres	-0.24528348
-2.4617426	las	-0.2170112
-2.8296568	nagły	-0.04361667
-2.7726316	droga	-0.22895613
-3.3548248	jar	-0.21113552
-3.9054253	jarze	-0.04361667
-3.1230278	człowiek	-0.12864022
-3.9054253	krtań	-0.04361667
-3.1230278	nóż	-0.20901997
-3.7445905	przecinać	-0.04361667
-2.517402	sam	-0.11522306
-3.1874514	mówić	-0.1044642
-3.7445905	przyczyna	-0.29688033
-3.9054253	mrzeć	-0.04361667
-3.9054253	głupi	-0.04361667
-2.598805	słońce	-0.08244387
-2.7222328	twarz	-0.18718356
-3.7445905	świecić	-0.04361667
-2.282414	ciało	-0.29543123
-3.9054253	wymknąć	-0.04361667
-3.4712174	lecieć	-0.12808365
-3.9054253	trwodze	-0.04361667
-3.9054253	idź	-0.04361667
-3.3548248	senny	-0.04361667
-3.9054253	strawa	-0.04361667
-3.9054253	zgłodniać	-0.04361667
-3.9054253	tułacz	-0.04361667
-3.4712174	przydać	-0.12808365
-3.6307049	znaczyć	-0.04361667
-3.6307049	ok	-0.043616697
-3.1230278	płacz	-0.04361667
-3.4712174	wszechświat	-0.15204261
-3.6307049	widać	-0.12808365
-3.9054253	przyjdźcie	-0.04361667
-3.9054253	bezładzie	-0.04361667
-2.7726316	duch	-0.101023294
-3.9054253	zagubić	-0.04361667
-3.6307049	gromada	-0.1951684
-3.9054253	rozróżnić	-0.04361667
-3.9054253	zjawiony	-0.04361667
-3.4712174	widny	-0.04361667
-3.9054253	przestrzeć	-0.04361667
-3.1874514	ulica	-0.21433039
-3.7445905	skończyć	-0.04361667
-3.4712174	zdarzyć	-0.15204261
-3.1230278	dawny	-0.043616697
-3.066938	tajemnica	-0.44157815
-3.4712174	trzeba	-0.04361664
-3.6307049	zejść	-0.043616697
-3.9054253	odwlekać	-0.04361667
-3.9054253	pomówić	-0.04361667
-3.9054253	przedsięwziąć	-0.04361667
-3.1874514	krok	-0.15633842
-3.2631245	czekać	-0.16074131
-3.9054253	oślep	-0.04361667
-3.3548248	smutek	-0.12808365
-3.7445905	głęboki	-0.29688033
-3.6307049	niedziela	-0.3746773
-3.7445905	miasto	-0.043616697
-3.9054253	odludziu	-0.04361667
-3.3548248	rozpacz	-0.21113552
-3.2631245	pusty	-0.1783367
-2.6361809	ziemia	-0.0645535
-3.7445905	udzielać	-0.04361667
-3.9054253	nędzarzy	-0.04361667
-3.1874514	szukać	-0.04361667
-3.2631245	rów	-0.11281513
-3.9054253	przytułek	-0.04361667
-3.4712174	dach	-0.04361667
-3.9054253	zużyty	-0.04361667
-3.9054253	śmiałkuć	-0.04361667
-3.9054253	czarem	-0.04361667
-3.9054253	ogarniać	-0.04361667
-3.7445905	skrzętny	-0.04361667
-3.9054253	przymilny	-0.04361667
-3.9054253	suchar	-0.04361667
-3.9054253	zmierzchach	-0.04361667
-3.9054253	źrenici	-0.04361667
-3.7445905	dnieć	-0.04361667
-3.9054253	oddawać	-0.04361667
-3.9054253	cnota	-0.04361667
-3.9054253	beznadzieja	-0.04361667
-3.9054253	niedołężni	-0.04361667
-3.2631245	żądza	-0.043616697
-3.2631245	pośpiech	-0.441596
-3.9054253	uzręczniać	-0.04361667
-3.9054253	żwawy	-0.04361667
-3.066938	grzech	-0.19169395
-3.6307049	wargy	-0.043616697
-3.7445905	wpełzeć	-0.04361667
-3.4712174	krzak	-0.49961606
-2.9322898	raz	-0.18279837
-3.9054253	czułe	-0.04361667
-3.9054253	słówko	-0.04361667
-3.3548248	szepnąć	-0.23304477
-3.9054253	wylgnąć	-0.04361667
-3.7445905	ubocz	-0.04361667
-3.9054253	przycałować	-0.04361667
-3.4712174	twardy	-0.15204261
-3.1874514	łożo	-0.09445472
-3.9054253	głodny	-0.04361667
-3.9054253	żarać	-0.04361667
-3.7445905	brzuch	-0.29688033
-3.7445905	ciułać	-0.04361667
-3.9054253	steranych	-0.04361667
-3.9054253	poniszczć	-0.04361667
-3.9054253	pucha	-0.04361667
-3.9054253	upojenie	-0.04361667
-3.2631245	tkwić	-0.043616697
-3.9054253	zadra	-0.04361667
-3.4712174	sęek	-0.26550472
-3.7445905	docałować	-0.04361667
-3.9054253	nacichły	-0.04361667
-3.1874514	męka	-0.15633842
-3.9054253	dreszczom	-0.04361667
-2.9322898	dać	-0.12063893
-3.7445905	dostęp	-0.04361667
-3.9054253	zbolały	-0.04361667
-3.2631245	kość	-0.29031676
-3.9054253	wrogo	-0.04361667
-3.9054253	łaska	-0.04361667
-3.3548248	reszta	-0.04361667
-3.9054253	wygrodzić	-0.04361667
-3.9054253	milczkiem	-0.04361667
-3.9054253	spożyć	-0.04361667
-3.9054253	wesel	-0.04361667
-3.9054253	dziejba	-0.04361667
-3.3548248	leśny	-0.10222858
-3.3548248	wnętrze	-0.12808365
-3.066938	grobowiec	-0.07683911
-3.6307049	pogański	-0.043616697
-3.6307049	otwór	-0.043616697
-3.7445905	prawy	-0.04361667
-3.3548248	strona	-0.12808365
-3.7445905	wchodzić	-0.043616697
-3.7445905	święty	-0.04361667
-3.9054253	wiązka	-0.04361667
-3.6307049	chrust	-0.1951684
-3.7445905	plecy	-0.04361667
-3.6307049	posuwać	-0.1951684
-3.0172706	głąb	-0.22963262
-3.3548248	układać	-0.04361667
-3.9054253	rozniecać	-0.04361667
-3.7445905	ognisko	-0.04361667
-3.7445905	zraz	-0.04361667
-3.4712174	drobny	-0.15204261
-3.9054253	duży	-0.04361667
-3.7445905	płomień	-0.04361667
-3.9054253	rozwidć	-0.04361667
-3.9054253	grota	-0.04361667
-2.8612475	światło	-0.08655101
-3.6307049	ściana	-0.15204261
-3.9054253	towarzyszyć	-0.04361667
-3.9054253	bezładny	-0.04361667
-3.9054253	popłoch	-0.04361667
-3.9054253	niepohamowany	-0.04361667
-3.2631245	blask	-0.04361667
-3.4712174	padać	-0.04361667
-3.9054253	leżący	-0.04361667
-3.1230278	zwłoki	-0.09445472
-3.9054253	rozpostarte	-0.04361667
-3.9054253	odziany	-0.04361667
-3.3548248	szata	-0.21113552
-3.7445905	ubogi	-0.04361667
-3.7445905	krępy	-0.04361667
-3.7445905	broda	-0.04361667
-3.9054253	porywczy	-0.04361667
-3.9054253	niespokojny	-0.04361667
-3.7445905	płaszcz	-0.04361667
-3.6307049	robić	-0.04361667
-3.7445905	wezgłowie	-0.04361667
-3.6307049	spocząć	-0.043616697
-3.7445905	makary	-0.29688033
-3.7445905	nocleg	-0.04361667
-3.7445905	pobliże	-0.04361667
-3.7445905	kojarzyć	-0.04361667
-3.9054253	bezwyrazach	-0.04361667
-3.9054253	pełgać	-0.04361667
-3.6307049	bać	-0.04361667
-3.4712174	wieczny	-0.12808365
-3.7445905	złociście	-0.04361667
-3.9054253	wełgać	-0.04361667
-3.9054253	rozglądać	-0.04361667
-3.9054253	grobowec	-0.04361667
-3.9054253	prześpać	-0.04361667
-3.9054253	przemina	-0.04361667
-3.9054253	pomyślieć	-0.04361667
-3.9054253	nabyć	-0.04361667
-3.7445905	odrobina	-0.29688033
-3.1874514	zmarły	-0.14054142
-3.7445905	przyglądać	-0.04361667
-3.9054253	zwłokom	-0.04361667
-3.6307049	leżeć	-0.10222858
-3.9054253	grymaść	-0.04361667
-3.7445905	bok	-0.04361667
-3.6307049	dziać	-0.04361667
-3.9054253	bezruch	-0.04361667
-3.9054253	milczyć	-0.04361667
-3.9054253	wsłuchani	-0.04361667
-3.3548248	podziemny	-0.12808365
-2.8953176	burza	-0.18444218
-3.7445905	łoskot	-0.29688033
-3.7445905	wejść	-0.043616697
-3.3548248	bezmiar	-0.043616697
-3.9054253	prostot	-0.04361667
-3.9054253	spełniać	-0.04361667
-3.9054253	chęć	-0.04361667
-3.0172706	szum	-0.13570759
-3.2631245	stawać	-0.043616697
-3.9054253	zatrzymywać	-0.04361667
-2.8953176	trup	-0.12629382
-3.9054253	kształta	-0.04361667
-3.9054253	świadczyć	-0.04361667
-3.9054253	dobrobyt	-0.04361667
-3.9054253	tłusty	-0.04361667
-3.9054253	ordynarny	-0.04361667
-3.9054253	otylec	-0.04361667
-3.066938	zaświat	-0.088503115
-3.9054253	sprzeczny	-0.04361667
-3.9054253	persne	-0.04361667
-3.9054253	rubaszny	-0.04361667
-3.7445905	pchać	-0.04361667
-3.6307049	żywot	-0.1951684
-3.6307049	następny	-0.1951684
-3.9054253	niesprawdzalny	-0.04361667
-3.9054253	obojętność	-0.04361667
-3.9054253	spostrzegać	-0.04361667
-2.8612475	piłka	-0.37462112
-3.9054253	poganin	-0.04361667
-3.9054253	bezbożny	-0.04361667
-3.9054253	chuci	-0.04361667
-3.3548248	rzucić	-0.11281513
-3.7445905	odrzucić	-0.29688033
-2.5812578	dziewczyna	-0.21253322
-3.7445905	świeży	-0.04361667
-3.9054253	skóra	-0.04361667
-3.9054253	gładki	-0.04361667
-3.9054253	wioseno	-0.04361667
-3.9054253	młodziuchny	-0.04361667
-3.9054253	próchniatka	-0.04361667
-3.9054253	dołyszka	-0.04361667
-3.7445905	odwrócić	-0.04361667
-3.7445905	próbować	-0.043616697
-3.9054253	deszcz	-0.04361667
-3.6307049	można	-0.11281513
-3.7445905	pomieścić	-0.04361667
-3.9054253	jaskółce	-0.04361667
-3.9054253	zamyśla	-0.04361667
-3.9054253	upchany	-0.04361667
-3.1230278	nicość	-0.04361664
-3.9054253	pościółce	-0.04361667
-2.8296568	głowa	-0.20547508
-3.9054253	utrwalęyć	-0.04361667
-3.9054253	dowód	-0.04361667
-3.6307049	pogarda	-0.3746773
-3.9054253	zgręz	-0.04361667
-3.6307049	piersiach	-0.043616697
-3.0172706	noga	-0.16074131
-3.9054253	chwalić	-0.04361667
-3.9054253	wszechmoc	-0.04361667
-3.3548248	wielki	-0.04361667
-3.9054253	śnicij	-0.04361667
-3.9054253	szepce	-0.04361667
-3.9054253	zasypiać	-0.04361667
-3.2631245	głębia	-0.11281513
-3.9054253	najdalszych	-0.04361667
-3.3548248	zmierzch	-0.14054142
-3.9054253	wyłaniać	-0.04361667
-3.9054253	nieokreślone	-0.04361667
-3.9054253	zarysach	-0.04361667
-3.7445905	postać	-0.04361667
-3.7445905	miara	-0.04361667
-3.6307049	zbliżać	-0.04361667
-3.9054253	śpiącego	-0.04361667
-3.9054253	określać	-0.04361667
-3.2631245	spać	-0.19169395
-3.9054253	amazarak	-0.04361667
-3.066938	myśl	-0.04361667
-3.7445905	marzyć	-0.04361667
-3.9054253	człekać	-0.04361667
-3.9054253	powszedniy	-0.04361667
-3.9054253	śpiących	-0.04361667
-3.9054253	użytek	-0.04361667
-3.6307049	prawdziwy	-0.043616697
-3.7445905	przedmiot	-0.04361667
-3.9054253	zbytek	-0.04361667
-3.4712174	wyciągnąć	-0.04361667
-3.9054253	budowa	-0.04361667
-3.9054253	podnóżka	-0.04361667
-3.9054253	amazarakć	-0.04361667
-3.7445905	karczemny	-0.04361667
-3.9054253	stosunek	-0.04361667
-3.9054253	chrapać	-0.04361667
-3.7445905	żywiec	-0.04361667
-3.9054253	wstydliwość	-0.04361667
-3.9054253	urągać	-0.04361667
-3.9054253	trupięcej	-0.04361667
-3.9054253	płeć	-0.04361667
-3.9054253	przyklękać	-0.04361667
-3.9054253	postrzegy	-0.04361667
-3.9054253	pokuszenie	-0.04361667
-3.9054253	zbawieć	-0.04361667
-3.9054253	groba	-0.04361667
-3.9054253	trwoży	-0.04361667
-3.7445905	proch	-0.04361667
-3.9054253	złotowłosy	-0.04361667
-3.3548248	uśmiech	-0.043616697
-3.9054253	boży	-0.04361667
-3.7445905	dbać	-0.04361667
-3.7445905	urok	-0.043616697
-3.9054253	trwalszy	-0.04361667
-3.9054253	borykać	-0.04361667
-3.6307049	ciąg	-0.3746773
-3.3548248	daleki	-0.21433039
-3.9054253	wstawać	-0.04361667
-3.9054253	klęczk	-0.04361667
-3.9054253	szczery	-0.04361667
-3.9054253	wzruszać	-0.04361667
-3.1230278	żałoba	-0.80064607
-3.7445905	podobać	-0.04361667
-3.7445905	znawca	-0.04361667
-3.9054253	zbudźa	-0.04361667
-3.4712174	pląs	-0.04361667
-3.066938	dreszcz	-0.11189151
-3.4712174	mina	-0.15204261
-3.9054253	persnameyć	-0.04361667
-3.9054253	twarzyczko	-0.04361667
-3.9054253	zaniedbać	-0.04361667
-3.7445905	śmiertelny	-0.04361667
-3.9054253	ubocze	-0.04361667
-3.9054253	miej	-0.04361667
-3.6307049	wiara	-0.1951684
-3.6307049	mus	-0.043616697
-3.7445905	ciemnościo	-0.04361667
-3.9054253	zatajić	-0.04361667
-3.9054253	urząd	-0.04361667
-2.7222328	życie	-0.19377732
-3.9054253	dobudzić	-0.04361667
-3.9054253	zamarciu	-0.04361667
-2.8296568	twy	-0.06680127
-3.9054253	nóżąt	-0.04361667
-3.9054253	zziębłe	-0.04361667
-3.4712174	lęk	-0.04361667
-3.6307049	chłód	-0.043616697
-3.9054253	zniszczć	-0.04361667
-3.9054253	troska	-0.04361667
-3.9054253	zbielały	-0.04361667
-3.7445905	nieżywy	-0.29688033
-2.9322898	inny	-0.10537752
-3.9054253	ciepłota	-0.04361667
-3.9054253	lgniwo	-0.04361667
-3.9054253	zbudź	-0.04361667
-3.9054253	wszystka	-0.04361667
-3.7445905	otwierać	-0.04361667
-3.6307049	unosić	-0.043616697
-3.7445905	powietrze	-0.04361667
-3.7445905	znikać	-0.04361667
-3.6307049	miejsce	-0.04361667
-3.9054253	zniknięcie	-0.04361667
-3.9054253	ukazywać	-0.04361667
-3.9054253	zabawka	-0.04361667
-3.4712174	łódź	-0.15204261
-3.9054253	świetlisty	-0.04361667
-3.1230278	złoto	-0.21433039
-3.9054253	punkt	-0.04361667
-3.9054253	nieokreślony	-0.04361667
-3.9054253	dobić	-0.04361667
-2.972705	brzeg	-0.105773635
-3.9054253	istota	-0.04361667
-3.3548248	zbyteczny	-0.21113552
-3.7445905	wzdymać	-0.04361667
-3.9054253	próbny	-0.04361667
-3.9054253	pewniejszym	-0.04361667
-3.4712174	oddech	-0.04361667
-3.9054253	przenikać	-0.04361667
-3.3548248	smuga	-0.12808365
-3.6307049	budzić	-0.043616697
-3.7445905	nasłuchować	-0.04361667
-3.4712174	zrywać	-0.04361667
-3.9054253	równy	-0.04361667
-3.3548248	żyć	-0.04361667
-3.9054253	cierpieć	-0.04361667
-3.7445905	wino	-0.29688033
-3.9054253	zawczasuć	-0.04361667
-3.9054253	dosłuchać	-0.04361667
-3.7445905	udobruchać	-0.29688033
-3.9054253	zmarłymi	-0.04361667
-3.6307049	porwać	-0.1951684
-3.9054253	zamyślyć	-0.04361667
-3.9054253	wygoda	-0.04361667
-3.9054253	szkoda	-0.04361667
-3.6307049	łbem	-0.043616697
-3.1874514	żywy	-0.24528348
-3.9054253	śmiesz	-0.04361667
-3.9054253	zmartwychwstały	-0.04361667
-3.9054253	lico	-0.04361667
-3.9054253	pytać	-0.04361667
-3.9054253	przespanica	-0.04361667
-3.9054253	zgrzeszyć	-0.04361667
-3.7445905	niewiedzy	-0.04361667
-2.9322898	godzina	-0.42518374
-3.9054253	przebaczyć	-0.04361667
-3.9054253	przebiegły	-0.04361667
-3.9054253	korzyć	-0.04361667
-3.9054253	gardzić	-0.04361667
-3.9054253	pański	-0.04361667
-3.9054253	krążyć	-0.04361667
-3.7445905	myśleć	-0.04361667
-3.9054253	koral	-0.04361667
-3.9054253	samożal	-0.04361667
-3.7445905	wziąć	-0.04361667
-3.7445905	objęciach	-0.04361667
-3.9054253	zanieciś	-0.04361667
-3.6307049	biedny	-0.043616697
-3.9054253	zamyślona	-0.04361667
-3.7445905	zmalać	-0.29688033
-3.6307049	ust	-0.043616697
-3.9054253	pomóc	-0.04361667
-3.9054253	uczyciń	-0.04361667
-3.9054253	ofiara	-0.04361667
-2.7222328	czas	-0.2141786
-3.9054253	ciągłą	-0.04361667
-3.6307049	bóg	-0.043616697
-3.9054253	wywróżyć	-0.04361667
-3.6307049	ros	-0.043616697
-3.7445905	nieskończoność	-0.04361667
-3.1874514	skrzydło	-0.04361667
-3.9054253	łabędzia	-0.04361667
-3.9054253	podorędziu	-0.04361667
-3.6307049	wskazywać	-0.15204261
-3.9054253	zalać	-0.04361667
-3.7445905	spójrz	-0.043616697
-3.9054253	osłaniać	-0.04361667
-3.7445905	lekki	-0.04361667
-3.6307049	lubić	-0.043616697
-3.9054253	zazłocić	-0.04361667
-3.9054253	Pojarza	-0.04361667
-3.9054253	kędziora	-0.04361667
-3.9054253	wstrząsać	-0.04361667
-3.7445905	śmiać	-0.04361667
-3.7445905	dąsać	-0.04361667
-3.6307049	pokładło	-0.1951684
-3.9054253	zbladła	-0.04361667
-3.4712174	uderzać	-0.12808365
-2.800209	stopa	-0.124629565
-3.7445905	rozlegać	-0.04361667
-3.7445905	słyszyć	-0.04361667
-3.066938	słyszeć	-0.36241475
-3.1874514	brak	-0.04361664
-3.7445905	chłopca	-0.04361667
-3.9054253	szłam	-0.04361667
-3.6307049	siła	-0.1951684
-3.9054253	zabrnęć	-0.04361667
-3.6307049	gęstwina	-0.043616697
-3.6307049	odmienić	-0.3746773
-3.9054253	wypodzielenić	-0.04361667
-3.7445905	dział	-0.043616697
-3.3548248	zbraknąć	-0.04361667
-3.3548248	zrozumieć	-0.15633842
-3.6307049	łkać	-0.043616697
-3.6307049	szumieć	-0.1951684
-3.2631245	gałąź	-0.043616697
-3.2631245	list	-0.1783367
-3.066938	liść	-0.12864022
-3.9054253	zieleniśt	-0.04361667
-3.6307049	dziejbę	-0.043616697
-3.6307049	wbiec	-0.043616697
-3.9054253	trwożnąć	-0.04361667
-3.9054253	chwycić	-0.04361667
-3.066938	ramię	-0.088503115
-3.6307049	płakać	-0.043616697
-3.9054253	okropny	-0.04361667
-3.9054253	pomyłka	-0.04361667
-3.066938	los	-0.21579044
-3.7445905	bawić	-0.04361667
-3.7445905	podnosić	-0.04361667
-3.9054253	pokochajć	-0.04361667
-2.8612475	serce	-0.076413825
-3.3548248	chory	-0.59652615
-3.9054253	matka	-0.04361667
-3.9054253	radzić	-0.04361667
-3.9054253	oszczędzać	-0.04361667
-3.9054253	odsuwać	-0.04361667
-3.9054253	wciskać	-0.04361667
-3.9054253	spragniony	-0.04361667
-3.2631245	dziewczęcy	-0.15633842
-3.7445905	cofać	-0.043616697
-3.9054253	lewy	-0.04361667
-3.9054253	zaródź	-0.04361667
-3.7445905	/	-0.29688033
-3.9054253	marudź	-0.04361667
-3.6307049	rzucać	-0.04361667
-3.9054253	łapić	-0.04361667
-3.2631245	wpatrzyć	-0.11281513
-3.9054253	zawołać	-0.04361667
-3.9054253	we	-0.04361667
-3.7445905	on	-0.04361667
-3.9054253	zasmucić	-0.04361667
-3.9054253	dowierzać	-0.04361667
-3.9054253	rzut	-0.04361667
-3.9054253	blednąc	-0.04361667
-3.9054253	odrzuć	-0.04361667
-3.9054253	zwlekać	-0.04361667
-3.9054253	odrzucać	-0.04361667
-3.6307049	zadumie	-0.043616697
-3.9054253	mrocz	-0.04361667
-3.9054253	trudny	-0.04361667
-3.9054253	prosty	-0.04361667
-3.9054253	podrzucę	-0.04361667
-3.2631245	zginąć	-0.30327544
-3.7445905	uwierzyć	-0.1951684
-3.9054253	zaszeptać	-0.04361667
-3.9054253	strop	-0.04361667
-3.9054253	pląsa	-0.04361667
-3.9054253	podskoke	-0.04361667
-3.9054253	miłośnie	-0.04361667
-3.6307049	skok	-0.04361667
-3.9054253	pęknąć	-0.04361667
-3.4712174	chwytać	-0.04361667
-3.9054253	przyklęka	-0.04361667
-3.7445905	wsprzeć	-0.29688033
-3.9054253	składać	-0.04361667
-3.7445905	spotkać	-0.12808365
-3.3548248	powiedzieć	-0.04361667
-3.7445905	pociągać	-0.29688033
-3.9054253	ucałuj	-0.04361667
-3.9054253	ulga	-0.04361667
-3.1874514	konać	-0.5085428
-3.7445905	krzyż	-0.043616697
-3.7445905	żegnać	-0.04361667
-3.3548248	czoło	-0.36241475
-3.7445905	niczyj	-0.04361667
-3.6307049	szumić	-0.043616697
-3.9054253	ustać	-0.04361667
-3.9054253	bezziemnąć	-0.04361667
-3.4712174	wyjść	-0.10222858
-3.9054253	poganka	-0.04361667
-3.3548248	otchłań	-0.04361667
-3.9054253	cierpienie	-0.04361667
-3.7445905	kąt	-0.04361667
-3.4712174	pozór	-0.04361667
-3.7445905	wytchnienie	-0.29688033
-3.9054253	zjawiać	-0.04361667
-3.9054253	powierzchnia	-0.04361667
-3.7445905	domysć	-0.29688033
-3.9054253	wyczuwać	-0.04361667
-3.9054253	obecność	-0.04361667
-3.7445905	oglądać	-0.04361667
-3.7445905	poznawać	-0.043616697
-3.9054253	poznajesz	-0.04361667
-3.9054253	ruda	-0.04361667
-3.7445905	wznak	-0.04361667
-3.9054253	wiekuistka	-0.04361667
-3.9054253	wyprzódek	-0.04361667
-3.9054253	bliźnięka	-0.04361667
-3.9054253	rozpaczy	-0.04361667
-3.9054253	osoba	-0.04361667
-3.9054253	nieporozumienie	-0.04361667
-3.1874514	wolny	-0.04361667
-3.4712174	wola	-0.04361667
-3.9054253	orgnameposkąpić	-0.04361667
-3.6307049	umarły	-0.043616697
-3.9054253	posługa	-0.04361667
-3.2631245	ostatni	-0.08379985
-3.9054253	bratni	-0.04361667
-3.9054253	zamian	-0.04361667
-3.7445905	głosić	-0.04361667
-3.9054253	rozlazły	-0.04361667
-3.7445905	wspólnik	-0.043616697
-3.9054253	podkreślać	-0.04361667
-3.9054253	placenamy	-0.04361667
-3.9054253	tło	-0.04361667
-3.6307049	wina	-0.1951684
-3.9054253	skrywać	-0.04361667
-3.3548248	pokochać	-0.04361667
-3.9054253	spijać	-0.04361667
-3.7445905	żale	-0.29688033
-3.6307049	wyznać	-0.043616697
-3.4712174	korale	-0.49961606
-3.3548248	spaść	-0.04361667
-3.9054253	dotkliwy	-0.04361667
-3.7445905	próżć	-0.04361667
-3.9054253	wyróżniać	-0.04361667
-3.9054253	zanieść	-0.04361667
-3.1874514	dom	-0.14054142
-3.9054253	poniesiem	-0.04361667
-3.7445905	ożyć	-0.04361667
-3.2631245	drugi	-0.043616697
-3.7445905	pójść	-0.043616697
-2.800209	ślad	-0.08655101
-3.9054253	nawrócić	-0.04361667
-3.6307049	oddać	-0.043616697
-3.7445905	obudzić	-0.04361667
-3.7445905	zdołać	-0.04361667
-3.9054253	zdarzać	-0.04361667
-3.9054253	pozgonny	-0.04361667
-3.9054253	złocistość	-0.04361667
-3.6307049	wesoły	-0.1951684
-3.9054253	zabawicie	-0.04361667
-3.2631245	gwiazda	-0.043616697
-3.9054253	poświecy	-0.04361667
-3.6307049	brama	-0.3746773
-3.9054253	nieśmy	-0.04361667
-3.9054253	współcisieć	-0.04361667
-3.7445905	pozostać	-0.043616697
-3.9054253	ciał	-0.04361667
-3.9054253	przytul	-0.04361667
-3.7445905	peć	-0.29688033
-3.9054253	zbawiony	-0.04361667
-3.9054253	wyjdziesz	-0.04361667
-3.9054253	pilnuj	-0.04361667
-3.9054253	potkniesz	-0.04361667
-3.066938	zgon	-0.26548287
-3.7445905	namyśle	-0.29688033
-3.6307049	pogrzeb	-0.3746773
-3.9054253	zmarła	-0.04361667
-3.9054253	pojmujeć	-0.04361667
-3.9054253	zbadać	-0.043616697
-3.7445905	kłaść	-0.043616697
-3.9054253	ruszać	-0.04361667
-3.7445905	wzmagać	-0.04361667
-3.9054253	bieżący	-0.04361667
-3.9054253	zma	-0.04361667
-3.9054253	umowny	-0.04361667
-3.9054253	urastać	-0.04361667
-3.4712174	wiekuista	-0.04361667
-3.7445905	zwłokami	-0.04361667
-3.9054253	postępować	-0.04361667
-2.972705	ginąć	-0.21579044
-3.6307049	zanurzać	-0.043616697
-3.9054253	zagrobowy	-0.04361667
-3.9054253	znajdować	-0.04361667
-3.6307049	imienie	-0.3746773
-3.9054253	tchu	-0.04361667
-3.6307049	geogname	-0.04361664
-3.9054253	zaćmiewać	-0.04361667
-3.9054253	upale	-0.04361667
-3.6307049	dno	-0.04361667
-2.8296568	błękit	-0.2654737
-3.9054253	przecierać	-0.04361667
-3.7445905	dna	-0.04361667
-3.9054253	rumianka	-0.04361667
-3.9054253	żara	-0.04361667
-3.7445905	biel	-0.04361667
-3.7445905	gubić	-0.29688033
-3.9054253	trzykroć	-0.04361667
-3.9054253	odzłoć	-0.04361667
-2.488681	kwiat	-0.14660417
-3.9054253	zacząć	-0.04361667
-3.9054253	płat	-0.04361667
-3.4712174	murawa	-0.04361667
-3.4712174	wzgórze	-0.04361667
-3.9054253	źdźbeł	-0.04361667
-3.7445905	bezsiłą	-0.29688033
-3.9054253	zielenieć	-0.04361667
-3.9054253	skrót	-0.04361667
-3.3548248	głos	-0.1951684
-3.9054253	brzmienie	-0.04361667
-2.7726316	własny	-0.05924664
-3.9054253	odwyk	-0.04361667
-3.2631245	żal	-0.10222858
-3.9054253	rozkraczywszyć	-0.04361667
-3.3548248	zaduma	-0.04361667
-3.9054253	szczeri	-0.04361667
-3.9054253	pień	-0.04361667
-3.9054253	zbłyskany	-0.04361667
-3.7445905	siekiera	-0.04361667
-3.7445905	echo	-0.04361667
-3.9054253	uderzenie	-0.04361667
-3.9054253	opóźniać	-0.04361667
-3.9054253	mgnienie	-0.04361667
-3.9054253	opóźnienie	-0.04361667
-3.7445905	odgłos	-0.04361667
-3.9054253	dolatać	-0.04361667
-3.6307049	przeżywać	-0.043616697
-3.9054253	zwiedzać	-0.04361667
-3.9054253	przerwach	-0.04361667
-3.3548248	ech	-0.043616697
-3.4712174	cios	-0.04361667
-3.9054253	bezgwar	-0.04361667
-3.7445905	zrodzyć	-0.04361667
-3.9054253	umieszczek	-0.04361667
-3.066938	trwać	-0.09261022
-3.9054253	nica	-0.04361667
-3.7445905	opak	-0.04361667
-3.7445905	tch	-0.043616697
-3.9054253	siekier	-0.04361667
-3.1874514	słoneczny	-0.35726354
-3.9054253	pracować	-0.04361667
-3.2631245	baśń	-0.11281513
-3.7445905	jedyny	-0.04361667
-3.9054253	zespalać	-0.04361667
-3.9054253	połysk	-0.04361667
-3.9054253	pni	-0.04361667
-3.9054253	wygłos	-0.04361667
-3.9054253	drwal	-0.04361667
-3.7445905	sn	-0.043616697
-3.9054253	krztyna	-0.04361667
-3.9054253	wstęp	-0.04361667
-3.9054253	pozorzać	-0.04361667
-3.7445905	przybyć	-0.04361667
-3.6307049	ród	-0.043616697
-3.9054253	nieśmiertelny	-0.04361667
-3.7445905	twór	-0.04361667
-3.1874514	znać	-0.04361664
-3.4712174	szał	-0.043616697
-3.7445905	tęsknot	-0.04361667
-3.9054253	wyczarować	-0.04361667
-3.4712174	byt	-0.04361667
-3.9054253	zatracić	-0.04361667
-3.3548248	kres	-0.21113552
-3.6307049	przestrzeń	-0.1951684
-3.9054253	bezdroży	-0.04361667
-3.9054253	rozpaczeć	-0.04361667
-3.9054253	łkań	-0.04361667
-3.9054253	mijać	-0.04361667
-3.6307049	minąć	-0.043616697
-3.9054253	wysnuty	-0.04361667
-3.7445905	zeń	-0.04361667
-3.9054253	spełniić	-0.04361667
-2.9322898	zieleń	-0.28834108
-3.7445905	zamienić	-0.04361667
-3.7445905	mylny	-0.04361667
-3.9054253	tryumf	-0.04361667
-3.7445905	błogosławić	-0.29688033
-3.6307049	odmienny	-0.043616697
-3.9054253	zarys	-0.04361667
-3.9054253	przypominać	-0.04361667
-3.7445905	poddasze	-0.04361667
-3.9054253	wynurzać	-0.04361667
-3.9054253	strzegą	-0.04361667
-3.7445905	dół	-0.04361667
-3.9054253	przyjrzyj	-0.04361667
-3.7445905	górny	-0.04361667
-3.9054253	tkwię	-0.04361667
-3.9054253	trumnisko	-0.04361667
-3.9054253	utkać	-0.04361667
-3.7445905	wyżyna	-0.04361667
-3.7445905	imię	-0.04361667
-3.7445905	oddal	-0.04361667
-3.9054253	piętrowany	-0.04361667
-3.6307049	okno	-0.043616697
-3.7445905	radosny	-0.04361667
-3.9054253	znieruchomieć	-0.04361667
-3.7445905	przepaść	-0.04361667
-3.7445905	nocować	-0.04361667
-3.9054253	nizinny	-0.04361667
-3.7445905	mrowiu	-0.04361667
-3.9054253	odsmuca	-0.04361667
-3.9054253	rozległy	-0.04361667
-3.9054253	blaszany	-0.04361667
-3.9054253	pustkowie	-0.04361667
-3.7445905	kot	-0.04361667
-3.4712174	biec	-0.04361667
-3.9054253	komin	-0.04361667
-3.9054253	skrócaa	-0.04361667
-3.9054253	uwiędły	-0.04361667
-3.2631245	sad	-0.24528348
-3.9054253	przeżegnać	-0.04361667
-3.6307049	szkarłat	-0.15204261
-3.9054253	drgnąć	-0.04361667
-3.9054253	módl	-0.04361667
-3.7445905	tęcz	-0.04361667
-3.9054253	pożółkły	-0.04361667
-3.7445905	klon	-0.29688033
-3.7445905	staw	-0.04361667
-3.9054253	miedzi	-0.04361667
-3.9054253	złudny	-0.04361667
-3.9054253	pejzaż	-0.04361667
-3.9054253	współczesny	-0.04361667
-3.9054253	pożywka	-0.04361667
-3.9054253	podchmieloć	-0.04361667
-3.9054253	wróżka	-0.04361667
-3.6307049	wiadomo	-0.04361667
-3.9054253	kabaret	-0.04361667
-3.9054253	figl	-0.04361667
-3.9054253	mucha	-0.04361667
-3.9054253	zdobny	-0.04361667
-3.9054253	łysina	-0.04361667
-3.9054253	trzęść	-0.04361667
-3.1874514	śmiech	-0.09445472
-3.9054253	sala	-0.04361667
-3.9054253	grzmieć	-0.04361667
-3.9054253	odczyt	-0.04361667
-3.9054253	publiczny	-0.04361667
-3.9054253	ustalić	-0.04361667
-3.6307049	niebyt	-0.043616697
-3.9054253	ekonomiczny	-0.04361667
-3.9054253	zbój	-0.04361667
-3.9054253	grobkiem	-0.04361667
-3.9054253	obzywać	-0.04361667
-3.9054253	świątynia	-0.04361667
-3.9054253	mgle	-0.043616697
-3.9054253	inteligent	-0.04361667
-3.7445905	zwęszyć	-0.04361667
-3.9054253	lgnącą	-0.04361667
-3.7445905	bezdroża	-0.29688033
-3.9054253	lep	-0.04361667
-3.9054253	zgrozach	-0.04361667
-3.9054253	izba	-0.04361667
-3.9054253	piwniczny	-0.04361667
-3.9054253	słotny	-0.04361667
-3.9054253	robot	-0.04361667
-3.7445905	tulić	-0.04361667
-3.9054253	objęciu	-0.04361667
-3.9054253	dziewka	-0.04361667
-3.9054253	bezrobotny	-0.04361667
-3.9054253	spiżowy	-0.04361667
-3.7445905	dąs	-0.04361667
-3.9054253	poskramiakiem	-0.04361667
-3.9054253	zmuszać	-0.04361667
-3.9054253	układ	-0.04361667
-3.9054253	straszak	-0.04361667
-3.9054253	kawiarnia	-0.04361667
-3.4712174	orgname	-0.04361667
-3.9054253	zegarek	-0.04361667
-3.9054253	frak	-0.04361667
-3.9054253	posmutniały	-0.04361667
-3.9054253	niezgoda	-0.04361667
-3.9054253	burżujką	-0.04361667
-3.9054253	pudr	-0.04361667
-3.9054253	śnież	-0.04361667
-3.9054253	tańczyć	-0.04361667
-3.7445905	tango	-0.043616697
-3.9054253	należeć	-0.04361667
-3.6307049	pan	-0.04361667
-3.9054253	minister	-0.04361667
-3.9054253	bal	-0.04361667
-3.9054253	grono	-0.04361667
-3.9054253	dziennikarz	-0.04361667
-3.9054253	przygotować	-0.04361667
-3.9054253	twierdzić	-0.04361667
-3.9054253	odbierać	-0.04361667
-3.9054253	nadzieja	-0.04361667
-3.9054253	latarnia	-0.04361667
-3.9054253	srebrnym	-0.04361667
-3.9054253	błoto	-0.04361667
-3.9054253	ślubować	-0.04361667
-3.4712174	śpiewny	-0.04361667
-3.9054253	grdyka	-0.04361667
-3.9054253	społeczny	-0.04361667
-3.9054253	zgryzocie	-0.04361667
-3.4712174	poeta	-0.043616697
-3.9054253	arytmia	-0.04361667
-3.9054253	poszukiwać	-0.04361667
-3.9054253	znikły	-0.04361667
-3.9054253	metafora	-0.04361667
-3.9054253	spokrewnia	-0.04361667
-3.9054253	pozasłowny	-0.04361667
-3.9054253	trwanie	-0.04361667
-3.9054253	porównać	-0.04361667
-3.9054253	porównanie	-0.04361667
-3.9054253	skąpić	-0.04361667
-3.3548248	jezioro	-0.043616697
-3.9054253	maska	-0.04361667
-3.9054253	rodzajowy	-0.04361667
-3.9054253	pokurczyć	-0.04361667
-3.9054253	obrazek	-0.04361667
-3.9054253	wyzbyty	-0.04361667
-3.9054253	kłopotliwy	-0.04361667
-3.9054253	wyzwolenie	-0.04361667
-3.9054253	dostrzegać	-0.04361667
-3.9054253	biegnąc	-0.04361667
-3.7445905	dobiegać	-0.04361667
-3.9054253	sklep	-0.04361667
-3.9054253	mizdrz	-0.04361667
-3.9054253	potop	-0.04361667
-3.0172706	drzewo	-0.13284811
-3.4712174	księżyc	-0.043616697
-3.9054253	daceh	-0.04361667
-3.9054253	dolśnić	-0.04361667
-3.9054253	czczość	-0.04361667
-3.4712174	przyszłość	-0.15204261
-3.9054253	poemat	-0.04361667
-3.7445905	zazdrosny	-0.29688033
-3.6307049	miniony	-0.043616697
-3.9054253	widm	-0.04361667
-3.7445905	pierścien	-0.04361667
-3.9054253	bransoleta	-0.04361667
-3.9054253	zdobiące	-0.04361667
-3.9054253	sosena	-0.04361667
-3.9054253	pordzewiały	-0.04361667
-3.7445905	kora	-0.29688033
-3.6307049	brzóz	-0.043616697
-3.9054253	nikły	-0.04361667
-3.7445905	fiolet	-0.29688033
-3.9054253	powikłać	-0.04361667
-3.9054253	znoją	-0.04361667
-3.1230278	chmura	-0.12864022
-3.9054253	omsić	-0.04361667
-3.9054253	dym	-0.04361667
-3.9054253	zszarzeć	-0.04361667
-3.9054253	spalć	-0.04361667
-3.9054253	lazurach	-0.04361667
-3.9054253	park	-0.04361667
-3.9054253	znajomszą	-0.04361667
-3.9054253	nozdrz	-0.04361667
-3.9054253	węszą	-0.04361667
-3.7445905	gniazdo	-0.04361667
-3.2631245	woń	-0.441596
-3.9054253	zagąszczach	-0.04361667
-3.9054253	krzew	-0.04361667
-3.7445905	nabrzmiały	-0.04361667
-3.4712174	pył	-0.04361667
-3.9054253	rozpierzchem	-0.04361667
-3.9054253	drażnić	-0.04361667
-3.9054253	przypadłe	-0.04361667
-3.9054253	opętanej	-0.04361667
-3.9054253	czyhającej	-0.04361667
-3.6307049	niebios	-0.1951684
-3.9054253	uciszeć	-0.04361667
-3.9054253	złocących	-0.04361667
-3.9054253	mrowie	-0.04361667
-3.9054253	przysiąg	-0.04361667
-3.9054253	zostawić	-0.04361667
-3.3548248	dola	-0.21113552
-3.9054253	nieprzynależnych	-0.04361667
-3.9054253	pokryjom	-0.04361667
-3.7445905	zeszły	-0.04361667
-3.9054253	nieruchomy	-0.04361667
-3.9054253	drzemoty	-0.04361667
-3.9054253	dzieć	-0.04361667
-3.3548248	zmora	-0.24528348
-3.066938	łąka	-0.17439774
-3.9054253	zbryzganych	-0.04361667
-3.9054253	przestrzała	-0.04361667
-3.9054253	ówdzie	-0.04361667
-3.9054253	wyszperać	-0.04361667
-3.9054253	pnia	-0.04361667
-3.9054253	zestawnych	-0.04361667
-3.9054253	dowolny	-0.04361667
-3.9054253	szpaler	-0.04361667
-3.7445905	koło	-0.04361667
-3.7445905	wóz	-0.04361667
-3.9054253	wały	-0.04361667
-3.6307049	pokaz	-0.043616697
-3.9054253	wlecze	-0.04361667
-3.9054253	ruchliwy	-0.04361667
-3.6307049	mienić	-0.1951684
-3.7445905	step	-0.04361667
-3.9054253	niespodziany	-0.04361667
-3.7445905	narzucać	-0.04361667
-3.6307049	niebiosom	-0.043616697
-3.9054253	wnęka	-0.04361667
-3.9054253	stodóła	-0.04361667
-3.9054253	szczelina	-0.04361667
-3.9054253	zaprószonej	-0.04361667
-3.9054253	plewą	-0.04361667
-3.4712174	szpara	-0.26550472
-3.9054253	opłota	-0.04361667
-3.9054253	wybój	-0.04361667
-3.9054253	sęka	-0.04361667
-3.9054253	przeciekać	-0.04361667
-3.7445905	potajemny	-0.04361667
-3.9054253	struga	-0.04361667
-3.7445905	kropla	-0.043616697
-3.9054253	pokrzywom	-0.04361667
-3.9054253	stogach	-0.04361667
-3.6307049	siano	-0.043616697
-3.9054253	parić	-0.04361667
-3.9054253	błękitniej	-0.04361667
-3.9054253	mgliśt	-0.04361667
-3.9054253	wierzb	-0.04361667
-3.9054253	pokłonć	-0.04361667
-3.9054253	zwis	-0.04361667
-3.6307049	nurt	-0.043616697
-3.7445905	ruczaj	-0.04361667
-3.9054253	wzgórzu	-0.04361667
-3.9054253	łysem	-0.04361667
-3.9054253	rud	-0.04361667
-3.9054253	szczawiu	-0.04361667
-3.9054253	rdza	-0.04361667
-3.9054253	spiekot	-0.04361667
-3.9054253	strzech	-0.04361667
-3.9054253	jedwabiu	-0.04361667
-3.9054253	klekot	-0.04361667
-3.7445905	wsłuchać	-0.043616697
-3.9054253	gnuśny	-0.04361667
-3.9054253	grzybieć	-0.04361667
-3.9054253	wieniec	-0.04361667
-3.6307049	splot	-0.04361667
-3.7445905	srebra	-0.04361667
-3.9054253	wędrowny	-0.04361667
-3.9054253	dziad	-0.04361667
-3.6307049	zielony	-0.04361667
-3.7445905	szybach	-0.04361667
-3.9054253	rozszalałych	-0.04361667
-3.9054253	karcz	-0.04361667
-3.7445905	wrzask	-0.043616697
-3.9054253	pijany	-0.04361667
-3.9054253	wybuchać	-0.04361667
-3.9054253	wpadać	-0.04361667
-3.9054253	pobliski	-0.04361667
-3.3548248	cmentarz	-0.12808365
-3.9054253	przekrwawiać	-0.04361667
-3.9054253	ponsy	-0.04361667
-3.9054253	przejrzały	-0.04361667
-3.7445905	wstrząs	-0.04361667
-3.9054253	ognisty	-0.04361667
-3.9054253	paciory	-0.04361667
-3.7445905	zaraza	-0.04361667
-3.9054253	urojony	-0.04361667
-3.9054253	sprzyjań	-0.04361667
-3.6307049	żmudny	-0.043616697
-3.9054253	chora	-0.04361667
-3.9054253	zasłuchanej	-0.04361667
-3.9054253	przemijań	-0.04361667
-3.4712174	skraj	-0.15204261
-3.9054253	zwidziać	-0.04361667
-3.9054253	wlokę	-0.04361667
-3.9054253	źdźbł	-0.04361667
-3.9054253	kołacze	-0.04361667
-3.7445905	wyśniony	-0.04361667
-3.9054253	stopom	-0.04361667
-3.7445905	zmęczenie	-0.04361667
-3.6307049	pamięć	-0.043616697
-3.9054253	skąpiec	-0.04361667
-3.7445905	wszystek	-0.04361667
-3.6307049	skarb	-0.043616697
-3.9054253	sygnet	-0.04361667
-3.9054253	zawiekować	-0.04361667
-3.9054253	mgławica	-0.04361667
-3.9054253	zapodziany	-0.04361667
-3.6307049	wiekuisty	-0.04361667
-3.7445905	grobo	-0.29688033
-3.9054253	bezniebny	-0.04361667
-3.9054253	beztęczn	-0.04361667
-3.9054253	szpar	-0.04361667
-3.9054253	trafom	-0.04361667
-3.9054253	bylejaki	-0.04361667
-3.7445905	wdzięczny	-0.04361667
-3.9054253	przypomnienie	-0.04361667
-3.9054253	kałużysk	-0.04361667
-3.9054253	brudny	-0.04361667
-3.9054253	żabi	-0.04361667
-3.9054253	poziewanie	-0.04361667
-3.9054253	złotsze	-0.04361667
-3.9054253	zaklętsze	-0.04361667
-3.7445905	zanieśpiewać	-0.04361667
-3.9054253	zamieszkały	-0.04361667
-3.7445905	purpurowy	-0.04361667
-3.9054253	zorze	-0.04361667
-3.9054253	ułożę	-0.04361667
-3.9054253	ugrzęzna	-0.04361667
-3.9054253	błęd	-0.04361667
-3.7445905	niemy	-0.04361667
-3.9054253	zajście	-0.04361667
-3.9054253	zórz	-0.04361667
-3.1874514	ciemny	-0.24528348
-3.4712174	bor	-0.26550472
-3.9054253	patrzać	-0.04361667
-3.9054253	głaskać	-0.04361667
-3.9054253	zbliżć	-0.04361667
-3.6307049	poglądać	-0.043616697
-3.9054253	zrobić	-0.04361667
-3.9054253	zechcieć	-0.04361667
-3.7445905	szczęśliwy	-0.29688033
-3.9054253	nieb	-0.04361667
-3.9054253	krasa	-0.04361667
-3.9054253	umilkć	-0.04361667
-3.9054253	zlękniić	-0.04361667
-3.9054253	unoszę	-0.04361667
-3.9054253	gniewać	-0.04361667
-3.7445905	prosić	-0.29688033
-3.9054253	uśmiechnąć	-0.04361667
-3.9054253	skinąć	-0.04361667
-3.9054253	powstać	-0.04361667
-3.7445905	kubek	-0.04361667
-3.4712174	sprzęt	-0.10222858
-3.9054253	donica	-0.04361667
-3.9054253	rozkwitłego	-0.04361667
-3.9054253	ziel	-0.04361667
-3.4712174	podobny	-0.043616697
-3.9054253	weselo	-0.04361667
-3.4712174	rzec	-0.04361667
-3.7445905	oto	-0.043616697
-3.9054253	stęskniić	-0.04361667
-3.7445905	rodzic	-0.04361667
-3.9054253	poukładać	-0.04361667
-3.9054253	odwiedzić	-0.04361667
-3.6307049	odejść	-0.04361667
-3.9054253	krzątam	-0.04361667
-3.9054253	nakrywać	-0.04361667
-3.9054253	stół	-0.04361667
-3.9054253	omiatać	-0.04361667
-3.9054253	podłoga	-0.04361667
-3.6307049	suknia	-0.043616697
-3.9054253	najróżowszą	-0.04361667
-3.9054253	przyoblekać	-0.04361667
-3.9054253	odpędzać	-0.04361667
-3.6307049	czuwać	-0.043616697
-3.9054253	roznieta	-0.04361667
-3.9054253	złoci	-0.04361667
-3.7445905	pukanie	-0.04361667
-3.7445905	biegnę	-0.043616697
-3.3548248	wiatr	-0.04361667
-3.4712174	dzwonić	-0.49961606
-3.9054253	zamierać	-0.04361667
-3.9054253	obczyzna	-0.04361667
-3.3548248	próżnia	-0.12808365
-3.9054253	ostoja	-0.04361667
-3.9054253	bezgraniczach	-0.04361667
-3.7445905	zbłąkać	-0.04361667
-3.9054253	śmierci	-0.04361667
-3.9054253	niczyjej	-0.04361667
-3.3548248	ciemność	-0.04361667
-3.9054253	mara	-0.04361667
-3.9054253	modlić	-0.04361667
-3.9054253	obraz	-0.04361667
-3.4712174	brzoza	-0.04361667
-3.9054253	spłonąć	-0.04361667
-3.9054253	gorącą	-0.04361667
-3.9054253	mroek	-0.04361667
-3.9054253	natrafić	-0.04361667
-3.9054253	szukającą	-0.04361667
-3.7445905	ptasi	-0.04361667
-3.9054253	jaśmin	-0.04361667
-3.9054253	cien	-0.04361667
-3.7445905	ugania	-0.04361667
-3.9054253	ścigać	-0.04361667
-3.9054253	rozpłakeć	-0.04361667
-3.9054253	niekochać	-0.04361667
-3.9054253	niepieszczć	-0.04361667
-3.9054253	wilka	-0.04361667
-3.4712174	bór	-0.04361667
-3.7445905	zaznać	-0.04361667
-3.9054253	potworo	-0.04361667
-3.9054253	wypełznąć	-0.04361667
-3.6307049	czerw	-0.04361667
-3.9054253	zwilgotniały	-0.04361667
-3.6307049	pysk	-0.04361667
-3.7445905	czynny	-0.29688033
-3.9054253	popieszczyć	-0.04361667
-3.9054253	obejrzeć	-0.04361667
-3.4712174	tuman	-0.04361667
-3.9054253	lec	-0.04361667
-3.9054253	wstążka	-0.04361667
-3.7445905	syty	-0.04361667
-3.9054253	szczędź	-0.04361667
-3.7445905	jam	-0.04361667
-3.9054253	ostać	-0.04361667
-3.1874514	warkocz	-0.14054142
-3.9054253	ramienie	-0.04361667
-3.9054253	przesuł	-0.04361667
-3.9054253	rada	-0.04361667
-3.9054253	wesół	-0.04361667
-3.9054253	własić	-0.04361667
-3.9054253	włudzić	-0.04361667
-3.9054253	jabła	-0.04361667
-3.9054253	stęknąć	-0.04361667
-3.9054253	osłabła	-0.04361667
-3.9054253	zahuczać	-0.04361667
-3.9054253	pogrzebny	-0.04361667
-3.9054253	dzwon	-0.04361667
-3.9054253	choroba	-0.04361667
-3.6307049	miłować	-0.043616697
-3.7445905	schorzały	-0.04361667
-3.9054253	szaleniznę	-0.04361667
-3.7445905	potrafić	-0.043616697
-3.9054253	zgnilizna	-0.04361667
-3.9054253	przeniknąć	-0.04361667
-3.6307049	pieszczoto	-0.043616697
-3.9054253	niesyty	-0.04361667
-3.9054253	zaszumieć	-0.04361667
-3.9054253	obnażyć	-0.04361667
-3.6307049	szkielet	-0.043616697
-2.8612475	biały	-0.1978555
-3.9054253	maj	-0.04361667
-3.2631245	pole	-0.09445472
-3.9054253	rozstaj	-0.04361667
-3.3548248	date	-0.11281513
-3.9054253	krzątać	-0.04361667
-3.9054253	chrabęść	-0.04361667
-3.9054253	poskoczyć	-0.04361667
-3.7445905	zacisnąć	-0.04361667
-3.7445905	pięść	-0.04361667
-3.4712174	tysiąc	-0.04361667
-3.7445905	obiecać	-0.04361667
-3.7445905	ścieżka	-0.04361667
-3.9054253	popatrzyć	-0.04361667
-3.6307049	niebiosach	-0.043616697
-3.9054253	zadrzeć	-0.04361667
-3.7445905	niebu	-0.04361667
-3.7445905	mackami	-0.04361667
-3.9054253	wzruszyć	-0.04361667
-3.9054253	pokazać	-0.04361667
-3.9054253	miga	-0.04361667
-3.3548248	wieczysty	-0.21113552
-3.9054253	uchylić	-0.04361667
-3.4712174	spojrzeć	-0.04361667
-3.9054253	rozścierwiić	-0.04361667
-3.9054253	padołów	-0.04361667
-3.9054253	wyżyny	-0.04361667
-3.9054253	tańcować	-0.04361667
-3.9054253	jadwiżyn	-0.04361667
-3.7445905	altana	-0.29688033
-3.9054253	błysnąć	-0.04361667
-3.9054253	pokrzywo	-0.04361667
-3.9054253	rozpoznaj	-0.04361667
-3.7445905	ciemnota	-0.29688033
-3.9054253	wróbel	-0.04361667
-3.9054253	płocie	-0.04361667
-3.9054253	wybrnąć	-0.04361667
-3.9054253	wpółrozwartych	-0.04361667
-3.9054253	stoim	-0.04361667
-3.9054253	dalom	-0.04361667
-3.9054253	brew	-0.04361667
-3.7445905	próg	-0.043616697
-3.0172706	chata	-0.19852987
-3.9054253	utrudą	-0.04361667
-3.9054253	dzierżyć	-0.04361667
-3.7445905	dzban	-0.29688033
-3.7445905	upływać	-0.04361667
-3.4712174	rana	-0.15204261
-3.7445905	wylękły	-0.04361667
-3.1230278	śpiew	-0.09445472
-3.7445905	wiersz	-0.043616697
-3.7445905	konny	-0.29688033
-3.9054253	pochylić	-0.04361667
-3.2631245	patrzyć	-0.04361667
-3.9054253	przewijać	-0.04361667
-3.9054253	skośny	-0.04361667
-3.9054253	postronny	-0.04361667
-3.9054253	cisawy	-0.04361667
-3.4712174	głaz	-0.26550472
-3.9054253	zacięży	-0.04361667
-3.9054253	zwęszywszy	-0.04361667
-3.7445905	zagrzać	-0.04361667
-3.9054253	persnamew	-0.04361667
-3.6307049	uparty	-0.043616697
-3.7445905	łuk	-0.04361667
-3.9054253	wonieć	-0.04361667
-3.1874514	trawa	-0.04361667
-3.9054253	wywiać	-0.04361667
-3.9054253	złączyć	-0.04361667
-3.6307049	wspólny	-0.043616697
-3.7445905	bieg	-0.04361667
-3.3548248	niebiosy	-0.36241475
-3.9054253	kazać	-0.04361667
-3.6307049	jednaki	-0.043616697
-3.9054253	zespolić	-0.04361667
-3.4712174	różny	-0.04361667
-3.6307049	jawa	-0.043616697
-3.9054253	związać	-0.04361667
-3.9054253	łańcuch	-0.04361667
-3.6307049	dąb	-0.043616697
-3.9054253	migać	-0.04361667
-3.6307049	dęb	-0.043616697
-3.9054253	odlata	-0.04361667
-3.7445905	zaskoczyć	-0.04361667
-3.7445905	ukos	-0.04361667
-3.9054253	jarząc	-0.04361667
-3.9054253	samopas	-0.04361667
-3.9054253	topaz	-0.04361667
-3.9054253	mar	-0.04361667
-3.7445905	stogi	-0.04361667
-3.9054253	siać	-0.04361667
-3.9054253	bociano	-0.04361667
-3.9054253	wrić	-0.04361667
-3.9054253	czub	-0.04361667
-3.9054253	przegubie	-0.04361667
-3.9054253	miedz	-0.04361667
-3.066938	źrenica	-0.26548287
-3.7445905	pochwycić	-0.043616697
-3.7445905	mak	-0.04361667
-3.9054253	kąkol	-0.04361667
-3.9054253	pszenica	-0.04361667
-3.9054253	skrzyść	-0.04361667
-3.6307049	szyba	-0.043616697
-3.6307049	przerażać	-0.043616697
-3.9054253	srebr	-0.04361667
-3.7445905	oprzeć	-0.04361667
-3.9054253	wierzchołek	-0.04361667
-3.9054253	rozwidniony	-0.04361667
-3.9054253	wygrzewać	-0.04361667
-3.9054253	kudłaty	-0.04361667
-3.4712174	łeb	-0.04361667
-3.9054253	nozdrze	-0.04361667
-3.7445905	wre	-0.04361667
-3.9054253	pocie	-0.04361667
-3.4712174	zdyszać	-0.04361667
-3.9054253	kładz	-0.04361667
-3.9054253	tętent	-0.04361667
-3.9054253	stapiając	-0.04361667
-3.7445905	milczeć	-0.29688033
-3.9054253	sprzepaszczać	-0.04361667
-3.4712174	zamęt	-0.04361667
-3.9054253	bystry	-0.04361667
-3.6307049	istnienie	-0.3746773
-3.9054253	obojeg	-0.04361667
-3.9054253	dusz	-0.04361667
-3.7445905	dymić	-0.04361667
-3.7445905	zdybać	-0.1951684
-3.9054253	—	-0.04361667
-3.9054253	zwąć	-0.04361667
-3.9054253	przemknąć	-0.04361667
-3.7445905	pokrzywa	-0.29688033
-3.9054253	gęstwić	-0.04361667
-3.9054253	pogmatwać	-0.04361667
-3.6307049	grzywa	-0.3746773
-3.9054253	lotny	-0.04361667
-3.7445905	zowąd	-0.04361667
-3.9054253	wybłysłe	-0.04361667
-3.9054253	uśmiechną	-0.04361667
-3.9054253	wzgórz	-0.04361667
-3.9054253	łamić	-0.04361667
-3.9054253	przeszkoda	-0.04361667
-3.9054253	turniej	-0.04361667
-3.9054253	tamtejszy	-0.04361667
-3.9054253	mieszkaniec	-0.04361667
-3.9054253	wybrzeże	-0.04361667
-3.6307049	lot	-0.043616697
-3.7445905	stal	-0.04361667
-3.9054253	rozeznać	-0.04361667
-3.9054253	kurzaw	-0.04361667
-3.9054253	zwój	-0.04361667
-3.7445905	mknąć	-0.04361667
-3.7445905	wniebowzięcie	-0.29688033
-3.9054253	drapieżny	-0.04361667
-3.9054253	zwierzęcio	-0.04361667
-3.7445905	człowieczy	-0.04361667
-3.9054253	stwór	-0.04361667
-3.9054253	obłęd	-0.04361667
-3.9054253	zdwoić	-0.04361667
-3.9054253	rozpąd	-0.04361667
-3.9054253	zmór	-0.04361667
-3.7445905	słynny	-0.04361667
-3.9054253	rycerski	-0.04361667
-3.9054253	ogłada	-0.04361667
-3.9054253	płomienny	-0.04361667
-3.9054253	sidi	-0.04361667
-3.9054253	przeklinać	-0.04361667
-3.9054253	szczęk	-0.04361667
-3.9054253	nazwać	-0.04361667
-3.9054253	małżonka	-0.04361667
-3.7445905	zdrada	-0.29688033
-3.3548248	zemsta	-0.04361667
-3.7445905	alej	-0.04361667
-3.9054253	wahać	-0.04361667
-3.9054253	czczać	-0.04361667
-3.9054253	odwet	-0.04361667
-3.9054253	wyszeptan	-0.04361667
-3.7445905	przeobrazić	-0.04361667
-3.9054253	niewierny	-0.04361667
-3.7445905	rumak	-0.04361667
-3.9054253	stanąć	-0.04361667
-3.9054253	nieświadom	-0.04361667
-3.9054253	wcielenie	-0.04361667
-3.7445905	obrzmiały	-0.04361667
-3.9054253	natężyć	-0.04361667
-3.7445905	Pięście	-0.29688033
-3.9054253	dąsając	-0.04361667
-3.9054253	soczysty	-0.04361667
-3.7445905	nęcić	-0.043616697
-3.9054253	smakowity	-0.04361667
-3.9054253	wietrzyk	-0.04361667
-3.9054253	pochrzęście	-0.04361667
-3.9054253	niespodzianych	-0.04361667
-3.9054253	rozjuszenie	-0.04361667
-3.6307049	szkarłatny	-0.043616697
-3.9054253	żyła	-0.04361667
-3.9054253	samochcić	-0.04361667
-3.9054253	szeleścić	-0.04361667
-3.3548248	nowy	-0.12808365
-3.7445905	poruszenie	-0.29688033
-3.9054253	skoky	-0.04361667
-3.9054253	pląsach	-0.04361667
-3.9054253	niewieść	-0.04361667
-3.9054253	przybrać	-0.04361667
-3.9054253	uprząż	-0.04361667
-3.9054253	złotowzora	-0.04361667
-3.9054253	zlewać	-0.04361667
-3.9054253	wrzące	-0.04361667
-3.9054253	balsam	-0.04361667
-3.9054253	zwycięski	-0.04361667
-3.9054253	ogon	-0.04361667
-3.9054253	opędny	-0.04361667
-3.9054253	kopyt	-0.04361667
-3.6307049	badać	-0.043616697
-3.4712174	tajemny	-0.04361667
-3.7445905	ząb	-0.04361667
-3.6307049	zgodny	-0.043616697
-3.9054253	perły	-0.04361667
-3.9054253	dziąsło	-0.04361667
-3.1874514	purpura	-0.10222858
-3.7445905	karmić	-0.04361667
-3.4712174	zwierzę	-0.04361667
-3.9054253	miód	-0.04361667
-3.9054253	dojrzały	-0.04361667
-3.9054253	tkliwy	-0.04361667
-3.6307049	podawać	-0.043616697
-3.9054253	roztopiyć	-0.04361667
-3.9054253	południe	-0.04361667
-3.7445905	cisnąć	-0.04361667
-3.9054253	podeptać	-0.04361667
-3.7445905	resztka	-0.04361667
-3.9054253	zaśmiać	-0.04361667
-3.9054253	krzyknąć	-0.04361667
-3.9054253	dosiąść	-0.04361667
-3.9054253	bachmat	-0.04361667
-3.9054253	ziejąc	-0.04361667
-3.9054253	zniszczenie	-0.04361667
-3.9054253	pędzić	-0.04361667
-3.7445905	tygrysi	-0.04361667
-3.9054253	złość	-0.04361667
-3.9054253	rozścierwienie	-0.04361667
-3.9054253	zatapiać	-0.04361667
-3.9054253	ostroga	-0.04361667
-3.9054253	chrapliwą	-0.04361667
-3.7445905	czerwień	-0.29688033
-3.9054253	oślepłych	-0.04361667
-3.9054253	podwajać	-0.04361667
-3.9054253	milczenie	-0.04361667
-3.6307049	obłędny	-0.043616697
-3.9054253	schwytać	-0.04361667
-3.9054253	lustro	-0.04361667
-3.7445905	mącić	-0.04361667
-3.2631245	odbić	-0.043616697
-3.0172706	ptak	-0.043616697
-3.9054253	zemglić	-0.04361667
-3.7445905	kurz	-0.15204261
-3.9054253	zaledwo	-0.04361667
-3.1230278	wspomnienie	-0.09445472
-3.9054253	złocić	-0.04361667
-3.9054253	czereda	-0.04361667
-3.7445905	zwierz	-0.04361667
-3.9054253	pastwa	-0.04361667
-3.9054253	jeździec	-0.04361667
-3.7445905	chłonąć	-0.04361667
-3.9054253	dokonać	-0.04361667
-3.7445905	doznawać	-0.04361667
-3.6307049	upojeń	-0.043616697
-3.6307049	wyraz	-0.043616697
-3.9054253	uznać	-0.04361667
-3.9054253	przyjaźń	-0.04361667
-3.4712174	nieustanny	-0.26550472
-3.1874514	bywać	-0.10222858
-3.9054253	węże	-0.04361667
-3.9054253	wśniwać	-0.04361667
-3.9054253	Plamiście	-0.04361667
-3.9054253	słoń	-0.04361667
-3.9054253	wzgórzyć	-0.04361667
-3.9054253	zarośla	-0.04361667
-3.9054253	ciemniejąc	-0.04361667
-3.9054253	małpy	-0.04361667
-3.9054253	żarach	-0.04361667
-3.9054253	niechlujny	-0.04361667
-3.9054253	pławić	-0.04361667
-3.9054253	dzik	-0.04361667
-3.7445905	nieprzytomny	-0.04361667
-3.9054253	gmatwać	-0.04361667
-3.9054253	storczyk	-0.04361667
-3.9054253	lamparta	-0.04361667
-3.9054253	futr	-0.04361667
-3.9054253	przegrzany	-0.04361667
-3.9054253	polegać	-0.04361667
-3.6307049	grzbiet	-0.1951684
-3.7445905	ssać	-0.04361667
-3.9054253	łapa	-0.04361667
-3.9054253	ślepiami	-0.04361667
-3.9054253	gnuśnieć	-0.04361667
-3.7445905	zaświeć	-0.04361667
-3.9054253	mrowisko	-0.04361667
-3.9054253	mrówka	-0.04361667
-3.9054253	wylew	-0.04361667
-3.9054253	pachniać	-0.04361667
-3.7445905	chętny	-0.04361667
-3.9054253	wypocina	-0.04361667
-3.9054253	drgnęły	-0.04361667
-3.6307049	upał	-0.043616697
-3.9054253	nieruchomieć	-0.04361667
-3.7445905	bruździć	-0.04361667
-3.9054253	skrzypiać	-0.04361667
-3.9054253	mangowka	-0.04361667
-3.1230278	śpiewać	-0.04361667
-3.9054253	trącon	-0.04361667
-3.9054253	polana	-0.04361667
-3.9054253	zboczyć	-0.04361667
-3.7445905	zaoczyć	-0.04361667
-3.9054253	dłużić	-0.04361667
-3.9054253	jednolity	-0.04361667
-3.6307049	paw	-0.043616697
-3.9054253	gruchać	-0.04361667
-3.9054253	pawiu	-0.04361667
-3.7445905	ukryć	-0.04361667
-3.9054253	porzucić	-0.04361667
-3.9054253	praistnieć	-0.04361667
-3.9054253	zjesieniałość	-0.04361667
-3.9054253	nasnuć	-0.04361667
-3.9054253	prędce	-0.04361667
-3.7445905	kryć	-0.04361667
-3.9054253	pawim	-0.04361667
-3.9054253	wątek	-0.04361667
-3.9054253	trwożny	-0.04361667
-3.9054253	mętnieć	-0.04361667
-3.9054253	domyśle	-0.04361667
-3.9054253	puszyściał	-0.04361667
-3.7445905	szyja	-0.04361667
-3.6307049	ucho	-0.3746773
-3.9054253	odszepnąć	-0.04361667
-3.9054253	szeptuchać	-0.04361667
-3.9054253	usznymi	-0.04361667
-3.9054253	paluszko	-0.04361667
-3.9054253	zatykeć	-0.04361667
-3.7445905	dyszać	-0.04361667
-3.6307049	pawie	-0.043616697
-3.9054253	zawiść	-0.04361667
-3.7445905	drwina	-0.04361667
-3.9054253	smaglić	-0.04361667
-3.9054253	zmyślnym	-0.04361667
-3.7445905	dziób	-0.04361667
-3.9054253	sypki	-0.04361667
-3.9054253	rozstrząsać	-0.04361667
-3.7445905	strzałę	-0.04361667
-3.9054253	nadąsać	-0.04361667
-3.7445905	spłoszyć	-0.04361667
-3.9054253	ptaszęcym	-0.04361667
-3.9054253	skryć	-0.04361667
-3.9054253	odfrunąć	-0.04361667
-3.7445905	trzepot	-0.04361667
-3.7445905	bliski	-0.04361667
-3.7445905	zlękły	-0.04361667
-3.9054253	piersiom	-0.04361667
-3.9054253	strzać	-0.04361667
-3.7445905	żer	-0.04361667
-3.9054253	odgaść	-0.04361667
-3.9054253	zbrakło	-0.04361667
-3.9054253	pawi	-0.04361667
-3.6307049	osłona	-0.1951684
-3.9054253	upadła	-0.04361667
-3.9054253	ziem	-0.04361667
-3.9054253	upierzeć	-0.04361667
-3.9054253	warczyć	-0.04361667
-3.9054253	pomknąć	-0.04361667
-3.9054253	pobląść	-0.04361667
-3.9054253	powcielać	-0.04361667
-3.9054253	godzić	-0.04361667
-3.9054253	kształte	-0.04361667
-3.7445905	zadać	-0.04361667
-3.9054253	biodr	-0.04361667
-3.9054253	źdźbło	-0.04361667
-3.9054253	szypułka	-0.04361667
-3.9054253	spal	-0.04361667
-3.9054253	daremna	-0.04361667
-3.9054253	przybłąkać	-0.04361667
-3.3548248	pragnienie	-0.12808365
-3.9054253	ustrona	-0.04361667
-3.9054253	wypulchnić	-0.04361667
-3.9054253	wyśnieżyć	-0.04361667
-3.6307049	tęcza	-0.043616697
-3.9054253	wbóstwiić	-0.04361667
-3.9054253	szalenizny	-0.04361667
-3.9054253	wmawiać	-0.04361667
-3.9054253	nauczyć	-0.04361667
-3.7445905	zawczasu	-0.04361667
-3.9054253	kochany	-0.04361667
-3.9054253	wejdziesz	-0.04361667
-3.9054253	wzgardco	-0.04361667
-3.7445905	pawiać	-0.04361667
-3.9054253	zamyślić	-0.04361667
-3.7445905	grześć	-0.04361667
-3.6307049	grobie	-0.1951684
-3.9054253	pióro	-0.04361667
-3.9054253	rozszeptać	-0.04361667
-3.7445905	zmóc	-0.04361667
-3.4712174	nikczemny	-0.26550472
-3.9054253	karło	-0.04361667
-3.9054253	odlecieć	-0.04361667
-3.9054253	zez	-0.04361667
-3.7445905	zniknąć	-0.043616697
-3.6307049	zanik	-0.043616697
-3.9054253	niezwłoczny	-0.04361667
-3.9054253	widoczny	-0.04361667
-3.7445905	pomyśleć	-0.04361667
-3.6307049	stracić	-0.1951684
-3.7445905	strzał	-0.04361667
-3.9054253	dosięgnąć	-0.04361667
-3.9054253	bezprawiać	-0.04361667
-3.7445905	zabić	-0.043616697
-3.9054253	skiełznąć	-0.04361667
-3.7445905	zemrzeć	-0.04361667
-3.9054253	poździerzgać	-0.04361667
-3.7445905	błąd	-0.04361667
-3.6307049	przeznaczenie	-0.1951684
-3.9054253	różnić	-0.04361667
-3.9054253	strwonić	-0.04361667
-3.9054253	wykrwawiać	-0.04361667
-3.9054253	zamysł	-0.04361667
-3.3548248	zbrodnia	-0.12808365
-3.9054253	czyjy	-0.04361667
-3.6307049	zabijać	-0.043616697
-3.7445905	ochoczy	-0.1951684
-3.9054253	dąbrowy	-0.04361667
-3.6307049	pomoc	-0.043616697
-3.9054253	biegć	-0.04361667
-3.9054253	zawieruchać	-0.04361667
-3.9054253	niepokoić	-0.04361667
-3.9054253	narazić	-0.04361667
-3.9054253	utrudzić	-0.04361667
-3.9054253	zbroczyć	-0.04361667
-3.9054253	przekroczyć	-0.04361667
-3.9054253	dotarłem	-0.04361667
-3.7445905	cel	-0.04361667
-3.6307049	pieśń	-0.04361667
-3.9054253	rozbrzmiać	-0.04361667
-3.9054253	powiększyć	-0.04361667
-3.9054253	zolbrzymiać	-0.04361667
-3.9054253	zgadować	-0.04361667
-3.9054253	opuszczić	-0.04361667
-3.9054253	bezdomność	-0.04361667
-3.9054253	powracać	-0.04361667
-3.7445905	hasło	-0.15204261
-3.6307049	dzieje	-0.043616697
-3.9054253	lampa	-0.04361667
-3.9054253	zdążyć	-0.04361667
-3.9054253	owinąć	-0.04361667
-3.9054253	winien	-0.04361667
-3.9054253	zgasnąć	-0.04361667
-3.9054253	zapłonąć	-0.04361667
-3.6307049	tracić	-0.043616697
-3.9054253	schód	-0.04361667
-3.9054253	klamce	-0.04361667
-3.9054253	klamka	-0.04361667
-3.9054253	wzamiana	-0.04361667
-3.7445905	przyciskać	-0.29688033
-3.9054253	obumierać	-0.04361667
-3.7445905	ciszek	-0.04361667
-3.9054253	knuć	-0.04361667
-3.9054253	ścielesz	-0.04361667
-3.9054253	łóżko	-0.04361667
-3.6307049	zamiar	-0.1951684
-3.6307049	pieszczot	-0.043616697
-3.9054253	dopełnić	-0.04361667
-3.9054253	podjętego	-0.04361667
-3.1230278	trud	-0.21433039
-3.9054253	dłoniach	-0.04361667
-3.9054253	pieczya	-0.04361667
-3.7445905	piękny	-0.043616697
-3.9054253	śledzić	-0.043616697
-3.9054253	okradać	-0.04361667
-3.7445905	ustronić	-0.29688033
-3.9054253	wykrytych	-0.04361667
-3.7445905	gniew	-0.043616697
-3.4712174	pałać	-0.49961606
-3.6307049	wona	-0.1951684
-3.9054253	przeszkod	-0.04361667
-3.9054253	bezradny	-0.04361667
-3.9054253	chłoniemy	-0.04361667
-3.4712174	powieka	-0.26550472
-3.7445905	znużony	-0.29688033
-3.9054253	kotara	-0.04361667
-3.9054253	opadąć	-0.04361667
-3.6307049	uścisk	-0.043616697
-3.9054253	dotrzeć	-0.04361667
-3.9054253	nurzał	-0.04361667
-3.7445905	bezdomny	-0.04361667
-3.7445905	straż	-0.04361667
-3.6307049	czujny	-0.043616697
-3.7445905	goryl	-0.04361667
-3.7445905	gęstwa	-0.04361667
-3.9054253	kosmaty	-0.04361667
-3.9054253	śmieszliwy	-0.04361667
-3.7445905	ślep	-0.04361667
-3.9054253	wyzierać	-0.04361667
-3.7445905	małpować	-0.04361667
-3.9054253	orł	-0.04361667
-3.9054253	ranny	-0.04361667
-3.9054253	strzała	-0.04361667
-3.7445905	wart	-0.04361667
-3.9054253	lwa	-0.04361667
-3.7445905	barłóg	-0.29688033
-3.9054253	spłoszon	-0.04361667
-3.9054253	zagrażać	-0.04361667
-3.9054253	drwić	-0.04361667
-3.9054253	przedrzeźnieć	-0.04361667
-3.9054253	schodzić	-0.04361667
-3.9054253	dolina	-0.04361667
-3.9054253	wtulyć	-0.04361667
-3.7445905	szary	-0.29688033
-3.7445905	zblaść	-0.04361667
-3.9054253	spodziew	-0.04361667
-3.9054253	zmałpować	-0.04361667
-3.9054253	paść	-0.04361667
-3.9054253	niewiedzący	-0.04361667
-3.9054253	skomleć	-0.04361667
-3.9054253	przydeptać	-0.04361667
-3.7445905	raczyć	-0.29688033
-3.9054253	nieprzedrzeźniona	-0.04361667
-3.9054253	rzężyć	-0.04361667
-3.9054253	kić	-0.04361667
-3.9054253	ukochać	-0.043616697
-3.9054253	sadzie	-0.04361667
-3.9054253	sada	-0.04361667
-3.9054253	ułomny	-0.04361667
-3.6307049	płot	-0.15204261
-3.9054253	deska	-0.04361667
-3.6307049	przejrzysty	-0.043616697
-3.9054253	drabina	-0.04361667
-3.2631245	rzeka	-0.15633842
-3.7445905	sąsiad	-0.04361667
-3.9054253	niedaleki	-0.04361667
-3.9054253	uprzątną	-0.04361667
-3.9054253	żywić	-0.04361667
-3.7445905	kryjomu	-0.04361667
-3.9054253	dobroć	-0.04361667
-3.7445905	pokątny	-0.04361667
-3.9054253	okruch	-0.04361667
-3.9054253	złocistoścei	-0.04361667
-3.9054253	zlękłego	-0.04361667
-3.6307049	pokój	-0.1951684
-3.4712174	złożyć	-0.15204261
-3.9054253	wycieńczić	-0.04361667
-3.9054253	mgł	-0.04361667
-3.9054253	opuścić	-0.04361667
-3.9054253	ojciec	-0.04361667
-3.9054253	przeoczyć	-0.04361667
-3.9054253	idąc	-0.04361667
-3.7445905	grób	-0.04361667
-3.9054253	stoczyć	-0.04361667
-3.7445905	siostra	-0.04361667
-3.2631245	głód	-0.043616697
-3.7445905	powód	-0.29688033
-3.7445905	brat	-0.04361667
-3.9054253	ścierać	-0.04361667
-3.9054253	nasłuchiwać	-0.04361667
-3.9054253	kochanka	-0.04361667
-3.7445905	zaśnąć	-0.29688033
-3.9054253	srebrny	-0.04361667
-3.9054253	pukać	-0.04361667
-3.9054253	przynieść	-0.04361667
-3.9054253	świst	-0.04361667
-3.4712174	gwiezdny	-0.04361667
-3.9054253	rozrzutny	-0.04361667
-3.9054253	pomieszany	-0.04361667
-3.7445905	tchnienie	-0.04361667
-3.6307049	uchodzić	-0.043616697
-3.9054253	rozgrzeszać	-0.04361667
-3.9054253	zatracać	-0.04361667
-3.9054253	zmieścić	-0.04361667
-3.9054253	spojrzać	-0.04361667
-3.7445905	ukosa	-0.29688033
-3.7445905	niepamięć	-0.04361667
-3.2631245	okręt	-0.09445472
-3.9054253	wrzał	-0.04361667
-3.7445905	żagli	-0.04361667
-3.9054253	gnany	-0.04361667
-3.7445905	zawierucha	-0.29688033
-3.9054253	wędrowiec	-0.04361667
-3.9054253	wykojarz	-0.04361667
-3.9054253	dodawać	-0.04361667
-3.7445905	pszczoła	-0.04361667
-3.9054253	grobowcu	-0.04361667
-3.7445905	czytać	-0.04361667
-3.9054253	napis	-0.04361667
-3.9054253	zginąłem	-0.04361667
-3.4712174	wichura	-0.04361667
-3.9054253	zgina	-0.04361667
-3.9054253	wtóry	-0.04361667
-3.6307049	znaleźć	-0.04361667
-3.7445905	przystań	-0.04361667
-3.9054253	zawiość	-0.04361667
-3.9054253	umarć	-0.04361667
-3.9054253	przeciwny	-0.04361667
-3.9054253	groza	-0.04361667
-3.9054253	rozbić	-0.04361667
-3.9054253	niewiadomość	-0.04361667
-3.9054253	szczątek	-0.04361667
-3.9054253	nuży	-0.04361667
-3.7445905	godny	-0.04361667
-3.9054253	ster	-0.04361667
-3.6307049	wicher	-0.043616697
-3.9054253	żagle	-0.04361667
-3.9054253	wzdyma	-0.04361667
-3.4712174	podróż	-0.15204261
-3.9054253	wyruszyć	-0.04361667
-3.9054253	zatrzymać	-0.04361667
-3.9054253	mocować	-0.04361667
-3.9054253	wytrwałość	-0.04361667
-3.9054253	rozwijać	-0.04361667
-3.9054253	przechodć	-0.04361667
-3.9054253	odmów	-0.04361667
-3.7445905	zerwać	-0.04361667
-3.9054253	ukląkć	-0.04361667
-3.9054253	żądać	-0.04361667
-3.9054253	odmówić	-0.04361667
-3.9054253	pacierz	-0.04361667
-3.9054253	zwoływać	-0.04361667
-3.9054253	surmą	-0.04361667
-3.9054253	wrzawa	-0.04361667
-3.9054253	zabawa	-0.04361667
-3.9054253	gadać	-0.04361667
-3.6307049	koń	-0.043616697
-3.9054253	sieść	-0.04361667
-3.9054253	jechać	-0.04361667
-3.9054253	sława	-0.04361667
-3.7445905	zaniedbany	-0.04361667
-3.9054253	marnieć	-0.04361667
-3.9054253	dolinie	-0.04361667
-3.9054253	pług	-0.04361667
-3.9054253	oraj	-0.04361667
-3.7445905	jutro	-0.04361667
-3.9054253	umówić	-0.04361667
-3.9054253	umówiić	-0.04361667
-3.9054253	przychętny	-0.04361667
-3.9054253	zajrzać	-0.04361667
-3.3548248	zwierciadło	-0.36241475
-3.9054253	pościela	-0.04361667
-3.9054253	zimny	-0.04361667
-3.9054253	znużyć	-0.04361667
-3.9054253	zużyć	-0.04361667
-3.9054253	pożałować	-0.04361667
-3.9054253	lgnąć	-0.04361667
-3.9054253	pachnące	-0.04361667
-3.9054253	bezwstydny	-0.04361667
-3.9054253	posłusznieć	-0.04361667
-3.9054253	radoście	-0.04361667
-3.9054253	granica	-0.04361667
-3.7445905	łkania	-0.04361667
-3.9054253	mdlać	-0.04361667
-3.9054253	niedoumieranie	-0.04361667
-3.9054253	bezwiedny	-0.04361667
-3.9054253	wiednego	-0.04361667
-3.7445905	szumie	-0.04361667
-3.9054253	III	-0.04361667
-3.3548248	ogień	-0.04361667
-3.9054253	nasturcja	-0.04361667
-3.9054253	ślepia	-0.04361667
-3.9054253	zabieg	-0.04361667
-3.9054253	odpływać	-0.04361667
-3.9054253	liliowy	-0.04361667
-3.9054253	suńmy	-0.04361667
-3.9054253	gondola	-0.04361667
-3.9054253	lśniące	-0.04361667
-3.9054253	podświat	-0.04361667
-3.4712174	wiedza	-0.04361667
-3.7445905	zwierciadła	-0.04361667
-3.7445905	zmrok	-0.04361667
-3.9054253	posępny	-0.04361667
-3.9054253	tańcem	-0.04361667
-3.9054253	snuć	-0.04361667
-3.9054253	zmowa	-0.04361667
-3.9054253	mgławieć	-0.04361667
-3.9054253	zaczynać	-0.04361667
-3.9054253	błękitnawieć	-0.04361667
-3.9054253	wygodny	-0.04361667
-3.9054253	wyminąć	-0.04361667
-3.9054253	niezużyty	-0.04361667
-3.9054253	swobodny	-0.04361667
-3.9054253	zapłotk	-0.04361667
-3.9054253	stodół	-0.04361667
-3.9054253	zewsząd	-0.04361667
-3.9054253	znikąd	-0.04361667
-3.9054253	narów	-0.04361667
-3.9054253	przymrz	-0.04361667
-3.9054253	znieść	-0.04361667
-3.9054253	powiązać	-0.04361667
-3.9054253	boczyć	-0.04361667
-3.7445905	przeminąć	-0.29688033
-3.9054253	obłoka	-0.04361667
-3.9054253	nadwyżka	-0.04361667
-3.4712174	płonąć	-0.04361667
-3.7445905	stóg	-0.04361667
-3.7445905	rozłóg	-0.29688033
-3.7445905	lśnić	-0.04361667
-3.9054253	wiejski	-0.04361667
-3.7445905	wieś	-0.04361667
-3.7445905	wysiłek	-0.04361667
-3.6307049	marzenie	-0.043616697
-3.9054253	przymuszam	-0.04361667
-3.7445905	przymus	-0.04361667
-3.7445905	wzbrać	-0.29688033
-3.9054253	zmyślić	-0.04361667
-3.7445905	naznaczyć	-0.04361667
-3.7445905	spotkanie	-0.04361667
-3.7445905	nęcą	-0.04361667
-3.9054253	naoczny	-0.04361667
-3.6307049	rozkwit	-0.3746773
-3.9054253	opóźnić	-0.04361667
-3.7445905	zjawiyć	-0.04361667
-3.9054253	wybiegnąć	-0.04361667
-3.9054253	znużić	-0.04361667
-3.6307049	wracać	-0.043616697
-3.9054253	wadzić	-0.04361667
-3.7445905	spódnica	-0.04361667
-3.9054253	dziewanna	-0.04361667
-3.9054253	bezgłośny	-0.04361667
-3.9054253	jednoczesny	-0.04361667
-3.7445905	nieznośny	-0.04361667
-3.9054253	szły	-0.04361667
-3.7445905	dowieść	-0.04361667
-3.9054253	dbały	-0.04361667
-3.3548248	zorza	-0.12808365
-3.9054253	wkraczać	-0.04361667
-3.9054253	opowieść	-0.04361667
-3.9054253	wskroś	-0.04361667
-3.9054253	wypełniać	-0.04361667
-3.9054253	miedza	-0.04361667
-3.9054253	rozchylać	-0.04361667
-3.9054253	śpiewu	-0.04361667
-3.9054253	niemota	-0.04361667
-3.9054253	drętwy	-0.04361667
-3.9054253	beznadziejny	-0.04361667
-3.9054253	wyśnić	-0.04361667
-3.9054253	prawda	-0.043616697
-3.9054253	śnijmy	-0.04361667
-3.9054253	cierpliwy	-0.04361667
-3.9054253	powinien	-0.04361667
-3.9054253	głębiom	-0.04361667
-3.1874514	strumień	-0.21433039
-3.9054253	chyli	-0.04361667
-3.7445905	ściekając	-0.04361667
-3.3548248	złot	-0.21113552
-3.9054253	płynny	-0.04361667
-3.9054253	bielać	-0.04361667
-3.9054253	czereśnia	-0.04361667
-3.9054253	chylę	-0.04361667
-3.9054253	chylą	-0.04361667
-3.6307049	skronie	-0.1951684
-3.9054253	przechodzić	-0.04361667
-3.9054253	nagłą	-0.04361667
-3.9054253	dąbrowę	-0.04361667
-3.9054253	ustron	-0.04361667
-3.9054253	upatrzywszy	-0.04361667
-3.9054253	sieć	-0.04361667
-3.9054253	idącym	-0.04361667
-3.9054253	rozkwitać	-0.04361667
-3.9054253	zakląć	-0.04361667
-3.9054253	pierwszyzny	-0.04361667
-3.9054253	nieprzewidziać	-0.04361667
-3.9054253	bujny	-0.04361667
-3.9054253	żyzna	-0.04361667
-3.9054253	przemieszać	-0.04361667
-3.9054253	zorz	-0.04361667
-3.9054253	widnokręg	-0.04361667
-3.9054253	mnożyć	-0.04361667
-3.9054253	ukośny	-0.04361667
-3.9054253	wysnuły	-0.04361667
-3.9054253	upaść	-0.04361667
-3.6307049	błędny	-0.043616697
-3.7445905	zliczyć	-0.04361667
-3.9054253	tłum	-0.04361667
-3.066938	fala	-0.11189151
-3.7445905	liczba	-0.04361667
-3.7445905	określić	-0.04361667
-3.9054253	żywcem	-0.043616697
-3.7445905	spad	-0.29688033
-3.7445905	rozwarty	-0.04361667
-3.9054253	skrzić	-0.04361667
-3.9054253	lipcowy	-0.04361667
-3.9054253	głuchy	-0.04361667
-3.9054253	dogas	-0.04361667
-3.9054253	sierpniowy	-0.04361667
-3.9054253	miesiąc	-0.04361667
-3.7445905	zmącić	-0.04361667
-3.9054253	lipce	-0.04361667
-3.6307049	przemijać	-0.1951684
-3.9054253	przemijając	-0.04361667
-3.9054253	niczyjy	-0.04361667
-3.9054253	znakować	-0.04361667
-3.9054253	pąć	-0.04361667
-3.9054253	przebyć	-0.04361667
-3.2631245	woda	-0.11281513
-3.9054253	spiętrz	-0.04361667
-3.9054253	przegroda	-0.04361667
-3.9054253	błąkać	-0.04361667
-3.9054253	dotykać	-0.04361667
-3.9054253	błękitność	-0.04361667
-3.9054253	niebytność	-0.04361667
-3.9054253	grusz	-0.04361667
-3.9054253	śliwka	-0.04361667
-3.9054253	bezład	-0.04361667
-3.9054253	siadać	-0.04361667
-3.9054253	rząd	-0.04361667
-3.9054253	przyśniwka	-0.04361667
-3.9054253	niewola	-0.04361667
-3.7445905	bić	-0.04361667
-3.9054253	pozyskać	-0.04361667
-3.7445905	strata	-0.04361667
-3.9054253	słodszy	-0.04361667
-3.7445905	chór	-0.04361667
-3.9054253	przytrzymuć	-0.04361667
-3.9054253	dośni	-0.04361667
-3.7445905	gasnąć	-0.29688033
-3.9054253	tlić	-0.04361667
-3.9054253	wyszkarłatniać	-0.04361667
-3.9054253	rozwiewać	-0.04361667
-3.9054253	zakres	-0.04361667
-3.9054253	śnieżyca	-0.04361667
-3.9054253	zamieć	-0.04361667
-3.9054253	kręeg	-0.04361667
-3.9054253	czyjaś	-0.04361667
-3.9054253	sić	-0.04361667
-3.9054253	posąg	-0.04361667
-3.9054253	okamieć	-0.04361667
-3.9054253	ociemniałej	-0.04361667
-3.9054253	znikłaś	-0.04361667
-3.9054253	niedomknięty	-0.04361667
-3.9054253	zbladłaś	-0.04361667
-3.9054253	schorzać	-0.04361667
-3.9054253	znajdźmy	-0.04361667
-3.9054253	zakochajmy	-0.043616697
-3.7445905	otchłania	-0.04361667
-3.9054253	powtórny	-0.04361667
-3.6307049	zbawienie	-0.3746773
-3.7445905	opór	-0.04361667
-3.3548248	krwawy	-0.043616697
-3.9054253	wyzuciem	-0.04361667
-3.9054253	przeczuco	-0.04361667
-3.1874514	pragnąć	-0.04361667
-3.7445905	spełnić	-0.04361667
-3.9054253	strzęp	-0.04361667
-3.9054253	szumny	-0.04361667
-3.9054253	rozszarpać	-0.04361667
-3.9054253	sękata	-0.04361667
-3.9054253	zranić	-0.04361667
-3.9054253	odwaga	-0.04361667
-3.9054253	ociemniały	-0.04361667
-3.9054253	malinowy	-0.04361667
-3.9054253	chruśniak	-0.04361667
-3.9054253	ciekawy	-0.04361667
-3.6307049	zapodziać	-0.043616697
-3.9054253	długi	-0.04361667
-3.9054253	przybyły	-0.04361667
-3.6307049	malina	-0.043616697
-3.9054253	miałaś	-0.04361667
-3.9054253	skrwawione	-0.04361667
-3.7445905	sok	-0.29688033
-3.9054253	złośnik	-0.04361667
-3.9054253	huczać	-0.04361667
-3.9054253	bas	-0.04361667
-3.9054253	straszyć	-0.04361667
-3.4712174	rdzawy	-0.26550472
-3.9054253	guz	-0.04361667
-3.9054253	złachmaniałych	-0.04361667
-3.9054253	pajęczyna	-0.04361667
-3.7445905	skrzyć	-0.04361667
-3.9054253	wisior	-0.04361667
-3.7445905	tył	-0.04361667
-3.6307049	żuk	-0.043616697
-3.9054253	kosmat	-0.04361667
-3.7445905	szepczić	-0.04361667
-3.7445905	rwać	-0.04361667
-3.3548248	szept	-0.04361667
-3.9054253	nacichać	-0.04361667
-3.9054253	wargo	-0.04361667
-3.9054253	wygarniać	-0.04361667
-3.6307049	podać	-0.043616697
-3.4712174	owoc	-0.04361667
-3.9054253	przepojyć	-0.04361667
-3.9054253	narzędzie	-0.04361667
-3.6307049	zdziwiony	-0.043616697
-3.9054253	powtarzać	-0.04361667
-3.9054253	okamgnienie	-0.04361667
-3.9054253	dotknąć	-0.04361667
-3.9054253	spocony	-0.04361667
-3.9054253	oddałaś	-0.04361667
-3.6307049	skupienie	-0.1951684
-3.7445905	powiek	-0.04361667
-3.2631245	szelest	-0.1783367
-3.9054253	tawać	-0.04361667
-3.9054253	czerwieniaty	-0.04361667
-3.9054253	wiewiórka	-0.04361667
-3.9054253	skakać	-0.04361667
-3.9054253	sośninie	-0.04361667
-3.9054253	żółty	-0.04361667
-3.9054253	chwiać	-0.04361667
-3.9054253	złotawy	-0.04361667
-3.9054253	koprz	-0.04361667
-3.9054253	jabłoń	-0.04361667
-3.6307049	spadać	-0.043616697
-3.9054253	jabłko	-0.04361667
-3.9054253	spróchniały	-0.04361667
-3.9054253	spóźnić	-0.04361667
-3.9054253	opadać	-0.04361667
-3.9054253	zwiad	-0.04361667
-3.9054253	podajeć	-0.04361667
-3.1874514	miłosny	-0.09445472
-3.9054253	gryząć	-0.04361667
-3.9054253	chłona	-0.04361667
-3.9054253	zębów	-0.04361667
-3.9054253	odsłaniać	-0.04361667
-3.9054253	owionąć	-0.04361667
-3.9054253	zazdrość	-0.04361667
-3.7445905	miotać	-0.04361667
-3.9054253	dałaś	-0.04361667
-3.9054253	ostudzić	-0.04361667
-3.9054253	poniżać	-0.04361667
-3.7445905	duma	-0.04361667
-3.9054253	uczuć	-0.04361667
-3.9054253	przepycha	-0.04361667
-3.9054253	odpowiadać	-0.04361667
-3.7445905	marny	-0.04361667
-3.9054253	lichy	-0.04361667
-3.9054253	obrzydły	-0.04361667
-3.9054253	wymykać	-0.04361667
-3.7445905	przyległy	-0.04361667
-3.9054253	zaprzepaszczać	-0.04361667
-3.9054253	łkaniu	-0.04361667
-3.9054253	sklecony	-0.04361667
-3.9054253	posłać	-0.04361667
-3.9054253	leżyć	-0.04361667
-3.9054253	topielica	-0.04361667
-3.7445905	zdrój	-0.29688033
-3.9054253	milkną	-0.04361667
-3.7445905	grob	-0.04361667
-3.9054253	zwiniąć	-0.04361667
-3.9054253	wąż	-0.04361667
-3.7445905	dawać	-0.043616697
-3.9054253	znużoną	-0.04361667
-3.9054253	walka	-0.04361667
-3.9054253	pościel	-0.04361667
-3.9054253	rozemkniić	-0.04361667
-3.9054253	drogi	-0.04361667
-3.7445905	niezbędny	-0.04361667
-3.9054253	splecić	-0.04361667
-3.9054253	klęczeć	-0.04361667
-3.9054253	niedostępny	-0.04361667
-3.7445905	widzenie	-0.04361667
-3.7445905	płaczesz	-0.04361667
-3.9054253	wylękłego	-0.04361667
-3.9054253	rychły	-0.04361667
-3.9054253	niesytą	-0.04361667
-3.9054253	tulęć	-0.04361667
-3.9054253	goić	-0.04361667
-3.9054253	lgnąca	-0.04361667
-3.6307049	rano	-0.1951684
-3.9054253	biodro	-0.04361667
-3.9054253	kolano	-0.04361667
-3.9054253	zsuniąć	-0.04361667
-3.9054253	koszula	-0.04361667
-3.9054253	karmioć	-0.04361667
-3.9054253	ustęp	-0.04361667
-3.9054253	spłakanym	-0.04361667
-3.9054253	porania	-0.04361667
-3.9054253	zadaję	-0.04361667
-3.9054253	tłumiić	-0.04361667
-3.7445905	pytanie	-0.04361667
-3.6307049	słuchać	-0.043616697
-3.9054253	wyszło	-0.04361667
-3.9054253	ślepawy	-0.04361667
-3.9054253	zjesieniały	-0.04361667
-3.9054253	zmroczy	-0.04361667
-3.9054253	bezzaduma	-0.04361667
-3.9054253	nieoswojić	-0.04361667
-3.7445905	podobłocz	-0.29688033
-3.9054253	węszy	-0.04361667
-3.9054253	cielsk	-0.04361667
-3.9054253	kostropaty	-0.04361667
-3.9054253	kąpać	-0.04361667
-3.9054253	kałuża	-0.04361667
-3.9054253	ożywczy	-0.04361667
-3.9054253	jada	-0.04361667
-3.9054253	misa	-0.04361667
-3.9054253	czołgliwy	-0.04361667
-3.9054253	wysysać	-0.04361667
-3.9054253	cieklina	-0.04361667
-3.9054253	męt	-0.04361667
-3.9054253	smuży	-0.04361667
-3.9054253	zatruwać	-0.04361667
-3.7445905	gasić	-0.04361667
-3.9054253	głaszczesz	-0.04361667
-3.9054253	mruczyć	-0.04361667
-3.9054253	kor	-0.04361667
-3.9054253	łasy	-0.04361667
-3.6307049	ślepy	-0.043616697
-3.7445905	ochota	-0.04361667
-3.9054253	skinienie	-0.04361667
-3.9054253	sługa	-0.04361667
-3.9054253	me	-0.04361667
-3.9054253	zmyślna	-0.04361667
-3.7445905	zwinny	-0.04361667
-3.9054253	wybujały	-0.04361667
-3.9054253	ziela	-0.04361667
-3.9054253	tchem	-0.04361667
-3.9054253	puchar	-0.04361667
-3.9054253	ujmywać	-0.04361667
-3.9054253	prowadzić	-0.04361667
-3.9054253	radować	-0.04361667
-3.9054253	śledzyć	-0.04361667
-3.9054253	zmierzać	-0.04361667
-3.9054253	kosmać	-0.04361667
-3.9054253	niedomrocz	-0.04361667
-3.9054253	marzę	-0.04361667
-3.9054253	ryczić	-0.04361667
-3.9054253	starać	-0.04361667
-3.9054253	pierwy	-0.04361667
-3.7445905	dosięgać	-0.04361667
-3.9054253	zdążać	-0.04361667
-3.9054253	zaprzepaścić	-0.04361667
-3.9054253	tropić	-0.04361667
-3.7445905	bladość	-0.04361667
-3.9054253	wzierać	-0.04361667
-3.9054253	zgadnąć	-0.04361667
-3.6307049	omdlenie	-0.043616697
-3.9054253	nog	-0.04361667
-3.7445905	twe	-0.04361667
-3.9054253	pąk	-0.04361667
-3.9054253	mnę	-0.04361667
-3.9054253	zdrobniały	-0.04361667
-3.9054253	pięście	-0.04361667
-3.9054253	chrząstka	-0.04361667
-3.9054253	wypukleć	-0.04361667
-3.9054253	przegiba	-0.04361667
-3.9054253	pestka	-0.04361667
-3.9054253	zróżowionych	-0.04361667
-3.9054253	nieśmiały	-0.04361667
-3.7445905	garny	-0.04361667
-3.9054253	wyrój	-0.04361667
-3.9054253	zatajć	-0.04361667
-3.9054253	ciepły	-0.04361667
-3.9054253	siedziba	-0.04361667
-3.9054253	dotyk	-0.04361667
-3.9054253	wzruszenie	-0.04361667
-3.9054253	tuleć	-0.04361667
-3.7445905	mych	-0.043616697
-3.9054253	rozrzewniyć	-0.04361667
-3.9054253	dziecinniejesz	-0.04361667
-3.9054253	malejesz	-0.04361667
-3.9054253	pieszczocie	-0.04361667
-3.9054253	kołyszę	-0.04361667
-3.9054253	pochlebić	-0.04361667
-3.7445905	skryty	-0.04361667
-3.4712174	rzęsa	-0.04361667
-3.9054253	tknąć	-0.04361667
-3.9054253	wyśledzą	-0.04361667
-3.7445905	pocałunk	-0.04361667
-3.7445905	bioder	-0.04361667
-3.9054253	nawrzały	-0.04361667
-3.9054253	potarty	-0.04361667
-3.9054253	wdumały	-0.04361667
-3.9054253	wysł	-0.04361667
-3.7445905	wypatrzyć	-0.04361667
-3.9054253	wypieścić	-0.04361667
-3.4712174	rozłąka	-0.26550472
-3.9054253	niezmieniyć	-0.04361667
-3.9054253	zbiec	-0.04361667
-3.9054253	ołtarz	-0.04361667
-3.7445905	zbieg	-0.04361667
-3.9054253	skaleć	-0.04361667
-3.7445905	śmie	-0.04361667
-3.9054253	gwiezdne	-0.04361667
-3.7445905	zamiecie	-0.29688033
-3.9054253	wszechświet	-0.04361667
-3.9054253	pieszczyć	-0.04361667
-3.9054253	zrodzić	-0.04361667
-3.9054253	ujście	-0.04361667
-3.9054253	szepta	-0.04361667
-3.9054253	zamilkły	-0.04361667
-3.9054253	modlę	-0.04361667
-3.9054253	nieśmiertelność	-0.04361667
-3.9054253	zwierzyniec	-0.04361667
-3.9054253	flamingo	-0.04361667
-3.9054253	różowiejąc	-0.04361667
-3.9054253	smuc	-0.04361667
-3.7445905	skrzydlaty	-0.04361667
-3.9054253	jedwab	-0.04361667
-3.9054253	zaciszny	-0.04361667
-3.7445905	uroda	-0.04361667
-3.9054253	skupiać	-0.04361667
-3.9054253	znikliwy	-0.04361667
-3.9054253	daleczać	-0.04361667
-3.9054253	wielbłąd	-0.04361667
-3.9054253	zapłowieć	-0.04361667
-3.9054253	okryty	-0.04361667
-3.9054253	poniszczony	-0.04361667
-3.9054253	pled	-0.04361667
-3.9054253	oparcie	-0.04361667
-3.9054253	korzystać	-0.04361667
-3.9054253	pogarbioć	-0.04361667
-3.9054253	wylśni	-0.04361667
-3.9054253	plamiście	-0.04361667
-3.9054253	rozwrzaskanej	-0.04361667
-3.9054253	pilśni	-0.04361667
-3.9054253	gęstwi	-0.04361667
-3.9054253	pies	-0.04361667
-3.9054253	oszczekuć	-0.04361667
-3.9054253	poistnieć	-0.04361667
-3.9054253	prośba	-0.04361667
-3.9054253	ćmy	-0.04361667
-3.9054253	puszyściejy	-0.04361667
-3.9054253	przelocie	-0.04361667
-3.9054253	Pieszczocie	-0.04361667
-3.6307049	two	-0.04361667
-3.9054253	wrzos	-0.04361667
-3.9054253	uciszać	-0.04361667
-3.9054253	milknąc	-0.04361667
-3.9054253	spuszczać	-0.04361667
-3.7445905	śpiewie	-0.29688033
-3.9054253	nieznać	-0.04361667
-3.9054253	isbn	-0.04361667
-3.9054253	upatrzć	-0.04361667
-3.9054253	nieobecność	-0.04361667
-3.7445905	mem	-0.04361667
-3.7445905	objąć	-0.04361667
-3.9054253	pustosząc	-0.04361667
-3.9054253	rozdzwani	-0.04361667
-3.7445905	przekór	-0.04361667
-3.9054253	dziewczęć	-0.04361667
-3.4712174	nieznany	-0.043616697
-3.9054253	podjąć	-0.04361667
-3.9054253	wlec	-0.04361667
-3.7445905	morza	-0.04361667
-3.7445905	mórz	-0.04361667
-3.9054253	znuży	-0.04361667
-3.7445905	zastać	-0.04361667
-3.9054253	rozemc	-0.04361667
-3.9054253	psota	-0.04361667
-3.9054253	pewniejszy	-0.04361667
-3.9054253	boleć	-0.04361667
-3.9054253	bezbolesność	-0.04361667
-3.9054253	przynęta	-0.04361667
-3.7445905	niemoc	-0.043616697
-3.9054253	niedola	-0.04361667
-3.9054253	skierować	-0.04361667
-3.9054253	zniechętę	-0.04361667
-3.9054253	odrzeć	-0.04361667
-3.4712174	cz	-0.04361667
-3.9054253	tkniąć	-0.04361667
-3.9054253	śpiewnych	-0.04361667
-3.7445905	westchnienie	-0.04361667
-3.9054253	hałas	-0.04361667
-3.9054253	więdny	-0.04361667
-3.9054253	próżnica	-0.04361667
-3.9054253	nudy	-0.04361667
-3.9054253	spleciesz	-0.04361667
-3.9054253	temczas	-0.04361667
-3.9054253	rozplecieć	-0.04361667
-3.9054253	głaszczyć	-0.04361667
-3.9054253	szorstkość	-0.04361667
-3.9054253	atłas	-0.04361667
-3.9054253	ściągniesz	-0.04361667
-3.9054253	doba	-0.04361667
-3.9054253	zgarniać	-0.04361667
-3.7445905	słońco	-0.04361667
-3.9054253	wykrzesać	-0.04361667
-3.9054253	niewzajemność	-0.04361667
-3.9054253	zwrzeć	-0.04361667
-3.9054253	niemotą	-0.04361667
-3.9054253	zdradnać	-0.04361667
-3.9054253	przesłania	-0.04361667
-3.9054253	skazańec	-0.04361667
-3.9054253	narzucyć	-0.04361667
-3.9054253	chusta	-0.04361667
-3.9054253	piękniejszą	-0.04361667
-3.7445905	powtórzyć	-0.29688033
-3.7445905	głusza	-0.29688033
-3.9054253	odczarowany	-0.04361667
-3.9054253	mrużeć	-0.04361667
-3.9054253	Wskrzesi	-0.04361667
-3.7445905	jęk	-0.04361667
-3.9054253	pokruy	-0.04361667
-3.9054253	wszakec	-0.04361667
-3.9054253	ślepo	-0.04361667
-3.7445905	zapach	-0.04361667
-3.9054253	naśladować	-0.04361667
-3.9054253	ukochany	-0.04361667
-3.4712174	brać	-0.04361667
-3.9054253	powab	-0.04361667
-3.7445905	chrzest	-0.04361667
-3.9054253	utracić	-0.04361667
-3.9054253	posiadć	-0.04361667
-3.7445905	wyznanie	-0.04361667
-3.9054253	zapłacić	-0.04361667
-3.9054253	pojąć	-0.04361667
-3.9054253	pobladnąć	-0.04361667
-3.6307049	wstyd	-0.04361667
-3.4712174	nędza	-0.04361667
-3.9054253	odwrócyć	-0.04361667
-3.9054253	mur	-0.04361667
-3.9054253	wzajemność	-0.04361667
-3.9054253	wygnać	-0.04361667
-3.7445905	kędyś	-0.04361667
-3.9054253	podziemność	-0.04361667
-3.9054253	wieko	-0.04361667
-3.9054253	rozchylić	-0.04361667
-3.6307049	trumna	-0.1951684
-3.9054253	odjęto	-0.04361667
-3.9054253	zwracać	-0.04361667
-3.7445905	pustka	-0.04361667
-3.9054253	święto	-0.04361667
-3.9054253	zrozumień	-0.04361667
-3.6307049	ująć	-0.04361667
-3.9054253	ład	-0.04361667
-3.9054253	ścisły	-0.04361667
-3.9054253	określony	-0.04361667
-3.9054253	rozpierzchniętą	-0.04361667
-3.9054253	rozbłysły	-0.04361667
-3.9054253	wiedz	-0.04361667
-3.9054253	śledzę	-0.04361667
-3.9054253	myląć	-0.04361667
-3.7445905	domysł	-0.04361667
-3.9054253	gnać	-0.04361667
-3.9054253	bitwa	-0.04361667
-3.9054253	unieść	-0.04361667
-3.7445905	nagi	-0.04361667
-3.9054253	rozwianym	-0.04361667
-3.9054253	pomodlić	-0.04361667
-3.9054253	zasię	-0.04361667
-3.9054253	spocą	-0.04361667
-3.9054253	ustroniach	-0.04361667
-3.9054253	płyń	-0.04361667
-3.9054253	poszło	-0.04361667
-3.7445905	lament	-0.04361667
-3.9054253	skronia	-0.04361667
-3.9054253	wypłynąć	-0.04361667
-3.9054253	morski	-0.04361667
-3.9054253	odmęty	-0.04361667
-3.7445905	stary	-0.04361667
-3.7445905	modry	-0.04361667
-3.7445905	chwała	-0.29688033
-3.9054253	wnątrz	-0.04361667
-3.9054253	szumi	-0.04361667
-3.7445905	dębów	-0.04361667
-3.9054253	starość	-0.04361667
-3.9054253	zmąca	-0.04361667
-3.9054253	dęby	-0.04361667
-3.7445905	ląd	-0.04361667
-3.6307049	otchłanie	-0.1951684
-3.9054253	mórzo	-0.04361667
-3.9054253	strącać	-0.04361667
-3.9054253	przereść	-0.04361667
-3.9054253	grąż	-0.04361667
-3.7445905	robota	-0.29688033
-3.9054253	płyniesz	-0.04361667
-3.9054253	ruchomy	-0.04361667
-3.7445905	drzemać	-0.04361667
-3.1874514	skarga	-0.10222858
-3.9054253	głuchej	-0.04361667
-3.9054253	rozpanoszony	-0.04361667
-3.4712174	morze	-0.04361667
-3.9054253	skier	-0.04361667
-3.9054253	wąwoz	-0.04361667
-3.7445905	dłużyć	-0.04361667
-3.9054253	wąwóz	-0.04361667
-3.9054253	szlak	-0.04361667
-3.7445905	kruchy	-0.04361667
-3.9054253	zaczerpnąć	-0.04361667
-3.9054253	kruży	-0.04361667
-3.9054253	wychylać	-0.04361667
-3.9054253	odmęć	-0.04361667
-3.9054253	kruż	-0.04361667
-3.7445905	piana	-0.04361667
-3.9054253	spojrzę	-0.04361667
-3.9054253	lądy	-0.04361667
-3.7445905	zdać	-0.043616697
-3.7445905	spód	-0.04361667
-3.9054253	zaczajoć	-0.04361667
-3.9054253	płynę	-0.04361667
-3.9054253	słony	-0.04361667
-3.9054253	szmaragdy	-0.04361667
-3.9054253	miażdżąc	-0.04361667
-3.9054253	ukropać	-0.04361667
-3.9054253	skała	-0.04361667
-3.9054253	łono	-0.04361667
-3.9054253	widziać	-0.04361667
-3.9054253	trop	-0.04361667
-3.9054253	nasłuchuć	-0.04361667
-3.6307049	rozwiązać	-0.043616697
-3.9054253	odróżniać	-0.04361667
-3.9054253	rozpyć	-0.04361667
-3.7445905	pobyt	-0.04361667
-3.9054253	głębinie	-0.04361667
-3.9054253	znikniony	-0.04361667
-3.9054253	przeźroczu	-0.04361667
-3.9054253	stając	-0.04361667
-3.7445905	bezbrzeżny	-0.04361667
-3.9054253	rozłące	-0.04361667
-3.9054253	swem	-0.04361667
-3.9054253	niedostrzeżny	-0.04361667
-3.7445905	fal	-0.04361667
-3.9054253	pian	-0.04361667
-3.7445905	zieloność	-0.04361667
-3.9054253	śnieżny	-0.04361667
-3.9054253	wtedym	-0.04361667
-3.7445905	ujrzeć	-0.04361667
-3.7445905	rozkołysać	-0.04361667
-3.7445905	skupić	-0.04361667
-3.9054253	spowiciu	-0.04361667
-3.9054253	głębi	-0.04361667
-3.7445905	trwań	-0.29688033
-3.6307049	spoczywać	-0.043616697
-3.9054253	własno	-0.04361667
-3.7445905	odbicie	-0.29688033
-3.9054253	cokół	-0.04361667
-3.7445905	widniać	-0.04361667
-3.9054253	podwodn	-0.04361667
-3.7445905	ukrycie	-0.29688033
-3.4712174	góra	-0.04361667
-3.9054253	owad	-0.04361667
-3.9054253	wodny	-0.04361667
-3.9054253	swawole	-0.04361667
-3.9054253	wzlot	-0.04361667
-3.9054253	usilny	-0.04361667
-3.7445905	głęba	-0.04361667
-3.9054253	turkus	-0.04361667
-3.7445905	wezbrać	-0.04361667
-3.9054253	wywrócony	-0.04361667
-3.9054253	sadów	-0.04361667
-3.9054253	dojrzać	-0.04361667
-3.9054253	biegła	-0.04361667
-3.7445905	niepochwytny	-0.04361667
-3.9054253	kłus	-0.04361667
-3.9054253	mogłeś	-0.04361667
-3.7445905	rozpoznać	-0.04361667
-3.9054253	wypełnić	-0.04361667
-3.9054253	brnąłem	-0.04361667
-3.9054253	dziw	-0.04361667
-3.9054253	grzęzawica	-0.04361667
-3.9054253	oczarować	-0.04361667
-3.9054253	zarzucić	-0.04361667
-3.9054253	kotwica	-0.04361667
-3.9054253	grążyć	-0.04361667
-3.9054253	zioło	-0.04361667
-3.9054253	motylicę	-0.04361667
-3.9054253	zmącyć	-0.04361667
-3.9054253	rozchwiać	-0.04361667
-3.9054253	znikła	-0.04361667
-3.7445905	bruzd	-0.04361667
-3.9054253	tonia	-0.04361667
-3.9054253	supeł	-0.04361667
-3.9054253	wyskoczyć	-0.04361667
-3.9054253	jeszczem	-0.04361667
-3.9054253	wtłaczając	-0.04361667
-3.7445905	węszić	-0.04361667
-3.9054253	jad	-0.04361667
-3.9054253	zaczajone	-0.04361667
-3.9054253	brzęku	-0.04361667
-3.9054253	pochrzęść	-0.04361667
-3.9054253	pstrokat	-0.04361667
-3.9054253	zbryzgać	-0.04361667
-3.9054253	migot	-0.04361667
-3.9054253	złocy	-0.04361667
-3.9054253	mimolot	-0.04361667
-3.7445905	uderzyć	-0.04361667
-3.9054253	odwieczny	-0.04361667
-3.9054253	okrzyk	-0.04361667
-3.9054253	uwięźć	-0.04361667
-3.9054253	zapamiętać	-0.04361667
-3.9054253	serdeczny	-0.04361667
-3.9054253	nagromadzić	-0.04361667
-3.9054253	oku	-0.04361667
-3.9054253	got	-0.04361667
-3.9054253	długość	-0.04361667
-3.7445905	sznur	-0.04361667
-3.7445905	zuchwać	-0.04361667
-3.9054253	przezroczych	-0.04361667
-3.9054253	ciosan	-0.04361667
-3.9054253	kamień	-0.04361667
-3.9054253	nietajoną	-0.04361667
-3.9054253	wzbronność	-0.04361667
-3.9054253	wszelaki	-0.04361667
-3.4712174	świetlica	-0.15204261
-3.6307049	sień	-0.1951684
-3.9054253	ustronność	-0.04361667
-3.9054253	najdalsze	-0.04361667
-3.9054253	dozgonność	-0.04361667
-3.9054253	siódmy	-0.04361667
-3.7445905	kraj	-0.04361667
-3.9054253	dziesiąty	-0.04361667
-3.9054253	wiążyć	-0.04361667
-3.9054253	trójkąty	-0.04361667
-3.9054253	wstrząsnąć	-0.04361667
-3.9054253	żmija	-0.04361667
-3.9054253	idącą	-0.04361667
-3.9054253	niczyja	-0.04361667
-3.6307049	dzielić	-0.1951684
-3.9054253	hen	-0.04361667
-3.9054253	tajać	-0.04361667
-3.9054253	krz	-0.04361667
-3.9054253	zaniedbawszy	-0.04361667
-3.9054253	nieruchomiać	-0.04361667
-3.7445905	wstrzymać	-0.04361667
-3.9054253	zemdlać	-0.04361667
-3.9054253	wpatrzić	-0.04361667
-3.7445905	upojny	-0.04361667
-3.9054253	świetlico	-0.04361667
-3.9054253	godzino	-0.04361667
-3.9054253	przygoda	-0.04361667
-3.9054253	rozmowa	-0.04361667
-3.9054253	zawrocie	-0.04361667
-3.9054253	szalać	-0.04361667
-3.9054253	wejrzeń	-0.04361667
-3.9054253	jałowy	-0.04361667
-3.9054253	pochwalić	-0.04361667
-3.9054253	ściać	-0.04361667
-3.9054253	utaić	-0.04361667
-3.9054253	ziemio	-0.04361667
-3.9054253	ziemny	-0.04361667
-3.6307049	wzajemny	-0.1951684
-3.9054253	pozbawiaj	-0.04361667
-3.7445905	wszystki	-0.04361667
-3.9054253	szeroki	-0.04361667
-3.9054253	dlateg	-0.04361667
-3.9054253	zbudować	-0.04361667
-3.9054253	gwiazd	-0.04361667
-3.9054253	bąk	-0.04361667
-3.7445905	samotność	-0.04361667
-3.9054253	utrudzać	-0.04361667
-3.9054253	przezroczy	-0.04361667
-3.9054253	postój	-0.04361667
-3.9054253	nieustanność	-0.04361667
-3.9054253	poić	-0.04361667
-3.9054253	doznajeć	-0.04361667
-3.9054253	lica	-0.04361667
-3.9054253	różowość	-0.04361667
-3.9054253	uważ	-0.04361667
-3.9054253	niechcenie	-0.04361667
-3.9054253	samotnica	-0.04361667
-3.2631245	wyspa	-0.04361667
-3.9054253	ojczyzna	-0.04361667
-3.9054253	rodzice	-0.04361667
-3.9054253	błąka	-0.04361667
-3.9054253	ujrzan	-0.04361667
-3.7445905	traf	-0.04361667
-3.9054253	stworzyć	-0.04361667
-3.9054253	białośnieżny	-0.04361667
-3.7445905	rozśpiewać	-0.043616697
-3.7445905	zgiełk	-0.04361667
-3.9054253	kołysze	-0.04361667
-3.9054253	znojny	-0.04361667
-3.9054253	zaniedysić	-0.04361667
-3.7445905	ogni	-0.04361667
-3.7445905	szkarłata	-0.29688033
-3.6307049	barwa	-0.043616697
-3.9054253	ostateczność	-0.04361667
-3.9054253	bogaty	-0.04361667
-3.9054253	kwiecie	-0.04361667
-3.9054253	zrywałam	-0.04361667
-3.9054253	odruch	-0.04361667
-3.9054253	obcy	-0.04361667
-3.9054253	zdradziecko	-0.04361667
-3.9054253	wesoła	-0.04361667
-3.9054253	niewidzialność	-0.04361667
-3.9054253	szumiącą	-0.04361667
-3.7445905	urwisko	-0.04361667
-3.9054253	głuch	-0.04361667
-3.9054253	upalność	-0.04361667
-3.7445905	przelot	-0.29688033
-3.9054253	mżyć	-0.04361667
-3.9054253	oddalność	-0.04361667
-3.9054253	wszystk	-0.04361667
-3.9054253	utwierdzić	-0.04361667
-3.9054253	namiot	-0.04361667
-3.9054253	rozszeleścić	-0.04361667
-3.9054253	zamierzyć	-0.04361667
-3.9054253	wysłuchać	-0.04361667
-3.9054253	szeptany	-0.04361667
-3.9054253	rozszerzć	-0.04361667
-3.9054253	odgarniać	-0.04361667
-3.7445905	natrętny	-0.04361667
-3.9054253	uwaga	-0.04361667
-3.9054253	ochoczej	-0.04361667
-3.9054253	załamuć	-0.04361667
-3.9054253	zwalczyć	-0.04361667
-3.9054253	jedn	-0.04361667
-3.9054253	wymówić	-0.04361667
-3.9054253	dwudziest	-0.04361667
-3.9054253	zabijmy	-0.04361667
-3.9054253	nieostrożny	-0.04361667
-3.9054253	rozdrożna	-0.04361667
-3.9054253	wyrzucić	-0.04361667
-3.9054253	rozdwojony	-0.04361667
-3.9054253	picie	-0.04361667
-3.9054253	zaszumiać	-0.04361667
-3.9054253	wschód	-0.04361667
-3.9054253	senniej	-0.04361667
-3.6307049	rozkaz	-0.3746773
-3.9054253	współbarwę	-0.04361667
-3.9054253	włoso	-0.04361667
-3.9054253	poranek	-0.04361667
-3.9054253	złocistowłosy	-0.04361667
-3.9054253	mroka	-0.04361667
-3.9054253	ciemnieć	-0.04361667
-3.9054253	zmierzchać	-0.04361667
-3.9054253	kruczy	-0.04361667
-3.9054253	czarnobrewa	-0.04361667
-3.9054253	pić	-0.04361667
-3.7445905	przemiana	-0.04361667
-3.7445905	darować	-0.04361667
-3.9054253	rozlać	-0.04361667
-3.9054253	jagoda	-0.04361667
-3.9054253	wonność	-0.04361667
-3.9054253	wywianej	-0.04361667
-3.9054253	cudów	-0.04361667
-3.3548248	ramion	-0.04361667
-3.9054253	spójnia	-0.04361667
-3.9054253	niezrozumień	-0.04361667
-3.9054253	dziwa	-0.04361667
-3.7445905	niepokój	-0.04361667
-3.9054253	tułaczy	-0.04361667
-3.9054253	mży	-0.04361667
-3.9054253	objęcia	-0.04361667
-3.9054253	wieczorniać	-0.04361667
-3.9054253	spytać	-0.04361667
-3.9054253	zdyszany	-0.04361667
-3.9054253	podziw	-0.04361667
-3.9054253	macoszej	-0.04361667
-3.9054253	zmieniać	-0.04361667
-3.9054253	przebarwiać	-0.04361667
-3.9054253	czaić	-0.04361667
-3.6307049	płoszy	-0.1951684
-3.9054253	przeróżność	-0.04361667
-3.9054253	wszechmożliwość	-0.04361667
-3.9054253	wszechniespodzianość	-0.04361667
-3.9054253	uśmiechnięty	-0.04361667
-3.9054253	niezrozumieć	-0.04361667
-3.9054253	znojność	-0.04361667
-3.9054253	różaność	-0.04361667
-3.9054253	szumiący	-0.04361667
-3.9054253	pijaność	-0.04361667
-3.9054253	zrozumiać	-0.04361667
-3.9054253	niechcący	-0.04361667
-3.9054253	dziwy	-0.04361667
-3.9054253	wliczyć	-0.04361667
-3.9054253	objęć	-0.04361667
-3.9054253	gorący	-0.04361667
-3.9054253	wszarpnąć	-0.04361667
-3.9054253	kiężyca	-0.04361667
-3.9054253	wielkie	-0.04361667
-3.9054253	czernieć	-0.04361667
-3.7445905	lazur	-0.29688033
-3.9054253	pląsać	-0.04361667
-3.7445905	rozbłysk	-0.29688033
-3.9054253	przekorny	-0.04361667
-3.9054253	schronisko	-0.04361667
-3.7445905	rank	-0.04361667
-3.7445905	zaranny	-0.04361667
-3.7445905	wieczorny	-0.04361667
-3.9054253	bezkresna	-0.04361667
-3.9054253	jeziorną	-0.04361667
-3.9054253	polno	-0.04361667
-3.9054253	leśno	-0.04361667
-3.7445905	gęstwę	-0.04361667
-3.4712174	drzewny	-0.15204261
-3.9054253	rówieśną	-0.04361667
-3.9054253	dzisiaj	-0.04361667
-3.9054253	rozwiewny	-0.04361667
-3.9054253	śnieżność	-0.04361667
-3.9054253	sanny	-0.04361667
-3.9054253	rozszalały	-0.04361667
-3.9054253	szepniesz	-0.04361667
-3.9054253	wolisz	-0.04361667
-3.9054253	obydwóm	-0.04361667
-3.9054253	zarówność	-0.04361667
-3.9054253	oddajem	-0.04361667
-3.9054253	przysiąż	-0.04361667
-3.9054253	posłanie	-0.04361667
-3.9054253	zdźwigniesz	-0.04361667
-3.9054253	czuwanie	-0.04361667
-3.9054253	wzór	-0.04361667
-3.9054253	lud	-0.04361667
-3.9054253	bezrozłąkę	-0.04361667
-3.9054253	uląkć	-0.04361667
-3.9054253	ukryt	-0.04361667
-3.9054253	zwyczajny	-0.04361667
-3.9054253	ruczajny	-0.04361667
-3.9054253	wyznawać	-0.04361667
-3.9054253	mimowolność	-0.04361667
-3.9054253	chciwy	-0.04361667
-3.9054253	swoboda	-0.04361667
-3.9054253	rozstajnej	-0.04361667
-3.7445905	niezdolność	-0.04361667
-3.9054253	zbiegniesz	-0.04361667
-3.9054253	głucha	-0.04361667
-3.9054253	bezleśność	-0.04361667
-3.9054253	nudny	-0.04361667
-3.9054253	bezpolność	-0.04361667
-3.9054253	przysięgać	-0.04361667
-3.9054253	rozstanie	-0.04361667
-3.9054253	ujda	-0.04361667
-3.9054253	objęcie	-0.04361667
-3.9054253	zamrocz	-0.04361667
-3.9054253	przerwa	-0.04361667
-3.9054253	nade	-0.04361667
-3.9054253	bezmiarach	-0.04361667
-3.9054253	bujność	-0.04361667
-3.7445905	potęga	-0.29688033
-3.9054253	stłumić	-0.04361667
-3.9054253	zawrot	-0.04361667
-3.6307049	przysięga	-0.04361667
-3.9054253	srebrn	-0.04361667
-3.9054253	bezdrożem	-0.04361667
-3.9054253	księżycowy	-0.04361667
-3.9054253	kibić	-0.04361667
-3.7445905	szereg	-0.29688033
-3.7445905	taniec	-0.04361667
-3.9054253	zakłócć	-0.04361667
-3.9054253	ciężyć	-0.04361667
-3.9054253	nagość	-0.04361667
-3.7445905	śpiewającą	-0.04361667
-3.9054253	przegiąć	-0.04361667
-3.9054253	przegięty	-0.04361667
-3.9054253	skonu	-0.04361667
-3.9054253	mącą	-0.04361667
-3.9054253	spodziewać	-0.04361667
-3.9054253	czylim	-0.04361667
-3.9054253	przeczuwać	-0.04361667
-3.7445905	powrócić	-0.04361667
-3.9054253	osnuwać	-0.04361667
-3.9054253	żeglarz	-0.04361667
-3.9054253	zabłąkać	-0.04361667
-3.9054253	baśnie	-0.04361667
-3.7445905	naokół	-0.04361667
-3.9054253	wysnówny	-0.04361667
-3.7445905	błysk	-0.04361667
-3.9054253	dorównać	-0.04361667
-3.9054253	zbezwładnić	-0.04361667
-3.7445905	córka	-0.04361667
-3.9054253	umiedzieć	-0.04361667
-3.9054253	wrota	-0.04361667
-3.9054253	zakłócić	-0.04361667
-3.9054253	rozewrzeć	-0.04361667
-3.9054253	jasność	-0.04361667
-3.4712174	przepych	-0.04361667
-3.7445905	przywrócić	-0.04361667
-3.7445905	weselić	-0.04361667
-3.9054253	smucić	-0.04361667
-3.9054253	cienie	-0.04361667
-3.9054253	legł	-0.04361667
-3.7445905	zegar	-0.04361667
-3.9054253	kroczyć	-0.04361667
-3.9054253	kij	-0.04361667
-3.9054253	pastuszy	-0.04361667
-3.9054253	zuchwały	-0.04361667
-3.9054253	jako	-0.04361667
-3.9054253	oduczyć	-0.04361667
-3.9054253	pochłaniać	-0.04361667
-3.7445905	łonie	-0.29688033
-3.9054253	całuć	-0.04361667
-3.9054253	wzięty	-0.04361667
-3.9054253	przenosić	-0.04361667
-3.9054253	skradziyć	-0.04361667
-3.9054253	rozminąć	-0.04361667
-3.7445905	szale	-0.29688033
-3.9054253	przeciwszałe	-0.04361667
-3.9054253	okrutny	-0.04361667
-3.9054253	odbierzeć	-0.04361667
-3.9054253	złamać	-0.04361667
-3.6307049	wiosna	-0.21113552
-3.9054253	harfa	-0.04361667
-3.9054253	struna	-0.04361667
-3.9054253	harfiać	-0.04361667
-3.9054253	wierność	-0.04361667
-3.9054253	zemszczy	-0.04361667
-3.9054253	niewyśpiewany	-0.04361667
-3.7445905	róż	-0.04361667
-3.9054253	żuek	-0.04361667
-3.9054253	roić	-0.04361667
-3.9054253	mr	-0.04361667
-3.7445905	odpowiedzieć	-0.04361667
-3.9054253	gniewny	-0.04361667
-3.9054253	dwoistość	-0.04361667
-3.9054253	baśnia	-0.04361667
-3.9054253	rozdwój	-0.04361667
-3.9054253	czerń	-0.04361667
-3.9054253	hebanowy	-0.04361667
-3.9054253	zmienny	-0.04361667
-3.9054253	przerzutność	-0.04361667
-3.9054253	zachwyt	-0.04361667
-3.9054253	heban	-0.04361667
-3.9054253	oczywistość	-0.04361667
-3.9054253	spadły	-0.04361667
-3.9054253	sycąć	-0.04361667
-3.6307049	miecz	-0.043616697
-3.9054253	rozciąć	-0.04361667
-3.9054253	zdrzemnę	-0.04361667
-3.9054253	rubinowy	-0.04361667
-3.9054253	wyśledzić	-0.04361667
-3.9054253	morderstwo	-0.04361667
-3.9054253	odbywać	-0.04361667
-3.9054253	poszlak	-0.04361667
-3.9054253	poszepnąć	-0.04361667
-3.9054253	zgadliwy	-0.04361667
-3.9054253	oswojoną	-0.04361667
-3.9054253	wzięć	-0.04361667
-3.9054253	gadzina	-0.04361667
-3.9054253	parzyć	-0.04361667
-3.9054253	kołyszić	-0.04361667
-3.9054253	kołyszesz	-0.04361667
-3.7445905	siny	-0.29688033
-3.9054253	upojona	-0.04361667
-3.9054253	przekleństwo	-0.04361667
-3.9054253	krwawo	-0.04361667
-3.9054253	płonić	-0.04361667
-3.9054253	obwieszczyć	-0.04361667
-3.7445905	ulżyć	-0.043616697
-3.9054253	wspomnieć	-0.04361667
-3.9054253	wysłowienie	-0.04361667
-3.9054253	znęcić	-0.04361667
-3.7445905	kraina	-0.04361667
-3.7445905	jawny	-0.04361667
-3.9054253	namiętny	-0.04361667
-3.6307049	owy	-0.043616697
-3.9054253	chcenie	-0.04361667
-3.9054253	doszczętny	-0.04361667
-3.9054253	bezmiara	-0.04361667
-3.9054253	niechętny	-0.04361667
-3.9054253	niechęć	-0.04361667
-3.7445905	Jarach	-0.04361667
-3.9054253	zaglądać	-0.04361667
-3.9054253	Księżyc	-0.04361667
-3.9054253	zostać	-0.04361667
-3.9054253	mdły	-0.04361667
-3.9054253	zapatrzć	-0.04361667
-3.9054253	zniechęcenie	-0.04361667
-3.7445905	łączyć	-0.04361667
-3.9054253	różnica	-0.04361667
-3.6307049	przewina	-0.3746773
-3.9054253	przynęcą	-0.04361667
-3.9054253	otoczyć	-0.04361667
-3.9054253	nieść	-0.04361667
-3.9054253	udać	-0.04361667
-3.9054253	gonić	-0.04361667
-3.9054253	pokonać	-0.04361667
-3.9054253	depczeć	-0.04361667
-3.9054253	napotkać	-0.04361667
-3.9054253	cudo	-0.04361667
-3.9054253	pchnąć	-0.04361667
-3.9054253	pieszcać	-0.04361667
-3.9054253	pochyłość	-0.04361667
-3.9054253	żądz	-0.04361667
-3.9054253	zawiłość	-0.04361667
-3.9054253	rozstrzygnąć	-0.04361667
-3.9054253	znojni	-0.04361667
-3.9054253	żarliwsze	-0.04361667
-3.9054253	odechciewać	-0.04361667
-3.9054253	znieczulenie	-0.04361667
-3.9054253	roztargnienie	-0.04361667
-3.7445905	różowy	-0.04361667
-3.9054253	orgnam	-0.04361667
-3.9054253	conocny	-0.04361667
-3.9054253	dojrzewać	-0.04361667
-3.9054253	ssąc	-0.04361667
-3.9054253	jadowity	-0.04361667
-3.9054253	szedć	-0.04361667
-3.9054253	ponęt	-0.04361667
-3.9054253	niemiłować	-0.04361667
-3.9054253	zatoka	-0.04361667
-3.9054253	bezrozumny	-0.04361667
-3.9054253	rozradować	-0.04361667
-3.9054253	przyśnić	-0.04361667
-3.9054253	niemiłowanie	-0.04361667
-3.9054253	dziewczęcie	-0.04361667
-3.9054253	skora	-0.04361667
-3.9054253	znojć	-0.04361667
-3.9054253	koralom	-0.04361667
-3.9054253	zwiększyć	-0.04361667
-3.9054253	ujęcie	-0.04361667
-3.9054253	przydawać	-0.04361667
-3.9054253	żalom	-0.04361667
-3.9054253	cierni	-0.04361667
-3.9054253	czeszić	-0.04361667
-3.9054253	wzbraniające	-0.04361667
-3.9054253	kł	-0.04361667
-3.9054253	tygrys	-0.04361667
-3.9054253	wybór	-0.04361667
-3.9054253	zdruzgoczy	-0.04361667
-3.7445905	mój	-0.04361667
-3.9054253	zielonoście	-0.04361667
-3.7445905	jąć	-0.043616697
-3.7445905	szerzyć	-0.04361667
-3.9054253	przygasło	-0.04361667
-3.9054253	gwiazdozbiór	-0.04361667
-3.9054253	zmiana	-0.04361667
-3.9054253	odwrzasło	-0.04361667
-3.9054253	czucie	-0.04361667
-3.9054253	opętać	-0.04361667
-3.9054253	oszaleć	-0.04361667
-3.9054253	dopalać	-0.04361667
-3.9054253	przebierać	-0.04361667
-3.9054253	światłach	-0.04361667
-3.9054253	zamierzchć	-0.04361667
-3.9054253	oddalać	-0.04361667
-3.9054253	drapieżność	-0.04361667
-3.9054253	purpurach	-0.04361667
-3.9054253	pokładły	-0.04361667
-3.9054253	piętro	-0.04361667
-3.9054253	obłoek	-0.04361667
-3.9054253	paszcza	-0.04361667
-3.7445905	zwikłać	-0.04361667
-3.9054253	dzwoniących	-0.04361667
-3.9054253	potok	-0.04361667
-3.9054253	łokc	-0.04361667
-3.7445905	brzemię	-0.04361667
-3.9054253	wrog	-0.04361667
-3.9054253	podział	-0.04361667
-3.9054253	przyodziać	-0.04361667
-3.9054253	zwieczorniać	-0.04361667
-3.7445905	biela	-0.04361667
-3.9054253	zgadywać	-0.04361667
-3.9054253	lista	-0.04361667
-3.9054253	wkraść	-0.04361667
-3.9054253	przelotny	-0.04361667
-3.9054253	czyjś	-0.04361667
-3.9054253	spoczynek	-0.04361667
-3.9054253	robotć	-0.04361667
