\data\
ngram 1=4168
ngram 2=9413
ngram 3=9578
ngram 4=8261
ngram 5=6747
ngram 6=5241

\1-grams:
-4.0159345	<unk>	0
0	<s>	-0.8453524
-0.8517525	</s>	0
-2.5380921	persname	-0.08260421
-3.9158127	cienisty	-0.042385377
-3.9158127	płomienny	-0.042385377
-3.45959	uśmiech	-0.042385377
-3.9158127	nietrwałych	-0.042385377
-3.9158127	zórz	-0.042385377
-2.3687797	o	-0.078034215
-3.9158127	złoć	-0.042385377
-1.7555422	się	-0.12703961
-3.9158127	dłużej	-0.042385377
-3.6182926	umiera	-0.042385377
-2.5711758	już	-0.15251568
-1.6114964	i	-0.0934369
-2.7899768	jeszcze	-0.042385377
-3.6182926	jedna	-0.042385377
-2.0328784	z	-0.06759709
-3.9158127	różowych	-0.042385377
-3.45959	chmur	-0.042385377
-3.45959	skrajem	-0.10683555
-3.9158127	dogasa	-0.042385377
-1.9312828	na	-0.09292935
-3.9158127	grzbiecie	-0.042385377
-3.9158127	gór	-0.042385377
-3.3436139	jeden	-0.042385377
-3.9158127	przeżyty	-0.042385377
-3.6182926	dzień	-0.042385377
-3.9158127	odchodzi	-0.042385377
-1.5169569	w	-0.12405503
-3.3436139	cień	-0.042385377
-3.9158127	----	-0.042385377
-3.9158127	leśna	-0.042385377
-3.9158127	krajobraz	-0.042385377
-3.9158127	utracony	-0.042385377
-3.45959	czemu	-0.042385347
-3.45959	obcą	-0.042385377
-2.4142175	mi	-0.11929713
-3.9158127	wioskę	-0.042385377
-3.9158127	zwykłych	-0.042385377
-3.9158127	lip	-0.042385377
-3.9158127	gromadą	-0.042385377
-3.7327685	wspominam	-0.042385377
-2.1725514	jak	-0.1372871
-3.9158127	dostępną	-0.042385377
-3.45959	niegdyś	-0.042385377
-3.7327685	tajemnicę	-0.18254548
-2.7365134	gdzie	-0.04948974
-3.7327685	owiec	-0.042385377
-3.9158127	znakowanych	-0.042385377
-3.9158127	natłoczone	-0.042385377
-3.9158127	stado	-0.042385377
-3.9158127	napełniło	-0.042385377
-3.9158127	znikłą	-0.042385377
-3.2521718	zawsze	-0.06702997
-3.9158127	ulicę	-0.042385377
-3.45959	dziś	-0.042385377
-2.6260679	we	-0.25198025
-3.9158127	wspomnieniu	-0.042385377
-2.4517155	tak	-0.062034268
-3.45959	pilnie	-0.042385377
-2.921923	je	-0.042385377
-3.7327685	śledzę	-0.042385377
-3.6182926	orgname	-0.042385377
-3.7327685	każdy	-0.042385377
-2.7899768	snem	-0.078756
-3.9158127	sprawdzony	-0.042385377
-3.9158127	odtwarzam	-0.042385377
-3.9158127	zawzięcie	-0.042385377
-3.2521718	czas	-0.042385377
-3.9158127	mijał	-0.042385377
-3.45959	one	-0.042385377
-3.45959	czasu	-0.042385377
-3.9158127	wbłądziły	-0.042385377
-3.9158127	niewiedzę	-0.042385377
-2.7899768	nagle	-0.10882294
-3.9158127	bezładniejąc	-0.042385377
-3.9158127	znikły	-0.042385377
-3.9158127	zakręcie	-0.042385377
-3.7327685	czuję	-0.042385377
-3.1766741	piersi	-0.042385377
-3.9158127	zdławiony	-0.042385377
-3.45959	płacz	-0.042385377
-3.9158127	boży	-0.042385377
-3.2521718	myśl	-0.08427261
-2.263891	że	-0.12264008
-2.08015	nie	-0.09483381
-3.9158127	zaszumią	-0.042385377
-3.9158127	tamtych	-0.042385377
-3.7327685	pól	-0.042385377
-3.9158127	powiewy	-0.042385377
-3.9158127	rozwidnią	-0.042385377
-3.6182926	światłem	-0.042385377
-3.45959	tamtej	-0.042385377
-3.9158127	zorzy	-0.042385377
-3.9158127	zgubioną	-0.042385377
-3.9158127	wełną	-0.042385377
-3.9158127	pośmiecone	-0.042385377
-3.9158127	krzewy	-0.042385377
-3.6182926	dziewczyna	-0.042385377
-3.2521718	przed	-0.08427261
-3.9158127	zwierciadłem	-0.042385377
-3.7327685	zwierciadło	-0.042385377
-3.0563846	moje	-0.042385403
-3.9158127	bezdenny	-0.042385377
-3.7327685	strumieniu	-0.042385377
-3.9158127	tajemnych	-0.042385377
-3.9158127	zwierzeń	-0.042385377
-3.9158127	odwzorny	-0.042385377
-3.9158127	krysztale	-0.042385377
-2.3909047	po	-0.094649814
-3.7327685	jakim	-0.042385377
-3.9158127	żwirze	-0.042385377
-3.9158127	kamieniu	-0.042385377
-3.7327685	otchłani	-0.042385377
-3.45959	otchłań	-0.08427261
-3.9158127	włóczyłeś	-0.042385377
-3.0067928	swe	-0.06473089
-3.7327685	fale	-0.042385377
-3.9158127	nimeś	-0.042385377
-3.9158127	wytropił	-0.042385377
-3.3436139	sny	-0.042385377
-3.9158127	dotarł	-0.042385377
-2.272446	do	-0.05959397
-3.3436139	mej	-0.042385377
-3.9158127	sypialni	-0.042385377
-3.9158127	zbielałej	-0.042385377
-2.49276	od	-0.09836192
-3.6182926	znoju	-0.13063526
-2.9622881	by	-0.067905225
-3.9158127	znieruchomieć	-0.042385377
-3.9158127	ścian	-0.042385377
-3.2521718	mych	-0.069856584
-3.7327685	postoju	-0.18254548
-3.9158127	srebrny	-0.042385377
-3.9158127	szkarłatnym	-0.042385377
-3.9158127	rozdwojeniu	-0.042385377
-3.9158127	kotar	-0.042385377
-3.6182926	jakich	-0.042385377
-3.0067928	ty	-0.059844807
-3.9158127	dolin	-0.042385377
-3.9158127	nieznanych	-0.042385377
-3.6182926	lasów	-0.042385377
-3.9158127	wybiegłeś	-0.042385377
-3.7327685	szumiąc	-0.042385377
-3.9158127	dzwoniąc	-0.042385377
-3.9158127	darni	-0.042385377
-3.9158127	zanieszumieć	-0.042385377
-3.7327685	pobliżu	-0.13063526
-3.9158127	atłasów	-0.042385377
-3.7327685	mojego	-0.042385377
-3.6182926	łoża	-0.042385377
-3.2521718	mojej	-0.042385377
-3.9158127	męczarni	-0.042385377
-3.7327685	czeka	-0.042385377
-2.3909047	mnie	-0.07559354
-3.2521718	twych	-0.042385377
-3.9158127	głębiach	-0.042385377
-3.9158127	udusznych	-0.042385377
-2.7899768	ze	-0.08980439
-3.6182926	sobą	-0.21073455
-3.1766741	nikt	-0.22868499
-3.9158127	wyśledzi	-0.042385377
-3.6182926	pieszczot	-0.042385377
-3.9158127	którymi	-0.042385377
-3.9158127	lgnistym	-0.042385377
-3.9158127	bredzi	-0.042385377
-3.9158127	ciał	-0.042385377
-3.3436139	dwoje	-0.042385377
-2.9622881	sobie	-0.084228545
-3.6182926	nawzajem	-0.042385377
-3.9158127	posłusznych	-0.042385377
-3.3436139	nich	-0.042385377
-3.7327685	jedno	-0.042385377
-3.9158127	chłonąc	-0.042385377
-3.9158127	upojeń	-0.042385377
-3.7327685	mgłę	-0.042385377
-3.9158127	białą	-0.042385377
-3.6182926	własnym	-0.042385377
-3.7327685	spojrzeniem	-0.042385377
-3.6182926	swą	-0.13063526
-3.9158127	nagość	-0.042385377
-3.9158127	bezwstydzi	-0.042385377
-2.4024045	a	-0.09341039
-3.9158127	drugie	-0.042385377
-3.9158127	lustrze	-0.042385377
-3.7327685	udaje	-0.18254548
-3.45959	widzi	-0.042385377
-3.7327685	omdlewa	-0.042385377
-3.7327685	gdyby	-0.042385377
-3.9158127	widziało	-0.042385377
-3.9158127	chłodzący	-0.042385377
-3.45959	obie	-0.21073455
-3.0067928	ciało	-0.14352906
-3.9158127	omyte	-0.042385377
-3.6182926	fal	-0.042385377
-3.6182926	twoich	-0.042385377
-3.9158127	wezbraniem	-0.042385377
-3.9158127	zbywa	-0.042385377
-3.6182926	niewiedzy	-0.042385377
-3.2521718	siebie	-0.042385377
-3.6182926	pierwszym	-0.042385377
-3.9158127	ogarnia	-0.042385377
-3.9158127	kochaniem	-0.042385377
-3.0563846	bo	-0.07094871
-3.7327685	któż	-0.042385377
-3.45959	kochać	-0.042385377
-3.9158127	potrafi	-0.042385377
-3.9158127	zgadliwiej	-0.042385377
-3.6182926	niźli	-0.042385377
-2.6669405	ja	-0.05865878
-3.1766741	sama	-0.042385377
-3.45959	baśń	-0.042385377
-3.9158127	pieszczocie	-0.042385377
-3.9158127	spełni	-0.042385377
-3.112378	kto	-0.042385377
-3.2521718	dłonią	-0.042385377
-3.9158127	zagrzebaną	-0.042385377
-3.9158127	złocie	-0.042385377
-3.7327685	włosów	-0.042385377
-3.6182926	taki	-0.042385377
-3.9158127	lwi	-0.042385377
-2.7899768	sen	-0.053946633
-3.9158127	rozegrzywi	-0.042385377
-3.0067928	tę	-0.061217364
-3.9158127	przędzę	-0.042385377
-3.9158127	nikłą	-0.042385377
-3.9158127	równy	-0.042385377
-3.7327685	szale	-0.18254548
-3.0563846	usta	-0.06473089
-3.9158127	pokrwawi	-0.042385377
-3.1766741	mój	-0.042385377
-2.921923	nim	-0.042385377
-3.9158127	pierzchnie	-0.042385377
-3.6182926	będę	-0.042385377
-3.9158127	wzburz	-0.042385377
-3.9158127	gładką	-0.042385377
-3.9158127	powierzchnię	-0.042385377
-3.9158127	chłonny	-0.042385377
-3.9158127	rozwichrzyj	-0.042385377
-3.9158127	ciasnoty	-0.042385377
-3.9158127	hebanowych	-0.042385377
-3.7327685	brzegów	-0.042385377
-3.9158127	zatop	-0.042385377
-3.45959	moją	-0.042385377
-3.9158127	świetlicę	-0.042385377
-3.9158127	łoże	-0.042385377
-3.45959	zmorą	-0.09315759
-3.9158127	szarpane	-0.042385377
-3.9158127	noclegów	-0.042385377
-3.9158127	zazdrosną	-0.042385377
-3.7327685	głąb	-0.042385377
-3.9158127	topielicę	-0.042385377
-3.9158127	zmień	-0.042385377
-3.9158127	zwierciadlaną	-0.042385377
-3.9158127	rusałkę	-0.042385377
-3.45959	bym	-0.042385377
-3.9158127	samo	-0.042385377
-2.263891	co	-0.09851593
-3.7327685	chwila	-0.042385377
-3.9158127	widzące	-0.042385377
-3.9158127	bawiła	-0.042385377
-3.9158127	pląsem	-0.042385377
-2.921923	aż	-0.105084926
-3.7327685	pył	-0.042385377
-3.9158127	roztrącę	-0.042385377
-3.0563846	śmierć	-0.042385347
-3.9158127	perła	-0.042385377
-3.9158127	perłę	-0.042385377
-3.9158127	zuchwałą	-0.042385377
-3.7327685	midryga	-0.18254548
-2.5380921	to	-0.067680605
-3.9158127	konie	-0.042385377
-3.9158127	cwałują	-0.042385377
-3.9158127	uszami	-0.042385377
-3.9158127	strzygą	-0.042385377
-3.6182926	tańczą	-0.042385377
-3.9158127	dwaj	-0.042385377
-3.9158127	opoje	-0.042385377
-3.9158127	stęka	-0.042385377
-3.9158127	stodoła	-0.042385377
-2.850958	pod	-0.042385377
-3.9158127	cepów	-0.042385377
-3.9158127	bijakiem	-0.042385377
-2.8849926	ta	-0.042385347
-3.6182926	łąka	-0.042385377
-3.9158127	źgana	-0.042385377
-3.6182926	stopą	-0.042385377
-3.9158127	srożej	-0.042385377
-3.3436139	niż	-0.09315759
-3.9158127	kułakiem	-0.042385377
-3.9158127	zaskoczyła	-0.042385377
-2.7899768	ich	-0.042385403
-3.1766741	słońcu	-0.042385347
-3.9158127	południca	-0.042385377
-3.7327685	blada	-0.042385377
-3.9158127	tańcowi	-0.042385377
-3.9158127	rada	-0.042385377
-3.9158127	zaglądała	-0.042385377
-3.1766741	im	-0.042385377
-3.0563846	oczu	-0.11454599
-3.9158127	chciwie	-0.042385377
-3.7327685	żłobu	-0.18254548
-3.6182926	który	-0.042385377
-3.9158127	tańcu	-0.042385377
-3.3436139	mię	-0.042385377
-3.9158127	wyhula	-0.042385377
-3.7327685	bom	-0.042385377
-2.7365134	dla	-0.06702997
-3.7327685	obu	-0.042385377
-3.1766741	moja	-0.042385377
-3.6182926	będzie	-0.042385377
-3.6182926	rzekł	-0.042385377
-3.1766741	pierś	-0.042385403
-3.9158127	szyja	-0.042385377
-3.9158127	pięścią	-0.042385377
-3.7327685	przeczy	-0.042385377
-3.0067928	lub	-0.042385377
-3.7327685	niczyja	-0.042385377
-2.7365134	ten	-0.075531155
-2.7120628	ją	-0.042385377
-3.9158127	porwał	-0.042385377
-2.6889157	za	-0.06373502
-3.45959	dłoń	-0.042385377
-3.2521718	jedną	-0.042385377
-3.6182926	tamten	-0.042385377
-3.9158127	wtórą	-0.042385377
-3.7327685	musisz	-0.042385377
-2.921923	nam	-0.042385377
-3.9158127	nastarczyć	-0.042385377
-3.9158127	skąpico	-0.042385377
-3.9158127	dziewczuro	-0.042385377
-3.112378	ona	-0.042385377
-3.45959	prosto	-0.10683555
-3.9158127	dyszy	-0.042385377
-2.6669405	bez	-0.042385377
-3.9158127	oddechu	-0.042385377
-2.921923	oczy	-0.10073518
-3.7327685	śmieje	-0.18254548
-3.6182926	śmiechu	-0.13063526
-3.9158127	rozdwaja	-0.042385377
-3.9158127	porównu	-0.042385377
-3.9158127	rozszczepia	-0.042385377
-3.9158127	żwawo	-0.042385377
-3.2521718	dwie	-0.042385377
-3.9158127	dziewki	-0.042385377
-3.9158127	siostrzane	-0.042385377
-3.6182926	lewą	-0.13063526
-3.6182926	prawą	-0.042385377
-3.9158127	dosyć	-0.042385377
-2.819398	ciała	-0.2041057
-3.9158127	dwoistego	-0.042385377
-3.9158127	mamy	-0.042385377
-3.3436139	tu	-0.09315759
-3.6182926	łące	-0.13063526
-3.9158127	tańcz	-0.042385377
-3.9158127	nami	-0.042385377
-3.9158127	południami	-0.042385377
-3.9158127	dopóki	-0.042385377
-3.9158127	jarzące	-0.042385377
-3.7327685	dziewka	-0.042385377
-3.6182926	rąk	-0.042385377
-3.112378	ma	-0.042385347
-3.9158127	czworo	-0.042385377
-3.9158127	cztery	-0.042385377
-3.9158127	łydy	-0.042385377
-3.112378	niech	-0.042385347
-3.9158127	upoją	-0.042385377
-3.112378	nas	-0.042385377
-3.9158127	reszty	-0.042385377
-3.2521718	twe	-0.08427261
-3.7327685	słodkie	-0.042385377
-3.9158127	bezwstydy	-0.042385377
-3.9158127	nasrożyli	-0.042385377
-3.7327685	tańca	-0.042385377
-3.9158127	boju	-0.042385377
-3.9158127	przysporzyli	-0.042385377
-3.6182926	kwiatom	-0.042385377
-3.9158127	zgiełku	-0.042385377
-3.9158127	niepokoju	-0.042385377
-3.6182926	więc	-0.059844807
-3.9158127	pląsał	-0.042385377
-3.9158127	obcasem	-0.042385377
-3.9158127	kurz	-0.042385377
-3.9158127	zamiatał	-0.042385377
-3.9158127	cholewą	-0.042385377
-3.9158127	odsiebkę	-0.042385377
-3.9158127	odkrętkę	-0.042385377
-3.7327685	znów	-0.042385377
-3.9158127	odwrotkę	-0.042385377
-3.9158127	podeptali	-0.042385377
-3.9158127	macierzankę	-0.042385377
-3.9158127	błyszczkę	-0.042385377
-3.9158127	tymotkę	-0.042385377
-3.9158127	wrzeszczał	-0.042385377
-3.9158127	konaj	-0.042385377
-3.6182926	żywcem	-0.042385377
-3.9158127	drugi	-0.042385377
-3.9158127	wciornaści	-0.042385377
-3.7327685	tańcowali	-0.042385377
-3.9158127	zdechu	-0.042385377
-3.9158127	upaści	-0.042385377
-3.9158127	poczuli	-0.042385377
-3.3436139	życie	-0.09315759
-3.9158127	traci	-0.042385377
-3.9158127	umarła	-0.042385377
-3.7327685	jednocześnie	-0.042385377
-3.9158127	dwojej	-0.042385377
-3.7327685	postaci	-0.18254548
-3.9158127	pochowajmy	-0.042385377
-3.7327685	owo	-0.042385377
-3.7327685	bardzo	-0.042385377
-3.9158127	samotne	-0.042385377
-3.9158127	podwójne	-0.042385377
-3.9158127	tańcowaniu	-0.042385377
-2.7624228	śmierci	-0.042385377
-3.9158127	dwukrotne	-0.042385377
-3.9158127	cmentarzu	-0.042385377
-3.9158127	drzewem	-0.042385377
-3.7327685	drzewo	-0.18254548
-3.9158127	pacierz	-0.042385377
-3.9158127	obopólny	-0.042385377
-3.45959	dwóch	-0.042385377
-3.9158127	trumnach	-0.042385377
-3.9158127	ułożyli	-0.042385377
-3.45959	ale	-0.07341601
-3.7327685	jednym	-0.042385377
-3.9158127	grobie	-0.042385377
-3.9158127	huczy	-0.042385377
-3.7327685	echo	-0.042385377
-3.9158127	ziemne	-0.042385377
-3.7327685	trumny	-0.042385377
-3.45959	ciałem	-0.10683555
-3.9158127	nakarmione	-0.042385377
-3.9158127	syte	-0.042385377
-3.9158127	hulaszcze	-0.042385377
-3.9158127	ukazując	-0.042385377
-3.2521718	raz	-0.08427261
-3.9158127	niedomkniętą	-0.042385377
-3.9158127	paszczę	-0.042385377
-3.9158127	skaczą	-0.042385377
-3.9158127	wirują	-0.042385377
-3.9158127	klepką	-0.042385377
-3.6182926	dzwonią	-0.042385377
-3.9158127	klepkę	-0.042385377
-3.9158127	kręci	-0.042385377
-3.112378	razem	-0.10683555
-3.7327685	nimi	-0.042385377
-3.9158127	skocznych	-0.042385377
-3.9158127	lamentach	-0.042385377
-3.9158127	wzdryga	-0.042385377
-3.9158127	wnętrznościami	-0.042385377
-3.9158127	przerażony	-0.042385377
-3.9158127	cmentach	-0.042385377
-3.9158127	zatraciło	-0.042385377
-3.7327685	błędne	-0.042385377
-3.7327685	koło	-0.042385377
-3.7327685	stało	-0.042385377
-3.7327685	popod	-0.042385377
-3.7327685	ziemią	-0.042385377
-3.9158127	huczno	-0.042385377
-3.7327685	wesoło	-0.042385377
-3.9158127	zmąciły	-0.042385377
-3.9158127	rozumy	-0.042385377
-3.3436139	jakby	-0.042385347
-3.45959	wicher	-0.042385377
-3.9158127	rozhulał	-0.042385377
-3.9158127	wiatraka	-0.042385377
-3.9158127	śmidze	-0.042385377
-3.9158127	rozwiała	-0.042385377
-3.9158127	głowach	-0.042385377
-3.9158127	wiedza	-0.042385377
-3.9158127	pomglona	-0.042385377
-3.112378	jest	-0.042385347
-3.7327685	prawa	-0.042385377
-3.7327685	strona	-0.042385377
-3.3436139	świata	-0.042385377
-3.7327685	lewa	-0.042385377
-3.9158127	jakiej	-0.042385377
-3.7327685	trumnie	-0.042385377
-3.6182926	leży	-0.042385377
-3.3436139	która	-0.042385377
-3.9158127	kogo	-0.042385377
-3.9158127	należy	-0.042385377
-3.9158127	oczach	-0.042385377
-3.9158127	opętanych	-0.042385377
-2.9622881	świat	-0.10854902
-3.45959	cały	-0.042385377
-3.9158127	miga	-0.042385377
-3.9158127	wiedzą	-0.042385377
-3.9158127	świdryga	-0.042385377
-3.9158127	ujrzą	-0.042385377
-3.45959	czarną	-0.042385377
-3.9158127	ogromu	-0.042385377
-3.9158127	bądźcie	-0.042385377
-3.6182926	ludzie	-0.042385377
-3.9158127	dobrzy	-0.042385377
-3.3436139	u	-0.042385377
-3.7327685	domu	-0.18254548
-3.45959	trumna	-0.042385377
-3.7327685	jednego	-0.042385377
-3.7327685	drugiego	-0.042385377
-3.7327685	druga	-0.042385377
-3.7327685	jednej	-0.042385377
-3.6182926	wieczność	-0.13063526
-3.9158127	prawem	-0.042385377
-3.6182926	okiem	-0.042385377
-3.9158127	drugiej	-0.042385377
-3.9158127	lewem	-0.042385377
-3.9158127	mruga	-0.042385377
-3.9158127	obłąkani	-0.042385377
-2.7624228	nad	-0.06702997
-3.9158127	przepaścią	-0.042385377
-3.9158127	poklękali	-0.042385377
-3.9158127	wzajem	-0.042385377
-3.9158127	klęczkach	-0.042385377
-3.9158127	zatańczyli	-0.042385377
-3.7327685	tuż	-0.042385377
-2.554319	jej	-0.042385377
-3.9158127	czworakach	-0.042385377
-3.7327685	płazem	-0.18254548
-3.9158127	opak	-0.042385377
-3.9158127	wwichrzeni	-0.042385377
-3.6182926	mrok	-0.042385377
-3.9158127	trumien	-0.042385377
-3.112378	dwa	-0.06702997
-3.9158127	wióry	-0.042385377
-3.9158127	powpadali	-0.042385377
-3.9158127	nogami	-0.042385377
-3.9158127	góry	-0.042385377
-3.7327685	róże	-0.18254548
-3.9158127	spóźniona	-0.042385377
-3.9158127	pójdziemy	-0.042385377
-3.9158127	śladem	-0.042385377
-3.45959	cienia	-0.21073455
-3.9158127	szelestu	-0.042385377
-3.9158127	ścieżce	-0.042385377
-3.7327685	wzdłuż	-0.042385377
-3.6182926	rosą	-0.13063526
-3.9158127	połyska	-0.042385377
-3.9158127	krzewami	-0.042385377
-3.9158127	sztywnego	-0.042385377
-3.9158127	agrestu	-0.042385377
-3.7327685	pachną	-0.042385377
-3.9158127	świeże	-0.042385377
-3.7327685	kretowiska	-0.18254548
-3.9158127	powiędłych	-0.042385377
-3.9158127	liściach	-0.042385377
-3.9158127	pokurczonych	-0.042385377
-3.7327685	chłodem	-0.042385377
-3.9158127	lśnią	-0.042385377
-3.9158127	srebrne	-0.042385377
-3.9158127	resztki	-0.042385377
-3.9158127	wczorajszej	-0.042385377
-3.9158127	ulewy	-0.042385377
-3.9158127	zapuszczonym	-0.042385377
-3.7327685	dawna	-0.042385377
-3.9158127	ogrodem	-0.042385377
-3.9158127	słychać	-0.042385377
-3.9158127	gawronów	-0.042385377
-3.9158127	trzepoty	-0.042385377
-3.9158127	śpiewy	-0.042385377
-3.7327685	obok	-0.042385377
-3.9158127	jabłoni	-0.042385377
-3.9158127	przypadkowa	-0.042385377
-3.9158127	sosna	-0.042385377
-3.9158127	igły	-0.042385377
-3.9158127	bladym	-0.042385377
-3.7327685	zanurza	-0.042385377
-3.7327685	błękicie	-0.042385377
-3.6182926	jakże	-0.042385377
-3.9158127	prędko	-0.042385377
-3.9158127	przeminęła	-0.042385377
-3.7327685	wiosna	-0.042385377
-3.9158127	pozostawiając	-0.042385377
-3.7327685	przelęknione	-0.042385377
-3.6182926	coraz	-0.13063526
-3.9158127	mocniej	-0.042385377
-3.9158127	otulasz	-0.042385377
-3.9158127	chustę	-0.042385377
-3.2521718	której	-0.042385403
-3.7327685	twoja	-0.042385377
-3.9158127	gnieździe	-0.042385377
-3.9158127	chowa	-0.042385377
-3.45959	trzeba	-0.042385377
-3.2521718	było	-0.042385377
-3.9158127	rzec	-0.042385377
-3.9158127	dawniej	-0.042385377
-2.8849926	te	-0.08760013
-3.7327685	słowa	-0.042385377
-3.6182926	dzisiaj	-0.042385377
-3.9158127	zabrzmią	-0.042385377
-3.9158127	spóźnione	-0.042385377
-3.7327685	puste	-0.042385377
-3.9158127	spleść	-0.042385377
-2.921923	dłonie	-0.08427261
-3.9158127	uparte	-0.042385377
-3.9158127	zamkniętymi	-0.042385377
-3.9158127	iść	-0.042385377
-3.3436139	słońce	-0.042385377
-3.9158127	oczyma	-0.042385377
-3.9158127	zostaną	-0.042385377
-3.9158127	otwarte	-0.042385377
-3.9158127	warga	-0.042385377
-3.6182926	pół	-0.042385377
-3.7327685	drogi	-0.042385377
-3.9158127	zatrzyma	-0.042385377
-3.6182926	powieść	-0.042385377
-3.9158127	rozumnej	-0.042385377
-3.45959	dziewczynie	-0.21073455
-3.7327685	mówię	-0.042385377
-3.2521718	dziewczyny	-0.08427261
-3.9158127	wwódź	-0.042385377
-3.9158127	bór	-0.042385377
-3.9158127	ciemny	-0.042385377
-3.9158127	wołaj	-0.042385377
-3.9158127	imieniu	-0.042385377
-3.7327685	patrz	-0.042385377
-3.7327685	oko	-0.042385377
-3.1766741	nigdy	-0.14153484
-3.9158127	wiadomo	-0.042385377
-3.7327685	stwór	-0.042385377
-3.7327685	tajemny	-0.042385377
-3.6182926	mroku	-0.042385377
-3.7327685	ludzką	-0.042385377
-3.9158127	przychodzi	-0.042385377
-3.9158127	powłoką	-0.042385377
-3.9158127	nuż	-0.042385377
-2.8849926	jestem	-0.114172846
-3.9158127	odmienny	-0.042385377
-3.0067928	tobie	-0.042385377
-3.0563846	chce	-0.088288724
-3.7327685	którego	-0.042385377
-3.9158127	tulisz	-0.042385377
-3.9158127	niemej	-0.042385377
-3.9158127	skardze	-0.042385377
-3.7327685	poznasz	-0.042385377
-3.9158127	jeziorem	-0.042385377
-3.9158127	polu	-0.042385377
-3.9158127	lesie	-0.042385377
-3.9158127	łożu	-0.042385377
-3.2521718	przy	-0.07341601
-3.9158127	wardze	-0.042385377
-3.9158127	pytaj	-0.042385377
-3.1766741	nic	-0.109312706
-3.9158127	widuj	-0.042385377
-3.45959	śnie	-0.07803561
-3.9158127	ufaj	-0.042385377
-3.3436139	moim	-0.042385377
-3.9158127	pieszczotom	-0.042385377
-3.9158127	wierzaj	-0.042385377
-3.3436139	me	-0.042385377
-3.7327685	tumany	-0.18254548
-3.3436139	ramion	-0.042385377
-3.9158127	zaciszu	-0.042385377
-3.7327685	pragnę	-0.042385377
-3.7327685	bezkreśnie	-0.18254548
-3.9158127	zasnąć	-0.042385377
-3.6182926	choćby	-0.042385377
-3.9158127	chwilę	-0.042385377
-3.6182926	inny	-0.042385377
-3.7327685	nieznany	-0.042385377
-3.9158127	nuć	-0.042385377
-3.3436139	snu	-0.042385377
-3.7327685	cokolwiek	-0.042385377
-3.45959	byle	-0.042385377
-3.9158127	zwierać	-0.042385377
-3.6182926	twa	-0.042385377
-3.6182926	kołysze	-0.13063526
-3.9158127	umie	-0.042385377
-2.7899768	gdy	-0.049706854
-3.9158127	przyjdzie	-0.042385377
-3.6182926	godzina	-0.13063526
-3.9158127	wzbraniaj	-0.042385377
-3.7327685	umierać	-0.042385377
-3.7327685	wszak	-0.042385377
-3.9158127	rozumiesz	-0.042385377
-3.9158127	nieprawdaż	-0.042385377
-3.6182926	rozumie	-0.13063526
-3.9158127	ii	-0.042385377
-3.9158127	nagłej	-0.042385377
-3.9158127	stu	-0.042385377
-3.9158127	zmierzchów	-0.042385377
-3.45959	żałobie	-0.41027465
-3.9158127	czekałaś	-0.042385377
-3.9158127	przyjście	-0.042385377
-3.9158127	nadarzy	-0.042385377
-2.8849926	tylko	-0.059844807
-3.9158127	zapóźniłem	-0.042385377
-3.7327685	winna	-0.042385377
-3.7327685	jakaś	-0.042385377
-3.3436139	mgła	-0.042385377
-3.6182926	twarzy	-0.13063526
-3.7327685	nieraz	-0.042385377
-3.9158127	obcych	-0.042385377
-3.6182926	cieniów	-0.042385377
-3.7327685	biegnę	-0.042385377
-3.9158127	rozwiewiska	-0.042385377
-3.9158127	zatracam	-0.042385377
-3.9158127	ścieżynę	-0.042385377
-3.7327685	własnej	-0.042385377
-3.6182926	rozpaczy	-0.2853359
-3.9158127	czemuż	-0.042385377
-3.7327685	daleki	-0.042385377
-3.9158127	bliska	-0.042385377
-3.45959	inaczej	-0.17143969
-3.9158127	wczoraj	-0.042385377
-3.9158127	brzozę	-0.042385377
-3.112378	wśród	-0.042385377
-3.2521718	słońca	-0.042385377
-3.9158127	błyskotów	-0.042385377
-3.9158127	ozdobiłem	-0.042385377
-3.9158127	pląsając	-0.042385377
-3.9158127	perły	-0.042385377
-3.6182926	korale	-0.2853359
-2.921923	ciebie	-0.1263515
-3.9158127	zbrakło	-0.042385377
-3.9158127	strwonionych	-0.042385377
-3.9158127	klejnotów	-0.042385377
-3.1766741	są	-0.042385377
-3.9158127	czcze	-0.042385377
-3.7327685	żale	-0.042385377
-3.9158127	czasem	-0.042385377
-3.9158127	bywają	-0.042385377
-3.6182926	takie	-0.042385377
-3.9158127	uboczu	-0.042385377
-3.7327685	święta	-0.042385377
-3.1766741	dusza	-0.18848716
-3.0067928	przez	-0.08427261
-3.6182926	szumi	-0.042385377
-3.2521718	tym	-0.042385377
-2.7624228	właśnie	-0.2396397
-3.9158127	szumie	-0.042385377
-2.921923	tych	-0.1236323
-3.3436139	których	-0.042385377
-3.9158127	kocha	-0.042385377
-3.7327685	najmniej	-0.042385377
-3.7327685	pamięta	-0.042385377
-3.9158127	iii	-0.042385377
-3.6182926	stać	-0.2853359
-3.9158127	miało	-0.042385377
-3.7327685	gdziekolwiek	-0.042385377
-3.9158127	stanie	-0.042385377
-3.6182926	chciałem	-0.042385377
-3.7327685	chatę	-0.042385377
-3.6182926	snom	-0.042385377
-3.9158127	ciosać	-0.042385377
-3.6182926	biec	-0.042385377
-3.9158127	spotkanie	-0.042385377
-3.9158127	zamieszkać	-0.042385377
-3.6182926	wraz	-0.13063526
-3.9158127	tobą	-0.042385377
-3.9158127	miłosnym	-0.042385377
-3.9158127	obłędzie	-0.042385377
-3.9158127	dąży	-0.042385377
-3.9158127	losem	-0.042385377
-3.6182926	zwie	-0.13063526
-3.0067928	go	-0.042385377
-3.6182926	wpobok	-0.042385377
-3.9158127	pusty	-0.042385377
-3.9158127	wlecze	-0.042385377
-3.0563846	czy	-0.057623602
-3.6182926	ktoś	-0.042385377
-3.7327685	oprócz	-0.042385377
-3.9158127	samego	-0.042385377
-3.9158127	ulega	-0.042385377
-3.9158127	smutkom	-0.042385377
-3.6182926	którym	-0.042385377
-3.7327685	krwią	-0.042385377
-3.9158127	przeczę	-0.042385377
-3.9158127	spojrzyj	-0.042385377
-3.1766741	teraz	-0.042385377
-3.9158127	bezwolnie	-0.042385377
-3.9158127	trudzę	-0.042385377
-3.7327685	szczęściu	-0.042385377
-3.9158127	swemu	-0.042385377
-3.9158127	dziwaczne	-0.042385377
-3.9158127	gromadząc	-0.042385377
-3.7327685	przeszkody	-0.042385377
-3.9158127	uśpione	-0.042385377
-3.7327685	time	-0.042385377
-3.9158127	idąc	-0.042385377
-2.819398	ku	-0.05865878
-3.9158127	omijam	-0.042385377
-3.6182926	ogrody	-0.13063526
-3.9158127	mógłbym	-0.042385377
-3.1766741	duszę	-0.07803561
-3.6182926	kwiatach	-0.042385377
-3.9158127	roztrwonić	-0.042385377
-3.7327685	śmiercią	-0.042385377
-3.7327685	oślepły	-0.042385377
-3.7327685	znaleźć	-0.042385377
-2.9622881	cię	-0.06473089
-3.45959	gwiazd	-0.042385377
-3.9158127	tłumie	-0.042385377
-3.2521718	szczęścia	-0.042385377
-3.6182926	własnego	-0.042385377
-3.6182926	potrafię	-0.042385377
-3.9158127	bronić	-0.042385377
-3.9158127	iv	-0.042385377
-3.9158127	zazdrość	-0.042385377
-3.9158127	pustce	-0.042385377
-3.7327685	zaskoczy	-0.18254548
-3.7327685	śnię	-0.042385377
-3.9158127	innej	-0.042385377
-3.45959	wie	-0.1184532
-3.7327685	czym	-0.13063526
-3.9158127	pieszczota	-0.042385377
-3.6182926	wszystkich	-0.042385377
-3.6182926	zmarłych	-0.042385377
-3.9158127	dziewcząt	-0.042385377
-3.9158127	niezbadane	-0.042385377
-3.9158127	suknia	-0.042385377
-3.9158127	bajki	-0.042385377
-3.7327685	cała	-0.042385377
-3.7327685	brzmi	-0.042385377
-3.6182926	złota	-0.042385377
-3.7327685	modrej	-0.042385377
-3.9158127	karocy	-0.042385377
-3.9158127	chyli	-0.042385377
-3.9158127	tłum	-0.042385377
-3.9158127	wyśnionych	-0.042385377
-3.9158127	cudaków	-0.042385377
-3.9158127	zachwyceniu	-0.042385377
-3.45959	pierwszy	-0.042385377
-3.9158127	pocałunek	-0.042385377
-3.9158127	zwleka	-0.042385377
-3.9158127	tłumu	-0.042385377
-3.9158127	postrzegam	-0.042385377
-2.9622881	tej	-0.07341601
-3.6182926	chwili	-0.13063526
-3.9158127	stoisz	-0.042385377
-3.7327685	chora	-0.042385377
-3.9158127	łachman	-0.042385377
-3.9158127	odziana	-0.042385377
-3.7327685	żebraczy	-0.042385377
-3.7327685	widzisz	-0.18254548
-3.9158127	umyślnie	-0.042385377
-3.7327685	wzrok	-0.042385377
-3.9158127	utkwiłem	-0.042385377
-3.6182926	niebie	-0.17143969
-3.9158127	starzejesz	-0.042385377
-3.7327685	bólu	-0.042385377
-3.9158127	brzydniesz	-0.042385377
-3.9158127	zdoła	-0.042385377
-3.9158127	pokochać	-0.042385377
-3.9158127	nagłym	-0.042385377
-3.9158127	krzykiem	-0.042385377
-3.7327685	chwytam	-0.042385377
-3.9158127	ramiona	-0.042385377
-3.9158127	schorzałej	-0.042385377
-3.9158127	pieszczotami	-0.042385377
-3.9158127	tłumię	-0.042385377
-3.9158127	umierasz	-0.042385377
-3.9158127	szepcę	-0.042385377
-3.9158127	wiedziałem	-0.042385377
-3.9158127	skona	-0.042385377
-3.9158127	v	-0.042385377
-3.9158127	piersiami	-0.042385377
-3.6182926	karmić	-0.042385377
-3.45959	noc	-0.042385377
-3.9158127	ciemną	-0.042385377
-3.9158127	skinienie	-0.042385377
-3.7327685	czoło	-0.042385377
-3.9158127	rozchmurza	-0.042385377
-3.9158127	rozmawiać	-0.042385377
-3.45959	mną	-0.07341601
-3.9158127	dumając	-0.042385377
-3.9158127	wszystkim	-0.042385377
-3.9158127	śledzi	-0.042385377
-3.9158127	dalekiej	-0.042385377
-3.9158127	zbłąkaną	-0.042385377
-3.9158127	krzywiznę	-0.042385377
-3.3436139	ginie	-0.17143969
-3.9158127	nurtach	-0.042385377
-3.9158127	rozwiewnej	-0.042385377
-3.7327685	mogiły	-0.18254548
-3.9158127	zwierciadle	-0.042385377
-3.9158127	przegląda	-0.042385377
-3.7327685	swoje	-0.042385377
-3.3436139	wargi	-0.042385377
-3.9158127	żyzne	-0.042385377
-3.6182926	bardziej	-0.042385377
-3.9158127	zwabiły	-0.042385377
-3.7327685	przesłania	-0.042385377
-3.6182926	patrzy	-0.21073455
-3.9158127	ciekawie	-0.042385377
-3.6182926	zwierciadła	-0.13063526
-3.9158127	zbłyskanych	-0.042385377
-3.9158127	żałobą	-0.042385377
-3.9158127	ubożeje	-0.042385377
-3.3436139	ust	-0.042385377
-3.7327685	brakiem	-0.042385377
-3.9158127	prawie	-0.042385377
-3.9158127	przyjdę	-0.042385377
-3.9158127	żegna	-0.042385377
-3.9158127	znakiem	-0.042385377
-3.9158127	krzyża	-0.042385377
-3.9158127	wprzód	-0.042385377
-3.9158127	podaje	-0.042385377
-3.9158127	skupionej	-0.042385377
-3.9158127	zadumie	-0.042385377
-3.7327685	potem	-0.042385377
-3.7327685	całą	-0.042385377
-3.9158127	zbliża	-0.042385377
-3.9158127	całuje	-0.042385377
-3.9158127	płacze	-0.042385377
-3.1766741	wszystko	-0.07341601
-3.9158127	wyruszyła	-0.042385377
-3.9158127	drogę	-0.042385377
-3.9158127	dzwony	-0.042385377
-3.9158127	sady	-0.042385377
-3.9158127	schrony	-0.042385377
-3.9158127	zawołały	-0.042385377
-3.45959	wszystkie	-0.042385377
-3.9158127	lasy	-0.042385377
-3.9158127	pełne	-0.042385377
-3.7327685	motyli	-0.042385377
-3.9158127	spocznij	-0.042385377
-3.9158127	duszo	-0.042385377
-3.9158127	naszym	-0.042385377
-3.7327685	cieniu	-0.042385377
-3.9158127	zwlekaj	-0.042385377
-3.6182926	mogę	-0.042385377
-3.9158127	waszym	-0.042385377
-3.7327685	spocząć	-0.042385377
-3.9158127	niezwłocznie	-0.042385377
-3.6182926	kiedy	-0.042385377
-3.2521718	cieniem	-0.08427261
-3.9158127	spocznie	-0.042385377
-3.7327685	zawołała	-0.042385377
-3.9158127	wonna	-0.042385377
-3.9158127	zalśniona	-0.042385377
-3.9158127	użytek	-0.042385377
-3.9158127	złocistą	-0.042385377
-3.7327685	kosą	-0.042385377
-3.9158127	kosić	-0.042385377
-3.9158127	łąko	-0.042385377
-3.9158127	zielona	-0.042385377
-3.9158127	skoszona	-0.042385377
-3.7327685	zawołał	-0.042385377
-3.9158127	zjawiony	-0.042385377
-3.9158127	miłuj	-0.042385377
-3.9158127	radością	-0.042385377
-3.9158127	niecierpliwy	-0.042385377
-3.9158127	czekam	-0.042385377
-3.9158127	miłować	-0.042385377
-3.3436139	gdym	-0.069856584
-3.9158127	smutnego	-0.042385377
-3.9158127	pokochała	-0.042385377
-3.9158127	krzyżu	-0.042385377
-3.9158127	pozbawiłem	-0.042385377
-3.9158127	sosen	-0.042385377
-3.7327685	boru	-0.18254548
-3.9158127	miała	-0.042385377
-3.7327685	wyboru	-0.18254548
-3.9158127	zagnałeś	-0.042385377
-3.9158127	krasnych	-0.042385377
-3.9158127	maków	-0.042385377
-3.6182926	ciemność	-0.042385377
-3.9158127	ukrył	-0.042385377
-3.9158127	owe	-0.042385377
-3.9158127	miecze	-0.042385377
-3.9158127	zabiły	-0.042385377
-3.9158127	ukryłem	-0.042385377
-3.9158127	owych	-0.042385377
-3.9158127	mieczy	-0.042385377
-3.45959	mam	-0.042385377
-3.7327685	boku	-0.18254548
-3.9158127	zechciej	-0.042385377
-3.9158127	nieszczęśliwa	-0.042385377
-3.7327685	obłoku	-0.042385377
-3.9158127	spocznę	-0.042385377
-3.7327685	twym	-0.042385377
-3.9158127	rozłące	-0.042385377
-3.9158127	kiedym	-0.042385377
-3.9158127	lasom	-0.042385377
-3.9158127	odmówiła	-0.042385377
-3.9158127	otrzyj	-0.042385377
-3.9158127	zapłakane	-0.042385377
-3.9158127	szat	-0.042385377
-3.6182926	moich	-0.042385377
-3.6182926	bielą	-0.13063526
-3.9158127	rozkażę	-0.042385377
-3.6182926	mym	-0.042385377
-3.9158127	aniołom	-0.042385377
-3.9158127	weselą	-0.042385377
-3.7327685	weselić	-0.042385377
-3.9158127	przestworze	-0.042385377
-3.7327685	twej	-0.042385377
-3.9158127	pożądam	-0.042385377
-3.9158127	zamilkli	-0.042385377
-3.7327685	patrzyli	-0.042385377
-3.7327685	ponad	-0.042385377
-3.45959	nią	-0.042385377
-3.9158127	toczy	-0.042385377
-2.9622881	tam	-0.057623602
-3.9158127	obczyźnie	-0.042385377
-3.7327685	próżni	-0.042385377
-3.9158127	ostoję	-0.042385377
-3.9158127	wiekuista	-0.042385377
-3.9158127	bezgraniczach	-0.042385377
-3.9158127	da	-0.042385377
-3.9158127	pójdę	-0.042385377
-3.9158127	zbłąkany	-0.042385377
-3.3436139	pomiędzy	-0.042385377
-3.9158127	śmierciami	-0.042385377
-3.7327685	bądź	-0.042385377
-3.9158127	spotkam	-0.042385377
-3.6182926	pełen	-0.042385377
-3.9158127	niczyjej	-0.042385377
-3.7327685	ciemności	-0.042385377
-3.9158127	zgrozy	-0.042385377
-3.9158127	samemu	-0.042385377
-3.9158127	marą	-0.042385377
-3.9158127	jakąż	-0.042385377
-3.45959	wówczas	-0.042385377
-3.9158127	miłością	-0.042385377
-3.9158127	wiarą	-0.042385377
-3.9158127	modlił	-0.042385377
-3.9158127	obrazu	-0.042385377
-3.9158127	brzozy	-0.042385377
-3.9158127	spłonął	-0.042385377
-3.9158127	łzą	-0.042385377
-3.9158127	gorącą	-0.042385377
-3.9158127	gdybym	-0.042385377
-3.9158127	znienacka	-0.042385377
-3.9158127	mroków	-0.042385377
-3.9158127	bezczynu	-0.042385377
-3.9158127	szukającą	-0.042385377
-3.9158127	gniazdo	-0.042385377
-3.9158127	ptasie	-0.042385377
-2.9622881	kwiaty	-0.2567559
-3.9158127	jaśminu	-0.042385377
-3.7327685	śnisz	-0.042385377
-3.9158127	obco	-0.042385377
-3.45959	dal	-0.042385377
-3.9158127	tła	-0.042385377
-3.9158127	chmurach	-0.042385377
-3.7327685	błyska	-0.18254548
-3.9158127	lecimy	-0.042385377
-3.7327685	urwiska	-0.18254548
-3.7327685	mgły	-0.042385377
-3.9158127	naglisz	-0.042385377
-3.9158127	szepcesz	-0.042385377
-3.9158127	zgrzana	-0.042385377
-3.9158127	lotem	-0.042385377
-3.9158127	toć	-0.042385377
-3.9158127	zapominaj	-0.042385377
-3.2521718	tem	-0.069856584
-3.9158127	zapominam	-0.042385377
-3.9158127	mkniemy	-0.042385377
-3.9158127	wzwyż	-0.042385377
-3.7327685	niewiadomej	-0.042385377
-3.9158127	mety	-0.042385377
-3.7327685	trudno	-0.042385377
-3.9158127	jawo	-0.042385377
-3.9158127	nieznana	-0.042385377
-3.9158127	podróż	-0.042385377
-3.9158127	isbn	-0.042385377
-3.9158127	978	-0.042385377
-3.9158127	83	-0.042385377
-3.9158127	288	-0.042385377
-3.9158127	2461	-0.042385377
-3.9158127	4	-0.042385377
-3.6182926	dziewczę	-0.042385377
-3.9158127	upatrzone	-0.042385377
-3.9158127	wzbrania	-0.042385377
-3.9158127	nieobecnością	-0.042385377
-3.9158127	mem	-0.042385377
-3.7327685	objęciu	-0.042385377
-3.9158127	pustosząc	-0.042385377
-3.1766741	ducha	-0.042385377
-3.9158127	rozdzwania	-0.042385377
-3.9158127	przekór	-0.042385377
-3.9158127	dziewczęciu	-0.042385377
-3.6182926	nieznanej	-0.042385377
-3.9158127	podjąłem	-0.042385377
-3.7327685	podróży	-0.18254548
-3.9158127	wlec	-0.042385377
-3.7327685	głody	-0.042385377
-3.7327685	morzach	-0.042385377
-3.9158127	dziesięciu	-0.042385377
-3.3436139	lecz	-0.042385403
-3.45959	mórz	-0.042385377
-3.9158127	dziesięć	-0.042385377
-3.7327685	zaprawdę	-0.042385377
-3.9158127	znuży	-0.042385377
-3.2521718	tego	-0.07803561
-3.9158127	zaznał	-0.042385377
-3.7327685	pragnienia	-0.042385377
-3.3436139	pieszczoty	-0.09315759
-3.45959	którą	-0.042385377
-3.2521718	nawet	-0.14708892
-3.9158127	upadł	-0.042385377
-3.9158127	róży	-0.042385377
-3.9158127	najgorzej	-0.042385377
-3.6182926	zmierzch	-0.042385377
-3.1766741	złoty	-0.3175677
-3.9158127	zastawszy	-0.042385377
-3.7327685	powoli	-0.042385377
-3.9158127	rozemgli	-0.042385377
-3.9158127	drwiny	-0.042385377
-3.9158127	psoty	-0.042385377
-3.9158127	pewniejszy	-0.042385377
-3.7327685	boli	-0.18254548
-3.9158127	bezbolesność	-0.042385377
-3.45959	patrzysz	-0.10683555
-3.9158127	przynętę	-0.042385377
-3.45959	swej	-0.042385377
-3.7327685	niemocy	-0.042385377
-3.9158127	swojej	-0.042385377
-3.7327685	niedoli	-0.18254548
-3.9158127	dokąd	-0.042385377
-3.7327685	skrzydeł	-0.042385377
-3.9158127	skierujesz	-0.042385377
-3.9158127	zniechętę	-0.042385377
-3.7327685	ziemię	-0.042385377
-3.9158127	odarła	-0.042385377
-2.819398	ci	-0.09535105
-3.7327685	cudów	-0.042385377
-3.3436139	czem	-0.07803561
-3.7327685	wargą	-0.042385377
-3.9158127	tknięte	-0.042385377
-3.112378	które	-0.042385403
-3.9158127	zaznały	-0.042385377
-3.9158127	trudów	-0.042385377
-3.9158127	piersiach	-0.042385377
-3.9158127	śpiewnych	-0.042385377
-3.7327685	westchnienia	-0.042385377
-3.9158127	hałasem	-0.042385377
-3.9158127	marniejąc	-0.042385377
-3.9158127	więdną	-0.042385377
-3.9158127	próżnicy	-0.042385377
-3.9158127	nudów	-0.042385377
-3.9158127	spleciesz	-0.042385377
-3.9158127	temczasem	-0.042385377
-3.9158127	rozpleciesz	-0.042385377
-3.9158127	głaszcząc	-0.042385377
-3.9158127	szorstkość	-0.042385377
-3.9158127	wspomnienia	-0.042385377
-3.9158127	atłasem	-0.042385377
-3.9158127	ściągniesz	-0.042385377
-3.9158127	dobie	-0.042385377
-3.9158127	zrywać	-0.042385377
-3.9158127	zgarniać	-0.042385377
-3.7327685	słońc	-0.042385377
-3.7327685	złoto	-0.042385377
-3.9158127	zbraknie	-0.042385377
-3.6182926	piersią	-0.042385377
-3.9158127	zmóc	-0.042385377
-3.9158127	chciałeś	-0.042385377
-3.7327685	aby	-0.042385377
-3.9158127	wykrzesać	-0.042385377
-3.45959	śpiew	-0.042385377
-3.2521718	duszy	-0.07803561
-3.9158127	niewzajemność	-0.042385377
-3.9158127	zwarła	-0.042385377
-3.9158127	niemotą	-0.042385377
-3.9158127	jakie	-0.042385377
-3.9158127	zdradna	-0.042385377
-3.9158127	krwawa	-0.042385377
-3.6182926	pusta	-0.13063526
-3.9158127	tęczą	-0.042385377
-3.7327685	grzech	-0.042385377
-3.9158127	straty	-0.042385377
-3.7327685	skroń	-0.042385377
-3.9158127	skazańca	-0.042385377
-3.9158127	narzucona	-0.042385377
-3.9158127	chusta	-0.042385377
-3.9158127	choćbyś	-0.042385377
-3.9158127	piękniejszą	-0.042385377
-3.6182926	dziewczynę	-0.13063526
-3.45959	innych	-0.042385377
-3.7327685	ogrodów	-0.042385377
-3.9158127	wypatrzył	-0.042385377
-3.6182926	cóż	-0.042385377
-3.9158127	piękna	-0.042385377
-3.7327685	skrzydlaty	-0.18254548
-3.45959	czar	-0.042385377
-3.7327685	dobrze	-0.042385377
-3.9158127	znany	-0.042385377
-3.9158127	powtórzy	-0.042385377
-3.7327685	chcesz	-0.042385377
-3.7327685	innego	-0.042385377
-3.7327685	głuszy	-0.18254548
-3.9158127	odczarowanej	-0.042385377
-3.7327685	słońcem	-0.042385377
-3.9158127	mruży	-0.042385377
-3.9158127	żadna	-0.042385377
-3.9158127	wskrzesi	-0.042385377
-3.7327685	miał	-0.042385377
-3.6182926	patrząc	-0.13063526
-3.7327685	źrenice	-0.042385377
-3.7327685	pała	-0.18254548
-3.3436139	twój	-0.042385377
-3.6182926	los	-0.13063526
-3.9158127	jęk	-0.042385377
-3.9158127	pokruszy	-0.042385377
-3.9158127	wszakci	-0.042385377
-3.9158127	stawała	-0.042385377
-3.7327685	podobną	-0.042385377
-3.7327685	ślepo	-0.042385377
-3.7327685	głosu	-0.042385377
-3.9158127	brzmienia	-0.042385377
-3.45959	warg	-0.042385377
-3.7327685	purpury	-0.042385377
-3.9158127	zapachu	-0.042385377
-3.9158127	naśladująca	-0.042385377
-3.9158127	poruszenia	-0.042385377
-3.9158127	ukochanej	-0.042385377
-3.7327685	brała	-0.042385377
-3.1766741	niej	-0.09635175
-3.9158127	powab	-0.042385377
-3.9158127	chrzest	-0.042385377
-3.7327685	imienia	-0.18254548
-3.2521718	wiedząc	-0.18848716
-3.9158127	utraci	-0.042385377
-3.9158127	wzięła	-0.042385377
-3.9158127	posiadła	-0.042385377
-3.9158127	wyznanie	-0.042385377
-3.9158127	skarbem	-0.042385377
-3.9158127	zapłaci	-0.042385377
-3.9158127	pojęła	-0.042385377
-3.7327685	mus	-0.042385377
-3.9158127	pobladła	-0.042385377
-3.9158127	czując	-0.042385377
-3.9158127	wstyd	-0.042385377
-3.7327685	nędzy	-0.042385377
-3.9158127	próżnię	-0.042385377
-3.9158127	odwrócone	-0.042385377
-3.9158127	muru	-0.042385377
-3.9158127	żądzą	-0.042385377
-3.9158127	wzajemność	-0.042385377
-3.9158127	reszta	-0.042385377
-3.9158127	wygnaniem	-0.042385377
-3.7327685	przerażeń	-0.042385377
-3.9158127	samotę	-0.042385377
-3.7327685	poza	-0.042385377
-3.7327685	kres	-0.042385377
-2.9622881	ziemi	-0.08090315
-3.6182926	kędyś	-0.042385377
-3.9158127	podziemność	-0.042385377
-3.9158127	życiu	-0.042385377
-3.9158127	wieko	-0.042385377
-3.9158127	rozchyliła	-0.042385377
-3.3436139	złote	-0.042385377
-3.9158127	skarb	-0.042385377
-3.9158127	odjęto	-0.042385377
-3.9158127	zwraca	-0.042385377
-3.6182926	wieczności	-0.042385377
-3.6182926	pustkę	-0.042385377
-3.9158127	ciemnotę	-0.042385377
-3.6182926	długo	-0.042385377
-3.7327685	czekała	-0.18254548
-3.9158127	święto	-0.042385377
-3.9158127	nagłych	-0.042385377
-3.9158127	zrozumień	-0.042385377
-3.7327685	ująć	-0.042385377
-3.9158127	ład	-0.042385377
-3.9158127	ścisły	-0.042385377
-3.1766741	słów	-0.042385377
-3.9158127	określonych	-0.042385377
-3.9158127	dolę	-0.042385377
-3.9158127	rozpierzchniętą	-0.042385377
-3.9158127	jeśli	-0.042385377
-3.9158127	twoją	-0.042385377
-3.9158127	rozbłysły	-0.042385377
-3.9158127	wiedz	-0.042385377
-3.9158127	noce	-0.042385377
-3.9158127	dni	-0.042385377
-3.6182926	miłosne	-0.042385377
-3.9158127	mylą	-0.042385377
-3.9158127	domysły	-0.042385377
-3.9158127	gna	-0.042385377
-3.9158127	jakąś	-0.042385377
-3.9158127	bitwę	-0.042385377
-3.7327685	jam	-0.042385377
-3.7327685	chciał	-0.042385377
-3.9158127	unieść	-0.042385377
-3.9158127	niebu	-0.042385377
-3.9158127	mocą	-0.042385377
-3.9158127	nagą	-0.042385377
-3.9158127	włosem	-0.042385377
-3.9158127	rozwianym	-0.042385377
-3.9158127	modlitwę	-0.042385377
-3.9158127	pomodlić	-0.042385377
-3.0563846	ni	-0.06473089
-3.9158127	zasię	-0.042385377
-3.7327685	takich	-0.042385377
-3.9158127	dłoniach	-0.042385377
-3.7327685	grzechu	-0.042385377
-3.9158127	spocą	-0.042385377
-3.0563846	wciąż	-0.042385403
-3.9158127	uboczem	-0.042385377
-3.9158127	ustroniach	-0.042385377
-3.9158127	płyń	-0.042385377
-3.9158127	zbiegu	-0.042385377
-3.1766741	życia	-0.042385377
-3.9158127	poszło	-0.042385377
-3.9158127	lamenty	-0.042385377
-3.9158127	póki	-0.042385377
-3.9158127	krew	-0.042385377
-3.9158127	śpiewa	-0.042385377
-3.9158127	skroniach	-0.042385377
-3.9158127	wypłynąłem	-0.042385377
-3.9158127	morskie	-0.042385377
-3.9158127	odmęty	-0.042385377
-3.6182926	okręt	-0.042385377
-3.9158127	starszy	-0.042385377
-3.7327685	wód	-0.042385377
-3.9158127	chwały	-0.042385377
-3.9158127	wnątrz	-0.042385377
-3.7327685	jego	-0.042385377
-3.7327685	dębów	-0.042385377
-3.7327685	tysiąca	-0.18254548
-3.9158127	borach	-0.042385377
-3.9158127	szumiały	-0.042385377
-3.0067928	mu	-0.042385377
-3.9158127	starością	-0.042385377
-3.9158127	pamięć	-0.042385377
-3.9158127	zmąca	-0.042385377
-3.9158127	borów	-0.042385377
-3.9158127	tęsknoty	-0.042385377
-3.9158127	dęby	-0.042385377
-3.9158127	lądu	-0.042385377
-3.6182926	otchłanie	-0.21073455
-3.9158127	strąca	-0.042385377
-3.9158127	przerósł	-0.042385377
-3.45959	on	-0.08427261
-3.3436139	swym	-0.09315759
-3.9158127	nadmiarem	-0.042385377
-3.9158127	grąży	-0.042385377
-3.9158127	mało	-0.042385377
-3.9158127	mając	-0.042385377
-3.9158127	roboty	-0.042385377
-3.9158127	płyniesz	-0.042385377
-3.6182926	jako	-0.042385377
-3.9158127	ruchomym	-0.042385377
-3.9158127	barłogu	-0.042385377
-3.9158127	drzemie	-0.042385377
-3.3436139	prócz	-0.042385377
-3.7327685	skargi	-0.042385377
-3.9158127	głuchej	-0.042385377
-3.9158127	rozpanoszonej	-0.042385377
-3.9158127	morza	-0.042385377
-3.9158127	rozłogu	-0.042385377
-3.9158127	geogname	-0.042385377
-3.9158127	nabrzmiałe	-0.042385377
-3.9158127	skier	-0.042385377
-3.9158127	zawieruchy	-0.042385377
-3.7327685	złotym	-0.042385377
-3.9158127	wąwozem	-0.042385377
-3.6182926	fali	-0.042385377
-3.7327685	dłuży	-0.18254548
-3.7327685	fala	-0.042385377
-3.9158127	szczerbi	-0.042385377
-3.9158127	wąwozu	-0.042385377
-3.9158127	szlak	-0.042385377
-3.9158127	kruchy	-0.042385377
-3.9158127	zaczerpnąwszy	-0.042385377
-3.7327685	zeń	-0.042385377
-3.2521718	świateł	-0.042385377
-3.9158127	kruży	-0.042385377
-3.9158127	swoich	-0.042385377
-3.7327685	błękitów	-0.042385377
-3.9158127	wychyla	-0.042385377
-3.9158127	odmęcie	-0.042385377
-3.9158127	kruż	-0.042385377
-3.9158127	pianą	-0.042385377
-3.9158127	brzegach	-0.042385377
-3.7327685	burzy	-0.18254548
-3.9158127	spojrzę	-0.042385377
-3.9158127	lądów	-0.042385377
-3.7327685	zniknięcie	-0.042385377
-3.7327685	zda	-0.18254548
-3.7327685	spodem	-0.042385377
-3.9158127	zaczajona	-0.042385377
-3.9158127	płynę	-0.042385377
-3.9158127	okręcie	-0.042385377
-3.6182926	woda	-0.042385377
-3.9158127	słona	-0.042385377
-3.9158127	szmaragdy	-0.042385377
-3.9158127	miażdżąc	-0.042385377
-3.9158127	ukropie	-0.042385377
-3.9158127	spienionem	-0.042385377
-3.9158127	ślepiem	-0.042385377
-3.7327685	odbić	-0.042385377
-3.9158127	skał	-0.042385377
-3.9158127	łona	-0.042385377
-3.9158127	widziany	-0.042385377
-3.9158127	płynąłem	-0.042385377
-3.9158127	tropie	-0.042385377
-3.9158127	nasłuchując	-0.042385377
-3.9158127	szumu	-0.042385377
-2.850958	niby	-0.042385403
-3.7327685	szum	-0.042385377
-3.9158127	rozwiązanym	-0.042385377
-3.9158127	snopie	-0.042385377
-3.9158127	odróżniałem	-0.042385377
-3.45959	owej	-0.042385377
-3.6182926	godzinie	-0.13063526
-3.9158127	rozpyłem	-0.042385377
-3.9158127	znaczy	-0.042385377
-3.3436139	swój	-0.042385377
-3.7327685	pobyt	-0.18254548
-3.9158127	zanik	-0.042385377
-3.9158127	głębinie	-0.042385377
-3.9158127	zdało	-0.042385377
-2.8849926	sam	-0.071528
-3.7327685	byłem	-0.042385377
-3.7327685	brzegiem	-0.042385377
-3.9158127	zniknionym	-0.042385377
-3.2521718	placename	-0.042385377
-3.9158127	przeźroczu	-0.042385377
-3.9158127	odbiłem	-0.042385377
-3.9158127	straciłem	-0.042385377
-3.9158127	stając	-0.042385377
-3.9158127	bezbrzeżny	-0.042385377
-3.9158127	swem	-0.042385377
-3.9158127	podobłoczu	-0.042385377
-3.9158127	niedostrzeżny	-0.042385377
-3.9158127	przydany	-0.042385377
-3.7327685	falom	-0.042385377
-3.9158127	przemijaniu	-0.042385377
-3.9158127	pian	-0.042385377
-3.9158127	dokoła	-0.042385377
-3.9158127	zieloności	-0.042385377
-3.9158127	śnieżnej	-0.042385377
-3.7327685	wtedym	-0.042385377
-3.9158127	ujrzał	-0.042385377
-3.9158127	rozkołysaniu	-0.042385377
-3.9158127	wyspę	-0.042385377
-3.9158127	skupioną	-0.042385377
-3.9158127	zadumy	-0.042385377
-3.9158127	spowiciu	-0.042385377
-3.9158127	głębiami	-0.042385377
-3.7327685	trwaniu	-0.18254548
-3.9158127	spoczywała	-0.042385377
-3.9158127	własnem	-0.042385377
-3.9158127	odbiciu	-0.042385377
-3.9158127	obrzmiałym	-0.042385377
-3.9158127	zielenią	-0.042385377
-3.9158127	cokole	-0.042385377
-3.9158127	widniał	-0.042385377
-3.7327685	wszystek	-0.042385377
-3.9158127	podwodnem	-0.042385377
-3.9158127	ukryciu	-0.042385377
-3.9158127	górze	-0.042385377
-3.3436139	był	-0.042385377
-3.9158127	dole	-0.042385377
-3.9158127	samych	-0.042385377
-3.9158127	owadów	-0.042385377
-3.7327685	nieco	-0.042385377
-3.7327685	inne	-0.042385377
-3.9158127	wodne	-0.042385377
-3.9158127	swawole	-0.042385377
-3.9158127	wzloty	-0.042385377
-3.9158127	były	-0.042385377
-3.9158127	podobne	-0.042385377
-3.9158127	spadów	-0.042385377
-3.9158127	usilnych	-0.042385377
-3.9158127	głębie	-0.042385377
-3.9158127	turkusem	-0.042385377
-3.9158127	wezbrała	-0.042385377
-3.9158127	bezdeń	-0.042385377
-3.9158127	wywróconych	-0.042385377
-3.9158127	sadów	-0.042385377
-3.7327685	ptak	-0.042385377
-3.9158127	dojrzany	-0.042385377
-3.7327685	szedł	-0.042385377
-3.9158127	przymusem	-0.042385377
-3.9158127	dno	-0.042385377
-3.7327685	skroś	-0.042385377
-3.9158127	liście	-0.042385377
-3.9158127	zaś	-0.042385377
-3.9158127	szpary	-0.042385377
-3.7327685	liści	-0.042385377
-3.9158127	biegła	-0.042385377
-3.9158127	niepochwytnym	-0.042385377
-3.9158127	kłusem	-0.042385377
-3.7327685	ledwo	-0.042385377
-3.9158127	mogłeś	-0.042385377
-3.9158127	rozpoznać	-0.042385377
-3.9158127	szarej	-0.042385377
-3.9158127	przezroczy	-0.042385377
-3.9158127	wypełniły	-0.042385377
-3.9158127	szczelnie	-0.042385377
-3.7327685	kwiatów	-0.042385377
-3.9158127	nadmiary	-0.042385377
-3.9158127	okrętem	-0.042385377
-3.9158127	płynąc	-0.042385377
-3.9158127	niepodzielnie	-0.042385377
-3.9158127	brnąłem	-0.042385377
-3.9158127	dziwów	-0.042385377
-3.7327685	snów	-0.042385377
-3.9158127	grzęzawicę	-0.042385377
-3.9158127	oczarowany	-0.042385377
-3.9158127	strasznie	-0.042385377
-3.7327685	śmiertelnie	-0.042385377
-3.9158127	zarzuciłem	-0.042385377
-3.9158127	szmer	-0.042385377
-3.9158127	wody	-0.042385377
-3.9158127	kotwicę	-0.042385377
-3.9158127	grążyła	-0.042385377
-3.7327685	kolejno	-0.042385377
-3.7327685	ziół	-0.042385377
-3.7327685	sploty	-0.042385377
-3.7327685	złotą	-0.042385377
-3.9158127	motylicę	-0.042385377
-3.9158127	zmącona	-0.042385377
-3.9158127	rozchwiała	-0.042385377
-3.9158127	loty	-0.042385377
-3.9158127	znikła	-0.042385377
-3.9158127	bruzdach	-0.042385377
-3.9158127	toni	-0.042385377
-3.9158127	rozwiązał	-0.042385377
-3.9158127	supeł	-0.042385377
-3.9158127	wyskoczył	-0.042385377
-3.7327685	brzeg	-0.042385377
-3.9158127	jeszczem	-0.042385377
-3.2521718	coś	-0.12174185
-3.7327685	śnił	-0.042385377
-3.7327685	radości	-0.042385377
-3.9158127	zaciśnięte	-0.042385377
-3.9158127	pięście	-0.042385377
-3.9158127	wtłaczając	-0.042385377
-3.9158127	węsząc	-0.042385377
-3.9158127	jad	-0.042385377
-3.7327685	woni	-0.18254548
-3.45959	gdzieś	-0.09315759
-3.7327685	dnie	-0.042385377
-3.9158127	zaczajone	-0.042385377
-3.9158127	szczęście	-0.042385377
-3.9158127	wybiegło	-0.042385377
-3.9158127	trwać	-0.042385377
-3.9158127	pszczół	-0.042385377
-3.9158127	brzęku	-0.042385377
-3.9158127	łątek	-0.042385377
-3.9158127	pochrzęście	-0.042385377
-3.7327685	biegłem	-0.042385377
-3.6182926	dalej	-0.042385377
-3.7327685	żem	-0.042385377
-3.9158127	pstrokaty	-0.042385377
-3.9158127	zbryzgało	-0.042385377
-3.6182926	złotem	-0.13063526
-3.7327685	włosy	-0.042385377
-3.7327685	szaty	-0.18254548
-3.7327685	ptakom	-0.042385377
-3.9158127	zdam	-0.042385377
-3.9158127	zaledwo	-0.042385377
-3.9158127	migotem	-0.042385377
-3.9158127	światła	-0.042385377
-3.45959	zieleni	-0.21073455
-3.9158127	zjawieniec	-0.042385377
-3.6182926	słoneczny	-0.13063526
-3.9158127	złoci	-0.042385377
-3.9158127	mimolotem	-0.042385377
-3.9158127	uderzył	-0.042385377
-3.9158127	odwieczny	-0.042385377
-3.9158127	okrzyk	-0.042385377
-3.9158127	ptaków	-0.042385377
-3.9158127	uwięzły	-0.042385377
-3.9158127	gęstwinie	-0.042385377
-3.9158127	zapamiętały	-0.042385377
-3.7327685	zdyszany	-0.042385377
-3.9158127	serdeczny	-0.042385377
-3.9158127	biegnącemu	-0.042385377
-3.9158127	gmatwaninie	-0.042385377
-3.6182926	nieba	-0.042385377
-3.9158127	nagromadzi	-0.042385377
-3.9158127	oku	-0.042385377
-3.7327685	ziemia	-0.042385377
-3.9158127	zginie	-0.042385377
-3.9158127	zginęła	-0.042385377
-3.9158127	gotów	-0.042385377
-3.9158127	skoku	-0.042385377
-3.9158127	stanąłem	-0.042385377
-3.9158127	szukając	-0.042385377
-3.9158127	dali	-0.042385377
-3.9158127	długość	-0.042385377
-3.9158127	sznurów	-0.042385377
-3.9158127	korali	-0.042385377
-3.7327685	albo	-0.042385377
-3.9158127	miarę	-0.042385377
-3.7327685	dwojga	-0.042385377
-3.6182926	cieni	-0.2853359
-3.6182926	przede	-0.2853359
-3.6182926	chata	-0.042385377
-3.9158127	dziw	-0.042385377
-3.9158127	zuchwali	-0.042385377
-3.9158127	przezroczych	-0.042385377
-3.9158127	ciosana	-0.042385377
-3.9158127	kamieni	-0.042385377
-3.3436139	widział	-0.042385377
-3.7327685	wnętrza	-0.042385377
-3.9158127	nietajoną	-0.042385377
-3.9158127	wzbronność	-0.042385377
-3.9158127	sprzęt	-0.042385377
-3.9158127	wszelaki	-0.042385377
-3.45959	świetlicy	-0.10683555
-3.6182926	sieni	-0.13063526
-3.9158127	przejrzystą	-0.042385377
-3.9158127	ustronność	-0.042385377
-3.7327685	szła	-0.13063526
-3.7327685	oto	-0.042385377
-3.9158127	najdalsze	-0.042385377
-3.9158127	zakąty	-0.042385377
-3.9158127	marzeń	-0.042385377
-3.9158127	wpatrzona	-0.042385377
-3.9158127	dozgonność	-0.042385377
-3.9158127	siódmą	-0.042385377
-3.9158127	górę	-0.042385377
-3.6182926	chyba	-0.042385377
-3.9158127	kraj	-0.042385377
-3.9158127	dziesiąty	-0.042385377
-3.9158127	patrzyła	-0.042385377
-3.7327685	ręce	-0.042385377
-3.9158127	nieznośne	-0.042385377
-3.9158127	szyją	-0.042385377
-3.9158127	wiążąc	-0.042385377
-3.9158127	wygodnie	-0.042385377
-3.9158127	białe	-0.042385377
-3.9158127	trójkąty	-0.042385377
-3.9158127	tył	-0.042385377
-3.9158127	warkoczem	-0.042385377
-3.9158127	wstrząsnęła	-0.042385377
-3.9158127	żmiją	-0.042385377
-3.7327685	mego	-0.042385377
-3.9158127	oglądał	-0.042385377
-3.7327685	ubocza	-0.18254548
-3.9158127	idącą	-0.042385377
-3.9158127	niczyją	-0.042385377
-3.9158127	ściana	-0.042385377
-3.9158127	dzieliła	-0.042385377
-3.7327685	przezrocza	-0.042385377
-3.6182926	hen	-0.2853359
-3.9158127	upale	-0.042385377
-3.9158127	tajała	-0.042385377
-3.9158127	kroplami	-0.042385377
-3.9158127	ściekając	-0.042385377
-3.9158127	zmrocza	-0.042385377
-3.9158127	pomyślałem	-0.042385377
-3.9158127	spojrzy	-0.042385377
-3.9158127	spojrzała	-0.042385377
-3.9158127	zaniedbawszy	-0.042385377
-3.9158127	rozwiązania	-0.042385377
-3.2521718	dłoni	-0.2140357
-3.9158127	płonęła	-0.042385377
-3.9158127	przeciw	-0.042385377
-3.9158127	nieruchomiała	-0.042385377
-3.45959	my	-0.042385377
-3.9158127	każde	-0.042385377
-3.9158127	ustroni	-0.042385377
-3.9158127	rzęsą	-0.042385377
-3.9158127	wstrzymany	-0.042385377
-3.6182926	tchu	-0.042385377
-3.9158127	przemija	-0.042385377
-3.9158127	trwoni	-0.042385377
-3.9158127	orkany	-0.042385377
-3.9158127	zemdlały	-0.042385377
-3.1766741	ciszę	-0.16960575
-3.7327685	dwu	-0.042385377
-3.6182926	łąk	-0.042385377
-3.7327685	spadły	-0.042385377
-3.9158127	gdyśmy	-0.042385377
-3.9158127	byli	-0.042385377
-3.9158127	wpatrzeni	-0.042385377
-3.7327685	szepnąłem	-0.042385377
-3.9158127	chato	-0.042385377
-3.9158127	upojna	-0.042385377
-3.9158127	wino	-0.042385377
-3.9158127	świetlico	-0.042385377
-3.9158127	tyżeś	-0.042385377
-3.9158127	przyszła	-0.042385377
-3.9158127	wiosenna	-0.042385377
-3.9158127	godzino	-0.042385377
-3.9158127	miłosnych	-0.042385377
-3.9158127	przygód	-0.042385377
-3.9158127	pierwszej	-0.042385377
-3.9158127	rozmowy	-0.042385377
-3.9158127	nieznaną	-0.042385377
-3.9158127	dotychczas	-0.042385377
-3.9158127	dziewczyną	-0.042385377
-3.9158127	zdybał	-0.042385377
-3.9158127	zawrocie	-0.042385377
-3.6182926	głowy	-0.10683555
-3.9158127	pierwszego	-0.042385377
-3.9158127	szalał	-0.042385377
-3.9158127	wejrzenia	-0.042385377
-3.9158127	zna	-0.042385377
-3.9158127	szału	-0.042385377
-3.9158127	jałowy	-0.042385377
-3.9158127	pochwalona	-0.042385377
-3.9158127	ściano	-0.042385377
-3.9158127	żeś	-0.042385377
-3.9158127	utaiła	-0.042385377
-3.0067928	stóp	-0.09315759
-3.9158127	ziemio	-0.042385377
-3.9158127	ziemną	-0.042385377
-3.9158127	moc	-0.042385377
-3.9158127	narzuca	-0.042385377
-3.9158127	wyjdzi	-0.042385377
-3.9158127	dziewczyno	-0.042385377
-3.6182926	rozkosz	-0.042385377
-3.9158127	wzajemną	-0.042385377
-3.9158127	marzenia	-0.042385377
-3.9158127	omdlenia	-0.042385377
-3.6182926	chaty	-0.13063526
-3.6182926	wyszła	-0.042385377
-3.7327685	czyniąc	-0.042385377
-3.9158127	szeptem	-0.042385377
-3.7327685	zaświaty	-0.18254548
-3.9158127	pozbawiaj	-0.042385377
-3.45959	tajemnicy	-0.21073455
-3.9158127	wszystką	-0.042385377
-3.9158127	męką	-0.042385377
-3.9158127	czyjejś	-0.042385377
-3.9158127	szerokiej	-0.042385377
-3.6182926	źrenicy	-0.2853359
-3.9158127	dlategom	-0.042385377
-3.7327685	taką	-0.042385377
-3.9158127	zbudowała	-0.042385377
-3.9158127	ażebym	-0.042385377
-3.9158127	widna	-0.042385377
-3.2521718	była	-0.042385403
-3.7327685	gwiazdom	-0.042385377
-3.9158127	wszystkiemu	-0.042385377
-3.7327685	własny	-0.042385377
-3.9158127	sierocy	-0.042385377
-3.9158127	motyl	-0.042385377
-3.7327685	bąk	-0.042385377
-3.9158127	samotność	-0.042385377
-3.9158127	utrudza	-0.042385377
-3.7327685	nocy	-0.042385377
-3.9158127	przezroczej	-0.042385377
-3.9158127	nieustannością	-0.042385377
-3.6182926	wonnego	-0.13063526
-3.6182926	istnienia	-0.2853359
-3.9158127	poiłam	-0.042385377
-3.6182926	pragnął	-0.042385377
-3.7327685	napoju	-0.18254548
-3.7327685	także	-0.042385377
-3.9158127	doznajesz	-0.042385377
-3.9158127	lice	-0.042385377
-3.9158127	różowość	-0.042385377
-3.9158127	uważ	-0.042385377
-3.9158127	niechcenia	-0.042385377
-3.9158127	samotnicę	-0.042385377
-3.7327685	skąd	-0.042385377
-3.9158127	światem	-0.042385377
-3.9158127	wyspie	-0.042385377
-3.9158127	rozłąka	-0.042385377
-3.9158127	ojczyzna	-0.042385377
-3.9158127	twoi	-0.042385377
-3.7327685	rodzice	-0.042385377
-3.9158127	słuchaj	-0.042385377
-3.9158127	pamięci	-0.042385377
-3.9158127	błąka	-0.042385377
-3.2521718	twarz	-0.042385377
-3.9158127	żar	-0.042385377
-3.9158127	zbyteczny	-0.042385377
-3.9158127	ujrzana	-0.042385377
-3.6182926	zrozumiałem	-0.2853359
-3.9158127	traf	-0.042385377
-3.9158127	stworzył	-0.042385377
-3.9158127	białośnieżną	-0.042385377
-3.9158127	rozśpiewał	-0.042385377
-3.7327685	zgiełk	-0.042385377
-3.9158127	wieczny	-0.042385377
-3.9158127	rozkołysał	-0.042385377
-3.9158127	znój	-0.042385377
-3.7327685	patrzał	-0.042385377
-3.9158127	znojną	-0.042385377
-3.9158127	myślałem	-0.042385377
-3.7327685	patrzenia	-0.042385377
-3.9158127	zaniedyszę	-0.042385377
-3.45959	rzekła	-0.042385377
-3.7327685	boleśnie	-0.042385377
-3.7327685	nocą	-0.042385377
-3.9158127	ognie	-0.042385377
-3.7327685	szkarłaty	-0.18254548
-3.45959	barw	-0.042385377
-3.9158127	ostateczność	-0.042385377
-3.6182926	przeraża	-0.042385377
-3.9158127	bywa	-0.042385377
-3.7327685	jeno	-0.042385377
-3.9158127	bogaty	-0.042385377
-3.9158127	kwiecia	-0.042385377
-3.7327685	nikogo	-0.042385377
-3.9158127	wokoło	-0.042385377
-3.9158127	zmęczenia	-0.042385377
-3.9158127	zrywałam	-0.042385377
-3.6182926	mówiła	-0.042385377
-3.9158127	kładła	-0.042385377
-3.6182926	własną	-0.042385377
-3.9158127	zwinnym	-0.042385377
-3.9158127	odruchem	-0.042385377
-3.9158127	czyjąś	-0.042385377
-3.9158127	zdradziecko	-0.042385377
-3.9158127	wesołą	-0.042385377
-3.9158127	niedawno	-0.042385377
-3.7327685	stała	-0.042385377
-3.6182926	duchem	-0.042385377
-3.9158127	sadu	-0.042385377
-3.9158127	poszła	-0.042385377
-3.9158127	niewidzialność	-0.042385377
-3.9158127	szumiącą	-0.042385377
-3.9158127	urwiskiem	-0.042385377
-3.9158127	głuchem	-0.042385377
-3.9158127	pytała	-0.042385377
-3.9158127	wierzę	-0.042385377
-3.9158127	upalność	-0.042385377
-3.9158127	widziane	-0.042385377
-3.6182926	przelotem	-0.2853359
-3.7327685	mży	-0.042385377
-3.9158127	oddalność	-0.042385377
-3.7327685	mówił	-0.042385377
-3.9158127	wszystkiem	-0.042385377
-3.9158127	mogłem	-0.042385377
-3.9158127	pomieścić	-0.042385377
-3.9158127	utwierdzić	-0.042385377
-3.9158127	gwiezdnym	-0.042385377
-3.9158127	namiotem	-0.042385377
-3.9158127	rozszeleścić	-0.042385377
-3.9158127	umiała	-0.042385377
-3.9158127	łkać	-0.042385377
-3.9158127	pragnąć	-0.042385377
-3.9158127	pieścić	-0.042385377
-3.6182926	niebo	-0.042385377
-3.9158127	zamierzyć	-0.042385377
-3.9158127	strzała	-0.042385377
-3.9158127	wysłuchać	-0.042385377
-3.9158127	modlitwy	-0.042385377
-3.9158127	szeptanej	-0.042385377
-3.6182926	wspomnieniem	-0.042385377
-3.9158127	rozszerzone	-0.042385377
-3.9158127	cienistej	-0.042385377
-3.9158127	altany	-0.042385377
-3.9158127	odgarniała	-0.042385377
-3.9158127	natrętnych	-0.042385377
-3.9158127	warkoczy	-0.042385377
-3.9158127	ażeby	-0.042385377
-3.9158127	przydać	-0.042385377
-3.9158127	uwagi	-0.042385377
-3.45959	swego	-0.042385377
-3.9158127	słuchania	-0.042385377
-3.9158127	ochoczej	-0.042385377
-3.9158127	załamując	-0.042385377
-3.45959	tamtą	-0.042385377
-3.9158127	zwalczyć	-0.042385377
-3.9158127	jednem	-0.042385377
-3.9158127	wymówiła	-0.042385377
-3.7327685	niemal	-0.042385377
-3.45959	szelestem	-0.41027465
-3.9158127	własne	-0.042385377
-3.9158127	bruździły	-0.042385377
-3.45959	echem	-0.042385377
-3.9158127	dwudziestem	-0.042385377
-3.9158127	tamta	-0.042385377
-3.9158127	godna	-0.042385377
-3.7327685	wcale	-0.18254548
-3.9158127	trwogi	-0.042385377
-3.6182926	można	-0.042385377
-3.9158127	myślą	-0.042385377
-3.9158127	zadać	-0.042385377
-3.9158127	pomimo	-0.042385377
-3.9158127	oddale	-0.042385377
-3.7327685	zabijmy	-0.042385377
-3.7327685	nagła	-0.042385377
-3.9158127	nieostrożna	-0.042385377
-3.9158127	czarów	-0.042385377
-3.9158127	pozostanie	-0.042385377
-3.9158127	rozdrożna	-0.042385377
-3.9158127	wyrzuciła	-0.042385377
-3.9158127	warkoczów	-0.042385377
-3.9158127	ukrycia	-0.042385377
-3.9158127	rozdwojonej	-0.042385377
-3.9158127	wyciągnęła	-0.042385377
-3.9158127	picia	-0.042385377
-3.7327685	naraz	-0.042385377
-3.9158127	zaszumiały	-0.042385377
-3.9158127	uważniej	-0.042385377
-3.9158127	przyglądam	-0.042385377
-3.9158127	wschodu	-0.042385377
-3.9158127	pokazu	-0.042385377
-3.9158127	senniej	-0.042385377
-3.9158127	domysłach	-0.042385377
-3.9158127	spytany	-0.042385377
-3.7327685	rozkazu	-0.18254548
-3.9158127	barwę	-0.042385377
-3.9158127	współbarwę	-0.042385377
-3.9158127	włosa	-0.042385377
-3.9158127	umiał	-0.042385377
-3.9158127	powiedzieć	-0.042385377
-3.7327685	razu	-0.13063526
-3.6182926	poranku	-0.042385377
-3.9158127	skoro	-0.042385377
-3.9158127	świt	-0.042385377
-3.7327685	rosa	-0.042385377
-3.9158127	uśmiechem	-0.042385377
-3.9158127	złocistowłosa	-0.042385377
-3.3436139	wieczór	-0.042385377
-3.9158127	mrokami	-0.042385377
-3.9158127	obrzmiewa	-0.042385377
-3.9158127	ciemnieją	-0.042385377
-3.9158127	zmierzchają	-0.042385377
-3.9158127	kruczym	-0.042385377
-3.9158127	splotem	-0.042385377
-3.9158127	nęci	-0.042385377
-3.9158127	czarnobrewa	-0.042385377
-3.9158127	próżno	-0.042385377
-3.6182926	pieszczotą	-0.042385377
-3.9158127	badam	-0.042385377
-3.9158127	wargami	-0.042385377
-3.9158127	pijąc	-0.042385377
-3.9158127	przemiany	-0.042385377
-3.9158127	daruje	-0.042385377
-3.9158127	siostrzyce	-0.042385377
-3.7327685	gdybyś	-0.042385377
-3.7327685	rozlał	-0.042385377
-3.9158127	dzbany	-0.042385377
-3.9158127	jagód	-0.042385377
-3.9158127	przydał	-0.042385377
-3.6182926	samej	-0.042385377
-3.9158127	czerwieni	-0.042385377
-3.9158127	wonności	-0.042385377
-3.9158127	wywianej	-0.042385377
-3.9158127	myślę	-0.042385377
-3.9158127	mieni	-0.042385377
-3.7327685	nasłuchuje	-0.042385377
-3.7327685	czujnie	-0.18254548
-3.9158127	umieją	-0.042385377
-3.9158127	zdziwieni	-0.042385377
-3.9158127	kochany	-0.042385377
-3.9158127	podwójnie	-0.042385377
-3.7327685	rana	-0.042385377
-3.9158127	zmierzchem	-0.042385377
-3.9158127	dwóm	-0.042385377
-3.7327685	odmiennym	-0.042385377
-3.9158127	dając	-0.042385377
-3.9158127	spójnię	-0.042385377
-3.9158127	niezrozumień	-0.042385377
-3.9158127	upojnej	-0.042385377
-3.9158127	zaprzepaszczałem	-0.042385377
-3.9158127	dziwach	-0.042385377
-3.9158127	zmyślnego	-0.042385377
-3.7327685	niepokój	-0.042385377
-3.9158127	tułaczy	-0.042385377
-3.7327685	wobec	-0.042385377
-3.9158127	biała	-0.042385377
-3.3436139	księżyca	-0.042385377
-3.9158127	wzdyma	-0.042385377
-3.9158127	objęciach	-0.042385377
-3.9158127	wieczorniała	-0.042385377
-3.7327685	spytałem	-0.042385377
-3.9158127	szeptów	-0.042385377
-3.9158127	zdyszanych	-0.042385377
-3.9158127	podziwem	-0.042385377
-3.9158127	rozkoszy	-0.042385377
-3.9158127	inna	-0.042385377
-3.7327685	wiedziała	-0.042385377
-3.9158127	pozór	-0.042385377
-3.9158127	macoszej	-0.042385377
-3.7327685	czuła	-0.042385377
-3.9158127	zmienia	-0.042385377
-3.9158127	przebarwia	-0.042385377
-3.9158127	czai	-0.042385377
-3.7327685	płoszy	-0.042385377
-3.9158127	przeróżność	-0.042385377
-3.9158127	wszechmożliwość	-0.042385377
-3.9158127	wszechniespodzianość	-0.042385377
-3.9158127	uśmiechnięty	-0.042385377
-3.9158127	niezrozumienia	-0.042385377
-3.9158127	znojność	-0.042385377
-3.9158127	różaność	-0.042385377
-3.6182926	dąb	-0.042385377
-3.9158127	szumiący	-0.042385377
-3.7327685	spoczywa	-0.042385377
-3.9158127	pijaność	-0.042385377
-3.9158127	zrozumiawszy	-0.042385377
-3.9158127	niechcący	-0.042385377
-3.3436139	między	-0.042385377
-3.9158127	dziwy	-0.042385377
-3.9158127	wliczona	-0.042385377
-3.9158127	objęć	-0.042385377
-3.9158127	zmrokiem	-0.042385377
-3.9158127	gorący	-0.042385377
-3.9158127	pobliskie	-0.042385377
-3.9158127	wszarpnęła	-0.042385377
-3.9158127	wzgórze	-0.042385377
-3.9158127	wielkiem	-0.042385377
-3.9158127	posrebrzysku	-0.042385377
-3.9158127	stanęła	-0.042385377
-3.9158127	czerniejąca	-0.042385377
-3.9158127	lazurze	-0.042385377
-3.9158127	pląsać	-0.042385377
-3.9158127	rozbłysku	-0.042385377
-3.9158127	zbadać	-0.042385377
-3.9158127	pląsów	-0.042385377
-3.9158127	zadumą	-0.042385377
-3.9158127	przekorną	-0.042385377
-3.7327685	byłam	-0.042385377
-3.9158127	schronisku	-0.042385377
-3.7327685	rankiem	-0.042385377
-3.7327685	zaranną	-0.042385377
-3.9158127	wieczorem	-0.042385377
-3.7327685	wieczorną	-0.042385377
-3.9158127	bezkresów	-0.042385377
-3.9158127	bezkresną	-0.042385377
-3.9158127	jezior	-0.042385377
-3.9158127	jeziorną	-0.042385377
-3.9158127	polno	-0.042385377
-3.9158127	leśno	-0.042385377
-3.3436139	dość	-0.042385377
-3.7327685	wbiec	-0.042385377
-3.9158127	gęstwę	-0.042385377
-3.9158127	drzewną	-0.042385377
-3.9158127	dębowi	-0.042385377
-3.9158127	jakiemuś	-0.042385377
-3.9158127	rówieśną	-0.042385377
-3.9158127	chcę	-0.042385377
-3.7327685	nagłą	-0.042385377
-3.9158127	wiedzę	-0.042385377
-3.9158127	śpiewną	-0.042385377
-3.9158127	nieustanną	-0.042385377
-3.9158127	głosić	-0.042385377
-3.9158127	wzgórza	-0.042385377
-3.9158127	rozwiewną	-0.042385377
-3.9158127	śnieżność	-0.042385377
-3.9158127	sanną	-0.042385377
-3.9158127	rozszalałą	-0.042385377
-3.7327685	szepniesz	-0.042385377
-3.9158127	wolisz	-0.042385377
-3.1766741	choć	-0.07341601
-3.9158127	obydwie	-0.042385377
-3.9158127	zazdrosne	-0.042385377
-3.9158127	obydwóm	-0.042385377
-3.7327685	przysiąż	-0.042385377
-3.9158127	zarówność	-0.042385377
-3.9158127	kochania	-0.042385377
-3.9158127	oddajem	-0.042385377
-3.9158127	posłania	-0.042385377
-3.9158127	zdźwigniesz	-0.042385377
-3.9158127	trudu	-0.042385377
-3.9158127	wiekuistego	-0.042385377
-3.7327685	szczęściem	-0.042385377
-3.9158127	czuwania	-0.042385377
-3.7327685	będziesz	-0.042385377
-3.9158127	wzorem	-0.042385377
-3.9158127	złotego	-0.042385377
-3.9158127	ludu	-0.042385377
-3.9158127	bezrozłąkę	-0.042385377
-3.7327685	błękitem	-0.18254548
-3.9158127	uląkł	-0.042385377
-3.9158127	nadmiar	-0.042385377
-3.9158127	cudu	-0.042385377
-3.9158127	zawołasz	-0.042385377
-3.9158127	ukrytem	-0.042385377
-3.9158127	zwyczajnej	-0.042385377
-3.7327685	rozkwitem	-0.18254548
-3.9158127	pieśni	-0.042385377
-3.9158127	leśnej	-0.042385377
-3.9158127	ruczajnej	-0.042385377
-3.9158127	wyznawał	-0.042385377
-3.45959	odtąd	-0.042385377
-3.9158127	mimowolność	-0.042385377
-3.6182926	serca	-0.042385377
-3.9158127	chciwego	-0.042385377
-3.9158127	swobody	-0.042385377
-3.9158127	rozstajnej	-0.042385377
-3.9158127	bogów	-0.042385377
-3.9158127	niezdolność	-0.042385377
-3.9158127	zbiegniesz	-0.042385377
-3.7327685	niemiłowanie	-0.042385377
-3.9158127	głuchą	-0.042385377
-3.9158127	bezleśność	-0.042385377
-3.9158127	nudną	-0.042385377
-3.9158127	bezpolność	-0.042385377
-3.9158127	przysięgam	-0.042385377
-3.9158127	żadne	-0.042385377
-3.9158127	rozstanie	-0.042385377
-3.9158127	ujdę	-0.042385377
-3.9158127	twojego	-0.042385377
-3.9158127	objęcia	-0.042385377
-3.45959	miłość	-0.042385377
-3.9158127	chłonął	-0.042385377
-3.7327685	twego	-0.042385377
-3.7327685	zaklęcia	-0.18254548
-3.9158127	bezrozum	-0.042385377
-3.9158127	zamrocz	-0.042385377
-3.9158127	przerwy	-0.042385377
-3.9158127	wniebowzięcia	-0.042385377
-3.9158127	nade	-0.042385377
-3.9158127	wiszar	-0.042385377
-3.7327685	bezmiarach	-0.042385377
-3.9158127	bujnością	-0.042385377
-3.9158127	potęgi	-0.042385377
-3.9158127	stłumi	-0.042385377
-3.6182926	pląs	-0.042385377
-3.9158127	zawroty	-0.042385377
-3.9158127	dreszczu	-0.042385377
-3.6182926	przysięgi	-0.042385377
-3.9158127	wzgórzu	-0.042385377
-3.9158127	brzegu	-0.042385377
-3.9158127	srebrnem	-0.042385377
-3.9158127	bezdrożem	-0.042385377
-3.9158127	księżycowej	-0.042385377
-3.9158127	wstęgi	-0.042385377
-3.7327685	szał	-0.042385377
-3.9158127	biegu	-0.042385377
-3.9158127	kibicią	-0.042385377
-3.9158127	pieśń	-0.042385377
-3.9158127	szeregu	-0.042385377
-3.9158127	tańcem	-0.042385377
-3.9158127	zakłócone	-0.042385377
-3.9158127	ciężyła	-0.042385377
-3.9158127	żmudna	-0.042385377
-3.9158127	osłona	-0.042385377
-3.7327685	samym	-0.042385377
-3.9158127	śpiewało	-0.042385377
-3.7327685	śpiewającą	-0.042385377
-3.9158127	porwałem	-0.042385377
-3.7327685	znak	-0.042385377
-3.9158127	przegiąłem	-0.042385377
-3.9158127	przegiętej	-0.042385377
-3.9158127	kona	-0.042385377
-3.9158127	skonu	-0.042385377
-3.9158127	mącą	-0.042385377
-3.9158127	spodziewał	-0.042385377
-3.9158127	czylim	-0.042385377
-3.9158127	przeczuwał	-0.042385377
-3.9158127	tęsknotami	-0.042385377
-3.9158127	powrócę	-0.042385377
-3.9158127	światy	-0.042385377
-3.9158127	dawny	-0.042385377
-3.9158127	tumanem	-0.042385377
-3.9158127	osnuwał	-0.042385377
-3.9158127	dreszczów	-0.042385377
-3.9158127	żeglarz	-0.042385377
-3.9158127	zabłąkany	-0.042385377
-3.45959	baśnie	-0.41027465
-3.6182926	naokół	-0.042385377
-3.9158127	wysnówna	-0.042385377
-3.9158127	błysku	-0.042385377
-3.6182926	gaśnie	-0.2853359
-3.9158127	miłowaniu	-0.042385377
-3.9158127	dorówna	-0.042385377
-3.9158127	serce	-0.042385377
-3.9158127	zbezwładni	-0.042385377
-3.6182926	tęsknota	-0.042385377
-3.9158127	córka	-0.042385377
-3.9158127	księżycówna	-0.042385377
-3.9158127	umiem	-0.042385377
-3.9158127	różą	-0.042385377
-3.9158127	naznaczyć	-0.042385377
-3.9158127	wrota	-0.042385377
-3.9158127	pukaniem	-0.042385377
-3.9158127	zakłócić	-0.042385377
-3.9158127	rozwarły	-0.042385377
-3.9158127	jasność	-0.042385377
-3.9158127	żywota	-0.042385377
-3.7327685	miłości	-0.042385377
-3.6182926	ów	-0.042385377
-3.7327685	przepych	-0.042385377
-3.9158127	przywrócić	-0.042385377
-3.9158127	jedyna	-0.042385377
-3.9158127	dąsać	-0.042385377
-3.9158127	smucić	-0.042385377
-3.9158127	kazać	-0.042385377
-3.9158127	komuś	-0.042385377
-3.9158127	wspomina	-0.042385377
-3.9158127	wielkim	-0.042385377
-3.9158127	legł	-0.042385377
-3.9158127	słonecznym	-0.042385377
-3.9158127	zegarze	-0.042385377
-3.9158127	drzewnej	-0.042385377
-3.9158127	zapodziany	-0.042385377
-3.9158127	czułem	-0.042385377
-3.9158127	ślad	-0.042385377
-3.9158127	kroczy	-0.042385377
-3.7327685	mógł	-0.042385377
-3.9158127	brać	-0.042385377
-3.9158127	kij	-0.042385377
-3.9158127	pastuszy	-0.042385377
-3.9158127	pytaniem	-0.042385377
-3.9158127	pytam	-0.042385377
-3.9158127	zuchwała	-0.042385377
-3.9158127	natrętna	-0.042385377
-3.45959	patrzę	-0.042385377
-3.9158127	pieścisz	-0.042385377
-3.9158127	jakom	-0.042385377
-3.7327685	chciała	-0.042385377
-3.9158127	twoje	-0.042385377
-3.9158127	oduczyły	-0.042385377
-3.9158127	pochłaniać	-0.042385377
-3.6182926	kształt	-0.042385377
-3.9158127	twem	-0.042385377
-3.9158127	łonie	-0.042385377
-3.9158127	powieką	-0.042385377
-3.6182926	inną	-0.042385377
-3.9158127	całując	-0.042385377
-3.7327685	skronie	-0.042385377
-3.7327685	dreszcz	-0.042385377
-3.9158127	wzięty	-0.042385377
-3.9158127	daleką	-0.042385377
-3.9158127	przenosisz	-0.042385377
-3.3436139	myśli	-0.042385377
-3.9158127	skradzioną	-0.042385377
-3.9158127	falę	-0.042385377
-3.9158127	rozminęła	-0.042385377
-3.9158127	rzeką	-0.042385377
-3.9158127	czyli	-0.042385377
-3.9158127	szeptane	-0.042385377
-3.9158127	przeciwszałem	-0.042385377
-3.9158127	okrutnym	-0.042385377
-3.9158127	radosne	-0.042385377
-3.9158127	darowane	-0.042385377
-3.9158127	odbierzesz	-0.042385377
-3.9158127	mogą	-0.042385377
-3.7327685	muszą	-0.042385377
-3.9158127	chcą	-0.042385377
-3.45959	być	-0.042385377
-3.9158127	złamane	-0.042385377
-3.7327685	przysięga	-0.042385377
-3.9158127	wiosnę	-0.042385377
-3.9158127	harfa	-0.042385377
-3.9158127	struny	-0.042385377
-3.9158127	harfiane	-0.042385377
-3.7327685	wierność	-0.042385377
-3.7327685	jednemu	-0.042385377
-3.9158127	śpiewowi	-0.042385377
-3.9158127	zemszczą	-0.042385377
-3.9158127	kiedyś	-0.042385377
-3.9158127	niewyśpiewane	-0.042385377
-3.9158127	zorzą	-0.042385377
-3.9158127	różowi	-0.042385377
-3.9158127	zieloność	-0.042385377
-3.9158127	drzewna	-0.042385377
-3.7327685	złotych	-0.042385377
-3.9158127	żuków	-0.042385377
-3.9158127	roi	-0.042385377
-3.9158127	mrowi	-0.042385377
-3.9158127	odpowie	-0.042385377
-3.9158127	gniewna	-0.042385377
-3.9158127	dałam	-0.042385377
-3.9158127	żukom	-0.042385377
-3.9158127	syta	-0.042385377
-3.9158127	dwoistość	-0.042385377
-3.7327685	czaru	-0.042385377
-3.7327685	baśni	-0.042385377
-3.9158127	królewna	-0.042385377
-3.7327685	różny	-0.042385377
-3.9158127	rozdwoju	-0.042385377
-3.9158127	czerni	-0.042385377
-3.7327685	błękitu	-0.18254548
-3.9158127	włos	-0.042385377
-3.9158127	hebanowy	-0.042385377
-3.9158127	zmienną	-0.042385377
-3.9158127	przerzutność	-0.042385377
-3.9158127	zachwytu	-0.042385377
-3.9158127	hebanu	-0.042385377
-3.7327685	purpurę	-0.042385377
-3.9158127	tajemnic	-0.042385377
-3.9158127	oczywistość	-0.042385377
-3.7327685	świtu	-0.18254548
-3.9158127	spadłej	-0.042385377
-3.9158127	rosie	-0.042385377
-3.9158127	rozpoznajże	-0.042385377
-3.9158127	chmurę	-0.042385377
-3.9158127	którejś	-0.042385377
-3.9158127	brał	-0.042385377
-3.9158127	napoje	-0.042385377
-3.9158127	nowe	-0.042385377
-3.9158127	sycą	-0.042385377
-3.9158127	mieczem	-0.042385377
-3.9158127	rozciął	-0.042385377
-3.7327685	głowę	-0.042385377
-3.7327685	wre	-0.042385377
-3.9158127	zdrzemnę	-0.042385377
-3.9158127	zajrzał	-0.042385377
-3.6182926	mroki	-0.042385377
-3.9158127	rubinowe	-0.042385377
-3.9158127	tobyś	-0.042385377
-3.9158127	wyśledził	-0.042385377
-3.9158127	morderstwo	-0.042385377
-3.9158127	nikczemne	-0.042385377
-3.6182926	wiecznie	-0.042385377
-3.9158127	ciemku	-0.042385377
-3.9158127	odbywa	-0.042385377
-3.9158127	krwawych	-0.042385377
-3.9158127	poszlak	-0.042385377
-3.7327685	ślady	-0.042385377
-3.9158127	potajemne	-0.042385377
-3.9158127	tyś	-0.042385377
-3.9158127	poszepnął	-0.042385377
-3.9158127	zgadliwa	-0.042385377
-3.9158127	oswojoną	-0.042385377
-3.9158127	wzięłam	-0.042385377
-3.9158127	gadzinę	-0.042385377
-3.9158127	parzy	-0.042385377
-3.9158127	pokrzywa	-0.042385377
-3.9158127	zabijam	-0.042385377
-3.7327685	kołysząc	-0.042385377
-3.9158127	kołyszesz	-0.042385377
-3.6182926	zwłoki	-0.042385377
-3.7327685	sine	-0.18254548
-3.9158127	upojona	-0.042385377
-3.7327685	rosy	-0.042385377
-3.9158127	przekleństwem	-0.042385377
-3.9158127	krwawem	-0.042385377
-3.9158127	płoni	-0.042385377
-3.9158127	obwieszczę	-0.042385377
-3.7327685	rozśpiewana	-0.042385377
-3.9158127	zgonem	-0.042385377
-3.7327685	mogiła	-0.042385377
-3.9158127	będą	-0.042385377
-3.7327685	dreszcze	-0.042385377
-3.7327685	któremu	-0.042385377
-3.9158127	ulżyła	-0.042385377
-3.9158127	nieobecność	-0.042385377
-3.7327685	całym	-0.042385377
-3.6182926	świecie	-0.042385377
-3.9158127	wspomniałem	-0.042385377
-3.9158127	chcąc	-0.042385377
-3.9158127	przecie	-0.042385377
-3.9158127	wysłowienia	-0.042385377
-3.9158127	znęcony	-0.042385377
-3.7327685	zamiecie	-0.18254548
-3.7327685	nasze	-0.042385377
-3.7327685	krainie	-0.042385377
-3.9158127	spotkały	-0.042385377
-3.9158127	jawne	-0.042385377
-3.9158127	namiętne	-0.042385377
-3.9158127	też	-0.042385377
-3.9158127	chcenia	-0.042385377
-3.9158127	ulżyło	-0.042385377
-3.9158127	doszczętne	-0.042385377
-3.9158127	całego	-0.042385377
-3.7327685	tamtego	-0.042385377
-3.9158127	niechętne	-0.042385377
-3.9158127	niechęć	-0.042385377
-3.6182926	wyspy	-0.042385377
-3.6182926	jarach	-0.042385377
-3.9158127	pies	-0.042385377
-3.9158127	zaglądając	-0.042385377
-3.9158127	pana	-0.042385377
-3.9158127	wyje	-0.042385377
-3.9158127	księżyc	-0.042385377
-3.9158127	odbity	-0.042385377
-3.9158127	szparach	-0.042385377
-3.9158127	zostało	-0.042385377
-3.9158127	mdła	-0.042385377
-3.9158127	piana	-0.042385377
-3.9158127	zdyszane	-0.042385377
-3.6182926	wspomnienie	-0.2853359
-3.9158127	szkarłat	-0.042385377
-3.9158127	zapatrzona	-0.042385377
-3.9158127	zdziwionych	-0.042385377
-3.7327685	nagłe	-0.042385377
-3.9158127	zniechęcenie	-0.042385377
-3.9158127	zamiast	-0.042385377
-3.9158127	łączyć	-0.042385377
-3.9158127	różnic	-0.042385377
-3.9158127	przewinę	-0.042385377
-3.9158127	bezśpiewne	-0.042385377
-3.9158127	spadają	-0.042385377
-3.2521718	cienie	-0.07803561
-3.9158127	przynęcą	-0.042385377
-3.9158127	wnet	-0.042385377
-3.9158127	otoczy	-0.042385377
-3.9158127	smutek	-0.042385377
-3.9158127	złuda	-0.042385377
-3.9158127	niosąc	-0.042385377
-3.9158127	bezprzyczynę	-0.042385377
-3.9158127	komu	-0.042385377
-3.9158127	pierwsza	-0.042385377
-3.9158127	uda	-0.042385377
-3.9158127	goniąc	-0.042385377
-3.9158127	zemsty	-0.042385377
-3.9158127	pokona	-0.042385377
-3.9158127	depcze	-0.042385377
-3.9158127	drodze	-0.042385377
-3.9158127	napotkane	-0.042385377
-3.9158127	cuda	-0.042385377
-3.9158127	kogokolwiek	-0.042385377
-3.9158127	pochwyci	-0.042385377
-3.9158127	pchnie	-0.042385377
-3.9158127	pieszcząc	-0.042385377
-3.9158127	pochyłość	-0.042385377
-3.9158127	zgadnie	-0.042385377
-3.9158127	żądz	-0.042385377
-3.9158127	zawiłość	-0.042385377
-3.9158127	rozstrzygnąć	-0.042385377
-3.9158127	dziewczęcej	-0.042385377
-3.9158127	pocałunkach	-0.042385377
-3.9158127	pieści	-0.042385377
-3.9158127	znojniej	-0.042385377
-3.9158127	chciwiej	-0.042385377
-3.9158127	więcej	-0.042385377
-3.9158127	żarliwsze	-0.042385377
-3.9158127	skarg	-0.042385377
-3.9158127	płomienie	-0.042385377
-3.9158127	odechciewa	-0.042385377
-3.9158127	pewniej	-0.042385377
-3.9158127	goręcej	-0.042385377
-3.9158127	większe	-0.042385377
-3.9158127	znieczulenie	-0.042385377
-3.9158127	dąs	-0.042385377
-3.9158127	gniew	-0.042385377
-3.9158127	roztargnienie	-0.042385377
-3.7327685	szept	-0.042385377
-3.7327685	zamęt	-0.042385377
-3.9158127	różowy	-0.042385377
-3.7327685	wargom	-0.042385377
-3.9158127	wzajemnych	-0.042385377
-3.9158127	znienawidziłem	-0.042385377
-3.9158127	owy	-0.042385377
-3.9158127	czuł	-0.042385377
-3.9158127	snach	-0.042385377
-3.9158127	pokątnych	-0.042385377
-3.9158127	ciemnych	-0.042385377
-3.9158127	conocnej	-0.042385377
-3.9158127	zbrodni	-0.042385377
-3.9158127	dojrzewają	-0.042385377
-3.9158127	owoce	-0.042385377
-3.9158127	podziemnych	-0.042385377
-3.9158127	ssąc	-0.042385377
-3.9158127	owoców	-0.042385377
-3.9158127	jadowite	-0.042385377
-3.9158127	soki	-0.042385377
-3.9158127	szedłem	-0.042385377
-3.9158127	zgrozą	-0.042385377
-3.9158127	swych	-0.042385377
-3.9158127	ponęt	-0.042385377
-3.9158127	bezszumny	-0.042385377
-3.9158127	niemiłowania	-0.042385377
-3.9158127	cieniste	-0.042385377
-3.9158127	zatoki	-0.042385377
-3.9158127	jużem	-0.042385377
-3.7327685	blady	-0.042385377
-3.9158127	bezrozumny	-0.042385377
-3.9158127	rozradowany	-0.042385377
-3.7327685	przyśniły	-0.18254548
-3.7327685	źrenicą	-0.042385377
-3.7327685	chorą	-0.18254548
-3.7327685	mniej	-0.042385377
-3.9158127	pięknego	-0.042385377
-3.9158127	pożąda	-0.042385377
-3.9158127	dziewczęcia	-0.042385377
-3.9158127	skorą	-0.042385377
-3.9158127	znojnym	-0.042385377
-3.9158127	koralom	-0.042385377
-3.9158127	zwiększyć	-0.042385377
-3.9158127	owego	-0.042385377
-3.9158127	ujęcia	-0.042385377
-3.9158127	przydaje	-0.042385377
-3.9158127	przepychu	-0.042385377
-3.9158127	żalom	-0.042385377
-3.9158127	cierniami	-0.042385377
-3.9158127	czesząc	-0.042385377
-3.7327685	posłuszne	-0.042385377
-3.9158127	warkocze	-0.042385377
-3.9158127	wzbraniające	-0.042385377
-3.9158127	zamętu	-0.042385377
-3.9158127	kły	-0.042385377
-3.9158127	tygrysie	-0.042385377
-3.9158127	żeru	-0.042385377
-3.9158127	ochocze	-0.042385377
-3.9158127	lubi	-0.042385377
-3.9158127	różami	-0.042385377
-3.9158127	zdruzgocze	-0.042385377
-3.6182926	duchu	-0.042385377
-3.9158127	zielonościach	-0.042385377
-3.9158127	jął	-0.042385377
-3.9158127	szerzyć	-0.042385377
-3.9158127	przygasło	-0.042385377
-3.9158127	rzekłbyś	-0.042385377
-3.9158127	kilka	-0.042385377
-3.7327685	głębi	-0.042385377
-3.9158127	gwiazdozbioru	-0.042385377
-3.7327685	hasło	-0.042385377
-3.9158127	zamienił	-0.042385377
-3.9158127	kryjąc	-0.042385377
-3.9158127	zmianę	-0.042385377
-3.9158127	śmiechem	-0.042385377
-3.9158127	odwrzasło	-0.042385377
-3.9158127	czuciem	-0.042385377
-3.7327685	głazu	-0.18254548
-3.9158127	opętany	-0.042385377
-3.7327685	sercem	-0.042385377
-3.9158127	oszalał	-0.042385377
-3.7327685	pewnego	-0.18254548
-3.9158127	dopalał	-0.042385377
-3.7327685	światłami	-0.042385377
-3.9158127	przebierając	-0.042385377
-3.9158127	tychże	-0.042385377
-3.9158127	światłach	-0.042385377
-3.9158127	zamierzch	-0.042385377
-3.9158127	oddalał	-0.042385377
-3.9158127	jawna	-0.042385377
-3.9158127	drapieżność	-0.042385377
-3.9158127	purpurach	-0.042385377
-3.9158127	pokładły	-0.042385377
-3.9158127	piętrach	-0.042385377
-3.7327685	obłoków	-0.042385377
-3.9158127	krwawe	-0.042385377
-3.9158127	paszcze	-0.042385377
-3.9158127	zwikłanych	-0.042385377
-3.9158127	górach	-0.042385377
-3.7327685	dwojgiem	-0.042385377
-3.9158127	dzwoniących	-0.042385377
-3.9158127	potoków	-0.042385377
-3.9158127	leżała	-0.042385377
-3.9158127	łokciem	-0.042385377
-3.9158127	dzieląc	-0.042385377
-3.9158127	biorąc	-0.042385377
-3.7327685	brzemię	-0.042385377
-3.9158127	oków	-0.042385377
-3.9158127	wrodzy	-0.042385377
-3.9158127	byliśmy	-0.042385377
-3.9158127	niemi	-0.042385377
-3.9158127	łączył	-0.042385377
-3.9158127	zapodział	-0.042385377
-3.9158127	różnych	-0.042385377
-3.9158127	światach	-0.042385377
-3.7327685	myślami	-0.042385377
-3.9158127	różnemi	-0.042385377
-3.9158127	całej	-0.042385377
-3.9158127	podział	-0.042385377
-3.6182926	różne	-0.042385377
-3.9158127	przyodział	-0.042385377
-3.6182926	niebem	-0.042385377
-3.9158127	wpół	-0.042385377
-3.9158127	zwieczorniałem	-0.042385377
-3.9158127	dniał	-0.042385377
-3.9158127	źrenic	-0.042385377
-3.9158127	przejrzysty	-0.042385377
-3.45959	błękit	-0.042385377
-3.9158127	powiek	-0.042385377
-3.9158127	zgadywałem	-0.042385377
-3.6182926	może	-0.042385377
-3.9158127	listy	-0.042385377
-3.7327685	zbrodnia	-0.042385377
-3.9158127	wkradła	-0.042385377
-3.9158127	przelotny	-0.042385377
-3.7327685	śniła	-0.042385377
-3.9158127	ot	-0.042385377
-3.9158127	czyjś	-0.042385377
-3.9158127	wiekuisty	-0.042385377
-3.9158127	spoczynek	-0.042385377
-3.9158127	robotny	-0.042385377
-3.9158127	weśnioną	-0.042385377
-3.9158127	mgławe	-0.042385377
-3.6182926	nóż	-0.042385377
-3.9158127	błyskał	-0.042385377
-3.7327685	samotny	-0.042385377
-3.9158127	warkocz	-0.042385377
-3.9158127	wężem	-0.042385377
-3.9158127	trawę	-0.042385377
-3.9158127	zdał	-0.042385377
-3.9158127	zuchwałem	-0.042385377
-3.9158127	bujnem	-0.042385377
-3.9158127	przedłużeniem	-0.042385377
-3.9158127	ukrytej	-0.042385377
-3.7327685	kark	-0.042385377
-3.6182926	biały	-0.13063526
-3.9158127	jawę	-0.042385377
-3.9158127	zrazu	-0.042385377
-3.9158127	weń	-0.042385377
-3.9158127	ugodzić	-0.042385377
-3.9158127	brzemieniem	-0.042385377
-3.6182926	noża	-0.042385377
-3.9158127	dala	-0.042385377
-3.9158127	utkwiony	-0.042385377
-3.9158127	namyśle	-0.042385377
-3.9158127	przecinał	-0.042385377
-3.9158127	obciśłe	-0.042385377
-3.9158127	tężyły	-0.042385377
-3.9158127	żywe	-0.042385377
-3.9158127	ciężkie	-0.042385377
-3.9158127	atłasy	-0.042385377
-3.9158127	ważąc	-0.042385377
-3.9158127	koromyśle	-0.042385377
-3.9158127	świadomość	-0.042385377
-3.9158127	krasy	-0.042385377
-3.9158127	pulsująca	-0.042385377
-3.9158127	winem	-0.042385377
-3.9158127	rozlewa	-0.042385377
-3.9158127	ciemnościach	-0.042385377
-3.9158127	drzemią	-0.042385377
-3.9158127	bezczasy	-0.042385377
-3.9158127	wahał	-0.042385377
-3.6182926	drzewa	-0.13063526
-3.9158127	zdmuchnięty	-0.042385377
-3.7327685	brzegi	-0.042385377
-3.9158127	postrzegłem	-0.042385377
-3.9158127	podejrzewa	-0.042385377
-3.9158127	ostrze	-0.042385377
-3.9158127	nazbyt	-0.042385377
-3.9158127	rzęsach	-0.042385377
-3.9158127	ślepy	-0.042385377
-3.9158127	kret	-0.042385377
-3.9158127	ryjący	-0.042385377
-3.9158127	błysk	-0.042385377
-3.9158127	zwęszył	-0.042385377
-3.9158127	nożowi	-0.042385377
-3.9158127	nadał	-0.042385377
-3.9158127	ruchy	-0.042385377
-3.9158127	kocie	-0.042385377
-3.9158127	ostrzem	-0.042385377
-3.9158127	zaczaił	-0.042385377
-3.9158127	szalejąc	-0.042385377
-3.9158127	krwawej	-0.042385377
-3.9158127	robocie	-0.042385377
-3.9158127	rozwarła	-0.042385377
-3.9158127	blask	-0.042385377
-3.9158127	prędzej	-0.042385377
-3.9158127	błękitne	-0.042385377
-3.9158127	pociemniały	-0.042385377
-3.9158127	warkoczu	-0.042385377
-3.9158127	niepochwytne	-0.042385377
-3.9158127	przebiegły	-0.042385377
-3.9158127	pociemniał	-0.042385377
-3.7327685	spójrz	-0.042385377
-3.9158127	szepnęła	-0.042385377
-3.9158127	czarno	-0.042385377
-3.9158127	kwitnę	-0.042385377
-3.9158127	wypodziemniał	-0.042385377
-3.9158127	skrawek	-0.042385377
-3.9158127	przemocą	-0.042385377
-3.6182926	wypadł	-0.13063526
-3.9158127	znikczemniał	-0.042385377
-3.9158127	zmierzchłe	-0.042385377
-3.9158127	zbłękitnieją	-0.042385377
-3.9158127	odzłocą	-0.042385377
-3.9158127	beznadzieją	-0.042385377
-3.9158127	krwawiący	-0.042385377
-3.7327685	chmury	-0.042385377
-3.9158127	przeminie	-0.042385377
-3.7327685	snami	-0.042385377
-3.9158127	szaleją	-0.042385377
-3.9158127	umrzeć	-0.042385377
-3.9158127	jakiś	-0.042385377
-3.9158127	wielki	-0.042385377
-3.9158127	twarzą	-0.042385377
-3.9158127	znajomą	-0.042385377
-3.7327685	skonał	-0.042385377
-3.9158127	straszno	-0.042385377
-3.9158127	zerwać	-0.042385377
-3.9158127	nogi	-0.042385377
-3.7327685	takiego	-0.042385377
-3.9158127	stromą	-0.042385377
-3.9158127	wesprzeć	-0.042385377
-3.7327685	jakieś	-0.042385377
-3.9158127	progi	-0.042385377
-3.9158127	dziwnie	-0.042385377
-3.9158127	rzeczywiste	-0.042385377
-3.7327685	siana	-0.042385377
-3.9158127	łąkach	-0.042385377
-3.6182926	stogi	-0.042385377
-3.7327685	cisza	-0.042385377
-3.9158127	piętrzy	-0.042385377
-3.9158127	mgliste	-0.042385377
-3.9158127	chodzą	-0.042385377
-3.9158127	bezhałaśnie	-0.042385377
-3.45959	poprzez	-0.10683555
-3.9158127	pozłociste	-0.042385377
-3.9158127	skoszonych	-0.042385377
-3.7327685	patrzyłem	-0.042385377
-3.9158127	wzbroni	-0.042385377
-3.6182926	oczom	-0.042385377
-3.9158127	podniosła	-0.042385377
-3.9158127	jęła	-0.042385377
-3.9158127	śpiewie	-0.042385377
-3.9158127	przykładać	-0.042385377
-3.9158127	skroni	-0.042385377
-3.9158127	przykładając	-0.042385377
-3.7327685	kim	-0.042385377
-3.9158127	zabija	-0.042385377
-3.9158127	bosą	-0.042385377
-3.9158127	nagim	-0.042385377
-3.9158127	nań	-0.042385377
-3.9158127	nożem	-0.042385377
-3.9158127	następuje	-0.042385377
-3.9158127	gniewie	-0.042385377
-3.9158127	zabił	-0.042385377
-3.9158127	złotowłosą	-0.042385377
-3.9158127	błękitami	-0.042385377
-3.9158127	gwarna	-0.042385377
-3.9158127	rozmowna	-0.042385377
-3.9158127	pozostała	-0.042385377
-3.9158127	czarna	-0.042385377
-3.9158127	uszła	-0.042385377
-3.9158127	kłom	-0.042385377
-3.7327685	trwa	-0.042385377
-3.9158127	zbyteczna	-0.042385377
-3.9158127	smutna	-0.042385377
-3.9158127	bezkarna	-0.042385377
-3.9158127	boża	-0.042385377
-3.9158127	nocować	-0.042385377
-3.9158127	mają	-0.042385377
-3.9158127	nocleg	-0.042385377
-3.9158127	bezdroża	-0.042385377
-3.9158127	złotowłosej	-0.042385377
-3.9158127	odlocie	-0.042385377
-3.9158127	siostrzycy	-0.042385377
-3.9158127	trwam	-0.042385377
-3.9158127	samotna	-0.042385377
-3.9158127	com	-0.042385377
-3.9158127	zbrodnie	-0.042385377
-3.7327685	krwi	-0.042385377
-3.9158127	srebrze	-0.042385377
-3.9158127	błyskawicy	-0.042385377
-3.9158127	płonęły	-0.042385377
-3.9158127	pochodnie	-0.042385377
-3.9158127	zgasił	-0.042385377
-3.9158127	zgaszoną	-0.042385377
-3.9158127	grześć	-0.042385377
-3.9158127	ogień	-0.042385377
-3.9158127	chłodnie	-0.042385377
-3.9158127	pokusisz	-0.042385377
-3.9158127	kochając	-0.042385377
-3.9158127	dotkniesz	-0.042385377
-3.9158127	zmienisz	-0.042385377
-3.9158127	podepczesz	-0.042385377
-3.9158127	zdusisz	-0.042385377
-3.9158127	burze	-0.042385377
-3.9158127	zmiotą	-0.042385377
-3.9158127	wspartą	-0.042385377
-3.9158127	oburącz	-0.042385377
-3.9158127	wyśnionym	-0.042385377
-3.9158127	przęśle	-0.042385377
-3.9158127	mostu	-0.042385377
-3.9158127	wspiętego	-0.042385377
-3.9158127	nizin	-0.042385377
-3.9158127	drętwotą	-0.042385377
-3.9158127	gęśle	-0.042385377
-3.9158127	zdruzgoczesz	-0.042385377
-3.9158127	ciśniesz	-0.042385377
-3.9158127	jezioro	-0.042385377
-3.9158127	wysrebrza	-0.042385377
-3.9158127	wklęśle	-0.042385377
-3.9158127	objawię	-0.042385377
-3.9158127	znaczoną	-0.042385377
-3.9158127	krwawym	-0.042385377
-3.9158127	nienawiści	-0.042385377
-3.9158127	chrzestem	-0.042385377
-3.6182926	zbyt	-0.042385377
-3.9158127	istnienie	-0.042385377
-3.7327685	kwiat	-0.042385377
-3.3436139	wiem	-0.2140357
-3.9158127	sądzi	-0.042385377
-3.9158127	mogłam	-0.042385377
-3.9158127	wiadomą	-0.042385377
-3.9158127	słynną	-0.042385377
-3.9158127	podwójnej	-0.042385377
-3.9158127	mocy	-0.042385377
-3.9158127	złożył	-0.042385377
-3.9158127	miałam	-0.042385377
-3.9158127	czynną	-0.042385377
-3.9158127	jaśniejszą	-0.042385377
-3.9158127	wypłoszył	-0.042385377
-3.9158127	zmorzył	-0.042385377
-3.9158127	bezmiłosnej	-0.042385377
-3.9158127	kradzieżą	-0.042385377
-3.9158127	zubożył	-0.042385377
-3.9158127	wierzą	-0.042385377
-3.9158127	niespodzianość	-0.042385377
-3.9158127	możliwość	-0.042385377
-3.9158127	czarnej	-0.042385377
-3.9158127	barwie	-0.042385377
-3.9158127	przynależą	-0.042385377
-3.9158127	przejrzyścieją	-0.042385377
-3.9158127	umarłych	-0.042385377
-3.9158127	widać	-0.042385377
-3.9158127	złotawość	-0.042385377
-3.9158127	niebytu	-0.042385377
-3.9158127	złocę	-0.042385377
-3.9158127	klonie	-0.042385377
-3.9158127	rodu	-0.042385377
-3.9158127	pomyśli	-0.042385377
-3.45959	zgonie	-0.10683555
-3.9158127	opasałem	-0.042385377
-3.7327685	ramieniem	-0.042385377
-3.9158127	wspomóc	-0.042385377
-3.9158127	ścichnie	-0.042385377
-3.9158127	zaśnie	-0.042385377
-3.9158127	zasnęły	-0.042385377
-3.9158127	najpierw	-0.042385377
-3.9158127	rzęs	-0.042385377
-3.9158127	zgodne	-0.042385377
-3.9158127	łanie	-0.042385377
-3.9158127	wstrzymały	-0.042385377
-3.9158127	strumieniem	-0.042385377
-3.9158127	poszły	-0.042385377
-3.9158127	skonanie	-0.042385377
-3.9158127	ręki	-0.042385377
-3.9158127	ściskała	-0.042385377
-3.9158127	pożegnanie	-0.042385377
-3.9158127	otworzystość	-0.042385377
-3.9158127	męki	-0.042385377
-3.9158127	sińce	-0.042385377
-3.9158127	mocno	-0.042385377
-3.9158127	wbite	-0.042385377
-3.9158127	nagie	-0.042385377
-3.9158127	sęki	-0.042385377
-3.9158127	konania	-0.042385377
-3.9158127	pracę	-0.042385377
-3.9158127	bezowocną	-0.042385377
-3.9158127	palce	-0.042385377
-3.9158127	prostują	-0.042385377
-3.9158127	wolna	-0.042385377
-3.9158127	spełniwszy	-0.042385377
-3.9158127	trud	-0.042385377
-3.7327685	godzinę	-0.042385377
-3.9158127	mąk	-0.042385377
-3.9158127	nocną	-0.042385377
-3.9158127	wysiłkiem	-0.042385377
-3.9158127	mozolna	-0.042385377
-3.9158127	zaciążyła	-0.042385377
-3.9158127	którem	-0.042385377
-3.9158127	tai	-0.042385377
-3.9158127	padolna	-0.042385377
-3.7327685	strumieni	-0.042385377
-3.9158127	spała	-0.042385377
-3.9158127	niosłem	-0.042385377
-3.7327685	przeźroczej	-0.18254548
-3.9158127	widniała	-0.042385377
-3.9158127	gąszcze	-0.042385377
-3.9158127	majaczył	-0.042385377
-3.9158127	dźwigał	-0.042385377
-3.9158127	wilgoci	-0.042385377
-3.9158127	paczył	-0.042385377
-3.9158127	skrzypiał	-0.042385377
-3.9158127	gałęzi	-0.042385377
-3.9158127	skurczem	-0.042385377
-3.9158127	gałąź	-0.042385377
-3.9158127	zwłokami	-0.042385377
-3.9158127	zahaczył	-0.042385377
-3.9158127	dziuple	-0.042385377
-3.9158127	wiewiórczem	-0.042385377
-3.6182926	nagły	-0.042385377
-3.9158127	szelest	-0.042385377
-3.9158127	ozywał	-0.042385377
-3.9158127	łamał	-0.042385377
-3.9158127	skupieniu	-0.042385377
-3.9158127	twórczem	-0.042385377
-3.9158127	czułeś	-0.042385377
-3.9158127	dysze	-0.042385377
-3.9158127	gęstwie	-0.042385377
-3.7327685	liść	-0.042385377
-3.9158127	bezwcześnie	-0.042385377
-3.9158127	dziennemu	-0.042385377
-3.9158127	lśni	-0.042385377
-3.7327685	szli	-0.042385377
-3.45959	ciągle	-0.042385377
-3.9158127	oboje	-0.042385377
-3.7327685	jednakim	-0.042385377
-3.7327685	trudem	-0.042385377
-3.9158127	pośpiechem	-0.042385377
-3.9158127	nierozłącznie	-0.042385377
-3.9158127	rozległa	-0.042385377
-3.9158127	rozpoznał	-0.042385377
-3.9158127	czworga	-0.042385377
-3.9158127	odgłosy	-0.042385377
-3.9158127	szliśmy	-0.042385377
-3.9158127	senni	-0.042385377
-3.9158127	grzechem	-0.042385377
-3.9158127	nocne	-0.042385377
-3.7327685	niebiosy	-0.18254548
-3.9158127	niesie	-0.042385377
-3.9158127	nurt	-0.042385377
-3.7327685	rzeki	-0.042385377
-3.9158127	zwierciadeł	-0.042385377
-3.9158127	pochwycie	-0.042385377
-3.9158127	pełniąc	-0.042385377
-3.9158127	ukosy	-0.042385377
-3.7327685	miałem	-0.042385377
-3.9158127	odbicie	-0.042385377
-3.9158127	przepełniony	-0.042385377
-3.7327685	ciszą	-0.042385377
-3.9158127	wezbrało	-0.042385377
-3.9158127	obficie	-0.042385377
-3.9158127	przesiany	-0.042385377
-3.7327685	drzew	-0.042385377
-3.9158127	szeregi	-0.042385377
-3.9158127	bladą	-0.042385377
-3.9158127	niewzbronną	-0.042385377
-3.9158127	kładł	-0.042385377
-3.9158127	pasma	-0.042385377
-3.9158127	szkarłatne	-0.042385377
-3.9158127	piegi	-0.042385377
-3.9158127	osłonną	-0.042385377
-3.9158127	piegowatą	-0.042385377
-3.9158127	wniosłem	-0.042385377
-3.9158127	przestronno	-0.042385377
-3.9158127	złożyłem	-0.042385377
-3.7327685	pełną	-0.042385377
-3.9158127	równo	-0.042385377
-3.9158127	skrzętnie	-0.042385377
-3.9158127	ostrożnie	-0.042385377
-3.9158127	brzegami	-0.042385377
-3.9158127	krynicy	-0.042385377
-3.9158127	usunąłem	-0.042385377
-3.9158127	trwożnie	-0.042385377
-3.9158127	światów	-0.042385377
-3.9158127	poglądać	-0.042385377
-3.9158127	niezłomnym	-0.042385377
-3.9158127	wielmożnie	-0.042385377
-3.6182926	zmarłą	-0.042385377
-3.9158127	rozważał	-0.042385377
-3.9158127	mierzył	-0.042385377
-3.9158127	warkocza	-0.042385377
-3.9158127	rósł	-0.042385377
-3.9158127	dłużył	-0.042385377
-3.9158127	szerzył	-0.042385377
-3.9158127	spóźniony	-0.042385377
-3.9158127	rozszumiał	-0.042385377
-3.9158127	pani	-0.042385377
-3.9158127	zgon	-0.042385377
-3.7327685	wierzył	-0.042385377
-3.9158127	wpełzał	-0.042385377
-3.9158127	spadał	-0.042385377
-3.9158127	czarnych	-0.042385377
-3.9158127	kędziorach	-0.042385377
-3.9158127	przytłumiał	-0.042385377
-3.9158127	szukał	-0.042385377
-3.9158127	czesały	-0.042385377
-3.7327685	znalazł	-0.042385377
-3.9158127	wreszcie	-0.042385377
-3.7327685	zrozumiał	-0.042385377
-3.9158127	bezwład	-0.042385377
-3.9158127	śmiertelnej	-0.042385377
-3.9158127	drzemoty	-0.042385377
-3.9158127	zwikłał	-0.042385377
-3.9158127	zanieszumiał	-0.042385377
-3.9158127	pozgonne	-0.042385377
-3.9158127	zaloty	-0.042385377
-3.7327685	kazały	-0.042385377
-3.9158127	przystroić	-0.042385377
-3.9158127	odzłocił	-0.042385377
-3.9158127	żywiec	-0.042385377
-3.9158127	przywrócił	-0.042385377
-3.9158127	dar	-0.042385377
-3.9158127	zmarła	-0.042385377
-3.9158127	jaki	-0.042385377
-3.9158127	dawnemu	-0.042385377
-3.9158127	wszystkiej	-0.042385377
-3.9158127	ozdobie	-0.042385377
-3.9158127	orszaki	-0.042385377
-3.9158127	pośmiertnym	-0.042385377
-3.9158127	skupionych	-0.042385377
-3.9158127	kuligiem	-0.042385377
-3.7327685	zowąd	-0.042385377
-3.7327685	podawała	-0.042385377
-3.9158127	znaki	-0.042385377
-3.9158127	zapragnął	-0.042385377
-3.9158127	podźwigiem	-0.042385377
-3.9158127	wspiął	-0.042385377
-3.9158127	tropiąc	-0.042385377
-3.9158127	pościgiem	-0.042385377
-3.9158127	wsłuchał	-0.042385377
-3.9158127	odbrzmiale	-0.042385377
-3.9158127	dalszą	-0.042385377
-3.9158127	tentent	-0.042385377
-3.9158127	koni	-0.042385377
-3.9158127	posyłał	-0.042385377
-3.9158127	swaty	-0.042385377
-3.9158127	poślubić	-0.042385377
-3.9158127	zląkł	-0.042385377
-3.9158127	myślach	-0.042385377
-3.9158127	począłem	-0.042385377
-3.9158127	gubić	-0.042385377
-3.9158127	zmarłej	-0.042385377
-3.9158127	obiecać	-0.042385377
-3.9158127	nasycić	-0.042385377
-3.9158127	przyhołubić	-0.042385377
-3.9158127	począł	-0.042385377
-3.7327685	wiatr	-0.042385377
-3.9158127	wzniecać	-0.042385377
-3.9158127	prząść	-0.042385377
-3.9158127	tkaninę	-0.042385377
-3.9158127	czarne	-0.042385377
-3.9158127	złotemi	-0.042385377
-3.9158127	sklecać	-0.042385377
-3.9158127	zezem	-0.042385377
-3.7327685	oka	-0.042385377
-3.9158127	spostrzegłem	-0.042385377
-3.9158127	stopy	-0.042385377
-3.9158127	wyciągnięte	-0.042385377
-3.9158127	zdają	-0.042385377
-3.9158127	wskazywać	-0.042385377
-3.9158127	poczęte	-0.042385377
-3.9158127	obleczone	-0.042385377
-3.9158127	szatą	-0.042385377
-3.9158127	biegły	-0.042385377
-3.9158127	kierunku	-0.042385377
-3.9158127	ponętę	-0.042385377
-3.9158127	jąłem	-0.042385377
-3.9158127	uchodzić	-0.042385377
-3.9158127	chatą	-0.042385377
-3.9158127	przeświecającą	-0.042385377
-3.9158127	zwłok	-0.042385377
-3.7327685	dziewczęcych	-0.042385377
-3.9158127	zbytkowną	-0.042385377
-3.9158127	poświatą	-0.042385377
-3.9158127	biegnąc	-0.042385377
-3.45959	słyszałem	-0.042385377
-3.9158127	ścielą	-0.042385377
-3.9158127	drzewom	-0.042385377
-3.9158127	szumem	-0.042385377
-3.9158127	dzielą	-0.042385377
-3.9158127	wszechrzeczy	-0.042385377
-3.9158127	kędy	-0.042385377
-3.9158127	gąszczów	-0.042385377
-3.7327685	człowieczy	-0.042385377
-3.9158127	unosząc	-0.042385377
-3.9158127	wylękłych	-0.042385377
-3.9158127	brzóz	-0.042385377
-3.9158127	olszyny	-0.042385377
-3.9158127	bojąc	-0.042385377
-3.9158127	zwierciadłach	-0.042385377
-3.9158127	ujrzeć	-0.042385377
-3.9158127	trafem	-0.042385377
-3.9158127	przewiny	-0.042385377
-3.9158127	niepojętą	-0.042385377
-3.7327685	wszelkiej	-0.042385377
-3.9158127	zdobiącej	-0.042385377
-3.9158127	rośliny	-0.042385377
-3.9158127	pragnęła	-0.042385377
-3.9158127	bladość	-0.042385377
-3.9158127	zżęto	-0.042385377
-3.9158127	zrównano	-0.042385377
-3.9158127	macierzankami	-0.042385377
-3.9158127	piołunem	-0.042385377
-3.9158127	miętą	-0.042385377
-3.9158127	dokolne	-0.042385377
-3.9158127	rozległy	-0.042385377
-3.9158127	morzu	-0.042385377
-3.9158127	powroty	-0.042385377
-3.9158127	czekał	-0.042385377
-3.9158127	wpatrzony	-0.042385377
-3.9158127	jaśnie	-0.042385377
-3.9158127	grążył	-0.042385377
-3.9158127	wbiegłem	-0.042385377
-3.9158127	pokład	-0.042385377
-3.9158127	ciężarem	-0.042385377
-3.9158127	przywarłem	-0.042385377
-3.9158127	miejsca	-0.042385377
-3.9158127	zbladła	-0.042385377
-3.9158127	błękitnym	-0.042385377
-3.9158127	drgająca	-0.042385377
-3.9158127	oparem	-0.042385377
-3.9158127	wonczas	-0.042385377
-3.9158127	mącąc	-0.042385377
-3.9158127	jasne	-0.042385377
-3.9158127	wyspa	-0.042385377
-3.9158127	rozluźniła	-0.042385377
-3.9158127	rozechwiała	-0.042385377
-3.9158127	przepadła	-0.042385377
-3.9158127	ślubne	-0.042385377
-3.9158127	pierścienie	-0.042385377
-3.9158127	skędzierzawiły	-0.042385377
-3.9158127	zliczył	-0.042385377
-3.9158127	secinę	-0.042385377
-3.9158127	ostatnie	-0.042385377
-3.9158127	zanikło	-0.042385377
-3.9158127	popłynę	-0.042385377
-3.9158127	żagiel	-0.042385377
-3.9158127	podałem	-0.042385377
-3.9158127	rozpięty	-0.042385377
-3.9158127	szerokość	-0.042385377
-3.9158127	zmierzyłem	-0.042385377
-3.9158127	głębinę	-0.042385377
-3.9158127	wbiegły	-0.042385377
-3.9158127	brzask	-0.042385377
-3.9158127	niebieskich	-0.042385377
-3.9158127	kopuł	-0.042385377
-3.9158127	zawadzający	-0.042385377
-3.9158127	skrzydłami	-0.042385377
-3.9158127	wysoka	-0.042385377
-3.9158127	nawał	-0.042385377
-3.9158127	senny	-0.042385377
-3.9158127	szkopuł	-0.042385377
-3.9158127	święć	-0.042385377
-3.9158127	miłosna	-0.042385377
-3.9158127	zwłoka	-0.042385377
-3.9158127	wybuchłej	-0.042385377
-3.9158127	musem	-0.042385377
-3.9158127	strażą	-0.042385377
-3.7327685	wiosenny	-0.042385377
-3.9158127	zarytem	-0.042385377
-3.7327685	murawach	-0.042385377
-3.9158127	rozśmiane	-0.042385377
-3.9158127	gardło	-0.042385377
-3.9158127	łka	-0.042385377
-3.9158127	zachłyśnięte	-0.042385377
-3.9158127	obumarłą	-0.042385377
-3.9158127	burzą	-0.042385377
-3.9158127	pogrzebie	-0.042385377
-3.9158127	zawarło	-0.042385377
-3.9158127	udar	-0.042385377
-3.9158127	nieprzytomny	-0.042385377
-3.9158127	zasłaniasz	-0.042385377
-3.9158127	blasku	-0.042385377
-3.9158127	oślepił	-0.042385377
-3.9158127	niechaj	-0.042385377
-3.9158127	szumią	-0.042385377
-3.9158127	szemrzą	-0.042385377
-3.9158127	chóry	-0.042385377
-3.9158127	niczyich	-0.042385377
-3.9158127	bezimiennych	-0.042385377
-3.9158127	głosów	-0.042385377
-3.9158127	stronią	-0.042385377
-3.9158127	żyznym	-0.042385377
-3.9158127	niebiosów	-0.042385377
-3.9158127	obłędna	-0.042385377
-3.9158127	brzoza	-0.042385377
-3.9158127	wbrew	-0.042385377
-3.9158127	wyrośnie	-0.042385377
-3.9158127	zmącić	-0.042385377
-3.9158127	zielonym	-0.042385377
-3.9158127	podane	-0.042385377
-3.9158127	wiośnie	-0.042385377
-3.9158127	zszarpie	-0.042385377
-3.9158127	płaszcz	-0.042385377
-3.9158127	ulewą	-0.042385377
-3.9158127	łez	-0.042385377
-3.9158127	bezwolnych	-0.042385377
-3.9158127	przemokły	-0.042385377
-3.9158127	radośnie	-0.042385377
-3.9158127	okrętowe	-0.042385377
-3.9158127	zbezlistniał	-0.042385377
-3.9158127	bielący	-0.042385377
-3.9158127	mewą	-0.042385377
-3.9158127	czyliś	-0.042385377
-3.9158127	naistniał	-0.042385377
-3.9158127	nachłonął	-0.042385377
-3.9158127	brzasków	-0.042385377
-3.9158127	niejeden	-0.042385377
-3.9158127	uoczywistniał	-0.042385377
-3.9158127	wirach	-0.042385377
-3.9158127	bezdeni	-0.042385377
-3.9158127	dokądże	-0.042385377
-3.9158127	dążysz	-0.042385377
-3.9158127	jakaż	-0.042385377
-3.9158127	poprzód	-0.042385377
-3.7327685	mgle	-0.042385377
-3.9158127	wściągnij	-0.042385377
-3.9158127	zesłabnij	-0.042385377
-3.9158127	pokorze	-0.042385377
-3.9158127	lądzie	-0.042385377
-3.9158127	wij	-0.042385377
-3.9158127	wspominając	-0.042385377
