\data\
ngram 1=1643
ngram 2=2364
ngram 3=1944
ngram 4=1418
ngram 5=903
ngram 6=447

\1-grams:
-3.3981335	<unk>	0
0	<s>	-0.7119759
-0.6856179	</s>	0
-2.5566356	persname	-0.30103
-3.3487399	światowe	-0.30103
-3.3487399	ludzi	-0.30103
-3.3487399	kochających	-0.30103
-3.3487399	skrycie	-0.30103
-3.3487399	proporcyi	-0.30103
-3.17622	orgname	-0.30103
-3.3487399	honoru	-0.30103
-3.3487399	śmieszną	-0.30103
-3.3487399	robotę,	-0.30103
-3.3487399	mały	-0.30103
-3.17622	pożytek	-0.30103
-3.3487399	zaczął	-0.30103
-3.3487399	*kupidodwojgu	-0.30103
-3.3487399	ludziach	-0.30103
-3.3487399	pracą;	-0.30103
-3.3487399	wysechł	-0.30103
-3.3487399	wiór,	-0.30103
-3.3487399	zamyśleniu	-0.30103
-3.3487399	wszytek,	-0.30103
-3.17622	wzdycha,	-0.30103
-3.3487399	jęczy	-0.30103
-3.3487399	niepewną	-0.30103
-3.3487399	płacą:	-0.30103
-3.3487399	przetakiem	-0.30103
-3.17622	chce	-0.30103
-3.3487399	naczerpać	-0.30103
-3.3487399	wody,	-0.30103
-1.787492	,	-0.42596874
-3.3487399	ochłody.	-0.30103
-3.17622	skrada	-0.30103
-3.3487399	kotek	-0.30103
-3.17622	mleka	-0.30103
-3.3487399	słodkie,	-0.30103
-3.3487399	liznął	-0.30103
-3.17622	nieborak	-0.30103
-3.3487399	śmietany;	-0.30103
-3.3487399	zapomniał,	-0.30103
-3.3487399	gusta	-0.30103
-3.3487399	krótkie,	-0.30103
-3.3487399	odrzekłby	-0.30103
-3.3487399	skarany.	-0.30103
-3.3487399	rzecze,	-0.30103
-3.3487399	usłyszy,	-0.30103
-3.3487399	kot	-0.30103
-3.3487399	szuka	-0.30103
-3.3487399	mleka,	-0.30103
-3.3487399	myszy.	-0.30103
-3.17622	myśl	-0.30103
-3.3487399	krówce,	-0.30103
-3.3487399	strzeże;	-0.30103
-3.3487399	oczom	-0.30103
-3.3487399	snu	-0.30103
-3.3487399	przybrać	-0.30103
-3.3487399	twardego.	-0.30103
-3.3487399	danaewyprowadzić	-0.30103
-3.3487399	wieże,	-0.30103
-3.3487399	koncept,	-0.30103
-3.17622	trzeba	-0.30103
-3.3487399	mocniejszego;	-0.30103
-3.3487399	potrafisz	-0.30103
-3.17622	złote	-0.30103
-3.3487399	sypać	-0.30103
-3.3487399	deszcze,	-0.30103
-3.3487399	snem	-0.30103
-3.3487399	oszukać,	-0.30103
-3.3487399	ostrożnych	-0.30103
-2.1815925	.	-1.0543576
-3.3487399	-----	-0.30103
-3.3487399	pysznego,	-0.30103
-3.17622	trzyma	-0.30103
-3.3487399	wynosi	-0.30103
-3.3487399	doskonałości	-0.30103
-3.3487399	raz	-0.30103
-3.3487399	pychę	-0.30103
-3.3487399	wzbije,	-0.30103
-3.3487399	chcąc	-0.30103
-3.3487399	ludzkie	-0.30103
-3.3487399	zdania	-0.30103
-3.3487399	wybadać,	-0.30103
-3.3487399	takowego	-0.30103
-3.3487399	sposobu	-0.30103
-3.3487399	zażyje,	-0.30103
-3.3487399	własną	-0.30103
-3.17622	postać	-0.30103
-3.3487399	składać,	-0.30103
-3.3487399	inną	-0.30103
-3.3487399	przybrać,	-0.30103
-3.3487399	żebraka	-0.30103
-3.3487399	kupca,	-0.30103
-3.3487399	udać	-0.30103
-3.3487399	czas	-0.30103
-3.3487399	wymownego,	-0.30103
-3.3487399	głupca.	-0.30103
-3.3487399	wchodzi	-0.30103
-3.3487399	mieszkanie,	-0.30103
-3.3487399	skulptora,	-0.30103
-3.3487399	pilnując	-0.30103
-3.3487399	rzemiosła,	-0.30103
-3.3487399	myśli,	-0.30103
-3.3487399	zmyślona	-0.30103
-3.3487399	pokora	-0.30103
-3.17622	dom	-0.30103
-3.3487399	bogów	-0.30103
-3.3487399	sprowadziła	-0.30103
-3.3487399	posła;	-0.30103
-3.3487399	wycina	-0.30103
-3.3487399	nosy,	-0.30103
-2.965131	oczy,	-0.30103
-3.3487399	usta,	-0.30103
-3.3487399	dłotem	-0.30103
-3.3487399	bożkom,	-0.30103
-3.3487399	boginiom	-0.30103
-3.3487399	stawia	-0.30103
-3.17622	kąt	-0.30103
-3.1800692	widzi	-0.30103
-3.3487399	*merkurymisterne	-0.30103
-3.3487399	posągi	-0.30103
-3.3487399	bellonącudnej	-0.30103
-3.3487399	armaturze,	-0.30103
-3.3487399	gotują	-0.30103
-3.3487399	wojny	-0.30103
-3.3487399	zaciągi,	-0.30103
-3.17622	bohatyr	-0.30103
-3.1800692	minie	-0.30103
-3.3487399	posturze,	-0.30103
-3.3487399	*bellonaprzysługą	-0.30103
-3.17622	męża	-0.30103
-3.3487399	potrzebne	-0.30103
-3.3487399	boju	-0.30103
-3.3487399	oręża.	-0.30103
-3.3487399	*weneręnajpiękniejszą	-0.30103
-3.3487399	twarzą,	-0.30103
-3.3487399	małego	-0.30103
-3.3487399	pieszczocha;	-0.30103
-3.3487399	gołębie	-0.30103
-3.3487399	całują,	-0.30103
-3.3487399	parzą,	-0.30103
-3.3487399	karesuje,	-0.30103
-3.3487399	kocha,	-0.30103
-3.3487399	człowiekowi	-0.30103
-3.17622	sztuce	-0.30103
-3.3487399	wyrażone	-0.30103
-3.3487399	**,	-0.30103
-3.3487399	orła	-0.30103
-3.3487399	wsiada,	-0.30103
-3.3487399	junonę,	-0.30103
-3.3487399	pawiem	-0.30103
-3.3487399	stoocznym	-0.30103
-3.3487399	igra,	-0.30103
-3.3487399	semeliskrada,	-0.30103
-3.3487399	zabawy	-0.30103
-3.3487399	ma,	-0.30103
-3.3487399	dniu	-0.30103
-3.3487399	widocznym;	-0.30103
-3.3487399	płaczący,	-0.30103
-3.3487399	straż	-0.30103
-3.3487399	porzuca	-0.30103
-3.3487399	wreście,	-0.30103
-3.3487399	stadło	-0.30103
-3.1800692	oczu	-0.30103
-3.3487399	potrzebuje	-0.30103
-3.3487399	statuę	-0.30103
-3.3487399	myśliwej	-0.30103
-3.3487399	dyanny,	-0.30103
-3.1800692	kształtną	-0.30103
-3.3487399	ręką	-0.30103
-3.17622	psy	-0.30103
-3.3487399	smyczy	-0.30103
-3.3487399	trzyma;	-0.30103
-3.3487399	łuk,	-0.30103
-3.3487399	kołczan,	-0.30103
-3.3487399	lance,	-0.30103
-3.3487399	niosą	-0.30103
-3.3487399	panny,	-0.30103
-3.3487399	wiatr	-0.30103
-3.3487399	sukienke	-0.30103
-3.3487399	poddyma:	-0.30103
-3.3487399	zwierzyna	-0.30103
-3.3487399	postrzelana	-0.30103
-3.3487399	leży,	-0.30103
-3.3487399	żywa	-0.30103
-3.3487399	rozkaz	-0.30103
-3.17622	bogini	-0.30103
-3.3487399	sieć	-0.30103
-3.3487399	bieży.	-0.30103
-3.3487399	*,	-0.30103
-3.3487399	pożarem	-0.30103
-3.3487399	płonie	-0.30103
-3.17622	pięknej	-0.30103
-3.3487399	dafny*,	-0.30103
-3.3487399	gardzi;	-0.30103
-3.1800692	sam	-0.30103
-3.3487399	zakochawszy	-0.30103
-3.3487399	tonie,	-0.30103
-3.3487399	echościga,	-0.30103
-3.3487399	ucieka	-0.30103
-3.3487399	bardzi:	-0.30103
-3.3487399	amorotów	-0.30103
-2.495032	miłość	-0.30103
-3.3487399	mściwa	-0.30103
-3.3487399	tropi	-0.30103
-3.3487399	jednego	-0.30103
-3.3487399	spali,	-0.30103
-3.17622	drugiego	-0.30103
-3.3487399	utopi.	-0.30103
-3.3487399	*prokrydękochanym	-0.30103
-3.3487399	cefalem,	-0.30103
-3.3487399	podejrzenie	-0.30103
-3.3487399	niesie	-0.30103
-3.3487399	małżeństwem,	-0.30103
-3.3487399	kończy	-0.30103
-3.3487399	żalem;	-0.30103
-3.3487399	żona	-0.30103
-3.3487399	szpieguje	-0.30103
-3.3487399	lesie,	-0.30103
-3.3487399	winien,	-0.30103
-3.3487399	mąż	-0.30103
-3.1800692	kniei	-0.30103
-3.17622	zwierza	-0.30103
-3.3487399	zabija	-0.30103
-3.3487399	żonę,	-0.30103
-3.3487399	dowierza.	-0.30103
-3.3487399	patrzy	-0.30103
-3.3487399	ledypostać,	-0.30103
-3.17622	członki	-0.30103
-3.3487399	wyrobione	-0.30103
-3.3487399	tokiem,	-0.30103
-3.3487399	chciałby	-0.30103
-3.3487399	parysemzostać,	-0.30103
-3.17622	żywej	-0.30103
-3.3487399	dojrzał	-0.30103
-3.3487399	okiem;	-0.30103
-3.1800692	masz	-0.30103
-3.3487399	nadziei	-0.30103
-3.3487399	otuchy,	-0.30103
-3.17622	życzę	-0.30103
-3.3487399	łabędziowe	-0.30103
-3.3487399	puchy.	-0.30103
-3.3487399	woli	-0.30103
-3.1800692	wzrok	-0.30103
-3.3487399	napasł	-0.30103
-3.3487399	merkury	-0.30103
-3.3487399	pięknych	-0.30103
-3.3487399	sztukach,	-0.30103
-3.3487399	własny	-0.30103
-3.3487399	posąg:	-0.30103
-3.17622	spyta,	-0.30103
-3.17622	cenie	-0.30103
-3.3487399	zapchano	-0.30103
-3.3487399	ciasny,	-0.30103
-3.3487399	szacunku	-0.30103
-3.3487399	jowisz*,	-0.30103
-3.3487399	juno,	-0.30103
-3.3487399	persnameplacename	-0.30103
-3.3487399	uwiózł	-0.30103
-3.3487399	runo.	-0.30103
-3.3487399	odpowie	-0.30103
-3.3487399	skulptor,	-0.30103
-3.17622	różność	-0.30103
-3.3487399	naturze,	-0.30103
-3.3487399	dała	-0.30103
-3.3487399	jednemu,	-0.30103
-3.3487399	skarbie	-0.30103
-3.17622	ma	-0.30103
-2.6284454	;	-0.44715804
-3.17622	jest	-0.30103
-3.3487399	marmurze,	-0.30103
-3.3487399	białości,	-0.30103
-3.3487399	żyłkach,	-0.30103
-3.3487399	glansie,	-0.30103
-3.3487399	farbie.	-0.30103
-3.3487399	zna	-0.30103
-3.3487399	rozum	-0.30103
-3.3487399	dyktuje,	-0.30103
-3.3487399	marmur,	-0.30103
-3.3487399	praca,	-0.30103
-3.3487399	kształt	-0.30103
-3.3487399	kosztuje.	-0.30103
-3.3487399	ciekawy,	-0.30103
-3.3487399	opowiem	-0.30103
-3.3487399	jednym	-0.30103
-3.3487399	rządzie	-0.30103
-3.3487399	stoją	-0.30103
-3.3487399	stronie,	-0.30103
-3.3487399	set	-0.30103
-3.3487399	czerwonych	-0.30103
-3.3487399	złotych	-0.30103
-3.3487399	przedać	-0.30103
-3.3487399	myślę,	-0.30103
-3.3487399	zajedzie	-0.30103
-3.3487399	ścianą	-0.30103
-3.3487399	zebrani	-0.30103
-3.3487399	mniejszej	-0.30103
-3.3487399	wadze,	-0.30103
-3.3487399	oddam	-0.30103
-3.3487399	tani.	-0.30103
-3.3487399	merkuryusza,	-0.30103
-3.3487399	wiedzieć	-0.30103
-3.3487399	drogość	-0.30103
-3.3487399	bałwana.	-0.30103
-3.17622	bliska	-0.30103
-3.3487399	przystąpi,	-0.30103
-3.3487399	ręką,	-0.30103
-3.3487399	nogą	-0.30103
-3.3487399	rusza,	-0.30103
-3.17622	rzecze:	-0.30103
-3.3487399	sztuka	-0.30103
-3.3487399	zaniedbana?	-0.30103
-3.3487399	chciał	-0.30103
-3.3487399	rzemieślnik	-0.30103
-3.3487399	złota?	-0.30103
-3.3487399	sądząc,	-0.30103
-3.3487399	wielka	-0.30103
-3.3487399	zajdzie	-0.30103
-3.3487399	kwota.	-0.30103
-3.3487399	słyszy	-0.30103
-3.3487399	odpowiedź	-0.30103
-3.3487399	tropy:	-0.30103
-3.3487399	kupiec	-0.30103
-3.3487399	przybył	-0.30103
-3.3487399	trafunku,	-0.30103
-3.3487399	błazna	-0.30103
-3.3487399	chciałbym	-0.30103
-3.3487399	kopy,	-0.30103
-3.3487399	przydał	-0.30103
-3.3487399	chęcią	-0.30103
-3.3487399	podarunku,	-0.30103
-3.3487399	pozbył	-0.30103
-3.3487399	spraw	-0.30103
-3.3487399	cudzych	-0.30103
-3.3487399	cenzora,	-0.30103
-3.3487399	kassy	-0.30103
-3.3487399	złodziejów,	-0.30103
-2.8219986	placename	-0.30103
-3.3487399	faktora.	-0.30103
-3.3487399	smak	-0.30103
-3.3487399	słuchać	-0.30103
-3.3487399	obiecała	-0.30103
-3.3487399	pycha,	-0.30103
-3.3487399	nos	-0.30103
-3.17622	śmiele	-0.30103
-3.3487399	miał	-0.30103
-3.3487399	dmuchać,	-0.30103
-3.3487399	łeb	-0.30103
-3.3487399	spycha,	-0.30103
-3.3487399	mówiąc	-0.30103
-3.3487399	oczy:	-0.30103
-3.3487399	ostatni	-0.30103
-3.3487399	zbrodzien	-0.30103
-3.3487399	charakterze	-0.30103
-3.3487399	szubienicy	-0.30103
-3.3487399	godzien.	-0.30103
-3.3487399	myśli	-0.30103
-3.3487399	poznaje,	-0.30103
-3.3487399	defekt	-0.30103
-3.3487399	panował;	-0.30103
-3.3487399	przeklina	-0.30103
-3.3487399	stan	-0.30103
-3.3487399	łaje,	-0.30103
-3.3487399	szacował:	-0.30103
-3.3487399	przyrzeka,	-0.30103
-3.3487399	umysł	-0.30103
-3.3487399	hardy	-0.30103
-3.3487399	potępi,	-0.30103
-3.3487399	wprowadził	-0.30103
-3.3487399	wzgardy.	-0.30103
-3.3487399	reskrypt	-0.30103
-3.17622	pewnemu	-0.30103
-3.3487399	poecie	-0.30103
-3.3487399	bojącemu	-0.30103
-3.3487399	grzmotów	-0.30103
-3.3487399	zabicia	-0.30103
-3.3487399	piorunów,	-0.30103
-3.3487399	grzesznik	-0.30103
-3.3487399	mocny	-0.30103
-2.965131	persname,	-0.30103
-3.3487399	pewna,	-0.30103
-3.3487399	piorunie	-0.30103
-3.3487399	grzmocie;	-0.30103
-3.3487399	uznaj	-0.30103
-3.3487399	grzeszniku	-0.30103
-3.3487399	winę,	-0.30103
-3.3487399	idzie	-0.30103
-3.3487399	cie.	-0.30103
-3.3487399	sposób	-0.30103
-3.3487399	bojaźni	-0.30103
-3.3487399	nagłego	-0.30103
-3.3487399	karania,	-0.30103
-3.3487399	żal,	-0.30103
-3.3487399	szczery	-0.30103
-3.3487399	występków,	-0.30103
-3.3487399	niewracania.	-0.30103
-3.3487399	zbroję	-0.30103
-3.3487399	winowajco	-0.30103
-3.3487399	stroisz,	-0.30103
-3.3487399	grzmotów,	-0.30103
-3.3487399	błyskania,	-0.30103
-3.3487399	piorunów	-0.30103
-3.3487399	boisz?	-0.30103
-3.3487399	skończonej	-0.30103
-3.3487399	burzy,	-0.30103
-3.3487399	wichrze,	-0.30103
-3.3487399	strachu	-0.30103
-3.17622	wolą	-0.30103
-3.3487399	grzech	-0.30103
-3.3487399	przytulić	-0.30103
-3.3487399	gmachu.	-0.30103
-3.3487399	wiem,	-0.30103
-3.3487399	sprawiedliwy,	-0.30103
-3.3487399	doskonałych	-0.30103
-3.3487399	rządach	-0.30103
-3.3487399	równe	-0.30103
-3.3487399	miłosierdzie;	-0.30103
-3.3487399	ukrytych	-0.30103
-3.3487399	sądach.	-0.30103
-3.1800692	?	-0.30103
-3.3487399	piekle	-0.30103
-3.3487399	dnie	-0.30103
-3.1800692	świat	-0.30103
-3.3487399	osiadł	-0.30103
-3.3487399	grzechu,	-0.30103
-3.3487399	skrytość	-0.30103
-3.3487399	zgadnie.	-0.30103
-3.3487399	truchlał	-0.30103
-3.3487399	mojżeszbrzmiące	-0.30103
-3.3487399	ust	-0.30103
-3.3487399	odgłosy	-0.30103
-3.17622	widząc,	-0.30103
-3.3487399	rozzuwa	-0.30103
-3.3487399	róg	-0.30103
-3.3487399	powstają	-0.30103
-3.3487399	włosy.	-0.30103
-3.3487399	rzecze	-0.30103
-3.3487399	strachu:	-0.30103
-3.3487399	mów	-0.30103
-3.3487399	panie,	-0.30103
-3.3487399	umrę,	-0.30103
-3.3487399	włosów	-0.30103
-3.3487399	głowie	-0.30103
-3.3487399	stanie.	-0.30103
-3.3487399	pożyteczny	-0.30103
-3.3487399	głos,	-0.30103
-3.3487399	rozmowa	-0.30103
-3.3487399	mojżeszprzykazanie	-0.30103
-3.3487399	tablicy	-0.30103
-3.3487399	chowa.	-0.30103
-3.3487399	przynosi	-0.30103
-3.3487399	ludowi	-0.30103
-3.3487399	pełnemu	-0.30103
-3.3487399	rozpusty,	-0.30103
-3.17622	jarzmo	-0.30103
-3.3487399	pracy,	-0.30103
-3.17622	wieczne	-0.30103
-3.3487399	odpusty.	-0.30103
-3.3487399	ojciec	-0.30103
-3.3487399	dzieci	-0.30103
-3.3487399	nieposłuszne	-0.30103
-3.3487399	gromi,	-0.30103
-3.3487399	zły	-0.30103
-3.3487399	nałóg,	-0.30103
-3.3487399	niewstyd,	-0.30103
-3.3487399	grzmotami	-0.30103
-3.3487399	uskromi.	-0.30103
-3.3487399	zagniewany,	-0.30103
-3.3487399	mija	-0.30103
-3.3487399	grzesznika,	-0.30103
-3.3487399	suchy	-0.30103
-3.3487399	dąb	-0.30103
-3.17622	uderzy.	-0.30103
-3.3487399	pochwała	-0.30103
-3.17622	lasów	-0.30103
-3.3487399	miłego	-0.30103
-3.3487399	osobności	-0.30103
-3.17622	życia	-0.30103
-3.3487399	stanie	-0.30103
-3.3487399	pasterskim,	-0.30103
-3.17622	pasterki	-0.30103
-3.3487399	zważywszy	-0.30103
-3.3487399	ludzkiego	-0.30103
-3.3487399	obroty	-0.30103
-3.3487399	uchodzę	-0.30103
-3.1800692	lasy	-0.30103
-3.3487399	wesołe	-0.30103
-3.17622	knieje,	-0.30103
-3.3487399	mając	-0.30103
-3.3487399	gustu	-0.30103
-3.3487399	ochoty.	-0.30103
-3.3487399	dzikości	-0.30103
-3.3487399	śmieje,	-0.30103
-3.3487399	dbam	-0.30103
-3.17622	wolę	-0.30103
-3.17622	prostoty	-0.30103
-3.3487399	las	-0.30103
-3.3487399	pełen	-0.30103
-3.3487399	niecnoty.	-0.30103
-3.3487399	umiem	-0.30103
-3.3487399	bajek	-0.30103
-3.3487399	szeptać	-0.30103
-3.3487399	ucho,	-0.30103
-3.3487399	znam,	-0.30103
-3.3487399	terminów	-0.30103
-3.3487399	prawnych,	-0.30103
-3.3487399	wody	-0.30103
-3.3487399	sprowadzić,	-0.30103
-3.17622	było	-0.30103
-3.3487399	*cyceronachsłyszałam	-0.30103
-3.3487399	sławnych;	-0.30103
-3.3487399	czasów	-0.30103
-3.3487399	ćwiczon	-0.30103
-3.3487399	szkole	-0.30103
-3.3487399	pasie	-0.30103
-3.3487399	bydło	-0.30103
-3.3487399	kopie	-0.30103
-3.3487399	role.	-0.30103
-3.3487399	kochane,	-0.30103
-3.3487399	zielone	-0.30103
-3.3487399	chłodniki	-0.30103
-3.3487399	drzewa	-0.30103
-3.3487399	przyjemny	-0.30103
-3.3487399	szum	-0.30103
-3.3487399	dające	-0.30103
-3.3487399	trawy,	-0.30103
-3.3487399	pagórki,	-0.30103
-3.3487399	biegące	-0.30103
-3.3487399	strumyki,	-0.30103
-3.3487399	mieszkam	-0.30103
-3.3487399	suchym	-0.30103
-3.3487399	chlebie;	-0.30103
-3.3487399	zdrowszy	-0.30103
-3.3487399	napój	-0.30103
-3.3487399	źródeł	-0.30103
-3.3487399	żywych	-0.30103
-3.3487399	drogie	-0.30103
-3.3487399	trunki,	-0.30103
-3.3487399	rąk	-0.30103
-3.3487399	nieżyczliwych.	-0.30103
-3.3487399	ranna	-0.30103
-3.3487399	zorza	-0.30103
-3.3487399	rumieniec	-0.30103
-3.3487399	śliczny	-0.30103
-3.3487399	pokaże,	-0.30103
-3.3487399	rosa	-0.30103
-3.3487399	perłowe	-0.30103
-3.3487399	kropelki	-0.30103
-3.3487399	pozbiera,	-0.30103
-3.3487399	pasterz	-0.30103
-3.3487399	okoliczny	-0.30103
-3.3487399	zaśpi,	-0.30103
-3.3487399	ptak	-0.30103
-3.3487399	wyśpiewuje	-0.30103
-3.1800692	trzody	-0.30103
-3.1800692	owiec	-0.30103
-3.3487399	żeną	-0.30103
-3.3487399	wrzosy,	-0.30103
-3.3487399	mokre	-0.30103
-3.3487399	skrzydła	-0.30103
-3.3487399	otrzepują	-0.30103
-3.3487399	rosy.	-0.30103
-3.3487399	różnych	-0.30103
-3.3487399	głosów	-0.30103
-3.3487399	stroją	-0.30103
-3.3487399	instrumenta	-0.30103
-3.3487399	drzewach	-0.30103
-3.3487399	skacząc	-0.30103
-3.3487399	krzykną	-0.30103
-3.3487399	roślejsze	-0.30103
-3.3487399	drobne	-0.30103
-3.3487399	ptaszęta,	-0.30103
-3.3487399	bezpieczne,	-0.30103
-3.3487399	słuchamy	-0.30103
-3.3487399	koncerty	-0.30103
-3.3487399	nut	-0.30103
-3.17622	sztuki,	-0.30103
-3.3487399	milsze	-0.30103
-3.3487399	głosy	-0.30103
-3.3487399	mistrza	-0.30103
-3.3487399	nauki.	-0.30103
-3.3487399	ptastwo,	-0.30103
-3.3487399	zaczną	-0.30103
-3.3487399	pasterze	-0.30103
-3.3487399	smutne	-0.30103
-3.3487399	wywodzić	-0.30103
-3.3487399	dumy	-0.30103
-3.3487399	fujarze,	-0.30103
-3.3487399	inni	-0.30103
-3.3487399	skoczne	-0.30103
-3.17622	geogname	-0.30103
-3.3487399	lerze,	-0.30103
-3.3487399	tańcując	-0.30103
-3.3487399	parze:	-0.30103
-3.3487399	wdzięczne	-0.30103
-3.3487399	pieśni	-0.30103
-3.3487399	śpiewamy	-0.30103
-3.3487399	koleją	-0.30103
-3.3487399	słuchają,	-0.30103
-3.3487399	gaje	-0.30103
-3.3487399	śmieją.	-0.30103
-3.3487399	wiem	-0.30103
-3.3487399	tęsknić,	-0.30103
-3.3487399	pasąc	-0.30103
-3.3487399	trzodę,	-0.30103
-3.3487399	pilnością	-0.30103
-3.3487399	strzedz	-0.30103
-3.3487399	potrzeba	-0.30103
-3.3487399	wilka.	-0.30103
-3.3487399	przebrnąwszy	-0.30103
-3.3487399	potok,	-0.30103
-3.3487399	oczyma	-0.30103
-3.3487399	powiodę,	-0.30103
-3.3487399	pastereczek	-0.30103
-3.3487399	bieży	-0.30103
-3.3487399	temi	-0.30103
-3.3487399	witam,	-0.30103
-3.3487399	chwytając	-0.30103
-3.3487399	szyje,	-0.30103
-3.17622	jedna	-0.30103
-3.3487399	drugą	-0.30103
-3.3487399	szczesze,	-0.30103
-3.3487399	splecie,	-0.30103
-3.3487399	zmyje.	-0.30103
-3.3487399	usiędziem	-0.30103
-3.3487399	jaworem	-0.30103
-3.3487399	ciemnym	-0.30103
-3.3487399	czystem	-0.30103
-3.3487399	źródłem	-0.30103
-3.3487399	pryskającej	-0.30103
-3.3487399	wody:	-0.30103
-3.3487399	skał	-0.30103
-3.3487399	fontanny	-0.30103
-3.3487399	natura,	-0.30103
-3.3487399	foremnym	-0.30103
-3.3487399	kunsztem,	-0.30103
-3.3487399	zrobiła	-0.30103
-3.3487399	pasterzom	-0.30103
-3.3487399	ochłody;	-0.30103
-3.3487399	słoneczny	-0.30103
-3.3487399	upał	-0.30103
-3.3487399	dokuczy	-0.30103
-3.3487399	zaszumi,	-0.30103
-3.3487399	strumyk	-0.30103
-3.3487399	zamruczy.	-0.30103
-3.3487399	zaczniemy	-0.30103
-3.17622	mówić	-0.30103
-3.3487399	zabawach,	-0.30103
-3.3487399	czem	-0.30103
-3.17622	dzień	-0.30103
-3.3487399	cały	-0.30103
-3.3487399	przeminie	-0.30103
-3.3487399	godziną:	-0.30103
-3.3487399	pięknem	-0.30103
-3.3487399	kwieciu,	-0.30103
-3.3487399	rosną	-0.30103
-3.3487399	trawach;	-0.30103
-3.3487399	powie;	-0.30103
-3.3487399	miejsce	-0.30103
-3.3487399	doliną,	-0.30103
-3.3487399	kwiaty	-0.30103
-3.3487399	rozliczne	-0.30103
-3.3487399	kolory	-0.30103
-3.3487399	kwitną	-0.30103
-3.3487399	posiane	-0.30103
-3.3487399	flory.	-0.30103
-3.3487399	zawód	-0.30103
-3.17622	bieżąc,	-0.30103
-3.3487399	popchnie	-0.30103
-3.17622	bok,	-0.30103
-3.3487399	wyprzedzić	-0.30103
-3.3487399	dała;	-0.30103
-3.3487399	miękką	-0.30103
-3.3487399	trawę	-0.30103
-3.3487399	upadnie	-0.30103
-3.3487399	długą,	-0.30103
-3.3487399	czasem	-0.30103
-3.3487399	kwiatków	-0.30103
-3.3487399	nazbierała.	-0.30103
-3.3487399	wieńce	-0.30103
-3.3487399	wijąc	-0.30103
-3.3487399	głowy	-0.30103
-3.3487399	strojem,	-0.30103
-3.3487399	brylantowe	-0.30103
-3.3487399	korony	-0.30103
-3.3487399	stojem.	-0.30103
-3.3487399	szczera	-0.30103
-3.3487399	wesołość,	-0.30103
-3.3487399	śmiech,	-0.30103
-3.3487399	żarty	-0.30103
-3.3487399	niewinne,	-0.30103
-3.3487399	zgorszyć,	-0.30103
-3.3487399	owszem,	-0.30103
-3.3487399	cieszyć	-0.30103
-3.3487399	mogą;	-0.30103
-3.3487399	uczą	-0.30103
-3.3487399	inne,	-0.30103
-3.3487399	przystojnych	-0.30103
-3.3487399	zabaw	-0.30103
-3.3487399	idą	-0.30103
-3.3487399	drogą.	-0.30103
-3.3487399	wybiera	-0.30103
-3.3487399	koszyka,	-0.30103
-3.3487399	jemy	-0.30103
-3.3487399	ser	-0.30103
-3.3487399	chlebem	-0.30103
-3.3487399	masło	-0.30103
-3.3487399	chcący	-0.30103
-3.1800692	trunku	-0.30103
-3.3487399	zażyć,	-0.30103
-3.3487399	biegniemy	-0.30103
-3.3487399	piwnicy,	-0.30103
-3.3487399	winne	-0.30103
-3.3487399	ważyć,	-0.30103
-3.17622	czystej	-0.30103
-3.3487399	kryształ	-0.30103
-3.3487399	skałą	-0.30103
-3.3487399	krynicy:	-0.30103
-3.3487399	dzbanem	-0.30103
-3.3487399	pijąc	-0.30103
-3.3487399	ubywa,	-0.30103
-3.3487399	pełni	-0.30103
-3.3487399	zostaje,	-0.30103
-3.3487399	doliwa.	-0.30103
-3.3487399	południa	-0.30103
-3.3487399	słońce	-0.30103
-3.3487399	grzeje,	-0.30103
-3.3487399	wychodzim	-0.30103
-3.17622	gęstych	-0.30103
-3.3487399	krzewiny;	-0.30103
-3.17622	chłód	-0.30103
-3.3487399	miły	-0.30103
-3.3487399	pagórków	-0.30103
-3.3487399	wieje	-0.30103
-3.3487399	igramy	-0.30103
-3.3487399	babkę	-0.30103
-3.3487399	jedliny,	-0.30103
-3.3487399	patrząc	-0.30103
-3.3487399	niskie	-0.30103
-3.3487399	krzaczki	-0.30103
-3.3487399	jałowce,	-0.30103
-3.3487399	napasły	-0.30103
-3.3487399	owce.	-0.30103
-3.3487399	samym	-0.30103
-3.3487399	wieczorem	-0.30103
-3.3487399	zbliżając	-0.30103
-3.3487399	domu,	-0.30103
-3.3487399	zganiamy	-0.30103
-3.3487399	społem	-0.30103
-3.3487399	gromady;	-0.30103
-3.3487399	poznają	-0.30103
-3.3487399	owce,	-0.30103
-3.3487399	należy	-0.30103
-3.3487399	bierzemy	-0.30103
-3.3487399	swaru,	-0.30103
-3.3487399	zwady:	-0.30103
-3.3487399	zbłądzi	-0.30103
-3.3487399	cudzej	-0.30103
-3.3487399	owczarnie,	-0.30103
-3.3487399	sałaszu	-0.30103
-3.3487399	chaty	-0.30103
-3.3487399	chróścianej	-0.30103
-3.3487399	pałac	-0.30103
-3.3487399	cichszej	-0.30103
-3.3487399	spieszym	-0.30103
-3.3487399	spoczynek;	-0.30103
-3.3487399	siadłego	-0.30103
-3.3487399	misce	-0.30103
-3.3487399	glinianej	-0.30103
-3.3487399	podjadszy,	-0.30103
-3.3487399	śląc	-0.30103
-3.17622	mięso	-0.30103
-3.3487399	rynek;	-0.30103
-3.3487399	psują	-0.30103
-3.3487399	potrawy	-0.30103
-3.3487399	żołądka,	-0.30103
-3.3487399	pan	-0.30103
-3.3487399	opisanie	-0.30103
-3.17622	ciekawych	-0.30103
-3.3487399	ciekawe	-0.30103
-3.17622	oko	-0.30103
-3.3487399	szkodę	-0.30103
-3.17622	czyni	-0.30103
-3.3487399	duszy,	-0.30103
-3.3487399	niewolne	-0.30103
-3.17622	wolnego	-0.30103
-3.3487399	zaprzęga;	-0.30103
-3.3487399	nieprzyjaciel,	-0.30103
-3.3487399	mózg	-0.30103
-3.1800692	ciało	-0.30103
-3.3487399	suszy,	-0.30103
-3.3487399	zdrów	-0.30103
-3.3487399	żebrak	-0.30103
-3.3487399	niedołęga,	-0.30103
-3.3487399	choruje	-0.30103
-3.3487399	napiera	-0.30103
-3.3487399	wie,	-0.30103
-3.3487399	lekarstwa	-0.30103
-3.3487399	bierze	-0.30103
-3.3487399	złą	-0.30103
-3.3487399	śmierć	-0.30103
-3.3487399	bassarunku.	-0.30103
-3.3487399	perspektywy	-0.30103
-3.3487399	misternej	-0.30103
-3.3487399	roboty,	-0.30103
-3.3487399	daleka	-0.30103
-3.3487399	patrząc,	-0.30103
-3.3487399	nasyca	-0.30103
-3.3487399	wzroku,	-0.30103
-3.3487399	pędzi	-0.30103
-3.3487399	ciekawość	-0.30103
-3.3487399	dodaje	-0.30103
-3.3487399	ochoty,	-0.30103
-3.3487399	pozwala	-0.30103
-3.3487399	bezpieczeństwa,	-0.30103
-3.3487399	przyspieszając	-0.30103
-3.17622	kroku;	-0.30103
-3.3487399	zaciekły	-0.30103
-3.3487399	oślep	-0.30103
-3.3487399	przepaść	-0.30103
-3.3487399	mierzy,	-0.30103
-3.1800692	oczy	-0.30103
-3.3487399	traci,	-0.30103
-3.3487399	głowę	-0.30103
-3.3487399	skałę	-0.30103
-3.3487399	przypłacił	-0.30103
-3.3487399	ciekawości	-0.30103
-3.3487399	*akteonmyśliwy,	-0.30103
-3.3487399	szukał	-0.30103
-3.3487399	damy	-0.30103
-3.3487399	jelenia;	-0.30103
-3.3487399	hartowną	-0.30103
-3.3487399	strzałę	-0.30103
-3.3487399	łuku	-0.30103
-3.3487399	wypuściwszy	-0.30103
-3.3487399	chciwy,	-0.30103
-3.3487399	lot	-0.30103
-3.3487399	harapu,	-0.30103
-3.3487399	ubił	-0.30103
-3.3487399	wątpienia,	-0.30103
-3.3487399	pragnąc	-0.30103
-3.3487399	napaść,	-0.30103
-3.3487399	pobitej	-0.30103
-3.3487399	zwierzynie	-0.30103
-3.3487399	topi	-0.30103
-3.3487399	strzałą	-0.30103
-3.3487399	kąpiącej	-0.30103
-3.3487399	dziewczynie.	-0.30103
-3.3487399	sądzi	-0.30103
-3.3487399	rzędu	-0.30103
-3.3487399	wielowładnych,	-0.30103
-3.3487399	twarzy	-0.30103
-3.3487399	bozkiego,	-0.30103
-3.3487399	groźnej	-0.30103
-3.3487399	czyta;	-0.30103
-3.3487399	piękności	-0.30103
-3.3487399	ładnych,	-0.30103
-2.965131	gust	-0.30103
-3.3487399	sercem	-0.30103
-3.3487399	chwyta:	-0.30103
-3.3487399	myje	-0.30103
-3.17622	nogi,	-0.30103
-3.1800692	wodą	-0.30103
-3.3487399	pleszcze,	-0.30103
-3.3487399	widzieć,	-0.30103
-3.3487399	sztuk	-0.30103
-3.3487399	przybiera,	-0.30103
-3.3487399	dogodzić	-0.30103
-3.3487399	woli;	-0.30103
-3.3487399	drzew	-0.30103
-3.3487399	zarośle,	-0.30103
-3.3487399	wąż	-0.30103
-3.3487399	trawie,	-0.30103
-3.3487399	czując,	-0.30103
-3.3487399	boli,	-0.30103
-3.3487399	ostry	-0.30103
-3.3487399	bodziec	-0.30103
-3.3487399	miękkie	-0.30103
-3.3487399	pośle.	-0.30103
-3.3487399	dba	-0.30103
-3.3487399	ciernie,	-0.30103
-3.3487399	głogi,	-0.30103
-3.3487399	osty	-0.30103
-3.3487399	zawady	-0.30103
-3.3487399	oczu,	-0.30103
-3.3487399	słucha	-0.30103
-3.3487399	porady.	-0.30103
-3.3487399	stanął	-0.30103
-3.3487399	*akteonmecie	-0.30103
-3.3487399	pożądanej	-0.30103
-3.3487399	przydać	-0.30103
-3.3487399	łuczny	-0.30103
-3.3487399	uczyni	-0.30103
-3.3487399	igrzysko,	-0.30103
-3.3487399	pozna,	-0.30103
-3.17622	skutek	-0.30103
-3.3487399	zakazanym	-0.30103
-3.3487399	stoku,	-0.30103
-3.3487399	dyana*	-0.30103
-3.3487399	czysta,	-0.30103
-3.3487399	myjąc	-0.30103
-3.3487399	pokrycie	-0.30103
-3.3487399	nagości	-0.30103
-3.1800692	miała	-0.30103
-3.3487399	zasłonki.	-0.30103
-3.3487399	spojrzy	-0.30103
-3.3487399	postrzeże	-0.30103
-3.3487399	ukrytego	-0.30103
-3.3487399	szpiega:	-0.30103
-3.3487399	wstydem,	-0.30103
-3.3487399	gniewem	-0.30103
-3.3487399	zdjęta,	-0.30103
-3.3487399	pryśnie	-0.30103
-3.3487399	zalawszy	-0.30103
-3.17622	sama	-0.30103
-3.3487399	szukając	-0.30103
-3.3487399	*nimfbiega,	-0.30103
-3.3487399	okiem	-0.30103
-3.3487399	słowem	-0.30103
-3.3487399	groźnym	-0.30103
-3.3487399	piorunem	-0.30103
-3.3487399	ciśnie,	-0.30103
-3.17622	:	-0.30103
-3.3487399	wydał	-0.30103
-3.3487399	światem	-0.30103
-3.3487399	sekretu,	-0.30103
-3.3487399	widział,	-0.30103
-3.3487399	jeleniem,	-0.30103
-3.3487399	dekretu.	-0.30103
-3.3487399	wymówiła	-0.30103
-3.3487399	zajadła,	-0.30103
-3.3487399	kawalera	-0.30103
-3.3487399	wybornej	-0.30103
-3.3487399	urody	-0.30103
-3.3487399	mieni	-0.30103
-3.17622	twarz	-0.30103
-3.3487399	głową	-0.30103
-3.3487399	opadła.	-0.30103
-3.3487399	uznał,	-0.30103
-3.3487399	nabawił	-0.30103
-3.3487399	szkody,	-0.30103
-3.3487399	zamianę	-0.30103
-3.17622	ludzką	-0.30103
-3.3487399	posturę	-0.30103
-3.3487399	brać	-0.30103
-3.3487399	musi	-0.30103
-3.3487399	jeleniową	-0.30103
-3.3487399	głowę,	-0.30103
-3.3487399	skórę.	-0.30103
-3.1800692	człowieka	-0.30103
-3.3487399	przemieniony	-0.30103
-3.17622	własnych	-0.30103
-3.17622	psów	-0.30103
-3.3487399	sprobował	-0.30103
-3.3487399	tyraństwa	-0.30103
-3.3487399	chce,	-0.30103
-3.3487399	szarpią,	-0.30103
-3.3487399	lancą	-0.30103
-3.3487399	zmierza,	-0.30103
-3.3487399	myśląc	-0.30103
-3.3487399	akteonie?	-0.30103
-3.3487399	jednę	-0.30103
-3.3487399	chęć,	-0.30103
-3.3487399	przypłacasz	-0.30103
-3.3487399	śmiercią,	-0.30103
-3.3487399	okrywasz	-0.30103
-3.3487399	jelenią	-0.30103
-3.3487399	siercią.	-0.30103
-3.3487399	igrać	-0.30103
-3.3487399	bogi!	-0.30103
-3.3487399	śmiałością	-0.30103
-3.3487399	grzeszyć?	-0.30103
-3.3487399	chronić	-0.30103
-3.3487399	pomsty	-0.30103
-3.3487399	gniewu:	-0.30103
-3.1800692	mają	-0.30103
-3.17622	moc	-0.30103
-3.3487399	złych	-0.30103
-3.3487399	ukarać,	-0.30103
-3.3487399	dobrych	-0.30103
-3.3487399	cieszyć,	-0.30103
-3.3487399	niemym	-0.30103
-3.3487399	zrobią,	-0.30103
-3.3487399	każą	-0.30103
-3.3487399	drzewu.	-0.30103
-3.3487399	zła	-0.30103
-3.3487399	myśl,	-0.30103
-3.3487399	złe	-0.30103
-3.3487399	oko,	-0.30103
-3.3487399	żądza	-0.30103
-3.3487399	przeklęta,	-0.30103
-3.3487399	ludzie	-0.30103
-3.3487399	bestye	-0.30103
-3.3487399	głupie	-0.30103
-3.3487399	bydlęta.	-0.30103
-3.3487399	wzajemnej	-0.30103
-3.1800692	miłości	-0.30103
-3.3487399	siostry	-0.30103
-3.3487399	bratem	-0.30103
-3.3487399	podziwieniu	-0.30103
-3.3487399	żadnem	-0.30103
-3.3487399	czas,	-0.30103
-3.17622	wiek	-0.30103
-3.3487399	szczęśliwością	-0.30103
-3.3487399	słynął,	-0.30103
-3.3487399	wybaczeniu	-0.30103
-3.3487399	snadnem,	-0.30103
-3.3487399	złotem,	-0.30103
-3.3487399	miodem,	-0.30103
-3.3487399	mlekiem,	-0.30103
-3.3487399	płynął:	-0.30103
-3.3487399	rodzie	-0.30103
-3.3487399	alternata	-0.30103
-3.3487399	siostrze	-0.30103
-3.3487399	kochać	-0.30103
-3.3487399	brata.	-0.30103
-3.3487399	porze	-0.30103
-3.17622	zwać	-0.30103
-3.3487399	możemy	-0.30103
-3.3487399	cudem,	-0.30103
-3.17622	miłość,	-0.30103
-3.3487399	gniazdzie	-0.30103
-3.3487399	rodowitem	-0.30103
-3.3487399	termin	-0.30103
-3.3487399	znalazła	-0.30103
-3.17622	dwojga	-0.30103
-3.3487399	ludem,	-0.30103
-3.3487399	kochającym	-0.30103
-3.3487399	prawem	-0.30103
-3.3487399	przyzwoitem;	-0.30103
-3.3487399	para	-0.30103
-3.3487399	ptasząt	-0.30103
-3.3487399	sympatycznym	-0.30103
-3.3487399	związkiem,	-0.30103
-3.3487399	brat	-0.30103
-3.3487399	siostrę	-0.30103
-3.3487399	lubi	-0.30103
-3.3487399	obowiązkiem.	-0.30103
-3.3487399	rzekłabym,	-0.30103
-3.3487399	ledy	-0.30103
-3.3487399	pollux*,	-0.30103
-3.3487399	kastor*,	-0.30103
-3.3487399	persnamerodzili;	-0.30103
-3.3487399	zgoda	-0.30103
-3.3487399	panowała	-0.30103
-3.3487399	jaju	-0.30103
-3.3487399	spólnie	-0.30103
-3.3487399	żyli:	-0.30103
-3.3487399	znajdziesz	-0.30103
-3.3487399	bliźnięty,	-0.30103
-3.3487399	maryannąkocha	-0.30103
-3.3487399	*persname.	-0.30103
-3.3487399	złapanego	-0.30103
-3.17622	sieci	-0.30103
-3.3487399	łowczego,	-0.30103
-3.3487399	sąsiadów	-0.30103
-3.3487399	utraktował	-0.30103
-3.3487399	raz,	-0.30103
-3.3487399	łowczemu	-0.30103
-3.3487399	przypadła	-0.30103
-3.3487399	dobra	-0.30103
-3.3487399	rozstawić	-0.30103
-3.3487399	leśnego	-0.30103
-3.3487399	zwierza,	-0.30103
-3.3487399	przypadkiem	-0.30103
-3.3487399	siatce	-0.30103
-3.17622	bobra,	-0.30103
-3.3487399	natura	-0.30103
-3.3487399	więcierza	-0.30103
-3.3487399	napędzić	-0.30103
-3.3487399	stworzenie	-0.30103
-3.3487399	wodne.	-0.30103
-3.3487399	rzeczy	-0.30103
-3.3487399	dziwu	-0.30103
-3.3487399	godne.	-0.30103
-3.3487399	łowczy	-0.30103
-3.3487399	ludzki,	-0.30103
-3.3487399	dzieli	-0.30103
-3.3487399	sąsiedztwem	-0.30103
-3.3487399	częściami	-0.30103
-3.3487399	zażyli;	-0.30103
-3.3487399	przyznają	-0.30103
-3.1800692	szczęścia	-0.30103
-3.3487399	łowiectwem	-0.30103
-3.3487399	bobrem	-0.30103
-3.3487399	nasycili,	-0.30103
-3.3487399	biorąc	-0.30103
-3.3487399	łowczego	-0.30103
-3.3487399	łaski	-0.30103
-3.3487399	specyały,	-0.30103
-3.3487399	odorem	-0.30103
-3.3487399	cały.	-0.30103
-3.3487399	posłał	-0.30103
-3.3487399	młodej	-0.30103
-3.17622	pani	-0.30103
-3.3487399	ogon	-0.30103
-3.3487399	spory,	-0.30103
-3.3487399	starej	-0.30103
-3.3487399	papierze	-0.30103
-3.3487399	rupieci;	-0.30103
-3.3487399	przeraźliwe	-0.30103
-3.3487399	zrobiły	-0.30103
-3.3487399	fetory,	-0.30103
-3.3487399	bobrowy	-0.30103
-3.3487399	nos,	-0.30103
-3.3487399	garło	-0.30103
-3.3487399	zaleci;	-0.30103
-3.3487399	dotknieniem	-0.30103
-3.3487399	owych	-0.30103
-3.3487399	śmierdzących	-0.30103
-3.3487399	kawalców,	-0.30103
-3.3487399	tabaki	-0.30103
-3.3487399	zażyć	-0.30103
-3.3487399	dni	-0.30103
-3.3487399	palców.	-0.30103
-3.3487399	posłańca	-0.30103
-3.3487399	przywiózł?	-0.30103
-3.3487399	strojach	-0.30103
-3.3487399	plecie:	-0.30103
-3.3487399	mowi:	-0.30103
-3.3487399	strojem	-0.30103
-3.3487399	bawię,	-0.30103
-3.3487399	stara;	-0.30103
-3.3487399	stroje	-0.30103
-3.3487399	chwali	-0.30103
-3.3487399	koniec	-0.30103
-3.3487399	stoję,	-0.30103
-3.3487399	dał	-0.30103
-3.3487399	ogon,	-0.30103
-3.3487399	oddajże	-0.30103
-3.3487399	stroje.	-0.30103
-3.3487399	kochającą	-0.30103
-2.965131	lat	-0.30103
-3.3487399	jakóbwysłużył	-0.30103
-3.3487399	pasący	-0.30103
-3.3487399	kochaną	-0.30103
-3.3487399	miłą	-0.30103
-3.3487399	rachele;	-0.30103
-3.3487399	małżeństwo	-0.30103
-3.3487399	oddana,	-0.30103
-3.3487399	nieprzykro	-0.30103
-3.3487399	znosić,	-0.30103
-3.3487399	*rachelęprosić.	-0.30103
-3.3487399	równy	-0.30103
-3.3487399	persnamejakobowi	-0.30103
-3.3487399	sercu,	-0.30103
-3.3487399	persname*	-0.30103
-3.3487399	służy	-0.30103
-3.3487399	*labanowi,	-0.30103
-3.3487399	dawną	-0.30103
-3.3487399	miłością	-0.30103
-3.3487399	utyskuje	-0.30103
-3.3487399	ranny:	-0.30103
-3.3487399	przyznać	-0.30103
-3.3487399	możemy,	-0.30103
-3.3487399	świadków	-0.30103
-3.3487399	kochając	-0.30103
-3.3487399	zuzanno,	-0.30103
-3.3487399	michale	-0.30103
-3.3487399	obfitością	-0.30103
-3.3487399	łask	-0.30103
-3.3487399	stateczne	-0.30103
-3.3487399	serca	-0.30103
-3.3487399	potomnej	-0.30103
-3.3487399	pochwale	-0.30103
-3.3487399	brylanty	-0.30103
-3.3487399	skazy	-0.30103
-3.3487399	wystawi:	-0.30103
-3.3487399	pary	-0.30103
-3.3487399	wiarą	-0.30103
-3.3487399	sprzęgą,	-0.30103
-3.3487399	przymierze	-0.30103
-3.3487399	zawiąże	-0.30103
-3.3487399	przysięgą.	-0.30103
-3.3487399	ostrożny,	-0.30103
-3.3487399	wszedłszy	-0.30103
-3.3487399	złożenia,	-0.30103
-3.3487399	przypatrz	-0.30103
-3.3487399	wysłużył;	-0.30103
-3.3487399	nasycić	-0.30103
-3.3487399	długiego	-0.30103
-3.3487399	pragnienia,	-0.30103
-3.3487399	zdrady	-0.30103
-3.3487399	użył:	-0.30103
-3.3487399	wierzaj	-0.30103
-3.3487399	oczom,	-0.30103
-3.3487399	powieści	-0.30103
-3.3487399	czyi,	-0.30103
-3.3487399	rachel,	-0.30103
-3.3487399	wziął	-0.30103
-3.3487399	ślepej	-0.30103
-3.3487399	lii.	-0.30103
-3.3487399	wynidziesz	-0.30103
-3.3487399	rachelą,	-0.30103
-3.3487399	fortuna	-0.30103
-3.3487399	drogą	-0.30103
-3.3487399	wiedzie,	-0.30103
-3.3487399	słodkie	-0.30103
-3.3487399	pożycie	-0.30103
-3.17622	nieba	-0.30103
-3.3487399	ścielą,	-0.30103
-3.3487399	goryczy	-0.30103
-3.3487399	znali,	-0.30103
-3.3487399	miedzie;	-0.30103
-3.3487399	wysługi	-0.30103
-3.3487399	pamiątka,	-0.30103
-3.3487399	rodzić	-0.30103
-3.3487399	pstre	-0.30103
-3.3487399	przypisanie	-0.30103
-3.3487399	jednem	-0.30103
-3.3487399	strzeleniem	-0.30103
-3.3487399	młyn	-0.30103
-3.17622	wodzie,	-0.30103
-3.3487399	domy	-0.30103
-3.3487399	lądzie	-0.30103
-3.3487399	spalił	-0.30103
-3.3487399	zodyacznych	-0.30103
-3.3487399	znaków	-0.30103
-3.3487399	sformowany	-0.30103
-3.3487399	kawaler	-0.30103
-3.3487399	serca,	-0.30103
-3.3487399	miny,	-0.30103
-3.3487399	zmierza	-0.30103
-3.3487399	tarczą,	-0.30103
-3.3487399	strzela	-0.30103
-3.3487399	ściany;	-0.30103
-3.3487399	strzeli,	-0.30103
-3.3487399	płoną	-0.30103
-3.17622	ogniem	-0.30103
-3.3487399	domy,	-0.30103
-3.3487399	młyny:	-0.30103
-3.3487399	wodnik	-0.30103
-3.3487399	strzela,	-0.30103
-3.3487399	pali,	-0.30103
-3.3487399	strzelec	-0.30103
-3.3487399	lądzie,	-0.30103
-3.3487399	pochwali?	-0.30103
-3.17622	kompanią	-0.30103
-3.3487399	kawalerów,	-0.30103
-3.1800692	mops	-0.30103
-3.3487399	dam	-0.30103
-3.3487399	wieku	-0.30103
-3.17622	kompanij	-0.30103
-3.3487399	weszło	-0.30103
-3.3487399	ostatnią	-0.30103
-3.3487399	modą	-0.30103
-3.3487399	placename;	-0.30103
-3.3487399	lichu	-0.30103
-3.3487399	przeszło,	-0.30103
-3.3487399	końca	-0.30103
-3.17622	bliskiego	-0.30103
-3.3487399	zniża.	-0.30103
-3.3487399	znaczy	-0.30103
-3.3487399	mularza	-0.30103
-3.3487399	mur	-0.30103
-3.3487399	mocnego	-0.30103
-3.17622	sekcie	-0.30103
-3.3487399	sekretarza.	-0.30103
-3.3487399	zaszła	-0.30103
-3.3487399	modna	-0.30103
-3.3487399	przywiózłszy	-0.30103
-3.3487399	mopsaobróżce;	-0.30103
-3.3487399	znać	-0.30103
-3.3487399	społeczności	-0.30103
-3.17622	ludźmi	-0.30103
-3.3487399	głodna,	-0.30103
-3.3487399	kładzie	-0.30103
-3.17622	wierność	-0.30103
-3.3487399	poduszce,	-0.30103
-3.3487399	zachęca	-0.30103
-3.3487399	order	-0.30103
-3.3487399	mopsa	-0.30103
-3.3487399	człeka,	-0.30103
-3.3487399	przypyta	-0.30103
-3.3487399	psa.	-0.30103
-3.3487399	spytał:	-0.30103
-3.3487399	obrać	-0.30103
-3.3487399	myśliła,	-0.30103
-3.17622	psa	-0.30103
-3.3487399	persname?	-0.30103
-3.3487399	złego,	-0.30103
-3.3487399	ludziom	-0.30103
-3.3487399	żyć	-0.30103
-3.3487399	rzecz	-0.30103
-3.3487399	przyrodzona;	-0.30103
-3.3487399	przyzna,	-0.30103
-3.3487399	myśleć	-0.30103
-3.3487399	głupia	-0.30103
-3.3487399	liga	-0.30103
-3.3487399	rodzajem	-0.30103
-3.3487399	sobaczym.	-0.30103
-3.3487399	persname-massonwyklęty	-0.30103
-3.3487399	ambony	-0.30103
-3.3487399	upór	-0.30103
-3.3487399	ręczy,	-0.30103
-3.17622	kościoła	-0.30103
-3.3487399	odrzucony	-0.30103
-3.3487399	czart	-0.30103
-3.3487399	żywcem	-0.30103
-3.3487399	potępionym	-0.30103
-3.3487399	dręczy.	-0.30103
-3.3487399	skwapliwy	-0.30103
-3.3487399	kary	-0.30103
-3.3487399	mularza,	-0.30103
-3.3487399	fartuch	-0.30103
-3.3487399	odpasze.	-0.30103
-3.3487399	szaweł*	-0.30103
-3.3487399	prześladowca	-0.30103
-3.3487399	główny	-0.30103
-3.3487399	rozrzucić	-0.30103
-3.3487399	szczętu	-0.30103
-3.3487399	zburzyć;	-0.30103
-3.3487399	wojuje	-0.30103
-3.3487399	równy,	-0.30103
-3.3487399	owieczki	-0.30103
-3.3487399	owczarnie	-0.30103
-3.3487399	wykurzyć.	-0.30103
-3.3487399	dobroci	-0.30103
-3.3487399	dowodów	-0.30103
-3.3487399	doktorem	-0.30103
-3.3487399	narodów.	-0.30103
-3.3487399	zmiennik	-0.30103
-3.3487399	apostata,	-0.30103
-3.3487399	człowiek	-0.30103
-3.3487399	nieśmiertelną	-0.30103
-3.3487399	duszą;	-0.30103
-3.3487399	pobrata,	-0.30103
-3.17622	mocne	-0.30103
-3.3487399	skrupuły	-0.30103
-3.3487399	ususzą:	-0.30103
-3.3487399	kontrakt	-0.30103
-3.3487399	czynić	-0.30103
-3.3487399	jutrem,	-0.30103
-3.3487399	rozstać	-0.30103
-3.3487399	massonprzyjaźń	-0.30103
-3.3487399	zachowuje	-0.30103
-3.3487399	świadczy	-0.30103
-3.3487399	towarzyszem;	-0.30103
-3.3487399	obliguje,	-0.30103
-3.3487399	jeden	-0.30103
-3.3487399	cierpieć	-0.30103
-3.3487399	hołyszem.	-0.30103
-3.3487399	lepszaż	-0.30103
-3.3487399	przyjaźń	-0.30103
-3.3487399	kameratem,	-0.30103
-3.3487399	wierności	-0.30103
-3.3487399	dać	-0.30103
-3.3487399	bratem?	-0.30103
-3.3487399	stworzeniu	-0.30103
-3.3487399	dusza,	-0.30103
-3.3487399	sekta	-0.30103
-3.3487399	miejsca	-0.30103
-3.17622	znajdzie,	-0.30103
-3.3487399	podły	-0.30103
-3.3487399	niewieści	-0.30103
-3.3487399	respekta,	-0.30103
-3.3487399	całuje,	-0.30103
-3.3487399	kolanach	-0.30103
-3.3487399	pieści:	-0.30103
-3.3487399	karessach	-0.30103
-3.3487399	oddycha	-0.30103
-3.3487399	młody,	-0.30103
-3.3487399	stara	-0.30103
-3.3487399	mopsicha.	-0.30103
-3.17622	jeźli	-0.30103
-3.3487399	kładziesz	-0.30103
-3.3487399	aksamitnem	-0.30103
-3.3487399	wezgłowiu	-0.30103
-3.3487399	łóżka;	-0.30103
-3.3487399	przestrzegam	-0.30103
-3.3487399	affektu	-0.30103
-3.3487399	przyjdzie	-0.30103
-3.3487399	domowy	-0.30103
-3.3487399	służka,	-0.30103
-3.3487399	wierność,	-0.30103
-3.3487399	łasy,	-0.30103
-3.3487399	przyniósłszy	-0.30103
-3.3487399	kawałek	-0.30103
-3.3487399	kiełbasy.	-0.30103
-3.3487399	obraz	-0.30103
-3.3487399	płaczącego	-0.30103
-3.3487399	smutnej	-0.30103
-3.3487399	wenery	-0.30103
-3.3487399	dzieje,	-0.30103
-3.3487399	płaczesz	-0.30103
-3.3487399	ogień	-0.30103
-3.3487399	grzeje?	-0.30103
-3.3487399	synem	-0.30103
-3.3487399	nazwali,	-0.30103
-3.3487399	chłodzi,	-0.30103
-3.3487399	pali.	-0.30103
-3.3487399	chwalić	-0.30103
-3.3487399	odmiany,	-0.30103
-3.3487399	krytycznej	-0.30103
-3.3487399	nagany:	-0.30103
-3.3487399	łzami	-0.30103
-3.3487399	zalać	-0.30103
-3.3487399	takowe	-0.30103
-3.3487399	płomienie,	-0.30103
-3.3487399	przeciwne	-0.30103
-3.3487399	zimnych	-0.30103
-3.3487399	wód	-0.30103
-3.3487399	chłodzenie.	-0.30103
-3.3487399	winić	-0.30103
-3.3487399	intrydze,	-0.30103
-3.3487399	wenerysmutnej	-0.30103
-3.3487399	widzę.	-0.30103
-3.3487399	kupidopłacze,	-0.30103
-3.3487399	odwraca,	-0.30103
-3.3487399	próżna	-0.30103
-3.3487399	amorów	-0.30103
-3.3487399	waszych	-0.30103
-3.3487399	praca.	-0.30103
-3.3487399	piękność	-0.30103
-3.3487399	uciekającego	-0.30103
-3.3487399	nimfy	-0.30103
-3.3487399	echo	-0.30103
-3.3487399	nazwane	-0.30103
-3.3487399	zaczynasz	-0.30103
-3.17622	wojnę	-0.30103
-3.3487399	miłością,	-0.30103
-3.3487399	narcyssie,	-0.30103
-3.3487399	potykasz	-0.30103
-3.3487399	stalowym	-0.30103
-3.3487399	kiryssie,	-0.30103
-3.3487399	ufasz	-0.30103
-3.3487399	orężu,	-0.30103
-3.3487399	trójgraniastą	-0.30103
-3.3487399	szpadę,	-0.30103
-3.3487399	nagie	-0.30103
-3.3487399	dziecko	-0.30103
-3.3487399	wziąć	-0.30103
-3.17622	potrafi	-0.30103
-3.3487399	zdradę;	-0.30103
-3.3487399	strzałka	-0.30103
-3.3487399	zwojuje	-0.30103
-3.3487399	śmiałka.	-0.30103
-3.3487399	uciekaj	-0.30103
-3.3487399	skały,	-0.30103
-3.3487399	puszcze,	-0.30103
-3.3487399	ciemne,	-0.30103
-3.3487399	uznasz,	-0.30103
-3.3487399	myślistwie	-0.30103
-3.3487399	uciechy	-0.30103
-3.3487399	daremne;	-0.30103
-3.3487399	pójdzie	-0.30103
-3.3487399	dokuczy,	-0.30103
-3.3487399	zganić	-0.30103
-3.3487399	pychę,	-0.30103
-3.3487399	hołdować,	-0.30103
-3.3487399	nauczy.	-0.30103
-3.3487399	porzuć	-0.30103
-3.3487399	zwierzynę,	-0.30103
-3.3487399	kochaj	-0.30103
-3.3487399	dziewczynę.	-0.30103
-3.3487399	pokaż	-0.30103
-3.3487399	bohatyra,	-0.30103
-3.3487399	tem	-0.30103
-3.3487399	tryumf	-0.30103
-3.3487399	wzięła	-0.30103
-3.3487399	broń	-0.30103
-3.3487399	twardej	-0.30103
-3.3487399	stali	-0.30103
-3.3487399	wykowana	-0.30103
-3.3487399	pryśnie,	-0.30103
-3.3487399	pancerze,	-0.30103
-3.3487399	szyszaki,	-0.30103
-3.3487399	roboty	-0.30103
-3.3487399	zmieni	-0.30103
-3.3487399	zaloty.	-0.30103
-3.3487399	mury,	-0.30103
-3.3487399	bramy,	-0.30103
-3.3487399	szańce,	-0.30103
-3.3487399	okopy,	-0.30103
-3.3487399	mosty,	-0.30103
-3.3487399	wolny	-0.30103
-3.3487399	przystęp	-0.30103
-3.3487399	gościniec	-0.30103
-3.3487399	prosty.	-0.30103
-3.3487399	forteca	-0.30103
-3.3487399	naturze	-0.30103
-3.3487399	sztuką	-0.30103
-3.3487399	dobyła.	-0.30103
-3.3487399	architekt	-0.30103
-3.3487399	uchodzi	-0.30103
-3.3487399	granic.	-0.30103
-3.3487399	głuchych	-0.30103
-3.3487399	jaskiniach	-0.30103
-3.3487399	znajdzie	-0.30103
-3.3487399	eremitę,	-0.30103
-3.3487399	zapuści	-0.30103
-3.3487399	zimny	-0.30103
-3.3487399	krzemień,	-0.30103
-3.3487399	iskrze	-0.30103
-3.3487399	ognie	-0.30103
-3.3487399	skryte,	-0.30103
-3.3487399	trącano	-0.30103
-3.3487399	krzesiwem,	-0.30103
-3.3487399	staje	-0.30103
-3.3487399	rozgorzałem	-0.30103
-3.3487399	płomieniu	-0.30103
-3.3487399	kości	-0.30103
-3.3487399	święte	-0.30103
-3.3487399	popiół	-0.30103
-3.3487399	rozdęte.	-0.30103
-3.3487399	kryje	-0.30103
-3.17622	rada	-0.30103
-3.3487399	spuszczone	-0.30103
-3.3487399	kaptury,	-0.30103
-3.3487399	niepoznana,	-0.30103
-3.3487399	skromności	-0.30103
-3.3487399	postury	-0.30103
-3.3487399	przybiera	-0.30103
-3.3487399	swoję	-0.30103
-3.3487399	postać,	-0.30103
-3.3487399	rozrucha	-0.30103
-3.3487399	podnieść	-0.30103
-3.3487399	radzi	-0.30103
-3.3487399	kaptura	-0.30103
-3.3487399	pocieszyć	-0.30103
-3.3487399	ducha;	-0.30103
-3.3487399	pozwoli	-0.30103
-3.3487399	oku	-0.30103
-3.3487399	zarwać	-0.30103
-3.3487399	widoku.	-0.30103
-3.3487399	panny	-0.30103
-3.3487399	wota	-0.30103
-3.3487399	czynią	-0.30103
-3.3487399	odprawiać	-0.30103
-3.3487399	pilne	-0.30103
-3.3487399	straże	-0.30103
-3.3487399	dzienne,	-0.30103
-3.3487399	nocne;	-0.30103
-3.3487399	sen	-0.30103
-3.3487399	naturalny,	-0.30103
-3.3487399	zpląta	-0.30103
-3.17622	ognia	-0.30103
-3.3487399	iskra	-0.30103
-3.3487399	skoczy,	-0.30103
-3.3487399	łamie	-0.30103
-3.3487399	wiarę	-0.30103
-3.3487399	gani	-0.30103
-3.3487399	ofiarę.	-0.30103
-3.3487399	śliczne	-0.30103
-3.3487399	purpury,	-0.30103
-3.3487399	farbuje	-0.30103
-3.3487399	czystość	-0.30103
-3.3487399	zdobi,	-0.30103
-3.3487399	zmaże,	-0.30103
-3.3487399	zgluzuie,	-0.30103
-3.3487399	malarz	-0.30103
-3.3487399	glansu	-0.30103
-3.3487399	poloru,	-0.30103
-3.3487399	przywrócić	-0.30103
-3.3487399	własności	-0.30103
-3.3487399	koloru;	-0.30103
-3.3487399	opełzły	-0.30103
-3.3487399	farby	-0.30103
-3.3487399	wstydzie	-0.30103
-3.3487399	karby.	-0.30103
-3.3487399	bywa	-0.30103
-3.3487399	ogródku	-0.30103
-3.3487399	obwiedzionym	-0.30103
-3.3487399	płotem	-0.30103
-3.3487399	złotej	-0.30103
-3.3487399	ligi	-0.30103
-3.3487399	małżeńskiej,	-0.30103
-3.3487399	psować	-0.30103
-3.3487399	wyroki;	-0.30103
-3.3487399	gospodyni	-0.30103
-3.3487399	gruntownym	-0.30103
-3.3487399	ogrodzeniu	-0.30103
-3.3487399	skryte	-0.30103
-3.3487399	dziury	-0.30103
-3.3487399	czyni,	-0.30103
-3.3487399	wielkie	-0.30103
-3.3487399	szkody	-0.30103
-3.3487399	jarzynie	-0.30103
-3.3487399	młody.	-0.30103
-3.3487399	rozgrzeje	-0.30103
-3.3487399	je	-0.30103
-3.3487399	zgrzybiały	-0.30103
-3.3487399	ciepła	-0.30103
-3.3487399	naturalnego	-0.30103
-3.3487399	odmienił	-0.30103
-3.3487399	śnieg	-0.30103
-3.3487399	biały,	-0.30103
-3.3487399	trudnej	-0.30103
-3.3487399	dokaże	-0.30103
-3.3487399	zgniłym	-0.30103
-3.3487399	dymu	-0.30103
-3.3487399	ucieszy	-0.30103
-3.3487399	stary	-0.30103
-3.3487399	zgrzeszy.	-0.30103
-3.3487399	jawny	-0.30103
-3.3487399	dowód	-0.30103
-3.3487399	narcyssiezuchwały,	-0.30103
-3.3487399	daninie	-0.30103
-3.3487399	hołduje	-0.30103
-3.3487399	cały;	-0.30103
-3.3487399	czują	-0.30103
-3.3487399	ludzie,	-0.30103
-3.17622	czuje	-0.30103
-3.3487399	zwierz,	-0.30103
-3.3487399	żyje,	-0.30103
-3.3487399	pani,	-0.30103
-3.3487399	władzy	-0.30103
-3.3487399	wybije.	-0.30103
-3.3487399	upory	-0.30103
-3.3487399	pokory.	-0.30103
-3.3487399	idź	-0.30103
-3.3487399	życzę,	-0.30103
-3.3487399	echoprosi	-0.30103
-3.3487399	głosem,	-0.30103
-3.3487399	instynkt	-0.30103
-3.3487399	prowadzi	-0.30103
-3.3487399	fortuny	-0.30103
-3.3487399	losem	-0.30103
-3.3487399	radą	-0.30103
-3.3487399	chodzą	-0.30103
-3.3487399	nadzieję	-0.30103
-3.3487399	kładą;	-0.30103
-3.3487399	rządzi	-0.30103
-3.3487399	zbłądzi.	-0.30103
-3.3487399	stąpa,	-0.30103
-3.3487399	górą	-0.30103
-3.3487399	nosi	-0.30103
-3.3487399	wpadnie	-0.30103
-3.3487399	dół	-0.30103
-3.3487399	wodzie	-0.30103
-3.3487399	głębokiej	-0.30103
-3.3487399	omoczy,	-0.30103
-3.3487399	wzgardził	-0.30103
-3.3487399	*nimfę*,	-0.30103
-3.3487399	źródła	-0.30103
-3.3487399	kwapił,	-0.30103
-3.3487399	łez	-0.30103
-3.3487399	zażył	-0.30103
-3.3487399	śmierci	-0.30103
-3.3487399	napił.	-0.30103
-3.3487399	zkończył	-0.30103
-3.3487399	wstydem	-0.30103
-3.3487399	*kupidem.	-0.30103

\2-grams:
-0.21225518	<s> </s>	0
-0.9123856	persname </s>	0
-0.21959472	światowe </s>	0
-0.21959472	honoru </s>	0
-0.452075	pożytek </s>	0
-0.21959472	pracą; </s>	0
-0.21959472	wszytek, </s>	0
-0.21959472	płacą: </s>	0
-0.21959472	wody, </s>	0
-0.44539988	, </s>	0
-0.21959472	ochłody. </s>	0
-0.21959472	słodkie, </s>	0
-0.21959472	śmietany; </s>	0
-0.21959472	krótkie, </s>	0
-0.21959472	skarany. </s>	0
-0.21959472	usłyszy, </s>	0
-0.21959472	myszy. </s>	0
-0.21959472	strzeże; </s>	0
-0.21959472	twardego. </s>	0
-0.21959472	wieże, </s>	0
-0.21959472	mocniejszego; </s>	0
-0.21959472	deszcze, </s>	0
-0.031534474	. </s>	0
-0.21959472	----- </s>	0
-0.21959472	doskonałości </s>	0
-0.21959472	wzbije, </s>	0
-0.21959472	wybadać, </s>	0
-0.21959472	zażyje, </s>	0
-0.21959472	składać, </s>	0
-0.21959472	kupca, </s>	0
-0.21959472	głupca. </s>	0
-0.21959472	skulptora, </s>	0
-0.21959472	rzemiosła, </s>	0
-0.21959472	pokora </s>	0
-0.21959472	posła; </s>	0
-0.452075	oczy, </s>	0
-0.21959472	dłotem </s>	0
-0.21959472	posągi </s>	0
-0.21959472	armaturze, </s>	0
-0.21959472	zaciągi, </s>	0
-0.21959472	posturze, </s>	0
-0.452075	męża </s>	0
-0.21959472	oręża. </s>	0
-0.21959472	twarzą, </s>	0
-0.21959472	pieszczocha; </s>	0
-0.21959472	parzą, </s>	0
-0.21959472	kocha, </s>	0
-0.21959472	wsiada, </s>	0
-0.21959472	stoocznym </s>	0
-0.21959472	semeliskrada, </s>	0
-0.21959472	widocznym; </s>	0
-0.21959472	wreście, </s>	0
-0.21959472	dyanny, </s>	0
-0.21959472	trzyma; </s>	0
-0.21959472	panny, </s>	0
-0.21959472	poddyma: </s>	0
-0.21959472	leży, </s>	0
-0.21959472	bieży. </s>	0
-0.21959472	płonie </s>	0
-0.21959472	gardzi; </s>	0
-0.21959472	tonie, </s>	0
-0.21959472	bardzi: </s>	0
-0.21959472	tropi </s>	0
-0.21959472	utopi. </s>	0
-0.21959472	cefalem, </s>	0
-0.21959472	niesie </s>	0
-0.21959472	żalem; </s>	0
-0.21959472	lesie, </s>	0
-0.21959472	zwierza </s>	0
-0.21959472	dowierza. </s>	0
-0.21959472	ledypostać, </s>	0
-0.452075	członki </s>	0
-0.21959472	tokiem, </s>	0
-0.21959472	parysemzostać, </s>	0
-0.21959472	okiem; </s>	0
-0.21959472	otuchy, </s>	0
-0.21959472	puchy. </s>	0
-0.21959472	merkury </s>	0
-0.21959472	własny </s>	0
-0.21959472	ciasny, </s>	0
-0.21959472	juno, </s>	0
-0.21959472	runo. </s>	0
-0.21959472	naturze, </s>	0
-0.21959472	skarbie </s>	0
-0.2413464	; </s>	0
-0.21959472	marmurze, </s>	0
-0.21959472	farbie. </s>	0
-0.21959472	dyktuje, </s>	0
-0.21959472	kosztuje. </s>	0
-0.21959472	stronie, </s>	0
-0.21959472	złotych </s>	0
-0.21959472	zebrani </s>	0
-0.21959472	tani. </s>	0
-0.21959472	merkuryusza, </s>	0
-0.21959472	bałwana. </s>	0
-0.21959472	rusza, </s>	0
-0.21959472	zaniedbana? </s>	0
-0.21959472	złota? </s>	0
-0.21959472	kwota. </s>	0
-0.21959472	tropy: </s>	0
-0.21959472	trafunku, </s>	0
-0.21959472	kopy, </s>	0
-0.21959472	podarunku, </s>	0
-0.21959472	cenzora, </s>	0
-0.21959472	faktora. </s>	0
-0.21959472	słuchać </s>	0
-0.21959472	pycha, </s>	0
-0.21959472	dmuchać, </s>	0
-0.21959472	spycha, </s>	0
-0.21959472	zbrodzien </s>	0
-0.21959472	godzien. </s>	0
-0.21959472	poznaje, </s>	0
-0.21959472	panował; </s>	0
-0.21959472	łaje, </s>	0
-0.21959472	szacował: </s>	0
-0.21959472	hardy </s>	0
-0.21959472	wzgardy. </s>	0
-0.21959472	grzesznik </s>	0
-0.6922427	persname, </s>	0
-0.21959472	grzmocie; </s>	0
-0.21959472	cie. </s>	0
-0.21959472	karania, </s>	0
-0.21959472	niewracania. </s>	0
-0.21959472	stroisz, </s>	0
-0.21959472	boisz? </s>	0
-0.21959472	strachu </s>	0
-0.21959472	gmachu. </s>	0
-0.21959472	rządach </s>	0
-0.21959472	sądach. </s>	0
-0.21959472	dnie </s>	0
-0.21959472	zgadnie. </s>	0
-0.21959472	odgłosy </s>	0
-0.21959472	włosy. </s>	0
-0.21959472	panie, </s>	0
-0.21959472	stanie. </s>	0
-0.21959472	rozmowa </s>	0
-0.21959472	chowa. </s>	0
-0.21959472	rozpusty, </s>	0
-0.21959472	odpusty. </s>	0
-0.21959472	gromi, </s>	0
-0.21959472	uskromi. </s>	0
-0.21959472	zagniewany, </s>	0
-0.21959472	uderzy. </s>	0
-0.452075	pasterki </s>	0
-0.21959472	obroty </s>	0
-0.452075	knieje, </s>	0
-0.21959472	ochoty. </s>	0
-0.21959472	śmieje, </s>	0
-0.452075	prostoty </s>	0
-0.21959472	niecnoty. </s>	0
-0.21959472	ucho, </s>	0
-0.21959472	prawnych, </s>	0
-0.21959472	sławnych; </s>	0
-0.21959472	szkole </s>	0
-0.21959472	role. </s>	0
-0.21959472	chłodniki </s>	0
-0.21959472	strumyki, </s>	0
-0.21959472	chlebie; </s>	0
-0.21959472	żywych </s>	0
-0.21959472	nieżyczliwych. </s>	0
-0.21959472	śliczny </s>	0
-0.21959472	kropelki </s>	0
-0.21959472	okoliczny </s>	0
-0.21959472	wrzosy, </s>	0
-0.21959472	rosy. </s>	0
-0.21959472	instrumenta </s>	0
-0.21959472	ptaszęta, </s>	0
-0.452075	sztuki, </s>	0
-0.21959472	nauki. </s>	0
-0.21959472	pasterze </s>	0
-0.21959472	fujarze, </s>	0
-0.21959472	lerze, </s>	0
-0.21959472	parze: </s>	0
-0.21959472	koleją </s>	0
-0.21959472	śmieją. </s>	0
-0.21959472	trzodę, </s>	0
-0.21959472	wilka. </s>	0
-0.21959472	powiodę, </s>	0
-0.21959472	szyje, </s>	0
-0.452075	drugą </s>	0
-0.21959472	zmyje. </s>	0
-0.21959472	ciemnym </s>	0
-0.21959472	wody: </s>	0
-0.21959472	foremnym </s>	0
-0.21959472	ochłody; </s>	0
-0.21959472	dokuczy </s>	0
-0.21959472	zamruczy. </s>	0
-0.21959472	zabawach, </s>	0
-0.21959472	godziną: </s>	0
-0.21959472	trawach; </s>	0
-0.21959472	doliną, </s>	0
-0.21959472	kolory </s>	0
-0.21959472	flory. </s>	0
-0.21959472	dała; </s>	0
-0.21959472	długą, </s>	0
-0.21959472	nazbierała. </s>	0
-0.21959472	strojem, </s>	0
-0.21959472	stojem. </s>	0
-0.21959472	niewinne, </s>	0
-0.21959472	mogą; </s>	0
-0.21959472	inne, </s>	0
-0.21959472	drogą. </s>	0
-0.21959472	koszyka, </s>	0
-0.56897604	trunku </s>	0
-0.21959472	zażyć, </s>	0
-0.21959472	piwnicy, </s>	0
-0.21959472	ważyć, </s>	0
-0.21959472	krynicy: </s>	0
-0.21959472	ubywa, </s>	0
-0.21959472	doliwa. </s>	0
-0.21959472	grzeje, </s>	0
-0.21959472	krzewiny; </s>	0
-0.21959472	wieje </s>	0
-0.21959472	jedliny, </s>	0
-0.21959472	jałowce, </s>	0
-0.21959472	owce. </s>	0
-0.21959472	domu, </s>	0
-0.21959472	gromady; </s>	0
-0.21959472	zwady: </s>	0
-0.21959472	owczarnie, </s>	0
-0.21959472	chróścianej </s>	0
-0.21959472	spoczynek; </s>	0
-0.21959472	glinianej </s>	0
-0.21959472	rynek; </s>	0
-0.21959472	żołądka, </s>	0
-0.452075	ciekawych </s>	0
-0.21959472	duszy, </s>	0
-0.21959472	zaprzęga; </s>	0
-0.21959472	suszy, </s>	0
-0.21959472	niedołęga, </s>	0
-0.21959472	bassarunku. </s>	0
-0.21959472	roboty, </s>	0
-0.21959472	wzroku, </s>	0
-0.21959472	ochoty, </s>	0
-0.21959472	kroku; </s>	0
-0.21959472	mierzy, </s>	0
-0.21959472	*akteonmyśliwy, </s>	0
-0.21959472	jelenia; </s>	0
-0.21959472	chciwy, </s>	0
-0.21959472	wątpienia, </s>	0
-0.21959472	zwierzynie </s>	0
-0.21959472	dziewczynie. </s>	0
-0.21959472	wielowładnych, </s>	0
-0.21959472	czyta; </s>	0
-0.21959472	ładnych, </s>	0
-0.21959472	chwyta: </s>	0
-0.21959472	pleszcze, </s>	0
-0.21959472	woli; </s>	0
-0.21959472	zarośle, </s>	0
-0.21959472	boli, </s>	0
-0.21959472	pośle. </s>	0
-0.21959472	zawady </s>	0
-0.21959472	porady. </s>	0
-0.21959472	igrzysko, </s>	0
-0.21959472	stoku, </s>	0
-0.21959472	zasłonki. </s>	0
-0.21959472	szpiega: </s>	0
-0.21959472	pryśnie </s>	0
-0.21959472	*nimfbiega, </s>	0
-0.21959472	ciśnie, </s>	0
-0.452075	: </s>	0
-0.21959472	sekretu, </s>	0
-0.21959472	dekretu. </s>	0
-0.21959472	zajadła, </s>	0
-0.21959472	urody </s>	0
-0.21959472	opadła. </s>	0
-0.21959472	szkody, </s>	0
-0.21959472	posturę </s>	0
-0.21959472	skórę. </s>	0
-0.21959472	zmierza, </s>	0
-0.21959472	akteonie? </s>	0
-0.21959472	śmiercią, </s>	0
-0.21959472	siercią. </s>	0
-0.21959472	grzeszyć? </s>	0
-0.21959472	gniewu: </s>	0
-0.21959472	cieszyć, </s>	0
-0.21959472	drzewu. </s>	0
-0.21959472	przeklęta, </s>	0
-0.21959472	bydlęta. </s>	0
-0.56897604	miłości </s>	0
-0.21959472	bratem </s>	0
-0.21959472	żadnem </s>	0
-0.21959472	słynął, </s>	0
-0.21959472	snadnem, </s>	0
-0.21959472	płynął: </s>	0
-0.21959472	alternata </s>	0
-0.21959472	brata. </s>	0
-0.21959472	cudem, </s>	0
-0.21959472	rodowitem </s>	0
-0.452075	dwojga </s>	0
-0.21959472	ludem, </s>	0
-0.21959472	przyzwoitem; </s>	0
-0.21959472	związkiem, </s>	0
-0.21959472	obowiązkiem. </s>	0
-0.21959472	ledy </s>	0
-0.21959472	persnamerodzili; </s>	0
-0.21959472	żyli: </s>	0
-0.21959472	bliźnięty, </s>	0
-0.21959472	*persname. </s>	0
-0.21959472	utraktował </s>	0
-0.21959472	dobra </s>	0
-0.21959472	zwierza, </s>	0
-0.452075	bobra, </s>	0
-0.21959472	więcierza </s>	0
-0.21959472	wodne. </s>	0
-0.21959472	godne. </s>	0
-0.21959472	sąsiedztwem </s>	0
-0.21959472	zażyli; </s>	0
-0.21959472	łowiectwem </s>	0
-0.21959472	nasycili, </s>	0
-0.21959472	specyały, </s>	0
-0.21959472	cały. </s>	0
-0.21959472	spory, </s>	0
-0.21959472	rupieci; </s>	0
-0.21959472	fetory, </s>	0
-0.21959472	zaleci; </s>	0
-0.21959472	kawalców, </s>	0
-0.21959472	palców. </s>	0
-0.21959472	plecie: </s>	0
-0.21959472	bawię, </s>	0
-0.21959472	stoję, </s>	0
-0.21959472	stroje. </s>	0
-0.21959472	rachele; </s>	0
-0.21959472	oddana, </s>	0
-0.21959472	znosić, </s>	0
-0.21959472	*rachelęprosić. </s>	0
-0.21959472	persnamejakobowi </s>	0
-0.21959472	persname* </s>	0
-0.21959472	*labanowi, </s>	0
-0.21959472	ranny: </s>	0
-0.21959472	michale </s>	0
-0.21959472	pochwale </s>	0
-0.21959472	wystawi: </s>	0
-0.21959472	sprzęgą, </s>	0
-0.21959472	przysięgą. </s>	0
-0.21959472	złożenia, </s>	0
-0.21959472	wysłużył; </s>	0
-0.21959472	pragnienia, </s>	0
-0.21959472	użył: </s>	0
-0.21959472	czyi, </s>	0
-0.21959472	lii. </s>	0
-0.21959472	rachelą, </s>	0
-0.21959472	wiedzie, </s>	0
-0.21959472	ścielą, </s>	0
-0.21959472	miedzie; </s>	0
-0.21959472	pamiątka, </s>	0
-0.21959472	spalił </s>	0
-0.21959472	sformowany </s>	0
-0.21959472	miny, </s>	0
-0.21959472	ściany; </s>	0
-0.21959472	młyny: </s>	0
-0.21959472	pali, </s>	0
-0.21959472	pochwali? </s>	0
-0.21959472	dam </s>	0
-0.21959472	weszło </s>	0
-0.21959472	placename; </s>	0
-0.21959472	przeszło, </s>	0
-0.21959472	zniża. </s>	0
-0.21959472	mularza </s>	0
-0.21959472	sekretarza. </s>	0
-0.21959472	modna </s>	0
-0.21959472	mopsaobróżce; </s>	0
-0.21959472	głodna, </s>	0
-0.21959472	poduszce, </s>	0
-0.21959472	mopsa </s>	0
-0.21959472	psa. </s>	0
-0.21959472	persname? </s>	0
-0.21959472	złego, </s>	0
-0.21959472	przyrodzona; </s>	0
-0.21959472	sobaczym. </s>	0
-0.21959472	ambony </s>	0
-0.21959472	ręczy, </s>	0
-0.21959472	odrzucony </s>	0
-0.21959472	dręczy. </s>	0
-0.21959472	kary </s>	0
-0.21959472	odpasze. </s>	0
-0.21959472	główny </s>	0
-0.21959472	zburzyć; </s>	0
-0.21959472	równy, </s>	0
-0.21959472	wykurzyć. </s>	0
-0.21959472	dowodów </s>	0
-0.21959472	narodów. </s>	0
-0.21959472	apostata, </s>	0
-0.21959472	duszą; </s>	0
-0.21959472	pobrata, </s>	0
-0.452075	mocne </s>	0
-0.21959472	ususzą: </s>	0
-0.21959472	jutrem, </s>	0
-0.21959472	zachowuje </s>	0
-0.21959472	towarzyszem; </s>	0
-0.21959472	obliguje, </s>	0
-0.21959472	hołyszem. </s>	0
-0.21959472	kameratem, </s>	0
-0.21959472	bratem? </s>	0
-0.21959472	sekta </s>	0
-0.21959472	niewieści </s>	0
-0.21959472	respekta, </s>	0
-0.21959472	pieści: </s>	0
-0.21959472	oddycha </s>	0
-0.21959472	mopsicha. </s>	0
-0.21959472	kładziesz </s>	0
-0.21959472	łóżka; </s>	0
-0.21959472	służka, </s>	0
-0.21959472	łasy, </s>	0
-0.21959472	kiełbasy. </s>	0
-0.21959472	smutnej </s>	0
-0.21959472	wenery </s>	0
-0.21959472	dzieje, </s>	0
-0.21959472	grzeje? </s>	0
-0.21959472	nazwali, </s>	0
-0.21959472	pali. </s>	0
-0.21959472	odmiany, </s>	0
-0.21959472	nagany: </s>	0
-0.21959472	płomienie, </s>	0
-0.21959472	chłodzenie. </s>	0
-0.21959472	intrydze, </s>	0
-0.21959472	widzę. </s>	0
-0.21959472	odwraca, </s>	0
-0.21959472	praca. </s>	0
-0.21959472	nazwane </s>	0
-0.21959472	narcyssie, </s>	0
-0.21959472	kiryssie, </s>	0
-0.21959472	szpadę, </s>	0
-0.21959472	zdradę; </s>	0
-0.21959472	strzałka </s>	0
-0.21959472	śmiałka. </s>	0
-0.21959472	ciemne, </s>	0
-0.21959472	daremne; </s>	0
-0.21959472	dokuczy, </s>	0
-0.21959472	nauczy. </s>	0
-0.21959472	zwierzynę, </s>	0
-0.21959472	dziewczynę. </s>	0
-0.21959472	tem </s>	0
-0.21959472	pryśnie, </s>	0
-0.21959472	roboty </s>	0
-0.21959472	zaloty. </s>	0
-0.21959472	mosty, </s>	0
-0.21959472	prosty. </s>	0
-0.21959472	dobyła. </s>	0
-0.21959472	architekt </s>	0
-0.21959472	granic. </s>	0
-0.21959472	eremitę, </s>	0
-0.21959472	skryte, </s>	0
-0.21959472	krzesiwem, </s>	0
-0.21959472	święte </s>	0
-0.21959472	rozdęte. </s>	0
-0.21959472	kaptury, </s>	0
-0.21959472	postury </s>	0
-0.21959472	rozrucha </s>	0
-0.21959472	ducha; </s>	0
-0.21959472	oku </s>	0
-0.21959472	widoku. </s>	0
-0.21959472	nocne; </s>	0
-0.21959472	skoczy, </s>	0
-0.21959472	wiarę </s>	0
-0.21959472	ofiarę. </s>	0
-0.21959472	farbuje </s>	0
-0.21959472	zgluzuie, </s>	0
-0.21959472	poloru, </s>	0
-0.21959472	koloru; </s>	0
-0.21959472	farby </s>	0
-0.21959472	karby. </s>	0
-0.21959472	płotem </s>	0
-0.21959472	gospodyni </s>	0
-0.21959472	czyni, </s>	0
-0.21959472	szkody </s>	0
-0.21959472	młody. </s>	0
-0.21959472	zgrzybiały </s>	0
-0.21959472	biały, </s>	0
-0.21959472	zgniłym </s>	0
-0.21959472	ucieszy </s>	0
-0.21959472	zgrzeszy. </s>	0
-0.21959472	narcyssiezuchwały, </s>	0
-0.21959472	cały; </s>	0
-0.21959472	żyje, </s>	0
-0.21959472	wybije. </s>	0
-0.21959472	upory </s>	0
-0.21959472	pokory. </s>	0
-0.21959472	głosem, </s>	0
-0.21959472	losem </s>	0
-0.21959472	radą </s>	0
-0.21959472	kładą; </s>	0
-0.21959472	rządzi </s>	0
-0.21959472	zbłądzi. </s>	0
-0.21959472	omoczy, </s>	0
-0.21959472	kwapił, </s>	0
-0.21959472	napił. </s>	0
-0.21959472	wstydem </s>	0
-0.21959472	*kupidem. </s>	0
-1.6446236	<s> persname	-0.45593196
-0.2998262	ust persname	-0.30103
-0.77454984	wiem persname	-0.30103
-0.2998262	rzędu persname	-0.30103
-0.8982948	lat persname	-0.30103
-0.2998262	skwapliwy persname	-0.30103
-0.2998262	rozstać persname	-0.30103
-0.2998262	płaczącego persname	-0.30103
-1.7109741	persname światowe	-0.30103
-3.3231678	<s> ludzi	-0.30103
-0.3008355	ludzi kochających	-0.30103
-0.3008355	kochających skrycie	-0.30103
-0.3008355	skrycie proporcyi	-0.30103
-3.2860394	<s> orgname	-0.30103
-0.30074066	proporcyi orgname	-0.30103
-0.6016711	orgname honoru	-0.30103
-3.3231678	<s> śmieszną	-0.30103
-0.3008355	śmieszną robotę,	-0.30103
-0.3008355	robotę, mały	-0.30103
-3.2860394	<s> pożytek	-0.30103
-0.30074066	mały pożytek	-0.30103
-3.3231678	<s> zaczął	-0.30103
-0.3008355	zaczął *kupidodwojgu	-0.30103
-0.3008355	*kupidodwojgu ludziach	-0.30103
-0.3008355	ludziach pracą;	-0.30103
-3.3231678	<s> wysechł	-0.30103
-0.3008355	wysechł wiór,	-0.30103
-0.3008355	wiór, zamyśleniu	-0.30103
-0.3008355	zamyśleniu wszytek,	-0.30103
-3.2860394	<s> wzdycha,	-0.30103
-0.30074066	myśląc wzdycha,	-0.30103
-0.6016711	wzdycha, jęczy	-0.30103
-0.3008355	jęczy niepewną	-0.30103
-0.3008355	niepewną płacą:	-0.30103
-3.3231678	<s> przetakiem	-0.30103
-2.8880801	<s> chce	-0.30103
-0.30074066	przetakiem chce	-0.30103
-0.90231246	chce naczerpać	-0.30103
-0.3008355	naczerpać wody,	-0.30103
-2.046282	<s> ,	-0.30103
-1.562459	persname ,	-0.30103
-0.29400295	odrzekłby ,	-0.30103
-0.29400295	człowiekowi ,	-0.30103
-1.3314505	miłość ,	-0.30103
-0.58811784	cenie ,	-0.30103
-0.29400295	jowisz*, ,	-0.30103
-0.7574022	ma ,	-0.30103
-1.1120774	; ,	-0.30103
-0.29400295	zna ,	-0.30103
-0.29400295	opowiem ,	-0.30103
-0.29400295	stan ,	-0.30103
-0.29400295	rozzuwa ,	-0.30103
-0.58811784	było ,	-0.30103
-0.29400295	dające ,	-0.30103
-0.29400295	skacząc ,	-0.30103
-0.29400295	należy ,	-0.30103
-0.29400295	pan ,	-0.30103
-0.29400295	zdrów ,	-0.30103
-0.29400295	napiera ,	-0.30103
-0.29400295	ciekawość ,	-0.30103
-0.29400295	pożądanej ,	-0.30103
-0.29400295	okiem ,	-0.30103
-0.58811784	mieni ,	-0.30103
-0.29400295	panowała ,	-0.30103
-0.29400295	przypadkiem ,	-0.30103
-0.29400295	przyznają ,	-0.30103
-0.8756392	lat ,	-0.30103
-0.29400295	świadków ,	-0.30103
-0.29400295	łask ,	-0.30103
-0.29400295	przypatrz ,	-0.30103
-0.29400295	myśleć ,	-0.30103
-0.29400295	wojuje ,	-0.30103
-0.29400295	affektu ,	-0.30103
-0.29400295	płaczesz ,	-0.30103
-0.29400295	krytycznej ,	-0.30103
-0.29400295	piękność ,	-0.30103
-0.29400295	naturze ,	-0.30103
-0.58811784	ognia ,	-0.30103
-0.29400295	małżeńskiej, ,	-0.30103
-1.9753231	, ochłody.	-0.30103
-3.2860394	<s> skrada	-0.30103
-0.60148156	raz skrada	-0.30103
-0.6016711	skrada kotek	-0.30103
-3.2860394	<s> mleka	-0.30103
-0.30074066	kotek mleka	-0.30103
-0.6016711	mleka słodkie,	-0.30103
-3.3231678	<s> liznął	-0.30103
-0.30074066	liznął nieborak	-0.30103
-0.7772838	myśli nieborak	-0.30103
-0.6016711	nieborak śmietany;	-0.30103
-3.3231678	<s> zapomniał,	-0.30103
-0.3008355	zapomniał, gusta	-0.30103
-0.3008355	gusta krótkie,	-0.30103
-3.3231678	<s> odrzekłby	-0.30103
-1.9753231	, skarany.	-0.30103
-3.3231678	<s> rzecze,	-0.30103
-0.3008355	rzecze, usłyszy,	-0.30103
-3.3231678	<s> kot	-0.30103
-0.3008355	kot szuka	-0.30103
-0.3008355	szuka mleka,	-0.30103
-0.3008355	mleka, myszy.	-0.30103
-3.0429873	<s> myśl	-0.30103
-0.30074066	przypadła myśl	-0.30103
-0.777568	myśl krówce,	-0.30103
-0.3008355	krówce, strzeże;	-0.30103
-3.3231678	<s> oczom	-0.30103
-0.3008355	oczom snu	-0.30103
-0.3008355	snu przybrać	-0.30103
-0.3008355	przybrać twardego.	-0.30103
-0.777568	myśl danaewyprowadzić	-0.30103
-0.3008355	danaewyprowadzić wieże,	-0.30103
-3.3231678	<s> koncept,	-0.30103
-0.30074066	koncept, trzeba	-0.30103
-0.30074066	winne trzeba	-0.30103
-0.6016711	trzeba mocniejszego;	-0.30103
-3.3231678	<s> potrafisz	-0.30103
-0.30074066	potrafisz złote	-0.30103
-0.30074066	uwiózł złote	-0.30103
-0.6016711	złote sypać	-0.30103
-0.3008355	sypać deszcze,	-0.30103
-3.3231678	<s> snem	-0.30103
-0.3008355	snem oszukać,	-0.30103
-0.3008355	oszukać, ostrożnych	-0.30103
-1.6473902	persname .	-0.30103
-1.8899088	, .	-0.30103
-0.29818052	ostrożnych .	-0.30103
-0.59637964	kąt .	-0.30103
-0.29818052	wyrażone .	-0.30103
-0.29818052	potrzebuje .	-0.30103
-0.59637964	bliska .	-0.30103
-0.29818052	słuchamy .	-0.30103
-0.29818052	masło .	-0.30103
-0.29818052	sałaszu .	-0.30103
-0.29818052	tyraństwa .	-0.30103
-0.29818052	chwali .	-0.30103
-0.89180255	lat .	-0.30103
-0.29818052	pstre .	-0.30103
-0.29818052	wzięła .	-0.30103
-0.29818052	szyszaki, .	-0.30103
-0.29818052	płomieniu .	-0.30103
-2.0841188	<s> -----	-0.90309
-3.3231678	<s> pysznego,	-0.30103
-3.2860394	<s> trzyma	-0.30103
-0.30074066	pysznego, trzyma	-0.30103
-0.6016711	trzyma wynosi	-0.30103
-0.3008355	wynosi doskonałości	-0.30103
-3.063813	<s> raz	-0.30103
-0.6016711	raz pychę	-0.30103
-0.3008355	pychę wzbije,	-0.30103
-2.6929436	<s> chcąc	-0.30103
-0.90231246	chcąc ludzkie	-0.30103
-0.3008355	ludzkie zdania	-0.30103
-0.3008355	zdania wybadać,	-0.30103
-3.3231678	<s> takowego	-0.30103
-0.3008355	takowego sposobu	-0.30103
-0.3008355	sposobu zażyje,	-0.30103
-3.3231678	<s> własną	-0.30103
-3.2860394	<s> postać	-0.30103
-0.30074066	własną postać	-0.30103
-0.6016711	postać składać,	-0.30103
-3.3231678	<s> inną	-0.30103
-0.3008355	inną przybrać,	-0.30103
-0.3008355	przybrać, żebraka	-0.30103
-0.3008355	żebraka kupca,	-0.30103
-3.3231678	<s> udać	-0.30103
-0.3008355	udać czas	-0.30103
-0.3008355	czas wymownego,	-0.30103
-0.3008355	wymownego, głupca.	-0.30103
-3.3231678	<s> wchodzi	-0.30103
-0.3008355	wchodzi mieszkanie,	-0.30103
-0.3008355	mieszkanie, skulptora,	-0.30103
-3.3231678	<s> pilnując	-0.30103
-0.3008355	pilnując rzemiosła,	-0.30103
-3.3231678	<s> myśli,	-0.30103
-0.3008355	myśli, zmyślona	-0.30103
-0.3008355	zmyślona pokora	-0.30103
-3.2860394	<s> dom	-0.30103
-0.30074066	odorem dom	-0.30103
-0.6016711	dom bogów	-0.30103
-0.3008355	bogów sprowadziła	-0.30103
-0.3008355	sprowadziła posła;	-0.30103
-3.3231678	<s> wycina	-0.30103
-0.3008355	wycina nosy,	-0.30103
-0.30055967	nosy, oczy,	-0.30103
-0.30055967	zalawszy oczy,	-0.30103
-0.30055967	zpląta oczy,	-0.30103
-0.30055967	nosi oczy,	-0.30103
-0.90231246	oczy, usta,	-0.30103
-0.3008355	usta, dłotem	-0.30103
-3.3231678	<s> bożkom,	-0.30103
-0.3008355	bożkom, boginiom	-0.30103
-0.3008355	boginiom stawia	-0.30103
-0.30074066	stawia kąt	-0.30103
-0.60148156	spyta, kąt	-0.30103
-2.3567047	<s> widzi	-0.30103
-1.972064	, widzi	-0.30103
-0.30074325	sztukach, widzi	-0.30103
-1.253525	widzi *merkurymisterne	-0.30103
-0.3008355	*merkurymisterne posągi	-0.30103
-3.3231678	<s> bellonącudnej	-0.30103
-0.3008355	bellonącudnej armaturze,	-0.30103
-3.3231678	<s> gotują	-0.30103
-0.3008355	gotują wojny	-0.30103
-0.3008355	wojny zaciągi,	-0.30103
-3.2860394	<s> bohatyr	-0.30103
-0.30074066	serca, bohatyr	-0.30103
-0.6014866	bohatyr minie	-0.30103
-0.30074325	groźnej minie	-0.30103
-0.30074325	wenerysmutnej minie	-0.30103
-0.777568	minie posturze,	-0.30103
-3.3231678	<s> *bellonaprzysługą	-0.30103
-0.30074066	*bellonaprzysługą męża	-0.30103
-0.30074066	żona męża	-0.30103
-0.6016711	trzyma potrzebne	-0.30103
-0.3008355	potrzebne boju	-0.30103
-0.3008355	boju oręża.	-0.30103
-1.253525	widzi *weneręnajpiękniejszą	-0.30103
-0.3008355	*weneręnajpiękniejszą twarzą,	-0.30103
-1.9753231	, małego	-0.30103
-0.3008355	małego pieszczocha;	-0.30103
-3.3231678	<s> gołębie	-0.30103
-0.3008355	gołębie całują,	-0.30103
-0.3008355	całują, parzą,	-0.30103
-1.9753231	, karesuje,	-0.30103
-0.3008355	karesuje, kocha,	-0.30103
-3.3231678	<s> człowiekowi	-0.30103
-3.2860394	<s> sztuce	-0.30103
-0.30074066	kształt sztuce	-0.30103
-0.6016711	sztuce wyrażone	-0.30103
-1.253525	widzi **,	-0.30103
-0.3008355	**, orła	-0.30103
-0.3008355	orła wsiada,	-0.30103
-1.253525	widzi junonę,	-0.30103
-0.3008355	junonę, pawiem	-0.30103
-0.3008355	pawiem stoocznym	-0.30103
-3.3231678	<s> igra,	-0.30103
-0.3008355	igra, semeliskrada,	-0.30103
-3.3231678	<s> zabawy	-0.30103
-0.3008355	zabawy ma,	-0.30103
-0.3008355	ma, dniu	-0.30103
-0.3008355	dniu widocznym;	-0.30103
-3.3231678	<s> płaczący,	-0.30103
-0.3008355	płaczący, straż	-0.30103
-0.3008355	straż porzuca	-0.30103
-0.3008355	porzuca wreście,	-0.30103
-3.3231678	<s> stadło	-0.30103
-0.30074325	stadło oczu	-0.30103
-0.6014866	opisanie oczu	-0.30103
-0.30074325	jednę oczu	-0.30103
-0.777568	oczu potrzebuje	-0.30103
-1.253525	widzi statuę	-0.30103
-0.3008355	statuę myśliwej	-0.30103
-0.3008355	myśliwej dyanny,	-0.30103
-3.2869983	<s> kształtną	-0.30103
-0.30074325	patrzy kształtną	-0.30103
-0.6014866	ludzką kształtną	-0.30103
-0.777568	kształtną ręką	-0.30103
-3.2860394	<s> psy	-0.30103
-0.30074066	ręką psy	-0.30103
-0.6016711	psy smyczy	-0.30103
-0.3008355	smyczy trzyma;	-0.30103
-3.3231678	<s> łuk,	-0.30103
-0.3008355	łuk, kołczan,	-0.30103
-0.3008355	kołczan, lance,	-0.30103
-0.3008355	lance, niosą	-0.30103
-0.3008355	niosą panny,	-0.30103
-3.3231678	<s> wiatr	-0.30103
-0.3008355	wiatr sukienke	-0.30103
-0.3008355	sukienke poddyma:	-0.30103
-3.3231678	<s> zwierzyna	-0.30103
-0.3008355	zwierzyna postrzelana	-0.30103
-0.3008355	postrzelana leży,	-0.30103
-3.3231678	<s> żywa	-0.30103
-0.3008355	żywa rozkaz	-0.30103
-0.30074066	rozkaz bogini	-0.30103
-0.30074066	posiane bogini	-0.30103
-0.6016711	bogini sieć	-0.30103
-0.3008355	sieć bieży.	-0.30103
-1.253525	widzi *,	-0.30103
-0.3008355	*, pożarem	-0.30103
-0.3008355	pożarem płonie	-0.30103
-3.2860394	<s> pięknej	-0.30103
-0.7772838	kształtną pięknej	-0.30103
-0.6016711	pięknej dafny*,	-0.30103
-0.3008355	dafny*, gardzi;	-0.30103
-3.043535	<s> sam	-0.30103
-1.972064	, sam	-0.30103
-0.7772914	myśli sam	-0.30103
-0.90231246	sam zakochawszy	-0.30103
-0.3008355	zakochawszy tonie,	-0.30103
-3.3231678	<s> echościga,	-0.30103
-0.3008355	echościga, ucieka	-0.30103
-0.3008355	ucieka bardzi:	-0.30103
-3.3231678	<s> amorotów	-0.30103
-2.4764812	<s> miłość	-0.30103
-0.2996431	amorotów miłość	-0.30103
-0.2996431	znajdziesz miłość	-0.30103
-0.2996431	pary miłość	-0.30103
-0.2996431	pójdzie miłość	-0.30103
-0.2996431	znajdzie miłość	-0.30103
-0.2996431	kryje miłość	-0.30103
-0.2996431	bywa miłość	-0.30103
-0.2996431	rozgrzeje miłość	-0.30103
-1.4124515	miłość mściwa	-0.30103
-0.3008355	mściwa tropi	-0.30103
-3.3231678	<s> jednego	-0.30103
-0.3008355	jednego spali,	-0.30103
-0.30074066	spali, drugiego	-0.30103
-0.30074066	jeden drugiego	-0.30103
-0.6016711	drugiego utopi.	-0.30103
-1.253525	widzi *prokrydękochanym	-0.30103
-0.3008355	*prokrydękochanym cefalem,	-0.30103
-0.6016711	pożytek podejrzenie	-0.30103
-0.3008355	podejrzenie niesie	-0.30103
-3.3231678	<s> małżeństwem,	-0.30103
-0.3008355	małżeństwem, kończy	-0.30103
-0.3008355	kończy żalem;	-0.30103
-3.3231678	<s> żona	-0.30103
-0.6016711	męża szpieguje	-0.30103
-0.3008355	szpieguje lesie,	-0.30103
-3.3231678	<s> winien,	-0.30103
-0.3008355	winien, mąż	-0.30103
-0.30074325	mąż kniei	-0.30103
-0.99856794	geogname kniei	-0.30103
-0.30074325	szukał kniei	-0.30103
-0.7772838	kniei zwierza	-0.30103
-0.30074066	przemieniony zwierza	-0.30103
-3.3231678	<s> zabija	-0.30103
-0.3008355	zabija żonę,	-0.30103
-0.3008355	żonę, dowierza.	-0.30103
-3.3231678	<s> patrzy	-0.30103
-0.6016711	pięknej ledypostać,	-0.30103
-3.2860394	<s> członki	-0.30103
-0.30074066	myjąc członki	-0.30103
-0.6016711	członki wyrobione	-0.30103
-0.3008355	wyrobione tokiem,	-0.30103
-3.3231678	<s> chciałby	-0.30103
-0.3008355	chciałby parysemzostać,	-0.30103
-3.2860394	<s> żywej	-0.30103
-0.30074066	glansie, żywej	-0.30103
-0.6016711	żywej dojrzał	-0.30103
-0.3008355	dojrzał okiem;	-0.30103
-2.6841946	<s> masz	-0.30103
-0.30074325	przyzna, masz	-0.30103
-0.30074325	pychę, masz	-0.30103
-1.0780154	masz nadziei	-0.30103
-0.3008355	nadziei otuchy,	-0.30103
-1.7085422	persname życzę	-0.30103
-0.30074066	chronić życzę	-0.30103
-0.6016711	życzę łabędziowe	-0.30103
-0.3008355	łabędziowe puchy.	-0.30103
-3.3231678	<s> woli	-0.30103
-0.30074325	woli wzrok	-0.30103
-0.30074325	topi wzrok	-0.30103
-0.30074325	uznał, wzrok	-0.30103
-0.777568	wzrok napasł	-0.30103
-0.3008355	napasł merkury	-0.30103
-3.3231678	<s> pięknych	-0.30103
-0.3008355	pięknych sztukach,	-0.30103
-1.253525	widzi własny	-0.30103
-3.3231678	<s> posąg:	-0.30103
-3.2860394	<s> spyta,	-0.30103
-0.30074066	posąg: spyta,	-0.30103
-0.60148156	spyta, cenie	-0.30103
-0.30074066	sądząc, cenie	-0.30103
-0.6016711	kąt zapchano	-0.30103
-0.3008355	zapchano ciasny,	-0.30103
-3.3231678	<s> szacunku	-0.30103
-0.3008355	szacunku jowisz*,	-0.30103
-1.9753231	, juno,	-0.30103
-3.3231678	<s> persnameplacename	-0.30103
-0.3008355	persnameplacename uwiózł	-0.30103
-0.6016711	złote runo.	-0.30103
-3.3231678	<s> odpowie	-0.30103
-0.3008355	odpowie skulptor,	-0.30103
-1.9719743	, różność	-0.30103
-0.30074066	skulptor, różność	-0.30103
-0.6016711	różność naturze,	-0.30103
-3.3231678	<s> dała	-0.30103
-0.3008355	dała jednemu,	-0.30103
-0.3008355	jednemu, skarbie	-0.30103
-3.0429873	<s> ma	-0.30103
-1.4112267	miłość ma	-0.30103
-1.9469637	, ;	-0.30103
-0.7750968	ma ;	-0.30103
-0.3000095	zajedzie ;	-0.30103
-0.3000095	dbam ;	-0.30103
-0.3000095	wyśpiewuje ;	-0.30103
-0.3000095	bieży ;	-0.30103
-0.6000213	znajdzie, ;	-0.30103
-0.60148156	różność jest	-0.30103
-0.30074066	powie; jest	-0.30103
-0.6016711	jest marmurze,	-0.30103
-3.3231678	<s> białości,	-0.30103
-0.3008355	białości, żyłkach,	-0.30103
-0.3008355	żyłkach, glansie,	-0.30103
-0.6016711	żywej farbie.	-0.30103
-3.3231678	<s> zna	-0.30103
-0.90231246	sam rozum	-0.30103
-0.3008355	rozum dyktuje,	-0.30103
-3.3231678	<s> marmur,	-0.30103
-0.3008355	marmur, praca,	-0.30103
-0.3008355	praca, kształt	-0.30103
-0.6016711	sztuce kosztuje.	-0.30103
-3.3231678	<s> ciekawy,	-0.30103
-0.3008355	ciekawy, opowiem	-0.30103
-3.3231678	<s> jednym	-0.30103
-0.3008355	jednym rządzie	-0.30103
-0.3008355	rządzie stoją	-0.30103
-0.3008355	stoją stronie,	-0.30103
-3.3231678	<s> set	-0.30103
-0.3008355	set czerwonych	-0.30103
-0.3008355	czerwonych złotych	-0.30103
-3.3231678	<s> przedać	-0.30103
-0.3008355	przedać myślę,	-0.30103
-0.3008355	myślę, zajedzie	-0.30103
-3.3231678	<s> ścianą	-0.30103
-0.3008355	ścianą zebrani	-0.30103
-3.3231678	<s> mniejszej	-0.30103
-0.3008355	mniejszej wadze,	-0.30103
-0.3008355	wadze, oddam	-0.30103
-0.3008355	oddam tani.	-0.30103
-3.3231678	<s> merkuryusza,	-0.30103
-0.90231246	chce wiedzieć	-0.30103
-0.3008355	wiedzieć drogość	-0.30103
-0.3008355	drogość bałwana.	-0.30103
-3.2860394	<s> bliska	-0.30103
-0.30074066	widzieć, bliska	-0.30103
-0.6016711	bliska przystąpi,	-0.30103
-0.3008355	przystąpi, ręką,	-0.30103
-0.3008355	ręką, nogą	-0.30103
-0.3008355	nogą rusza,	-0.30103
-3.2860394	<s> rzecze:	-0.30103
-0.30074066	koniec rzecze:	-0.30103
-0.6016711	rzecze: sztuka	-0.30103
-0.3008355	sztuka zaniedbana?	-0.30103
-3.3231678	<s> chciał	-0.30103
-0.3008355	chciał rzemieślnik	-0.30103
-0.3008355	rzemieślnik złota?	-0.30103
-3.3231678	<s> sądząc,	-0.30103
-0.6016711	cenie wielka	-0.30103
-0.3008355	wielka zajdzie	-0.30103
-0.3008355	zajdzie kwota.	-0.30103
-3.3231678	<s> słyszy	-0.30103
-0.3008355	słyszy odpowiedź	-0.30103
-0.3008355	odpowiedź tropy:	-0.30103
-3.3231678	<s> kupiec	-0.30103
-0.3008355	kupiec przybył	-0.30103
-0.3008355	przybył trafunku,	-0.30103
-3.3231678	<s> błazna	-0.30103
-0.3008355	błazna chciałbym	-0.30103
-0.3008355	chciałbym kopy,	-0.30103
-3.3231678	<s> przydał	-0.30103
-0.3008355	przydał chęcią	-0.30103
-0.3008355	chęcią podarunku,	-0.30103
-3.3231678	<s> pozbył	-0.30103
-0.3008355	pozbył spraw	-0.30103
-0.3008355	spraw cudzych	-0.30103
-0.3008355	cudzych cenzora,	-0.30103
-3.3231678	<s> kassy	-0.30103
-0.3008355	kassy złodziejów,	-0.30103
-3.167088	<s> placename	-0.30103
-0.3003762	złodziejów, placename	-0.30103
-0.3003762	koncerty placename	-0.30103
-0.3003762	modą placename	-0.30103
-0.3003762	uznasz, placename	-0.30103
-0.99902827	placename faktora.	-0.30103
-3.3231678	<s> smak	-0.30103
-0.3008355	smak słuchać	-0.30103
-3.3231678	<s> obiecała	-0.30103
-0.3008355	obiecała pycha,	-0.30103
-3.3231678	<s> nos	-0.30103
-3.2860394	<s> śmiele	-0.30103
-0.30074066	nos śmiele	-0.30103
-0.6016711	śmiele miał	-0.30103
-0.3008355	miał dmuchać,	-0.30103
-3.3231678	<s> łeb	-0.30103
-0.3008355	łeb spycha,	-0.30103
-3.063813	<s> mówiąc	-0.30103
-0.6016711	mówiąc oczy:	-0.30103
-0.3008355	oczy: ostatni	-0.30103
-0.3008355	ostatni zbrodzien	-0.30103
-3.3231678	<s> charakterze	-0.30103
-0.3008355	charakterze szubienicy	-0.30103
-0.3008355	szubienicy godzien.	-0.30103
-2.9025521	<s> myśli	-0.30103
-0.90231246	sam poznaje,	-0.30103
-3.3231678	<s> defekt	-0.30103
-0.3008355	defekt panował;	-0.30103
-3.3231678	<s> przeklina	-0.30103
-0.3008355	przeklina stan	-0.30103
-1.9753231	, łaje,	-0.30103
-3.3231678	<s> szacował:	-0.30103
-3.3231678	<s> przyrzeka,	-0.30103
-0.3008355	przyrzeka, umysł	-0.30103
-0.3008355	umysł hardy	-0.30103
-3.3231678	<s> potępi,	-0.30103
-0.3008355	potępi, wprowadził	-0.30103
-0.3008355	wprowadził wzgardy.	-0.30103
-3.3231678	<s> reskrypt	-0.30103
-0.30074066	reskrypt pewnemu	-0.30103
-0.30074066	przypisanie pewnemu	-0.30103
-0.6016711	pewnemu poecie	-0.30103
-0.3008355	poecie bojącemu	-0.30103
-0.3008355	bojącemu grzmotów	-0.30103
-0.3008355	grzmotów zabicia	-0.30103
-0.3008355	zabicia piorunów,	-0.30103
-0.3008355	piorunów, grzesznik	-0.30103
-3.3231678	<s> mocny	-0.30103
-3.0058045	<s> persname,	-0.30103
-0.6011198	pewnemu persname,	-0.30103
-0.30055967	mocny persname,	-0.30103
-0.7767417	trzody persname,	-0.30103
-0.99902827	persname, pewna,	-0.30103
-0.3008355	pewna, piorunie	-0.30103
-0.3008355	piorunie grzmocie;	-0.30103
-3.3231678	<s> uznaj	-0.30103
-0.3008355	uznaj grzeszniku	-0.30103
-0.3008355	grzeszniku winę,	-0.30103
-0.3008355	winę, idzie	-0.30103
-0.3008355	idzie cie.	-0.30103
-3.3231678	<s> sposób	-0.30103
-0.3008355	sposób bojaźni	-0.30103
-0.3008355	bojaźni nagłego	-0.30103
-0.3008355	nagłego karania,	-0.30103
-3.3231678	<s> żal,	-0.30103
-0.3008355	żal, szczery	-0.30103
-0.3008355	szczery występków,	-0.30103
-0.3008355	występków, niewracania.	-0.30103
-3.3231678	<s> zbroję	-0.30103
-0.3008355	zbroję winowajco	-0.30103
-0.3008355	winowajco stroisz,	-0.30103
-3.3231678	<s> grzmotów,	-0.30103
-0.3008355	grzmotów, błyskania,	-0.30103
-0.3008355	błyskania, piorunów	-0.30103
-0.3008355	piorunów boisz?	-0.30103
-3.3231678	<s> skończonej	-0.30103
-0.3008355	skończonej burzy,	-0.30103
-0.3008355	burzy, wichrze,	-0.30103
-0.3008355	wichrze, strachu	-0.30103
-1.9719743	, wolą	-0.30103
-1.077448	masz wolą	-0.30103
-0.6016711	wolą grzech	-0.30103
-0.3008355	grzech przytulić	-0.30103
-0.3008355	przytulić gmachu.	-0.30103
-3.3231678	<s> wiem,	-0.30103
-0.3008355	wiem, sprawiedliwy,	-0.30103
-0.3008355	sprawiedliwy, doskonałych	-0.30103
-0.3008355	doskonałych rządach	-0.30103
-3.3231678	<s> równe	-0.30103
-0.3008355	równe miłosierdzie;	-0.30103
-0.3008355	miłosierdzie; ukrytych	-0.30103
-0.3008355	ukrytych sądach.	-0.30103
-3.043535	<s> ?	-0.30103
-1.7086076	persname ?	-0.30103
-0.9019439	? ?	-0.30103
-0.90231246	? piekle	-0.30103
-0.3008355	piekle dnie	-0.30103
-3.043535	<s> świat	-0.30103
-0.30074325	las świat	-0.30103
-0.30074325	hołduje świat	-0.30103
-0.90231246	świat osiadł	-0.30103
-0.3008355	osiadł grzechu,	-0.30103
-0.3008355	grzechu, skrytość	-0.30103
-0.3008355	skrytość zgadnie.	-0.30103
-3.3231678	<s> truchlał	-0.30103
-0.3008355	truchlał mojżeszbrzmiące	-0.30103
-0.3008355	mojżeszbrzmiące ust	-0.30103
-1.7109741	persname odgłosy	-0.30103
-3.2860394	<s> widząc,	-0.30103
-1.7085422	persname widząc,	-0.30103
-0.6016711	widząc, rozzuwa	-0.30103
-1.9753231	, róg	-0.30103
-0.3008355	róg powstają	-0.30103
-0.3008355	powstają włosy.	-0.30103
-3.3231678	<s> rzecze	-0.30103
-0.3008355	rzecze strachu:	-0.30103
-0.3008355	strachu: mów	-0.30103
-0.3008355	mów panie,	-0.30103
-3.3231678	<s> umrę,	-0.30103
-0.3008355	umrę, włosów	-0.30103
-0.3008355	włosów głowie	-0.30103
-0.3008355	głowie stanie.	-0.30103
-0.90231246	? pożyteczny	-0.30103
-0.3008355	pożyteczny głos,	-0.30103
-0.3008355	głos, rozmowa	-0.30103
-3.3231678	<s> mojżeszprzykazanie	-0.30103
-0.3008355	mojżeszprzykazanie tablicy	-0.30103
-0.3008355	tablicy chowa.	-0.30103
-3.3231678	<s> przynosi	-0.30103
-0.3008355	przynosi ludowi	-0.30103
-0.3008355	ludowi pełnemu	-0.30103
-0.3008355	pełnemu rozpusty,	-0.30103
-1.7085422	persname jarzmo	-0.30103
-0.30074066	niewolne jarzmo	-0.30103
-0.6016711	jarzmo pracy,	-0.30103
-3.2860394	<s> wieczne	-0.30103
-0.30074066	pracy, wieczne	-0.30103
-0.6016711	wieczne odpusty.	-0.30103
-1.7109741	persname ojciec	-0.30103
-0.3008355	ojciec dzieci	-0.30103
-0.3008355	dzieci nieposłuszne	-0.30103
-0.3008355	nieposłuszne gromi,	-0.30103
-3.3231678	<s> zły	-0.30103
-0.3008355	zły nałóg,	-0.30103
-0.3008355	nałóg, niewstyd,	-0.30103
-0.3008355	niewstyd, grzmotami	-0.30103
-0.3008355	grzmotami uskromi.	-0.30103
-3.3231678	<s> zagniewany,	-0.30103
-3.3231678	<s> mija	-0.30103
-0.3008355	mija grzesznika,	-0.30103
-0.3008355	grzesznika, suchy	-0.30103
-0.3008355	suchy dąb	-0.30103
-0.30074066	dąb uderzy.	-0.30103
-0.30074066	skałę uderzy.	-0.30103
-3.3231678	<s> pochwała	-0.30103
-0.30074066	pochwała lasów	-0.30103
-0.60148156	gęstych lasów	-0.30103
-0.6016711	lasów miłego	-0.30103
-0.3008355	miłego osobności	-0.30103
-0.30074066	osobności życia	-0.30103
-0.30074066	zważywszy życia	-0.30103
-0.6016711	życia stanie	-0.30103
-0.3008355	stanie pasterskim,	-0.30103
-3.2860394	<s> pasterki	-0.30103
-0.30074066	pasterskim, pasterki	-0.30103
-3.3231678	<s> zważywszy	-0.30103
-0.6016711	życia ludzkiego	-0.30103
-0.3008355	ludzkiego obroty	-0.30103
-3.3231678	<s> uchodzę	-0.30103
-3.043535	<s> lasy	-0.30103
-0.30074325	uchodzę lasy	-0.30103
-0.6014866	knieje, lasy	-0.30103
-0.90231246	lasy wesołe	-0.30103
-0.30074066	wesołe knieje,	-0.30103
-0.30074066	puszcze, knieje,	-0.30103
-3.063813	<s> mając	-0.30103
-0.6016711	mając gustu	-0.30103
-0.3008355	gustu ochoty.	-0.30103
-0.90231246	chce dzikości	-0.30103
-0.3008355	dzikości śmieje,	-0.30103
-3.3231678	<s> dbam	-0.30103
-3.2860394	<s> wolę	-0.30103
-1.1446832	; wolę	-0.30103
-3.2860394	<s> prostoty	-0.30103
-0.60148156	wolę prostoty	-0.30103
-3.3231678	<s> las	-0.30103
-0.90231246	świat pełen	-0.30103
-0.3008355	pełen niecnoty.	-0.30103
-3.3231678	<s> umiem	-0.30103
-0.3008355	umiem bajek	-0.30103
-0.3008355	bajek szeptać	-0.30103
-0.3008355	szeptać ucho,	-0.30103
-3.3231678	<s> znam,	-0.30103
-0.3008355	znam, terminów	-0.30103
-0.3008355	terminów prawnych,	-0.30103
-3.3231678	<s> wody	-0.30103
-0.3008355	wody sprowadzić,	-0.30103
-0.30074066	sprowadzić, było	-0.30103
-0.30074066	nieprzykro było	-0.30103
-3.3231678	<s> *cyceronachsłyszałam	-0.30103
-0.3008355	*cyceronachsłyszałam sławnych;	-0.30103
-3.063813	<s> czasów	-0.30103
-0.6016711	czasów ćwiczon	-0.30103
-0.3008355	ćwiczon szkole	-0.30103
-3.3231678	<s> pasie	-0.30103
-0.3008355	pasie bydło	-0.30103
-0.3008355	bydło kopie	-0.30103
-0.3008355	kopie role.	-0.30103
-0.90231246	lasy kochane,	-0.30103
-0.3008355	kochane, zielone	-0.30103
-0.3008355	zielone chłodniki	-0.30103
-3.3231678	<s> drzewa	-0.30103
-0.3008355	drzewa przyjemny	-0.30103
-0.3008355	przyjemny szum	-0.30103
-0.3008355	szum dające	-0.30103
-3.3231678	<s> trawy,	-0.30103
-0.3008355	trawy, pagórki,	-0.30103
-0.3008355	pagórki, biegące	-0.30103
-0.3008355	biegące strumyki,	-0.30103
-3.3231678	<s> mieszkam	-0.30103
-0.3008355	mieszkam suchym	-0.30103
-0.3008355	suchym chlebie;	-0.30103
-3.3231678	<s> zdrowszy	-0.30103
-0.3008355	zdrowszy napój	-0.30103
-0.3008355	napój źródeł	-0.30103
-0.3008355	źródeł żywych	-0.30103
-3.3231678	<s> drogie	-0.30103
-0.3008355	drogie trunki,	-0.30103
-0.3008355	trunki, rąk	-0.30103
-0.3008355	rąk nieżyczliwych.	-0.30103
-3.3231678	<s> ranna	-0.30103
-0.3008355	ranna zorza	-0.30103
-0.3008355	zorza rumieniec	-0.30103
-0.3008355	rumieniec śliczny	-0.30103
-3.3231678	<s> pokaże,	-0.30103
-0.3008355	pokaże, rosa	-0.30103
-0.3008355	rosa perłowe	-0.30103
-0.3008355	perłowe kropelki	-0.30103
-3.3231678	<s> pozbiera,	-0.30103
-0.3008355	pozbiera, pasterz	-0.30103
-0.3008355	pasterz okoliczny	-0.30103
-3.3231678	<s> zaśpi,	-0.30103
-0.3008355	zaśpi, ptak	-0.30103
-0.3008355	ptak wyśpiewuje	-0.30103
-3.2869983	<s> trzody	-0.30103
-0.7772914	owiec trzody	-0.30103
-0.30074325	zganiamy trzody	-0.30103
-0.7772914	trzody owiec	-0.30103
-0.30074325	pasąc owiec	-0.30103
-0.30074325	pasący owiec	-0.30103
-0.777568	owiec żeną	-0.30103
-0.3008355	żeną wrzosy,	-0.30103
-1.9753231	, mokre	-0.30103
-0.3008355	mokre skrzydła	-0.30103
-0.3008355	skrzydła otrzepują	-0.30103
-0.3008355	otrzepują rosy.	-0.30103
-3.3231678	<s> różnych	-0.30103
-0.3008355	różnych głosów	-0.30103
-0.3008355	głosów stroją	-0.30103
-0.3008355	stroją instrumenta	-0.30103
-3.3231678	<s> drzewach	-0.30103
-0.3008355	drzewach skacząc	-0.30103
-3.3231678	<s> krzykną	-0.30103
-0.3008355	krzykną roślejsze	-0.30103
-0.3008355	roślejsze drobne	-0.30103
-0.3008355	drobne ptaszęta,	-0.30103
-3.3231678	<s> bezpieczne,	-0.30103
-0.3008355	bezpieczne, słuchamy	-0.30103
-3.3231678	<s> koncerty	-0.30103
-0.99902827	placename nut	-0.30103
-0.30074066	nut sztuki,	-0.30103
-0.30074066	dokaże sztuki,	-0.30103
-3.3231678	<s> milsze	-0.30103
-0.3008355	milsze głosy	-0.30103
-0.3008355	głosy mistrza	-0.30103
-0.3008355	mistrza nauki.	-0.30103
-3.3231678	<s> ptastwo,	-0.30103
-0.3008355	ptastwo, zaczną	-0.30103
-0.3008355	zaczną pasterze	-0.30103
-3.3231678	<s> smutne	-0.30103
-0.3008355	smutne wywodzić	-0.30103
-0.3008355	wywodzić dumy	-0.30103
-0.3008355	dumy fujarze,	-0.30103
-3.3231678	<s> inni	-0.30103
-0.3008355	inni skoczne	-0.30103
-2.6839552	<s> geogname	-0.30103
-0.30074066	skoczne geogname	-0.30103
-0.99902827	geogname lerze,	-0.30103
-3.3231678	<s> tańcując	-0.30103
-0.3008355	tańcując parze:	-0.30103
-3.3231678	<s> wdzięczne	-0.30103
-0.3008355	wdzięczne pieśni	-0.30103
-0.3008355	pieśni śpiewamy	-0.30103
-0.3008355	śpiewamy koleją	-0.30103
-0.90231246	lasy słuchają,	-0.30103
-0.3008355	słuchają, gaje	-0.30103
-0.3008355	gaje śmieją.	-0.30103
-2.9025521	<s> wiem	-0.30103
-0.777568	wiem tęsknić,	-0.30103
-0.3008355	tęsknić, pasąc	-0.30103
-0.777568	owiec trzodę,	-0.30103
-3.3231678	<s> pilnością	-0.30103
-0.3008355	pilnością strzedz	-0.30103
-0.3008355	strzedz potrzeba	-0.30103
-0.3008355	potrzeba wilka.	-0.30103
-3.3231678	<s> przebrnąwszy	-0.30103
-0.3008355	przebrnąwszy potok,	-0.30103
-0.3008355	potok, oczyma	-0.30103
-0.3008355	oczyma powiodę,	-0.30103
-3.3231678	<s> pastereczek	-0.30103
-0.3008355	pastereczek bieży	-0.30103
-3.3231678	<s> temi	-0.30103
-0.3008355	temi witam,	-0.30103
-0.3008355	witam, chwytając	-0.30103
-0.3008355	chwytając szyje,	-0.30103
-3.0429873	<s> jedna	-0.30103
-0.60148156	bieżąc, jedna	-0.30103
-0.4768295	jedna drugą	-0.30103
-0.6016711	drugą szczesze,	-0.30103
-0.3008355	szczesze, splecie,	-0.30103
-0.3008355	splecie, zmyje.	-0.30103
-3.3231678	<s> usiędziem	-0.30103
-0.3008355	usiędziem jaworem	-0.30103
-0.3008355	jaworem ciemnym	-0.30103
-3.3231678	<s> czystem	-0.30103
-0.3008355	czystem źródłem	-0.30103
-0.3008355	źródłem pryskającej	-0.30103
-0.3008355	pryskającej wody:	-0.30103
-3.3231678	<s> skał	-0.30103
-0.3008355	skał fontanny	-0.30103
-0.3008355	fontanny natura,	-0.30103
-0.3008355	natura, foremnym	-0.30103
-3.3231678	<s> kunsztem,	-0.30103
-0.3008355	kunsztem, zrobiła	-0.30103
-0.3008355	zrobiła pasterzom	-0.30103
-0.3008355	pasterzom ochłody;	-0.30103
-3.3231678	<s> słoneczny	-0.30103
-0.3008355	słoneczny upał	-0.30103
-0.3008355	upał dokuczy	-0.30103
-0.99902827	geogname zaszumi,	-0.30103
-0.3008355	zaszumi, strumyk	-0.30103
-0.3008355	strumyk zamruczy.	-0.30103
-3.3231678	<s> zaczniemy	-0.30103
-0.30074066	zaczniemy mówić	-0.30103
-0.30074066	zrobią, mówić	-0.30103
-0.6016711	mówić zabawach,	-0.30103
-3.3231678	<s> czem	-0.30103
-3.2860394	<s> dzień	-0.30103
-0.30074066	czem dzień	-0.30103
-0.6016711	dzień cały	-0.30103
-0.3008355	cały przeminie	-0.30103
-0.3008355	przeminie godziną:	-0.30103
-3.3231678	<s> pięknem	-0.30103
-0.3008355	pięknem kwieciu,	-0.30103
-0.3008355	kwieciu, rosną	-0.30103
-0.3008355	rosną trawach;	-0.30103
-3.3231678	<s> powie;	-0.30103
-0.6016711	jest miejsce	-0.30103
-0.3008355	miejsce doliną,	-0.30103
-3.3231678	<s> kwiaty	-0.30103
-0.3008355	kwiaty rozliczne	-0.30103
-0.3008355	rozliczne kolory	-0.30103
-3.3231678	<s> kwitną	-0.30103
-0.3008355	kwitną posiane	-0.30103
-0.6016711	bogini flory.	-0.30103
-3.3231678	<s> zawód	-0.30103
-0.30074066	zawód bieżąc,	-0.30103
-0.30074066	oślep bieżąc,	-0.30103
-3.3231678	<s> popchnie	-0.30103
-0.30074066	popchnie bok,	-0.30103
-0.30074066	spojrzy bok,	-0.30103
-0.6016711	bok, wyprzedzić	-0.30103
-0.3008355	wyprzedzić dała;	-0.30103
-3.3231678	<s> miękką	-0.30103
-0.3008355	miękką trawę	-0.30103
-0.3008355	trawę upadnie	-0.30103
-0.3008355	upadnie długą,	-0.30103
-3.3231678	<s> czasem	-0.30103
-0.3008355	czasem kwiatków	-0.30103
-0.3008355	kwiatków nazbierała.	-0.30103
-3.3231678	<s> wieńce	-0.30103
-0.3008355	wieńce wijąc	-0.30103
-0.3008355	wijąc głowy	-0.30103
-0.3008355	głowy strojem,	-0.30103
-3.3231678	<s> brylantowe	-0.30103
-0.3008355	brylantowe korony	-0.30103
-0.3008355	korony stojem.	-0.30103
-3.063813	<s> szczera	-0.30103
-0.6016711	szczera wesołość,	-0.30103
-0.3008355	wesołość, śmiech,	-0.30103
-0.3008355	śmiech, żarty	-0.30103
-0.3008355	żarty niewinne,	-0.30103
-3.3231678	<s> zgorszyć,	-0.30103
-0.3008355	zgorszyć, owszem,	-0.30103
-0.3008355	owszem, cieszyć	-0.30103
-0.3008355	cieszyć mogą;	-0.30103
-0.6016711	prostoty uczą	-0.30103
-0.3008355	uczą inne,	-0.30103
-3.3231678	<s> przystojnych	-0.30103
-0.3008355	przystojnych zabaw	-0.30103
-0.3008355	zabaw idą	-0.30103
-0.3008355	idą drogą.	-0.30103
-1.9753231	, wybiera	-0.30103
-0.3008355	wybiera koszyka,	-0.30103
-3.3231678	<s> jemy	-0.30103
-0.3008355	jemy ser	-0.30103
-0.3008355	ser chlebem	-0.30103
-0.3008355	chlebem masło	-0.30103
-3.3231678	<s> chcący	-0.30103
-0.30074325	chcący trunku	-0.30103
-0.30074325	wie, trunku	-0.30103
-0.6014866	własnych trunku	-0.30103
-0.777568	trunku zażyć,	-0.30103
-3.3231678	<s> biegniemy	-0.30103
-0.3008355	biegniemy piwnicy,	-0.30103
-3.3231678	<s> winne	-0.30103
-0.6016711	trzeba ważyć,	-0.30103
-3.2860394	<s> czystej	-0.30103
-0.30074066	sercu, czystej	-0.30103
-0.6016711	czystej kryształ	-0.30103
-0.3008355	kryształ skałą	-0.30103
-0.3008355	skałą krynicy:	-0.30103
-0.6016711	dzień dzbanem	-0.30103
-0.3008355	dzbanem pijąc	-0.30103
-0.3008355	pijąc ubywa,	-0.30103
-3.3231678	<s> pełni	-0.30103
-0.3008355	pełni zostaje,	-0.30103
-0.3008355	zostaje, doliwa.	-0.30103
-3.3231678	<s> południa	-0.30103
-0.3008355	południa słońce	-0.30103
-0.3008355	słońce grzeje,	-0.30103
-3.3231678	<s> wychodzim	-0.30103
-0.60148156	skrada gęstych	-0.30103
-0.30074066	wychodzim gęstych	-0.30103
-0.6016711	lasów krzewiny;	-0.30103
-3.2860394	<s> chłód	-0.30103
-0.60148156	było chłód	-0.30103
-0.6016711	chłód miły	-0.30103
-0.3008355	miły pagórków	-0.30103
-0.3008355	pagórków wieje	-0.30103
-3.3231678	<s> igramy	-0.30103
-0.3008355	igramy babkę	-0.30103
-0.3008355	babkę jedliny,	-0.30103
-3.3231678	<s> patrząc	-0.30103
-0.3008355	patrząc niskie	-0.30103
-0.3008355	niskie krzaczki	-0.30103
-0.3008355	krzaczki jałowce,	-0.30103
-3.3231678	<s> napasły	-0.30103
-0.3008355	napasły owce.	-0.30103
-3.3231678	<s> samym	-0.30103
-0.3008355	samym wieczorem	-0.30103
-0.3008355	wieczorem zbliżając	-0.30103
-0.3008355	zbliżając domu,	-0.30103
-3.3231678	<s> zganiamy	-0.30103
-0.777568	trzody społem	-0.30103
-0.3008355	społem gromady;	-0.30103
-3.3231678	<s> poznają	-0.30103
-0.3008355	poznają owce,	-0.30103
-0.3008355	owce, należy	-0.30103
-3.3231678	<s> bierzemy	-0.30103
-0.3008355	bierzemy swaru,	-0.30103
-0.3008355	swaru, zwady:	-0.30103
-3.3231678	<s> zbłądzi	-0.30103
-0.3008355	zbłądzi cudzej	-0.30103
-0.3008355	cudzej owczarnie,	-0.30103
-3.3231678	<s> sałaszu	-0.30103
-0.6016711	pasterki chaty	-0.30103
-0.3008355	chaty chróścianej	-0.30103
-3.3231678	<s> pałac	-0.30103
-0.3008355	pałac cichszej	-0.30103
-0.3008355	cichszej spieszym	-0.30103
-0.3008355	spieszym spoczynek;	-0.30103
-0.6016711	mleka siadłego	-0.30103
-0.3008355	siadłego misce	-0.30103
-0.3008355	misce glinianej	-0.30103
-3.3231678	<s> podjadszy,	-0.30103
-0.3008355	podjadszy, śląc	-0.30103
-0.30074066	śląc mięso	-0.30103
-0.7772838	mops mięso	-0.30103
-0.6016711	mięso rynek;	-0.30103
-3.3231678	<s> psują	-0.30103
-0.3008355	psują potrawy	-0.30103
-0.3008355	potrawy żołądka,	-0.30103
-3.3231678	<s> pan	-0.30103
-3.063813	<s> opisanie	-0.30103
-1.9719743	, ciekawych	-0.30103
-0.7772838	oczu ciekawych	-0.30103
-3.3231678	<s> ciekawe	-0.30103
-3.2860394	<s> oko	-0.30103
-0.30074066	ciekawe oko	-0.30103
-0.6016711	oko szkodę	-0.30103
-3.2860394	<s> czyni	-0.30103
-0.30074066	szkodę czyni	-0.30103
-0.6016711	czyni duszy,	-0.30103
-3.3231678	<s> niewolne	-0.30103
-0.60148156	jarzmo wolnego	-0.30103
-0.30074066	znaczy wolnego	-0.30103
-0.6016711	wolnego zaprzęga;	-0.30103
-0.6016711	oko nieprzyjaciel,	-0.30103
-0.3008355	nieprzyjaciel, mózg	-0.30103
-0.30074325	mózg ciało	-0.30103
-0.6014866	nogi, ciało	-0.30103
-0.30074325	bodziec ciało	-0.30103
-0.777568	ciało suszy,	-0.30103
-3.3231678	<s> zdrów	-0.30103
-1.9753231	, żebrak	-0.30103
-0.3008355	żebrak niedołęga,	-0.30103
-3.3231678	<s> choruje	-0.30103
-0.3008355	choruje napiera	-0.30103
-1.9753231	, wie,	-0.30103
-3.3231678	<s> lekarstwa	-0.30103
-0.3008355	lekarstwa bierze	-0.30103
-0.3008355	bierze złą	-0.30103
-0.3008355	złą śmierć	-0.30103
-0.3008355	śmierć bassarunku.	-0.30103
-0.6016711	orgname perspektywy	-0.30103
-0.3008355	perspektywy misternej	-0.30103
-0.3008355	misternej roboty,	-0.30103
-3.3231678	<s> daleka	-0.30103
-0.3008355	daleka patrząc,	-0.30103
-0.3008355	patrząc, nasyca	-0.30103
-0.3008355	nasyca wzroku,	-0.30103
-3.3231678	<s> pędzi	-0.30103
-0.3008355	pędzi ciekawość	-0.30103
-1.9753231	, dodaje	-0.30103
-0.3008355	dodaje ochoty,	-0.30103
-3.3231678	<s> pozwala	-0.30103
-0.3008355	pozwala bezpieczeństwa,	-0.30103
-0.3008355	bezpieczeństwa, przyspieszając	-0.30103
-0.30074066	przyspieszając kroku;	-0.30103
-0.30074066	przydać kroku;	-0.30103
-3.3231678	<s> zaciekły	-0.30103
-0.3008355	zaciekły oślep	-0.30103
-0.6016711	bieżąc, przepaść	-0.30103
-0.3008355	przepaść mierzy,	-0.30103
-3.2869983	<s> oczy	-0.30103
-0.30074325	pragnąc oczy	-0.30103
-0.30074325	kupidopłacze, oczy	-0.30103
-0.777568	oczy traci,	-0.30103
-0.3008355	traci, głowę	-0.30103
-0.3008355	głowę skałę	-0.30103
-3.3231678	<s> przypłacił	-0.30103
-0.3008355	przypłacił ciekawości	-0.30103
-0.3008355	ciekawości *akteonmyśliwy,	-0.30103
-3.3231678	<s> szukał	-0.30103
-0.777568	kniei damy	-0.30103
-0.3008355	damy jelenia;	-0.30103
-3.3231678	<s> hartowną	-0.30103
-0.3008355	hartowną strzałę	-0.30103
-0.3008355	strzałę łuku	-0.30103
-0.3008355	łuku wypuściwszy	-0.30103
-0.3008355	wypuściwszy chciwy,	-0.30103
-1.7109741	persname lot	-0.30103
-0.3008355	lot harapu,	-0.30103
-0.3008355	harapu, ubił	-0.30103
-0.3008355	ubił wątpienia,	-0.30103
-3.3231678	<s> pragnąc	-0.30103
-0.777568	oczy napaść,	-0.30103
-0.3008355	napaść, pobitej	-0.30103
-0.3008355	pobitej zwierzynie	-0.30103
-3.3231678	<s> topi	-0.30103
-0.777568	wzrok strzałą	-0.30103
-0.3008355	strzałą kąpiącej	-0.30103
-0.3008355	kąpiącej dziewczynie.	-0.30103
-3.3231678	<s> sądzi	-0.30103
-0.3008355	sądzi rzędu	-0.30103
-1.7109741	persname wielowładnych,	-0.30103
-3.3231678	<s> twarzy	-0.30103
-0.3008355	twarzy bozkiego,	-0.30103
-0.3008355	bozkiego, groźnej	-0.30103
-0.777568	minie czyta;	-0.30103
-0.6016711	widząc, piękności	-0.30103
-0.3008355	piękności ładnych,	-0.30103
-3.2229178	<s> gust	-0.30103
-0.9012116	chcąc gust	-0.30103
-0.30055967	bobrem gust	-0.30103
-0.30055967	podły gust	-0.30103
-0.90231246	gust sercem	-0.30103
-0.3008355	sercem chwyta:	-0.30103
-3.3231678	<s> myje	-0.30103
-0.30074066	myje nogi,	-0.30103
-0.30074066	głowę, nogi,	-0.30103
-3.2869983	<s> wodą	-0.30103
-0.7772914	ciało wodą	-0.30103
-0.30074325	zdjęta, wodą	-0.30103
-0.777568	wodą pleszcze,	-0.30103
-3.3231678	<s> widzieć,	-0.30103
-3.3231678	<s> sztuk	-0.30103
-0.3008355	sztuk przybiera,	-0.30103
-0.3008355	przybiera, dogodzić	-0.30103
-0.3008355	dogodzić woli;	-0.30103
-0.6016711	gęstych drzew	-0.30103
-0.3008355	drzew zarośle,	-0.30103
-3.3231678	<s> wąż	-0.30103
-0.3008355	wąż trawie,	-0.30103
-0.3008355	trawie, czując,	-0.30103
-0.3008355	czując, boli,	-0.30103
-3.3231678	<s> ostry	-0.30103
-0.3008355	ostry bodziec	-0.30103
-0.777568	ciało miękkie	-0.30103
-0.3008355	miękkie pośle.	-0.30103
-3.3231678	<s> dba	-0.30103
-0.3008355	dba ciernie,	-0.30103
-0.3008355	ciernie, głogi,	-0.30103
-0.3008355	głogi, osty	-0.30103
-0.3008355	osty zawady	-0.30103
-0.6016711	ciekawych oczu,	-0.30103
-0.3008355	oczu, słucha	-0.30103
-0.3008355	słucha porady.	-0.30103
-3.3231678	<s> stanął	-0.30103
-0.3008355	stanął *akteonmecie	-0.30103
-0.3008355	*akteonmecie pożądanej	-0.30103
-1.9753231	, przydać	-0.30103
-1.7109741	persname łuczny	-0.30103
-0.3008355	łuczny uczyni	-0.30103
-0.3008355	uczyni igrzysko,	-0.30103
-3.3231678	<s> pozna,	-0.30103
-3.2860394	<s> skutek	-0.30103
-0.30074066	pozna, skutek	-0.30103
-0.6016711	skutek zakazanym	-0.30103
-0.3008355	zakazanym stoku,	-0.30103
-3.3231678	<s> dyana*	-0.30103
-0.3008355	dyana* czysta,	-0.30103
-0.3008355	czysta, myjąc	-0.30103
-3.3231678	<s> pokrycie	-0.30103
-0.3008355	pokrycie nagości	-0.30103
-3.2869983	<s> miała	-0.30103
-0.30074325	nagości miała	-0.30103
-0.30074325	napędzić miała	-0.30103
-0.777568	miała zasłonki.	-0.30103
-3.3231678	<s> spojrzy	-0.30103
-0.6016711	bok, postrzeże	-0.30103
-0.3008355	postrzeże ukrytego	-0.30103
-0.3008355	ukrytego szpiega:	-0.30103
-3.3231678	<s> wstydem,	-0.30103
-0.3008355	wstydem, gniewem	-0.30103
-0.3008355	gniewem zdjęta,	-0.30103
-0.777568	wodą pryśnie	-0.30103
-3.3231678	<s> zalawszy	-0.30103
-3.2860394	<s> sama	-0.30103
-0.9019338	oczy, sama	-0.30103
-0.6016711	sama szukając	-0.30103
-0.3008355	szukając *nimfbiega,	-0.30103
-3.3231678	<s> okiem	-0.30103
-1.9753231	, słowem	-0.30103
-0.3008355	słowem groźnym	-0.30103
-0.3008355	groźnym piorunem	-0.30103
-0.3008355	piorunem ciśnie,	-0.30103
-0.60148156	mówiąc :	-0.30103
-0.30074066	posłańca :	-0.30103
-0.6016711	: wydał	-0.30103
-0.3008355	wydał światem	-0.30103
-0.3008355	światem sekretu,	-0.30103
-3.3231678	<s> widział,	-0.30103
-0.3008355	widział, jeleniem,	-0.30103
-0.3008355	jeleniem, dekretu.	-0.30103
-3.3231678	<s> wymówiła	-0.30103
-0.3008355	wymówiła zajadła,	-0.30103
-0.6016711	postać kawalera	-0.30103
-0.3008355	kawalera wybornej	-0.30103
-0.3008355	wybornej urody	-0.30103
-3.063813	<s> mieni	-0.30103
-3.2860394	<s> twarz	-0.30103
-1.9719743	, twarz	-0.30103
-0.6016711	twarz głową	-0.30103
-0.3008355	głową opadła.	-0.30103
-3.3231678	<s> uznał,	-0.30103
-0.777568	wzrok nabawił	-0.30103
-0.3008355	nabawił szkody,	-0.30103
-3.3231678	<s> zamianę	-0.30103
-0.30074066	zamianę ludzką	-0.30103
-0.60148156	nieba ludzką	-0.30103
-0.777568	kształtną posturę	-0.30103
-3.3231678	<s> brać	-0.30103
-0.3008355	brać musi	-0.30103
-0.3008355	musi jeleniową	-0.30103
-0.3008355	jeleniową głowę,	-0.30103
-0.6016711	nogi, skórę.	-0.30103
-3.2869983	<s> człowieka	-0.30103
-1.972064	, człowieka	-0.30103
-0.6014866	wolę człowieka	-0.30103
-0.777568	człowieka przemieniony	-0.30103
-3.2860394	<s> własnych	-0.30103
-0.30074066	łez własnych	-0.30103
-0.60148156	własnych psów	-0.30103
-0.30074066	jelenią psów	-0.30103
-0.6016711	psów sprobował	-0.30103
-0.3008355	sprobował tyraństwa	-0.30103
-3.3231678	<s> chce,	-0.30103
-0.3008355	chce, szarpią,	-0.30103
-0.3008355	szarpią, lancą	-0.30103
-0.3008355	lancą zmierza,	-0.30103
-3.3231678	<s> myśląc	-0.30103
-0.6016711	wzdycha, akteonie?	-0.30103
-3.3231678	<s> jednę	-0.30103
-0.777568	oczu chęć,	-0.30103
-0.3008355	chęć, przypłacasz	-0.30103
-0.3008355	przypłacasz śmiercią,	-0.30103
-3.3231678	<s> okrywasz	-0.30103
-0.3008355	okrywasz jelenią	-0.30103
-0.6016711	psów siercią.	-0.30103
-3.3231678	<s> igrać	-0.30103
-0.3008355	igrać bogi!	-0.30103
-0.3008355	bogi! śmiałością	-0.30103
-0.3008355	śmiałością grzeszyć?	-0.30103
-3.3231678	<s> chronić	-0.30103
-0.6016711	życzę pomsty	-0.30103
-0.3008355	pomsty gniewu:	-0.30103
-3.2869983	<s> mają	-0.30103
-0.6014866	psy mają	-0.30103
-0.30074325	ukarać, mają	-0.30103
-3.2860394	<s> moc	-0.30103
-0.7772838	mają moc	-0.30103
-0.6016711	moc złych	-0.30103
-0.3008355	złych ukarać,	-0.30103
-0.777568	mają dobrych	-0.30103
-0.3008355	dobrych cieszyć,	-0.30103
-0.777568	człowieka niemym	-0.30103
-0.3008355	niemym zrobią,	-0.30103
-0.6016711	mówić każą	-0.30103
-0.3008355	każą drzewu.	-0.30103
-3.3231678	<s> zła	-0.30103
-0.3008355	zła myśl,	-0.30103
