\data\
ngram 1=1868
ngram 2=3476
ngram 3=3280
ngram 4=2770
ngram 5=2246
ngram 6=1733

\1-grams:
-3.582462	<unk>	0
0	<s>	-0.60307217
-0.8375927	</s>	0
-2.2571542	persname	-0.030765727
-3.4926355	światowe	-0.025852475
-2.0067031	na	-0.04495934
-3.4926355	kompanią	-0.025852475
-2.6258054	dla	-0.025852475
-3.4926355	kawalerów	-0.025852475
-1.9053184	i	-0.029851656
-3.4926355	de	-0.025852475
-3.193238	mops	-0.025852503
-3.4926355	dam	-0.025852475
-2.2571542	za	-0.0663993
-3.4926355	mego	-0.025852475
-3.4926355	wieku	-0.025852475
-3.4926355	dwie	-0.025852475
-3.3331604	kompanij	-0.025852475
-3.4926355	weszło	-0.025852475
-1.6705142	z	-0.059014656
-3.4926355	ostatnią	-0.025852475
-3.4926355	modą	-0.025852475
-2.156769	do	-0.025852475
-2.9149835	placename	-0.025852475
-2.8227754	już	-0.025852475
-3.4926355	tyle	-0.025852475
-3.3331604	czasów	-0.025852475
-3.3331604	temu	-0.025852475
-3.4926355	lichu	-0.025852475
-3.4926355	przeszło	-0.025852475
-3.032197	czy	-0.025852503
-3.032197	świat	-0.025852475
-3.4926355	końca	-0.025852475
-3.3331604	bliskiego	-0.025852475
-1.8577839	się	-0.061109666
-3.4926355	zniża	-0.025852475
-3.4926355	*franc-masson*	-0.025852475
-3.4926355	znaczy	-0.025852475
-3.3331604	wolnego	-0.025852475
-3.3331604	mularza	-0.025852475
-2.3308249	jak	-0.034537397
-3.4926355	mur	-0.025852475
-3.4926355	mocnego	-0.025852475
-1.5148423	w	-0.056178164
-3.4926355	sekcie	-0.025852475
-3.4926355	sekretarza	-0.025852475
-1.885676	nie	-0.039332084
-3.3331604	wiem	-0.025852475
-3.4926355	zkąd	-0.025852475
-3.4926355	jakaś	-0.025852475
-3.4926355	zaszła	-0.025852475
-3.4926355	modna	-0.025852475
-3.4926355	przywiózłszy	-0.025852475
-3.3331604	sobą	-0.025852475
-3.3331604	*mopsa*	-0.025852475
-3.4926355	obróżce	-0.025852475
-3.4926355	znać	-0.025852475
-3.4926355	społeczności	-0.025852475
-3.4926355	ludźmi	-0.025852475
-3.3331604	będąc	-0.025852475
-3.4926355	głodna	-0.025852475
-3.4926355	kładzie	-0.025852475
-2.9149835	przy	-0.057701677
-3.032197	sobie	-0.025852503
-3.193238	wierność	-0.025852503
-3.4926355	poduszce	-0.025852475
-3.4926355	zachęca	-0.025852475
-3.4926355	order	-0.025852475
-3.3331604	mając	-0.025852475
-3.4926355	człeka	-0.025852475
-3.4926355	przypyta	-0.025852475
-3.193238	psa	-0.025852503
-2.57599	kto	-0.025852475
-2.8227754	by	-0.025852503
-3.4926355	mię	-0.025852475
-3.4926355	spytał	-0.025852475
-2.1941867	co	-0.065766536
-3.3331604	bym	-0.025852475
-3.3331604	dwojga	-0.025852475
-3.3331604	tego	-0.025852475
-3.4926355	obrać	-0.025852475
-3.4926355	myśliła	-0.025852475
-2.6820843	*persname*	-0.16173676
-3.3331604	wolę	-0.025852475
-3.193238	człowieka	-0.025852503
-3.4926355	zawsze	-0.025852475
-2.9149835	chociaż	-0.025852475
-3.4926355	złego	-0.025852475
-3.4926355	wszak	-0.025852475
-3.4926355	ludziom	-0.025852475
-3.4926355	żyć	-0.025852475
-3.4926355	rzecz	-0.025852475
-3.4926355	przyrodzona	-0.025852475
-3.3331604	każdy	-0.025852503
-2.2571542	to	-0.056202173
-3.4926355	przyzna	-0.025852475
-3.032197	masz	-0.025852503
-3.4926355	myśleć	-0.025852475
-3.3331604	czym	-0.025852475
-2.2571542	że	-0.0592953
-3.4926355	głupia	-0.025852475
-3.4926355	liga	-0.025852475
-3.4926355	rodzajem	-0.025852475
-3.4926355	sobaczym	-0.025852475
-3.4926355	*persname	-0.025852475
-3.4926355	masson*	-0.025852475
-3.4926355	wyklęty	-0.025852475
-3.4926355	ambony	-0.025852475
-3.193238	przecie	-0.025852475
-3.4926355	upór	-0.025852475
-3.3331604	jego	-0.025852475
-3.193238	nikt	-0.025852503
-3.4926355	ręczy	-0.025852475
-2.57599	od	-0.025852475
-3.3331604	kościoła	-0.025852475
-3.4926355	odrzucony	-0.025852475
-2.490792	go	-0.025852475
-3.4926355	czart	-0.025852475
-3.4926355	żywcem	-0.025852475
-3.4926355	potępionym	-0.025852475
-3.4926355	dręczy	-0.025852475
-2.490792	tak	-0.025852475
-3.4926355	skwapliwy	-0.025852475
-3.4926355	kary	-0.025852475
-3.3331604	nasze	-0.025852475
-3.4926355	fartuch	-0.025852475
-3.4926355	odpasze	-0.025852475
-3.4926355	*szaweł*	-0.025852475
-3.4926355	prześladowca	-0.025852475
-3.4926355	główny	-0.025852475
-3.032197	chce	-0.025852475
-3.4926355	rozrzucić	-0.025852475
-3.4926355	szczętu	-0.025852475
-3.4926355	zburzyć	-0.025852475
-3.4926355	wojuje	-0.025852475
-3.3331604	jakby	-0.025852475
-2.8227754	mu	-0.025852475
-3.3331604	był	-0.025852475
-3.3331604	równy	-0.025852475
-3.193238	myśli	-0.025852475
-3.4926355	owieczki	-0.025852475
-3.3331604	owczarnie	-0.025852475
-3.4926355	wykurzyć	-0.025852475
-3.3331604	cóż	-0.025852475
-3.4926355	dobroci	-0.025852475
-3.4926355	dowodów	-0.025852475
-3.193238	czyni	-0.025852503
-3.032197	jeszcze	-0.0711255
-3.4926355	doktorem	-0.025852475
-3.4926355	narodów	-0.025852475
-2.9149835	niech	-0.025852475
-3.3331604	będzie	-0.025852475
-3.4926355	zmiennik	-0.025852475
-3.4926355	apostata	-0.025852475
-3.3331604	on	-0.025852475
-3.4926355	człowiek	-0.025852475
-3.4926355	nieśmiertelną	-0.025852475
-3.4926355	duszą	-0.025852475
-3.4926355	niechaj	-0.025852475
-3.4926355	pobrata	-0.025852475
-3.193238	często	-0.053590458
-3.3331604	mocne	-0.025852475
-3.4926355	skrupuły	-0.025852475
-3.4926355	ususzą	-0.025852475
-3.3331604	nieborak	-0.025852475
-3.4926355	kontrakt	-0.025852475
-3.4926355	czynić	-0.025852475
-3.4926355	jutrem	-0.025852475
-3.4926355	rozstać	-0.025852475
-3.3331604	przyjaźń	-0.025852475
-3.4926355	zachowuje	-0.025852475
-2.4195979	miłość	-0.0404253
-3.4926355	świadczy	-0.025852475
-2.6820843	nad	-0.050419535
-3.193238	swym	-0.025852503
-3.4926355	towarzyszem	-0.025852475
-3.4926355	wspomódz	-0.025852475
-3.4926355	bliźniego	-0.025852475
-3.4926355	obliguje	-0.025852475
-3.4926355	jeden	-0.025852475
-3.3331604	drugiego	-0.025852475
-3.4926355	cierpieć	-0.025852475
-3.4926355	hołyszem	-0.025852475
-3.4926355	lepszaż	-0.025852475
-3.3331604	takim	-0.025852475
-3.4926355	kameratem	-0.025852475
-3.193238	niż	-0.025852475
-3.4926355	wierności	-0.025852475
-3.4926355	dać	-0.025852475
-3.3331604	zwać	-0.025852475
-3.4926355	psu	-0.025852475
-3.3331604	bratem	-0.1493394
-3.3331604	bo	-0.025852503
-3.193238	tem	-0.025852475
-3.4926355	stworzeniu	-0.025852475
-2.9149835	ni	-0.025852475
-3.4926355	dusza	-0.025852475
-3.4926355	sekta	-0.025852475
-3.4926355	miejsca	-0.025852475
-3.193238	znajdzie	-0.025852503
-3.4926355	podły	-0.025852475
-3.032197	gust	-0.025852475
-3.4926355	niewieści	-0.025852475
-3.193238	u	-0.025852503
-2.8227754	której	-0.025852503
-3.3331604	takie	-0.025852475
-3.3331604	psy	-0.025852475
-3.193238	mają	-0.025852503
-3.4926355	respekta	-0.025852475
-3.4926355	całuje	-0.025852475
-3.4926355	kolanach	-0.025852475
-3.4926355	pieści	-0.025852475
-2.8227754	tych	-0.063244596
-3.4926355	karessach	-0.025852475
-3.4926355	smrodliwie	-0.025852475
-3.4926355	oddycha	-0.025852475
-3.3331604	młody	-0.025852475
-3.3331604	stara	-0.025852475
-3.4926355	mopsicha	-0.025852475
-3.3331604	jeźli	-0.025852475
-3.4926355	kładziesz	-0.025852475
-3.4926355	aksamitnem	-0.025852475
-3.4926355	wezgłowiu	-0.025852475
-3.4926355	łóżka	-0.025852475
-3.193238	ja	-0.025852503
-2.9149835	cię	-0.025852475
-3.4926355	przestrzegam	-0.025852475
-3.4926355	affektu	-0.025852475
-3.032197	ku	-0.025852475
-3.193238	tobie	-0.025852503
-3.3331604	śmiele	-0.025852475
-3.4926355	przyjdzie	-0.025852475
-3.3331604	twój	-0.025852475
-3.4926355	domowy	-0.025852475
-3.4926355	służka	-0.025852475
-3.3331604	mięso	-0.025852475
-3.4926355	łasy	-0.025852475
-3.4926355	przyniósłszy	-0.025852475
-3.4926355	kawałek	-0.025852475
-3.4926355	kiełbasy	-0.025852475
-3.4926355	----	-0.025852475
-3.4926355	opisanie	-0.025852475
-3.4926355	wzajemnej	-0.025852475
-3.193238	miłości	-0.025852503
-3.4926355	tejże	-0.025852475
-3.4926355	siostry	-0.025852475
-3.4926355	byłoby	-0.025852475
-3.4926355	podziwieniu	-0.025852475
-3.4926355	żadnem	-0.025852475
-2.6820843	ten	-0.025852475
-3.3331604	czas	-0.025852475
-3.193238	kiedy	-0.025852503
-3.3331604	wiek	-0.025852475
-3.4926355	szczęśliwością	-0.025852475
-3.4926355	słynął	-0.025852475
-2.6820843	gdy	-0.038685255
-3.4926355	użytszym	-0.025852475
-3.4926355	wybaczeniu	-0.025852475
-3.4926355	snadnem	-0.025852475
-3.4926355	złotem	-0.025852475
-3.4926355	miodem	-0.025852475
-3.4926355	mlekiem	-0.025852475
-3.4926355	płynął	-0.025852475
-3.4926355	ażeby	-0.025852475
-3.4926355	jaka	-0.025852475
-3.4926355	rodzie	-0.025852475
-3.4926355	alternata	-0.025852475
-3.193238	miała	-0.025852503
-3.4926355	siostrze	-0.025852475
-3.4926355	kochać	-0.025852475
-3.4926355	brata	-0.025852475
-3.193238	ale	-0.025852475
-3.032197	tej	-0.025852475
-3.4926355	porze	-0.025852475
-3.3331604	możemy	-0.025852475
-3.4926355	cudem	-0.025852475
-3.032197	gdzie	-0.025852475
-3.3331604	szczera	-0.025852475
-3.4926355	gniazdzie	-0.025852475
-3.4926355	rodowitem	-0.025852475
-3.4926355	termin	-0.025852475
-3.4926355	znalazła	-0.025852475
-3.032197	między	-0.025852475
-3.4926355	ludem	-0.025852475
-3.4926355	kochającym	-0.025852475
-3.4926355	prawem	-0.025852475
-3.4926355	przyzwoitem	-0.025852475
-3.4926355	para	-0.025852475
-3.4926355	ptasząt	-0.025852475
-3.4926355	sympatycznym	-0.025852475
-3.4926355	związkiem	-0.025852475
-3.4926355	brat	-0.025852475
-3.4926355	siostrę	-0.025852475
-3.4926355	lubi	-0.025852475
-3.4926355	obowiązkiem	-0.025852475
-3.4926355	rzekłabym	-0.025852475
-3.3331604	*jowisza*	-0.025852475
-3.3331604	*ledy*	-0.025852475
-3.4926355	*pollux*	-0.025852475
-3.4926355	*kastor*	-0.025852475
-3.4926355	rodzili	-0.025852475
-3.3331604	sama	-0.025852475
-3.4926355	zgoda	-0.025852475
-3.4926355	panowała	-0.025852475
-3.4926355	wtedy	-0.025852475
-3.4926355	łabęcim	-0.025852475
-3.4926355	jaju	-0.025852475
-3.4926355	spólnie	-0.025852475
-3.4926355	żyli	-0.025852475
-3.4926355	znajdziesz	-0.025852475
-3.3331604	tę	-0.025852475
-3.193238	dziś	-0.025852503
-3.4926355	bliźnięty	-0.025852475
-3.4926355	*maryanną*	-0.025852475
-3.3331604	kocha	-0.025852475
-3.032197	oczu	-0.025852475
-3.3331604	ciekawych	-0.025852475
-3.4926355	akteona	-0.025852475
-3.4926355	ciekawe	-0.025852475
-3.193238	oko	-0.025852503
-3.4926355	szkodę	-0.025852475
-3.4926355	duszy	-0.025852475
-3.4926355	niewolne	-0.025852475
-3.3331604	jarzmo	-0.025852475
-3.4926355	zaprzęga	-0.025852475
-3.4926355	nasz	-0.025852475
-3.4926355	nieprzyjaciel	-0.025852475
-3.4926355	mózg	-0.025852475
-3.193238	ciało	-0.025852503
-3.4926355	suszy	-0.025852475
-3.4926355	zdrów	-0.025852475
-3.193238	dopiero	-0.025852475
-3.193238	wnet	-0.053590458
-3.4926355	niego	-0.025852475
-3.4926355	żebrak	-0.025852475
-3.4926355	niedołęga	-0.025852475
-3.4926355	choruje	-0.025852475
-3.4926355	napiera	-0.025852475
-2.3879476	a	-0.036736023
-3.4926355	wie	-0.025852475
-3.193238	trunku	-0.025852503
-3.193238	zamiast	-0.025852503
-3.4926355	lekarstwa	-0.025852475
-3.4926355	bierze	-0.025852475
-3.4926355	złą	-0.025852475
-3.4926355	śmierć	-0.025852475
-3.4926355	bassarunku	-0.025852475
-3.3331604	orgname	-0.025852475
-3.032197	są	-0.025852475
-3.4926355	perspektywy	-0.025852475
-3.4926355	misternej	-0.025852475
-3.3331604	roboty	-0.1493394
-3.032197	choć	-0.083221614
-3.4926355	daleka	-0.025852475
-3.3331604	patrząc	-0.025852475
-3.4926355	nasyca	-0.025852475
-3.4926355	wzroku	-0.025852475
-3.4926355	pędzi	-0.025852475
-3.4926355	ciekawość	-0.025852475
-3.4926355	szybko	-0.025852475
-3.4926355	dodaje	-0.025852475
-3.3331604	ochoty	-0.1493394
-3.4926355	pozwala	-0.025852475
-3.4926355	bezpieczeństwa	-0.025852475
-3.4926355	przyspieszając	-0.025852475
-3.3331604	kroku	-0.1493394
-3.4926355	zaciekły	-0.025852475
-3.4926355	oślep	-0.025852475
-3.3331604	bieżąc	-0.025852475
-3.4926355	przepaść	-0.025852475
-3.4926355	mierzy	-0.025852475
-2.6820843	oczy	-0.053590458
-3.4926355	traci	-0.025852475
-3.3331604	głowę	-0.025852475
-2.4537377	o	-0.0404253
-3.4926355	skałę	-0.025852475
-3.3331604	uderzy	-0.1493394
-3.4926355	przypłacił	-0.025852475
-3.4926355	ciekawości	-0.025852475
-3.3331604	*akteon*	-0.025852475
-3.4926355	myśliwy	-0.025852475
-3.4926355	szukał	-0.025852475
-3.4926355	kniei	-0.025852503
-3.4926355	damy	-0.025852475
-3.193238	lub	-0.025852503
-3.4926355	jelenia	-0.025852475
-3.4926355	hartowną	-0.025852475
-3.4926355	strzałę	-0.025852475
-3.4926355	łuku	-0.025852475
-3.4926355	wypuściwszy	-0.025852475
-3.4926355	chciwy	-0.025852475
-3.4926355	lot	-0.025852475
-3.4926355	harapu	-0.025852475
-3.4926355	ubił	-0.025852475
-2.8227754	bez	-0.025852503
-3.4926355	wątpienia	-0.025852475
-3.4926355	pragnąc	-0.025852475
-3.4926355	napaść	-0.025852475
-3.4926355	pobitej	-0.025852475
-3.4926355	zwierzynie	-0.025852475
-3.4926355	topi	-0.025852475
-3.193238	wzrok	-0.025852503
-3.4926355	równo	-0.025852475
-3.4926355	strzałą	-0.025852475
-3.4926355	kąpiącej	-0.025852475
-3.4926355	dziewczynie	-0.025852475
-3.4926355	sądzi	-0.025852475
-3.3331604	ją	-0.025852475
-3.193238	być	-0.025852503
-3.4926355	rzędu	-0.025852475
-3.4926355	wielowładnych	-0.025852475
-3.4926355	twarzy	-0.025852475
-3.193238	coś	-0.025852475
-3.4926355	bozkiego	-0.025852475
-3.4926355	groźnej	-0.025852475
-3.193238	minie	-0.025852503
-3.4926355	czyta	-0.025852475
-3.3331604	dosyć	-0.025852503
-3.3331604	widząc	-0.025852475
-3.4926355	piękności	-0.025852475
-3.4926355	ładnych	-0.025852475
-3.4926355	żadnej	-0.025852475
-3.4926355	sercem	-0.025852475
-3.4926355	mocno	-0.025852475
-3.4926355	chwyta	-0.025852475
-3.3331604	im	-0.025852475
-3.3331604	dłużej	-0.025852475
-3.4926355	myje	-0.025852475
-3.3331604	nogi	-0.025852475
-3.193238	wodą	-0.025852503
-3.4926355	pleszcze	-0.025852475
-3.4926355	dość	-0.025852475
-3.4926355	opodal	-0.025852475
-3.4926355	widzieć	-0.025852475
-3.4926355	bliska	-0.025852475
-3.4926355	lepiej	-0.025852475
-3.4926355	wszelkich	-0.025852475
-3.4926355	sztuk	-0.025852475
-3.3331604	przybiera	-0.025852475
-3.4926355	dogodzić	-0.025852475
-3.3331604	swej	-0.025852475
-3.3331604	woli	-0.025852475
-3.4926355	raz	-0.025852475
-3.193238	skrada	-0.025852503
-3.3331604	pomiędzy	-0.025852475
-3.3331604	gęstych	-0.025852475
-3.4926355	drzew	-0.025852475
-3.4926355	zarośle	-0.025852475
-3.4926355	wąż	-0.025852475
-3.4926355	pełznie	-0.025852475
-3.4926355	trawie	-0.025852475
-3.4926355	czując	-0.025852475
-3.4926355	boli	-0.025852475
-3.3331604	ciernie	-0.025852475
-3.4926355	ostry	-0.025852475
-3.4926355	bodziec	-0.025852475
-3.4926355	miękkie	-0.025852475
-3.4926355	pośle	-0.025852475
-3.4926355	dba	-0.025852475
-3.4926355	głogi	-0.025852475
-3.4926355	osty	-0.025852475
-3.4926355	zawady	-0.025852475
-3.4926355	rad	-0.025852475
-3.4926355	słucha	-0.025852475
-3.4926355	porady	-0.025852475
-3.4926355	stanął	-0.025852475
-3.4926355	mecie	-0.025852475
-3.4926355	pożądanej	-0.025852475
-3.193238	blisko	-0.10416202
-2.9149835	było	-0.025852475
-3.3331604	trudno	-0.025852503
-3.4926355	przydać	-0.025852475
-2.9149835	więcej	-0.025852475
-3.4926355	łuczny	-0.025852475
-3.4926355	uczyni	-0.025852475
-3.4926355	igrzysko	-0.025852475
-3.4926355	pozna	-0.025852475
-3.3331604	skutek	-0.025852475
-3.4926355	zakazanym	-0.025852475
-3.4926355	stoku	-0.025852475
-3.3331604	którym	-0.025852475
-3.4926355	*dyana*	-0.025852475
-3.4926355	czysta	-0.025852475
-3.4926355	myjąc	-0.025852475
-3.3331604	członki	-0.025852475
-3.4926355	pokrycie	-0.025852475
-3.4926355	nagości	-0.025852475
-3.4926355	zasłonki	-0.025852475
-3.193238	tym	-0.025852475
-3.4926355	spojrzy	-0.025852475
-3.4926355	bok	-0.025852475
-3.4926355	postrzeże	-0.025852475
-3.4926355	ukrytego	-0.025852475
-3.4926355	szpiega	-0.025852475
-3.3331604	wstydem	-0.025852475
-3.193238	potem	-0.025852503
-3.4926355	gniewem	-0.025852475
-3.4926355	zdjęta	-0.025852475
-3.3331604	pryśnie	-0.1493394
-3.4926355	zalawszy	-0.025852475
-3.4926355	szukając	-0.025852475
-3.4926355	*nimf*	-0.025852475
-3.4926355	biega	-0.025852475
-3.3331604	okiem	-0.025852475
-3.4926355	nań	-0.025852475
-3.4926355	słowem	-0.025852475
-3.4926355	groźnym	-0.025852475
-3.4926355	piorunem	-0.025852475
-3.4926355	ciśnie	-0.025852475
-3.4926355	mówiąc	-0.025852475
-3.4926355	byś	-0.025852475
-3.4926355	wydał	-0.025852475
-3.4926355	przed	-0.025852475
-3.4926355	światem	-0.025852475
-3.4926355	sekretu	-0.025852475
-3.4926355	widział	-0.025852475
-3.3331604	bądź	-0.025852475
-3.4926355	jeleniem	-0.025852475
-3.4926355	mojego	-0.025852475
-3.4926355	dekretu	-0.025852475
-3.4926355	ledwie	-0.025852475
-3.4926355	wymówiła	-0.025852475
-3.4926355	zajadła	-0.025852475
-3.3331604	aż	-0.025852503
-3.032197	postać	-0.025852475
-3.4926355	kawalera	-0.025852475
-3.4926355	wybornej	-0.025852475
-3.4926355	urody	-0.025852475
-3.4926355	mieni	-0.025852475
-3.3331604	twarz	-0.025852475
-3.4926355	głową	-0.025852475
-3.4926355	natychmiast	-0.025852475
-3.4926355	opadła	-0.025852475
-3.4926355	uznał	-0.025852475
-3.3331604	jakiej	-0.025852503
-3.4926355	nabawił	-0.025852475
-3.3331604	szkody	-0.1493394
-3.4926355	zamianę	-0.025852475
-3.4926355	ludzką	-0.025852475
-3.193238	kształtną	-0.025852503
-3.4926355	posturę	-0.025852475
-3.4926355	brać	-0.025852475
-3.4926355	musi	-0.025852475
-3.4926355	jeleniową	-0.025852475
-3.4926355	skórę	-0.025852475
-3.4926355	przemieniony	-0.025852475
-3.193238	zwierza	-0.23564443
-3.3331604	lecz	-0.025852475
-3.3331604	własnych	-0.025852475
-3.3331604	psów	-0.025852475
-3.4926355	sprobował	-0.025852475
-3.4926355	tyraństwa	-0.025852475
-2.9149835	ci	-0.025852503
-3.4926355	szarpią	-0.025852475
-3.4926355	lancą	-0.025852475
-2.9149835	nim	-0.025852503
-3.3331604	zmierza	-0.025852475
-3.4926355	myśląc	-0.025852475
-3.3331604	wzdycha	-0.025852475
-3.032197	jest	-0.025852475
-3.4926355	*akteonie*	-0.025852475
-3.3331604	tobą	-0.025852503
-3.4926355	jednę	-0.025852475
-3.3331604	twoich	-0.025852475
-3.4926355	chęć	-0.025852475
-3.4926355	przypłacasz	-0.025852475
-3.4926355	śmiercią	-0.025852475
-3.4926355	okrywasz	-0.025852475
-3.4926355	jelenią	-0.025852475
-3.4926355	siercią	-0.025852475
-3.4926355	otoż	-0.025852475
-3.4926355	igrać	-0.025852475
-3.4926355	bogi	-0.025852475
-3.4926355	śmiałością	-0.025852475
-3.4926355	grzeszyć	-0.025852475
-3.4926355	chronić	-0.025852475
-3.4926355	raczej	-0.025852475
-3.193238	życzę	-0.025852503
-2.8227754	ich	-0.025852503
-3.4926355	pomsty	-0.025852475
-3.4926355	gniewu	-0.025852475
-3.3331604	moc	-0.025852475
-3.4926355	złych	-0.025852475
-3.4926355	ukarać	-0.025852475
-3.4926355	dobrych	-0.025852475
-3.3331604	cieszyć	-0.025852475
-3.4926355	niemym	-0.025852475
-3.4926355	zrobią	-0.025852475
-3.3331604	mówić	-0.025852475
-3.4926355	każą	-0.025852475
-3.4926355	drzewu	-0.025852475
-3.4926355	zła	-0.025852475
-3.193238	myśl	-0.025852475
-3.4926355	złe	-0.025852475
-3.4926355	żądza	-0.025852475
-3.4926355	przeklęta	-0.025852475
-3.3331604	ludzie	-0.025852475
-3.4926355	bestye	-0.025852475
-3.4926355	głupie	-0.025852475
-3.4926355	bydlęta	-0.025852475
-3.4926355	reskrypt	-0.025852475
-3.3331604	pewnemu	-0.025852475
-3.4926355	poecie	-0.025852475
-3.4926355	bojącemu	-0.025852475
-3.3331604	grzmotów	-0.025852475
-3.4926355	zabicia	-0.025852475
-3.3331604	piorunów	-0.025852475
-3.4926355	grzesznik	-0.025852475
-3.4926355	mocny	-0.025852475
-3.4926355	pewna	-0.025852475
-3.4926355	piorunie	-0.025852475
-3.4926355	grzmocie	-0.025852475
-3.4926355	uznaj	-0.025852475
-3.4926355	grzeszniku	-0.025852475
-3.4926355	winę	-0.025852475
-3.4926355	wszakże	-0.025852475
-3.4926355	idzie	-0.025852475
-3.4926355	cie	-0.025852475
-3.4926355	sposób	-0.025852475
-3.4926355	bojaźni	-0.025852475
-3.4926355	nagłego	-0.025852475
-3.4926355	karania	-0.025852475
-3.4926355	żal	-0.025852475
-3.3331604	wstyd	-0.025852475
-3.4926355	szczery	-0.025852475
-3.4926355	występków	-0.025852475
-3.3331604	nich	-0.025852475
-3.4926355	niewracania	-0.025852475
-3.4926355	taką	-0.025852475
-3.4926355	zbroję	-0.025852475
-3.4926355	winowajco	-0.025852475
-3.4926355	stroisz	-0.025852475
-3.4926355	czegóż	-0.025852475
-3.4926355	błyskania	-0.025852475
-3.4926355	boisz	-0.025852475
-3.4926355	chyba	-0.025852475
-2.8227754	po	-0.057701677
-3.4926355	skończonej	-0.025852475
-3.4926355	burzy	-0.025852475
-3.4926355	wichrze	-0.025852475
-3.3331604	strachu	-0.025852475
-3.3331604	wolą	-0.025852475
-3.4926355	grzech	-0.025852475
-3.4926355	przytulić	-0.025852475
-3.4926355	twojego	-0.025852475
-3.4926355	gmachu	-0.025852475
-3.4926355	sprawiedliwy	-0.025852475
-3.4926355	doskonałych	-0.025852475
-3.4926355	rządach	-0.025852475
-3.4926355	równe	-0.025852475
-3.4926355	miłosierdzie	-0.025852475
-3.4926355	ukrytych	-0.025852475
-3.4926355	sądach	-0.025852475
-3.3331604	czemuż	-0.025852475
-3.3331604	ty	-0.025852475
-3.3331604	czemu	-0.025852475
-3.4926355	piekle	-0.025852475
-3.4926355	dnie	-0.025852475
-3.4926355	osiadł	-0.025852475
-3.4926355	grzechu	-0.025852475
-3.4926355	skrytość	-0.025852475
-3.4926355	zgadnie	-0.025852475
-3.4926355	truchlał	-0.025852475
-3.3331604	*mojżesz*	-0.025852475
-3.4926355	brzmiące	-0.025852475
-3.4926355	ust	-0.025852475
-3.4926355	odgłosy	-0.025852475
-3.4926355	rozzuwa	-0.025852475
-3.4926355	róg	-0.025852475
-3.4926355	powstają	-0.025852475
-3.4926355	włosy	-0.025852475
-3.193238	rzecze	-0.025852475
-3.4926355	mów	-0.025852475
-3.3331604	mnie	-0.025852475
-3.4926355	panie	-0.025852475
-3.4926355	umrę	-0.025852475
-3.4926355	włosów	-0.025852475
-3.032197	mi	-0.025852475
-3.4926355	głowie	-0.025852475
-3.3331604	stanie	-0.025852475
-3.4926355	ach	-0.025852475
-3.4926355	pożyteczny	-0.025852475
-3.4926355	głos	-0.025852475
-2.8227754	ta	-0.025852475
-3.4926355	rozmowa	-0.025852475
-3.4926355	przykazanie	-0.025852475
-3.4926355	tablicy	-0.025852475
-3.4926355	chowa	-0.025852475
-3.4926355	przynosi	-0.025852475
-3.4926355	ludowi	-0.025852475
-3.4926355	pełnemu	-0.025852475
-3.4926355	rozpusty	-0.025852475
-3.4926355	pracy	-0.025852475
-3.3331604	wieczne	-0.025852475
-3.4926355	odpusty	-0.025852475
-3.193238	więc	-0.025852475
-3.4926355	ojciec	-0.025852475
-3.4926355	dzieci	-0.025852475
-3.4926355	nieposłuszne	-0.025852475
-3.4926355	gromi	-0.025852475
-3.4926355	zły	-0.025852475
-3.4926355	nałóg	-0.025852475
-3.4926355	niewstyd	-0.025852475
-3.4926355	grzmotami	-0.025852475
-3.4926355	uskromi	-0.025852475
-3.4926355	zagniewany	-0.025852475
-3.4926355	zamierzy	-0.025852475
-3.4926355	mija	-0.025852475
-3.4926355	grzesznika	-0.025852475
-3.4926355	suchy	-0.025852475
-3.4926355	dąb	-0.025852475
-3.4926355	przypisanie	-0.025852475
-3.193238	który	-0.025852503
-3.4926355	jednem	-0.025852475
-3.4926355	strzeleniem	-0.025852475
-3.4926355	młyn	-0.025852475
-3.3331604	wodzie	-0.025852503
-3.3331604	domy	-0.025852475
-3.4926355	lądzie	-0.025852475
-3.4926355	spalił	-0.025852475
-3.193238	dwóch	-0.025852503
-3.4926355	zodyacznych	-0.025852475
-3.4926355	znaków	-0.025852475
-3.4926355	sformowany	-0.025852475
-3.4926355	kawaler	-0.025852475
-3.3331604	serca	-0.025852475
-3.3331604	bohatyr	-0.025852475
-3.4926355	miny	-0.025852475
-3.4926355	tarczą	-0.025852475
-3.3331604	strzela	-0.025852475
-3.4926355	ściany	-0.025852475
-3.4926355	strzeli	-0.025852475
-3.4926355	płoną	-0.025852475
-3.3331604	ogniem	-0.025852475
-3.4926355	młyny	-0.025852475
-3.4926355	wodnik	-0.025852475
-3.3331604	pali	-0.1493394
-3.4926355	strzelec	-0.025852475
-3.3331604	któż	-0.025852475
-3.4926355	pochwali	-0.025852475
-3.4926355	obraz	-0.025852475
-3.4926355	płaczącego	-0.025852475
-3.3331604	smutnej	-0.025852475
-3.4926355	wenery	-0.025852475
-3.4926355	*kupidynie*	-0.025852475
-3.4926355	dzieje	-0.025852475
-3.4926355	płaczesz	-0.025852475
-3.4926355	ogień	-0.025852475
-3.3331604	grzeje	-0.1493394
-3.4926355	synem	-0.025852475
-3.4926355	nazwali	-0.025852475
-3.4926355	chłodzi	-0.025852475
-3.4926355	chwalić	-0.025852475
-3.4926355	odmiany	-0.025852475
-3.4926355	krytycznej	-0.025852475
-3.3331604	nią	-0.025852475
-3.4926355	godzieneś	-0.025852475
-3.4926355	nagany	-0.025852475
-3.3331604	chcąc	-0.025852475
-3.4926355	łzami	-0.025852475
-3.4926355	zalać	-0.025852475
-3.4926355	takowe	-0.025852475
-3.4926355	płomienie	-0.025852475
-3.4926355	przeciwne	-0.025852475
-3.4926355	zimnych	-0.025852475
-3.4926355	wód	-0.025852475
-3.4926355	chłodzenie	-0.025852475
-3.4926355	kogo	-0.025852475
-3.193238	was	-0.025852503
-3.4926355	winić	-0.025852475
-3.4926355	intrydze	-0.025852475
-3.4926355	*wenery*	-0.025852475
-3.4926355	widzę	-0.025852475
-3.3331604	*kupido*	-0.025852475
-3.4926355	płacze	-0.025852475
-3.4926355	odwraca	-0.025852475
-3.4926355	próżna	-0.025852475
-3.4926355	amorów	-0.025852475
-3.3331604	waszych	-0.025852475
-3.3331604	taka	-0.025852475
-3.3331604	praca	-0.025852475
-3.4926355	kochającą	-0.025852475
-2.9149835	przez	-0.025852503
-3.4926355	dwanaście	-0.025852475
-3.032197	lat	-0.025852475
-3.4926355	parę	-0.025852475
-3.032197	sam	-0.083221614
-3.4926355	*jakób*	-0.025852475
-3.3331604	wysłużył	-0.025852475
-3.193238	wiele	-0.025852503
-3.4926355	pasący	-0.025852475
-3.193238	owiec	-0.025852503
-3.193238	trzody	-0.025852503
-3.4926355	kochaną	-0.025852475
-3.3331604	swoją	-0.025852475
-3.4926355	miłą	-0.025852475
-3.4926355	*rachele*	-0.025852475
-3.4926355	byle	-0.025852475
-3.4926355	małżeństwo	-0.025852475
-3.3331604	była	-0.025852475
-3.4926355	oddana	-0.025852475
-3.4926355	nieprzykro	-0.025852475
-3.3331604	chłód	-0.025852475
-3.4926355	ciepło	-0.025852475
-3.4926355	znosić	-0.025852475
-3.3331604	żeby	-0.025852503
-3.4926355	bezpiecznie	-0.025852475
-3.4926355	*rachelę*	-0.025852475
-3.4926355	prosić	-0.025852475
-3.3331604	teraz	-0.025852475
-3.4926355	*jakobowi*	-0.025852475
-3.4926355	sercu	-0.025852475
-3.3331604	czystej	-0.025852475
-3.4926355	służy	-0.025852475
-3.3331604	kilka	-0.025852475
-3.4926355	wiernie	-0.025852475
-3.4926355	*labanowi*	-0.025852475
-3.4926355	dawną	-0.025852475
-3.3331604	miłością	-0.025852475
-3.4926355	utyskuje	-0.025852475
-3.4926355	ranny	-0.025852475
-3.4926355	przyznać	-0.025852475
-3.4926355	ile	-0.025852475
-3.4926355	świadków	-0.025852475
-3.4926355	nas	-0.025852475
-3.032197	tu	-0.025852475
-3.4926355	kochając	-0.025852475
-3.4926355	czternastu	-0.025852475
-3.4926355	*zuzanno*	-0.025852475
-3.4926355	*michale*	-0.025852475
-3.4926355	obfitością	-0.025852475
-3.4926355	łask	-0.025852475
-3.4926355	swych	-0.025852475
-3.4926355	błogosławi	-0.025852475
-3.4926355	stateczne	-0.025852475
-3.4926355	potomnej	-0.025852475
-3.4926355	pochwale	-0.025852475
-3.4926355	dwa	-0.025852475
-3.4926355	brylanty	-0.025852475
-3.4926355	skazy	-0.025852475
-3.4926355	wystawi	-0.025852475
-3.4926355	pary	-0.025852475
-3.4926355	wiarą	-0.025852475
-3.4926355	sprzęgą	-0.025852475
-3.4926355	przymierze	-0.025852475
-3.4926355	zawiąże	-0.025852475
-3.4926355	przysięgą	-0.025852475
-3.032197	zaś	-0.025852475
-3.4926355	ostrożny	-0.025852475
-3.4926355	wszedłszy	-0.025852475
-3.4926355	złożenia	-0.025852475
-3.4926355	przypatrz	-0.025852475
-3.3331604	dobrze	-0.025852475
-3.4926355	nasycić	-0.025852475
-3.4926355	długiego	-0.025852475
-3.4926355	pragnienia	-0.025852475
-3.4926355	zdrady	-0.025852475
-3.4926355	ciebie	-0.025852475
-3.4926355	użył	-0.025852475
-3.4926355	wierzaj	-0.025852475
-3.3331604	oczom	-0.025852475
-3.4926355	powieści	-0.025852475
-3.4926355	czyi	-0.025852475
-3.4926355	*rachel*	-0.025852475
-3.4926355	wziął	-0.025852475
-3.4926355	ślepej	-0.025852475
-3.4926355	lii	-0.025852475
-3.4926355	wynidziesz	-0.025852475
-3.4926355	*rachelą*	-0.025852475
-3.4926355	fortuna	-0.025852475
-3.193238	szczęścia	-0.025852503
-3.3331604	drogą	-0.025852475
-3.4926355	wiedzie	-0.025852475
-3.3331604	słodkie	-0.025852475
-3.4926355	pożycie	-0.025852475
-3.4926355	wam	-0.025852475
-3.3331604	nieba	-0.025852475
-3.4926355	ścielą	-0.025852475
-3.4926355	byście	-0.025852475
-3.4926355	goryczy	-0.025852475
-3.4926355	znali	-0.025852475
-3.4926355	miedzie	-0.025852475
-3.4926355	twej	-0.025852475
-3.4926355	wysługi	-0.025852475
-3.4926355	pamiątka	-0.025852475
-3.3331604	będą	-0.025852475
-3.4926355	rodzić	-0.025852475
-3.4926355	pstre	-0.025852475
-3.4926355	jagniątka	-0.025852475
-3.4926355	pochwała	-0.025852475
-3.3331604	lasów	-0.025852475
-3.4926355	miłego	-0.025852475
-3.4926355	osobności	-0.025852475
-3.3331604	życia	-0.025852475
-3.4926355	pasterskim	-0.025852475
-3.4926355	pewnej	-0.025852475
-3.3331604	pasterki	-0.025852475
-3.4926355	zważywszy	-0.025852475
-3.4926355	ludzkiego	-0.025852475
-3.4926355	obroty	-0.025852475
-3.4926355	uchodzę	-0.025852475
-3.193238	lasy	-0.025852475
-3.4926355	wesołe	-0.025852475
-3.3331604	knieje	-0.025852475
-3.4926355	gustu	-0.025852475
-3.4926355	mojej	-0.025852475
-3.4926355	dzikości	-0.025852475
-3.4926355	śmieje	-0.025852475
-3.4926355	dbam	-0.025852475
-3.032197	nic	-0.025852475
-3.3331604	prostoty	-0.025852475
-3.4926355	las	-0.025852475
-3.4926355	aniżeli	-0.025852475
-3.4926355	pełen	-0.025852475
-3.4926355	niecnoty	-0.025852475
-3.4926355	umiem	-0.025852475
-3.4926355	bajek	-0.025852475
-3.4926355	prawie	-0.025852475
-3.4926355	szeptać	-0.025852475
-3.4926355	ucho	-0.025852475
-3.4926355	znam	-0.025852475
-3.4926355	terminów	-0.025852475
-3.4926355	prawnych	-0.025852475
-3.193238	wody	-0.10416202
-3.4926355	sprowadzić	-0.025852475
-3.032197	tam	-0.083221614
-3.4926355	sucho	-0.025852475
-3.4926355	*cyceronach*	-0.025852475
-3.4926355	słyszałam	-0.025852475
-3.4926355	sławnych	-0.025852475
-3.4926355	ćwiczon	-0.025852475
-3.4926355	szkole	-0.025852475
-3.4926355	pasie	-0.025852475
-3.4926355	bydło	-0.025852475
-3.4926355	albo	-0.025852475
-3.4926355	kopie	-0.025852475
-3.4926355	role	-0.025852475
-3.4926355	kochane	-0.025852475
-3.4926355	zielone	-0.025852475
-3.4926355	chłodniki	-0.025852475
-3.4926355	drzewa	-0.025852475
-3.4926355	przyjemny	-0.025852475
-3.4926355	szum	-0.025852475
-3.4926355	dające	-0.025852475
-3.193238	siebie	-0.025852475
-3.4926355	trawy	-0.025852475
-3.4926355	pagórki	-0.025852475
-3.4926355	biegące	-0.025852475
-3.4926355	strumyki	-0.025852475
-3.4926355	mieszkam	-0.025852475
-3.4926355	suchym	-0.025852475
-3.4926355	chlebie	-0.025852475
-3.4926355	zdrowszy	-0.025852475
-3.4926355	napój	-0.025852475
-3.4926355	źródeł	-0.025852475
-3.4926355	żywych	-0.025852475
-3.4926355	drogie	-0.025852475
-3.4926355	trunki	-0.025852475
-3.4926355	rąk	-0.025852475
-3.4926355	nieżyczliwych	-0.025852475
-3.4926355	ranna	-0.025852475
-3.4926355	zorza	-0.025852475
-2.9149835	swój	-0.025852475
-3.4926355	rumieniec	-0.025852475
-3.4926355	śliczny	-0.025852475
-3.4926355	pokaże	-0.025852475
-3.4926355	rosa	-0.025852475
-3.4926355	perłowe	-0.025852475
-3.4926355	kropelki	-0.025852475
-3.4926355	pozbiera	-0.025852475
-3.4926355	jużci	-0.025852475
-3.4926355	pasterz	-0.025852475
-3.4926355	okoliczny	-0.025852475
-3.4926355	zaśpi	-0.025852475
-3.4926355	ptak	-0.025852475
-3.4926355	wyśpiewuje	-0.025852475
-3.4926355	wszelki	-0.025852475
-3.4926355	żeną	-0.025852475
-3.4926355	wrzosy	-0.025852475
-3.3331604	te	-0.025852503
-3.4926355	mokre	-0.025852475
-3.4926355	skrzydła	-0.025852475
-3.4926355	otrzepują	-0.025852475
-3.4926355	rosy	-0.025852475
-3.4926355	różnych	-0.025852475
-3.4926355	głosów	-0.025852475
-3.4926355	stroją	-0.025852475
-3.4926355	instrumenta	-0.025852475
-3.4926355	drzewach	-0.025852475
-3.4926355	skacząc	-0.025852475
-3.4926355	wysoko	-0.025852475
-3.4926355	nisko	-0.025852475
-3.4926355	krzykną	-0.025852475
-3.4926355	roślejsze	-0.025852475
-3.4926355	drobne	-0.025852475
-3.4926355	ptaszęta	-0.025852475
-3.4926355	bezpieczne	-0.025852475
-3.4926355	słuchamy	-0.025852475
-3.4926355	koncerty	-0.025852475
-3.4926355	nut	-0.025852475
-3.3331604	sztuki	-0.025852475
-3.4926355	milsze	-0.025852475
-3.4926355	głosy	-0.025852475
-3.4926355	mistrza	-0.025852475
-3.4926355	nauki	-0.025852475
-3.4926355	odpocznie	-0.025852475
-3.4926355	ptastwo	-0.025852475
-3.4926355	zaczną	-0.025852475
-3.4926355	pasterze	-0.025852475
-3.4926355	smutne	-0.025852475
-3.4926355	wywodzić	-0.025852475
-3.4926355	dumy	-0.025852475
-3.4926355	fujarze	-0.025852475
-3.4926355	inni	-0.025852475
-3.4926355	skoczne	-0.025852475
-3.193238	geogname	-0.025852475
-3.4926355	lerze	-0.025852475
-3.4926355	tańcując	-0.025852475
-3.4926355	nami	-0.025852475
-3.4926355	swojej	-0.025852475
-3.4926355	parze	-0.025852475
-3.3331604	my	-0.025852503
-3.4926355	wdzięczne	-0.025852475
-3.4926355	pieśni	-0.025852475
-3.4926355	śpiewamy	-0.025852475
-3.4926355	koleją	-0.025852475
-3.4926355	słuchają	-0.025852475
-3.4926355	gaje	-0.025852475
-3.4926355	śmieją	-0.025852475
-3.4926355	tęsknić	-0.025852475
-3.4926355	pasąc	-0.025852475
-3.4926355	trzodę	-0.025852475
-3.4926355	pilnością	-0.025852475
-3.4926355	strzedz	-0.025852475
-3.4926355	potrzeba	-0.025852475
-3.4926355	wilka	-0.025852475
-3.4926355	przebrnąwszy	-0.025852475
-3.4926355	potok	-0.025852475
-3.4926355	oczyma	-0.025852475
-3.4926355	powiodę	-0.025852475
-3.4926355	pastereczek	-0.025852475
-3.3331604	bieży	-0.025852475
-3.4926355	temi	-0.025852475
-3.4926355	witam	-0.025852475
-3.4926355	chwytając	-0.025852475
-3.4926355	szyje	-0.025852475
-3.3331604	jedna	-0.10416202
-3.4926355	drugą	-0.025852475
-3.4926355	szczesze	-0.025852475
-3.4926355	splecie	-0.025852475
-3.4926355	zmyje	-0.025852475
-3.4926355	usiędziem	-0.025852475
-3.032197	pod	-0.025852475
-3.4926355	jaworem	-0.025852475
-3.4926355	ciemnym	-0.025852475
-3.4926355	czystem	-0.025852475
-3.4926355	źródłem	-0.025852475
-3.4926355	pryskającej	-0.025852475
-3.3331604	ze	-0.025852475
-3.4926355	skał	-0.025852475
-3.4926355	fontanny	-0.025852475
-3.3331604	natura	-0.025852475
-3.4926355	foremnym	-0.025852475
-3.4926355	kunsztem	-0.025852475
-3.4926355	zrobiła	-0.025852475
-3.4926355	pasterzom	-0.025852475
-3.3331604	ochłody	-0.1493394
-3.4926355	nam	-0.025852475
-3.4926355	słoneczny	-0.025852475
-3.4926355	upał	-0.025852475
-3.3331604	dokuczy	-0.1493394
-3.4926355	zaszumi	-0.025852475
-3.4926355	strumyk	-0.025852475
-3.4926355	zamruczy	-0.025852475
-3.4926355	zaczniemy	-0.025852475
-3.4926355	naszych	-0.025852475
-3.4926355	zabawach	-0.025852475
-3.4926355	czem	-0.025852475
-3.3331604	dzień	-0.025852475
-3.193238	cały	-0.10416202
-3.4926355	przeminie	-0.025852475
-3.4926355	godziną	-0.025852475
-3.4926355	pięknem	-0.025852475
-3.4926355	kwieciu	-0.025852475
-3.4926355	jakich	-0.025852475
-3.4926355	rosną	-0.025852475
-3.4926355	trawach	-0.025852475
-3.4926355	powie	-0.025852475
-3.4926355	miejsce	-0.025852475
-3.4926355	doliną	-0.025852475
-3.4926355	którem	-0.025852475
-3.4926355	kwiaty	-0.025852475
-3.4926355	rozliczne	-0.025852475
-3.4926355	kolory	-0.025852475
-3.4926355	kwitną	-0.025852475
-3.4926355	posiane	-0.025852475
-3.3331604	bogini	-0.025852475
-3.4926355	*flory*	-0.025852475
-3.4926355	wszystkie	-0.025852475
-3.4926355	zawód	-0.025852475
-3.4926355	popchnie	-0.025852475
-3.4926355	wyprzedzić	-0.025852475
-3.3331604	dała	-0.025852475
-3.4926355	miękką	-0.025852475
-3.4926355	trawę	-0.025852475
-3.4926355	upadnie	-0.025852475
-3.4926355	długą	-0.025852475
-3.4926355	czasem	-0.025852475
-3.4926355	kwiatków	-0.025852475
-3.4926355	nazbierała	-0.025852475
-3.4926355	wieńce	-0.025852475
-3.4926355	wijąc	-0.025852475
-3.4926355	głowy	-0.025852475
-3.3331604	strojem	-0.025852475
-3.4926355	brylantowe	-0.025852475
-3.4926355	korony	-0.025852475
-3.4926355	stojem	-0.025852475
-3.4926355	wesołość	-0.025852475
-3.4926355	śmiech	-0.025852475
-3.4926355	żarty	-0.025852475
-3.4926355	niewinne	-0.025852475
-3.4926355	nikogo	-0.025852475
-3.4926355	zgorszyć	-0.025852475
-3.4926355	owszem	-0.025852475
-3.4926355	mogą	-0.025852475
-3.3331604	naszej	-0.025852475
-3.4926355	uczą	-0.025852475
-3.4926355	inne	-0.025852475
-3.4926355	przystojnych	-0.025852475
-3.4926355	zabaw	-0.025852475
-3.4926355	idą	-0.025852475
-3.032197	ma	-0.025852475
-3.4926355	która	-0.025852475
-3.4926355	wybiera	-0.025852475
-3.4926355	koszyka	-0.025852475
-3.4926355	jemy	-0.025852475
-3.4926355	ser	-0.025852475
-3.4926355	chlebem	-0.025852475
-3.4926355	masło	-0.025852475
-3.4926355	jaszczyka	-0.025852475
-3.4926355	bankiecie	-0.025852475
-3.4926355	chcący	-0.025852475
-3.3331604	zażyć	-0.025852475
-3.4926355	biegniemy	-0.025852475
-3.4926355	piwnicy	-0.025852475
-3.4926355	którą	-0.025852475
-3.4926355	winne	-0.025852475
-3.3331604	trzeba	-0.025852475
-3.4926355	ważyć	-0.025852475
-3.4926355	kryształ	-0.025852475
-3.4926355	skałą	-0.025852475
-3.4926355	krynicy	-0.025852475
-3.4926355	dzbanem	-0.025852475
-3.4926355	pijąc	-0.025852475
-3.4926355	ubywa	-0.025852475
-3.4926355	pełni	-0.025852475
-3.4926355	zostaje	-0.025852475
-2.8227754	jej	-0.025852503
-3.4926355	doliwa	-0.025852475
-3.4926355	południa	-0.025852475
-3.4926355	słońce	-0.025852475
-3.4926355	zbyt	-0.025852475
-3.4926355	wychodzim	-0.025852475
-3.4926355	krzewiny	-0.025852475
-3.4926355	miły	-0.025852475
-3.4926355	pagórków	-0.025852475
-3.4926355	wieje	-0.025852475
-3.4926355	igramy	-0.025852475
-3.4926355	babkę	-0.025852475
-3.4926355	jedliny	-0.025852475
-3.4926355	niskie	-0.025852475
-3.4926355	krzaczki	-0.025852475
-3.4926355	jałowce	-0.025852475
-3.4926355	napasły	-0.025852475
-3.3331604	owce	-0.025852475
-3.4926355	samym	-0.025852475
-3.4926355	wieczorem	-0.025852475
-3.4926355	zbliżając	-0.025852475
-3.4926355	domu	-0.025852475
-3.4926355	zganiamy	-0.025852475
-3.4926355	społem	-0.025852475
-3.4926355	gromady	-0.025852475
-3.4926355	poznają	-0.025852475
-3.4926355	należy	-0.025852475
-3.4926355	komu	-0.025852475
-3.4926355	bierzemy	-0.025852475
-3.4926355	swoje	-0.025852475
-3.4926355	swaru	-0.025852475
-3.4926355	zwady	-0.025852475
-3.4926355	żadna	-0.025852475
-3.4926355	zbłądzi	-0.025852475
-3.4926355	cudzej	-0.025852475
-3.4926355	każda	-0.025852475
-3.3331604	swego	-0.025852475
-3.4926355	sałaszu	-0.025852475
-3.4926355	garnie	-0.025852475
-3.4926355	chaty	-0.025852475
-3.4926355	chróścianej	-0.025852475
-3.4926355	pałac	-0.025852475
-3.4926355	cichszej	-0.025852475
-3.4926355	spieszym	-0.025852475
-3.4926355	spoczynek	-0.025852475
-3.193238	mleka	-0.025852503
-3.4926355	siadłego	-0.025852475
-3.4926355	misce	-0.025852475
-3.4926355	glinianej	-0.025852475
-3.4926355	podjadszy	-0.025852475
-3.4926355	śląc	-0.025852475
-3.4926355	rynek	-0.025852475
-3.4926355	psują	-0.025852475
-3.4926355	potrawy	-0.025852475
-3.4926355	żołądka	-0.025852475
-3.4926355	pan	-0.025852475
-3.4926355	żyjem	-0.025852475
-3.4926355	niebożątka	-0.025852475
-3.4926355	ludzi	-0.025852475
-3.4926355	kochających	-0.025852475
-3.4926355	sie	-0.025852475
-3.4926355	skrycie	-0.025852475
-3.4926355	proporcyi	-0.025852475
-3.4926355	honoru	-0.025852475
-3.4926355	śmieszną	-0.025852475
-3.4926355	robotę	-0.025852475
-3.4926355	mały	-0.025852475
-3.3331604	pożytek	-0.025852475
-3.4926355	zaczął	-0.025852475
-3.4926355	dwojgu	-0.025852475
-3.4926355	ludziach	-0.025852475
-3.4926355	pracą	-0.025852475
-3.4926355	wysechł	-0.025852475
-3.4926355	wiór	-0.025852475
-3.4926355	zamyśleniu	-0.025852475
-3.4926355	wszytek	-0.025852475
-3.4926355	jęczy	-0.025852475
-3.4926355	niepewną	-0.025852475
-3.4926355	płacą	-0.025852475
-3.4926355	przetakiem	-0.025852475
-3.4926355	naczerpać	-0.025852475
-3.4926355	mało	-0.025852475
-3.4926355	kotek	-0.025852475
-3.4926355	ledwo	-0.025852475
-3.4926355	liznął	-0.025852475
-3.4926355	śmietany	-0.025852475
-3.4926355	zapomniał	-0.025852475
-3.4926355	gusta	-0.025852475
-3.4926355	krótkie	-0.025852475
-3.4926355	odrzekłby	-0.025852475
-3.4926355	skarany	-0.025852475
-3.4926355	usłyszy	-0.025852475
-3.4926355	kot	-0.025852475
-3.4926355	szuka	-0.025852475
-3.4926355	myszy	-0.025852475
-3.4926355	krówce	-0.025852475
-3.3331604	*argus*	-0.025852475
-3.4926355	strzeże	-0.025852475
-3.4926355	stu	-0.025852475
-3.4926355	snu	-0.025852475
-3.3331604	przybrać	-0.025852475
-3.4926355	twardego	-0.025852475
-3.4926355	*danae*	-0.025852475
-3.4926355	wyprowadzić	-0.025852475
-3.4926355	wieże	-0.025852475
-3.4926355	koncept	-0.025852475
-3.4926355	mocniejszego	-0.025852475
-3.4926355	potrafisz	-0.025852475
-3.3331604	złote	-0.025852475
-3.4926355	sypać	-0.025852475
-3.4926355	deszcze	-0.025852475
-3.4926355	snem	-0.025852475
-3.4926355	oszukać	-0.025852475
-3.4926355	ostrożnych	-0.025852475
-3.4926355	złapanego	-0.025852475
-3.3331604	sieci	-0.025852475
-3.3331604	pewnego	-0.025852475
-3.3331604	łowczego	-0.025852475
-3.4926355	sąsiadów	-0.025852475
-3.4926355	utraktował	-0.025852475
-3.4926355	łowczemu	-0.025852475
-3.4926355	przypadła	-0.025852475
-3.4926355	dobra	-0.025852475
-3.4926355	rozstawić	-0.025852475
-3.4926355	leśnego	-0.025852475
-3.4926355	przypadkiem	-0.025852475
-3.4926355	jakimś	-0.025852475
-3.193238	widzi	-0.025852503
-3.4926355	siatce	-0.025852475
-3.3331604	bobra	-0.025852475
-3.3331604	bardziej	-0.025852475
-3.4926355	więcierza	-0.025852475
-3.4926355	napędzić	-0.025852475
-3.4926355	stworzenie	-0.025852475
-3.4926355	wodne	-0.025852475
-3.4926355	rzeczy	-0.025852475
-3.4926355	dziwu	-0.025852475
-3.4926355	godne	-0.025852475
-3.4926355	łowczy	-0.025852475
-3.4926355	ludzki	-0.025852475
-3.4926355	dzieli	-0.025852475
-3.4926355	sąsiedztwem	-0.025852475
-3.4926355	częściami	-0.025852475
-3.4926355	zażyli	-0.025852475
-3.4926355	przyznają	-0.025852475
-3.4926355	wszyscy	-0.025852475
-3.4926355	łowiectwem	-0.025852475
-3.4926355	bobrem	-0.025852475
-3.4926355	nasycili	-0.025852475
-3.4926355	biorąc	-0.025852475
-3.4926355	łaski	-0.025852475
-3.4926355	specyały	-0.025852475
-3.4926355	których	-0.025852475
-3.4926355	odorem	-0.025852475
-3.4926355	napełnion	-0.025852475
-3.3331604	dom	-0.025852475
-3.4926355	posłał	-0.025852475
-3.4926355	młodej	-0.025852475
-3.193238	pani	-0.025852503
-3.3331604	ogon	-0.025852475
-3.4926355	spory	-0.025852475
-3.4926355	starej	-0.025852475
-3.4926355	jakieś	-0.025852475
-3.4926355	papierze	-0.025852475
-3.4926355	rupieci	-0.025852475
-3.4926355	przeraźliwe	-0.025852475
-3.4926355	zrobiły	-0.025852475
-3.4926355	fetory	-0.025852475
-3.4926355	bobrowy	-0.025852475
-3.3331604	nos	-0.025852475
-3.4926355	garło	-0.025852475
-3.4926355	zaleci	-0.025852475
-3.4926355	dotknieniem	-0.025852475
-3.4926355	owych	-0.025852475
-3.4926355	śmierdzących	-0.025852475
-3.4926355	kawalców	-0.025852475
-3.4926355	tabaki	-0.025852475
-3.4926355	trzy	-0.025852475
-3.4926355	dni	-0.025852475
-3.4926355	palców	-0.025852475
-3.4926355	posłańca	-0.025852475
-3.4926355	ciekawie	-0.025852475
-3.4926355	przywiózł	-0.025852475
-3.4926355	strojach	-0.025852475
-3.4926355	plecie	-0.025852475
-3.4926355	mowi	-0.025852475
-3.4926355	dawno	-0.025852475
-3.4926355	bawię	-0.025852475
-3.3331604	stroje	-0.025852475
-3.4926355	chwali	-0.025852475
-3.4926355	koniec	-0.025852475
-3.4926355	stoję	-0.025852475
-3.4926355	komuś	-0.025852475
-3.4926355	dał	-0.025852475
-3.4926355	oddajże	-0.025852475
-3.4926355	pysznego	-0.025852475
-3.193238	trzyma	-0.025852503
-3.4926355	wszystkich	-0.025852475
-3.4926355	wynosi	-0.025852475
-3.4926355	doskonałości	-0.025852475
-3.3331604	pychę	-0.025852475
-3.4926355	wzbije	-0.025852475
-3.4926355	ludzkie	-0.025852475
-3.4926355	zdania	-0.025852475
-3.4926355	wybadać	-0.025852475
-3.4926355	takowego	-0.025852475
-3.4926355	sposobu	-0.025852475
-3.4926355	zażyje	-0.025852475
-3.4926355	własną	-0.025852475
-3.4926355	składać	-0.025852475
-3.4926355	inną	-0.025852475
-3.4926355	żebraka	-0.025852475
-3.4926355	kupca	-0.025852475
-3.4926355	udać	-0.025852475
-3.4926355	wymownego	-0.025852475
-3.4926355	głupca	-0.025852475
-3.4926355	wchodzi	-0.025852475
-3.4926355	mieszkanie	-0.025852475
-3.4926355	skulptora	-0.025852475
-3.4926355	usilnie	-0.025852475
-3.4926355	pilnując	-0.025852475
-3.4926355	rzemiosła	-0.025852475
-3.4926355	zmyślona	-0.025852475
-3.4926355	pokora	-0.025852475
-3.4926355	bogów	-0.025852475
-3.4926355	sprowadziła	-0.025852475
-3.4926355	posła	-0.025852475
-3.4926355	wycina	-0.025852475
-3.4926355	nosy	-0.025852475
-3.4926355	usta	-0.025852475
-3.4926355	dłotem	-0.025852475
-3.4926355	bożkom	-0.025852475
-3.4926355	boginiom	-0.025852475
-3.4926355	stawia	-0.025852475
-3.4926355	kąt	-0.025852475
-3.3331604	*merkury*	-0.025852475
-3.4926355	misterne	-0.025852475
-3.4926355	posągi	-0.025852475
-3.4926355	*geogname*	-0.025852475
-3.4926355	*belloną*	-0.025852475
-3.4926355	cudnej	-0.025852475
-3.4926355	armaturze	-0.025852475
-3.4926355	jakie	-0.025852475
-3.4926355	gotują	-0.025852475
-3.4926355	wojny	-0.025852475
-3.4926355	zaciągi	-0.025852475
-3.4926355	posturze	-0.025852475
-3.4926355	jaką	-0.025852475
-3.4926355	*bellona*	-0.025852475
-3.4926355	przysługą	-0.025852475
-3.3331604	męża	-0.025852475
-3.4926355	potrzebne	-0.025852475
-3.4926355	boju	-0.025852475
-3.4926355	oręża	-0.025852475
-3.4926355	*wenerę*	-0.025852475
-3.4926355	najpiękniejszą	-0.025852475
-3.4926355	twarzą	-0.025852475
-3.4926355	niej	-0.025852475
-3.4926355	*kupida*	-0.025852475
-3.4926355	małego	-0.025852475
-3.4926355	pieszczocha	-0.025852475
-3.4926355	gołębie	-0.025852475
-3.4926355	całują	-0.025852475
-3.4926355	parzą	-0.025852475
-3.4926355	żywo	-0.025852475
-3.4926355	karesuje	-0.025852475
-3.4926355	może	-0.025852475
-3.4926355	człowiekowi	-0.025852475
-3.4926355	miło	-0.025852475
-3.3331604	wszystko	-0.025852475
-3.3331604	sztuce	-0.025852475
-3.4926355	wyrażone	-0.025852475
-3.4926355	orła	-0.025852475
-3.4926355	wsiada	-0.025852475
-3.4926355	*junonę*	-0.025852475
-3.4926355	pawiem	-0.025852475
-3.4926355	stoocznym	-0.025852475
-3.4926355	igra	-0.025852475
-3.4926355	*semeli*	-0.025852475
-3.4926355	swe	-0.025852475
-3.4926355	zabawy	-0.025852475
-3.4926355	dniu	-0.025852475
-3.4926355	widocznym	-0.025852475
-3.4926355	płaczący	-0.025852475
-3.4926355	straż	-0.025852475
-3.4926355	porzuca	-0.025852475
-3.4926355	wreście	-0.025852475
-3.4926355	stadło	-0.025852475
-3.4926355	potrzebuje	-0.025852475
-3.4926355	dwieście	-0.025852475
-3.4926355	statuę	-0.025852475
-3.4926355	myśliwej	-0.025852475
-3.4926355	dyanny	-0.025852475
-3.3331604	ręką	-0.025852475
-3.4926355	smyczy	-0.025852475
-3.4926355	łuk	-0.025852475
-3.4926355	kołczan	-0.025852475
-3.4926355	lance	-0.025852475
-3.4926355	niosą	-0.025852475
-3.3331604	panny	-0.025852475
-3.4926355	wiatr	-0.025852475
-3.4926355	sukienke	-0.025852475
-3.4926355	nieznacznie	-0.025852475
-3.4926355	poddyma	-0.025852475
-3.4926355	zwierzyna	-0.025852475
-3.4926355	postrzelana	-0.025852475
-3.4926355	leży	-0.025852475
-3.4926355	żywa	-0.025852475
-3.4926355	rozkaz	-0.025852475
-3.4926355	sieć	-0.025852475
-3.4926355	*apolla*	-0.025852475
-3.4926355	pożarem	-0.025852475
-3.4926355	płonie	-0.025852475
-3.3331604	pięknej	-0.025852475
-3.4926355	*dafny*	-0.025852475
-3.4926355	jawnie	-0.025852475
-3.4926355	gardzi	-0.025852475
-3.3331604	*narcyss*	-0.025852475
-3.4926355	zakochawszy	-0.025852475
-3.4926355	tonie	-0.025852475
-3.3331604	*echo*	-0.025852475
-3.4926355	ściga	-0.025852475
-3.4926355	ucieka	-0.025852475
-3.4926355	bardzi	-0.025852475
-3.4926355	amorotów	-0.025852475
-3.4926355	mściwa	-0.025852475
-3.4926355	tropi	-0.025852475
-3.4926355	jednego	-0.025852475
-3.4926355	spali	-0.025852475
-3.4926355	utopi	-0.025852475
-3.4926355	*prokrydę*	-0.025852475
-3.4926355	kochanym	-0.025852475
-3.4926355	*cefalem*	-0.025852475
-3.4926355	jaki	-0.025852475
-3.4926355	podejrzenie	-0.025852475
-3.4926355	niesie	-0.025852475
-3.4926355	małżeństwem	-0.025852475
-3.4926355	kończy	-0.025852475
-3.4926355	żalem	-0.025852475
-3.4926355	żona	-0.025852475
-3.4926355	szpieguje	-0.025852475
-3.4926355	lesie	-0.025852475
-3.4926355	winien	-0.025852475
-3.4926355	mąż	-0.025852475
-3.4926355	zabija	-0.025852475
-3.4926355	żonę	-0.025852475
-3.4926355	dowierza	-0.025852475
-3.4926355	patrzy	-0.025852475
-3.3331604	jakim	-0.025852475
-3.4926355	wyrobione	-0.025852475
-3.4926355	tokiem	-0.025852475
-3.4926355	chciałby	-0.025852475
-3.4926355	niejeden	-0.025852475
-3.4926355	*parysem*	-0.025852475
-3.4926355	zostać	-0.025852475
-3.3331604	żywej	-0.025852475
-3.4926355	kędy	-0.025852475
-3.4926355	dojrzał	-0.025852475
-3.4926355	nadziei	-0.025852475
-3.4926355	otuchy	-0.025852475
-3.4926355	łabędziowe	-0.025852475
-3.4926355	puchy	-0.025852475
-3.4926355	napasł	-0.025852475
-3.4926355	pięknych	-0.025852475
-3.4926355	sztukach	-0.025852475
-3.3331604	też	-0.025852475
-3.4926355	własny	-0.025852475
-3.4926355	posąg	-0.025852475
-3.3331604	spyta	-0.025852475
-3.3331604	cenie	-0.025852475
-3.4926355	zapchano	-0.025852475
-3.4926355	ciasny	-0.025852475
-3.4926355	szacunku	-0.025852475
-3.4926355	*jowisz*	-0.025852475
-3.4926355	*wenus*	-0.025852475
-3.4926355	*juno*	-0.025852475
-3.4926355	uwiózł	-0.025852475
-3.4926355	runo	-0.025852475
-3.4926355	odpowie	-0.025852475
-3.4926355	skulptor	-0.025852475
-3.3331604	różność	-0.025852475
-3.4926355	naturze	-0.025852475
-3.4926355	jednemu	-0.025852475
-3.4926355	skarbie	-0.025852475
-3.4926355	swoim	-0.025852475
-3.4926355	marmurze	-0.025852475
-3.4926355	białości	-0.025852475
-3.4926355	żyłkach	-0.025852475
-3.4926355	glansie	-0.025852475
-3.4926355	farbie	-0.025852475
-3.4926355	zna	-0.025852475
-3.4926355	rozum	-0.025852475
-3.4926355	dyktuje	-0.025852475
-3.4926355	marmur	-0.025852475
-3.4926355	kształt	-0.025852475
-3.4926355	kosztuje	-0.025852475
-3.4926355	żeś	-0.025852475
-3.4926355	ciekawy	-0.025852475
-3.4926355	opowiem	-0.025852475
-3.4926355	jednym	-0.025852475
-3.4926355	rządzie	-0.025852475
-3.4926355	stoją	-0.025852475
-3.4926355	stronie	-0.025852475
-3.4926355	kilku	-0.025852475
-3.4926355	set	-0.025852475
-3.4926355	czerwonych	-0.025852475
-3.4926355	złotych	-0.025852475
-3.4926355	przedać	-0.025852475
-3.4926355	myślę	-0.025852475
-3.4926355	zajedzie	-0.025852475
-3.4926355	tą	-0.025852475
-3.4926355	ścianą	-0.025852475
-3.4926355	zebrani	-0.025852475
-3.4926355	mniejszej	-0.025852475
-3.4926355	wadze	-0.025852475
-3.4926355	oddam	-0.025852475
-3.4926355	tani	-0.025852475
-3.4926355	*merkuryusza*	-0.025852475
-3.4926355	wiedzieć	-0.025852475
-3.4926355	drogość	-0.025852475
-3.4926355	swojego	-0.025852475
-3.4926355	bałwana	-0.025852475
-3.4926355	przystąpi	-0.025852475
-3.4926355	nogą	-0.025852475
-3.4926355	rusza	-0.025852475
-3.4926355	sztuka	-0.025852475
-3.4926355	zaniedbana	-0.025852475
-3.4926355	chciał	-0.025852475
-3.4926355	rzemieślnik	-0.025852475
-3.4926355	złota	-0.025852475
-3.4926355	sądząc	-0.025852475
-3.4926355	wielka	-0.025852475
-3.4926355	zajdzie	-0.025852475
-3.4926355	kwota	-0.025852475
-3.4926355	słyszy	-0.025852475
-3.4926355	odpowiedź	-0.025852475
-3.4926355	tropy	-0.025852475
-3.4926355	gdyby	-0.025852475
-3.4926355	kupiec	-0.025852475
-3.4926355	przybył	-0.025852475
-3.4926355	trafunku	-0.025852475
-3.4926355	błazna	-0.025852475
-3.4926355	chciałbym	-0.025852475
-3.4926355	kopy	-0.025852475
-3.4926355	przydał	-0.025852475
-3.4926355	chęcią	-0.025852475
-3.4926355	podarunku	-0.025852475
-3.4926355	bylem	-0.025852475
-3.4926355	pozbył	-0.025852475
-3.4926355	spraw	-0.025852475
-3.4926355	cudzych	-0.025852475
-3.4926355	cenzora	-0.025852475
-3.4926355	kassy	-0.025852475
-3.4926355	złodziejów	-0.025852475
-3.4926355	faktora	-0.025852475
-3.4926355	smak	-0.025852475
-3.4926355	*merkuremu*	-0.025852475
-3.4926355	słuchać	-0.025852475
-3.4926355	inaczej	-0.025852475
-3.4926355	obiecała	-0.025852475
-3.4926355	pycha	-0.025852475
-3.4926355	miał	-0.025852475
-3.4926355	każdemu	-0.025852475
-3.4926355	dmuchać	-0.025852475
-3.4926355	łeb	-0.025852475
-3.4926355	ambicya	-0.025852475
-3.4926355	spycha	-0.025852475
-3.4926355	ostatni	-0.025852475
-3.4926355	zbrodzien	-0.025852475
-3.4926355	charakterze	-0.025852475
-3.4926355	szubienicy	-0.025852475
-3.4926355	godzien	-0.025852475
-3.4926355	poznaje	-0.025852475
-3.4926355	defekt	-0.025852475
-3.4926355	dotąd	-0.025852475
-3.4926355	panował	-0.025852475
-3.4926355	przeklina	-0.025852475
-3.4926355	stan	-0.025852475
-3.4926355	łaje	-0.025852475
-3.4926355	tylko	-0.025852475
-3.4926355	szacował	-0.025852475
-3.4926355	odtąd	-0.025852475
-3.4926355	przyrzeka	-0.025852475
-3.4926355	umysł	-0.025852475
-3.4926355	hardy	-0.025852475
-3.4926355	potępi	-0.025852475
-3.4926355	wprowadził	-0.025852475
-3.4926355	wzgardy	-0.025852475
-3.4926355	piękność	-0.025852475
-3.4926355	narcyssa	-0.025852475
-3.4926355	uciekającego	-0.025852475
-3.4926355	nimfy	-0.025852475
-3.4926355	echo	-0.025852475
-3.4926355	nazwane	-0.025852475
-3.4926355	darmo	-0.025852475
-3.4926355	zaczynasz	-0.025852475
-3.3331604	wojnę	-0.1493394
-3.3331604	*narcyssie*	-0.025852475
-3.4926355	potykasz	-0.025852475
-3.4926355	stalowym	-0.025852475
-3.4926355	kiryssie	-0.025852475
-3.4926355	ufasz	-0.025852475
-3.4926355	orężu	-0.025852475
-3.4926355	trójgraniastą	-0.025852475
-3.4926355	szpadę	-0.025852475
-3.4926355	nagie	-0.025852475
-3.4926355	dziecko	-0.025852475
-3.4926355	wziąć	-0.025852475
-3.3331604	potrafi	-0.025852475
-3.4926355	zdradę	-0.025852475
-3.4926355	strzałka	-0.025852475
-3.4926355	zwojuje	-0.025852475
-3.4926355	śmiałka	-0.025852475
-3.4926355	uciekaj	-0.025852475
-3.4926355	skały	-0.025852475
-3.4926355	puszcze	-0.025852475
-3.4926355	ciemne	-0.025852475
-3.4926355	uznasz	-0.025852475
-3.4926355	myślistwie	-0.025852475
-3.4926355	uciechy	-0.025852475
-3.4926355	daremne	-0.025852475
-3.4926355	pójdzie	-0.025852475
-3.4926355	zganić	-0.025852475
-3.4926355	hołdować	-0.025852475
-3.4926355	nauczy	-0.025852475
-3.4926355	porzuć	-0.025852475
-3.4926355	zwierzynę	-0.025852475
-3.4926355	kochaj	-0.025852475
-3.4926355	dziewczynę	-0.025852475
-3.4926355	pokaż	-0.025852475
-3.4926355	bohatyra	-0.025852475
-3.4926355	którego	-0.025852475
-3.4926355	męztwie	-0.025852475
-3.4926355	tryumf	-0.025852475
-3.4926355	wzięła	-0.025852475
-3.4926355	zwycięztwie	-0.025852475
-3.4926355	broń	-0.025852475
-3.4926355	twardej	-0.025852475
-3.4926355	stali	-0.025852475
-3.4926355	wykowana	-0.025852475
-3.4926355	pancerze	-0.025852475
-3.4926355	szyszaki	-0.025852475
-3.4926355	snadno	-0.025852475
-3.4926355	przeciśnie	-0.025852475
-3.4926355	zmieni	-0.025852475
-3.4926355	zaloty	-0.025852475
-3.4926355	mury	-0.025852475
-3.4926355	bramy	-0.025852475
-3.4926355	szańce	-0.025852475
-3.4926355	okopy	-0.025852475
-3.4926355	mosty	-0.025852475
-3.4926355	wolny	-0.025852475
-3.4926355	przystęp	-0.025852475
-3.4926355	gościniec	-0.025852475
-3.4926355	prosty	-0.025852475
-3.4926355	forteca	-0.025852475
-3.4926355	sztuką	-0.025852475
-3.4926355	dobyła	-0.025852475
-3.4926355	architekt	-0.025852475
-3.4926355	uchodzi	-0.025852475
-3.4926355	granic	-0.025852475
-3.4926355	głuchych	-0.025852475
-3.4926355	jaskiniach	-0.025852475
-3.4926355	*eremitę*	-0.025852475
-3.4926355	zapuści	-0.025852475
-3.4926355	zimny	-0.025852475
-3.4926355	krzemień	-0.025852475
-3.4926355	iskrze	-0.025852475
-3.4926355	ognie	-0.025852475
-3.3331604	skryte	-0.025852475
-3.4926355	trącano	-0.025852475
-3.4926355	krzesiwem	-0.025852475
-3.4926355	staje	-0.025852475
-3.4926355	rozgorzałem	-0.025852475
-3.4926355	płomieniu	-0.025852475
-3.4926355	łuczywem	-0.025852475
-3.4926355	kości	-0.025852475
-3.4926355	święte	-0.025852475
-3.4926355	popiół	-0.025852475
-3.4926355	rozdęte	-0.025852475
-3.4926355	kryje	-0.025852475
-3.3331604	rada	-0.025852475
-3.4926355	spuszczone	-0.025852475
-3.4926355	kaptury	-0.025852475
-3.4926355	niepoznana	-0.025852475
-3.4926355	skromności	-0.025852475
-3.4926355	postury	-0.025852475
-3.4926355	swoję	-0.025852475
-3.4926355	rozrucha	-0.025852475
-3.4926355	podnieść	-0.025852475
-3.4926355	radzi	-0.025852475
-3.4926355	kaptura	-0.025852475
-3.4926355	pocieszyć	-0.025852475
-3.4926355	ducha	-0.025852475
-3.4926355	pozwoli	-0.025852475
-3.4926355	oku	-0.025852475
-3.4926355	zarwać	-0.025852475
-3.4926355	widoku	-0.025852475
-3.4926355	wota	-0.025852475
-3.4926355	czynią	-0.025852475
-3.4926355	odprawiać	-0.025852475
-3.4926355	pilne	-0.025852475
-3.4926355	straże	-0.025852475
-3.4926355	dzienne	-0.025852475
-3.4926355	nocne	-0.025852475
-3.4926355	sen	-0.025852475
-3.4926355	naturalny	-0.025852475
-3.4926355	zpląta	-0.025852475
-3.3331604	ognia	-0.025852475
-3.4926355	iskra	-0.025852475
-3.4926355	skoczy	-0.025852475
-3.4926355	łamie	-0.025852475
-3.4926355	wiarę	-0.025852475
-3.4926355	gani	-0.025852475
-3.4926355	ofiarę	-0.025852475
-3.4926355	śliczne	-0.025852475
-3.4926355	purpury	-0.025852475
-3.4926355	je	-0.025852475
-3.4926355	farbuje	-0.025852475
-3.4926355	czystość	-0.025852475
-3.4926355	zdobi	-0.025852475
-3.4926355	zmaże	-0.025852475
-3.4926355	zgluzuie	-0.025852475
-3.4926355	żaden	-0.025852475
-3.4926355	malarz	-0.025852475
-3.4926355	glansu	-0.025852475
-3.4926355	poloru	-0.025852475
-3.4926355	przywrócić	-0.025852475
-3.4926355	własności	-0.025852475
-3.4926355	koloru	-0.025852475
-3.4926355	opełzły	-0.025852475
-3.4926355	farby	-0.025852475
-3.4926355	wstydzie	-0.025852475
-3.4926355	karby	-0.025852475
-3.4926355	bywa	-0.025852475
-3.4926355	ogródku	-0.025852475
-3.4926355	obwiedzionym	-0.025852475
-3.4926355	płotem	-0.025852475
-3.4926355	złotej	-0.025852475
-3.4926355	ligi	-0.025852475
-3.4926355	małżeńskiej	-0.025852475
-3.4926355	psować	-0.025852475
-3.4926355	wyroki	-0.025852475
-3.4926355	gospodyni	-0.025852475
-3.4926355	gruntownym	-0.025852475
-3.4926355	ogrodzeniu	-0.025852475
-3.4926355	dziury	-0.025852475
-3.4926355	wielkie	-0.025852475
-3.4926355	jarzynie	-0.025852475
-3.4926355	rozgrzeje	-0.025852475
-3.4926355	zgrzybiały	-0.025852475
-3.4926355	ciepła	-0.025852475
-3.4926355	naturalnego	-0.025852475
-3.4926355	odmienił	-0.025852475
-3.4926355	śnieg	-0.025852475
-3.4926355	biały	-0.025852475
-3.4926355	trudnej	-0.025852475
-3.4926355	dokaże	-0.025852475
-3.4926355	zgniłym	-0.025852475
-3.4926355	próchnie	-0.025852475
-3.4926355	mniej	-0.025852475
-3.4926355	dymu	-0.025852475
-3.4926355	weń	-0.025852475
-3.4926355	dmuchnie	-0.025852475
-3.4926355	ucieszy	-0.025852475
-3.4926355	stary	-0.025852475
-3.4926355	zgrzeszy	-0.025852475
-3.4926355	jawny	-0.025852475
-3.4926355	dowód	-0.025852475
-3.4926355	zuchwały	-0.025852475
-3.4926355	daninie	-0.025852475
-3.4926355	hołduje	-0.025852475
-3.4926355	czują	-0.025852475
-3.3331604	czuje	-0.025852475
-3.4926355	zwierz	-0.025852475
-3.4926355	żyje	-0.025852475
-3.4926355	władzy	-0.025852475
-3.4926355	wybije	-0.025852475
-3.4926355	upory	-0.025852475
-3.4926355	pokory	-0.025852475
-3.4926355	idź	-0.025852475
-3.4926355	prosi	-0.025852475
-3.4926355	głosem	-0.025852475
-3.4926355	instynkt	-0.025852475
-3.4926355	prowadzi	-0.025852475
-3.4926355	fortuny	-0.025852475
-3.4926355	losem	-0.025852475
-3.4926355	radą	-0.025852475
-3.4926355	chodzą	-0.025852475
-3.4926355	nadzieję	-0.025852475
-3.4926355	kładą	-0.025852475
-3.4926355	rządzi	-0.025852475
-3.4926355	nigdy	-0.025852475
-3.4926355	zuchwale	-0.025852475
-3.4926355	stąpa	-0.025852475
-3.4926355	górą	-0.025852475
-3.4926355	nosi	-0.025852475
-3.4926355	wpadnie	-0.025852475
-3.4926355	dół	-0.025852475
-3.4926355	głębokiej	-0.025852475
-3.4926355	omoczy	-0.025852475
-3.4926355	wzgardził	-0.025852475
-3.4926355	*nimfę*	-0.025852475
-3.4926355	źródła	-0.025852475
-3.4926355	kwapił	-0.025852475
-3.4926355	łez	-0.025852475
-3.4926355	zażył	-0.025852475
-3.4926355	śmierci	-0.025852475
-3.4926355	napił	-0.025852475
-3.4926355	zkończył	-0.025852475
-3.4926355	*kupidem*	-0.025852475

\2-grams:
-0.21507433	<s> </s>	0
-0.86416614	persname </s>	0
-0.710549	światowe </s>	0
-0.710549	dam </s>	0
-0.710549	weszło </s>	0
-0.83802295	placename </s>	0
-0.710549	przeszło </s>	0
-0.710549	zniża </s>	0
-0.780303	mularza </s>	0
-0.710549	sekretarza </s>	0
-0.8742324	nie </s>	0
-0.710549	modna </s>	0
-0.8198875	sobą </s>	0
-0.780303	*mopsa* </s>	0
-0.710549	obróżce </s>	0
-0.710549	głodna </s>	0
-0.83392686	sobie </s>	0
-0.710549	poduszce </s>	0
-0.8062879	psa </s>	0
-0.780303	tego </s>	0
-0.4177213	*persname* </s>	0
-0.710549	złego </s>	0
-0.710549	przyrodzona </s>	0
-0.780303	czym </s>	0
-0.710549	sobaczym </s>	0
-0.710549	ambony </s>	0
-0.8198875	przecie </s>	0
-0.710549	ręczy </s>	0
-0.710549	odrzucony </s>	0
-0.710549	dręczy </s>	0
-0.780303	nasze </s>	0
-0.710549	odpasze </s>	0
-0.710549	główny </s>	0
-0.710549	zburzyć </s>	0
-0.780303	równy </s>	0
-0.780303	owczarnie </s>	0
-0.710549	wykurzyć </s>	0
-0.710549	dowodów </s>	0
-0.8062879	czyni </s>	0
-0.62018496	jeszcze </s>	0
-0.710549	narodów </s>	0
-0.710549	apostata </s>	0
-0.710549	duszą </s>	0
-0.710549	pobrata </s>	0
-0.780303	mocne </s>	0
-0.710549	ususzą </s>	0
-0.710549	jutrem </s>	0
-0.710549	zachowuje </s>	0
-0.710549	towarzyszem </s>	0
-0.710549	obliguje </s>	0
-0.710549	hołyszem </s>	0
-0.710549	kameratem </s>	0
-0.40446934	bratem </s>	0
-0.82825655	tem </s>	0
-0.710549	sekta </s>	0
-0.710549	niewieści </s>	0
-0.710549	respekta </s>	0
-0.710549	pieści </s>	0
-0.8687606	tych </s>	0
-0.710549	oddycha </s>	0
-0.780303	młody </s>	0
-0.710549	mopsicha </s>	0
-0.710549	łóżka </s>	0
-0.8062879	tobie </s>	0
-0.710549	służka </s>	0
-0.710549	łasy </s>	0
-0.710549	kiełbasy </s>	0
-0.710549	---- </s>	0
-0.8062879	miłości </s>	0
-0.710549	żadnem </s>	0
-0.710549	słynął </s>	0
-0.710549	snadnem </s>	0
-0.710549	płynął </s>	0
-0.710549	alternata </s>	0
-0.710549	brata </s>	0
-0.710549	cudem </s>	0
-0.710549	rodowitem </s>	0
-0.710549	ludem </s>	0
-0.710549	przyzwoitem </s>	0
-0.710549	związkiem </s>	0
-0.710549	obowiązkiem </s>	0
-0.780303	*ledy* </s>	0
-0.710549	rodzili </s>	0
-0.710549	wtedy </s>	0
-0.710549	żyli </s>	0
-0.710549	bliźnięty </s>	0
-0.780303	kocha </s>	0
-0.710549	akteona </s>	0
-0.710549	duszy </s>	0
-0.710549	zaprzęga </s>	0
-0.710549	suszy </s>	0
-0.710549	niedołęga </s>	0
-0.8062879	trunku </s>	0
-0.710549	bassarunku </s>	0
-0.40446934	roboty </s>	0
-0.710549	wzroku </s>	0
-0.40446934	ochoty </s>	0
-0.40446934	kroku </s>	0
-0.710549	mierzy </s>	0
-0.69633186	oczy </s>	0
-0.40446934	uderzy </s>	0
-0.710549	myśliwy </s>	0
-0.710549	jelenia </s>	0
-0.710549	chciwy </s>	0
-0.710549	wątpienia </s>	0
-0.710549	zwierzynie </s>	0
-0.710549	dziewczynie </s>	0
-0.710549	wielowładnych </s>	0
-0.710549	czyta </s>	0
-0.710549	ładnych </s>	0
-0.710549	chwyta </s>	0
-0.710549	pleszcze </s>	0
-0.780303	woli </s>	0
-0.8062879	skrada </s>	0
-0.710549	zarośle </s>	0
-0.710549	boli </s>	0
-0.710549	pośle </s>	0
-0.710549	zawady </s>	0
-0.710549	porady </s>	0
-0.51097476	blisko </s>	0
-0.82825655	było </s>	0
-0.710549	igrzysko </s>	0
-0.710549	stoku </s>	0
-0.780303	członki </s>	0
-0.710549	zasłonki </s>	0
-0.710549	szpiega </s>	0
-0.780303	wstydem </s>	0
-0.8062879	potem </s>	0
-0.40446934	pryśnie </s>	0
-0.710549	biega </s>	0
-0.780303	okiem </s>	0
-0.710549	ciśnie </s>	0
-0.710549	sekretu </s>	0
-0.710549	dekretu </s>	0
-0.710549	zajadła </s>	0
-0.8198875	postać </s>	0
-0.710549	urody </s>	0
-0.710549	opadła </s>	0
-0.40446934	szkody </s>	0
-0.710549	posturę </s>	0
-0.710549	skórę </s>	0
-0.29822347	zwierza </s>	0
-0.780303	zmierza </s>	0
-0.8062879	tobą </s>	0
-0.710549	śmiercią </s>	0
-0.710549	siercią </s>	0
-0.710549	grzeszyć </s>	0
-0.83392686	ich </s>	0
-0.710549	gniewu </s>	0
-0.780303	cieszyć </s>	0
-0.710549	drzewu </s>	0
-0.710549	przeklęta </s>	0
-0.710549	bydlęta </s>	0
-0.710549	grzesznik </s>	0
-0.710549	grzmocie </s>	0
-0.710549	cie </s>	0
-0.710549	karania </s>	0
-0.710549	niewracania </s>	0
-0.710549	stroisz </s>	0
-0.710549	boisz </s>	0
-0.780303	strachu </s>	0
-0.710549	gmachu </s>	0
-0.710549	rządach </s>	0
-0.710549	sądach </s>	0
-0.710549	dnie </s>	0
-0.710549	zgadnie </s>	0
-0.710549	odgłosy </s>	0
-0.710549	włosy </s>	0
-0.710549	panie </s>	0
-0.780303	stanie </s>	0
-0.710549	rozmowa </s>	0
-0.710549	chowa </s>	0
-0.710549	rozpusty </s>	0
-0.710549	odpusty </s>	0
-0.710549	gromi </s>	0
-0.710549	uskromi </s>	0
-0.710549	zamierzy </s>	0
-0.8062879	który </s>	0
-0.710549	spalił </s>	0
-0.710549	sformowany </s>	0
-0.710549	miny </s>	0
-0.710549	ściany </s>	0
-0.710549	młyny </s>	0
-0.40446934	pali </s>	0
-0.710549	pochwali </s>	0
-0.780303	smutnej </s>	0
-0.710549	wenery </s>	0
-0.710549	dzieje </s>	0
-0.40446934	grzeje </s>	0
-0.710549	nazwali </s>	0
-0.710549	odmiany </s>	0
-0.710549	nagany </s>	0
-0.710549	płomienie </s>	0
-0.710549	chłodzenie </s>	0
-0.710549	intrydze </s>	0
-0.710549	widzę </s>	0
-0.710549	odwraca </s>	0
-0.780303	praca </s>	0
-0.780303	wysłużył </s>	0
-0.8062879	wiele </s>	0
-0.710549	*rachele* </s>	0
-0.780303	była </s>	0
-0.710549	oddana </s>	0
-0.710549	znosić </s>	0
-0.710549	prosić </s>	0
-0.710549	*jakobowi* </s>	0
-0.780303	kilka </s>	0
-0.710549	*labanowi* </s>	0
-0.710549	ranny </s>	0
-0.82825655	tu </s>	0
-0.710549	czternastu </s>	0
-0.710549	*michale* </s>	0
-0.710549	błogosławi </s>	0
-0.710549	pochwale </s>	0
-0.710549	wystawi </s>	0
-0.710549	sprzęgą </s>	0
-0.710549	przysięgą </s>	0
-0.710549	złożenia </s>	0
-0.710549	pragnienia </s>	0
-0.710549	użył </s>	0
-0.710549	czyi </s>	0
-0.710549	lii </s>	0
-0.710549	*rachelą* </s>	0
-0.780303	drogą </s>	0
-0.710549	wiedzie </s>	0
-0.780303	słodkie </s>	0
-0.710549	ścielą </s>	0
-0.710549	miedzie </s>	0
-0.710549	pamiątka </s>	0
-0.710549	jagniątka </s>	0
-0.780303	pasterki </s>	0
-0.710549	obroty </s>	0
-0.780303	knieje </s>	0
-0.710549	śmieje </s>	0
-0.82825655	nic </s>	0
-0.780303	prostoty </s>	0
-0.710549	niecnoty </s>	0
-0.710549	ucho </s>	0
-0.710549	prawnych </s>	0
-0.51097476	wody </s>	0
-0.710549	sucho </s>	0
-0.710549	sławnych </s>	0
-0.710549	szkole </s>	0
-0.710549	role </s>	0
-0.710549	chłodniki </s>	0
-0.82825655	siebie </s>	0
-0.710549	strumyki </s>	0
-0.710549	chlebie </s>	0
-0.710549	żywych </s>	0
-0.710549	nieżyczliwych </s>	0
-0.710549	śliczny </s>	0
-0.710549	kropelki </s>	0
-0.710549	okoliczny </s>	0
-0.710549	wszelki </s>	0
-0.710549	wrzosy </s>	0
-0.710549	rosy </s>	0
-0.710549	instrumenta </s>	0
-0.710549	nisko </s>	0
-0.710549	ptaszęta </s>	0
-0.780303	sztuki </s>	0
-0.710549	nauki </s>	0
-0.710549	pasterze </s>	0
-0.710549	fujarze </s>	0
-0.710549	lerze </s>	0
-0.710549	parze </s>	0
-0.710549	koleją </s>	0
-0.710549	śmieją </s>	0
-0.710549	trzodę </s>	0
-0.710549	wilka </s>	0
-0.710549	powiodę </s>	0
-0.780303	bieży </s>	0
-0.710549	szyje </s>	0
-0.780303	drugą </s>	0
-0.710549	zmyje </s>	0
-0.710549	ciemnym </s>	0
-0.710549	foremnym </s>	0
-0.40446934	ochłody </s>	0
-0.40446934	dokuczy </s>	0
-0.710549	zamruczy </s>	0
-0.710549	zabawach </s>	0
-0.51097476	cały </s>	0
-0.710549	godziną </s>	0
-0.710549	trawach </s>	0
-0.710549	doliną </s>	0
-0.710549	kolory </s>	0
-0.710549	*flory* </s>	0
-0.780303	dała </s>	0
-0.710549	długą </s>	0
-0.710549	nazbierała </s>	0
-0.780303	strojem </s>	0
-0.710549	stojem </s>	0
-0.710549	niewinne </s>	0
-0.710549	mogą </s>	0
-0.710549	inne </s>	0
-0.710549	koszyka </s>	0
-0.710549	jaszczyka </s>	0
-0.780303	zażyć </s>	0
-0.710549	piwnicy </s>	0
-0.710549	ważyć </s>	0
-0.710549	krynicy </s>	0
-0.710549	ubywa </s>	0
-0.710549	doliwa </s>	0
-0.710549	krzewiny </s>	0
-0.710549	wieje </s>	0
-0.710549	jedliny </s>	0
-0.710549	jałowce </s>	0
-0.780303	owce </s>	0
-0.710549	domu </s>	0
-0.710549	gromady </s>	0
-0.710549	komu </s>	0
-0.710549	zwady </s>	0
-0.780303	zbłądzi </s>	0
-0.710549	garnie </s>	0
-0.710549	chróścianej </s>	0
-0.710549	spoczynek </s>	0
-0.710549	glinianej </s>	0
-0.710549	rynek </s>	0
-0.710549	żołądka </s>	0
-0.710549	niebożątka </s>	0
-0.710549	honoru </s>	0
-0.780303	pożytek </s>	0
-0.710549	pracą </s>	0
-0.710549	wszytek </s>	0
-0.710549	płacą </s>	0
-0.710549	śmietany </s>	0
-0.710549	krótkie </s>	0
-0.710549	skarany </s>	0
-0.710549	usłyszy </s>	0
-0.710549	myszy </s>	0
-0.710549	strzeże </s>	0
-0.710549	twardego </s>	0
-0.710549	wieże </s>	0
-0.710549	mocniejszego </s>	0
-0.710549	deszcze </s>	0
-0.710549	utraktował </s>	0
-0.710549	dobra </s>	0
-0.780303	bobra </s>	0
-0.710549	więcierza </s>	0
-0.710549	wodne </s>	0
-0.710549	godne </s>	0
-0.710549	sąsiedztwem </s>	0
-0.710549	zażyli </s>	0
-0.710549	łowiectwem </s>	0
-0.710549	nasycili </s>	0
-0.710549	specyały </s>	0
-0.710549	spory </s>	0
-0.710549	rupieci </s>	0
-0.710549	fetory </s>	0
-0.710549	zaleci </s>	0
-0.710549	kawalców </s>	0
-0.710549	palców </s>	0
-0.710549	ciekawie </s>	0
-0.710549	plecie </s>	0
-0.710549	bawię </s>	0
-0.780303	stroje </s>	0
-0.710549	stoję </s>	0
-0.8062879	trzyma </s>	0
-0.710549	doskonałości </s>	0
-0.710549	wzbije </s>	0
-0.710549	wybadać </s>	0
-0.710549	zażyje </s>	0
-0.710549	składać </s>	0
-0.710549	kupca </s>	0
-0.710549	głupca </s>	0
-0.710549	skulptora </s>	0
-0.710549	rzemiosła </s>	0
-0.710549	pokora </s>	0
-0.710549	posła </s>	0
-0.710549	dłotem </s>	0
-0.780303	*merkury* </s>	0
-0.710549	posągi </s>	0
-0.710549	armaturze </s>	0
-0.710549	zaciągi </s>	0
-0.710549	posturze </s>	0
-0.780303	męża </s>	0
-0.710549	oręża </s>	0
-0.710549	twarzą </s>	0
-0.710549	pieszczocha </s>	0
-0.710549	parzą </s>	0
-0.710549	miło </s>	0
-0.710549	wsiada </s>	0
-0.710549	stoocznym </s>	0
-0.710549	widocznym </s>	0
-0.710549	wreście </s>	0
-0.710549	dwieście </s>	0
-0.710549	dyanny </s>	0
-0.780303	panny </s>	0
-0.710549	poddyma </s>	0
-0.710549	leży </s>	0
-0.710549	płonie </s>	0
-0.710549	gardzi </s>	0
-0.710549	tonie </s>	0
-0.710549	bardzi </s>	0
-0.710549	tropi </s>	0
-0.710549	utopi </s>	0
-0.710549	*cefalem* </s>	0
-0.710549	niesie </s>	0
-0.710549	żalem </s>	0
-0.710549	lesie </s>	0
-0.710549	dowierza </s>	0
-0.710549	tokiem </s>	0
-0.710549	zostać </s>	0
-0.710549	otuchy </s>	0
-0.710549	puchy </s>	0
-0.710549	własny </s>	0
-0.710549	ciasny </s>	0
-0.710549	*juno* </s>	0
-0.710549	runo </s>	0
-0.780303	naturze </s>	0
-0.710549	skarbie </s>	0
-0.710549	marmurze </s>	0
-0.710549	farbie </s>	0
-0.710549	dyktuje </s>	0
-0.710549	kosztuje </s>	0
-0.710549	stronie </s>	0
-0.710549	złotych </s>	0
-0.710549	zebrani </s>	0
-0.710549	tani </s>	0
-0.710549	*merkuryusza* </s>	0
-0.710549	bałwana </s>	0
-0.710549	rusza </s>	0
-0.710549	zaniedbana </s>	0
-0.710549	złota </s>	0
-0.710549	kwota </s>	0
-0.710549	tropy </s>	0
-0.710549	trafunku </s>	0
-0.710549	kopy </s>	0
-0.710549	podarunku </s>	0
-0.710549	cenzora </s>	0
-0.710549	faktora </s>	0
-0.710549	słuchać </s>	0
-0.710549	pycha </s>	0
-0.710549	dmuchać </s>	0
-0.710549	spycha </s>	0
-0.710549	zbrodzien </s>	0
-0.710549	godzien </s>	0
-0.710549	poznaje </s>	0
-0.710549	panował </s>	0
-0.710549	łaje </s>	0
-0.710549	szacował </s>	0
-0.710549	hardy </s>	0
-0.710549	wzgardy </s>	0
-0.710549	nazwane </s>	0
-0.780303	*narcyssie* </s>	0
-0.710549	kiryssie </s>	0
-0.710549	szpadę </s>	0
-0.710549	zdradę </s>	0
-0.710549	strzałka </s>	0
-0.710549	śmiałka </s>	0
-0.710549	ciemne </s>	0
-0.710549	daremne </s>	0
-0.710549	nauczy </s>	0
-0.710549	zwierzynę </s>	0
-0.710549	dziewczynę </s>	0
-0.710549	męztwie </s>	0
-0.710549	zwycięztwie </s>	0
-0.710549	przeciśnie </s>	0
-0.710549	zaloty </s>	0
-0.710549	mosty </s>	0
-0.710549	prosty </s>	0
-0.710549	dobyła </s>	0
-0.710549	granic </s>	0
-0.710549	*eremitę* </s>	0
-0.780303	skryte </s>	0
-0.710549	krzesiwem </s>	0
-0.710549	łuczywem </s>	0
-0.710549	święte </s>	0
-0.710549	rozdęte </s>	0
-0.710549	kaptury </s>	0
-0.710549	postury </s>	0
-0.710549	rozrucha </s>	0
-0.710549	ducha </s>	0
-0.710549	oku </s>	0
-0.710549	widoku </s>	0
-0.710549	nocne </s>	0
-0.710549	skoczy </s>	0
-0.710549	wiarę </s>	0
-0.710549	ofiarę </s>	0
-0.710549	farbuje </s>	0
-0.710549	zgluzuie </s>	0
-0.710549	poloru </s>	0
-0.710549	koloru </s>	0
-0.710549	farby </s>	0
-0.710549	karby </s>	0
-0.710549	płotem </s>	0
-0.710549	gospodyni </s>	0
-0.710549	zgrzybiały </s>	0
-0.710549	biały </s>	0
-0.710549	próchnie </s>	0
-0.710549	dmuchnie </s>	0
-0.710549	ucieszy </s>	0
-0.710549	zgrzeszy </s>	0
-0.710549	zuchwały </s>	0
-0.710549	żyje </s>	0
-0.710549	wybije </s>	0
-0.710549	upory </s>	0
-0.710549	pokory </s>	0
-0.710549	głosem </s>	0
-0.710549	losem </s>	0
-0.710549	radą </s>	0
-0.710549	kładą </s>	0
-0.710549	rządzi </s>	0
-0.710549	omoczy </s>	0
-0.710549	kwapił </s>	0
-0.710549	napił </s>	0
-0.710549	*kupidem* </s>	0
-1.5532119	<s> persname	-0.44235915
-1.4671557	kompanią persname	-0.30103
-1.7974844	i persname	-0.30103
-1.5323403	z persname	-0.30103
-1.2006439	zkąd persname	-0.30103
-2.1663198	że persname	-0.30103
-1.2006439	skwapliwy persname	-0.30103
-1.8707086	mu persname	-0.30103
-1.9167411	wnet persname	-0.30103
-1.2006439	rzędu persname	-0.30103
-1.2006439	czysta persname	-0.30103
-1.2006439	wymówiła persname	-0.30103
-1.4671557	pewnemu persname	-0.30103
-1.2006439	mocny persname	-0.30103
-1.2006439	ust persname	-0.30103
-1.7754683	więc persname	-0.30103
-1.2006439	płaczącego persname	-0.30103
-1.7754683	swój persname	-0.30103
-1.4671557	pychę persname	-0.30103
-1.7064283	darmo persname	-0.30103
-2.7923503	persname światowe	-0.30103
-1.9821768	<s> na	-0.30103
-1.9793555	persname na	-0.30103
-1.9887282	i na	-0.30103
-1.5445269	mops na	-0.30103
-1.9428775	jak na	-0.30103
-1.4182439	*mopsa* na	-0.30103
-1.5445269	wierność na	-0.30103
-1.1734834	myśleć na	-0.30103
-1.8727113	go na	-0.30103
-1.4182439	psy na	-0.30103
-1.1734834	całuje na	-0.30103
-1.4182439	mięso na	-0.30103
-1.1734834	dba na	-0.30103
-1.6247866	nich na	-0.30103
-1.1734834	piekle na	-0.30103
-1.4182439	*mojżesz* na	-0.30103
-1.6247866	mi na	-0.30103
-1.1734834	przykazanie na	-0.30103
-1.1734834	młyn na	-0.30103
-1.4182439	domy na	-0.30103
-1.1734834	wodnik na	-0.30103
-1.1734834	strzelec na	-0.30103
-1.1734834	płaczesz na	-0.30103
-1.4182439	lasów na	-0.30103
-1.6811883	nic na	-0.30103
-1.1734834	dumy na	-0.30103
-1.6811883	geogname na	-0.30103
-1.1734834	spieszym na	-0.30103
-1.1734834	siadłego na	-0.30103
-1.4182439	sieci na	-0.30103
-1.1734834	udać na	-0.30103
-1.1734834	żywa na	-0.30103
-1.1734834	patrzy na	-0.30103
-1.1734834	zna na	-0.30103
-1.1734834	rządzie na	-0.30103
-1.8880268	na kompanią	-0.30103
-2.9820514	<s> dla	-0.30103
-2.4536397	persname dla	-0.30103
-1.6676897	mops dla	-0.30103
-1.7778615	niż dla	-0.30103
-1.6676897	dosyć dla	-0.30103
-1.2216997	osiadł dla	-0.30103
-1.2216997	zdrady dla	-0.30103
-1.2216997	posłał dla	-0.30103
-1.2216997	przysługą dla	-0.30103
-2.2159474	dla kawalerów	-0.30103
-1.9876554	<s> i	-0.30103
-1.6053429	persname i	-0.30103
-1.1579669	kawalerów i	-0.30103
-1.1579669	rozrzucić i	-0.30103
-1.8186315	miłość i	-0.30103
-1.5822803	gust i	-0.30103
-1.3913398	*jowisza* i	-0.30103
-1.1579669	mózg i	-0.30103
-1.3913398	orgname i	-0.30103
-1.5089073	minie i	-0.30103
-1.1579669	osty i	-0.30103
-1.3913398	ludzką i	-0.30103
-1.5089073	tobą i	-0.30103
-1.1579669	jelenią i	-0.30103
-1.1579669	pomsty i	-0.30103
-1.1579669	bestye i	-0.30103
-1.3913398	grzmotów i	-0.30103
-1.1579669	piorunie i	-0.30103
-1.3913398	czemuż i	-0.30103
-1.1579669	umrę i	-0.30103
-1.5089073	wodzie i	-0.30103
-1.3913398	strzela i	-0.30103
-1.1579669	parę i	-0.30103
-1.3913398	swoją i	-0.30103
-1.3913398	chłód i	-0.30103
-1.1579669	*zuzanno* i	-0.30103
-1.3913398	nieba i	-0.30103
-1.3913398	lasów i	-0.30103
-1.5822803	lasy i	-0.30103
-1.1579669	gustu i	-0.30103
-1.1579669	roślejsze i	-0.30103
-1.1579669	koncerty i	-0.30103
-1.1579669	chlebem i	-0.30103
-1.1579669	krzaczki i	-0.30103
-1.1579669	oddajże i	-0.30103
-1.5089073	trzyma i	-0.30103
-1.1579669	boginiom i	-0.30103
-1.1579669	chciałbym i	-0.30103
-1.1579669	przystęp i	-0.30103
-1.1579669	kaptura i	-0.30103
-1.1579669	straże i	-0.30103
-1.1579669	dzienne i	-0.30103
-1.1579669	chodzą i	-0.30103
-1.1579669	zażył i	-0.30103
-1.5346432	kompanią de	-0.30103
-1.2336302	de mops	-0.30103
-1.7018614	wierność mops	-0.30103
-2.4962225	to mops	-0.30103
-2.2159474	dla dam	-0.30103
-2.5042565	<s> za	-0.30103
-2.1893203	persname za	-0.30103
-2.2052133	i za	-0.30103
-1.8284607	by za	-0.30103
-1.6170352	co za	-0.30103
-2.125697	to za	-0.30103
-1.7064283	przecie za	-0.30103
-1.7064283	cóż za	-0.30103
-2.0509725	miłość za	-0.30103
-1.4671557	jeźli za	-0.30103
-2.0726526	gdy za	-0.30103
-1.2006439	zamianę za	-0.30103
-1.6112714	który za	-0.30103
-1.2006439	krytycznej za	-0.30103
-1.2006439	chwytając za	-0.30103
-1.2006439	jęczy za	-0.30103
-1.2006439	niosą za	-0.30103
-1.4671557	spyta za	-0.30103
-1.2006439	architekt za	-0.30103
-1.2006439	prowadzi za	-0.30103
-2.5712225	za mego	-0.30103
-1.2358729	mego wieku	-0.30103
-1.2358729	wieku dwie	-0.30103
-1.2348688	dwie kompanij	-0.30103
-1.2348688	order kompanij	-0.30103
-1.5346432	kompanij weszło	-0.30103
-1.8765043	<s> z	-0.30103
-1.6735141	persname z	-0.30103
-1.6776564	i z	-0.30103
-1.5470486	placename z	-0.30103
-1.5631372	już z	-0.30103
-1.2249386	się z	-0.30103
-1.6569165	jak z	-0.30103
-1.1084032	przywiózłszy z	-0.30103
-1.1084032	społeczności z	-0.30103
-1.692935	co z	-0.30103
-1.309667	bym z	-0.30103
-1.309667	wolę z	-0.30103
-1.1084032	ludziom z	-0.30103
-1.3447213	to z	-0.30103
-1.6856731	że z	-0.30103
-1.1084032	liga z	-0.30103
-1.1084032	wyklęty z	-0.30103
-1.6153218	go z	-0.30103
-1.1084032	żywcem z	-0.30103
-1.6096716	tak z	-0.30103
-1.4992378	chce z	-0.30103
-1.1084032	wojuje z	-0.30103
-1.1084032	owieczki z	-0.30103
-1.1084032	człowiek z	-0.30103
-1.1084032	czynić z	-0.30103
-1.1084032	rozstać z	-0.30103
-1.309667	przyjaźń z	-0.30103
-1.6324763	miłość z	-0.30103
-1.1084032	przestrzegam z	-0.30103
-1.1084032	przyniósłszy z	-0.30103
-1.1084032	siostry z	-0.30103
-1.309667	czas z	-0.30103
-1.6395229	gdy z	-0.30103
-1.309667	ażeby z	-0.30103
-1.1084032	spólnie z	-0.30103
-1.5833734	wnet z	-0.30103
-0.7874961	choć z	-0.30103
-1.1084032	strzałę z	-0.30103
-1.1084032	równo z	-0.30103
-1.4046834	być z	-0.30103
-1.1084032	widzieć z	-0.30103
-1.1084032	łuczny z	-0.30103
-1.1084032	jeleniem z	-0.30103
-1.309667	twarz z	-0.30103
-1.1084032	*akteonie* z	-0.30103
-1.1084032	igrać z	-0.30103
-1.4613277	rzecze z	-0.30103
-1.1084032	kawaler z	-0.30103
-1.309667	bohatyr z	-0.30103
-1.1084032	kogo z	-0.30103
-1.1084032	próżna z	-0.30103
-1.1084032	wynidziesz z	-0.30103
-1.1084032	dające z	-0.30103
-1.1084032	napój z	-0.30103
-1.1084032	otrzepują z	-0.30103
-1.1084032	tańcując z	-0.30103
-1.1084032	zabaw z	-0.30103
-1.1084032	wybiera z	-0.30103
-1.1084032	ser z	-0.30103
-1.1084032	masło z	-0.30103
-1.1084032	wychodzim z	-0.30103
-1.1084032	ludziach z	-0.30103
-1.1084032	wyprowadzić z	-0.30103
-1.1084032	częściami z	-0.30103
-1.1084032	biorąc z	-0.30103
-1.4046834	pani z	-0.30103
-1.1084032	dni z	-0.30103
-1.1084032	*geogname* z	-0.30103
-1.1084032	*wenerę* z	-0.30103
-1.1084032	*prokrydę* z	-0.30103
-1.1084032	przybył z	-0.30103
-1.1084032	przydał z	-0.30103
-0.51411223	wojnę z	-0.30103
-1.1084032	broń z	-0.30103
-1.1084032	uchodzi z	-0.30103
-3.0414715	z ostatnią	-0.30103
-1.2358729	ostatnią modą	-0.30103
-2.120493	i do	-0.30103
-1.1914003	modą do	-0.30103
-1.6774752	świat do	-0.30103
-1.7789494	się do	-0.30103
-1.5878648	kiedy do	-0.30103
-1.4502323	jarzmo do	-0.30103
-2.0317895	a do	-0.30103
-1.1914003	lot do	-0.30103
-1.1914003	występków do	-0.30103
-1.1914003	przytulić do	-0.30103
-1.1914003	mów do	-0.30103
-1.4502323	strzela do	-0.30103
-1.5878648	was do	-0.30103
-1.1914003	sercu do	-0.30103
-1.1914003	wszedłszy do	-0.30103
-1.4502323	pasterki do	-0.30103
-1.1914003	biegniemy do	-0.30103
-1.1914003	społem do	-0.30103
-1.4502323	zbłądzi do	-0.30103
-1.4502323	każda do	-0.30103
-1.1914003	kotek do	-0.30103
-1.4502323	bardziej do	-0.30103
-1.1914003	gotują do	-0.30103
-1.1914003	potrzebne do	-0.30103
-1.1914003	wprowadził do	-0.30103
-2.6564665	i placename	-0.30103
-2.1315157	z placename	-0.30103
-2.4725437	do placename	-0.30103
-2.2614262	w placename	-0.30103
-2.3971694	a placename	-0.30103
-2.8695128	<s> już	-0.30103
-2.4808602	że już	-0.30103
-2.3210099	gdy już	-0.30103
-1.5183824	strachu już	-0.30103
-2.17583	ta już	-0.30103
-1.8868897	tu już	-0.30103
-2.1233869	już tyle	-0.30103
-1.2348688	tyle czasów	-0.30103
-1.9985627	tych czasów	-0.30103
-1.5326478	czasów temu	-0.30103
-1.5326478	dobrze temu	-0.30103
-1.5346432	temu lichu	-0.30103
-1.2358729	lichu przeszło	-0.30103
-2.9183042	<s> czy	-0.30103
-1.6959761	psa czy	-0.30103
-1.52622	młody czy	-0.30103
-1.2316189	żebraka czy	-0.30103
-3.558361	<s> świat	-0.30103
-1.9785371	czy świat	-0.30103
-1.2316189	aniżeli świat	-0.30103
-1.2316189	hołduje świat	-0.30103
-2.5976086	do końca	-0.30103
-2.9856887	z bliskiego	-0.30103
-1.2348688	końca bliskiego	-0.30103
-1.8465203	persname się	-0.30103
-1.3770833	bliskiego się	-0.30103
-1.4425898	jak się	-0.30103
-1.1495802	przypyta się	-0.30103
-1.7369246	kto się	-0.30103
-1.6438904	by się	-0.30103
-1.8585156	co się	-0.30103
-1.6085228	chociaż się	-0.30103
-1.3770833	czym się	-0.30103
-1.8508873	że się	-0.30103
-1.4903121	nikt się	-0.30103
-1.7565138	tak się	-0.30103
-1.3770833	jakby się	-0.30103
-1.5603477	cóż się	-0.30103
-1.7246497	niech się	-0.30103
-1.1495802	niechaj się	-0.30103
-1.1495802	dać się	-0.30103
-1.3285998	gdy się	-0.30103
-1.1495802	kochającym się	-0.30103
-1.3770833	kocha się	-0.30103
-1.1495802	napiera się	-0.30103
-1.4903121	lub się	-0.30103
-1.3770833	żadnej się	-0.30103
-1.3770833	raz się	-0.30103
-1.4903121	skrada się	-0.30103
-1.3770833	mieni się	-0.30103
-1.1495802	okrywasz się	-0.30103
-1.1495802	chronić się	-0.30103
-1.1495802	bojącemu się	-0.30103
-1.3770833	piorunów się	-0.30103
-1.1495802	rozzuwa się	-0.30103
-1.1495802	kochającą się	-0.30103
-1.6085228	tu się	-0.30103
-1.1495802	przypatrz się	-0.30103
-1.1495802	dzikości się	-0.30103
-1.1495802	gaje się	-0.30103
-1.1495802	temi się	-0.30103
-1.3770833	strojem się	-0.30103
-1.1495802	napasły się	-0.30103
-1.1495802	sałaszu się	-0.30103
-1.1495802	odrzekłby się	-0.30103
-1.1495802	dzieli się	-0.30103
-1.3770833	wszystkich się	-0.30103
-1.1495802	bylem się	-0.30103
-1.5603477	darmo się	-0.30103
-1.1495802	snadno się	-0.30103
-1.1495802	staje się	-0.30103
-1.1495802	kryje się	-0.30103
-1.1495802	śmierci się	-0.30103
-2.8760984	się zniża	-0.30103
-3.2740486	<s> *franc-masson*	-0.30103
-1.5346432	*franc-masson* znaczy	-0.30103
-1.2348688	znaczy wolnego	-0.30103
-1.5326478	jarzmo wolnego	-0.30103
-2.7579544	persname mularza	-0.30103
-1.5326478	wolnego mularza	-0.30103
-2.2202764	<s> jak	-0.30103
-2.2469826	persname jak	-0.30103
-1.4776355	mularza jak	-0.30103
-1.9923494	ten jak	-0.30103
-1.6259458	miała jak	-0.30103
-1.4776355	*jowisza* jak	-0.30103
-1.1142395	wnet jak	-0.30103
-1.2062858	groźnym jak	-0.30103
-1.2062858	ach jak	-0.30103
-1.4776355	czystej jak	-0.30103
-1.2062858	znali jak	-0.30103
-1.2062858	upadnie jak	-0.30103
-1.2062858	wysechł jak	-0.30103
-1.2062858	łowczy jak	-0.30103
-1.4776355	pychę jak	-0.30103
-1.2062858	*junonę* jak	-0.30103
-1.2062858	*apolla* jak	-0.30103
-2.5835817	jak mur	-0.30103
-1.2358729	mur mocnego	-0.30103
-1.7106959	<s> w	-0.30103
-1.5260211	persname w	-0.30103
-1.2389039	czasów w	-0.30103
-1.3063571	się w	-0.30103
-1.5151917	jak w	-0.30103
-1.0625592	mocnego w	-0.30103
-1.5415162	nie w	-0.30103
-1.0625592	zachęca w	-0.30103
-1.2389039	mając w	-0.30103
-1.3404236	co w	-0.30103
-1.3182372	każdy w	-0.30103
-1.5305089	to w	-0.30103
-1.4153755	masz w	-0.30103
-0.98103803	że w	-0.30103
-1.431212	mu w	-0.30103
-1.3182372	czyni w	-0.30103
-1.0010575	często w	-0.30103
-1.2389039	przyjaźń w	-0.30103
-1.176259	miłość w	-0.30103
-1.4153755	bo w	-0.30103
-1.2389039	jeźli w	-0.30103
-1.3182372	miłości w	-0.30103
-1.4612597	ten w	-0.30103
-1.5036895	gdy w	-0.30103
-1.0625592	użytszym w	-0.30103
-1.0625592	jaka w	-0.30103
-1.364096	ale w	-0.30103
-1.431212	tej w	-0.30103
-1.364096	dopiero w	-0.30103
-1.0625592	śmierć w	-0.30103
-1.2389039	*akteon* w	-0.30103
-1.0625592	szukał w	-0.30103
-1.3182372	lub w	-0.30103
-1.0625592	napaść w	-0.30103
-1.0625592	strzałą w	-0.30103
-1.0625592	bozkiego w	-0.30103
-1.0625592	pełznie w	-0.30103
-1.0625592	bodziec w	-0.30103
-1.2389039	skutek w	-0.30103
-1.0625592	spojrzy w	-0.30103
-1.0625592	przemieniony w	-0.30103
-1.2389039	zmierza w	-0.30103
-1.3941318	jest w	-0.30103
-1.3182372	życzę w	-0.30103
-1.2389039	ludzie w	-0.30103
-1.0625592	pewna w	-0.30103
-1.0625592	sposób w	-0.30103
-1.0625592	sprawiedliwy w	-0.30103
-1.0625592	równe w	-0.30103
-1.2389039	czemu w	-0.30103
-1.4679098	ta w	-0.30103
-1.0625592	grzesznika w	-0.30103
-1.2389039	serca w	-0.30103
-1.0625592	winić w	-0.30103
-1.0625592	*wenery* w	-0.30103
-1.2389039	*kupido* w	-0.30103
-1.2389039	wysłużył w	-0.30103
-1.2389039	byle w	-0.30103
-1.3182372	szczęścia w	-0.30103
-1.0625592	miłego w	-0.30103
-1.2389039	życia w	-0.30103
-1.0625592	uchodzę w	-0.30103
-1.0625592	szeptać w	-0.30103
-1.3941318	geogname w	-0.30103
-1.0625592	kwieciu w	-0.30103
-1.0625592	kwiaty w	-0.30103
-1.2389039	bogini w	-0.30103
-1.0625592	wszystkie w	-0.30103
-1.0625592	popchnie w	-0.30103
-1.0625592	igramy w	-0.30103
-1.0625592	wiór w	-0.30103
-1.0625592	złapanego w	-0.30103
-1.4532678	widzi w	-0.30103
-1.0625592	jakieś w	-0.30103
-1.0625592	bobrowy w	-0.30103
-1.2389039	nos w	-0.30103
-1.0625592	wynosi w	-0.30103
-1.0625592	wchodzi w	-0.30103
-1.0625592	stawia w	-0.30103
-1.0625592	*belloną* w	-0.30103
-1.2389039	wszystko w	-0.30103
-1.0625592	mąż w	-0.30103
-1.2389039	spyta w	-0.30103
-1.2389039	różność w	-0.30103
-1.0625592	białości w	-0.30103
-1.0625592	żyłkach w	-0.30103
-1.0625592	glansie w	-0.30103
-1.0625592	kształt w	-0.30103
-1.0625592	odpowiedź w	-0.30103
-1.0625592	chęcią w	-0.30103
-1.0625592	defekt w	-0.30103
-1.0625592	potykasz w	-0.30103
-1.0625592	ufasz w	-0.30103
-1.0625592	orężu w	-0.30103
-1.0625592	uciekaj w	-0.30103
-1.0625592	puszcze w	-0.30103
-1.0625592	którego w	-0.30103
-1.0625592	wzięła w	-0.30103
-1.0625592	zmieni w	-0.30103
-1.0625592	forteca w	-0.30103
-1.0625592	zapuści w	-0.30103
-1.0625592	krzemień w	-0.30103
-1.0625592	rozgorzałem w	-0.30103
-1.2389039	rada w	-0.30103
-1.0625592	niepoznana w	-0.30103
-1.0625592	odmienił w	-0.30103
-1.0625592	wpadnie w	-0.30103
-2.3287027	w sekcie	-0.30103
-1.5346432	sekcie sekretarza	-0.30103
-1.6560444	<s> nie	-0.30103
-1.8717632	persname nie	-0.30103
-1.867272	za nie	-0.30103
-1.5733738	świat nie	-0.30103
-1.6598634	się nie	-0.30103
-1.8520509	to nie	-0.30103
-1.1545928	przyzna nie	-0.30103
-1.8747259	że nie	-0.30103
-1.5013734	nikt nie	-0.30103
-1.7854912	go nie	-0.30103
-1.6879234	mu nie	-0.30103
-1.6458163	jeszcze nie	-0.30103
-1.3855809	drugiego nie	-0.30103
-1.1545928	miejsca nie	-0.30103
-1.6879234	tej nie	-0.30103
-1.8284029	a nie	-0.30103
-1.3855809	patrząc nie	-0.30103
-1.1545928	mocno nie	-0.30103
-1.1545928	trawie nie	-0.30103
-1.623103	więcej nie	-0.30103
-1.1545928	nagości nie	-0.30103
-1.1545928	byś nie	-0.30103
-1.7066737	po nie	-0.30103
-1.3855809	ty nie	-0.30103
-1.1545928	głowie nie	-0.30103
-1.1545928	tarczą nie	-0.30103
-1.1545928	ciebie nie	-0.30103
-1.3855809	oczom nie	-0.30103
-1.1545928	*rachel* nie	-0.30103
-1.1545928	goryczy nie	-0.30103
-1.1545928	*cyceronach* nie	-0.30103
-1.1545928	upał nie	-0.30103
-1.1545928	wyprzedzić nie	-0.30103
-1.1545928	korony nie	-0.30103
-1.1545928	pijąc nie	-0.30103
-1.6597304	jej nie	-0.30103
-1.1545928	słońce nie	-0.30103
-1.1545928	żadna nie	-0.30103
-1.1545928	podjadszy nie	-0.30103
-1.1545928	kot nie	-0.30103
-1.3855809	naturze nie	-0.30103
-1.1545928	przedać nie	-0.30103
-1.1545928	błazna nie	-0.30103
-1.1545928	tryumf nie	-0.30103
-1.1545928	sztuką nie	-0.30103
-1.1545928	nigdy nie	-0.30103
-3.7940273	<s> wiem	-0.30103
-2.903189	nie wiem	-0.30103
-1.8311889	wiem zkąd	-0.30103
-2.7923503	persname jakaś	-0.30103
-1.2358729	jakaś zaszła	-0.30103
-1.2358729	zaszła modna	-0.30103
-3.902777	<s> przywiózłszy	-0.30103
-1.8519975	z sobą	-0.30103
-2.1652868	nad sobą	-0.30103
-1.5326478	kompanij *mopsa*	-0.30103
-1.827248	sobą *mopsa*	-0.30103
-2.8107011	na obróżce	-0.30103
-3.902777	<s> znać	-0.30103
-1.2358729	znać społeczności	-0.30103
-2.1800387	z ludźmi	-0.30103
-1.5326478	ludźmi będąc	-0.30103
-1.5326478	kościoła będąc	-0.30103
-1.5346432	będąc głodna	-0.30103
-3.902777	<s> kładzie	-0.30103
-2.8932238	<s> przy	-0.30103
-1.2296168	kładzie przy	-0.30103
-1.2296168	kładziesz przy	-0.30103
-1.5222836	widząc przy	-0.30103
-1.8070551	ma przy	-0.30103
-1.0759835	przy sobie	-0.30103
-1.4018347	o sobie	-0.30103
-1.2316189	usiędziem sobie	-0.30103
-1.2316189	głowy sobie	-0.30103
-2.7188647	persname wierność	-0.30103
-2.5290117	za wierność	-0.30103
-1.9898885	sobie wierność	-0.30103
-2.8107011	na poduszce	-0.30103
-3.902777	<s> zachęca	-0.30103
-3.1424172	w order	-0.30103
-3.7940273	<s> mając	-0.30103
-2.903189	nie mając	-0.30103
-1.5346432	mając człeka	-0.30103
-1.2358729	człeka przypyta	-0.30103
-2.5487463	do psa	-0.30103
-1.7018614	wierność psa	-0.30103
-1.2336302	myśliła psa	-0.30103
-2.7858202	<s> kto	-0.30103
-2.0819542	niech kto	-0.30103
-1.9160323	bo kto	-0.30103
-2.0819542	ten kto	-0.30103
-1.7708597	lecz kto	-0.30103
-1.2197428	grzechu kto	-0.30103
-1.7708597	rzecze kto	-0.30103
-1.8520353	więc kto	-0.30103
-1.662247	żeby kto	-0.30103
-1.2197428	myślę kto	-0.30103
-3.3767788	<s> by	-0.30103
-2.17583	kto by	-0.30103
-2.4922886	co by	-0.30103
-1.9566872	której by	-0.30103
-1.5183824	bok by	-0.30103
-1.5183824	bobra by	-0.30103
-2.0028417	by mię	-0.30103
-1.2358729	mię spytał	-0.30103
-2.3847766	<s> co	-0.30103
-2.1524262	i co	-0.30103
-2.1025968	za co	-0.30103
-2.1800625	się co	-0.30103
-1.688826	wiem co	-0.30103
-1.1950742	spytał co	-0.30103
-1.9344156	*persname* co	-0.30103
-1.4938904	to co	-0.30103
-1.8052975	masz co	-0.30103
-0.98919064	tych co	-0.30103
-1.9279674	ten co	-0.30103
-1.8452468	tej co	-0.30103
-1.1950742	pozna co	-0.30103
-1.1950742	ledwie co	-0.30103
-1.688826	zaś co	-0.30103
-1.4569227	owce co	-0.30103
-1.1950742	ledwo co	-0.30103
-1.1950742	*dafny* co	-0.30103
-1.1950742	małżeństwem co	-0.30103
-1.1950742	żonę co	-0.30103
-1.1950742	jednemu co	-0.30103
-1.1950742	potępi co	-0.30103
-1.1950742	purpury co	-0.30103
-2.633495	co bym	-0.30103
-1.827248	lecz bym	-0.30103
-2.9856887	z dwojga	-0.30103
-1.827248	między dwojga	-0.30103
-2.5518436	za tego	-0.30103
-1.5326478	dwojga tego	-0.30103
-3.902777	<s> obrać	-0.30103
-1.2358729	obrać myśliła	-0.30103
-3.2491202	<s> *persname*	-0.30103
-1.9358842	czy *persname*	-0.30103
-2.5440743	się *persname*	-0.30103
-2.1113617	od *persname*	-0.30103
-1.5106839	równy *persname*	-0.30103
-1.6732014	u *persname*	-0.30103
-1.2236655	*kastor* *persname*	-0.30103
-1.5106839	czystej *persname*	-0.30103
-3.7940273	<s> wolę	-0.30103
-2.5178678	to wolę	-0.30103
-3.6888611	<s> człowieka	-0.30103
-2.925334	z człowieka	-0.30103
-1.5301924	wolę człowieka	-0.30103
-1.7084866	człowieka zawsze	-0.30103
-3.458148	<s> chociaż	-0.30103
-2.6564665	i chociaż	-0.30103
-1.2296168	zawsze chociaż	-0.30103
-1.2296168	zagniewany chociaż	-0.30103
-1.2296168	bezpieczne chociaż	-0.30103
-1.925874	chociaż złego	-0.30103
-3.2740486	<s> wszak	-0.30103
-1.5346432	wszak ludziom	-0.30103
-1.5346432	ludźmi żyć	-0.30103
-1.2358729	żyć rzecz	-0.30103
-1.2358729	rzecz przyrodzona	-0.30103
-3.245925	<s> każdy	-0.30103
-1.5326478	nami każdy	-0.30103
-2.737195	<s> to	-0.30103
-2.1893203	persname to	-0.30103
-1.7535336	na to	-0.30103
-2.1453762	za to	-0.30103
-1.8284607	czy to	-0.30103
-2.2323835	się to	-0.30103
-2.1751866	co to	-0.30103
-1.6112714	każdy to	-0.30103
-1.7064283	cóż to	-0.30103
-1.4671557	twój to	-0.30103
-1.2006439	byłoby to	-0.30103
-1.4671557	orgname to	-0.30103
-1.7064283	są to	-0.30103
-2.0509725	o to	-0.30103
-1.7064283	mi to	-0.30103
-1.7209145	sam to	-0.30103
-1.2006439	wysoko to	-0.30103
-1.8284607	jej to	-0.30103
-1.2006439	smak to	-0.30103
-1.4671557	czuje to	-0.30103
-2.5361922	to przyzna	-0.30103
-3.558361	<s> masz	-0.30103
-1.7259578	nie masz	-0.30103
-1.52622	otoż masz	-0.30103
-1.9785371	jej masz	-0.30103
-2.0028417	masz myśleć	-0.30103
-2.7759874	na czym	-0.30103
-2.8228412	i czym	-0.30103
-2.1084726	<s> że	-0.30103
-1.7064283	wiem że	-0.30103
-2.125697	to że	-0.30103
-2.015145	tak że	-0.30103
-1.7064283	ale że	-0.30103
-1.2006439	rzekłabym że	-0.30103
-1.2006439	wie że	-0.30103
-1.9167411	oczy że	-0.30103
-1.6112714	dosyć że	-0.30103
-1.2006439	czując że	-0.30103
-1.4671557	piorunów że	-0.30103
-1.2006439	chyba że	-0.30103
-1.6112714	mleka że	-0.30103
-1.2006439	zapomniał że	-0.30103
-1.2006439	wszyscy że	-0.30103
-1.2006439	winien że	-0.30103
-1.2006439	skulptor że	-0.30103
-1.2006439	sądząc że	-0.30103
-1.2006439	przyrzeka że	-0.30103
-1.2006439	uznasz że	-0.30103
-2.6433318	że głupia	-0.30103
-1.2358729	głupia liga	-0.30103
-3.0414715	z rodzajem	-0.30103
-1.2358729	rodzajem sobaczym	-0.30103
-1.925874	chociaż *persname	-0.30103
-1.2358729	*persname masson*	-0.30103
-1.2358729	masson* wyklęty	-0.30103
-3.0414715	z ambony	-0.30103
-3.2134838	<s> przecie	-0.30103
-1.2336302	mija przecie	-0.30103
-1.2336302	chwali przecie	-0.30103
-2.5712225	za upór	-0.30103
-1.2348688	upór jego	-0.30103
-1.5326478	dom jego	-0.30103
-1.5301924	jego nikt	-0.30103
-1.2336302	zostaje nikt	-0.30103
-1.2336302	władzy nikt	-0.30103
-2.9510288	nie ręczy	-0.30103
-2.3220878	jak od	-0.30103
-2.3656592	że od	-0.30103
-1.5031195	żadnej od	-0.30103
-1.2197428	zabicia od	-0.30103
-1.2197428	pasterskim od	-0.30103
-1.2197428	potrzeba od	-0.30103
-1.2197428	posiane od	-0.30103
-1.2197428	miły od	-0.30103
-1.5031195	sieci od	-0.30103
-1.2197428	uciekającego od	-0.30103
-2.2064507	od kościoła	-0.30103
-1.2348688	*szaweł* kościoła	-0.30103
-1.5346432	będąc odrzucony	-0.30103
-1.988549	już go	-0.30103
-1.8970482	by go	-0.30103
-1.3501579	co go	-0.30103
-1.4956845	bym go	-0.30103
-2.3178017	że go	-0.30103
-1.8356038	chce go	-0.30103
-1.6515619	czyni go	-0.30103
-1.996588	często go	-0.30103
-1.8970482	ci go	-0.30103
-1.4956845	któż go	-0.30103
-1.4956845	teraz go	-0.30103
-1.4956845	*echo* go	-0.30103
-2.3535047	go czart	-0.30103
-1.2358729	czart żywcem	-0.30103
-3.0414715	z potępionym	-0.30103
-1.2358729	potępionym dręczy	-0.30103
-2.9005067	<s> tak	-0.30103
-2.3887365	i tak	-0.30103
-2.4137723	się tak	-0.30103
-2.4846666	w tak	-0.30103
-2.4229743	nie tak	-0.30103
-1.6515619	każdy tak	-0.30103
-1.2158552	bliźniego tak	-0.30103
-1.2158552	sercem tak	-0.30103
-1.4956845	otoż tak	-0.30103
-1.4956845	byle tak	-0.30103
-1.2158552	swoim tak	-0.30103
-1.2158552	zdobi tak	-0.30103
-2.323447	tak skwapliwy	-0.30103
-2.8107011	na kary	-0.30103
-1.2348688	kary nasze	-0.30103
-1.5326478	dobrze nasze	-0.30103
-2.5835817	jak fartuch	-0.30103
-1.2358729	fartuch odpasze	-0.30103
-3.902777	<s> *szaweł*	-0.30103
-1.5346432	kościoła prześladowca	-0.30103
-1.2358729	prześladowca główny	-0.30103
-3.1653104	<s> chce	-0.30103
-2.6618502	persname chce	-0.30103
-2.2126417	kto chce	-0.30103
-1.2316189	przetakiem chce	-0.30103
-2.3535047	go rozrzucić	-0.30103
-2.5976086	do szczętu	-0.30103
-1.2358729	szczętu zburzyć	-0.30103
-3.902777	<s> wojuje	-0.30103
-3.7940273	<s> jakby	-0.30103
-2.7579544	persname jakby	-0.30103
-2.4922886	co mu	-0.30103
-1.5183824	jakby mu	-0.30103
-1.7995707	cóż mu	-0.30103
-1.9566872	bo mu	-0.30103
-1.2276239	mówiąc mu	-0.30103
-1.5183824	była mu	-0.30103
-2.0608163	mu był	-0.30103
-2.4174588	gdy był	-0.30103
-1.5326478	był równy	-0.30103
-1.5326478	teraz równy	-0.30103
-3.2134838	<s> myśli	-0.30103
-2.9996076	w myśli	-0.30103
-2.8504894	nie myśli	-0.30103
-1.8311889	myśli owieczki	-0.30103
-2.9856887	z owczarnie	-0.30103
-1.2348688	cudzej owczarnie	-0.30103
-1.5346432	owczarnie wykurzyć	-0.30103
-2.9621005	<s> cóż	-0.30103
-1.5326478	wzdycha cóż	-0.30103
-3.0414715	z dobroci	-0.30103
-1.2358729	dobroci dowodów	-0.30103
-3.6888611	<s> czyni	-0.30103
-1.2336302	szkodę czyni	-0.30103
-1.2336302	dziury czyni	-0.30103
-3.1653104	<s> jeszcze	-0.30103
-2.3007894	go jeszcze	-0.30103
-1.2316189	lepiej jeszcze	-0.30103
-1.2316189	ostrożnych jeszcze	-0.30103
-1.9269738	jeszcze doktorem	-0.30103
-1.2358729	doktorem narodów	-0.30103
-2.4427438	<s> niech	-0.30103
-2.2524824	tak niech	-0.30103
-1.6901695	was niech	-0.30103
-1.2296168	pożycie niech	-0.30103
-1.5222836	naszej niech	-0.30103
-2.2064507	niech będzie	-0.30103
-2.2447975	ta będzie	-0.30103
-1.5346432	będzie zmiennik	-0.30103
-1.2358729	zmiennik apostata	-0.30103
-1.827248	przecie on	-0.30103
-1.2348688	przywiózł on	-0.30103
-1.5346432	on człowiek	-0.30103
-3.0414715	z nieśmiertelną	-0.30103
-1.2358729	nieśmiertelną duszą	-0.30103
-3.902777	<s> niechaj	-0.30103
-2.7923503	persname pobrata	-0.30103
-2.4603713	<s> często	-0.30103
-1.5301924	bieżąc często	-0.30103
-1.5301924	ognia często	-0.30103
-2.3405216	go mocne	-0.30103
-1.2348688	czynią mocne	-0.30103
-1.5346432	mocne skrupuły	-0.30103
-1.2358729	skrupuły ususzą	-0.30103
-1.827248	myśli nieborak	-0.30103
-1.2348688	liznął nieborak	-0.30103
-1.5346432	nieborak kontrakt	-0.30103
-1.2358729	kontrakt czynić	-0.30103
-3.0414715	z jutrem	-0.30103
-2.8760984	się rozstać	-0.30103
-1.5326478	*franc-masson* przyjaźń	-0.30103
-1.2348688	lepszaż przyjaźń	-0.30103
-1.5346432	sekcie zachowuje	-0.30103
-2.8535724	<s> miłość	-0.30103
-2.3350925	i miłość	-0.30103
-2.360847	się miłość	-0.30103
-1.8788595	by miłość	-0.30103
-1.4883747	wszak miłość	-0.30103
-1.6411334	znajdzie miłość	-0.30103
-1.4883747	szczera miłość	-0.30103
-1.4883747	tę miłość	-0.30103
-1.8788595	nim miłość	-0.30103
-1.2120022	pary miłość	-0.30103
-1.2120022	amorotów miłość	-0.30103
-1.2120022	pójdzie miłość	-0.30103
-1.2120022	bywa miłość	-0.30103
-1.2120022	rozgrzeje miłość	-0.30103
-2.382398	miłość świadczy	-0.30103
-3.0130312	<s> nad	-0.30103
-2.5212367	i nad	-0.30103
-1.9358842	by nad	-0.30103
-1.2236655	świadczy nad	-0.30103
-1.2236655	tyraństwa nad	-0.30103
-1.869113	siebie nad	-0.30103
-1.2236655	miejsce nad	-0.30103
-1.2236655	którą nad	-0.30103
-3.6888611	<s> swym	-0.30103
-2.155413	nad swym	-0.30103
-1.5301924	*echo* swym	-0.30103
-1.7084866	swym towarzyszem	-0.30103
-3.902777	<s> wspomódz	-0.30103
-1.2358729	wspomódz bliźniego	-0.30103
-2.8760984	się obliguje	-0.30103
-3.902777	<s> jeden	-0.30103
-1.2348688	jeden drugiego	-0.30103
-1.2348688	spali drugiego	-0.30103
-2.9510288	nie cierpieć	-0.30103
-1.2358729	cierpieć hołyszem	-0.30103
-2.9510288	nie lepszaż	-0.30103
-3.7940273	<s> takim	-0.30103
-2.9856887	z takim	-0.30103
-1.5346432	takim kameratem	-0.30103
-3.2134838	<s> niż	-0.30103
-1.7018614	my niż	-0.30103
-1.5301924	bardziej niż	-0.30103
-2.2159474	dla wierności	-0.30103
-1.2358729	wierności dać	-0.30103
-2.837397	się zwać	-0.30103
-1.2348688	porze zwać	-0.30103
-1.5346432	zwać psu	-0.30103
-2.9856887	z bratem	-0.30103
-1.2348688	psu bratem	-0.30103
-2.4659255	<s> bo	-0.30103
-2.837397	się bo	-0.30103
-2.3034835	w tem	-0.30103
-2.3529506	o tem	-0.30103
-1.0772886	po tem	-0.30103
-1.925874	tem stworzeniu	-0.30103
-3.458148	<s> ni	-0.30103
-1.2296168	stworzeniu ni	-0.30103
-1.2296168	dusza ni	-0.30103
-1.2296168	znam ni	-0.30103
-1.2296168	glansu ni	-0.30103
-1.925874	ni dusza	-0.30103
-1.925874	ni sekta	-0.30103
-3.902777	<s> miejsca	-0.30103
-2.8504894	nie znajdzie	-0.30103
-1.9149984	więcej znajdzie	-0.30103
-1.2336302	jaskiniach znajdzie	-0.30103
-1.7084866	znajdzie podły	-0.30103
-2.7310946	się gust	-0.30103
-1.2316189	podły gust	-0.30103
-1.8146708	chcąc gust	-0.30103
-1.2316189	bobrem gust	-0.30103
-1.8311889	gust niewieści	-0.30103
-3.6888611	<s> u	-0.30103
-1.2336302	wezgłowiu u	-0.30103
-1.7018614	trzody u	-0.30103
-3.3767788	<s> której	-0.30103
-2.7119765	z której	-0.30103
-2.282085	miłość której	-0.30103
-1.6844395	u której	-0.30103
-1.2276239	krówce której	-0.30103
-1.2276239	naturalny której	-0.30103
-1.9970032	której takie	-0.30103
-1.2348688	psują takie	-0.30103
-1.5326478	takie psy	-0.30103
-1.5326478	ręką psy	-0.30103
-3.6888611	<s> mają	-0.30103
-1.5301924	psy mają	-0.30103
-1.2336302	ukarać mają	-0.30103
-1.7084866	mają respekta	-0.30103
-2.3535047	go całuje	-0.30103
-2.8107011	na kolanach	-0.30103
-1.2358729	kolanach pieści	-0.30103
-3.3767788	<s> tych	-0.30103
-2.6065633	i tych	-0.30103
-2.7119765	z tych	-0.30103
-2.018971	przy tych	-0.30103
-2.17583	kto tych	-0.30103
-2.282085	o tych	-0.30103
-2.0039358	tych karessach	-0.30103
-1.2358729	karessach smrodliwie	-0.30103
-1.2358729	smrodliwie oddycha	-0.30103
-1.7055123	mops młody	-0.30103
-1.2348688	jarzynie młody	-0.30103
-2.7579544	persname stara	-0.30103
-1.9970032	czy stara	-0.30103
-1.5346432	stara mopsicha	-0.30103
-3.7940273	<s> jeźli	-0.30103
-1.5326478	sztuki jeźli	-0.30103
-1.7084866	psa kładziesz	-0.30103
-2.8107011	na aksamitnem	-0.30103
-1.2358729	aksamitnem wezgłowiu	-0.30103
-1.7084866	u łóżka	-0.30103
-3.6888611	<s> ja	-0.30103
-1.5301924	czemuż ja	-0.30103
-1.8224225	rzecze ja	-0.30103
-2.5151613	że cię	-0.30103
-2.1595812	niech cię	-0.30103
-1.6901695	swym cię	-0.30103
-1.6901695	ja cię	-0.30103
-1.2296168	synem cię	-0.30103
-1.925874	cię przestrzegam	-0.30103
-3.0414715	z affektu	-0.30103
-1.2316189	affektu ku	-0.30103
-1.2316189	lancą ku	-0.30103
-1.52622	bieży ku	-0.30103
-1.2316189	zbliżając ku	-0.30103
-2.7776787	i tobie	-0.30103
-2.9996076	w tobie	-0.30103
-1.8224225	ku tobie	-0.30103
-2.620177	że śmiele	-0.30103
-1.5326478	nos śmiele	-0.30103
-1.5346432	śmiele przyjdzie	-0.30103
-2.903189	nie twój	-0.30103
-1.2348688	przyjdzie twój	-0.30103
-1.5346432	twój domowy	-0.30103
-1.2358729	domowy służka	-0.30103
