\data\
ngram 1=4309
ngram 2=9808
ngram 3=9773
ngram 4=8405
ngram 5=6991
ngram 6=5572

\1-grams:
-4.033402	<unk>	0
0	<s>	-0.75518286
-0.87452906	</s>	0
-2.3648615	persname	-0.075001486
-3.925214	83	-0.038222298
-3.925214	288	-0.038222298
-3.925214	2857	-0.038222298
-3.925214	5	-0.038222298
-3.6229422	rapsod	-0.038222298
-1.6292169	i	-0.08992049
-2.9771905	pieśń	-0.056963705
-3.925214	cierpienia	-0.038222298
-2.7526093	moje	-0.038222298
-3.2642922	męki	-0.038222298
-3.780418	serdeczne	-0.038222298
-3.925214	ciągłą	-0.038222298
-3.925214	walkę	-0.038222298
-1.9372091	z	-0.070048384
-3.925214	szatanów	-0.038222298
-3.925214	gromadą	-0.038222298
-3.6229422	ich	-0.038222298
-3.925214	bronie	-0.038222298
-3.4682386	jasne	-0.113108486
-3.925214	tarcze	-0.038222298
-3.780418	słoneczne	-0.038222298
-3.925214	jamy	-0.038222298
-3.925214	wężową	-0.038222298
-3.925214	napełnione	-0.038222298
-3.925214	zdradą	-0.038222298
-3.925214	powiem	-0.038222298
-3.6229422	wyroki	-0.038222298
-3.925214	wypełniając	-0.038222298
-3.925214	wieczne	-0.038222298
-3.0705764	które	-0.038222298
-2.4558196	to	-0.06283195
-1.8352225	na	-0.116298616
-2.8351254	mnie	-0.08315074
-3.780418	dzisiaj	-0.038222298
-3.925214	brzemię	-0.038222298
-3.925214	kładą	-0.038222298
-3.925214	wyśpiewał	-0.038222298
-3.6229422	rzeczy	-0.038222298
-3.925214	przeminięte	-0.038222298
-3.4682386	wielkie	-0.038222298
-2.9370866	duchów	-0.038222298
-3.925214	świętych	-0.038222298
-3.925214	wojny	-0.038222298
-3.780418	święte	-0.038222298
-3.780418	ii	-0.2036545
-2.683296	ja	-0.06245928
-3.780418	leżałem	-0.038222298
-3.925214	stosie	-0.038222298
-3.925214	trupem	-0.038222298
-2.7784111	przy	-0.071861744
-3.1260686	niebios	-0.038222298
-3.780418	jasnej	-0.2036545
-3.780418	błyskawicy	-0.038222298
-3.0705764	geogname	-0.050352845
-1.6564499	w	-0.09183545
-3.354402	piorunów	-0.097062565
-1.8698995	się	-0.08294971
-3.4682386	ciągłym	-0.038222298
-3.925214	rozgłosie	-0.038222298
-3.925214	odzywał	-0.038222298
-2.385878	do	-0.08475245
-3.780418	ech	-0.038222298
-3.4682386	ciemnej	-0.113108486
-3.780418	okolicy	-0.2036545
-3.2642922	niebo	-0.038222298
-3.925214	sczerniało	-0.038222298
-3.0705764	ale	-0.038222298
-3.780418	świeciło	-0.038222298
-3.925214	grzmotami	-0.038222298
-1.9372091	jak	-0.11309762
-3.780418	wid	-0.038222298
-3.925214	szatańskiej	-0.038222298
-3.925214	stolicy	-0.038222298
-2.2485657	a	-0.09617389
-3.780418	świecący	-0.038222298
-2.7526093	od	-0.06819549
-3.925214	ciągłego	-0.038222298
-3.925214	grzmota	-0.038222298
-3.925214	zbroja	-0.038222298
-2.8351254	była	-0.0740533
-3.2642922	złota	-0.33581713
-3.780418	iii	-0.2036545
-2.7784111	duch	-0.05994096
-3.925214	niewyszły	-0.038222298
-3.780418	umarłego	-0.038222298
-2.9370866	ciała	-0.109833375
-3.354402	czuł	-0.038222298
-3.780418	jakąś	-0.038222298
-3.925214	dumę	-0.038222298
-2.3073018	że	-0.0904649
-3.780418	spokojnie	-0.038222298
-3.6229422	leży	-0.1412439
-2.5878272	nad	-0.071861744
-3.1897044	nim	-0.038222298
-3.4682386	ziemia	-0.038222298
-3.925214	poruszona	-0.038222298
-3.925214	grzmiała	-0.038222298
-3.925214	unosiły	-0.038222298
-2.9370866	duchy	-0.082759336
-3.780418	rycerzy	-0.2036545
-3.925214	trójca	-0.038222298
-3.925214	widm	-0.038222298
-2.7784111	mój	-0.16247183
-3.6229422	stos	-0.038222298
-3.354402	ogniem	-0.038222298
-3.925214	zapalała	-0.038222298
-3.925214	czekałem	-0.038222298
-3.1897044	aż	-0.059920155
-3.1897044	piorun	-0.06992293
-3.925214	uderzy	-0.038222298
-2.6425579	tak	-0.07150053
-3.2642922	byłem	-0.038222298
-3.925214	pewny	-0.038222298
-3.4682386	owe	-0.038222298
-3.925214	rumiane	-0.038222298
-3.6229422	grzmotem	-0.1412439
-3.1897044	powietrze	-0.038222298
-3.925214	zmartwychwstanę	-0.038222298
-3.925214	iv	-0.038222298
-2.7282548	już	-0.048534177
-3.925214	przybliżały	-0.038222298
-3.0705764	straszne	-0.038222298
-3.925214	czarownice	-0.038222298
-3.780418	chwast	-0.038222298
-3.780418	zapalony	-0.038222298
-3.6229422	suche	-0.038222298
-3.780418	piołuny	-0.2036545
-3.6229422	blade	-0.038222298
-3.925214	oświeciwszy	-0.038222298
-3.1260686	lice	-0.46075583
-3.925214	wrzeszcząc	-0.038222298
-3.925214	posępne	-0.038222298
-3.0213783	swe	-0.0666467
-3.6229422	śpiewały	-0.038222298
-3.780418	runy	-0.2036545
-3.0213783	kiedy	-0.059920155
-3.0705764	je	-0.038222272
-3.925214	trzasły	-0.038222298
-3.780418	trzy	-0.038222298
-3.925214	błyskawice	-0.038222298
-3.925214	siarczane	-0.038222298
-3.4682386	ogniste	-0.038222298
-3.6229422	pioruny	-0.038222298
-3.925214	strzaskały	-0.038222298
-3.6229422	płomienie	-0.038222298
-3.2642922	czerwone	-0.11533918
-2.1831205	nie	-0.05272906
-3.6229422	martwe	-0.038222298
-3.6229422	sądził	-0.038222298
-2.7784111	lecz	-0.0493698
-3.780418	zniknione	-0.2036545
-3.925214	v	-0.038222298
-2.900375	wtenczas	-0.053783435
-3.1897044	dusza	-0.038222298
-3.925214	wystąpiła	-0.038222298
-2.9771905	ze	-0.09137158
-2.5096095	o	-0.051211935
-3.354402	ciało	-0.038222298
-3.925214	utroskana	-0.038222298
-2.6053154	za	-0.07913299
-3.6229422	ciałem	-0.038222298
-3.925214	płacząca	-0.038222298
-3.925214	daremnie	-0.038222298
-3.780418	cała	-0.038222298
-3.925214	poddana	-0.038222298
-2.6624494	pod	-0.06597877
-3.6229422	pana	-0.20917091
-3.925214	styksie	-0.038222298
-2.805843	placename	-0.048161674
-3.925214	wodzie	-0.038222298
-3.1260686	albo	-0.06992293
-3.925214	niemnie	-0.038222298
-3.925214	gotowa	-0.038222298
-3.925214	tracić	-0.038222298
-3.925214	ludzkich	-0.038222298
-3.925214	miana	-0.038222298
-3.925214	poszła	-0.038222298
-3.780418	wiedzą	-0.038222298
-2.8351254	tylko	-0.038222298
-3.925214	wniebowzięci	-0.038222298
-3.780418	czym	-0.038222298
-2.9370866	jest	-0.059920155
-3.0705764	moc	-0.038222298
-3.780418	czucia	-0.038222298
-3.925214	strata	-0.038222298
-3.2642922	pamięci	-0.10344814
-3.925214	vi	-0.038222298
-2.866526	tam	-0.038222298
-3.780418	kędy	-0.038222298
-3.6229422	dusze	-0.038222298
-3.925214	brylanty	-0.038222298
-3.780418	dobrowolne	-0.038222298
-3.925214	czyniły	-0.038222298
-3.925214	wybory	-0.038222298
-3.925214	utrudzona	-0.038222298
-3.4682386	biegiem	-0.038222298
-3.6229422	orgname	-0.038222298
-3.925214	szczęścia	-0.038222298
-3.925214	pokory	-0.038222298
-3.2642922	między	-0.038222298
-3.6229422	ptaki	-0.038222298
-3.925214	muzykanty	-0.038222298
-3.1897044	szedł	-0.038222298
-3.925214	umęczony	-0.038222298
-3.780418	sercu	-0.038222298
-3.925214	chory	-0.038222298
-3.6229422	jam	-0.0617782
-3.925214	pomyślał	-0.038222298
-3.354402	mu	-0.038222298
-3.780418	śpiewem	-0.038222298
-3.4682386	będzie	-0.038222298
-3.925214	składać	-0.038222298
-3.1260686	skrzydła	-0.09137158
-3.925214	rozszerzać	-0.038222298
-3.925214	łabędzie	-0.038222298
-3.925214	vii	-0.038222298
-3.6229422	poszedł	-0.113108486
-3.925214	prostego	-0.038222298
-3.925214	oracza	-0.038222298
-3.925214	aby	-0.038222298
-3.925214	odpocząć	-0.038222298
-2.7282548	po	-0.05091233
-3.354402	swych	-0.038222298
-3.925214	wędrowaniach	-0.038222298
-3.780418	ludziom	-0.038222298
-3.354402	pan	-0.25663584
-3.925214	zmęczonym	-0.038222298
-3.925214	wybacza	-0.038222298
-3.925214	odpoczywać	-0.038222298
-3.780418	daje	-0.038222298
-3.925214	zmartwychwstaniach	-0.038222298
-3.2642922	niech	-0.06992293
-3.925214	wyniszczony	-0.038222298
-3.925214	pracą	-0.038222298
-3.925214	rozpacza	-0.038222298
-3.4682386	ogniach	-0.038222298
-3.780418	braknie	-0.038222298
-3.925214	błyskaniach	-0.038222298
-3.6229422	też	-0.038222298
-2.7526093	myśli	-0.0666467
-3.925214	upominek	-0.038222298
-3.1897044	dla	-0.106866576
-2.6235375	ducha	-0.058333836
-3.780418	większy	-0.038222298
-3.4682386	jaki	-0.038222298
-3.925214	spoczynek	-0.038222298
-3.925214	viii	-0.038222298
-2.9771905	sam	-0.0740533
-3.925214	harmonią	-0.038222298
-3.925214	obeznany	-0.038222298
-3.925214	młodą	-0.038222298
-3.925214	własnego	-0.038222298
-3.4682386	chciałem	-0.038222298
-3.925214	odmiany	-0.038222298
-3.6229422	siadłem	-0.038222298
-3.925214	smutny	-0.038222298
-3.780418	letejską	-0.038222298
-3.780418	wodą	-0.2036545
-3.6229422	usta	-0.038222298
-3.925214	myjąc	-0.038222298
-3.6229422	rany	-0.20917091
-3.780418	odtąd	-0.038222298
-3.2642922	nigdy	-0.086685404
-3.925214	cielesną	-0.038222298
-3.925214	szkodą	-0.038222298
-3.780418	płakał	-0.038222298
-3.925214	rozebrany	-0.038222298
-3.4682386	wielką	-0.038222298
-3.0213783	sobie	-0.058333836
-3.780418	brał	-0.038222298
-3.925214	wymowę	-0.038222298
-3.925214	otwierać	-0.038222298
-2.9771905	tych	-0.038222298
-3.780418	ran	-0.038222298
-3.780418	purpurowe	-0.038222298
-3.925214	ix	-0.038222298
-3.925214	wszakże	-0.038222298
-3.925214	przykładając	-0.038222298
-3.925214	wodę	-0.038222298
-3.354402	by	-0.097062565
-3.4682386	pamięć	-0.038222298
-3.780418	boleści	-0.038222298
-3.925214	straciły	-0.038222298
-3.925214	poniósł	-0.038222298
-3.925214	szkodę	-0.038222298
-3.925214	niejeden	-0.038222298
-3.4682386	obraz	-0.038222298
-3.780418	stracił	-0.038222298
-3.780418	senny	-0.038222298
-3.925214	miły	-0.038222298
-3.925214	jutrzenek	-0.038222298
-3.925214	różaną	-0.038222298
-3.925214	pogodę	-0.038222298
-3.4682386	nagle	-0.038222298
-3.2642922	ręką	-0.038222298
-3.780418	zasłoniły	-0.038222298
-3.925214	pokazały	-0.038222298
-2.5241663	jako	-0.06177823
-3.925214	świt	-0.038222298
-3.780418	daleki	-0.038222298
-3.780418	umiłowaną	-0.038222298
-3.4682386	wieki	-0.038222298
-3.925214	x	-0.038222298
-3.780418	gwiaździce	-0.038222298
-2.683296	co	-0.084639445
-3.780418	morzach	-0.038222298
-3.925214	palą	-0.038222298
-3.6229422	mają	-0.038222298
-3.925214	świetle	-0.038222298
-3.780418	tęczowe	-0.038222298
-3.6229422	kolory	-0.1412439
-3.0213783	są	-0.038222298
-3.780418	gwiazdami	-0.038222298
-3.780418	ciemnicy	-0.038222298
-3.4682386	falą	-0.038222298
-3.925214	błyszczącymi	-0.038222298
-3.925214	mórz	-0.038222298
-3.925214	dziwotwory	-0.038222298
-3.925214	delfiny	-0.038222298
-3.925214	morzu	-0.038222298
-3.2642922	swoje	-0.038222298
-3.925214	łuski	-0.038222298
-3.925214	skalą	-0.038222298
-3.925214	obchodzą	-0.038222298
-3.780418	cicho	-0.038222298
-3.780418	upiory	-0.038222298
-3.925214	płynąć	-0.038222298
-3.780418	wierzchem	-0.038222298
-3.6229422	nimi	-0.038222298
-3.925214	śmieją	-0.038222298
-3.925214	mocno	-0.038222298
-2.900375	te	-0.052201964
-3.1260686	gwiazdy	-0.08283169
-3.925214	jaśnieją	-0.038222298
-3.925214	date	-0.038222298
-3.4682386	ani	-0.038222298
-3.925214	gwiaździc	-0.038222298
-3.780418	jasność	-0.038222298
-3.925214	tajemnicza	-0.038222298
-3.925214	przeraża	-0.038222298
-3.925214	pierwopłody	-0.038222298
-3.780418	piękność	-0.038222298
-3.925214	którąm	-0.038222298
-3.925214	poznał	-0.038222298
-3.925214	oblicza	-0.038222298
-3.1897044	we	-0.16144007
-3.925214	mgłach	-0.038222298
-3.925214	letejskiej	-0.038222298
-3.925214	zapomnienia	-0.038222298
-3.4682386	wody	-0.15972584
-3.354402	nią	-0.038222324
-3.4682386	dźwięk	-0.038222298
-3.925214	girlanda	-0.038222298
-3.925214	słowicza	-0.038222298
-3.780418	jakoby	-0.038222298
-3.0705764	złote	-0.06992293
-3.925214	zejścia	-0.038222298
-3.925214	schody	-0.038222298
-2.7526093	świat	-0.06393622
-3.925214	zamglony	-0.038222298
-3.925214	wiodły	-0.038222298
-3.780418	kwiatki	-0.038222298
-3.780418	ciemnymi	-0.038222298
-3.925214	jodły	-0.038222298
-3.780418	łąk	-0.038222298
-3.925214	puszcz	-0.038222298
-3.6229422	jakby	-0.038222298
-3.354402	wiatr	-0.038222298
-3.925214	poranny	-0.038222298
-3.6229422	pieśnią	-0.038222298
-3.925214	zapraszał	-0.038222298
-3.6229422	ziemię	-0.038222298
-3.925214	szczęśliwą	-0.038222298
-3.780418	szedłem	-0.038222298
-3.1897044	choć	-0.0666467
-3.925214	strzały	-0.038222298
-3.925214	numidzkimi	-0.038222298
-3.925214	ranny	-0.038222298
-3.780418	niepewny	-0.038222298
-2.9370866	czy	-0.038222298
-3.4682386	śmierć	-0.038222298
-3.2642922	żywota	-0.11533918
-3.780418	dziwo	-0.2036545
-3.925214	irys	-0.038222298
-3.6229422	którą	-0.038222298
-3.925214	znosi	-0.038222298
-3.925214	szklanny	-0.038222298
-3.780418	obłok	-0.038222298
-3.6229422	tęcze	-0.038222298
-3.925214	świecące	-0.038222298
-3.925214	niwą	-0.038222298
-3.4682386	tyle	-0.038222298
-3.6229422	kolorów	-0.038222298
-3.780418	słońc	-0.038222298
-2.7526093	ją	-0.038222272
-3.780418	ziemią	-0.038222298
-3.780418	światłach	-0.038222298
-3.925214	trzymają	-0.038222298
-3.0213783	ona	-0.038222298
-3.4682386	przede	-0.33410966
-3.2642922	mną	-0.079422124
-3.925214	lesistych	-0.038222298
-3.925214	zacisz	-0.038222298
-3.780418	weszła	-0.038222298
-3.925214	harfy	-0.038222298
-3.925214	wiatrzane	-0.038222298
-3.925214	dobrze	-0.038222298
-3.925214	poznaj	-0.038222298
-3.0705764	bo	-0.056963705
-3.6229422	wkrótce	-0.038222298
-3.925214	utracisz	-0.038222298
-3.4682386	sny	-0.038222298
-2.7282548	przez	-0.06393622
-3.780418	dobre	-0.038222298
-3.925214	malowane	-0.038222298
-3.4682386	żywot	-0.038222298
-3.780418	tysiącem	-0.038222298
-3.925214	żywotów	-0.038222298
-3.925214	zapłacisz	-0.038222298
-3.4682386	zawsze	-0.038222298
-3.354402	jedną	-0.038222298
-3.1260686	tę	-0.0617782
-3.925214	serdeczną	-0.038222298
-3.6229422	ranę	-0.1412439
-3.925214	przyciśniesz	-0.038222298
-3.925214	piersi	-0.038222298
-3.925214	rękami	-0.038222298
-3.925214	obiema	-0.038222298
-3.925214	smętną	-0.038222298
-2.8351254	jej	-0.05576835
-3.354402	ma	-0.038222298
-3.925214	datesławę	-0.038222298
-3.1260686	ci	-0.06992293
-3.925214	damy	-0.038222298
-3.2642922	tobie	-0.038222298
-3.925214	obrzydnie	-0.038222298
-2.9771905	serce	-0.038222298
-3.925214	spustoszeje	-0.038222298
-3.780418	przyjdzie	-0.038222298
-3.354402	tego	-0.038222298
-3.780418	będziesz	-0.038222298
-3.925214	bezwstydnie	-0.038222298
-3.780418	urągał	-0.038222298
-3.925214	mającym	-0.038222298
-3.925214	nadzieję	-0.038222298
-3.6229422	niechaj	-0.038222298
-3.4682386	me	-0.038222298
-2.9370866	oczy	-0.038222324
-3.925214	rozwidnię	-0.038222298
-3.925214	rubinem	-0.038222298
-2.7282548	który	-0.07905208
-3.4682386	ust	-0.038222298
-3.780418	światło	-0.038222298
-3.925214	leje	-0.038222298
-3.925214	dbam	-0.038222298
-2.6053154	mię	-0.038222298
-3.6229422	dalej	-0.038222298
-3.925214	czeka	-0.038222298
-3.925214	żywoty	-0.038222298
-3.0213783	człowieka	-0.2583501
-3.780418	jednę	-0.038222298
-3.925214	girlandę	-0.038222298
-3.925214	uwiążę	-0.038222298
-3.354402	człowiek	-0.038222298
-3.6229422	tysiące	-0.038222298
-3.780418	czuje	-0.038222298
-3.780418	tą	-0.038222298
-3.780418	girlandą	-0.038222298
-3.1260686	świata	-0.09473869
-3.925214	książę	-0.038222298
-3.4682386	czoło	-0.113108486
-3.925214	uwieńczę	-0.038222298
-3.925214	ukoronuję	-0.038222298
-3.925214	niechajże	-0.038222298
-3.780418	idą	-0.038222298
-3.925214	węże	-0.038222298
-3.925214	walczy	-0.038222298
-3.925214	otwarcie	-0.038222298
-3.1260686	lub	-0.0740533
-3.925214	truje	-0.038222298
-3.925214	ognistą	-0.038222298
-3.925214	otoczy	-0.038222298
-3.925214	otchłanią	-0.038222298
-3.780418	choćby	-0.038222298
-3.925214	piekło	-0.038222298
-3.780418	wiodła	-0.038222298
-3.925214	pójdę	-0.038222298
-3.780418	pamiętam	-0.113108486
-2.683296	ten	-0.050352845
-3.354402	głos	-0.038222298
-3.925214	zaklęcie	-0.038222298
-3.925214	odwrzasł	-0.038222298
-2.4312327	mi	-0.05404228
-3.6229422	królowa	-0.1412439
-3.1897044	całe	-0.038222298
-2.9771905	mego	-0.063984364
-3.925214	wniebowzięcie	-0.038222298
-3.925214	upadło	-0.038222298
-3.780418	wtem	-0.038222298
-3.780418	przyszła	-0.038222298
-3.925214	nowa	-0.038222298
-3.354402	tem	-0.038222298
-3.780418	powietrzu	-0.038222298
-3.925214	dyjamencie	-0.038222298
-3.925214	ukazał	-0.038222298
-3.925214	córka	-0.038222298
-3.925214	*słowa*	-0.038222298
-3.6229422	pani	-0.038222298
-3.925214	któregoś	-0.038222298
-3.6229422	ludów	-0.038222298
-3.780418	północy	-0.038222298
-3.780418	jaką	-0.038222298
-3.4682386	widzieli	-0.038222298
-3.780418	prorocy	-0.2036545
-3.925214	datesłońce	-0.038222298
-3.925214	lecące	-0.038222298
-3.925214	trzymała	-0.038222298
-3.4682386	czołem	-0.113108486
-3.4682386	miesiąc	-0.038222298
-3.925214	srebrny	-0.038222298
-3.925214	nogami	-0.038222298
-3.925214	gniotła	-0.038222298
-3.780418	szła	-0.038222298
-3.925214	lasami	-0.038222298
-3.780418	leciała	-0.038222298
-3.925214	dołem	-0.038222298
-3.780418	chaty	-0.038222298
-3.925214	komeciana	-0.038222298
-3.780418	miotła	-0.038222298
-3.925214	oskrzydlały	-0.038222298
-3.925214	kołem	-0.038222298
-3.6229422	słońcu	-0.038222298
-3.780418	girlandy	-0.038222298
-2.9771905	niby	-0.06961182
-3.6229422	kwiatów	-0.038222298
-3.925214	plotła	-0.038222298
-3.780418	rzucała	-0.038222298
-3.925214	niedbale	-0.038222298
-3.6229422	perły	-0.038222298
-3.925214	jaśminy	-0.038222298
-3.925214	maki	-0.038222298
-3.925214	korale	-0.038222298
-2.805843	cały	-0.10238935
-3.6229422	zdawał	-0.038222298
-3.925214	uśmiechniony	-0.038222298
-3.6229422	pełny	-0.038222298
-3.780418	języków	-0.038222298
-3.6229422	złotych	-0.038222298
-3.925214	fala	-0.038222298
-3.925214	atłas	-0.038222298
-3.6229422	bierze	-0.1412439
-3.0705764	różne	-0.038222272
-3.6229422	tony	-0.1412439
-3.925214	drząc	-0.038222298
-3.925214	hafty	-0.038222298
-3.925214	gwiaździste	-0.038222298
-3.925214	zapala	-0.038222298
-3.925214	północnej	-0.038222298
-3.780418	strony	-0.2036545
-3.925214	swoimi	-0.038222298
-3.925214	łyskające	-0.038222298
-3.925214	dala	-0.038222298
-3.780418	różnym	-0.038222298
-3.780418	dało	-0.038222298
-3.925214	gwiazdom	-0.038222298
-3.925214	pozłacanym	-0.038222298
-3.925214	ukazać	-0.038222298
-3.925214	ogniu	-0.038222298
-3.6229422	zorzy	-0.038222298
-3.925214	rumianym	-0.038222298
-3.354402	więc	-0.038222298
-3.925214	czego	-0.038222298
-3.925214	woda	-0.038222298
-3.925214	letejska	-0.038222298
-3.925214	mogła	-0.038222298
-3.780418	swoim	-0.038222298
-3.925214	zrobiła	-0.038222298
-3.925214	zjawieniem	-0.038222298
-3.2642922	moja	-0.086685404
-3.6229422	nowe	-0.038222298
-3.925214	wzmogła	-0.038222298
-3.780418	loty	-0.038222298
-3.925214	nowym	-0.038222298
-3.925214	buchnęła	-0.038222298
-3.780418	płomieniem	-0.2036545
-3.354402	pierwszy	-0.038222298
-3.6229422	raz	-0.038222298
-3.925214	przemogła	-0.038222298
-3.925214	uczyniła	-0.038222298
-3.925214	wiernym	-0.038222298
-3.780418	cieniem	-0.038222298
-3.925214	opowiem	-0.038222298
-3.925214	her	-0.038222298
-3.925214	powalony	-0.038222298
-3.1897044	gdzieś	-0.079422124
-3.780418	puszczy	-0.038222298
-3.925214	wieśniaczym	-0.038222298
-3.925214	płotem	-0.038222298
-3.4682386	straszna	-0.038222298
-3.6229422	nade	-0.20917091
-3.780418	kobiéta	-0.2036545
-3.780418	śpiewała	-0.038222298
-3.925214	czarodziejskie	-0.038222298
-3.780418	ojczyzna	-0.038222298
-3.925214	twoja	-0.038222298
-3.925214	wrzeszczała	-0.038222298
-3.925214	zabita	-0.038222298
-3.780418	jedna	-0.038222298
-3.925214	żywa	-0.038222298
-3.1897044	ty	-0.063984364
-3.780418	zamiast	-0.038222298
-3.925214	truny	-0.038222298
-3.925214	miałeś	-0.038222298
-3.925214	popiołem	-0.038222298
-3.925214	nakryta	-0.038222298
-3.925214	zapłodniona	-0.038222298
-3.354402	proch	-0.086685404
-3.925214	wydałam	-0.038222298
-3.2642922	ciebie	-0.079422124
-3.780418	abyś	-0.038222298
-2.7526093	był	-0.052201964
-3.925214	mścicielem	-0.038222298
-3.925214	synu	-0.038222298
-3.6229422	popiołów	-0.038222298
-3.925214	nazwany	-0.038222298
-3.925214	*popielem*	-0.038222298
-3.925214	xxi	-0.038222298
-3.0213783	jeden	-0.038222298
-3.925214	jesteś	-0.038222298
-3.2642922	cię	-0.038222298
-3.925214	przymioty	-0.038222298
-3.780418	ojców	-0.038222298
-3.925214	napełnią	-0.038222298
-3.6229422	dam	-0.038222298
-3.0705764	dwa	-0.063984364
-3.925214	prawo	-0.038222298
-3.925214	stanieć	-0.038222298
-3.1897044	anioł	-0.038222298
-3.4682386	złoty	-0.113108486
-3.925214	lewo	-0.038222298
-3.1260686	krwi	-0.06992293
-3.925214	zawieruchy	-0.038222298
-3.780418	dwaj	-0.038222298
-3.925214	trzeci	-0.038222298
-3.925214	grzmoty	-0.038222298
-3.925214	pędzący	-0.038222298
-3.925214	zemstę	-0.038222298
-3.925214	mówiąc	-0.038222298
-3.925214	pieluchy	-0.038222298
-3.925214	chwytała	-0.038222298
-3.925214	trzęsąc	-0.038222298
-3.780418	głową	-0.038222298
-3.925214	dzieckiem	-0.038222298
-3.925214	skrą	-0.038222298
-3.925214	piorunową	-0.038222298
-3.925214	xxii	-0.038222298
-3.925214	dorósł	-0.038222298
-3.925214	karmem	-0.038222298
-3.1897044	duszy	-0.038222298
-3.780418	zemsta	-0.038222298
-3.780418	nauką	-0.038222298
-3.925214	zdrada	-0.038222298
-3.4682386	często	-0.038222298
-3.354402	bywało	-0.038222298
-3.780418	ktoś	-0.038222298
-3.354402	włos	-0.038222298
-3.925214	ruszy	-0.038222298
-3.925214	śnie	-0.038222298
-3.925214	zagada	-0.038222298
-2.6053154	gdy	-0.092550345
-3.925214	spojrzę	-0.038222298
-3.6229422	liść	-0.038222298
-3.925214	zawieruszy	-0.038222298
-3.354402	kształt	-0.097062565
-3.925214	złotego	-0.038222298
-3.6229422	widma	-0.038222298
-3.6229422	wstaje	-0.038222298
-3.780418	pada	-0.038222298
-3.354402	czasem	-0.038222298
-3.0213783	moją	-0.038222298
-3.2642922	pierś	-0.079422124
-3.925214	tumanem	-0.038222298
-3.925214	runie	-0.038222298
-3.780418	ręka	-0.038222298
-3.925214	zadrży	-0.038222298
-3.925214	nóż	-0.038222298
-3.925214	wysunie	-0.038222298
-3.925214	xxiii	-0.038222298
-3.925214	pierwsze	-0.038222298
-3.925214	nawałnice	-0.038222298
-3.780418	jakże	-0.038222298
-3.6229422	wy	-0.038222298
-3.925214	wstajecie	-0.038222298
-3.2642922	widzę	-0.038222298
-3.780418	straszną	-0.038222298
-3.354402	krew	-0.038222298
-3.6229422	błyskawicę	-0.20917091
-3.780418	której	-0.038222298
-3.925214	gołąb	-0.038222298
-3.780418	kręci	-0.038222298
-2.9771905	dziś	-0.038222324
-3.0213783	nieraz	-0.038222298
-3.780418	czarną	-0.038222298
-3.925214	okolicę	-0.038222298
-3.925214	puszczę	-0.038222298
-3.925214	wejdę	-0.038222298
-3.780418	coś	-0.038222298
-3.925214	smęci	-0.038222298
-3.925214	radbym	-0.038222298
-3.6229422	własne	-0.038222298
-3.925214	wyrywał	-0.038222298
-3.925214	wnętrzności	-0.038222298
-3.0705764	u	-0.0666467
-3.925214	bolów	-0.038222298
-3.925214	prosił	-0.038222298
-3.925214	litości	-0.038222298
-3.925214	xxiv	-0.038222298
-3.925214	morskich	-0.038222298
-3.925214	tajemniczej	-0.038222298
-3.925214	jaśni	-0.038222298
-3.925214	porównywałem	-0.038222298
-3.6229422	ludu	-0.038222298
-3.925214	zjawienie	-0.038222298
-3.4682386	żył	-0.038222298
-3.780418	chatach	-0.038222298
-3.925214	wszelkiej	-0.038222298
-3.925214	waśni	-0.038222298
-3.0705764	miał	-0.038222272
-3.925214	jabłoni	-0.038222298
-3.925214	swój	-0.038222298
-3.925214	napój	-0.038222298
-3.780418	cienie	-0.1412439
-3.925214	królowie	-0.038222298
-3.925214	jemu	-0.038222298
-3.925214	panowali	-0.038222298
-3.925214	właśni	-0.038222298
-3.925214	cudowne	-0.038222298
-3.6229422	jakieś	-0.038222298
-3.925214	pokolenie	-0.038222298
-3.925214	mające	-0.038222298
-3.925214	*słowo*	-0.038222298
-3.925214	rózgę	-0.038222298
-3.925214	cudów	-0.038222298
-3.925214	mojżeszową	-0.038222298
-3.925214	xxv	-0.038222298
-3.780418	teraz	-0.038222298
-3.780418	wiem	-0.038222298
-3.925214	widzi	-0.038222298
-3.925214	ślepym	-0.038222298
-3.925214	cud	-0.038222298
-3.925214	ujrzysz	-0.038222298
-3.925214	dziadu	-0.038222298
-3.6229422	którego	-0.038222298
-3.925214	wiejski	-0.038222298
-3.780418	pies	-0.038222298
-3.925214	nienawidzi	-0.038222298
-3.6229422	podobne	-0.038222298
-3.925214	stadu	-0.038222298
-3.925214	wloką	-0.038222298
-3.925214	zeń	-0.038222298
-3.925214	szydzi	-0.038222298
-2.866526	go	-0.038222298
-3.925214	chłopek	-0.038222298
-3.780418	królem	-0.038222298
-3.925214	gadu	-0.038222298
-3.6229422	wie	-0.038222298
-3.925214	źrenicy	-0.038222298
-3.925214	blachmany	-0.038222298
-3.6229422	bije	-0.038222298
-3.925214	tęczą	-0.038222298
-3.780418	malowany	-0.2036545
-3.925214	xxvi	-0.038222298
-3.925214	zasłonione	-0.038222298
-3.780418	bożą	-0.038222298
-3.780418	złotą	-0.038222298
-3.925214	żyłą	-0.038222298
-3.925214	im	-0.038222298
-3.4682386	ciemne	-0.038222298
-3.6229422	kurhany	-0.1412439
-3.925214	otworzą	-0.038222298
-3.6229422	gdyby	-0.038222298
-3.2642922	słońce	-0.079422124
-3.925214	blachy	-0.038222298
-3.354402	wzrok	-0.038222298
-3.6229422	ludzki	-0.038222298
-3.925214	srożą	-0.038222298
-3.925214	wziętą	-0.038222298
-3.925214	mogiłą	-0.038222298
-3.6229422	znowu	-0.038222298
-3.925214	układa	-0.038222298
-3.925214	nogi	-0.038222298
-3.925214	rozpada	-0.038222298
-3.925214	xxvii	-0.038222298
-3.4682386	oni	-0.038222298
-3.780418	widzą	-0.038222298
-3.925214	właśnie	-0.038222298
-3.6229422	gromada	-0.1412439
-3.925214	urąga	-0.038222298
-3.925214	śledząc	-0.038222298
-3.925214	zamyślone	-0.038222298
-3.1260686	ta	-0.063984364
-3.6229422	mądrość	-0.038222298
-3.2642922	która	-0.038222298
-3.925214	spowiada	-0.038222298
-3.780418	dawniej	-0.038222298
-3.925214	perłową	-0.038222298
-3.925214	wieńczona	-0.038222298
-3.925214	jemiołą	-0.038222298
-3.780418	tronie	-0.038222298
-3.6229422	królu	-0.038222298
-3.925214	siada	-0.038222298
-3.925214	płomieniste	-0.038222298
-3.780418	upiorów	-0.038222298
-3.6229422	koło	-0.1412439
-3.925214	zamyka	-0.038222298
-3.4682386	czar	-0.038222298
-3.925214	próżna	-0.038222298
-3.925214	guślarka	-0.038222298
-3.925214	chorób	-0.038222298
-3.780418	duchowych	-0.038222298
-3.925214	lekarka	-0.038222298
-3.925214	xxviii	-0.038222298
-3.780418	wkoło	-0.038222298
-3.925214	wioski	-0.038222298
-3.925214	wieńce	-0.038222298
-3.925214	kaliniane	-0.038222298
-3.925214	poświęcone	-0.038222298
-3.6229422	duchom	-0.038222298
-3.925214	mogiły	-0.038222298
-3.925214	kozom	-0.038222298
-3.925214	pasterzom	-0.038222298
-3.780418	znane	-0.2036545
-3.925214	trzody	-0.038222298
-3.925214	dziwiące	-0.038222298
-3.925214	ptaków	-0.038222298
-3.925214	rozruchom	-0.038222298
-3.4682386	dawne	-0.038222298
-3.780418	dawno	-0.038222298
-3.925214	zapomniane	-0.038222298
-3.925214	oddane	-0.038222298
-3.925214	mgłom	-0.038222298
-3.925214	zawieruchom	-0.038222298
-3.925214	darni	-0.038222298
-3.925214	odarte	-0.038222298
-3.925214	xxix	-0.038222298
-3.6229422	czasami	-0.038222298
-3.925214	zwyczaj	-0.038222298
-3.4682386	dawny	-0.038222298
-3.925214	upiora	-0.038222298
-3.925214	lasach	-0.038222298
-3.925214	powstanie	-0.038222298
-3.6229422	rycerz	-0.038222298
-3.925214	sławny	-0.038222298
-3.780418	umrze	-0.038222298
-3.1897044	lud	-0.038222298
-3.925214	grzebie	-0.038222298
-3.925214	dwanaście	-0.038222298
-3.925214	koni	-0.038222298
-3.2642922	krwią	-0.038222298
-3.925214	spławny	-0.038222298
-3.925214	lasem	-0.038222298
-3.780418	mgłami	-0.038222298
-3.780418	wieczora	-0.038222298
-3.925214	ubrany	-0.038222298
-3.925214	rogi	-0.038222298
-3.925214	jelenie	-0.038222298
-3.780418	głowy	-0.038222298
-3.925214	zamienia	-0.038222298
-3.4682386	ogień	-0.038222298
-3.925214	słup	-0.038222298
-3.925214	purpurowy	-0.038222298
-3.925214	xxx	-0.038222298
-3.925214	wieszcze	-0.038222298
-3.925214	jawią	-0.038222298
-3.780418	guślarze	-0.2036545
-3.925214	przepowiadają	-0.038222298
-3.925214	przyszły	-0.038222298
-3.925214	nieznany	-0.038222298
-3.354402	pieśni	-0.079422124
-3.925214	stworzą	-0.038222298
-3.780418	wraz	-0.038222298
-3.354402	pokaże	-0.038222298
-3.925214	przyprowadzone	-0.038222298
-3.780418	szatany	-0.1412439
-3.780418	każdy	-0.038222298
-3.780418	wiek	-0.038222298
-3.780418	prawdy	-0.038222298
-3.925214	ołtarze	-0.038222298
-3.925214	cześć	-0.038222298
-3.925214	namiętne	-0.038222298
-3.925214	kapłany	-0.038222298
-3.6229422	którzy	-0.038222298
-3.925214	uprzedzając	-0.038222298
-3.6229422	ciał	-0.038222298
-3.925214	krzyże	-0.038222298
-3.780418	mieli	-0.038222298
-3.925214	noże	-0.038222298
-3.925214	xxxi	-0.038222298
-3.925214	wzgarda	-0.038222298
-3.925214	wielka	-0.038222298
-3.1897044	ku	-0.038222298
-3.925214	ciału	-0.038222298
-3.780418	paliła	-0.2036545
-3.925214	upajał	-0.038222298
-3.925214	sok	-0.038222298
-3.925214	bachusowy	-0.038222298
-3.925214	niejedna	-0.038222298
-3.925214	mogiła	-0.038222298
-3.925214	oplata	-0.038222298
-3.925214	krzew	-0.038222298
-3.925214	różowy	-0.038222298
-3.1897044	słońca	-0.038222298
-3.780418	strzała	-0.038222298
-3.780418	wskroś	-0.038222298
-3.925214	przeszyła	-0.038222298
-3.925214	przeszył	-0.038222298
-3.925214	brylantowy	-0.038222298
-3.925214	wejdziesz	-0.038222298
-3.925214	granitowe	-0.038222298
-3.780418	bramy	-0.2036545
-3.4682386	krwawe	-0.113108486
-3.780418	plamy	-0.2036545
-3.925214	xxxii	-0.038222298
-3.780418	jednak	-0.038222298
-3.925214	cofasz	-0.038222298
-2.7526093	przed	-0.07285734
-3.925214	czujesz	-0.038222298
-3.780418	trwogi	-0.2036545
-3.6229422	żuraw	-0.038222298
-3.6229422	skrzydłami	-0.038222298
-3.925214	ciężkimi	-0.038222298
-3.925214	próbujesz	-0.038222298
-3.925214	nowej	-0.038222298
-3.780418	błękitach	-0.038222298
-3.6229422	drogi	-0.038222298
-3.925214	głazami	-0.038222298
-3.780418	czerwonymi	-0.038222298
-3.780418	miesiącem	-0.038222298
-3.925214	polnymi	-0.038222298
-3.925214	głogi	-0.038222298
-3.354402	srebrne	-0.038222298
-3.1897044	ciągle	-0.038222298
-3.925214	wstęgi	-0.038222298
-3.925214	snują	-0.038222298
-3.2642922	których	-0.038222298
-3.925214	przelatują	-0.038222298
-3.925214	xxxiii	-0.038222298
-3.780418	takich	-0.038222298
-3.925214	kościołach	-0.038222298
-3.925214	wysokim	-0.038222298
-3.925214	sądząc	-0.038222298
-3.925214	odmieni	-0.038222298
-3.925214	obecność	-0.038222298
-3.925214	dręczącą	-0.038222298
-3.925214	kląłem	-0.038222298
-3.780418	nogą	-0.038222298
-3.925214	trącałem	-0.038222298
-3.4682386	czoła	-0.038222298
-3.780418	kamieni	-0.2036545
-3.925214	padajcie	-0.038222298
-3.925214	głazy	-0.038222298
-3.925214	aniołem	-0.038222298
-3.925214	jeleni	-0.038222298
-3.780418	mą	-0.038222298
-3.925214	niszczącą	-0.038222298
-2.9370866	myślą	-0.0617782
-3.925214	uciekajcie	-0.038222298
-3.780418	trupy	-0.038222298
-3.925214	grobowców	-0.038222298
-3.925214	gińcie	-0.038222298
-3.925214	wstajcie	-0.038222298
-3.925214	xxxiv	-0.038222298
-3.1897044	nic	-0.13384095
-3.6229422	cichością	-0.038222298
-3.925214	żółw	-0.038222298
-3.780418	słońcem	-0.038222298
-3.780418	chodzi	-0.038222298
-3.925214	południowych	-0.038222298
-3.780418	zielonością	-0.038222298
-3.925214	bom	-0.038222298
-3.925214	przewędrował	-0.038222298
-3.6229422	kraj	-0.038222298
-3.925214	rodzi	-0.038222298
-3.925214	inaczej	-0.038222298
-3.6229422	trupów	-0.038222298
-3.925214	postępował	-0.038222298
-3.780418	kością	-0.038222298
-3.925214	palił	-0.038222298
-3.6229422	łodzi	-0.038222298
-3.780418	mgieł	-0.038222298
-3.780418	krainę	-0.038222298
-3.925214	posyłał	-0.038222298
-3.925214	gościnną	-0.038222298
-3.925214	kochanką	-0.038222298
-3.925214	niewinną	-0.038222298
-3.925214	xxxv	-0.038222298
-3.925214	syn	-0.038222298
-3.780418	wyrżniętych	-0.2036545
-3.780418	istota	-0.2036545
-3.925214	nieznana	-0.038222298
-3.1897044	ziemi	-0.0666467
-3.925214	nikomu	-0.038222298
-3.780418	obaczyłem	-0.038222298
-3.780418	łódź	-0.038222298
-3.925214	lepszą	-0.038222298
-3.925214	zdaje	-0.038222298
-3.925214	ziemskiego	-0.038222298
-3.780418	domu	-0.038222298
-3.780418	płomień	-0.038222298
-3.925214	huczy	-0.038222298
-3.925214	druzgota	-0.038222298
-3.925214	garście	-0.038222298
-3.925214	suchego	-0.038222298
-3.925214	liścia	-0.038222298
-3.925214	pęki	-0.038222298
-3.925214	łomu	-0.038222298
-3.925214	śpiące	-0.038222298
-3.925214	rozkochane	-0.038222298
-3.925214	rzuca	-0.038222298
-3.6229422	jutrzenki	-0.038222298
-3.925214	różane	-0.038222298
-3.925214	xxxvi	-0.038222298
-3.6229422	gdym	-0.038222298
-3.925214	obaczył	-0.038222298
-3.925214	wysłuchał	-0.038222298
-3.925214	śpiewu	-0.038222298
-3.925214	dziewicy	-0.038222298
-3.925214	grobów	-0.038222298
-3.780418	smętnego	-0.038222298
-3.925214	słowika	-0.038222298
-3.780418	złotemu	-0.038222298
-3.6229422	tej	-0.038222298
-3.780418	drzewu	-0.2036545
-3.925214	wydawała	-0.038222298
-3.780418	kwiat	-0.038222298
-3.925214	słonecznika	-0.038222298
-3.925214	krain	-0.038222298
-3.925214	zaświatnych	-0.038222298
-3.925214	powiewu	-0.038222298
-3.780418	brała	-0.038222298
-3.780418	nowy	-0.038222298
-3.925214	światłość	-0.038222298
-3.925214	płomyka	-0.038222298
-3.925214	tchem	-0.038222298
-3.1897044	bez	-0.079422124
-3.354402	mgłą	-0.097062565
-3.0705764	jeszcze	-0.038222298
-3.925214	światem	-0.038222298
-3.925214	xxxvii	-0.038222298
-3.925214	tom	-0.038222298
-3.925214	kupcowi	-0.038222298
-3.925214	temu	-0.038222298
-3.925214	kupiec	-0.038222298
-3.354402	jakiś	-0.038222298
-3.925214	gorzał	-0.038222298
-3.925214	zazdrościł	-0.038222298
-3.925214	wiedząc	-0.038222298
-3.925214	czemu	-0.038222298
-3.925214	drżąc	-0.038222298
-3.6229422	abym	-0.038222298
-3.780418	kiedyś	-0.038222298
-3.6229422	duchem	-0.038222298
-3.925214	zubożał	-0.038222298
-3.6229422	skrzydeł	-0.038222298
-3.925214	światowi	-0.038222298
-3.925214	niosą	-0.038222298
-3.925214	lew	-0.038222298
-3.925214	zesrożał	-0.038222298
-3.925214	tamten	-0.038222298
-3.780418	szatana	-0.038222298
-3.6229422	trwogą	-0.038222298
-3.780418	czarnej	-0.038222298
-3.925214	nikogo	-0.038222298
-3.925214	xxxviii	-0.038222298
-3.925214	przerażon	-0.038222298
-3.6229422	lasy	-0.038222298
-3.925214	wróciłem	-0.038222298
-3.780418	rodzinne	-0.038222298
-3.780418	wziął	-0.038222298
-3.354402	król	-0.038222298
-3.925214	pachołka	-0.038222298
-3.780418	groźne	-0.038222298
-3.2642922	ręce	-0.038222298
-3.925214	czynne	-0.038222298
-3.925214	uwiązany	-0.038222298
-3.780418	cel	-0.038222298
-3.780418	wież	-0.038222298
-3.925214	wierzchołka	-0.038222298
-3.925214	trucizny	-0.038222298
-3.925214	wlano	-0.038222298
-3.925214	niewinne	-0.038222298
-3.925214	pierwsza	-0.038222298
-3.925214	apostołka	-0.038222298
-3.925214	kłóciła	-0.038222298
-3.780418	ludźmi	-0.038222298
-3.780418	losem	-0.038222298
-3.780418	ludzkim	-0.038222298
-3.4682386	głosem	-0.038222298
-3.925214	xxxix	-0.038222298
-3.925214	ile	-0.038222298
-3.6229422	razy	-0.038222298
-3.925214	posłucham	-0.038222298
-3.780418	rady	-0.038222298
-3.925214	rada	-0.038222298
-3.925214	fatalna	-0.038222298
-3.780418	świecie	-0.038222298
-3.925214	zawady	-0.038222298
-3.925214	usuwa	-0.038222298
-3.354402	jakaś	-0.038222298
-3.925214	niewidzialna	-0.038222298
-3.925214	działającą	-0.038222298
-3.6229422	patrzałem	-0.038222298
-3.354402	blady	-0.25663584
-3.780418	biała	-0.038222298
-3.780418	orlica	-0.038222298
-3.925214	skalna	-0.038222298
-3.925214	zlatuje	-0.038222298
-3.6229422	hełm	-0.038222298
-3.925214	usiada	-0.038222298
-3.925214	czele	-0.038222298
-3.780418	drogę	-0.038222298
-3.780418	piorunami	-0.038222298
-3.925214	ściele	-0.038222298
-3.925214	xl	-0.038222298
-3.925214	żądałem	-0.038222298
-3.925214	wodzem	-0.038222298
-3.6229422	być	-0.038222298
-3.925214	wodze	-0.038222298
-3.925214	rozszalonej	-0.038222298
-3.6229422	mózg	-0.038222298
-3.780418	uderzył	-0.038222298
-3.925214	stadami	-0.038222298
-3.925214	chodzę	-0.038222298
-3.780418	kiedym	-0.038222298
-3.925214	sprzymierzył	-0.038222298
-3.354402	straszny	-0.038222298
-3.780418	komu	-0.038222298
-3.925214	szkodzę	-0.038222298
-3.925214	choćbym	-0.038222298
-3.925214	nań	-0.038222298
-3.925214	zamierzył	-0.038222298
-3.1897044	oczyma	-0.079422124
-3.354402	stali	-0.097062565
-3.6229422	pancerz	-0.038222298
-3.925214	ruszył	-0.038222298
-3.780418	wnet	-0.038222298
-3.925214	wali	-0.038222298
-3.925214	xli	-0.038222298
-3.925214	sczerniał	-0.038222298
-3.925214	borów	-0.038222298
-3.925214	las	-0.038222298
-3.925214	wycięcia	-0.038222298
-3.925214	spod	-0.038222298
-3.925214	przyłbic	-0.038222298
-3.925214	wielkich	-0.038222298
-3.780418	bladość	-0.038222298
-3.925214	trwożyła	-0.038222298
-3.780418	pierwszą	-0.038222298
-3.925214	księcia	-0.038222298
-3.780418	sobą	-0.038222298
-3.925214	dalszych	-0.038222298
-3.780418	widziałem	-0.038222298
-3.925214	torów	-0.038222298
-3.925214	dalszego	-0.038222298
-3.925214	celu	-0.038222298
-3.925214	wzięcia	-0.038222298
-3.925214	zamku	-0.038222298
-3.925214	cedrowym	-0.038222298
-3.925214	gopłową	-0.038222298
-3.925214	najpierwszym	-0.038222298
-3.6229422	złotym	-0.038222298
-3.780418	wojewodą	-0.038222298
-3.925214	xlii	-0.038222298
-2.805843	tu	-0.038222298
-3.925214	patrz	-0.038222298
-3.925214	duchowe	-0.038222298
-3.925214	sprawy	-0.038222298
-3.780418	jakie	-0.038222298
-3.780418	okropne	-0.038222298
-3.925214	zastawiają	-0.038222298
-3.925214	sidła	-0.038222298
-3.925214	dalekiej	-0.038222298
-3.925214	wracałem	-0.038222298
-3.925214	wyprawy	-0.038222298
-3.780418	malowidła	-0.2036545
-3.4682386	długi	-0.15972584
-3.780418	deszczu	-0.038222298
-3.780418	świeciły	-0.038222298
-3.4682386	krwawy	-0.15972584
-3.6229422	rycerze	-0.038222298
-3.925214	ujrzeliśmy	-0.038222298
-3.780418	orłów	-0.038222298
-3.925214	pobitych	-0.038222298
-3.925214	wielkiej	-0.038222298
-3.925214	ilości	-0.038222298
-3.925214	cmentarzach	-0.038222298
-3.2642922	kości	-0.086685404
-3.925214	xliii	-0.038222298
-3.925214	pierze	-0.038222298
-3.925214	leżało	-0.038222298
-3.925214	zmokłe	-0.038222298
-3.925214	niektóre	-0.038222298
-3.925214	sterczały	-0.038222298
-3.780418	piasku	-0.038222298
-3.780418	takiej	-0.038222298
-3.780418	miary	-0.2036545
-3.780418	dzidę	-0.038222298
-3.925214	podniósł	-0.038222298
-3.925214	górę	-0.038222298
-3.6229422	jedno	-0.038222298
-3.4682386	wielki	-0.038222298
-3.780418	upiór	-0.038222298
-3.780418	szary	-0.2036545
-3.354402	ciemną	-0.097062565
-3.925214	kity	-0.038222298
-3.925214	mej	-0.038222298
-3.925214	purpurę	-0.038222298
-3.925214	dostało	-0.038222298
-3.925214	wstając	-0.038222298
-3.925214	leniwe	-0.038222298
-3.925214	moczary	-0.038222298
-3.780418	wyzwany	-0.038222298
-3.925214	czarodziejstwem	-0.038222298
-3.925214	runów	-0.038222298
-3.780418	śpiący	-0.038222298
-3.925214	błocie	-0.038222298
-3.6229422	blasku	-0.038222298
-3.925214	xliv	-0.038222298
-3.925214	taka	-0.038222298
-3.6229422	tym	-0.038222298
-3.925214	skrzydle	-0.038222298
-3.925214	tajemnica	-0.038222298
-3.925214	ludzkość	-0.038222298
-3.1260686	żem	-0.038222298
-3.925214	spytał	-0.038222298
-3.780418	powiedz	-0.038222298
-3.925214	sępie	-0.038222298
-3.4682386	was	-0.038222298
-3.925214	wiatrach	-0.038222298
-3.925214	paląc	-0.038222298
-3.780418	błyskawica	-0.038222298
-3.925214	rzuciła	-0.038222298
-3.4682386	takie	-0.038222298
-3.925214	strzępie	-0.038222298
-3.925214	czyście	-0.038222298
-3.925214	bili	-0.038222298
-3.925214	państwo	-0.038222298
-3.4682386	księżyca	-0.15972584
-3.925214	idąc	-0.038222298
-3.2642922	siebie	-0.079422124
-3.925214	zastęp	-0.038222298
-3.925214	zastępie	-0.038222298
-3.780418	bój	-0.038222298
-3.925214	toczyli	-0.038222298
-3.925214	ścierw	-0.038222298
-3.925214	gryźli	-0.038222298
-3.925214	sławy	-0.038222298
-3.925214	xlv	-0.038222298
-3.925214	nazwać	-0.038222298
-3.925214	pamiętne	-0.038222298
-3.925214	pole	-0.038222298
-3.925214	błyskawic	-0.038222298
-3.780418	rumianych	-0.2036545
-3.1260686	gdzie	-0.038222298
-3.925214	górnych	-0.038222298
-3.925214	dole	-0.038222298
-3.925214	połamanych	-0.038222298
-3.780418	rzekł	-0.038222298
-3.780418	nieszczęścia	-0.038222298
-3.925214	nauczony	-0.038222298
-3.925214	szkole	-0.038222298
-3.925214	litować	-0.038222298
-3.925214	łez	-0.038222298
-3.925214	mogił	-0.038222298
-3.925214	nieznanych	-0.038222298
-3.6229422	ujrzałem	-0.038222298
-3.925214	rycerstwo	-0.038222298
-3.925214	wtyka	-0.038222298
-3.780418	pancerze	-0.038222298
-3.925214	xlvi	-0.038222298
-3.780418	widok	-0.038222298
-3.925214	wspaniały	-0.038222298
-3.925214	czas	-0.038222298
-3.925214	późny	-0.038222298
-3.780418	blaski	-0.038222298
-3.925214	wszędy	-0.038222298
-3.925214	wojsko	-0.038222298
-3.925214	dali	-0.038222298
-3.925214	groźny	-0.038222298
-3.6229422	skrzydlaty	-0.113108486
-3.925214	rozświeconej	-0.038222298
-3.354402	wszystko	-0.038222298
-3.925214	dreszcz	-0.038222298
-3.6229422	uczuł	-0.038222298
-3.925214	mroźny	-0.038222298
-3.925214	krzyknął	-0.038222298
-3.925214	piersią	-0.038222298
-3.925214	roztrącę	-0.038222298
-3.780418	wojska	-0.038222298
-3.925214	latające	-0.038222298
-3.925214	xlvii	-0.038222298
-3.925214	skrzydło	-0.038222298
-3.925214	zmoczone	-0.038222298
-3.925214	przypiąłem	-0.038222298
-3.925214	nakryło	-0.038222298
-3.780418	biorąc	-0.038222298
-3.925214	brałem	-0.038222298
-3.925214	sławę	-0.038222298
-3.925214	chcieli	-0.038222298
-3.925214	lotu	-0.038222298
-3.925214	siłą	-0.038222298
-3.925214	pomóc	-0.038222298
-3.925214	domów	-0.038222298
-3.925214	ciekawe	-0.038222298
-3.925214	powody	-0.038222298
-3.925214	rządzą	-0.038222298
-3.925214	bryłą	-0.038222298
-3.925214	mistrzynią	-0.038222298
-3.4682386	orły	-0.038222298
-3.1260686	wszystkie	-0.038222298
-3.925214	hałas	-0.038222298
-3.925214	czynią	-0.038222298
-3.925214	xlviii	-0.038222298
-3.925214	lecieliśmy	-0.038222298
-3.925214	weseli	-0.038222298
-3.925214	mijając	-0.038222298
-3.925214	drzewa	-0.038222298
-3.925214	sady	-0.038222298
-3.925214	moi	-0.038222298
-3.780418	zamkiem	-0.038222298
-3.925214	stanęli	-0.038222298
-3.925214	wszedł	-0.038222298
-3.6229422	czarny	-0.1412439
-3.925214	karmazyn	-0.038222298
-3.4682386	króla	-0.038222298
-3.925214	dzieli	-0.038222298
-3.925214	rozleciał	-0.038222298
-3.2642922	kwiaty	-0.0740533
-3.780418	pokazał	-0.038222298
-3.925214	odblaskach	-0.038222298
-3.925214	rubinu	-0.038222298
-3.780418	spojrzał	-0.038222298
-3.780418	berło	-0.038222298
-3.925214	upuścił	-0.038222298
-3.925214	bursztynu	-0.038222298
-3.925214	xlix	-0.038222298
-3.925214	łaskawość	-0.038222298
-3.925214	pogodna	-0.038222298
-3.925214	jaskółka	-0.038222298
-3.925214	siwych	-0.038222298
-3.925214	włosów	-0.038222298
-3.925214	dobroć	-0.038222298
-3.925214	cicha	-0.038222298
-3.925214	znikła	-0.038222298
-3.1897044	twarz	-0.038222298
-3.925214	trupia	-0.038222298
-3.925214	chłodna	-0.038222298
-3.925214	zmroziła	-0.038222298
-3.1897044	stał	-0.038222272
-3.925214	mnicha	-0.038222298
-3.925214	spuściwszy	-0.038222298
-3.4682386	patrząc	-0.038222298
-3.925214	dna	-0.038222298
-3.925214	żali	-0.038222298
-3.925214	zwycięstwa	-0.038222298
-3.925214	nagła	-0.038222298
-3.925214	pycha	-0.038222298
-3.925214	jakich	-0.038222298
-3.925214	tajemnych	-0.038222298
-3.925214	wywiodła	-0.038222298
-3.925214	jaw	-0.038222298
-3.925214	źrenicę	-0.038222298
-3.925214	bodła	-0.038222298
-3.925214	l	-0.038222298
-3.4682386	on	-0.038222298
-3.780418	pióra	-0.2036545
-3.780418	blask	-0.038222298
-3.925214	wieczorny	-0.038222298
-3.925214	zapalił	-0.038222298
-3.925214	okrwawiła	-0.038222298
-3.925214	tronowa	-0.038222298
-3.925214	purpura	-0.038222298
-3.925214	berłem	-0.038222298
-3.925214	wskazawszy	-0.038222298
-3.925214	zwalił	-0.038222298
-3.925214	wzięto	-0.038222298
-3.780418	czarna	-0.038222298
-3.925214	ponura	-0.038222298
-3.925214	radziła	-0.038222298
-3.925214	ocalił	-0.038222298
-3.6229422	tłumy	-0.038222298
-3.925214	stały	-0.038222298
-3.780418	przerażone	-0.038222298
-3.6229422	mieczem	-0.038222298
-3.925214	wpadłszy	-0.038222298
-3.780418	koronę	-0.038222298
-3.4682386	jednej	-0.038222298
-3.925214	gniewu	-0.038222298
-3.4682386	taki	-0.038222298
-3.925214	czyn	-0.038222298
-3.780418	śmiał	-0.038222298
-3.925214	posunąć	-0.038222298
-3.925214	wolałem	-0.038222298
-3.925214	wielkiemu	-0.038222298
-3.925214	zachwiać	-0.038222298
-3.925214	runąć	-0.038222298
-3.0213783	niż	-0.038222298
-3.925214	domowego	-0.038222298
-3.925214	rozlewu	-0.038222298
-3.925214	korzystać	-0.038222298
-3.2642922	miecz	-0.038222298
-3.4682386	łono	-0.13255338
-3.925214	starca	-0.038222298
-3.925214	wsunąć	-0.038222298
-3.925214	wyjść	-0.038222298
-3.925214	wyjętym	-0.038222298
-3.925214	orężem	-0.038222298
-3.925214	bronią	-0.038222298
-3.925214	wężem	-0.038222298
-3.925214	lii	-0.038222298
-3.925214	podziemnej	-0.038222298
-3.780418	filarów	-0.038222298
-3.780418	przykuty	-0.038222298
-3.925214	kamiennych	-0.038222298
-3.925214	pający	-0.038222298
-3.780418	ciemni	-0.038222298
-3.925214	robotnicy	-0.038222298
-3.925214	zacząłem	-0.038222298
-3.925214	gryzących	-0.038222298
-3.925214	bezsennych	-0.038222298
-3.925214	snuć	-0.038222298
-3.4682386	długie	-0.038222298
-3.925214	pasma	-0.038222298
-3.6229422	widmo	-0.038222298
-3.925214	przyłbicy	-0.038222298
-3.925214	płomiennych	-0.038222298
-3.925214	pokazywało	-0.038222298
-3.925214	naramiennice	-0.038222298
-3.925214	osiadły	-0.038222298
-3.925214	ścięte	-0.038222298
-3.925214	meduźnice	-0.038222298
-3.925214	silna	-0.038222298
-3.925214	bogata	-0.038222298
-3.354402	taką	-0.038222298
-3.925214	rządzicielką	-0.038222298
-3.925214	echem	-0.038222298
-3.925214	duchowego	-0.038222298
-3.925214	gadała	-0.038222298
-3.0213783	jego	-0.038222298
-3.780418	okropności	-0.2036545
-3.925214	głębin	-0.038222298
-3.925214	ćma	-0.038222298
-3.925214	niewidzialnych	-0.038222298
-3.780418	lata	-0.2036545
-3.925214	jasnoczerwonych	-0.038222298
-3.4682386	słów	-0.038222298
-3.925214	sztyletowości	-0.038222298
-3.925214	szepcących	-0.038222298
-3.6229422	siłę	-0.038222298
-3.925214	sztychu	-0.038222298
-3.925214	ciskała	-0.038222298
-3.925214	cichu	-0.038222298
-3.780418	myślał	-0.2036545
-3.925214	więzieniem	-0.038222298
-3.925214	uciszał	-0.038222298
-3.925214	goił	-0.038222298
-3.6229422	burze	-0.038222298
-3.925214	mylił	-0.038222298
-3.925214	grzmot	-0.038222298
-3.925214	słyszał	-0.038222298
-3.925214	gryzł	-0.038222298
-3.925214	chylił	-0.038222298
-3.780418	dyszał	-0.038222298
-3.6229422	żadnej	-0.038222298
-3.780418	mocy	-0.038222298
-3.925214	wysilił	-0.038222298
-3.925214	zarządzałem	-0.038222298
-3.6229422	sługi	-0.1412439
-3.780418	były	-0.038222298
-3.925214	spotkacie	-0.038222298
-3.925214	prawdziwą	-0.038222298
-3.1897044	twarzą	-0.079422124
-3.925214	waszego	-0.038222298
-3.925214	stróża	-0.038222298
-3.925214	widzialny	-0.038222298
-3.925214	chacie	-0.038222298
-3.780418	próżnych	-0.038222298
-3.925214	zanurza	-0.038222298
-3.925214	próżne	-0.038222298
-3.780418	czynów	-0.038222298
-3.925214	postacie	-0.038222298
-3.780418	innych	-0.038222298
-3.4682386	ton	-0.038222298
-3.780418	burza	-0.038222298
-3.925214	owiewająca	-0.038222298
-3.925214	żałobną	-0.038222298
-3.1260686	twarzy	-0.09473869
-3.780418	rapsodów	-0.038222298
-3.925214	podobną	-0.038222298
-3.925214	lvi	-0.038222298
-3.925214	gniewny	-0.038222298
-3.925214	mara	-0.038222298
-3.780418	zaś	-0.038222298
-3.354402	gwiazda	-0.038222298
-3.925214	biegła	-0.038222298
-3.925214	spojrzała	-0.038222298
-3.925214	przecudne	-0.038222298
-3.780418	królewny	-0.2036545
-3.780418	rąk	-0.038222298
-3.925214	różanego	-0.038222298
-3.925214	więzienia	-0.038222298
-3.925214	pajęczyny	-0.038222298
-3.925214	zamieniwszy	-0.038222298
-3.925214	rubiny	-0.038222298
-3.925214	lvii	-0.038222298
-3.925214	splecione	-0.038222298
-3.6229422	nóg	-0.038222298
-3.925214	złociste	-0.038222298
-3.4682386	włosy	-0.038222298
-3.925214	wlokły	-0.038222298
-3.925214	prawie	-0.038222298
-3.925214	głazów	-0.038222298
-3.925214	zieleni	-0.038222298
-3.925214	zakończone	-0.038222298
-3.925214	kłosy	-0.038222298
-3.925214	kwiatkami	-0.038222298
-3.925214	drogich	-0.038222298
-3.925214	błyszczących	-0.038222298
-3.925214	rzekłbyś	-0.038222298
-3.6229422	żywe	-0.1412439
-3.925214	losy	-0.038222298
-3.925214	aniołów	-0.038222298
-3.925214	światłych	-0.038222298
-3.925214	pierścieni	-0.038222298
-3.6229422	patrzą	-0.038222298
-3.925214	uczepione	-0.038222298
-3.925214	skrycie	-0.038222298
-3.925214	idącej	-0.038222298
-3.925214	amfitrycie	-0.038222298
-3.925214	lviii	-0.038222298
-3.925214	żywych	-0.038222298
-3.925214	klejnotów	-0.038222298
-3.4682386	mojej	-0.038222298
-3.780418	rysy	-0.038222298
-3.925214	innymi	-0.038222298
-3.925214	reszta	-0.038222298
-3.780418	mgły	-0.038222298
-3.925214	krwawią	-0.038222298
-3.925214	spróbował	-0.038222298
-3.2642922	niej	-0.038222298
-3.925214	śnić	-0.038222298
-3.780418	szaty	-0.038222298
-3.925214	fałd	-0.038222298
-3.1897044	wiecznie	-0.038222298
-3.925214	stawią	-0.038222298
-3.780418	oczach	-0.038222298
-3.925214	białymi	-0.038222298
-3.925214	nóżkami	-0.038222298
-3.6229422	idące	-0.038222298
-3.6229422	miesiące	-0.1412439
-3.925214	lix	-0.038222298
-3.925214	głębi	-0.038222298
-3.925214	granitnej	-0.038222298
-3.925214	nory	-0.038222298
-3.925214	schowany	-0.038222298
-3.925214	kłąb	-0.038222298
-3.925214	piekielnych	-0.038222298
-3.780418	światłem	-0.038222298
-3.780418	ohydne	-0.038222298
-3.925214	zbiorowisko	-0.038222298
-3.925214	członków	-0.038222298
-3.925214	łańcuchów	-0.038222298
-3.925214	zjeżony	-0.038222298
-3.925214	piekielne	-0.038222298
-3.780418	twory	-0.038222298
-3.780418	my	-0.038222298
-3.925214	znamy	-0.038222298
-3.925214	posłuchów	-0.038222298
-3.925214	słysząc	-0.038222298
-3.925214	niegdyś	-0.038222298
-3.925214	rodziła	-0.038222298
-3.925214	natura	-0.038222298
-3.925214	smoki	-0.038222298
-3.780418	ubrane	-0.038222298
-3.925214	lx	-0.038222298
-3.925214	pomny	-0.038222298
-3.925214	tronowi	-0.038222298
-3.925214	służył	-0.038222298
-3.925214	doznał	-0.038222298
-3.925214	zdrady	-0.038222298
-3.925214	miałem	-0.038222298
-3.780418	winy	-0.038222298
-3.925214	zadłużył	-0.038222298
-3.925214	dotknięty	-0.038222298
-3.6229422	okiem	-0.038222298
-3.925214	królewskiej	-0.038222298
-3.925214	dziewczyny	-0.038222298
-3.925214	skrzydłam	-0.038222298
-3.925214	brudne	-0.038222298
-3.925214	wzburzył	-0.038222298
-3.925214	piór	-0.038222298
-3.780418	siny	-0.2036545
-3.925214	takiem	-0.038222298
-3.925214	sił	-0.038222298
-3.4682386	moich	-0.038222298
-3.925214	gniewnych	-0.038222298
-3.925214	natężeniem	-0.038222298
-3.925214	mógł	-0.038222298
-3.780418	wzrokiem	-0.038222298
-3.925214	spalić	-0.038222298
-3.925214	lxi	-0.038222298
-3.925214	biedne	-0.038222298
-3.925214	schedy	-0.038222298
-3.925214	brać	-0.038222298
-3.925214	musim	-0.038222298
-3.4682386	nasze	-0.038222298
-3.925214	piękniejsze	-0.038222298
-3.780418	oto	-0.038222298
-3.925214	błyszczący	-0.038222298
-3.925214	kłem	-0.038222298
-3.925214	smok	-0.038222298
-3.925214	andromedy	-0.038222298
-3.1897044	ów	-0.038222298
-3.925214	drugi	-0.038222298
-3.780418	wąż	-0.038222298
-3.780418	idzie	-0.038222298
-3.780418	księgach	-0.2036545
-3.925214	lazurowych	-0.038222298
-3.925214	zbiera	-0.038222298
-3.925214	płuca	-0.038222298
-3.925214	wchłania	-0.038222298
-3.925214	serdecznym	-0.038222298
-3.925214	wyrzuca	-0.038222298
-3.925214	lxii	-0.038222298
-3.925214	piekielny	-0.038222298
-3.925214	mocny	-0.038222298
-3.780418	straszniejszy	-0.038222298
-3.925214	nieszczęśliwy	-0.038222298
-3.925214	wyiskrzył	-0.038222298
-3.354402	oczu	-0.038222298
-3.925214	północny	-0.038222298
-3.354402	więcej	-0.079422124
-3.925214	wolności	-0.038222298
-3.780418	chciwy	-0.038222298
-3.925214	czysty	-0.038222298
-3.925214	pomocny	-0.038222298
-3.6229422	otworzył	-0.038222298
-3.925214	wrota	-0.038222298
-3.925214	oliwy	-0.038222298
-3.925214	zamilczenia	-0.038222298
-3.780418	jęków	-0.038222298
-3.925214	przymuszone	-0.038222298
-3.780418	poszło	-0.038222298
-3.925214	lxiii	-0.038222298
-3.925214	czyni	-0.038222298
-3.780418	jednym	-0.038222298
-3.925214	niebacznym	-0.038222298
-3.925214	słowem	-0.038222298
-3.925214	pchnął	-0.038222298
-3.925214	dziwna	-0.038222298
-3.925214	harfach	-0.038222298
-3.780418	mistrzyni	-0.2036545
-3.925214	mająca	-0.038222298
-3.925214	niebieskich	-0.038222298
-3.780418	naturę	-0.038222298
-3.925214	czytała	-0.038222298
-3.925214	jakiejś	-0.038222298
-3.925214	sybillijnej	-0.038222298
-3.925214	skrzyni	-0.038222298
-3.4682386	może	-0.038222298
-3.925214	będąca	-0.038222298
-3.925214	córę	-0.038222298
-3.780418	głowie	-0.2036545
-3.925214	zerwą	-0.038222298
-3.925214	koniach	-0.038222298
-3.925214	lecący	-0.038222298
-3.925214	orłowie	-0.038222298
-3.0705764	sen	-0.038222272
-3.780418	jasno	-0.038222298
-3.780418	wyrzucił	-0.038222298
-3.925214	drugiego	-0.038222298
-3.354402	twarze	-0.038222298
-3.925214	ojcu	-0.038222298
-3.925214	rzekła	-0.038222298
-3.780418	ojciec	-0.038222298
-3.925214	zasmucił	-0.038222298
-3.925214	przywołać	-0.038222298
-3.925214	tłumaczące	-0.038222298
-3.925214	wrócił	-0.038222298
-3.925214	orzeł	-0.038222298
-3.925214	husarze	-0.038222298
-3.925214	rzędy	-0.038222298
-3.925214	długimi	-0.038222298
-3.925214	ustawił	-0.038222298
-3.925214	zjawił	-0.038222298
-3.925214	lxv	-0.038222298
-3.925214	nieszczęsna	-0.038222298
-3.925214	powiedziała	-0.038222298
-3.780418	sama	-0.038222298
-3.925214	winująca	-0.038222298
-3.925214	śniła	-0.038222298
-3.925214	ubrani	-0.038222298
-3.925214	spełnialiśmy	-0.038222298
-3.925214	miesiąca	-0.038222298
-3.925214	szatani	-0.038222298
-3.925214	mocą	-0.038222298
-3.0213783	ludzi	-0.038222298
-3.925214	trąca	-0.038222298
-3.925214	sprawili	-0.038222298
-3.780418	snu	-0.038222298
-3.780418	spadła	-0.038222298
-3.780418	rzeź	-0.038222298
-3.780418	*	-0.038222298
-3.925214	świeczniki	-0.038222298
-3.925214	lazurze	-0.038222298
-3.780418	trawach	-0.038222298
-3.925214	skrzeczki	-0.038222298
-3.925214	świerszczyki	-0.038222298
-3.354402	zamek	-0.038222298
-3.925214	cichy	-0.038222298
-3.780418	piaskowej	-0.038222298
-3.925214	górze	-0.038222298
-3.925214	zimno	-0.038222298
-3.925214	północne	-0.038222298
-3.925214	traw	-0.038222298
-3.925214	zapach	-0.038222298
-3.780418	dziki	-0.2036545
-3.780418	smętnie	-0.038222298
-3.925214	bijące	-0.038222298
-3.925214	naturze	-0.038222298
-3.925214	mocniej	-0.038222298
-3.925214	zagadało	-0.038222298
-3.4682386	koń	-0.038222298
-3.780418	ręku	-0.038222298
-3.925214	niosła	-0.038222298
-3.780418	warkocze	-0.038222298
-3.780418	drugą	-0.038222298
-3.780418	północ	-0.038222298
-3.925214	wskazała	-0.038222298
-3.925214	odludną	-0.038222298
-3.1897044	rzekłem	-0.038222272
-3.925214	wkroczę	-0.038222298
-3.925214	jednemu	-0.038222298
-3.6229422	przeciw	-0.038222298
-3.925214	burzom	-0.038222298
-3.925214	trudno	-0.038222298
-3.925214	koniu	-0.038222298
-3.925214	ostrogi	-0.038222298
-3.925214	umoczę	-0.038222298
-3.780418	będę	-0.038222298
-3.925214	pędził	-0.038222298
-3.925214	cudną	-0.038222298
-3.925214	pokażą	-0.038222298
-3.4682386	ziemskie	-0.038222298
-3.780418	narody	-0.038222298
-3.780418	królowę	-0.038222298
-3.780418	ognia	-0.038222298
-3.6229422	jeśli	-0.038222298
-3.925214	wrócę	-0.038222298
-3.925214	straszydło	-0.038222298
-3.925214	pamiętaj	-0.038222298
-3.780418	stąd	-0.038222298
-3.925214	ucieka	-0.038222298
-3.925214	cień	-0.038222298
-3.925214	obalony	-0.038222298
-3.925214	trawę	-0.038222298
-3.6229422	konia	-0.038222298
-3.925214	orlich	-0.038222298
-3.925214	postawę	-0.038222298
-3.925214	wypędza	-0.038222298
-3.925214	nieszczęście	-0.038222298
-3.925214	wścieka	-0.038222298
-3.925214	wichrem	-0.038222298
-3.925214	oszczędzi	-0.038222298
-3.925214	powrót	-0.038222298
-3.925214	grom	-0.038222298
-3.925214	przypędzi	-0.038222298
-3.925214	pogroziłem	-0.038222298
-3.925214	światu	-0.038222298
-3.925214	wścieklejszy	-0.038222298
-3.925214	bezsilny	-0.038222298
-3.925214	polach	-0.038222298
-3.925214	czystego	-0.038222298
-3.925214	bławatu	-0.038222298
-3.925214	otwarte	-0.038222298
-3.925214	słuch	-0.038222298
-3.780418	miały	-0.038222298
-3.925214	pilny	-0.038222298
-3.925214	wschodzie	-0.038222298
-3.925214	wstęga	-0.038222298
-3.925214	szkarłatu	-0.038222298
-3.925214	świeciła	-0.038222298
-3.925214	szarym	-0.038222298
-3.925214	omylny	-0.038222298
-3.925214	nadawając	-0.038222298
-3.780418	zorze	-0.2036545
-3.925214	zdawały	-0.038222298
-3.925214	płynące	-0.038222298
-3.780418	morze	-0.1412439
-3.925214	wierzby	-0.038222298
-3.925214	zielona	-0.038222298
-3.925214	róży	-0.038222298
-3.925214	różano	-0.038222298
-3.925214	ognistych	-0.038222298
-3.925214	zanurzała	-0.038222298
-3.780418	łona	-0.038222298
-3.925214	zmienna	-0.038222298
-3.925214	młodzieńczym	-0.038222298
-3.925214	tęsknota	-0.038222298
-3.925214	skrzydlate	-0.038222298
-3.925214	obrócił	-0.038222298
-3.354402	ramiona	-0.25663584
-3.925214	wschodowi	-0.038222298
-3.925214	nowego	-0.038222298
-3.925214	uciekałem	-0.038222298
-3.780418	bladą	-0.038222298
-3.925214	strażą	-0.038222298
-3.780418	odkryty	-0.2036545
-3.925214	wiadomy	-0.038222298
-3.780418	wtedy	-0.038222298
-3.925214	tajemniczy	-0.038222298
-3.925214	upior	-0.038222298
-3.925214	umyty	-0.038222298
-3.925214	złotem	-0.038222298
-3.925214	dziwu	-0.038222298
-3.925214	wabił	-0.038222298
-3.925214	zdobyczy	-0.038222298
-3.925214	ohydzał	-0.038222298
-3.925214	wszelki	-0.038222298
-3.925214	zdobyty	-0.038222298
-3.925214	krzycząc	-0.038222298
-3.354402	dziecko	-0.086685404
-3.925214	przydławione	-0.038222298
-3.925214	krzyczy	-0.038222298
-3.780418	gdyś	-0.038222298
-3.925214	ucisnął	-0.038222298
-3.6229422	tarczy	-0.038222298
-3.925214	błyśnieniem	-0.038222298
-3.925214	wywołał	-0.038222298
-3.354402	strach	-0.038222298
-3.925214	objawieniem	-0.038222298
-3.4682386	ciemnych	-0.038222298
-3.925214	puszczach	-0.038222298
-3.780418	gdziem	-0.038222298
-3.925214	błąkał	-0.038222298
-3.925214	gnana	-0.038222298
-3.925214	wichrami	-0.038222298
-3.780418	przyszłości	-0.038222298
-3.354402	kto	-0.0740533
-3.925214	napotkał	-0.038222298
-3.6229422	widział	-0.038222298
-3.780418	wprzód	-0.038222298
-3.780418	lica	-0.038222298
-3.925214	zbroję	-0.038222298
-3.780418	młot	-0.038222298
-3.780418	kolana	-0.038222298
-3.925214	gorzała	-0.038222298
-3.925214	świéca	-0.038222298
-3.925214	sosnami	-0.038222298
-3.925214	samych	-0.038222298
-3.780418	blisko	-0.038222298
-3.925214	miedziane	-0.038222298
-3.925214	mając	-0.038222298
-3.925214	ostrze	-0.038222298
-3.925214	ognisko	-0.038222298
-3.925214	pustym	-0.038222298
-3.4682386	śród	-0.038222298
-3.925214	sosen	-0.038222298
-3.925214	smętarzu	-0.038222298
-3.925214	spotkałem	-0.038222298
-3.780418	smętne	-0.038222298
-3.6229422	dzikie	-0.038222298
-3.925214	germany	-0.038222298
-3.925214	duchu	-0.038222298
-3.925214	dawnej	-0.038222298
-3.780418	przeszłości	-0.038222298
-3.925214	malarzu	-0.038222298
-3.925214	widzisz	-0.038222298
-3.925214	sosnowe	-0.038222298
-3.780418	ściany	-0.2036545
-3.925214	wozy	-0.038222298
-3.780418	ogniska	-0.038222298
-3.925214	rozżarzu	-0.038222298
-3.4682386	białych	-0.038222298
-3.925214	piszczeli	-0.038222298
-3.4682386	nich	-0.038222298
-3.925214	wydarte	-0.038222298
-3.925214	legionom	-0.038222298
-3.925214	lampom	-0.038222298
-3.925214	koronom	-0.038222298
-3.925214	pytasz	-0.038222298
-3.925214	przyczynił	-0.038222298
-3.780418	głosu	-0.038222298
-3.925214	języka	-0.038222298
-3.925214	liczni	-0.038222298
-3.925214	krzyknąłem	-0.038222298
-3.780418	niebie	-0.038222298
-3.925214	odmyka	-0.038222298
-3.925214	wytnę	-0.038222298
-3.925214	wami	-0.038222298
-3.925214	pogrzebię	-0.038222298
-3.925214	mogilnika	-0.038222298
-3.925214	urra	-0.038222298
-3.925214	ha	-0.038222298
-3.6229422	gwiazdę	-0.038222298
-3.780418	pokazałem	-0.038222298
-3.780418	białą	-0.038222298
-3.6229422	dnia	-0.038222298
-3.780418	wschodzącego	-0.038222298
-3.925214	lasom	-0.038222298
-3.925214	wstało	-0.038222298
-3.925214	dziesiątki	-0.038222298
-3.925214	groźnych	-0.038222298
-3.925214	kroci	-0.038222298
-3.780418	wstały	-0.038222298
-3.925214	gotowe	-0.038222298
-3.925214	uraganną	-0.038222298
-3.6229422	boku	-0.038222298
-3.925214	paproci	-0.038222298
-3.925214	białością	-0.038222298
-3.925214	swoją	-0.038222298
-3.925214	zadziwił	-0.038222298
-3.780418	szklanną	-0.038222298
-3.925214	cudownej	-0.038222298
-3.780418	dobroci	-0.2036545
-3.925214	ciszy	-0.038222298
-3.925214	zorzą	-0.038222298
-3.925214	oświecony	-0.038222298
-3.780418	ranną	-0.038222298
-3.925214	zwalony	-0.038222298
-3.925214	dzikich	-0.038222298
-3.925214	strumieniu	-0.038222298
-3.6229422	posąg	-0.038222298
-3.925214	płomieniu	-0.038222298
-3.925214	xi	-0.038222298
-3.6229422	jaka	-0.038222298
-3.925214	nieskalanej	-0.038222298
-3.925214	bieli	-0.038222298
-3.925214	czarujące	-0.038222298
-3.6229422	słowa	-0.038222298
-3.925214	fijołkowej	-0.038222298
-3.925214	uśpiły	-0.038222298
-3.925214	pościeli	-0.038222298
-3.925214	barbarzyniec	-0.038222298
-3.925214	ciął	-0.038222298
-3.925214	głowa	-0.038222298
-3.6229422	lampa	-0.038222298
-3.780418	ciemność	-0.038222298
-3.925214	rozweseli	-0.038222298
-3.925214	skoczyła	-0.038222298
-3.6229422	chwilę	-0.038222298
-3.6229422	błękicie	-0.038222298
-3.925214	trwając	-0.038222298
-3.1897044	potem	-0.038222272
-3.925214	błysnęła	-0.038222298
-3.925214	spadając	-0.038222298
-3.925214	zawrzawszy	-0.038222298
-3.925214	gniewem	-0.038222298
-3.925214	brzeszczota	-0.038222298
-3.925214	dobywszy	-0.038222298
-3.925214	barbarzyńca	-0.038222298
-3.925214	grenada	-0.038222298
-3.925214	rozwalił	-0.038222298
-3.780418	łeb	-0.038222298
-3.780418	połą	-0.038222298
-3.925214	zegar	-0.038222298
-3.925214	widzący	-0.038222298
-3.925214	tajemnicami	-0.038222298
-3.780418	czerwonych	-0.038222298
-3.925214	zioło	-0.038222298
-3.780418	wszystkich	-0.038222298
-3.925214	sprężyn	-0.038222298
-3.780418	ruchy	-0.038222298
-3.780418	dwie	-0.038222298
-3.925214	głów	-0.038222298
-3.925214	uczynił	-0.038222298
-3.925214	moce	-0.038222298
-3.925214	zapewne	-0.038222298
-3.925214	statuy	-0.038222298
-3.925214	zwołane	-0.038222298
-3.925214	zemszczeniem	-0.038222298
-3.925214	przybiegły	-0.038222298
-3.780418	pomoc	-0.038222298
-3.925214	chociaż	-0.038222298
-3.925214	proce	-0.038222298
-3.925214	cisnęły	-0.038222298
-3.925214	mord	-0.038222298
-3.780418	kamieniem	-0.2036545
-3.925214	druzgoce	-0.038222298
-3.925214	napełniłem	-0.038222298
-3.925214	przerażeniem	-0.038222298
-3.925214	przerażeniu	-0.038222298
-3.4682386	takim	-0.038222298
-3.925214	wielkim	-0.038222298
-3.925214	żarem	-0.038222298
-3.925214	ukochał	-0.038222298
-3.925214	nazwał	-0.038222298
-3.925214	kiejzarem	-0.038222298
-3.925214	głęboki	-0.038222298
-3.6229422	biały	-0.1412439
-3.925214	nadistrowa	-0.038222298
-3.925214	chata	-0.038222298
-3.925214	mówi	-0.038222298
-3.925214	powiastkę	-0.038222298
-3.925214	wierzy	-0.038222298
-3.925214	zniszczenie	-0.038222298
-3.925214	zemszczony	-0.038222298
-3.780418	przysłał	-0.038222298
-3.925214	obaczywszy	-0.038222298
-3.925214	burzę	-0.038222298
-3.925214	gwiażdżące	-0.038222298
-3.925214	zawiesił	-0.038222298
-3.2642922	ludzie	-0.038222298
-3.925214	czyny	-0.038222298
-3.780418	męczarnie	-0.2036545
-3.925214	zebrałem	-0.038222298
-3.925214	miliony	-0.038222298
-3.925214	wezwę	-0.038222298
-3.925214	ogarnie	-0.038222298
-3.4682386	różnych	-0.038222298
-3.925214	różnej	-0.038222298
-3.925214	chmurach	-0.038222298
-3.780418	latarnie	-0.2036545
-3.925214	pokazują	-0.038222298
-3.925214	zdołam	-0.038222298
-3.925214	czynić	-0.038222298
-3.925214	one	-0.038222298
-3.925214	przywołam	-0.038222298
-3.925214	barbarzyńcami	-0.038222298
-3.925214	uroczyskach	-0.038222298
-3.925214	pilnie	-0.038222298
-3.925214	uważałem	-0.038222298
-3.925214	cuda	-0.038222298
-3.925214	kołyskach	-0.038222298
-3.925214	nikną	-0.038222298
-3.925214	szczep	-0.038222298
-3.925214	drzewie	-0.038222298
-3.925214	uda	-0.038222298
-3.925214	zaszczepienie	-0.038222298
-3.925214	piorunnych	-0.038222298
-3.780418	błyskach	-0.2036545
-3.925214	odbyte	-0.038222298
-3.925214	nuda	-0.038222298
-3.925214	panują	-0.038222298
-3.925214	chwilom	-0.038222298
-3.925214	trwożą	-0.038222298
-3.780418	pianie	-0.038222298
-3.925214	kurów	-0.038222298
-3.925214	piłata	-0.038222298
-3.6229422	zda	-0.20917091
-3.925214	ranne	-0.038222298
-3.925214	pieją	-0.038222298
-3.780418	smutne	-0.038222298
-3.780418	krzyk	-0.038222298
-3.925214	dzieciny	-0.038222298
-3.925214	przedrannym	-0.038222298
-3.6229422	strachem	-0.038222298
-3.4682386	niebiosa	-0.038222298
-3.925214	ciemnieją	-0.038222298
-3.6229422	wychodzi	-0.038222298
-3.1897044	gwiazd	-0.0740533
-3.780418	błękit	-0.038222298
-3.925214	miast	-0.038222298
-3.925214	grzeją	-0.038222298
-3.925214	przerażeni	-0.038222298
-3.925214	godziny	-0.038222298
-3.925214	gotowi	-0.038222298
-3.925214	zaprzeć	-0.038222298
-3.925214	obzierają	-0.038222298
-3.925214	zbójce	-0.038222298
-3.925214	słucha	-0.038222298
-3.925214	mimo	-0.038222298
-3.6229422	biła	-0.038222298
-3.925214	żyły	-0.038222298
-3.925214	dzwonił	-0.038222298
-3.925214	czerwonym	-0.038222298
-3.925214	skry	-0.038222298
-3.925214	ronił	-0.038222298
-3.6229422	gadał	-0.038222298
-3.925214	dzida	-0.038222298
-3.925214	rosła	-0.038222298
-3.925214	szabla	-0.038222298
-3.925214	żyła	-0.038222298
-3.780418	wiatry	-0.038222298
-3.925214	dawały	-0.038222298
-3.925214	bronił	-0.038222298
-3.925214	złym	-0.038222298
-3.925214	dniu	-0.038222298
-3.925214	wrzaski	-0.038222298
-3.925214	ostrzegały	-0.038222298
-3.925214	krucze	-0.038222298
-3.925214	dobrym	-0.038222298
-3.925214	żurawiane	-0.038222298
-3.925214	klucze	-0.038222298
-3.925214	władze	-0.038222298
-3.925214	ostrzegany	-0.038222298
-3.780418	wpadłem	-0.038222298
-3.925214	moję	-0.038222298
-3.780418	nieszczęśliwą	-0.038222298
-3.925214	zabijany	-0.038222298
-3.925214	królewnę	-0.038222298
-3.780418	patrzał	-0.038222298
-3.925214	żywą	-0.038222298
-3.780418	różnymi	-0.038222298
-3.925214	pokazywała	-0.038222298
-3.780418	strasznych	-0.038222298
-3.925214	walk	-0.038222298
-3.925214	kurzawie	-0.038222298
-3.925214	podobna	-0.038222298
-3.925214	białej	-0.038222298
-3.925214	sławie	-0.038222298
-3.925214	ciągły	-0.038222298
-3.925214	tabor	-0.038222298
-3.925214	zbrój	-0.038222298
-3.780418	czarnych	-0.038222298
-3.925214	mieczów	-0.038222298
-3.925214	tarcz	-0.038222298
-3.780418	sztandary	-0.2036545
-3.925214	ilekroć	-0.038222298
-3.780418	wieczór	-0.038222298
-3.925214	zabrudzi	-0.038222298
-3.925214	nocne	-0.038222298
-3.780418	mary	-0.038222298
-3.925214	wstają	-0.038222298
-3.925214	bagnach	-0.038222298
-3.925214	czudzi	-0.038222298
-3.925214	żółte	-0.038222298
-3.925214	połowce	-0.038222298
-3.925214	nadmorskie	-0.038222298
-3.925214	strzał	-0.038222298
-3.925214	brzęczą	-0.038222298
-3.780418	biją	-0.038222298
-3.925214	straszniejsi	-0.038222298
-3.925214	jęczą	-0.038222298
-3.925214	wrzask	-0.038222298
-3.925214	wycie	-0.038222298
-3.925214	narodów	-0.038222298
-3.925214	korycie	-0.038222298
-3.925214	przyparłem	-0.038222298
-3.925214	fal	-0.038222298
-3.925214	szyków	-0.038222298
-3.780418	jasnym	-0.038222298
-3.925214	wyprawili	-0.038222298
-3.925214	świcie	-0.038222298
-3.925214	najstarszych	-0.038222298
-3.780418	swego	-0.038222298
-3.925214	tysiączników	-0.038222298
-3.925214	prosząc	-0.038222298
-3.925214	pokój	-0.038222298
-3.925214	bryłę	-0.038222298
-3.925214	ledwo	-0.038222298
-3.780418	mogiłę	-0.038222298
-3.925214	lwią	-0.038222298
-3.925214	skórą	-0.038222298
-3.925214	rudozłotą	-0.038222298
-3.925214	siedząc	-0.038222298
-3.925214	prostej	-0.038222298
-3.925214	powózce	-0.038222298
-3.780418	pierwej	-0.038222298
-3.925214	dziewczęta	-0.038222298
-3.925214	rozplotą	-0.038222298
-3.925214	córki	-0.038222298
-3.925214	najpierwszych	-0.038222298
-3.925214	supanów	-0.038222298
-3.925214	płaczem	-0.038222298
-3.925214	tęsknotą	-0.038222298
-3.925214	zmiękczona	-0.038222298
-3.4682386	nam	-0.113108486
-3.925214	roztruchanów	-0.038222298
-3.925214	nalewać	-0.038222298
-3.925214	wina	-0.038222298
-3.925214	złotowłosą	-0.038222298
-3.925214	tarczach	-0.038222298
-3.780418	podniosą	-0.038222298
-3.780418	ludy	-0.038222298
-3.925214	okrzykniona	-0.038222298
-3.925214	królową	-0.038222298
-3.925214	mosiężnej	-0.038222298
-3.925214	plemiona	-0.038222298
-3.925214	pozachwyca	-0.038222298
-3.6229422	drżące	-0.038222298
-3.925214	otworzę	-0.038222298
-3.925214	zleciała	-0.038222298
-3.925214	gołębica	-0.038222298
-3.925214	wyprosiła	-0.038222298
-3.925214	usty	-0.038222298
-3.925214	różanymi	-0.038222298
-3.925214	chce	-0.038222298
-3.925214	pół	-0.038222298
-3.2642922	stary	-0.086685404
-3.925214	posłowie	-0.038222298
-3.925214	odeszli	-0.038222298
-3.780418	postać	-0.038222298
-3.925214	senna	-0.038222298
-3.780418	zaczęła	-0.038222298
-3.925214	jaśnieć	-0.038222298
-3.4682386	coraz	-0.113108486
-3.925214	bardziej	-0.038222298
-3.925214	jawić	-0.038222298
-3.925214	płomienna	-0.038222298
-3.925214	ległem	-0.038222298
-3.925214	wezgłowie	-0.038222298
-3.925214	ognista	-0.038222298
-3.925214	pruta	-0.038222298
-3.925214	ciemna	-0.038222298
-3.780418	czerwona	-0.038222298
-3.925214	parami	-0.038222298
-3.925214	huta	-0.038222298
-3.780418	piersiach	-0.038222298
-3.925214	darłem	-0.038222298
-3.925214	skórzane	-0.038222298
-3.925214	odzienie	-0.038222298
-3.925214	łoża	-0.038222298
-3.925214	tęczami	-0.038222298
-3.925214	osnuty	-0.038222298
-3.925214	grających	-0.038222298
-3.925214	pierścienie	-0.038222298
-3.925214	wiązały	-0.038222298
-3.925214	nuty	-0.038222298
-3.925214	dzwoniące	-0.038222298
-3.925214	cudne	-0.038222298
-3.925214	śliczne	-0.038222298
-3.925214	powietrzne	-0.038222298
-3.925214	narzędzia	-0.038222298
-3.925214	muzyczne	-0.038222298
-3.6229422	głosy	-0.038222298
-3.925214	którymi	-0.038222298
-3.925214	dziewczyna	-0.038222298
-3.925214	wyleciałem	-0.038222298
-3.925214	sina	-0.038222298
-3.925214	obracająca	-0.038222298
-3.925214	powietrznym	-0.038222298
-3.925214	chorałem	-0.038222298
-3.925214	powietrznego	-0.038222298
-3.925214	młyna	-0.038222298
-3.925214	kręcąc	-0.038222298
-3.925214	przywiodła	-0.038222298
-3.925214	rwałem	-0.038222298
-3.6229422	jęki	-0.038222298
-3.925214	zmiany	-0.038222298
-3.925214	idący	-0.038222298
-3.925214	toń	-0.038222298
-3.780418	zwariowany	-0.2036545
-3.780418	noc	-0.038222298
-3.4682386	głowę	-0.038222298
-3.925214	włożywszy	-0.038222298
-3.925214	wsiadłem	-0.038222298
-3.925214	pędzę	-0.038222298
-3.925214	cwałem	-0.038222298
-3.6229422	szare	-0.1412439
-3.925214	perłowe	-0.038222298
-3.925214	wieży	-0.038222298
-3.925214	sterczący	-0.038222298
-3.925214	kawałem	-0.038222298
-3.925214	swoję	-0.038222298
-3.925214	otoczył	-0.038222298
-3.925214	ceglanym	-0.038222298
-3.925214	wałem	-0.038222298
-3.925214	przyleciawszy	-0.038222298
-3.925214	róg	-0.038222298
-3.925214	mosiężny	-0.038222298
-3.925214	dzwonię	-0.038222298
-3.925214	grzmię	-0.038222298
-3.925214	oderżały	-0.038222298
-3.925214	konie	-0.038222298
-3.925214	siwy	-0.038222298
-3.780418	swityn	-0.038222298
-3.925214	wojewoda	-0.038222298
-3.925214	przeciera	-0.038222298
-3.925214	źrenice	-0.038222298
-3.780418	idź	-0.038222298
-3.925214	wczorajszych	-0.038222298
-3.925214	szkoda	-0.038222298
-3.925214	zanadto	-0.038222298
-3.925214	ostre	-0.038222298
-3.925214	wasza	-0.038222298
-3.780418	jasna	-0.038222298
-3.780418	młoda	-0.038222298
-3.925214	naleje	-0.038222298
-3.354402	czary	-0.038222298
-3.925214	podniesie	-0.038222298
-3.780418	przyłbicę	-0.2036545
-3.925214	łatwo	-0.038222298
-3.925214	rozkaz	-0.038222298
-3.925214	wykona	-0.038222298
-3.925214	zaśpiewać	-0.038222298
-3.925214	paść	-0.038222298
-3.6229422	brzegiem	-0.038222298
-3.925214	prowadził	-0.038222298
-3.780418	tłum	-0.038222298
-3.780418	mały	-0.2036545
-3.925214	rybacy	-0.038222298
-3.6229422	trzymali	-0.038222298
-3.925214	niewody	-0.038222298
-3.925214	kilka	-0.038222298
-3.925214	świec	-0.038222298
-3.925214	ranek	-0.038222298
-3.925214	błyszczał	-0.038222298
-3.925214	kapłani	-0.038222298
-3.925214	lutniami	-0.038222298
-3.925214	zrębie	-0.038222298
-3.925214	małej	-0.038222298
-3.925214	skały	-0.038222298
-3.925214	wierzbą	-0.038222298
-3.925214	okryci	-0.038222298
-3.925214	wzgórzach	-0.038222298
-3.925214	zmroku	-0.038222298
-3.925214	zapalano	-0.038222298
-3.925214	wici	-0.038222298
-3.925214	łące	-0.038222298
-3.925214	dziewy	-0.038222298
-3.925214	panny	-0.038222298
-3.925214	służebne	-0.038222298
-3.925214	krzątające	-0.038222298
-3.925214	niosły	-0.038222298
-3.925214	kadzielnice	-0.038222298
-3.925214	dyjadematów	-0.038222298
-3.925214	półmiesiące	-0.038222298
-3.780418	inne	-0.038222298
-3.925214	bławatki	-0.038222298
-3.925214	wieńca	-0.038222298
-3.925214	potrzebne	-0.038222298
-3.925214	zbierały	-0.038222298
-3.780418	rzucając	-0.038222298
-3.925214	wiślanym	-0.038222298
-3.925214	ofiarę	-0.038222298
-3.925214	wywoływam	-0.038222298
-3.780418	ileż	-0.038222298
-3.925214	różaność	-0.038222298
-3.925214	przedwschodnia	-0.038222298
-3.925214	okryte	-0.038222298
-3.925214	zrywam	-0.038222298
-3.925214	leśne	-0.038222298
-3.925214	ptaszki	-0.038222298
-3.925214	budzące	-0.038222298
-3.925214	używam	-0.038222298
-3.925214	zapali	-0.038222298
-3.925214	pochodnia	-0.038222298
-3.925214	przypominały	-0.038222298
-3.925214	rzewny	-0.038222298
-3.925214	ubranie	-0.038222298
-3.925214	martwej	-0.038222298
-3.925214	łąkach	-0.038222298
-3.780418	niego	-0.038222298
-3.780418	zetrze	-0.2036545
-3.925214	pozłotę	-0.038222298
-3.354402	dzień	-0.038222298
-3.925214	jesieni	-0.038222298
-3.925214	topi	-0.038222298
-3.4682386	błękitne	-0.038222298
-3.925214	lekko	-0.038222298
-3.925214	zarumieni	-0.038222298
-3.6229422	lasów	-0.038222298
-3.925214	wietrze	-0.038222298
-3.925214	drżą	-0.038222298
-3.925214	liście	-0.038222298
-3.925214	liściach	-0.038222298
-3.925214	płomieni	-0.038222298
-3.925214	okrągły	-0.038222298
-3.925214	przemienia	-0.038222298
-3.925214	mgłę	-0.038222298
-3.925214	cudowna	-0.038222298
-3.925214	srebrnego	-0.038222298
-3.925214	cienia	-0.038222298
-3.925214	nieco	-0.038222298
-3.925214	błękitom	-0.038222298
-3.925214	zgonu	-0.038222298
-3.925214	okropnością	-0.038222298
-3.925214	geognamez	-0.038222298
-3.925214	upiorną	-0.038222298
-3.925214	odśmiechnione	-0.038222298
-3.925214	złością	-0.038222298
-3.925214	zresztą	-0.038222298
-3.925214	onym	-0.038222298
-3.925214	kobietom	-0.038222298
-3.925214	dawała	-0.038222298
-3.925214	stroić	-0.038222298
-3.925214	modrzewiów	-0.038222298
-3.780418	ciemnością	-0.038222298
-3.780418	koroną	-0.038222298
-3.925214	wieńcami	-0.038222298
-3.925214	powiększał	-0.038222298
-3.780418	trupa	-0.038222298
-3.925214	gminu	-0.038222298
-3.925214	cóż	-0.038222298
-3.925214	dopiero	-0.038222298
-3.925214	odkryłem	-0.038222298
-3.780418	hełmu	-0.038222298
-3.925214	spojrzałem	-0.038222298
-3.925214	surowo	-0.038222298
-3.925214	połamawszy	-0.038222298
-3.4682386	miecza	-0.038222298
-3.925214	kawałki	-0.038222298
-3.925214	mrok	-0.038222298
-3.925214	świéce	-0.038222298
-3.780418	kitą	-0.038222298
-3.925214	purpurową	-0.038222298
-3.925214	zawierucha	-0.038222298
-3.925214	olimpijska	-0.038222298
-3.925214	hełmie	-0.038222298
-3.780418	stanął	-0.038222298
-3.780418	wyszedł	-0.038222298
-3.925214	zwierzęcy	-0.038222298
-3.925214	niepodobny	-0.038222298
-3.925214	krzykowi	-0.038222298
-3.925214	zbudził	-0.038222298
-3.780418	sto	-0.2036545
-3.925214	tysięcy	-0.038222298
-3.6229422	szli	-0.038222298
-3.925214	huczące	-0.038222298
-3.925214	daleka	-0.038222298
-3.925214	wystawiłem	-0.038222298
-3.6229422	okropny	-0.038222298
-3.780418	książęcy	-0.2036545
-3.925214	wysoki	-0.038222298
-3.925214	wiślana	-0.038222298
-3.925214	rzeka	-0.038222298
-3.780418	bladych	-0.038222298
-3.925214	zatrzymana	-0.038222298
-3.925214	murze	-0.038222298
-3.925214	stanęła	-0.038222298
-3.925214	purpurze	-0.038222298
-3.925214	oddałem	-0.038222298
-3.925214	płomieniom	-0.038222298
-3.925214	słyszała	-0.038222298
-3.925214	lamentów	-0.038222298
-3.925214	waszym	-0.038222298
-3.925214	pierścieniom	-0.038222298
-3.925214	wiślanych	-0.038222298
-3.925214	oschnąć	-0.038222298
-3.925214	dyjamentów	-0.038222298
-3.925214	każę	-0.038222298
-3.925214	podziemnym	-0.038222298
-3.925214	zamienić	-0.038222298
-3.925214	cieniom	-0.038222298
-3.780418	gmachy	-0.038222298
-3.4682386	pełne	-0.038222298
-3.925214	zakrętów	-0.038222298
-3.925214	alabastrowej	-0.038222298
-3.6229422	położę	-0.1412439
-3.925214	trumnie	-0.038222298
-3.925214	strzec	-0.038222298
-3.925214	wieków	-0.038222298
-3.925214	śpiewaczce	-0.038222298
-3.925214	kolumnie	-0.038222298
-3.925214	zbalsamowaną	-0.038222298
-3.780418	wiecznym	-0.038222298
-3.925214	zdjętą	-0.038222298
-3.925214	spaniem	-0.038222298
-3.925214	atłasach	-0.038222298
-3.925214	przyjdę	-0.038222298
-3.925214	legnę	-0.038222298
-3.925214	wzdychaniem	-0.038222298
-3.1260686	twój	-0.038222298
-3.780418	spokojny	-0.038222298
-3.925214	zatrwożę	-0.038222298
-3.925214	wstaniesz	-0.038222298
-3.925214	pocałowaniem	-0.038222298
-3.925214	dasz	-0.038222298
-3.925214	ocknienia	-0.038222298
-3.925214	światłości	-0.038222298
-3.925214	weźmiesz	-0.038222298
-3.780418	podziemnych	-0.038222298
-3.925214	cieniach	-0.038222298
-3.925214	czytająca	-0.038222298
-3.925214	kamieniach	-0.038222298
-3.780418	kraju	-0.038222298
-3.925214	smętno	-0.038222298
-3.925214	posępnie	-0.038222298
-3.925214	głucho	-0.038222298
-3.925214	śpiąca	-0.038222298
-3.925214	nawałnica	-0.038222298
-3.925214	otwartą	-0.038222298
-3.925214	źrenicą	-0.038222298
-3.925214	suchą	-0.038222298
-3.925214	smętna	-0.038222298
-3.925214	czytelnica	-0.038222298
-3.925214	perła	-0.038222298
-3.925214	perle	-0.038222298
-3.925214	lejąca	-0.038222298
-3.925214	ucho	-0.038222298
-3.925214	wyrazów	-0.038222298
-3.925214	tysiąca	-0.038222298
-3.6229422	lat	-0.038222298
-3.925214	uczyni	-0.038222298
-3.925214	pośmiertne	-0.038222298
-3.925214	przeczuwając	-0.038222298
-3.925214	znów	-0.038222298
-3.925214	zajęty	-0.038222298
-3.925214	pożarem	-0.038222298
-3.925214	złożyć	-0.038222298
-3.925214	gwiaździcach	-0.038222298
-3.925214	mieczy	-0.038222298
-3.925214	upoić	-0.038222298
-3.925214	krwawym	-0.038222298
-3.925214	rycerskim	-0.038222298
-3.925214	sztandarem	-0.038222298
-3.925214	onej	-0.038222298
-3.925214	kaleczy	-0.038222298
-3.925214	niewczesnym	-0.038222298
-3.925214	nieludzkim	-0.038222298
-3.925214	skwarem	-0.038222298
-3.925214	uciec	-0.038222298
-3.925214	wyspę	-0.038222298
-3.925214	zamrożoną	-0.038222298
-3.925214	siedmiu	-0.038222298
-3.780418	wulkanów	-0.038222298
-3.780418	czerwoną	-0.038222298
-3.925214	krzyczałem	-0.038222298
-3.925214	lodowiskach	-0.038222298
-3.925214	ujęty	-0.038222298
-3.925214	krysztale	-0.038222298
-3.925214	rubinowych	-0.038222298
-3.925214	opłomienioną	-0.038222298
-3.925214	posadzę	-0.038222298
-3.925214	skale	-0.038222298
-3.925214	dzikimi	-0.038222298
-3.925214	urwiskach	-0.038222298
-3.925214	dzikszy	-0.038222298
-3.780418	fale	-0.2036545
-3.4682386	góry	-0.038222298
-3.780418	będą	-0.038222298
-3.780418	ognie	-0.038222298
-3.925214	zionąć	-0.038222298
-3.925214	mrozom	-0.038222298
-3.925214	zgryźć	-0.038222298
-3.925214	ogniom	-0.038222298
-3.925214	pochłonąć	-0.038222298
-3.6229422	kształty	-0.038222298
-3.925214	piramidalne	-0.038222298
-3.925214	wyrzucał	-0.038222298
-3.925214	dawną	-0.038222298
-3.925214	tryskając	-0.038222298
-3.780418	naturą	-0.2036545
-3.780418	łańcuchy	-0.038222298
-3.925214	fatalne	-0.038222298
-3.925214	targał	-0.038222298
-3.780418	chmurą	-0.038222298
-3.925214	roki	-0.038222298
-3.925214	zabrały	-0.038222298
-3.925214	walne	-0.038222298
-3.925214	okryły	-0.038222298
-3.780418	purpurą	-0.2036545
-3.925214	ohydnie	-0.038222298
-3.925214	znikczemniał	-0.038222298
-3.925214	siadł	-0.038222298
-3.925214	zmroczył	-0.038222298
-3.925214	ściemniał	-0.038222298
-3.925214	któż	-0.038222298
-3.6229422	księgi	-0.038222298
-3.4682386	ludzkie	-0.038222298
-3.925214	włożyć	-0.038222298
-3.925214	marnej	-0.038222298
-3.925214	spowiedzi	-0.038222298
-3.925214	postanowiłem	-0.038222298
-3.925214	zatrwożyć	-0.038222298
-3.925214	uderzyć	-0.038222298
-3.925214	tarczę	-0.038222298
-3.925214	miedzi	-0.038222298
-3.925214	zbrodniami	-0.038222298
-3.925214	przedrzeć	-0.038222298
-3.925214	otworzyć	-0.038222298
-3.925214	kolumnami	-0.038222298
-3.925214	praw	-0.038222298
-3.925214	siedzi	-0.038222298
-3.925214	zatrząść	-0.038222298
-3.925214	posady	-0.038222298
-3.925214	niebiosach	-0.038222298
-3.925214	fortecą	-0.038222298
-3.925214	zgwałconą	-0.038222298
-3.925214	przecie	-0.038222298
-3.925214	przylecą	-0.038222298
-3.925214	bliżej	-0.038222298
-3.925214	oblicz	-0.038222298
-3.925214	ukażą	-0.038222298
-3.925214	ogony	-0.038222298
-3.925214	zaniecą	-0.038222298
-3.6229422	drugie	-0.038222298
-3.925214	trzecie	-0.038222298
-3.925214	zlęknę	-0.038222298
-3.925214	splami	-0.038222298
-3.925214	przyjdą	-0.038222298
-3.925214	tysiącami	-0.038222298
-3.925214	widziadeł	-0.038222298
-3.925214	słonecznych	-0.038222298
-3.925214	krwawymi	-0.038222298
-3.925214	cmentarzy	-0.038222298
-3.925214	ciągła	-0.038222298
-3.925214	zima	-0.038222298
-3.925214	wichry	-0.038222298
-3.780418	skrwawione	-0.038222298
-3.925214	kościarzy	-0.038222298
-3.925214	poblednie	-0.038222298
-3.780418	księżyc	-0.038222298
-3.925214	zatrzyma	-0.038222298
-3.925214	zajęczy	-0.038222298
-3.925214	zaszczeka	-0.038222298
-3.925214	dba	-0.038222298
-3.925214	motłochem	-0.038222298
-3.925214	postąpię	-0.038222298
-3.925214	schowa	-0.038222298
-3.925214	lochem	-0.038222298
-3.925214	jestem	-0.038222298
-3.925214	prochem	-0.038222298
-3.925214	ukowany	-0.038222298
-3.925214	siły	-0.038222298
-3.925214	wyrzuciły	-0.038222298
-3.925214	zaledwie	-0.038222298
-3.1897044	myśl	-0.038222298
-3.925214	poczęła	-0.038222298
-3.925214	zaraz	-0.038222298
-3.925214	wydał	-0.038222298
-3.6229422	jasny	-0.038222298
-3.925214	suchy	-0.038222298
-3.925214	wchodzący	-0.038222298
-3.925214	potajemnie	-0.038222298
-3.925214	kościach	-0.038222298
-3.780418	naprzód	-0.038222298
-3.925214	nikczemnie	-0.038222298
-3.925214	proszący	-0.038222298
-3.780418	katów	-0.038222298
-3.925214	obuchy	-0.038222298
-3.925214	jacyś	-0.038222298
-3.925214	łby	-0.038222298
-3.925214	widuję	-0.038222298
-3.925214	nocy	-0.038222298
-3.780418	dwór	-0.038222298
-3.925214	posłałem	-0.038222298
-3.925214	będące	-0.038222298
-3.925214	zmowach	-0.038222298
-3.925214	łańcuch	-0.038222298
-3.925214	idących	-0.038222298
-3.925214	świecami	-0.038222298
-3.925214	okowach	-0.038222298
-3.925214	framugi	-0.038222298
-3.925214	zdjętych	-0.038222298
-3.925214	wiedziały	-0.038222298
-3.925214	głowach	-0.038222298
-3.925214	patrzały	-0.038222298
-3.925214	ciche	-0.038222298
-3.925214	obojętne	-0.038222298
-3.925214	wszelako	-0.038222298
-3.925214	zdawało	-0.038222298
-3.780418	ogromny	-0.038222298
-3.925214	szereg	-0.038222298
-3.925214	wymordowanych	-0.038222298
-3.780418	myślałem	-0.2036545
-3.925214	zobaczę	-0.038222298
-3.925214	łabędzi	-0.038222298
-3.780418	jęczy	-0.038222298
-3.925214	płacze	-0.038222298
-3.925214	ścian	-0.038222298
-3.925214	zapisanych	-0.038222298
-3.925214	wyjdą	-0.038222298
-3.925214	pająki	-0.038222298
-3.925214	tkacze	-0.038222298
-3.925214	ściennych	-0.038222298
-3.925214	zakołyszą	-0.038222298
-3.925214	wyrok	-0.038222298
-3.925214	ognisty	-0.038222298
-3.925214	napiszą	-0.038222298
-3.780418	noce	-0.038222298
-3.925214	niespokojne	-0.038222298
-3.6229422	dnie	-0.038222298
-3.780418	czarne	-0.038222298
-3.925214	ciemnościach	-0.038222298
-3.925214	chrzęsty	-0.038222298
-3.925214	zbrojne	-0.038222298
-3.925214	tchnienia	-0.038222298
-3.925214	chłodne	-0.038222298
-3.925214	parne	-0.038222298
-3.780418	któremu	-0.038222298
-3.925214	wojnę	-0.038222298
-3.925214	wydałem	-0.038222298
-3.925214	zostawił	-0.038222298
-3.925214	bezkarne	-0.038222298
-3.780418	podniosłem	-0.038222298
-3.925214	dumną	-0.038222298
-3.925214	twardą	-0.038222298
-3.925214	końca	-0.038222298
-3.925214	walczyć	-0.038222298
-3.925214	wzgardą	-0.038222298
-3.925214	pierwszego	-0.038222298
-3.780418	dzieło	-0.038222298
-3.780418	czasów	-0.038222298
-3.925214	onych	-0.038222298
-3.925214	stepy	-0.038222298
-3.925214	mogiłach	-0.038222298
-3.925214	widne	-0.038222298
-3.925214	wzięły	-0.038222298
-3.925214	nazwisko	-0.038222298
-3.925214	ujrzano	-0.038222298
-3.780418	ciele	-0.038222298
-3.925214	brzydnę	-0.038222298
-3.780418	biorę	-0.038222298
-3.925214	utrapionych	-0.038222298
-3.925214	myśleli	-0.038222298
-3.925214	gniją	-0.038222298
-3.925214	trzewa	-0.038222298
-3.925214	poziewa	-0.038222298
-3.925214	li	-0.038222298
-3.925214	kolec	-0.038222298
-3.925214	blaszany	-0.038222298
-3.925214	wstąpię	-0.038222298
-3.925214	owce	-0.038222298
-3.925214	najpierwsze	-0.038222298
-3.780418	państwa	-0.038222298
-3.925214	karacze	-0.038222298
-3.925214	supany	-0.038222298
-3.925214	prowadzić	-0.038222298
-3.925214	manowce	-0.038222298
-3.925214	kładziono	-0.038222298
-3.925214	znoszono	-0.038222298
-3.925214	jałowce	-0.038222298
-3.925214	sęp	-0.038222298
-3.925214	ruchome	-0.038222298
-3.925214	mrówniki	-0.038222298
-3.780418	dziesięć	-0.038222298
-3.925214	czerwono	-0.038222298
-3.925214	zagore	-0.038222298
-3.925214	wrzasków	-0.038222298
-3.6229422	razem	-0.038222298
-3.925214	słyszę	-0.038222298
-3.925214	podnosi	-0.038222298
-3.925214	zakołysze	-0.038222298
-3.925214	błyskotną	-0.038222298
-3.780418	stoję	-0.038222298
-3.6229422	zbrodni	-0.038222298
-3.925214	towarzysze	-0.038222298
-3.925214	większą	-0.038222298
-3.925214	śmiertelnej	-0.038222298
-3.925214	bladości	-0.038222298
-3.925214	liii	-0.038222298
-3.925214	dziwią	-0.038222298
-3.6229422	wszyscy	-0.038222298
-3.925214	szczekam	-0.038222298
-3.925214	ryczę	-0.038222298
-3.925214	zgrzytam	-0.038222298
-3.925214	natchnięty	-0.038222298
-3.6229422	czekam	-0.038222298
-3.925214	deszczów	-0.038222298
-3.925214	krwawych	-0.038222298
-3.925214	chwytam	-0.038222298
-3.925214	wściekam	-0.038222298
-3.925214	zamroczonych	-0.038222298
-3.925214	pytam	-0.038222298
-3.925214	wrażam	-0.038222298
-3.925214	władzę	-0.038222298
-3.925214	niebieską	-0.038222298
-3.925214	przerażam	-0.038222298
-3.925214	liv	-0.038222298
-3.925214	napięty	-0.038222298
-3.925214	wynalazek	-0.038222298
-3.925214	użył	-0.038222298
-3.925214	stosy	-0.038222298
-3.925214	spękane	-0.038222298
-3.925214	okręty	-0.038222298
-3.925214	kołowrót	-0.038222298
-3.925214	długość	-0.038222298
-3.925214	przedłużył	-0.038222298
-3.925214	męczeństwie	-0.038222298
-3.925214	niepojęty	-0.038222298
-3.925214	swą	-0.038222298
-3.925214	cierpliwością	-0.038222298
-3.925214	wytrzymał	-0.038222298
-3.925214	zużył	-0.038222298
-3.925214	cierpliwie	-0.038222298
-3.925214	zniosło	-0.038222298
-3.780418	póki	-0.038222298
-3.925214	kruszyłem	-0.038222298
-3.925214	wiosło	-0.038222298
-3.925214	lv	-0.038222298
-3.780418	poszedłem	-0.038222298
-3.925214	wyborze	-0.038222298
-3.925214	mogąc	-0.038222298
-3.925214	straszniejszego	-0.038222298
-3.925214	stworzyć	-0.038222298
-3.925214	łamać	-0.038222298
-3.925214	większe	-0.038222298
-3.925214	prawa	-0.038222298
-3.780418	myśląc	-0.038222298
-3.925214	samą	-0.038222298
-3.925214	upokorzyć	-0.038222298
-3.925214	matkę	-0.038222298
-3.925214	lasu	-0.038222298
-3.925214	stawiono	-0.038222298
-3.925214	dworze	-0.038222298
-3.925214	położyć	-0.038222298
-3.925214	łachmanach	-0.038222298
-3.925214	podartej	-0.038222298
-3.925214	orlicy	-0.038222298
-3.925214	użyłem	-0.038222298
-3.925214	knot	-0.038222298
-3.925214	smolnej	-0.038222298
-3.925214	świecy	-0.038222298
-3.925214	ludowi	-0.038222298
-3.925214	czarowała	-0.038222298
-3.925214	jadła	-0.038222298
-3.925214	żony	-0.038222298
-3.925214	truła	-0.038222298
-3.925214	włosem	-0.038222298
-3.925214	palącym	-0.038222298
-3.925214	ptak	-0.038222298
-3.925214	latała	-0.038222298
-3.925214	zgasła	-0.038222298
-3.925214	popsuła	-0.038222298
-3.925214	pokazała	-0.038222298
-3.780418	duchowi	-0.2036545
-3.925214	memu	-0.038222298
-3.925214	szata	-0.038222298
-3.925214	pruła	-0.038222298
-3.925214	wiedział	-0.038222298
-3.925214	letargu	-0.038222298
-3.925214	chorobie	-0.038222298
-3.925214	śmiały	-0.038222298
-3.925214	przejrzałem	-0.038222298
-3.780418	trup	-0.038222298
-3.925214	sczerniały	-0.038222298
-3.925214	stoletnią	-0.038222298
-3.925214	trumnicę	-0.038222298
-3.925214	robaki	-0.038222298
-3.925214	pouciekały	-0.038222298
-3.925214	bojąc	-0.038222298
-3.925214	jasnych	-0.038222298
-3.925214	gromnice	-0.038222298
-3.6229422	łzami	-0.1412439
-3.925214	spróchniałych	-0.038222298
-3.780418	ogniami	-0.038222298
-3.925214	dziwniejsza	-0.038222298
-3.925214	próchniejący	-0.038222298
-3.925214	upadły	-0.038222298
-3.925214	zużyty	-0.038222298
-3.780418	czułem	-0.038222298
-3.925214	gorący	-0.038222298
-3.925214	ukochać	-0.038222298
-3.925214	nieść	-0.038222298
-3.780418	błękity	-0.2036545
-3.925214	wzlatujący	-0.038222298
-3.925214	szklanne	-0.038222298
-3.925214	zgrzyty	-0.038222298
-3.925214	boleśniéj	-0.038222298
-3.925214	upadała	-0.038222298
-3.4682386	śmiech	-0.038222298
-3.925214	szaleństwo	-0.038222298
-3.925214	omami	-0.038222298
-3.925214	wyłamawszy	-0.038222298
-3.925214	ramion	-0.038222298
-3.925214	piana	-0.038222298
-3.925214	toczy	-0.038222298
-3.925214	milczą	-0.038222298
-3.925214	omamion	-0.038222298
-3.925214	wszystkimi	-0.038222298
-3.925214	księżycami	-0.038222298
-3.925214	muzykalnych	-0.038222298
-3.925214	znamion	-0.038222298
-3.925214	chwyta	-0.038222298
-3.925214	głosach	-0.038222298
-3.925214	ziemskich	-0.038222298
-3.925214	wyraża	-0.038222298
-3.925214	tworząc	-0.038222298
-3.780418	*pieśń	-0.038222298
-3.925214	sen*	-0.038222298
-3.925214	mocarza*	-0.038222298
-3.780418	giermek	-0.038222298
-3.925214	struła	-0.038222298
-3.925214	wlatywały	-0.038222298
-3.925214	roztrzęsły	-0.038222298
-3.925214	chodził	-0.038222298
-3.925214	drżał	-0.038222298
-3.780418	instrumentu	-0.038222298
-3.925214	cedrowa	-0.038222298
-3.925214	szkatuła	-0.038222298
-3.925214	muzykant	-0.038222298
-3.780418	napełnił	-0.038222298
-3.925214	przelotem	-0.038222298
-3.925214	tonów	-0.038222298
-3.780418	zamknął	-0.038222298
-3.925214	napełnioną	-0.038222298
-3.925214	tymczasem	-0.038222298
-3.925214	niebieski	-0.038222298
-3.925214	ubierał	-0.038222298
-3.925214	grozę	-0.038222298
-3.925214	powagę	-0.038222298
-3.925214	strachu	-0.038222298
-3.6229422	ciemny	-0.038222298
-3.925214	królewski	-0.038222298
-3.925214	kąty	-0.038222298
-3.925214	gmachu	-0.038222298
-3.925214	stopą	-0.038222298
-3.780418	komnat	-0.038222298
-3.925214	deski	-0.038222298
-3.925214	trumny	-0.038222298
-3.925214	zapachu	-0.038222298
-3.925214	wioskach	-0.038222298
-3.925214	ciekawy	-0.038222298
-3.925214	zaduszny	-0.038222298
-3.925214	tajemny	-0.038222298
-3.925214	śniono	-0.038222298
-3.925214	czeladzi	-0.038222298
-3.925214	kuchniach	-0.038222298
-3.925214	gadano	-0.038222298
-3.925214	przejrzy	-0.038222298
-3.925214	krwawej	-0.038222298
-3.925214	kadzi	-0.038222298
-3.925214	pływają	-0.038222298
-3.925214	gniazdem	-0.038222298
-3.925214	wężo	-0.038222298
-3.925214	gady	-0.038222298
-3.925214	prowadzi	-0.038222298
-3.925214	tłoczącego	-0.038222298
-3.780418	ślady	-0.2036545
-3.925214	wszelka	-0.038222298
-3.925214	wściekła	-0.038222298
-3.925214	piekła	-0.038222298
-3.925214	ukochano	-0.038222298
-3.925214	giął	-0.038222298
-3.925214	kolano	-0.038222298
-3.925214	owiec	-0.038222298
-3.925214	k'pasterzom	-0.038222298
-3.925214	garnie	-0.038222298
-3.925214	straszliwą	-0.038222298
-3.925214	klękano	-0.038222298
-3.925214	widząc	-0.038222298
-3.925214	środku	-0.038222298
-3.925214	zawieszoną	-0.038222298
-3.925214	lampę	-0.038222298
-3.925214	trupią	-0.038222298
-3.925214	zieloną	-0.038222298
-3.925214	powiekach	-0.038222298
-3.925214	rubin	-0.038222298
-3.925214	błysk	-0.038222298
-3.925214	dziwny	-0.038222298
-3.780418	gore	-0.2036545
-3.925214	powieki	-0.038222298
-3.925214	nożem	-0.038222298
-3.925214	zdają	-0.038222298
-3.925214	rozcięte	-0.038222298
-3.925214	rubinową	-0.038222298
-3.925214	korę	-0.038222298
-3.925214	patrzy	-0.038222298
-3.925214	przeklęte	-0.038222298
-3.925214	jakież	-0.038222298
-3.354402	panie	-0.038222298
-3.925214	pokorę	-0.038222298
-3.780418	później	-0.038222298
-3.925214	krzyża	-0.038222298
-3.925214	zdjęte	-0.038222298
-3.925214	musiałem	-0.038222298
-3.925214	ścierać	-0.038222298
-3.780418	mojego	-0.038222298
-3.925214	wydzierać	-0.038222298
-3.925214	skrę	-0.038222298
-3.780418	anioła	-0.038222298
-3.925214	wyzwał	-0.038222298
-3.1897044	twoje	-0.038222298
-3.925214	księżyce	-0.038222298
-3.925214	meteorów	-0.038222298
-3.925214	gniewom	-0.038222298
-3.925214	twoim	-0.038222298
-3.925214	niósł	-0.038222298
-3.780418	chciał	-0.2036545
-3.925214	zobaczyć	-0.038222298
-3.925214	sługa	-0.038222298
-3.925214	służę	-0.038222298
-3.925214	cztery	-0.038222298
-3.925214	stróże	-0.038222298
-3.925214	potęgi	-0.038222298
-3.925214	lxvi	-0.038222298
-3.925214	tyś	-0.038222298
-3.925214	pogardził	-0.038222298
-3.925214	ominął	-0.038222298
-3.925214	straszliwej	-0.038222298
-3.780418	śmierci	-0.038222298
-3.925214	doprowadził	-0.038222298
-3.925214	starzec	-0.038222298
-3.925214	sławą	-0.038222298
-3.925214	słynął	-0.038222298
-3.925214	bił	-0.038222298
-3.925214	wrogi	-0.038222298
-3.925214	gładził	-0.038222298
-3.925214	granicę	-0.038222298
-3.925214	królestwa	-0.038222298
-3.925214	rozwinął	-0.038222298
-3.925214	dwu	-0.038222298
-3.925214	srebrzystych	-0.038222298
-3.925214	posadził	-0.038222298
-3.925214	pochwy	-0.038222298
-3.780418	chował	-0.2036545
-3.925214	ojca	-0.038222298
-3.925214	kochał	-0.038222298
-3.925214	szanował	-0.038222298
-3.925214	lxvii	-0.038222298
-3.925214	północna	-0.038222298
-3.925214	godzina	-0.038222298
-3.925214	konstelacja	-0.038222298
-3.925214	łabędź	-0.038222298
-3.925214	krzyż	-0.038222298
-3.925214	wieżą	-0.038222298
-3.925214	jedyna	-0.038222298
-3.925214	sufitów	-0.038222298
-3.925214	ciemnoty	-0.038222298
-3.925214	ohydna	-0.038222298
-3.4682386	swityna	-0.15972584
-3.925214	wstąpiła	-0.038222298
-3.925214	zgryzoty	-0.038222298
-3.925214	potęgą	-0.038222298
-3.925214	dłoni	-0.038222298
-3.780418	podał	-0.038222298
-3.925214	uśmiechnął	-0.038222298
-3.925214	niéj	-0.038222298
-3.925214	lxviii	-0.038222298
-3.925214	zmazać	-0.038222298
-3.6229422	serca	-0.038222298
-3.925214	sprobuj	-0.038222298
-3.925214	wołała	-0.038222298
-3.780418	jeżeli	-0.038222298
-3.925214	skona	-0.038222298
-3.925214	żadna	-0.038222298
-3.780418	zorza	-0.038222298
-3.925214	zaświeciła	-0.038222298
-3.925214	przerażona	-0.038222298
-3.925214	przyleciała	-0.038222298
-3.925214	napiła	-0.038222298
-3.925214	człek	-0.038222298
-3.925214	wulkan	-0.038222298
-3.925214	wybucha	-0.038222298
-3.780418	wolno	-0.038222298
-3.925214	chodzić	-0.038222298
-3.925214	dolinach	-0.038222298
-3.925214	błyskawicom	-0.038222298
-3.925214	bić	-0.038222298
-3.925214	cnotliwe	-0.038222298
-3.780418	twoją	-0.038222298
-3.925214	czynach	-0.038222298
-3.925214	próbuj	-0.038222298
-3.925214	szeptał	-0.038222298
-3.780418	stu	-0.038222298
-3.925214	switynach	-0.038222298
-3.925214	własnych	-0.038222298
-3.925214	siwe	-0.038222298
-3.780418	grobu	-0.038222298
-3.780418	byłbym	-0.038222298
-3.925214	cofnął	-0.038222298
-3.925214	potokiem	-0.038222298
-3.925214	lxx	-0.038222298
-3.925214	wysłałem	-0.038222298
-3.925214	katy	-0.038222298
-3.925214	kwieci	-0.038222298
-3.925214	straszniejsze	-0.038222298
-3.925214	rozwija	-0.038222298
-3.925214	drzewo	-0.038222298
-3.925214	żonę	-0.038222298
-3.2642922	dzieci	-0.038222298
-3.925214	wyciąć	-0.038222298
-3.925214	grad	-0.038222298
-3.925214	ulewą	-0.038222298
-3.780418	ponuro	-0.038222298
-3.925214	zaświeci	-0.038222298
-3.780418	gradem	-0.038222298
-3.925214	zwichrzoną	-0.038222298
-3.925214	plewą	-0.038222298
-3.925214	chłośnie	-0.038222298
-3.925214	czekając	-0.038222298
-3.780418	progu	-0.038222298
-3.925214	żebractwo	-0.038222298
-3.925214	skupiło	-0.038222298
-3.780418	stoi	-0.038222298
-3.780418	struny	-0.038222298
-3.925214	marę	-0.038222298
-3.925214	bijącym	-0.038222298
-3.925214	zbroi	-0.038222298
-3.925214	wyszło	-0.038222298
-3.925214	stare	-0.038222298
-3.780418	żebrak	-0.038222298
-3.925214	stanąwszy	-0.038222298
-3.925214	podwoi	-0.038222298
-3.780418	zaczyna	-0.2036545
-3.925214	skościał	-0.038222298
-3.354402	list	-0.038222298
-3.925214	dworach	-0.038222298
-3.925214	wówczas	-0.038222298
-3.925214	wojewody	-0.038222298
-3.925214	nadwornych	-0.038222298
-3.925214	gęślarzy	-0.038222298
-3.925214	byli	-0.038222298
-3.925214	rycerstwa	-0.038222298
-3.925214	rapsody	-0.038222298
-3.925214	zazwyczaj	-0.038222298
-3.925214	mądrzy	-0.038222298
-3.925214	ślepi	-0.038222298
-3.925214	starzy	-0.038222298
-3.925214	brody	-0.038222298
-3.925214	słoneczność	-0.038222298
-3.925214	nosili	-0.038222298
-3.780418	małe	-0.038222298
-3.925214	sławne	-0.038222298
-3.780418	koral	-0.038222298
-3.925214	srebro	-0.038222298
-3.925214	bursztyn	-0.038222298
-3.925214	oprawne	-0.038222298
-3.925214	pastorały	-0.038222298
-3.925214	wierzbowe	-0.038222298
-3.925214	ostrugane	-0.038222298
-3.925214	kije	-0.038222298
-3.925214	tymi	-0.038222298
-3.925214	chłopczyków	-0.038222298
-3.925214	chorały	-0.038222298
-3.925214	pędzą	-0.038222298
-3.780418	wiodą	-0.038222298
-3.925214	takt	-0.038222298
-3.925214	harmonije	-0.038222298
-3.925214	kij	-0.038222298
-3.925214	chóralnej	-0.038222298
-3.925214	spuszczą	-0.038222298
-3.925214	dół	-0.038222298
-3.6229422	dziada	-0.20917091
-3.6229422	spada	-0.20917091
-3.925214	kiju	-0.038222298
-3.925214	lireczką	-0.038222298
-3.925214	pasa	-0.038222298
-3.925214	proga	-0.038222298
-3.780418	płaszczu	-0.038222298
-3.780418	pomnę	-0.038222298
-3.925214	różna	-0.038222298
-3.925214	krasa	-0.038222298
-3.925214	łaty	-0.038222298
-3.925214	płaszcz	-0.038222298
-3.780418	którym	-0.038222298
-3.925214	dogasa	-0.038222298
-3.6229422	światła	-0.038222298
-3.780418	płoną	-0.038222298
-3.925214	noga	-0.038222298
-3.925214	bosa	-0.038222298
-3.925214	świeci	-0.038222298
-3.925214	mymi	-0.038222298
-3.925214	obwiązkach	-0.038222298
-3.925214	srebrna	-0.038222298
-3.925214	muszla	-0.038222298
-3.925214	pielgrzyma	-0.038222298
-3.925214	wystawioną	-0.038222298
-3.925214	bosą	-0.038222298
-3.925214	podróżny	-0.038222298
-3.780418	białym	-0.038222298
-3.925214	kosturze	-0.038222298
-3.925214	oparty	-0.038222298
-3.925214	jasną	-0.038222298
-3.925214	srebrno	-0.038222298
-3.925214	włosą	-0.038222298
-3.925214	starym	-0.038222298
-3.925214	błękitnej	-0.038222298
-3.780418	chmurze	-0.2036545
-3.780418	podawał	-0.038222298
-3.925214	kosą	-0.038222298
-3.925214	wlokąca	-0.038222298
-3.925214	tęczę	-0.038222298
-3.925214	róże	-0.038222298
-3.925214	piękną	-0.038222298
-3.925214	wspomnienie	-0.038222298
-3.925214	śpiewaka	-0.038222298
-3.925214	męczeńsku	-0.038222298
-3.925214	cierpiące	-0.038222298
-3.925214	miej	-0.038222298
-3.925214	grób	-0.038222298
-3.925214	rozorzą	-0.038222298
-3.925214	pługi	-0.038222298
-3.925214	zaklętego	-0.038222298
-3.925214	podobny	-0.038222298
-3.925214	kurhana	-0.038222298
-3.925214	wstawaj	-0.038222298
-3.925214	zapomniana	-0.038222298
-3.925214	przykładem	-0.038222298
-3.780418	miłości	-0.038222298
-3.925214	znęcaj	-0.038222298
-3.925214	śpiewaj	-0.038222298
-3.925214	liry	-0.038222298
-3.925214	pokręcaj	-0.038222298
-3.925214	przypomni	-0.038222298
-3.925214	serc	-0.038222298
-3.925214	otwieranie	-0.038222298
-3.925214	porządne	-0.038222298
-3.925214	ważne	-0.038222298
-3.925214	uszykowane	-0.038222298
-3.780418	rzędem	-0.038222298
-3.925214	dźwięku	-0.038222298
-3.780418	anioły	-0.038222298
-3.925214	organie	-0.038222298
-3.925214	przebacz	-0.038222298
-3.925214	okropną	-0.038222298
-3.780418	straszliwe	-0.038222298
-3.925214	przyćwiekowanie	-0.038222298
-3.925214	odjęło	-0.038222298
-3.925214	coć	-0.038222298
-3.925214	najboleśniej	-0.038222298
-3.925214	najpiękniejszy	-0.038222298
-3.925214	wędrowność	-0.038222298
-3.925214	nodze	-0.038222298
-3.925214	oparłem	-0.038222298
-3.925214	żelazny	-0.038222298
-3.925214	krzywy	-0.038222298
-3.925214	wchodzę	-0.038222298
-3.925214	cierpliwy	-0.038222298
-3.925214	przygwożdżon	-0.038222298
-3.925214	kamiennej	-0.038222298
-3.925214	podłodze	-0.038222298
-3.925214	czerwienił	-0.038222298
-3.925214	żywy	-0.038222298
-3.925214	obwinięty	-0.038222298
-3.925214	patrzył	-0.038222298
-3.925214	dziécię	-0.038222298
-3.925214	zdjąwszy	-0.038222298
-3.925214	owszem	-0.038222298
-3.780418	głębiej	-0.038222298
-3.925214	zapędzając	-0.038222298
-3.925214	koście	-0.038222298
-3.925214	czytałem	-0.038222298
-3.925214	paliły	-0.038222298
-3.925214	gryzły	-0.038222298
-3.925214	wnętrznoście	-0.038222298
-3.6229422	moim	-0.038222298
-3.925214	zapisany	-0.038222298
-3.925214	okropnoście	-0.038222298
-3.925214	zarzuty	-0.038222298
-3.925214	wykował	-0.038222298
-3.925214	gardził	-0.038222298
-3.925214	miłował	-0.038222298
-3.925214	kacie	-0.038222298
-3.925214	ojczyzny	-0.038222298
-3.925214	tyranie	-0.038222298
-3.925214	wczora	-0.038222298
-3.925214	pisał	-0.038222298
-3.925214	wygnanie	-0.038222298
-3.925214	zgon	-0.038222298
-3.925214	dopełnił	-0.038222298
-3.925214	wyganiasz	-0.038222298
-3.925214	żołnierzy	-0.038222298
-3.925214	zostawiam	-0.038222298
-3.925214	znikam	-0.038222298
-3.925214	wieści	-0.038222298
-3.925214	prócz	-0.038222298
-3.780418	chętnie	-0.038222298
-3.925214	dał	-0.038222298
-3.925214	strudzoną	-0.038222298
-3.925214	złożył	-0.038222298
-3.925214	ściętą	-0.038222298
-3.925214	uśmiechnioną	-0.038222298
-3.6229422	śmiercią	-0.038222298
-3.925214	zatrwożył	-0.038222298
-3.925214	gdybyś	-0.038222298
-3.925214	kościami	-0.038222298
-3.925214	srożył	-0.038222298
-3.925214	gardząc	-0.038222298
-3.780418	ostatnim	-0.038222298
-3.925214	spojrzeniem	-0.038222298
-3.925214	mszcząc	-0.038222298
-3.925214	aniołowie	-0.038222298
