\data\
ngram 1=6203
ngram 2=11100
ngram 3=9912
ngram 4=7624
ngram 5=5316
ngram 6=3091

\1-grams:
-4.096582	<unk>	0
0	<s>	-0.5169901
-0.7330458	</s>	0
-2.263771	persname	-0.046050284
-2.3972394	placename	-0.04441053
-3.9963543	isbn	-0.031318355
-3.9963543	978-83-288-2860-5	-0.031318355
-3.8605034	powieść	-0.031318355
-3.8605034	poetyczna	-0.031318355
-3.8605034	dwóch	-0.031318355
-3.9963543	pieśniach	-0.031318355
-3.3948522	pieśń	-0.031318355
-3.8605034	pierwsza	-0.031318355
-2.9856958	…	-0.043116897
-3.9963543	should	-0.031318355
-3.9963543	again	-0.031318355
-3.9963543	provoke	-0.031318355
-3.9963543	our	-0.031318355
-3.9963543	stronger,	-0.031318355
-3.9963543	some	-0.031318355
-3.8605034	worse	-0.031318355
-3.9963543	way	-0.031318355
-3.9963543	his	-0.031318355
-3.9963543	wrath	-0.031318355
-3.9963543	may	-0.031318355
-3.9963543	find	-0.031318355
-3.9963543	destruction;	-0.031318355
-3.9963543	if	-0.031318355
-3.9963543	there	-0.031318355
-3.8605034	be	-0.031318355
-3.9963543	in	-0.031318355
-3.9963543	hell	-0.031318355
-3.9963543	fear	-0.031318355
-3.9963543	destroy'd…..	-0.031318355
-3.0688958	geogname	-0.031318355
-3.9963543	błękitna,	-0.031318355
-3.8605034	kołysz	-0.031318355
-3.8605034	łódkę	-0.031318355
-3.3948522	placename,	-0.07538308
-3.6523304	morzu	-0.031318355
-3.8605034	ściele	-0.031318355
-3.307202	księżyc	-0.031318355
-3.8605034	złoty	-0.1511984
-3.8605034	ścieżki	-0.031318355
-3.9963543	obłędne,	-0.031318355
-3.9963543	ucieka,	-0.031318355
-3.8605034	drodze	-0.031318355
-3.9963543	puści	-0.031318355
-3.9963543	żaglów	-0.031318355
-3.9963543	loty;	-0.031318355
-2.3422751	,	-0.109126896
-3.9963543	falo,	-0.031318355
-3.9963543	majnoty	-0.031318355
-3.9963543	samotną	-0.031318355
-3.0253065	morza	-0.031318355
-3.9963543	obłąkaj	-0.031318355
-3.8605034	krainę,	-0.1511984
-3.9963543	powiedz:	-0.031318355
-3.9963543	„nosiłam	-0.031318355
-3.9963543	floty	-0.031318355
-3.6523304	moich	-0.031318355
-3.9963543	skrzydłach	-0.031318355
-3.9963543	salaminę;	-0.031318355
-3.9963543	płynęłam	-0.031318355
-3.9963543	taką,	-0.031318355
-3.8605034	jaką	-0.031318355
-3.9963543	płynę”.	-0.031318355
-3.9963543	zanieś	-0.031318355
-3.9963543	ostrowy.	-0.031318355
-3.9963543	góry	-0.031318355
-3.9963543	chmurą	-0.031318355
-3.9963543	owiane	-0.031318355
-3.6523304	błękitną,	-0.24676271
-3.8605034	górach	-0.031318355
-3.5047832	kolumn	-0.031318355
-3.9963543	potrzaskane	-0.031318355
-3.9963543	głowy;	-0.031318355
-3.1719046	wiecznie	-0.031318355
-3.9963543	kwitnie	-0.031318355
-3.8605034	laur	-0.1511984
-3.9963543	różowy,	-0.031318355
-3.9963543	pomarańczowe	-0.031318355
-3.6523304	drzewa	-0.031318355
-3.8605034	kwitną	-0.031318355
-3.8605034	śniegiem	-0.031318355
-3.1173534	kwiatów	-0.031318385
-3.9963543	zasypują	-0.031318355
-3.9963543	gruzy.	-0.031318355
-3.1719046	ludzie	-0.031318355
-1.5381802	—	-0.09383135
-3.8605034	cierpią,	-0.031318355
-3.8605034	umrzeć	-0.031318355
-3.9963543	śmieli;	-0.031318355
-2.884804	twarz	-0.049254037
-3.6523304	boleści	-0.031318355
-3.9963543	rysem	-0.031318355
-3.9963543	naznaczona.	-0.031318355
-3.8605034	błysnął	-0.031318355
-3.9963543	dawny	-0.031318355
-3.2343059	wzrok	-0.031318385
-3.1719046	persname,	-0.10019494
-3.9963543	ludzie,	-0.031318355
-3.9963543	skamienieli,	-0.031318355
-3.9963543	ileż	-0.031318355
-3.6523304	nowych	-0.031318355
-3.6523304	posągów	-0.031318355
-3.9963543	przybyło,	-0.031318355
-3.9963543	łamanych	-0.031318355
-3.9963543	wiecznym	-0.031318355
-3.8605034	bólem	-0.031318355
-3.9963543	laokona.	-0.031318355
-3.9963543	pomników	-0.031318355
-2.884804	ludzi	-0.045515563
-3.9963543	mogiłą	-0.031318355
-3.5047832	posępny	-0.031318355
-3.8605034	płynie	-0.031318355
-3.9963543	wieczora.	-0.031318355
-3.5047832	światłem	-0.031318355
-3.6523304	błękitnym	-0.031318355
-3.9963543	przeniknął,	-0.031318355
-3.9963543	mgły	-0.031318355
-3.8605034	zasłonami	-0.031318355
-3.9963543	doliny	-0.031318355
-3.9963543	ośnieżył,	-0.031318355
-3.8605034	szuka	-0.031318355
-3.9963543	posągów,	-0.031318355
-3.3948522	widział	-0.06772142
-3.8605034	wczora,	-0.1511984
-3.1173534	twarzy	-0.045515563
-3.8605034	wiekami	-0.031318355
-3.9963543	przywyknął;	-0.031318355
-3.9963543	starzec,	-0.031318355
-3.1173534	ziemi	-0.10992769
-3.9963543	przeżył	-0.031318355
-3.9963543	zagasłe,	-0.031318355
-3.8605034	mrące	-0.031318355
-3.307202	dnia	-0.031318355
-3.1719046	dzieci	-0.031318355
-3.9963543	koło;	-0.031318355
-3.9963543	padną,	-0.031318355
-3.6523304	ostatni	-0.031318355
-3.9963543	padnie,	-0.031318355
-3.9963543	wyniszczone	-0.031318355
-3.8605034	czoło,	-0.1511984
-3.9963543	chmurzy	-0.031318355
-3.9963543	żalem	-0.031318355
-3.8605034	bladnie,	-0.1511984
-3.8605034	nikt	-0.031318355
-3.8605034	cierpienia	-0.031318355
-3.9963543	odgadnie.	-0.031318355
-3.9963543	ii	-0.031318355
-3.9963543	wysp	-0.031318355
-3.8605034	wieniec	-0.031318355
-3.9963543	różowy	-0.031318355
-3.9963543	lekkich	-0.031318355
-3.9963543	kaików	-0.031318355
-3.9963543	przerzynają	-0.031318355
-3.9963543	wiosła.	-0.031318355
-3.6523304	dawne	-0.031318355
-3.9963543	nimfy,	-0.031318355
-3.9963543	ostrowy,	-0.031318355
-3.9963543	uciekając	-0.031318355
-3.9963543	gwałty,	-0.031318355
-3.9963543	odmienne	-0.031318355
-3.8605034	pierwszym	-0.031318355
-3.9963543	biorą	-0.031318355
-3.9963543	kształty.	-0.031318355
-3.3948522	niegdyś	-0.031318355
-3.5047832	liść	-0.031318355
-3.9963543	lauru	-0.031318355
-3.9963543	porosła,	-0.031318355
-3.9963543	hydra	-0.031318355
-3.9963543	zielona	-0.031318355
-3.9963543	laurami.	-0.031318355
-3.9963543	ipsara	-0.031318355
-3.9963543	skalnym	-0.031318355
-3.3948522	błyszczy	-0.031318355
-3.9963543	stroma	-0.031318355
-3.9963543	brzegiem,	-0.031318355
-3.8605034	podobna	-0.031318355
-3.9963543	córce	-0.031318355
-3.9963543	głazowej	-0.031318355
-3.9963543	tantala,	-0.031318355
-3.9963543	śnieżna	-0.031318355
-3.8605034	rozbija	-0.031318355
-3.8605034	fala,	-0.1511984
-3.2343059	czoła	-0.10019494
-3.9963543	wieńczonego	-0.031318355
-3.9963543	kryształowymi	-0.031318355
-3.9963543	upłakana	-0.031318355
-3.6523304	łzami.	-0.24676271
-3.9963543	miasto,	-0.031318355
-3.9963543	dłutem	-0.031318355
-3.9963543	snycerza	-0.031318355
-3.8605034	skał	-0.031318355
-3.6523304	ciemnego	-0.031318355
-3.307202	łona	-0.095728464
-3.9963543	wydobyte,	-0.031318355
-3.5047832	barwy	-0.031318355
-3.9963543	szare,	-0.031318355
-3.9963543	tła	-0.031318355
-3.9963543	nieodbite	-0.031318355
-3.9963543	lasem	-0.031318355
-3.8605034	masztów	-0.031318355
-3.5047832	poły	-0.031318355
-3.9963543	schowane.	-0.031318355
-3.9963543	gdzieniegdzie	-0.031318355
-3.9963543	lekka	-0.031318355
-3.8605034	minaretów	-0.031318355
-3.9963543	wieża	-0.031318355
-3.8605034	niesie	-0.031318355
-3.307202	niebo	-0.031318355
-3.5047832	szczyty	-0.031318355
-3.9963543	ołowiane.	-0.031318355
-3.9963543	rzędy	-0.031318355
-3.9963543	okien,	-0.031318355
-3.9963543	łuny	-0.031318355
-3.9963543	zachodu	-0.031318355
-3.8605034	mnogie	-0.031318355
-3.6523304	lampy	-0.031318355
-3.9963543	rozpalone,	-0.031318355
-3.8605034	drżące,	-0.1511984
-3.5047832	chwila	-0.031318385
-3.9963543	bladsze,	-0.031318355
-3.9963543	gasnące,	-0.031318355
-3.9963543	zaszły	-0.031318355
-3.9963543	mrokiem	-0.031318355
-3.9963543	grodu	-0.031318355
-3.0253065	długo	-0.10064337
-3.5047832	złociste	-0.031318355
-3.3948522	miały	-0.031318385
-3.0688958	słońcem	-0.031318385
-3.9963543	dachy.	-0.031318355
-3.6523304	ostatnie	-0.031318385
-3.2343059	światło	-0.031318385
-3.8605034	ciemnością	-0.031318355
-3.9963543	starło…	-0.031318355
-3.6523304	chociaż	-0.031318355
-3.8605034	miasto	-0.031318355
-3.1173534	pół	-0.031318355
-3.9963543	obumarło,	-0.031318355
-3.9963543	gwar	-0.031318355
-3.3948522	słychać	-0.062330436
-3.9963543	mieście	-0.031318355
-3.9963543	bezludne	-0.031318355
-3.6523304	gmachy	-0.107457325
-3.5047832	odgłos	-0.031318355
-3.9963543	odbijają	-0.031318355
-3.8605034	echem;	-0.1511984
-3.5047832	smutny	-0.08713509
-3.9963543	rzadko	-0.031318355
-3.8605034	pomieszany	-0.031318355
-3.5047832	śmiechem	-0.031318355
-3.6523304	tajemniczy	-0.031318355
-3.9963543	odgłosy,	-0.031318355
-3.5047832	wiatr	-0.031318385
-3.8605034	martwej	-0.031318355
-3.9963543	muszli	-0.031318355
-3.9963543	wydobywa.	-0.031318355
-3.6523304	głębiach	-0.031318355
-3.9963543	haremów	-0.031318355
-3.8605034	lśniące	-0.031318355
-3.9963543	perłą	-0.031318355
-3.8605034	rosy	-0.1511984
-3.8605034	palą	-0.031318355
-3.6523304	róże	-0.031318355
-3.9963543	smutno	-0.031318355
-3.8605034	słowik	-0.031318355
-3.9963543	śpiewa;	-0.031318355
-3.9963543	murów	-0.031318355
-3.6523304	ciche	-0.031318355
-3.9963543	ulice	-0.031318355
-3.9963543	wonnych	-0.031318355
-3.9963543	akacji	-0.031318355
-3.9963543	zwieszają	-0.031318355
-3.8605034	kwiaty;	-0.1511984
-3.9963543	pochodnia	-0.031318355
-3.9963543	błyśnie	-0.031318355
-3.9963543	spoza	-0.031318355
-3.9963543	kraty;	-0.031318355
-3.9963543	turbanu	-0.031318355
-3.9963543	olśni	-0.031318355
-3.9963543	bawełnicę.	-0.031318355
-3.9963543	dąży	-0.031318355
-3.9963543	znajomą	-0.031318355
-3.9963543	gospodę,	-0.031318355
-3.9963543	przenosi	-0.031318355
-3.9963543	wytworem;	-0.031318355
-3.1173534	wielkie	-0.031318385
-3.9963543	kotły	-0.031318355
-3.8605034	wrącą	-0.031318355
-3.9963543	źródeł	-0.031318355
-3.9963543	wodę	-0.031318355
-3.9963543	leją	-0.031318355
-3.9963543	kanały	-0.031318355
-3.9963543	złotym	-0.031318355
-3.9963543	dziwotworem;	-0.031318355
-3.9963543	kłębem	-0.031318355
-3.9963543	pary	-0.031318355
-3.6523304	wytryska	-0.031318355
-3.9963543	fontanny	-0.031318355
-3.9963543	wieczną	-0.031318355
-3.8605034	walkę	-0.031318355
-3.9963543	zimną	-0.031318355
-3.8605034	siostrą	-0.031318355
-3.9963543	toczy,	-0.031318355
-3.9963543	warem,	-0.031318355
-3.8605034	parą	-0.031318355
-3.9963543	omroczy,	-0.031318355
-3.9963543	zezwoli	-0.031318355
-3.6523304	iść	-0.031318355
-3.9963543	wspólnej	-0.031318355
-3.9963543	wanny.	-0.031318355
-3.6523304	woń	-0.031318355
-3.9963543	napojony	-0.031318355
-3.6523304	duchem	-0.031318355
-3.9963543	przechodzi	-0.031318355
-3.3948522	marmurowe	-0.031318355
-3.9963543	sale;	-0.031318355
-3.5047832	drugą	-0.031318385
-3.8605034	wiążą	-0.031318355
-3.8605034	łańcuchem,	-0.1511984
-3.9963543	kłamane	-0.031318355
-3.5047832	dalej	-0.031318355
-3.8605034	zwierciadeł	-0.031318355
-3.9963543	krysztale.	-0.031318355
-3.9963543	usłużny	-0.031318355
-3.9963543	obiega	-0.031318355
-3.9963543	wokoło,	-0.031318355
-3.9963543	muzułmanów	-0.031318355
-3.9963543	szczędzi	-0.031318355
-3.9963543	ukłonu:	-0.031318355
-3.9963543	chyląc	-0.031318355
-3.9963543	osiwiałe	-0.031318355
-3.307202	czoło	-0.031318355
-3.8605034	nalewa	-0.031318355
-3.9963543	mokkę	-0.031318355
-3.9963543	łono	-0.031318355
-3.3948522	róż	-0.031318355
-3.2343059	orgname	-0.031318355
-3.8605034	stawia	-0.031318355
-3.0253065	czarę	-0.050795462
-3.9963543	gliny,	-0.031318355
-3.9963543	chowając	-0.031318355
-3.9963543	aspra,	-0.031318355
-3.5047832	czary	-0.031318355
-3.5047832	napój	-0.031318355
-3.9963543	makowej	-0.031318355
-3.9963543	tłoczony	-0.031318355
-3.8605034	rośliny,	-0.1511984
-3.307202	śmierć	-0.031318355
-3.8605034	sprowadza	-0.031318355
-3.5047832	cień	-0.031318385
-3.5047832	drzewa,	-0.37170145
-3.9963543	usypia	-0.031318355
-3.8605034	snem	-0.031318355
-3.8605034	głębokim	-0.031318355
-3.9963543	zgonu.	-0.031318355
-3.9963543	mrok	-0.031318355
-3.8605034	spada	-0.031318355
-3.6523304	dymu	-0.031318355
-3.9963543	stambulskiego	-0.031318355
-3.8605034	chmurze,	-0.031318355
-3.9963543	wazonu	-0.031318355
-3.307202	widać	-0.031318385
-3.8605034	połowie	-0.031318355
-3.9963543	wychyloną	-0.031318355
-3.9963543	różę;	-0.031318355
-3.6523304	błyszczą	-0.031318355
-3.9963543	sztyletów	-0.031318355
-3.9963543	głowice;	-0.031318355
-3.9963543	nieruchome	-0.031318355
-3.9963543	wyznańców	-0.031318355
-3.9963543	turbany	-0.031318355
-3.9963543	porosły	-0.031318355
-3.8605034	kołem	-0.031318355
-3.9963543	łąk	-0.031318355
-3.9963543	tulipany;	-0.031318355
-3.9963543	turbanami	-0.031318355
-3.9963543	księżyce.	-0.031318355
-3.9963543	iii	-0.031318355
-3.9963543	wchodzi	-0.031318355
-3.3948522	sali	-0.06772142
-3.307202	młody	-0.031318355
-3.9963543	ipsariota,	-0.031318355
-3.9963543	śpiewaka	-0.031318355
-3.5047832	blada	-0.031318355
-3.9963543	smutna;	-0.031318355
-3.9963543	ramieniu	-0.031318355
-3.8605034	kapotę	-0.031318355
-3.8605034	płótna,	-0.031318355
-3.9963543	niegęsto	-0.031318355
-3.9963543	nićmi	-0.031318355
-3.9963543	przetykaną	-0.031318355
-3.9963543	złota.	-0.031318355
-3.9963543	gitary	-0.031318355
-3.6523304	znać	-0.031318355
-3.3948522	blasku	-0.031318355
-3.9963543	oka,	-0.031318355
-3.9963543	pieśnią	-0.031318355
-3.9963543	sioła	-0.031318355
-3.8605034	grody	-0.031318355
-3.9963543	przebiega…	-0.031318355
-3.6523304	wnet	-0.031318355
-3.307202	tłum	-0.031318355
-3.5047832	dokoła	-0.031318355
-3.9963543	oblega,	-0.031318355
-3.8605034	wypuścił	-0.031318355
-3.9963543	bursztyn	-0.031318355
-3.9963543	wierny	-0.031318355
-3.9963543	syn	-0.031318355
-3.3948522	persname.	-0.46861148
-3.9963543	zarówno	-0.031318355
-3.9963543	ciekawi,	-0.031318355
-3.6523304	głos	-0.031318355
-3.9963543	śpiewak,	-0.031318355
-3.9963543	lutnia	-0.031318355
-3.9963543	wyda.	-0.031318355
-3.9963543	upiorów	-0.031318355
-3.8605034	powieścią	-0.031318355
-3.9963543	zabawi?	-0.031318355
-3.9963543	brylantową	-0.031318355
-3.9963543	bajką	-0.031318355
-3.9963543	alraszyda?	-0.031318355
-3.9963543	wiódł	-0.031318355
-3.9963543	obłąkany,	-0.031318355
-3.9963543	liczył	-0.031318355
-3.9963543	turbany;	-0.031318355
-3.307202	potem	-0.03686721
-3.5047832	spojrzał	-0.031318355
-3.3948522	twarze	-0.14745936
-3.307202	patrzał	-0.0446145
-3.8605034	znalazł	-0.031318355
-3.307202	dźwięk	-0.031318355
-3.9963543	gitarze.	-0.031318355
-3.9963543	małe	-0.031318355
-3.8605034	znajdę	-0.031318355
-3.5047832	pieśni	-0.031318355
-3.9963543	pokupy,	-0.031318355
-3.3948522	miłość	-0.031318385
-3.9963543	kraju	-0.031318355
-3.5047832	rozpacz	-0.031318355
-3.9963543	uprzędły.	-0.031318355
-3.8605034	zżółkłe	-0.031318355
-2.8557854	serca	-0.05669432
-3.9963543	zwiędły?	-0.031318355
-3.6523304	miałem	-0.031318355
-3.9963543	znaleźć	-0.031318355
-3.8605034	widzę	-0.052792106
-3.8605034	trupy.	-0.1511984
-3.9963543	niezdolni	-0.031318355
-3.307202	życia	-0.031318355
-3.9963543	wybić	-0.031318355
-3.9963543	skonaniem,	-0.031318355
-3.9963543	wyście	-0.031318385
-3.9963543	odważni	-0.031318355
-3.9963543	otrucia,	-0.031318355
-3.9963543	przywykli	-0.031318355
-3.6523304	zabijać	-0.031318355
-3.3948522	czucia	-0.031318385
-3.9963543	zmartwychwstawać,	-0.031318355
-3.9963543	półzmartwychwstaniem,	-0.031318355
-3.9963543	okuci	-0.031318355
-3.9963543	żelazne	-0.031318355
-3.9963543	ogniwa.	-0.031318355
-3.9963543	kajdan	-0.031318355
-3.6523304	iskry	-0.031318355
-3.9963543	wydobywa;	-0.031318355
-3.9963543	śpiewał	-0.031318355
-3.9963543	dążył	-0.031318355
-3.9963543	kresu;	-0.031318355
-3.9963543	ożywię	-0.031318355
-3.9963543	ogień,	-0.031318355
-3.9963543	iskierce.	-0.031318355
-3.307202	liście	-0.031318355
-3.9963543	aloesu	-0.031318355
-3.9963543	obwija	-0.031318355
-3.9963543	zwiędłe	-0.031318355
-3.6523304	umarłego	-0.031318355
-3.9963543	serce;	-0.031318355
-3.5047832	liściu	-0.031318355
-3.9963543	pisze	-0.031318355
-3.8605034	zmartwychwstania	-0.031318355
-3.8605034	słowa;	-0.1511984
-2.884804	serce	-0.031318385
-3.9963543	ożyje,	-0.031318355
-3.9963543	zepsucia	-0.031318355
-3.9963543	zachowa,	-0.031318355
-3.9963543	proch	-0.031318355
-3.9963543	rozsypie…	-0.031318355
-3.8605034	godzina	-0.031318355
-3.9963543	wybije,	-0.031318355
-2.949398	myśl	-0.031318385
-3.5047832	słowa	-0.031318385
-3.9963543	tajemną	-0.031318355
-3.9963543	odgadnie,	-0.031318355
-3.307202	wtenczas	-0.031318355
-3.8605034	odpowiedź	-0.031318355
-3.6523304	sercu	-0.031318355
-3.9963543	dnie.	-0.031318355
-3.9963543	syna	-0.031318355
-3.9963543	ciemna,	-0.031318355
-3.9963543	niezgłębiona,	-0.031318355
-3.3948522	fala	-0.031318355
-3.9963543	morza;	-0.031318355
-3.9963543	powierzysz,	-0.031318355
-3.9963543	wyrzuca	-0.031318355
-3.5047832	łona,	-0.37170145
-3.8605034	barwą	-0.031318355
-3.8605034	ciemnych	-0.031318355
-3.0688958	głębi	-0.0760019
-3.9963543	przyodzieje,	-0.031318355
-3.5047832	da	-0.031318355
-3.6523304	nieśmiertelność	-0.031318355
-3.9963543	kamiennego	-0.031318355
-3.9963543	łoża,	-0.031318355
-3.5047832	kwiat	-0.031318355
-3.9963543	tracąc	-0.031318355
-3.9963543	kamienieje.	-0.031318355
-3.9963543	wieszczek	-0.031318355
-3.9963543	znajdzie	-0.031318355
-3.9963543	wyrazów,	-0.031318355
-3.8605034	głąb	-0.031318355
-3.8605034	słuchacz	-0.031318355
-3.9963543	dosięga;	-0.031318355
-3.9963543	podobny	-0.031318355
-3.9963543	zimnych	-0.031318355
-3.8605034	głazów,	-0.1511984
-3.9963543	ognista	-0.031318355
-2.5338182	myśli	-0.036724027
-3.9963543	wylęga;	-0.031318355
-3.9963543	odbiegnie	-0.031318355
-3.9963543	wesoły…	-0.031318355
-3.9963543	pieśń,	-0.031318355
-3.5047832	ledwo	-0.031318355
-3.9963543	dopłynie	-0.031318355
-3.9963543	połowy,	-0.031318355
-3.9963543	mórz	-0.031318355
-3.9963543	zamarłych	-0.031318355
-3.9963543	owoc	-0.031318355
-3.9963543	rubinowy	-0.031318355
-3.9963543	bezpłodne	-0.031318355
-3.8605034	zamyka	-0.031318355
-3.9963543	popioły.	-0.031318355
-3.9963543	v	-0.031318355
-3.8605034	północ	-0.031318355
-3.6523304	miecz	-0.031318385
-3.9963543	podała	-0.031318355
-3.3948522	dłonie,	-0.2790024
-3.9963543	chytra	-0.031318355
-3.9963543	bezsilnych	-0.031318355
-3.9963543	odbiegła.	-0.031318355
-3.8605034	widziałem	-0.031318355
-3.9963543	błonie,	-0.031318355
-3.9963543	siła	-0.031318355
-3.9963543	rycerzy	-0.031318355
-3.9963543	poległa.	-0.031318355
-3.6523304	byłem	-0.031318355
-3.9963543	dzieckiem	-0.031318355
-3.6523304	patrzałem	-0.031318355
-3.9963543	chaty…	-0.031318355
-3.8605034	powietrze	-0.031318355
-3.5047832	chmura	-0.031318355
-3.9963543	proporców	-0.031318355
-3.9963543	krajała,	-0.031318355
-3.9963543	szykach	-0.031318355
-3.9963543	lśnił	-0.031318355
-3.9963543	bogaty,	-0.031318355
-3.6523304	dym	-0.031318355
-3.9963543	srebrny	-0.031318355
-3.8605034	wyrzucały	-0.031318355
-3.9963543	działa,	-0.031318355
-3.8605034	stamtąd	-0.031318355
-3.8605034	huk	-0.031318355
-3.9963543	leciał,	-0.031318355
-3.6523304	ziemia	-0.031318355
-3.8605034	grzmiała	-0.031318355
-3.9963543	grad	-0.031318355
-3.9963543	pocisków	-0.031318355
-3.9963543	spiże;	-0.031318355
-3.9963543	stąd,	-0.031318355
-3.9963543	zachodnim	-0.031318355
-3.9963543	złocone	-0.031318355
-3.8605034	promieniem,	-0.1511984
-3.6523304	ognisty	-0.031318355
-3.8605034	szły	-0.031318355
-3.5047832	błękitne	-0.031318355
-3.8605034	krzyże	-0.031318355
-3.9963543	upornym,	-0.031318355
-3.8605034	głuchym	-0.031318355
-3.3948522	rozpaczy	-0.031318385
-3.9963543	milczeniem.	-0.031318355
-3.9963543	dymy	-0.031318355
-3.9963543	spiżowe	-0.031318355
-3.9963543	pożarły,	-0.031318355
-3.8605034	mignęły	-0.031318355
-3.9963543	ogniu	-0.031318355
-3.6523304	złote	-0.031318355
-3.9963543	pobladły.	-0.031318355
-3.9963543	nocą	-0.031318355
-3.9963543	szeregi	-0.031318355
-3.9963543	wymarły	-0.031318355
-3.9963543	szeregach	-0.031318355
-3.9963543	upadły.	-0.031318355
-3.9963543	zwycięstwa	-0.031318355
-3.9963543	przeważyły	-0.031318355
-3.9963543	szale…	-0.031318355
-3.8605034	lambra	-0.031318355
-3.9963543	ominęły	-0.031318355
-3.9963543	gromy,	-0.031318355
-3.9963543	wdarł	-0.031318355
-3.9963543	skałę	-0.031318355
-3.6523304	całą	-0.031318355
-3.307202	noc	-0.031318355
-3.9963543	skale,	-0.031318355
-3.9963543	groby,	-0.031318355
-3.8605034	groby	-0.031318355
-3.9963543	końca!	-0.031318355
-3.9963543	nazajutrz	-0.031318355
-3.8605034	nieruchomy	-0.031318355
-3.8605034	błyszczał	-0.031318355
-3.9963543	promieniach	-0.031318355
-3.8605034	wschodzącego	-0.031318355
-3.9963543	słońca…	-0.031318355
-3.8605034	poszedł	-0.031318355
-3.9963543	błąkać	-0.031318355
-3.8605034	świecie.	-0.1511984
-3.5047832	samotny	-0.031318385
-3.9963543	drugi,	-0.031318355
-3.9963543	giermka	-0.031318355
-3.9963543	podjął	-0.031318355
-3.9963543	usługi;	-0.031318355
-3.2343059	?	-0.2384951
-3.9963543	odgadniecie.	-0.031318355
-3.8605034	długich	-0.031318355
-3.8605034	latach	-0.031318355
-3.5047832	krainy	-0.031318355
-3.8605034	wygnania	-0.031318355
-3.8605034	ujrzał,	-0.031318355
-3.5047832	wiatrem	-0.031318355
-3.9963543	wyścigi	-0.031318355
-3.9963543	hasło	-0.031318355
-3.9963543	zmartwychwstania;	-0.031318355
-3.9963543	dzwonach	-0.031318355
-3.5047832	placename.	-0.37170145
-3.8605034	niedługo	-0.031318355
-3.9963543	szczęściu	-0.031318355
-3.8605034	marzy,	-0.1511984
-3.9963543	kolejno	-0.031318355
-3.9963543	siołach	-0.031318355
-3.9963543	milkła	-0.031318355
-3.9963543	dzwony,	-0.031318355
-3.9963543	snuł	-0.031318355
-3.9963543	zakrwawiony,	-0.031318355
-3.6523304	krwią	-0.031318355
-3.9963543	przysechłą	-0.031318355
-3.8605034	twarzy.	-0.1511984
-3.9963543	płacz,	-0.031318355
-3.9963543	narzekanie	-0.031318355
-3.9963543	wstrząsa	-0.031318355
-3.9963543	chaty,	-0.031318355
-3.9963543	echami	-0.031318355
-3.9963543	rozpłakały	-0.031318355
-3.8605034	łona.	-0.1511984
-3.9963543	„jutro”	-0.031318355
-3.9963543	wołają	-0.031318355
-3.9963543	„maszcie	-0.031318355
-3.8605034	fregaty	-0.031318355
-3.9963543	haniebną	-0.031318355
-3.5047832	śmiercią	-0.031318355
-3.9963543	orgname.	-0.031318355
-3.8605034	dzikich	-0.031318355
-3.8605034	brzegach	-0.031318355
-3.9963543	skalistej	-0.031318355
-3.9963543	geognamewznosi	-0.031318355
-3.8605034	klasztor	-0.031318355
-3.8605034	wysoko	-0.031318355
-3.9963543	morze;	-0.031318355
-3.5047832	krzyż	-0.031318385
-3.6523304	pierwszy	-0.031318355
-3.9963543	wita	-0.031318355
-3.8605034	ranne	-0.031318355
-3.8605034	zorze,	-0.1511984
-3.8605034	złocą	-0.031318355
-3.9963543	filary.	-0.031318355
-3.1719046	koło	-0.031318355
-3.8605034	klasztoru	-0.031318355
-3.6523304	kolumny	-0.107457325
-3.9963543	stoją	-0.031318355
-3.8605034	palmy	-0.031318355
-3.9963543	pozbawione	-0.031318355
-3.9963543	liści.	-0.031318355
-3.8605034	mnich	-0.031318355
-3.9963543	pracuje	-0.031318355
-3.8605034	własnej	-0.031318355
-3.8605034	trumny,	-0.031318355
-3.9963543	uciekł	-0.031318355
-3.9963543	nienawiści…	-0.031318355
-3.3948522	ów	-0.031318355
-3.9963543	dzwon,	-0.031318355
-3.9963543	ogłasza	-0.031318355
-3.8605034	pacierze,	-0.1511984
-3.2343059	nieraz	-0.031318355
-3.8605034	broni	-0.031318355
-3.9963543	powoła	-0.031318355
-3.9963543	majnotę;	-0.031318355
-3.9963543	okrążone	-0.031318355
-3.9963543	wieże	-0.031318355
-3.5047832	dział	-0.031318385
-3.9963543	srebrnym	-0.031318355
-3.9963543	uwieńczają	-0.031318355
-3.9963543	dymem,	-0.031318355
-3.8605034	okien	-0.031318355
-3.8605034	spiżu	-0.031318355
-3.9963543	paszcze	-0.031318355
-3.9963543	pokorny	-0.031318355
-3.8605034	staje	-0.031318355
-3.9963543	olbrzymem.	-0.031318355
-3.9963543	naglony	-0.031318355
-3.9963543	potrzebą	-0.031318355
-3.9963543	miną	-0.031318355
-3.9963543	poświęcone	-0.031318355
-3.9963543	ściany;	-0.031318355
-3.9963543	rzekłbyś,	-0.031318355
-3.9963543	zdobywać	-0.031318355
-3.9963543	odłamami	-0.031318355
-3.9963543	niższych	-0.031318355
-3.9963543	skałach	-0.031318355
-3.9963543	cmentarz	-0.031318355
-3.9963543	muzułmanów,	-0.031318355
-3.9963543	czarowny,	-0.031318355
-3.9963543	cichy,	-0.031318355
-3.8605034	pełny	-0.031318355
-3.8605034	drzew	-0.031318355
-3.8605034	kwiatów,	-0.031318355
-3.9963543	dłutowanych	-0.031318355
-3.9963543	marmurze	-0.031318355
-3.9963543	turbanów,	-0.031318355
-3.9963543	odłam	-0.031318355
-3.9963543	rajskich	-0.031318355
-3.9963543	oderwany	-0.031318355
-3.9963543	światów	-0.031318355
-3.9963543	przesadzony	-0.031318355
-3.9963543	skalne	-0.031318355
-3.9963543	urwiska.	-0.031318355
-3.9963543	wczora…	-0.031318355
-3.9963543	zachodziło…	-0.031318355
-3.9963543	skryty	-0.031318355
-3.9963543	grobowiska,	-0.031318355
-3.9963543	mogiłą;	-0.031318355
-3.9963543	młodą.	-0.031318355
-3.9963543	urodą,	-0.031318355
-3.8605034	piękną,	-0.031318355
-3.9963543	wyraz	-0.031318355
-3.9963543	okryśli!	-0.031318355
-3.9963543	długo,	-0.031318355
-3.8605034	lica,	-0.1511984
-3.9963543	obudziłem	-0.031318355
-3.9963543	myśli,	-0.031318355
-3.9963543	tęskny	-0.031318355
-3.9963543	rozmarzony	-0.031318355
-3.8605034	smutny,	-0.031318355
-3.9963543	gdybym	-0.031318355
-3.9963543	księżyca.	-0.031318355
-3.9963543	snadź,	-0.031318355
-3.3948522	życie	-0.031318355
-3.9963543	czas	-0.031318355
-3.9963543	pokutny	-0.031318355
-3.2343059	przeszłość	-0.031318355
-3.307202	szczęścia	-0.031318355
-3.9963543	pogrzebaną;	-0.031318355
-3.8605034	miała	-0.031318355
-3.8605034	smutek	-0.031318355
-3.9963543	żałość,	-0.031318355
-3.8605034	barwę	-0.031318355
-3.9963543	koralu	-0.031318355
-3.9963543	łzą	-0.031318355
-3.9963543	opłukaną;	-0.031318355
-3.8605034	rumieniec	-0.031318355
-3.8605034	tonął	-0.031318355
-3.9963543	bezpromienną	-0.031318355
-3.9963543	białość,	-0.031318355
-3.8605034	białych	-0.031318355
-3.8605034	szatach	-0.031318355
-3.8605034	stała	-0.031318355
-3.9963543	wpół	-0.031318355
-3.9963543	przeświecona	-0.031318355
-3.8605034	blaskami	-0.031318355
-3.9963543	zachodu,	-0.031318355
-3.9963543	srebrnej	-0.031318355
-3.9963543	fontannie	-0.031318355
-3.9963543	ogrodu,	-0.031318355
-3.5047832	mgliste	-0.031318355
-3.9963543	warkocze	-0.031318355
-3.9963543	odwiewa.	-0.031318355
-3.9963543	kleft,	-0.031318355
-3.8605034	ubioru,	-0.031318355
-3.307202	kiedyś	-0.031318355
-3.8605034	rycerzem	-0.031318355
-3.9963543	wierne	-0.031318355
-3.9963543	rysom	-0.031318355
-3.9963543	członków	-0.031318355
-3.8605034	nosił	-0.1511984
-3.8605034	szaty,	-0.1511984
-3.1719046	piersi	-0.0491386
-3.9963543	jedwabnym	-0.031318355
-3.6523304	zamknięte	-0.031318355
-3.9963543	pancerzem,	-0.031318355
-3.8605034	słońca	-0.031318355
-3.5047832	różne	-0.031318385
-3.8605034	łamie,	-0.1511984
-3.9963543	wypukło	-0.031318355
-3.9963543	wyszywany	-0.031318355
-3.9963543	rzuconą	-0.031318355
-3.9963543	ramię,	-0.031318355
-3.9963543	śniegi	-0.031318355
-3.9963543	pas	-0.031318355
-3.9963543	złotolity,	-0.031318355
-3.9963543	nogę	-0.031318355
-3.9963543	złoconym	-0.031318355
-3.9963543	wiązaną	-0.031318355
-3.9963543	rzemieniem,	-0.031318355
-3.9963543	małą	-0.031318355
-3.9963543	misiurkę,	-0.031318355
-3.9963543	aksamity	-0.031318355
-3.9963543	kruczych	-0.031318355
-3.8605034	włosów	-0.031318355
-3.9963543	tonęły	-0.031318355
-3.9963543	pierścieniem,	-0.031318355
-3.9963543	misternie	-0.031318355
-3.9963543	ułożonej	-0.031318355
-3.9963543	zwici	-0.031318355
-3.9963543	węzeł	-0.031318355
-3.9963543	rozpadał	-0.031318355
-3.9963543	nici.	-0.031318355
-3.9963543	stłumionymi	-0.031318355
-3.9963543	przemawiali	-0.031318355
-3.9963543	słowy,	-0.031318355
-3.6523304	mogłem	-0.031318355
-3.8605034	dosłyszeć	-0.031318355
-3.9963543	ułamków	-0.031318355
-3.9963543	rozmowy.	-0.031318355
-3.9963543	„lambro!	-0.031318355
-3.6523304	słowach	-0.031318355
-3.9963543	dajesz	-0.031318355
-3.9963543	obłudę,	-0.031318355
-3.9963543	odpowiadasz	-0.031318355
-3.9963543	szczerze,	-0.031318355
-3.9963543	zapytam.	-0.031318355
-3.1719046	czole	-0.08030154
-3.8605034	przerażeniem	-0.031318355
-3.9963543	czytam	-0.031318355
-3.9963543	stopień	-0.031318355
-3.8605034	nieszczęść	-0.1511984
-3.9963543	nudę.	-0.031318355
-3.307202	blask	-0.031318355
-3.9963543	twego	-0.031318355
-3.8605034	oka	-0.031318355
-3.9963543	duszy.	-0.031318355
-3.9963543	brylant,	-0.031318355
-3.9963543	rozkruszy,	-0.031318355
-3.8605034	każdym	-0.031318355
-3.9963543	odłamie	-0.031318355
-3.8605034	iskra	-0.031318355
-3.9963543	zawiesza,	-0.031318355
-3.6523304	każda	-0.031318355
-3.9963543	czystym	-0.031318355
-3.9963543	lśni	-0.031318355
-3.8605034	tęczy	-0.031318355
-3.9963543	promieniem;	-0.031318355
-3.6523304	szatan	-0.031318355
-3.9963543	miesza	-0.031318355
-3.8605034	śmiechem,	-0.031318355
-3.2343059	śmiech	-0.031318355
-3.6523304	blady	-0.031318355
-3.9963543	cierpieniem…	-0.031318355
-3.9963543	jesteś	-0.031318355
-3.5047832	ludzi,	-0.031318355
-3.9963543	żywi	-0.031318355
-3.5047832	łzami	-0.031318355
-3.9963543	gorzką	-0.031318355
-3.8605034	trucizną	-0.031318355
-3.9963543	laurową.	-0.031318355
-2.9856958	!	-0.040137112
-3.9963543	prawda,	-0.031318355
-3.9963543	nieszczęśliwi,	-0.031318355
-3.9963543	czuję,	-0.031318355
-3.9963543	pociechy	-0.031318355
-3.5047832	słowo	-0.031318385
-3.8605034	szyderczy	-0.031318355
-3.9963543	spada.	-0.031318355
-3.1173534	myślą	-0.031318385
-3.9963543	wracam	-0.031318355
-3.6523304	przeszłości	-0.031318355
-3.8605034	krainy,	-0.1511984
-3.9963543	widzę,	-0.031318355
-3.8605034	stojąc	-0.031318355
-3.9963543	czekała	-0.031318355
-3.8605034	szczęściem	-0.031318355
-3.9963543	niepełnej	-0.031318355
-3.8605034	godziny,	-0.1511984
-3.8605034	poznać	-0.031318355
-3.9963543	przyszła,	-0.031318355
-3.9963543	nieskora;	-0.031318355
-3.9963543	wspólnych	-0.031318355
-3.8605034	jednego	-0.031318355
-3.8605034	wieczora	-0.031318355
-3.9963543	myśmy	-0.031318355
-3.8605034	stronę	-0.031318355
-3.9963543	rozbiegli	-0.031318355
-3.9963543	myślami.	-0.031318355
-3.9963543	chcesz	-0.031318355
-3.9963543	odkryć	-0.031318355
-3.9963543	głębi,	-0.031318355
-3.9963543	milczysz?…”	-0.031318355
-3.9963543	„chcę	-0.031318355
-3.8605034	słowami,	-0.031318355
-3.9963543	każde	-0.031318355
-3.9963543	utonie	-0.031318355
-3.5047832	sztylet	-0.031318355
-3.9963543	dreszczem	-0.031318355
-3.9963543	oziębi;	-0.031318355
-3.6523304	długim	-0.031318355
-3.9963543	rozpamiętywaniem	-0.031318355
-3.9963543	żar	-0.031318355
-3.9963543	piekielny	-0.031318355
-3.9963543	rozpali	-0.031318355
-3.8605034	łonie,	-0.1511984
-3.9963543	potem,	-0.031318355
-3.5047832	przyszłość	-0.031318355
-3.8605034	stanie	-0.031318355
-3.8605034	ciężkim	-0.031318355
-3.9963543	konaniem.	-0.031318355
-3.8605034	patrzaj	-0.031318355
-3.9963543	złocista	-0.031318355
-3.9963543	zbroja	-0.031318355
-3.9963543	dzikiego	-0.031318355
-3.9963543	stroiła,	-0.031318355
-3.9963543	zmieniłem	-0.031318355
-3.8605034	szaty	-0.031318355
-3.8605034	tyś	-0.031318355
-3.9963543	zmieniła.	-0.031318355
-3.9963543	wyczytać	-0.031318355
-3.8605034	pobladłym	-0.031318355
-3.9963543	ukryte	-0.031318355
-3.8605034	obecne	-0.031318355
-3.8605034	bole,	-0.1511984
-3.8605034	zbrodnie	-0.031318355
-3.9963543	żądasz	-0.031318355
-3.9963543	wyrazów!	-0.031318355
-3.9963543	wędrowiec	-0.031318355
-3.9963543	grobowych	-0.031318355
-3.9963543	głazów	-0.031318355
-3.9963543	umiesz	-0.031318355
-3.9963543	czytać	-0.031318355
-3.9963543	napisów	-0.031318355
-3.9963543	cmentarza?	-0.031318355
-3.9963543	poznaj	-0.031318355
-3.9963543	lambra,	-0.031318355
-3.8605034	poznali…	-0.1511984
-3.2343059	jam	-0.031318385
-3.9963543	królem	-0.031318355
-3.9963543	błękitnawej	-0.031318355
-3.3948522	fali,	-0.2790024
-3.9963543	mszczę	-0.031318355
-3.6523304	czarna	-0.031318355
-3.9963543	bandera	-0.031318355
-3.1719046	korsarza	-0.05833064
-3.8605034	rzuca	-0.031318355
-3.6523304	śmierci,	-0.031318355
-3.9963543	dosięgną	-0.031318355
-3.9963543	działa:	-0.031318355
-3.9963543	zapomniałem	-0.031318355
-3.9963543	zetrzeć	-0.031318355
-3.2343059	mego	-0.031318355
-3.9963543	cieniu,	-0.031318355
-3.8605034	rzuciła	-0.031318355
-3.8605034	nań	-0.031318355
-3.9963543	rano;	-0.031318355
-3.9963543	otarłem	-0.031318355
-3.9963543	szablę	-0.031318355
-3.9963543	skalaną.	-0.031318355
-3.9963543	niebaczny	-0.031318355
-3.9963543	spokojność	-0.031318355
-3.9963543	anioła…	-0.031318355
-3.9963543	przeklęty,	-0.031318355
-3.9963543	zapomniany,	-0.031318355
-3.3948522	ogień	-0.031318355
-3.9963543	miłosnej	-0.031318355
-3.8605034	pochodni	-0.1511984
-3.8605034	wiążę	-0.031318355
-3.9963543	dwoma	-0.031318355
-3.9963543	talizmany,	-0.031318355
-3.8605034	wielkością	-0.031318355
-3.9963543	zbrodni.	-0.031318355
-3.3948522	obraz	-0.031318355
-3.3948522	kształty	-0.031318385
-3.9963543	przybierze	-0.031318355
-3.9963543	olbrzymie	-0.031318355
-3.9963543	twej	-0.031318355
-3.0253065	duszy	-0.0760019
-3.2343059	anioł	-0.052792106
-3.9963543	upadły,	-0.031318355
-3.307202	krwi	-0.031318385
-3.9963543	skalany	-0.031318355
-3.9963543	omglony	-0.031318355
-3.6523304	dymie,	-0.24676271
-3.9963543	brylantów	-0.031318355
-3.8605034	złota	-0.031318355
-3.9963543	wybladły.	-0.031318355
-3.3948522	wielką	-0.031318385
-3.9963543	duszę!	-0.031318355
-3.9963543	znudził	-0.031318355
-3.9963543	jednobrzmienny,	-0.031318355
-3.9963543	idę	-0.031318355
-3.307202	las	-0.06772142
-3.9963543	jesienny,	-0.031318355
-3.9963543	stopą	-0.031318355
-3.8605034	kruszę,	-0.1511984
-3.9963543	gardzę	-0.031318355
-3.9963543	liściem,	-0.031318355
-3.9963543	pozłaca	-0.031318355
-3.9963543	uwiędłą	-0.031318355
-3.5047832	szum	-0.031318385
-3.9963543	zasmuca!	-0.031318355
-3.9963543	wolę,	-0.031318355
-3.8605034	moją	-0.031318355
-3.9963543	łodzią	-0.031318355
-3.9963543	rzuca,	-0.031318355
-3.6523304	niechaj	-0.031318355
-3.9963543	wzgardą	-0.031318355
-3.9963543	wzgardę	-0.031318355
-3.9963543	odpłaca.	-0.031318355
-3.9963543	wielka	-0.031318355
-3.9963543	mogiła	-0.031318355
-3.9963543	stworzenia,	-0.031318355
-3.9963543	płyną.	-0.031318355
-2.8557854	fali	-0.0446145
-3.9963543	umieram	-0.031318355
-3.9963543	pragnienia	-0.031318355
-3.9963543	obciążony	-0.031318355
-3.9963543	winą,	-0.031318355
-3.8605034	mogę	-0.031318355
-3.8605034	przeklinać	-0.031318355
-3.3948522	morze.	-0.46861148
-3.9963543	usłałem	-0.031318355
-3.9963543	rozwahane	-0.031318355
-3.9963543	łoże,	-0.031318355
-3.8605034	piastunki	-0.031318355
-3.9963543	daje	-0.031318355
-3.9963543	kołysanie;	-0.031318355
-3.8605034	spać	-0.031318355
-3.2343059	mię	-0.031318385
-3.8605034	zorza	-0.031318355
-3.9963543	śpiącego	-0.031318355
-3.9963543	zastanie	-0.031318355
-3.9963543	obudzi	-0.031318355
-3.9963543	skrawym	-0.031318355
-3.9963543	działo	-0.031318355
-3.9963543	dając	-0.031318355
-3.9963543	powitanie	-0.031318355
-3.8605034	zbudzić	-0.1511984
-2.9856958	sen	-0.031318355
-3.9963543	przedłużę,	-0.031318355
-3.9963543	życiu	-0.031318355
-3.5047832	żyć	-0.031318355
-3.9963543	najmniej	-0.031318355
-3.9963543	snem.	-0.031318355
-3.9963543	nieszczęściami	-0.031318355
-3.8605034	niebios	-0.031318355
-3.9963543	burze,	-0.031318355
-3.9963543	zerwana	-0.031318355
-3.9963543	ujęciem	-0.031318355
-3.9963543	niewczesnem;	-0.031318355
-3.9963543	czucie…	-0.031318355
-3.9963543	rozczula,	-0.031318355
-3.307202	łzy	-0.031318355
-3.9963543	oku,	-0.031318355
-3.9963543	rozryje	-0.031318355
-3.9963543	kula	-0.031318355
-3.9963543	maszt,	-0.031318355
-3.5047832	długie	-0.031318385
-3.9963543	przebiegałem	-0.031318355
-3.8605034	drogi,	-0.1511984
-3.9963543	wycięty	-0.031318355
-3.9963543	rosłej	-0.031318355
-3.8605034	topoli,	-0.1511984
-3.8605034	rodzinne	-0.031318355
-3.9963543	wspominał	-0.031318355
-3.9963543	rozłogi;	-0.031318355
-3.9963543	mrą	-0.031318355
-3.9963543	majtki,	-0.031318355
-3.9963543	niewoli	-0.031318355
-3.6523304	ustach	-0.031318355
-3.6523304	uśmiech	-0.031318385
-3.9963543	dziki,	-0.031318355
-3.9963543	szydził,	-0.031318355
-3.9963543	niezręczni	-0.031318355
-3.3948522	śmierci	-0.031318385
-3.9963543	uniknąć	-0.031318355
-3.9963543	żyli	-0.031318355
-3.8605034	lata	-0.031318355
-3.9963543	trosk,	-0.031318355
-3.9963543	cierpienia,	-0.031318355
-3.9963543	tygrysy	-0.031318355
-3.9963543	druhy	-0.031318355
-3.9963543	niewolniki…	-0.031318355
-3.9963543	ostatnia	-0.031318355
-3.9963543	miłość,	-0.031318355
-3.9963543	przywyknienia,	-0.031318355
-3.9963543	poruszy…	-0.031318355
-3.307202	złotem	-0.031318355
-3.9963543	stawię	-0.031318355
-3.307202	człowieka	-0.031318355
-3.9963543	szale,	-0.031318355
-3.9963543	złoto	-0.031318355
-3.9963543	rzucam	-0.031318355
-3.9963543	morskie	-0.031318355
-3.9963543	fale,	-0.031318355
-3.8605034	jaka	-0.031318355
-3.6523304	wielkość	-0.031318355
-3.9963543	duszy”.	-0.031318355
-3.9963543	słucha	-0.031318355
-3.9963543	dziewica,	-0.031318355
-3.9963543	mgławy	-0.031318355
-3.8605034	zrazu	-0.031318355
-3.9963543	rozkwitał	-0.031318355
-3.9963543	nabywał…	-0.031318355
-3.8605034	zaczął	-0.031318355
-3.8605034	mówić,	-0.031318355
-3.5047832	ciekawy	-0.08713509
-3.9963543	oświecił	-0.031318355
-3.9963543	rozpływał	-0.031318355
-3.9963543	powracał	-0.031318355
-3.9963543	odcieniach	-0.031318355
-3.9963543	zmienny,	-0.031318355
-3.8605034	słów	-0.031318355
-3.9963543	kochanka	-0.031318355
-3.9963543	wydawał	-0.031318355
-3.9963543	gasiła	-0.031318355
-3.9963543	zgryzota,	-0.031318355
-3.9963543	obumierał	-0.031318355
-3.9963543	zadumaniem	-0.031318355
-3.8605034	senny,	-0.1511984
-3.9963543	podobną	-0.031318355
-3.9963543	niewiasty	-0.031318355
-3.9963543	chwili	-0.031318385
-3.8605034	tonie	-0.031318355
-3.6523304	ostatnim	-0.031318355
-3.5047832	uśmiechem	-0.031318385
-3.9963543	nieodgadnioną	-0.031318355
-3.8605034	boleść,	-0.031318355
-3.9963543	kamienny,	-0.031318355
-3.9963543	odwrócona…	-0.031318355
-3.9963543	brała	-0.031318355
-3.5047832	kształt	-0.08713509
-3.9963543	nieżywy,	-0.031318355
-3.9963543	opuściła	-0.031318355
-3.8605034	bezwładnie	-0.031318355
-3.6523304	ramiona,	-0.24676271
-3.9963543	ramion	-0.031318355
-3.9963543	szata	-0.031318355
-3.9963543	płynąca	-0.031318355
-3.8605034	kamienne	-0.031318355
-3.6523304	łamała	-0.031318355
-3.9963543	spływy.	-0.031318355
-3.8605034	bladnął,	-0.031318355
-3.9963543	usty	-0.031318355
-3.8605034	drżącemi	-0.1511984
-3.9963543	mówił:	-0.031318355
-3.9963543	„luba,	-0.031318355
-3.9963543	wybacz,	-0.031318355
-3.9963543	zanadto	-0.031318355
-3.8605034	czarną	-0.031318355
-3.9963543	malowały	-0.031318355
-3.8605034	duszę;	-0.1511984
-3.9963543	przywykłem	-0.031318355
-3.9963543	kruszyć	-0.031318355
-3.9963543	patrzeć,	-0.031318355
-3.8605034	śmiać	-0.031318355
-3.9963543	szalenie.	-0.031318355
-3.6523304	bladość	-0.031318355
-3.9963543	marmurowa,	-0.031318355
-3.9963543	siły,	-0.031318355
-3.9963543	sumnienie!	-0.031318355
-3.9963543	wierzysz,	-0.031318355
-3.9963543	luba?	-0.031318355
-3.9963543	wyznać	-0.031318355
-3.9963543	wstydzę,	-0.031318355
-3.3948522	korsarz	-0.031318385
-3.9963543	krwawy!	-0.031318355
-3.9963543	morderca!	-0.031318355
-3.9963543	zabójstwem	-0.031318355
-3.9963543	zbrodniami	-0.031318355
-3.9963543	brzydzę,	-0.031318355
-3.9963543	jedną,	-0.031318355
-3.8605034	serca,	-0.1511984
-3.9963543	zbawi	-0.031318355
-3.6523304	pamięć	-0.031318355
-3.9963543	moją.	-0.031318355
-3.8605034	luba!	-0.031318355
-3.9963543	boją;	-0.031318355
-3.8605034	czarnym	-0.031318355
-3.9963543	chronią	-0.031318355
-3.9963543	pawilonem;	-0.031318355
-3.9963543	zbudzę…	-0.031318355
-3.9963543	nagłym	-0.031318355
-3.8605034	zgonem	-0.031318355
-3.8605034	wielkiej	-0.031318355
-3.9963543	rozłamie.	-0.031318355
-3.8605034	widzisz	-0.031318355
-3.6523304	dumy	-0.031318355
-3.9963543	znamię,	-0.031318355
-3.9963543	przeczucie	-0.031318355
-3.9963543	sławy;	-0.031318355
-3.9963543	dali	-0.031318355
-3.9963543	okropną	-0.031318355
-3.9963543	sławną;	-0.031318355
-3.9963543	precz	-0.031318355
-3.9963543	obrazy!…	-0.031318355
-3.5047832	persname!	-0.031318355
-3.5047832	jakże	-0.031318355
-3.8605034	dawno	-0.031318355
-3.9963543	obcych	-0.031318355
-3.9963543	błądziliśmy	-0.031318355
-3.9963543	światach!	-0.031318355
-3.9963543	przeczuciach	-0.031318355
-3.9963543	szukali	-0.031318355
-3.9963543	oberwanych	-0.031318355
-3.9963543	kwiatach	-0.031318355
-3.8605034	naszej	-0.031318355
-3.9963543	przyszłości!	-0.031318355
-3.9963543	losy	-0.031318355
-3.8605034	dotąd	-0.031318355
-2.9159012	.	-0.4937924
-3.8605034	ludźmi	-0.031318355
-3.9963543	kajucie	-0.031318355
-3.9963543	ukryty,	-0.031318355
-3.6523304	dziecię	-0.031318355
-3.9963543	trefię	-0.031318355
-3.9963543	zwierciadłem	-0.031318355
-3.6523304	włosy,	-0.24676271
-3.9963543	poprawiam	-0.031318355
-3.9963543	brylantami	-0.031318355
-3.9963543	stroję,	-0.031318355
-3.8605034	jasno	-0.031318355
-3.8605034	twych	-0.031318355
-3.8605034	marzeniach	-0.031318355
-3.9963543	własny	-0.031318355
-3.9963543	wyraźnie	-0.031318355
-3.9963543	odbity,	-0.031318355
-3.9963543	podobieństwa	-0.031318355
-3.9963543	szukam	-0.031318355
-3.9963543	ukraszeniach	-0.031318355
-3.9963543	póty	-0.031318355
-3.9963543	rozjaśniam	-0.031318355
-3.9963543	jagody,	-0.031318355
-3.8605034	póki	-0.031318355
-3.9963543	czyste	-0.031318355
-3.8605034	wróci	-0.031318355
-3.5047832	zwierciadło	-0.08713509
-3.307202	wspomnień	-0.031318355
-3.2343059	twarzą	-0.05833064
-3.6523304	mniej	-0.031318355
-3.8605034	pobladłą,	-0.1511984
-3.9963543	młody.	-0.031318355
-3.8605034	„!	-0.031318355
-2.9159012	świat	-0.043116897
-3.9963543	gorzki,	-0.031318355
-3.9963543	przeraźliwy	-0.031318355
-3.8605034	płaczą	-0.031318355
-3.9963543	krwią,	-0.031318355
-3.9963543	chroń	-0.031318355
-3.307202	świata	-0.12581564
-3.8605034	godzinie,	-0.031318355
-3.8605034	;	-0.1511984
-3.9963543	przeciw	-0.031318355
-3.6523304	wielkim	-0.031318355
-3.8605034	czuciom	-0.031318355
-3.9963543	gniewliwy	-0.031318355
-3.9963543	przebacza	-0.031318355
-3.8605034	toną	-0.031318355
-3.9963543	błędzie.	-0.031318355
-3.9963543	patrz,	-0.031318355
-3.9963543	chmurach	-0.031318355
-3.8605034	trzyma.	-0.1511984
-3.9963543	wynajdę	-0.031318355
-3.9963543	mieszkanie	-0.031318355
-3.9963543	klasztorze;	-0.031318355
-3.9963543	zamknij	-0.031318355
-3.6523304	cichej	-0.031318385
-3.9963543	celi	-0.031318355
-3.9963543	skały	-0.031318355
-3.8605034	nocami	-0.031318355
-3.8605034	rozległe	-0.031318355
-3.8605034	morze,	-0.031318355
-3.8605034	błękitnymi	-0.031318355
-3.1173534	oczyma	-0.08551799
-3.9963543	mojego	-0.031318355
-3.6523304	statku	-0.031318355
-3.9963543	ścigaj	-0.031318355
-3.9963543	żagiel	-0.031318355
-3.9963543	biały.	-0.031318355
-3.9963543	zagrożą	-0.031318355
-3.9963543	niepokoje,	-0.031318355
-3.9963543	będziesz	-0.031318355
-3.6523304	modlić	-0.031318355
-3.8605034	zdjęta	-0.031318355
-3.9963543	trwogą,	-0.031318355
-3.3948522	razem	-0.031318385
-3.9963543	popłyną	-0.031318355
-3.9963543	niebo,	-0.031318355
-3.6523304	jedną	-0.031318355
-3.9963543	drogą,	-0.031318355
-3.6523304	modlitwy	-0.031318355
-3.9963543	przekleństwa	-0.031318355
-3.9963543	„obierzesz	-0.031318355
-3.9963543	klasztorny	-0.031318355
-3.9963543	spoczynek,	-0.031318355
-3.9963543	jutro,	-0.031318355
-3.8605034	świtem	-0.031318355
-3.9963543	rozpali,	-0.031318355
-3.9963543	przyjdź	-0.031318355
-3.8605034	brzegi	-0.031318355
-3.9963543	odziana	-0.031318355
-3.9963543	płaszczem	-0.031318355
-3.8605034	bogatych	-0.031318355
-3.9963543	miej	-0.031318355
-3.8605034	kalemkiar	-0.031318355
-3.6523304	ciemny	-0.031318355
-3.8605034	musselinu	-0.031318355
-3.9963543	czewrę	-0.031318355
-3.8605034	gęsto	-0.031318355
-3.9963543	haftowaną	-0.031318355
-3.9963543	złotem;	-0.031318355
-3.5047832	wiatru	-0.031318355
-3.8605034	wznosi	-0.031318355
-3.9963543	polotem,	-0.031318355
-3.9963543	zdradzi	-0.031318355
-3.9963543	gminu.	-0.031318355
-3.6523304	jutro	-0.031318355
-3.9963543	pamiętaj!	-0.031318355
-3.6523304	łódź	-0.031318355
-3.8605034	czeka,	-0.1511984
-3.9963543	skale	-0.031318355
-3.9963543	załamało	-0.031318355
-3.9963543	przebrany	-0.031318355
-3.9963543	ubiorze,	-0.031318355
-3.8605034	płynę	-0.031318355
-3.9963543	pogrzeb	-0.031318355
-3.8605034	ostatniego	-0.031318355
-3.9963543	placename”.	-0.031318355
-3.9963543	skończył	-0.031318355
-3.9963543	ostatnimi	-0.031318355
-3.3948522	słowy	-0.07538308
-3.8605034	chylił	-0.031318355
-3.6523304	cierpieniem	-0.031318355
-3.9963543	zbladłą,	-0.031318355
-3.5047832	zda	-0.08713509
-3.8605034	widziałem,	-0.031318355
-3.5047832	łez	-0.031318355
-3.9963543	upadło…	-0.031318355
-3.9963543	wiem…	-0.031318355
-3.9963543	silniejszym	-0.031318355
-3.9963543	powiewem	-0.031318355
-3.9963543	opadał	-0.031318355
-3.9963543	pomarańczowy?	-0.031318355
-3.9963543	wiem,	-0.031318355
-3.8605034	płakał	-0.031318355
-3.8605034	zachwiał	-0.031318355
-3.9963543	drzewem?	-0.031318355
-3.9963543	x	-0.031318355
-3.9963543	ranek	-0.031318355
-3.307202	morze	-0.031318355
-3.8605034	rozpalone	-0.031318355
-3.9963543	wre	-0.031318355
-3.8605034	dala,	-0.031318355
-3.5047832	szumi	-0.031318355
-3.9963543	srebrzy	-0.031318355
-3.9963543	sią	-0.031318355
-3.8605034	pianę,	-0.1511984
-3.9963543	portową	-0.031318355
-3.9963543	groblą	-0.031318355
-3.9963543	odłamane,	-0.031318355
-3.9963543	spokojnym	-0.031318355
-3.9963543	oblewa	-0.031318355
-3.9963543	błękitem;	-0.031318355
-3.8605034	brzeg	-0.031318355
-3.9963543	szarzeje	-0.031318355
-3.9963543	granitem.	-0.031318355
-3.9963543	wyżej	-0.031318355
-3.8605034	palm	-0.031318355
-3.9963543	zieloność	-0.031318355
-3.9963543	wesoła.	-0.031318355
-3.9963543	palmy,	-0.031318355
-3.9963543	sięgające	-0.031318355
-3.9963543	szczytem,	-0.031318355
-3.8605034	istność	-0.031318355
-3.9963543	malują	-0.031318355
-3.9963543	anioła;	-0.031318355
-3.8605034	mgle	-0.031318355
-3.9963543	stopy	-0.031318355
-3.6523304	błękicie	-0.107457325
-3.9963543	czoła.	-0.031318355
-3.9963543	bezdenny,	-0.031318355
-3.9963543	cichego	-0.031318355
-3.9963543	wydobywa!	-0.031318355
-3.9963543	burza	-0.031318355
-3.8605034	północy	-0.031318355
-3.9963543	gniewliwa	-0.031318355
-3.9963543	połowę	-0.031318355
-3.8605034	jasnych	-0.031318355
-3.6523304	liści	-0.031318355
-3.9963543	poobrywa;	-0.031318355
-3.9963543	pozostałym	-0.031318355
-3.9963543	rozliczne	-0.031318355
-3.9963543	sztatudera	-0.031318355
-3.9963543	pokrywa,	-0.031318355
-3.9963543	albijonu	-0.031318355
-3.9963543	płonią	-0.031318355
-3.9963543	szkarłaty,	-0.031318355
-3.9963543	osrebrzyły	-0.031318355
-3.9963543	kwiaty.	-0.031318355
-3.6523304	słysząc	-0.031318355
-3.9963543	żagli	-0.031318355
-3.8605034	słyszysz	-0.031318355
-3.6523304	śnie	-0.031318355
-3.9963543	gwarzące	-0.031318355
-3.8605034	różnym	-0.031318355
-3.9963543	językiem	-0.031318355
-3.9963543	narody…	-0.031318355
-3.5047832	gromem	-0.031318355
-3.8605034	skarżą	-0.031318355
-3.9963543	boleśnie,	-0.031318355
-3.9963543	mówiły	-0.031318355
-3.9963543	doznane	-0.031318355
-3.9963543	przygody	-0.031318355
-3.9963543	prześcignięte	-0.031318355
-3.9963543	wiatrami	-0.031318355
-3.9963543	zawody.	-0.031318355
-3.8605034	milczy	-0.1511984
-3.3948522	okręt	-0.050795462
-3.9963543	nadziejami	-0.031318355
-3.9963543	młody;	-0.031318355
-3.9963543	jęk	-0.031318355
-3.8605034	wydany	-0.031318355
-3.9963543	zgonie	-0.031318355
-3.8605034	uczuła	-0.031318355
-3.8605034	zamknęła	-0.031318355
-3.9963543	łonie.	-0.031318355
-3.8605034	date	-0.031318355
-3.9963543	troistą	-0.031318355
-3.9963543	opasany	-0.031318355
-3.9963543	spiżą	-0.031318355
-3.9963543	zatknął	-0.031318355
-3.9963543	maszcie	-0.031318355
-3.9963543	księżyc,	-0.031318355
-3.5047832	trzy	-0.031318355
-3.9963543	buńczuki,	-0.031318355
-3.9963543	omglił	-0.031318355
-3.9963543	dymem	-0.031318355
-3.8605034	rozesłał	-0.031318355
-3.9963543	huki:	-0.031318355
-3.8605034	niby	-0.031318355
-3.9963543	szatana	-0.031318355
-3.9963543	tronem;	-0.031318355
-3.9963543	poddany	-0.031318355
-3.9963543	unosił	-0.031318355
-3.9963543	chyżo,	-0.031318355
-3.8605034	maszty	-0.031318355
-3.8605034	witały	-0.031318355
-3.9963543	pokłonem;	-0.031318355
-3.9963543	ucichł,	-0.031318355
-3.9963543	pił	-0.031318355
-3.9963543	kadzidła.	-0.031318355
-3.9963543	mgła	-0.031318355
-3.9963543	ranna,	-0.031318355
-3.9963543	hukiem	-0.031318355
-3.9963543	potrójnym	-0.031318355
-3.9963543	rozbita,	-0.031318355
-3.8605034	srebrne	-0.031318355
-3.9963543	masztach	-0.031318355
-3.9963543	zawieszała	-0.031318355
-3.9963543	skrzydła;	-0.031318355
-3.8605034	wschodzie	-0.031318355
-3.9963543	skrawo	-0.031318355
-3.307202	dzień	-0.031318355
-3.9963543	wschodzący	-0.031318355
-3.9963543	świta.	-0.031318355
-3.9963543	wyrazów	-0.031318355
-3.9963543	język	-0.031318355
-3.9963543	niezaskarbny	-0.031318355
-3.9963543	malować	-0.031318355
-3.9963543	ukazane	-0.031318355
-3.6523304	czary.	-0.24676271
-3.9963543	rozkwitłe	-0.031318355
-3.9963543	nenufary	-0.031318355
-3.9963543	kobierzec	-0.031318355
-3.9963543	różnofarbny;	-0.031318355
-3.9963543	odświeżone	-0.031318355
-3.9963543	muszle	-0.031318355
-3.9963543	kamyki	-0.031318355
-3.9963543	pieszczotą	-0.031318355
-3.9963543	wodzie,	-0.031318355
-3.9963543	wiążąc	-0.031318355
-3.6523304	jasne	-0.031318355
-3.9963543	mozaiki,	-0.031318355
-3.9963543	spłynęły	-0.031318355
-3.8605034	żaglem	-0.031318355
-3.9963543	oskrzydlone	-0.031318355
-3.9963543	łodzie.	-0.031318355
-3.8605034	turban	-0.031318355
-3.9963543	kitą	-0.031318355
-3.9963543	ozłocony	-0.031318355
-3.9963543	świetną,	-0.031318355
-3.9963543	srebrna	-0.031318355
-3.6523304	dziewic	-0.031318355
-3.9963543	zasłona	-0.031318355
-3.9963543	powiała;	-0.031318355
-3.8605034	łodzi	-0.031318355
-3.9963543	różny	-0.031318355
-3.9963543	połysk	-0.031318355
-3.9963543	brała,	-0.031318355
-3.9963543	purpurą	-0.031318355
-3.9963543	przestrzeń	-0.031318355
-3.9963543	łąką	-0.031318355
-3.9963543	kwietną,	-0.031318355
-3.9963543	doliną,	-0.031318355
-3.9963543	szalem	-0.031318355
-3.9963543	kaszemiru.	-0.031318355
-3.8605034	wiosłem	-0.031318355
-3.9963543	prześciga	-0.031318355
-3.9963543	maszt	-0.031318355
-3.8605034	fregaty,	-0.031318355
-3.8605034	skonać	-0.031318355
-3.9963543	chciwe	-0.031318355
-3.9963543	sępy	-0.031318355
-3.9963543	kruki,	-0.031318355
-3.9963543	czują	-0.031318355
-3.9963543	oddech	-0.031318355
-3.9963543	spłynęli	-0.031318355
-3.9963543	łodziach	-0.031318355
-3.6523304	morskiej	-0.031318355
-3.9963543	topieli	-0.031318355
-3.6523304	męczarni	-0.031318355
-3.9963543	brać	-0.031318355
-3.9963543	nauki.	-0.031318355
-3.9963543	tłumie,	-0.031318355
-3.9963543	nauczą,	-0.031318355
-3.9963543	wrzkomo	-0.031318355
-3.9963543	kłamie!	-0.031318355
-3.9963543	stąd	-0.031318355
-3.9963543	miecze	-0.031318355
-3.9963543	rozłamie,	-0.031318355
-3.8605034	królów	-0.031318355
-3.9963543	tonąć	-0.031318355
-3.9963543	tacy	-0.031318355
-3.6523304	zemstę	-0.031318355
-3.9963543	aniołom	-0.031318355
-3.9963543	poruczą,	-0.031318355
-3.9963543	nieliczny	-0.031318355
-3.8605034	wyłamie	-0.031318355
-3.9963543	prawdę	-0.031318355
-3.9963543	nietrudno	-0.031318355
-3.9963543	skona.	-0.031318355
-3.5047832	wstąpił	-0.031318355
-3.307202	pokład	-0.031318355
-3.9963543	janczarów,	-0.031318355
-3.6523304	chciał	-0.14745936
-3.9963543	dali;	-0.031318355
-3.3948522	okiem	-0.031318355
-3.2343059	rzucił	-0.031318355
-3.6523304	mgłami	-0.031318355
-3.8605034	osrebrzone	-0.031318355
-3.9963543	góry.	-0.031318355
-3.9963543	ucichł	-0.031318355
-3.9963543	niesfornych	-0.031318355
-3.9963543	gwarów,	-0.031318355
-3.9963543	szmer	-0.031318355
-3.9963543	zamienił	-0.031318355
-3.9963543	gasnący	-0.031318355
-3.5047832	ponury,	-0.37170145
-3.8605034	cisza…	-0.031318355
-3.6523304	ciszy	-0.031318385
-3.9963543	wybłąkana	-0.031318355
-3.8605034	urodzona	-0.031318355
-3.8605034	tłumem,	-0.1511984
-3.9963543	cichych	-0.031318355
-3.8605034	głosów	-0.031318355
-3.9963543	rozłamana,	-0.031318355
-3.9963543	rośnie	-0.031318355
-3.8605034	kołysze	-0.031318355
-3.9963543	szumem,	-0.031318355
-3.8605034	tłumie	-0.031318355
-3.9963543	grzmiące	-0.031318355
-3.9963543	hasła:	-0.031318355
-3.9963543	powstańcie,	-0.031318355
-3.8605034	placename!	-0.031318355
-3.9963543	słyszy.	-0.031318355
-3.9963543	brzmiało	-0.031318355
-3.9963543	ciszéj	-0.031318355
-3.5047832	cicho	-0.07538308
-3.9963543	znikła	-0.031318355
-3.8605034	zagasła.	-0.031318355
-3.9963543	skonaniu	-0.031318355
-3.9963543	kruszy,	-0.031318355
-3.9963543	radość	-0.031318355
-3.9963543	widna	-0.031318355
-3.9963543	postawy.	-0.031318355
-3.9963543	przeczuł	-0.031318355
-3.9963543	duszy…	-0.031318355
-3.5047832	czuł	-0.031318355
-3.9963543	sławy.	-0.031318355
-3.9963543	widziałem!	-0.031318355
-3.9963543	greki!	-0.031318355
-3.9963543	rusztowanie;	-0.031318355
-3.9963543	tłumiłem	-0.031318355
-3.9963543	łkanie…	-0.031318355
-3.9963543	zmrużył	-0.031318355
-3.9963543	powieki,	-0.031318355
-3.9963543	bliska!	-0.031318355
-3.9963543	straszliwa!	-0.031318355
-3.9963543	zasłonę	-0.031318355
-3.9963543	zrywa,	-0.031318355
-3.1719046	nieba	-0.031318355
-3.9963543	stropy	-0.031318355
-3.9963543	rusztowaniu	-0.031318355
-3.3948522	stanął	-0.06772142
-3.9963543	smutnemi	-0.031318355
-3.8605034	dawał	-0.031318355
-3.9963543	pożegnanie	-0.031318355
-3.3948522	ziemi,	-0.2790024
-3.9963543	siłom	-0.031318355
-3.9963543	młodości	-0.031318355
-3.8605034	marzeniom	-0.031318355
-3.9963543	młodości.	-0.031318355
-3.8605034	wtem	-0.031318355
-3.8605034	szczeble	-0.031318355
-3.9963543	pękły	-0.031318355
-3.9963543	wymknięte	-0.031318355
-3.6523304	spod	-0.031318355
-3.9963543	stopy…	-0.031318355
-3.9963543	wyrazów…	-0.031318355
-3.5047832	któż	-0.031318355
-3.9963543	zazdrości	-0.031318355
-3.9963543	teutońską	-0.031318355
-3.9963543	sprowadzonej	-0.031318355
-3.9963543	zdradą?	-0.031318355
-3.9963543	zemści?	-0.031318355
-3.6523304	całym	-0.031318355
-3.9963543	narodzie?	-0.031318355
-3.9963543	słońce	-0.031318355
-3.9963543	wstawało	-0.031318355
-3.9963543	wschodzie,	-0.031318355
-3.6523304	promień	-0.031318355
-3.9963543	rannej	-0.031318355
-3.9963543	otrząśniony	-0.031318355
-3.9963543	pozłocił	-0.031318355
-3.6523304	martwą	-0.031318355
-3.6523304	bladą	-0.107457325
-3.5047832	ramiona	-0.031318355
-3.9963543	spływające	-0.031318355
-3.9963543	włosy.	-0.031318355
-3.9963543	siłę	-0.031318355
-3.9963543	ukazał	-0.031318355
-3.9963543	niezmienną,	-0.031318355
-3.9963543	uratowaną	-0.031318355
-3.9963543	rozbicia;	-0.031318355
-3.9963543	walczy	-0.031318355
-3.9963543	senna	-0.031318355
-3.5047832	boleść	-0.031318355
-3.8605034	boleścią	-0.031318355
-3.9963543	wieczności	-0.031318355
-3.9963543	bezsenną.	-0.031318355
-3.9963543	widzów	-0.031318355
-3.9963543	ożyła;	-0.031318355
-3.9963543	jeziorze	-0.031318355
-3.9963543	trzcinami	-0.031318355
-3.9963543	zarosłem	-0.031318355
-3.9963543	wężową	-0.031318355
-3.9963543	ścieżką	-0.031318355
-3.3948522	tłumu	-0.07538308
-3.9963543	wywiła;	-0.031318355
-3.9963543	pędził	-0.031318355
-3.9963543	obustronnym	-0.031318355
-3.9963543	bawił	-0.031318355
-3.6523304	rzucając	-0.031318355
-3.5047832	głowy	-0.08713509
-3.6523304	tysiączne	-0.031318355
-3.9963543	kręgi	-0.031318355
-3.9963543	wodnistych	-0.031318355
-3.9963543	obręczy,	-0.031318355
-3.8605034	umalowane	-0.031318355
-3.9963543	kolorami	-0.031318355
-3.9963543	tęczy.	-0.031318355
-3.9963543	łódź,	-0.031318355
-3.9963543	delfin	-0.031318355
-3.9963543	wodzie	-0.031318355
-3.9963543	rozigrana,	-0.031318355
-3.9963543	tonęła	-0.031318355
-3.6523304	odmęt	-0.031318355
-3.9963543	lazurowy,	-0.031318355
-3.9963543	równa	-0.031318355
-3.9963543	powierzchni	-0.031318355
-3.8605034	morza,	-0.031318355
-3.9963543	piana	-0.031318355
-3.9963543	srebrzyła;	-0.031318355
-3.9963543	statek	-0.031318355
-3.9963543	wierzchu	-0.031318355
-3.5047832	szedł	-0.031318385
-3.9963543	ptasimi	-0.031318355
-3.9963543	loty,	-0.031318355
-3.9963543	bliższy	-0.031318355
-3.8605034	sułtana,	-0.1511984
-3.9963543	bacząc	-0.031318355
-3.9963543	niby,	-0.031318355
-3.9963543	kary	-0.031318355
-3.9963543	wzbronione	-0.031318355
-3.9963543	łodziom	-0.031318355
-3.9963543	granice	-0.031318355
-3.9963543	przechodzi.	-0.031318355
-3.9963543	śmieli	-0.031318355
-3.9963543	strzelać	-0.031318355
-3.9963543	strzegące	-0.031318355
-3.9963543	janczary	-0.031318355
-3.9963543	płynących	-0.031318355
-3.6523304	zdrady	-0.031318355
-3.9963543	bali;	-0.031318355
-3.9963543	złocisto	-0.031318355
-3.9963543	malowanej	-0.031318355
-3.9963543	ujrzeli	-0.031318355
-3.6523304	postać	-0.031318355
-3.8605034	dziewicy	-0.1511984
-3.6523304	głośno	-0.031318355
-3.9963543	śmiejąc	-0.031318355
-3.9963543	przeklinali	-0.031318355
-3.9963543	szatę	-0.031318355
-3.8605034	zamkniętą	-0.031318355
-3.9963543	zazdrośną,	-0.031318355
-3.9963543	biały,	-0.031318355
-3.9963543	lśniącym	-0.031318355
-3.9963543	haftowany	-0.031318355
-3.9963543	złotem,	-0.031318355
-3.9963543	powiewy	-0.031318355
-3.9963543	odwiały	-0.031318355
-3.9963543	szybkim	-0.031318355
-3.9963543	odsłoniła	-0.031318355
-3.9963543	lotem.	-0.031318355
-3.6523304	zasłoną	-0.031318355
-3.9963543	róża	-0.031318355
-3.9963543	niewidoma,	-0.031318355
-3.9963543	snadź	-0.031318355
-3.9963543	ciekawością	-0.031318355
-3.9963543	dziecinną	-0.031318355
-3.9963543	haremu,	-0.031318355
-3.9963543	przejęta	-0.031318355
-3.9963543	zgrozą	-0.031318355
-3.9963543	nieruchoma,	-0.031318355
-3.8605034	chciała	-0.031318355
-3.9963543	bliżej	-0.031318355
-3.9963543	przypatrzyć	-0.031318355
-3.9963543	zmarłemu?	-0.031318355
-3.8605034	tą	-0.031318355
-3.9963543	ukrywa	-0.031318355
-3.9963543	wesoły?	-0.031318355
-3.5047832	takim	-0.031318355
-3.9963543	obrywa,	-0.031318355
-3.6523304	ziemskie	-0.031318355
-3.8605034	anioły	-0.031318355
-3.9963543	widzą	-0.031318355
-3.8605034	zgon	-0.031318355
-3.8605034	róży	-0.031318355
-3.9963543	człowieka.	-0.031318355
-3.3948522	okrętu	-0.031318385
-3.9963543	niedaleka,	-0.031318355
-3.8605034	łódka	-0.031318355
-3.9963543	silny	-0.031318355
-3.9963543	popęd	-0.031318355
-3.9963543	wiosła,	-0.031318355
-3.6523304	biegła	-0.031318355
-3.9963543	fregatą	-0.031318355
-3.9963543	zrosła:	-0.031318355
-3.9963543	wybił	-0.031318355
-3.9963543	szary,	-0.031318355
-3.9963543	jasność	-0.031318355
-3.9963543	błękitnawa	-0.031318355
-3.9963543	siarki.	-0.031318355
-3.5047832	chwilę	-0.031318385
-3.9963543	pożary;	-0.031318355
-3.3948522	płomień	-0.031318385
-3.9963543	otoczył,	-0.031318355
-3.9963543	odrzucił	-0.031318355
-3.9963543	skoczył.	-0.031318355
-3.9963543	zbiegłym	-0.031318355
-3.5047832	setne	-0.031318355
-3.9963543	strzeliły	-0.031318355
-3.9963543	janczarki,	-0.031318355
-3.9963543	kulą	-0.031318355
-3.8605034	zanurzony	-0.031318355
-3.8605034	zginął…	-0.1511984
-3.6523304	błękit	-0.031318355
-3.9963543	pianą	-0.031318355
-3.9963543	zakłócił,	-0.031318355
-3.9963543	powierzchnie	-0.031318355
-3.9963543	wypłynął,	-0.031318355
-3.9963543	rzucił…	-0.031318355
-3.9963543	echo	-0.031318355
-3.9963543	powtarza,	-0.031318355
-3.9963543	majtka	-0.031318355
-3.9963543	oświeciła,	-0.031318355
-3.8605034	poznałem	-0.1511984
-3.9963543	korsarza,	-0.031318355
-3.8605034	spłonęła	-0.031318355
-3.8605034	dymie	-0.031318355
-3.8605034	lazuru	-0.1511984
-3.8605034	błękitna	-0.031318355
-3.9963543	siarka	-0.031318355
-3.8605034	błyska	-0.031318355
-3.9963543	blada,	-0.031318355
-3.9963543	całuje	-0.031318355
-3.9963543	marmuru,	-0.031318355
-3.9963543	ślizga	-0.031318355
-3.9963543	wgląda	-0.031318355
-3.9963543	trzaskiem	-0.031318355
-3.3948522	nagle	-0.062330436
-3.9963543	czerwono	-0.031318355
-3.9963543	dębu	-0.031318355
-3.9963543	zajęła	-0.031318355
-3.9963543	ściana	-0.031318355
-3.9963543	kłębie	-0.031318355
-3.9963543	zabłąkana	-0.031318355
-3.9963543	gwiazda	-0.031318355
-3.6523304	upadła	-0.031318355
-3.9963543	żagle.	-0.031318355
-3.6523304	szybko	-0.031318355
-3.9963543	wbiega,	-0.031318355
-3.9963543	roztwiera	-0.031318355
-3.9963543	szczeliny…	-0.031318355
-3.9963543	pękały	-0.031318355
-3.8605034	szyby	-0.031318355
-3.9963543	rwały	-0.031318355
-3.8605034	liny,	-0.1511984
-3.9963543	węglowym	-0.031318355
-3.6523304	padł	-0.031318355
-3.8605034	dźwiękiem.	-0.1511984
-3.9963543	trzasku	-0.031318355
-3.9963543	rozlega,	-0.031318355
-3.8605034	tysiąc	-0.031318355
-3.9963543	jęków	-0.031318355
-3.9963543	jękiem…	-0.031318355
-3.9963543	ucichły	-0.031318355
-3.9963543	razem…	-0.031318355
-3.6523304	płomieni	-0.031318355
-3.9963543	głuchnął;	-0.031318355
-3.9963543	ciszą	-0.031318355
-3.9963543	zdawał,	-0.031318355
-3.9963543	doń	-0.031318355
-3.9963543	słuch	-0.031318355
-3.9963543	nawyknął.	-0.031318355
-3.9963543	płomieniach	-0.031318355
-3.8605034	nowy	-0.031318355
-3.9963543	wybuchnął.	-0.031318355
-3.9963543	tknięty	-0.031318355
-3.9963543	różdżką	-0.031318355
-3.9963543	czarowną	-0.031318355
-3.9963543	aniołów,	-0.031318355
-3.9963543	wulkanu	-0.031318355
-3.9963543	pożar	-0.031318355
-3.8605034	zniknął,	-0.031318355
-3.9963543	zostawił	-0.031318355
-3.6523304	przepaść	-0.031318355
-3.9963543	łodzie	-0.031318355
-3.9963543	burzą	-0.031318355
-3.9963543	kołysane,	-0.031318355
-3.9963543	popiołów.	-0.031318355
-3.9963543	uczczony	-0.031318355
-3.9963543	pogrzebem…	-0.031318355
-3.9963543	próchnieć	-0.031318355
-3.9963543	lochy,	-0.031318355
-3.9963543	stos	-0.031318355
-3.9963543	wzniesiony	-0.031318355
-3.9963543	niebem	-0.031318355
-3.9963543	dębów	-0.031318355
-3.9963543	trupów	-0.031318355
-3.9963543	łzawicy	-0.031318355
-3.9963543	spadły	-0.031318355
-3.9963543	prochy.	-0.031318355
-3.8605034	okropna	-0.031318355
-3.8605034	młodej	-0.031318355
-3.9963543	dziewicy!	-0.031318355
-3.9963543	ożywiona	-0.031318355
-3.8605034	duchem,	-0.1511984
-3.9963543	obchodzi,	-0.031318355
-3.9963543	żadnym	-0.031318355
-3.9963543	zdradziła	-0.031318355
-3.6523304	ruchem,	-0.107457325
-3.9963543	jęku	-0.031318355
-3.9963543	prochem	-0.031318355
-3.9963543	opadła	-0.031318355
-3.9963543	łodzi.	-0.031318355
-3.9963543	przechował	-0.031318355
-3.9963543	korsarskiego	-0.031318355
-3.9963543	dopłynął	-0.031318355
-3.9963543	okrętu;	-0.031318355
-3.9963543	przywołał	-0.031318355
-3.0253065	pazia	-0.050795462
-3.9963543	omdlały	-0.031318355
-3.8605034	kobierce	-0.031318355
-3.6523304	mówił	-0.06772142
-3.9963543	odmętu	-0.031318355
-3.9963543	zburzonych	-0.031318355
-3.9963543	mowa	-0.031318355
-3.9963543	skora,	-0.031318355
-3.9963543	stu	-0.031318355
-3.9963543	rozkwita…	-0.031318355
-3.9963543	pazia:	-0.031318355
-3.9963543	„pora!	-0.031318355
-3.9963543	pora!	-0.031318355
-3.9963543	zmienić	-0.031318355
-3.9963543	banderę…	-0.031318355
-3.9963543	powstaną?	-0.031318355
-3.8605034	czarnej	-0.031318355
-3.8605034	banderze	-0.031318355
-3.9963543	zaświta,	-0.031318355
-3.9963543	powiedzą:	-0.031318355
-3.9963543	„szalony!	-0.031318355
-3.9963543	rano!”	-0.031318355
-3.9963543	niczego	-0.031318355
-3.9963543	tyle	-0.031318355
-3.8605034	znieść	-0.031318355
-3.9963543	męczarni?	-0.031318355
-3.8605034	paziu!	-0.031318355
-3.8605034	idź	-0.031318355
-3.8605034	góry,	-0.031318355
-3.9963543	kryją,	-0.031318355
-3.9963543	marmurowych	-0.031318355
-3.9963543	zazieraj	-0.031318355
-3.9963543	kawiarni	-0.031318355
-3.9963543	śpiewaj	-0.031318355
-3.9963543	zobacz,	-0.031318355
-3.9963543	żyją?	-0.031318355
-3.9963543	zobacz	-0.031318355
-3.8605034	grobach	-0.031318355
-3.9963543	mściciele?	-0.031318355
-3.9963543	wróć	-0.031318355
-3.9963543	zwykle	-0.031318355
-3.8605034	lać	-0.031318355
-3.9963543	makowy,	-0.031318355
-3.9963543	każdą	-0.031318355
-3.8605034	kroplę	-0.031318355
-3.8605034	napoju	-0.031318355
-3.9963543	spierać;	-0.031318355
-3.9963543	czuję	-0.031318355
-3.8605034	straszny	-0.031318355
-3.8605034	ciężar	-0.031318355
-3.8605034	myśli…	-0.031318355
-3.9963543	wypiłbym	-0.031318355
-3.5047832	chcę	-0.031318385
-3.9963543	marzyć	-0.031318355
-3.8605034	dłużéj	-0.1511984
-3.9963543	muszę	-0.031318355
-3.9963543	umierać…	-0.031318355
-3.9963543	idź,	-0.031318355
-3.9963543	dobre	-0.031318355
-3.8605034	wieści	-0.031318355
-3.9963543	przynieś	-0.031318355
-3.9963543	podróży…”	-0.031318355
-3.9963543	„poszedłem”	-0.031318355
-3.9963543	zapłonił,	-0.031318355
-3.8605034	czuł,	-0.031318355
-3.9963543	słowem	-0.031318355
-3.9963543	nieroztropnym	-0.031318355
-3.9963543	zdradził:	-0.031318355
-3.8605034	kryjąc	-0.031318355
-3.9963543	zmięszanie	-0.031318355
-3.8605034	silnie	-0.031318355
-3.9963543	lutnię	-0.031318355
-3.9963543	dzwonił,	-0.031318355
-3.6523304	ręką	-0.031318355
-3.9963543	struny	-0.031318355
-3.9963543	przeprowadził.	-0.031318355
-3.9963543	obejrzał	-0.031318355
-3.9963543	placename…	-0.031318355
-3.9963543	czyta.	-0.031318355
-3.9963543	zaśmiał	-0.031318355
-3.9963543	gorzko	-0.031318355
-3.9963543	wzgardy	-0.031318355
-3.9963543	wyszedł…	-0.031318355
-3.9963543	śpiesznym	-0.031318355
-3.9963543	wyszła	-0.031318355
-3.9963543	krokiem	-0.031318355
-3.8605034	okryta.	-0.1511984
-3.9963543	ciekawa	-0.031318355
-3.8605034	tajemnicy	-0.1511984
-3.9963543	odchodzącym	-0.031318355
-3.8605034	paziem	-0.031318355
-3.9963543	zawołała?	-0.031318355
-3.9963543	rozmawiała	-0.031318355
-3.9963543	ośrebrzonej	-0.031318355
-3.8605034	księżycem	-0.031318355
-3.9963543	ulicy.	-0.031318355
-3.9963543	rozmowy	-0.031318355
-3.9963543	dźwięku,	-0.031318355
-3.9963543	gorącymi	-0.031318355
-3.9963543	prosiła	-0.031318355
-3.9963543	słowy…	-0.031318355
-3.5047832	musiał	-0.031318355
-3.9963543	zezwolić	-0.031318355
-3.8605034	ręku	-0.031318355
-3.9963543	pierścień	-0.031318355
-3.9963543	brylantowy.	-0.031318355
-3.6523304	druga	-0.031318355
-3.9963543	zapada	-0.031318355
-3.9963543	kabinie,	-0.031318355
-3.9963543	zalana	-0.031318355
-3.8605034	falą	-0.031318355
-3.9963543	szyba	-0.031318355
-3.9963543	bursztynowa	-0.031318355
-3.9963543	ciemnieje;	-0.031318355
-3.9963543	piekła	-0.031318355
-3.9963543	krainie	-0.031318355
-3.9963543	cisza	-0.031318355
-3.9963543	grobowa,	-0.031318355
-3.8605034	piekło	-0.031318355
-3.8605034	same	-0.031318355
-3.9963543	słowa,	-0.031318355
-3.8605034	piekielnej	-0.031318355
-3.9963543	wypisane	-0.031318355
-3.9963543	bramie,	-0.031318355
-3.9963543	wchodzących	-0.031318355
-3.9963543	wieją;	-0.031318355
-3.9963543	wejdzie,	-0.031318355
-3.9963543	żegna	-0.031318355
-3.9963543	nadzieją.	-0.031318355
-3.9963543	starzeje	-0.031318355
-3.9963543	przeciągu	-0.031318355
-3.9963543	godziny;	-0.031318355
-3.8605034	głową	-0.031318355
-3.9963543	grzmiąca	-0.031318355
-3.9963543	huczą	-0.031318355
-3.9963543	jęczą	-0.031318355
-3.9963543	starte	-0.031318355
-3.9963543	choćbyś	-0.031318355
-3.9963543	wrażenia	-0.031318355
-3.8605034	powiązał	-0.031318355
-3.9963543	rozprysną	-0.031318355
-3.9963543	ogarnąć	-0.031318355
-3.9963543	ruchu,	-0.031318355
-3.8605034	wydaje	-0.031318355
-3.9963543	pojęty	-0.031318355
-3.8605034	zmysłem	-0.031318355
-3.9963543	trwogą.	-0.031318355
-3.9963543	kabinie	-0.031318355
-3.9963543	cienia	-0.031318355
-3.9963543	kształtu	-0.031318355
-3.9963543	żyjącej	-0.031318355
-3.9963543	istoty;	-0.031318355
-3.9963543	ciężkie	-0.031318355
-3.9963543	odetchnienia.	-0.031318355
-3.9963543	grobie	-0.031318355
-3.8605034	zamknąć	-0.031318355
-3.9963543	żywy.	-0.031318355
-3.9963543	czuwa,	-0.031318355
-3.9963543	zgryzoty;	-0.031318355
-3.9963543	zasnął,	-0.031318355
-3.9963543	straszliwy.	-0.031318355
-3.6523304	paź	-0.031318385
-3.9963543	wszedł…	-0.031318355
-3.8605034	postawił	-0.031318355
-3.9963543	stół	-0.031318355
-3.8605034	lampę	-0.031318355
-3.9963543	kryształową.	-0.031318355
-3.8605034	stole	-0.031318355
-3.9963543	siedział	-0.031318355
-3.9963543	pochyloną	-0.031318355
-3.8605034	zadrżał,	-0.031318355
-3.8605034	marzenia	-0.031318355
-3.9963543	budzi,	-0.031318355
-3.9963543	natrętne	-0.031318355
-3.8605034	widząc	-0.031318355
-3.5047832	blade	-0.08713509
-3.9963543	szaleństwo	-0.031318355
-3.8605034	woła.	-0.1511984
-3.9963543	godził	-0.031318355
-3.8605034	rysy	-0.031318355
-3.8605034	czoła,	-0.1511984
-3.9963543	kruszcu	-0.031318355
-3.8605034	twardo,	-0.031318355
-3.9963543	malowana	-0.031318355
-3.9963543	przemian	-0.031318355
-3.9963543	bólem,	-0.031318355
-3.9963543	wzgardą;	-0.031318355
-3.9963543	bezwładną	-0.031318355
-3.9963543	spokójność	-0.031318355
-3.9963543	przybrała;	-0.031318355
-3.8605034	skonać,	-0.031318355
-3.9963543	skonała.	-0.031318355
-3.8605034	spoczywał	-0.031318355
-3.9963543	oparty,	-0.031318355
-3.9963543	rozwite	-0.031318355
-3.9963543	znajomego	-0.031318355
-3.9963543	karty,	-0.031318355
-3.9963543	ziemia,	-0.031318355
-3.9963543	ramieniem	-0.031318355
-3.9963543	opasana,	-0.031318355
-3.9963543	leżała	-0.031318355
-3.9963543	żelaznych	-0.031318355
-3.9963543	skrętach	-0.031318355
-3.9963543	lewiatana.	-0.031318355
-3.8605034	ściany	-0.031318355
-3.8605034	krwawą	-0.031318355
-3.9963543	korsarza.	-0.031318355
-3.9963543	lampa,	-0.031318355
-3.9963543	płonie,	-0.031318355
-3.9963543	sprzed	-0.031318355
-3.9963543	ołtarza,	-0.031318355
-3.9963543	świeci	-0.031318355
-3.3948522	zbrodni,	-0.07538308
-3.9963543	przyświecała	-0.031318355
-3.5047832	księżyca	-0.031318355
-3.9963543	rzucony	-0.031318355
-3.9963543	progu	-0.031318355
-3.9963543	kawał	-0.031318355
-3.9963543	śniegu	-0.031318355
-3.9963543	błękitnawy.	-0.031318355
-3.9963543	pawilony,	-0.031318355
-3.9963543	obcej	-0.031318355
-3.9963543	wzięte	-0.031318355
-3.9963543	nawy,	-0.031318355
-3.6523304	stopami	-0.031318355
-3.9963543	rozdarte.	-0.031318355
-3.6523304	lampa	-0.031318355
-3.9963543	oświeca	-0.031318355
-3.9963543	pargaminu	-0.031318355
-3.8605034	kartę,	-0.1511984
-3.9963543	ustrojony	-0.031318355
-3.9963543	pieczęć	-0.031318355
-3.8605034	wosku	-0.031318355
-3.9963543	leży	-0.031318355
-3.9963543	trupia	-0.031318355
-3.9963543	głowa,	-0.031318355
-3.9963543	sułtana	-0.031318355
-3.9963543	samego	-0.031318355
-3.9963543	mniejsza,	-0.031318355
-3.9963543	żółta,	-0.031318355
-3.9963543	lśniąca	-0.031318355
-3.9963543	czaszek	-0.031318355
-3.9963543	najpiękniejsza.	-0.031318355
-3.9963543	wybite,	-0.031318355
-3.9963543	rdzawe	-0.031318355
-3.9963543	oręże,	-0.031318355
-3.9963543	czarami	-0.031318355
-3.9963543	okręcone	-0.031318355
-3.9963543	węże	-0.031318355
-3.9963543	zginają	-0.031318355
-3.9963543	kark	-0.031318355
-3.9963543	szczątki	-0.031318355
-3.8605034	trucizny.	-0.1511984
-3.9963543	ścian	-0.031318355
-3.9963543	wyczytaj	-0.031318355
-3.9963543	wygnańców	-0.031318355
-3.9963543	ojczyzny.	-0.031318355
-3.9963543	sumnieniem	-0.031318355
-3.6523304	kajuty	-0.031318355
-3.9963543	ścienne	-0.031318355
-3.9963543	zwierciadła,	-0.031318355
-3.9963543	powierzchnia	-0.031318355
-3.9963543	wilgoci	-0.031318355
-3.9963543	pobladła,	-0.031318355
-3.9963543	grubszymi	-0.031318355
-3.9963543	ciemnieją,	-0.031318355
-3.9963543	dnia,	-0.031318355
-3.9963543	patrzą,	-0.031318355
-3.9963543	spowiadać	-0.031318355
-3.9963543	śmieją.	-0.031318355
-3.8605034	cichość	-0.031318355
-3.9963543	głucha.	-0.031318355
-3.9963543	podnosi	-0.031318355
-3.8605034	słucha.	-0.1511984
-3.8605034	myślom,	-0.031318355
-3.9963543	dalekie	-0.031318355
-3.9963543	rzuconym	-0.031318355
-3.9963543	zawody,	-0.031318355
-3.9963543	odpowiadają	-0.031318355
-3.5047832	dźwiękiem	-0.031318355
-3.9963543	krople	-0.031318355
-3.6523304	wody,	-0.24676271
-3.9963543	szczelin	-0.031318355
-3.9963543	sączone	-0.031318355
-3.9963543	wydają	-0.031318355
-3.9963543	szklanny,	-0.031318355
-3.9963543	płacz	-0.031318355
-3.9963543	łzawy	-0.031318355
-3.9963543	dalekiej	-0.031318355
-3.9963543	cytrynach	-0.031318355
-3.9963543	fontanny.	-0.031318355
-3.8605034	czegoż	-0.031318355
-3.9963543	czeka?	-0.031318355
-3.3948522	nocy	-0.031318385
-3.9963543	podawać	-0.031318355
-3.8605034	czarę,	-0.031318355
-3.9963543	makowy.	-0.031318355
-3.8605034	lambro,	-0.031318355
-3.9963543	bladszy,	-0.031318355
-3.9963543	szaleje	-0.031318355
-3.8605034	trucizn	-0.031318355
-3.9963543	namiętnym	-0.031318355
-3.9963543	piciem;	-0.031318355
-3.9963543	mieni	-0.031318355
-3.8605034	gorączkowy,	-0.1511984
-3.9963543	jasnymi	-0.031318355
-3.9963543	grający	-0.031318355
-3.9963543	barwami,	-0.031318355
-3.8605034	chwile	-0.031318355
-3.9963543	zdają	-0.031318355
-3.9963543	snami,	-0.031318355
-3.9963543	szalony	-0.031318355
-3.9963543	życiem.	-0.031318355
-3.8605034	czara	-0.031318355
-3.9963543	pełniejsza	-0.031318355
-3.6523304	widma	-0.031318355
-3.6523304	sny	-0.031318355
-3.9963543	dawała.	-0.031318355
-3.8605034	bladła	-0.031318355
-3.9963543	źrennica	-0.031318355
-3.9963543	świetniejsza,	-0.031318355
-3.5047832	ciemność	-0.031318385
-3.9963543	wlepiona,	-0.031318355
-3.9963543	krwawa	-0.031318355
-3.9963543	biała,	-0.031318355
-3.6523304	krainę	-0.031318385
-3.1719046	duchów	-0.031318385
-3.9963543	wracała	-0.031318355
-3.9963543	cierpiał	-0.031318355
-3.9963543	szalał	-0.031318355
-3.9963543	żebrał	-0.031318355
-3.5047832	trucizny	-0.031318355
-3.9963543	miarę;	-0.031318355
-3.9963543	dziecku	-0.031318355
-3.9963543	groził,	-0.031318355
-3.9963543	pozwalał.	-0.031318355
-3.9963543	ciskał	-0.031318355
-3.9963543	zgubną	-0.031318355
-3.9963543	czarę.	-0.031318355
-3.8605034	cóż	-0.031318355
-3.9963543	stało,	-0.031318355
-3.9963543	zapadła,	-0.031318355
-3.9963543	zazwyczaj	-0.031318355
-3.9963543	podaje	-0.031318355
-3.9963543	czary?	-0.031318355
-3.9963543	pobladła;	-0.031318355
-3.8605034	lęka	-0.031318355
-3.9963543	zwierciadła	-0.031318355
-3.8605034	zamglić	-0.031318355
-3.9963543	szaleństwem	-0.031318355
-3.9963543	gorączkowej	-0.031318355
-3.9963543	mary	-0.031318355
-3.9963543	owego	-0.031318355
-3.8605034	płonącej	-0.031318355
-3.9963543	stoi	-0.031318355
-3.9963543	pełna	-0.031318355
-3.9963543	jęków,	-0.031318355
-3.9963543	wrzasku	-0.031318355
-3.9963543	przeraźliwego	-0.031318355
-3.6523304	blasku,	-0.107457325
-3.9963543	dotknięta	-0.031318355
-3.9963543	palcem	-0.031318355
-3.2343059	anioła	-0.062330436
-3.9963543	zatraty.	-0.031318355
-3.9963543	wytrzyma	-0.031318355
-3.9963543	zwyczaju	-0.031318355
-3.9963543	przełamać	-0.031318355
-3.9963543	narowy?	-0.031318355
-3.9963543	obłąkanymi	-0.031318355
-3.5047832	spogląda	-0.08713509
-3.3948522	oczyma,	-0.46861148
-3.8605034	wstał	-0.031318355
-3.6523304	wyszedł	-0.031318355
-3.9963543	okrętowy.	-0.031318355
-3.9963543	cicha.	-0.031318355
-3.9963543	kotwicy	-0.031318355
-3.9963543	niepełnym	-0.031318355
-3.6523304	brał	-0.031318355
-3.9963543	pieszczoty.	-0.031318355
-3.8605034	szkliste,	-0.031318355
-3.6523304	pełne	-0.031318355
-3.9963543	księżycowego	-0.031318355
-3.9963543	tęsknoty.	-0.031318355
-3.9963543	ochylił	-0.031318355
-3.9963543	dokoła,	-0.031318355
-3.9963543	najwyższy,	-0.031318355
-3.8605034	schylony	-0.031318355
-3.9963543	szczytu,	-0.031318355
-3.6523304	śmiał	-0.031318355
-3.9963543	jakoby	-0.031318355
-3.8605034	wznieść	-0.031318355
-3.9963543	dumnego	-0.031318355
-3.8605034	kryształowym	-0.031318355
-3.9963543	sklepieniem	-0.031318355
-3.9963543	błękitu.	-0.031318355
-3.6523304	drżącej	-0.08713509
-3.9963543	delfiny	-0.031318355
-3.9963543	igrały	-0.031318355
-3.8605034	blaski	-0.031318355
-3.9963543	księżycowe,	-0.031318355
-3.9963543	wyspy	-0.031318355
-3.9963543	cytrynowe,	-0.031318355
-3.9963543	widnokręgu	-0.031318355
-3.9963543	skała	-0.031318355
-3.9963543	lodowej	-0.031318355
-3.307202	gwiazd	-0.031318355
-3.9963543	koronie,	-0.031318355
-3.9963543	przejdzie	-0.031318355
-3.9963543	mgłach	-0.031318355
-3.9963543	zatonie.	-0.031318355
-3.3948522	szumem	-0.031318385
-3.9963543	doleciała	-0.031318355
-3.6523304	którą	-0.031318355
-3.9963543	napełnia	-0.031318355
-3.9963543	ogrody;	-0.031318355
-3.9963543	woniami,	-0.031318355
-3.8605034	kwitną,	-0.1511984
-3.9963543	drżącą	-0.031318355
-3.9963543	falę	-0.031318355
-3.9963543	zakołysze.	-0.031318355
-3.8605034	topią	-0.031318355
-3.8605034	wonie	-0.031318355
-3.9963543	zapach	-0.031318355
-3.8605034	dźwięki	-0.031318355
-3.9963543	ciszę.	-0.031318355
-3.9963543	drużyna	-0.031318355
-3.9963543	ciekawie	-0.031318355
-3.9963543	śledzi	-0.031318355
-3.9963543	rysów	-0.031318355
-3.9963543	lica…	-0.031318355
-3.8605034	straszną	-0.031318355
-3.9963543	bladością	-0.031318355
-3.9963543	przeraża,	-0.031318355
-3.9963543	pobłękitniała	-0.031318355
-3.9963543	księżyca…	-0.031318355
-3.9963543	odeszli…	-0.031318355
-3.9963543	osłoniony	-0.031318355
-3.9963543	żagle	-0.031318355
-3.8605034	odległe	-0.031318355
-3.9963543	skały,	-0.031318355
-3.8605034	dumał…	-0.031318355
-3.6523304	upadł	-0.031318355
-3.9963543	omdlały.	-0.031318355
-3.9963543	majtków	-0.031318355
-3.9963543	otoczy…	-0.031318355
-3.9963543	strasznie	-0.031318355
-3.9963543	nieżywy.	-0.031318355
-3.6523304	krzyk	-0.031318355
-3.9963543	wydał	-0.031318355
-3.9963543	przeraźliwy,	-0.031318355
-3.9963543	omdlałego	-0.031318355
-3.9963543	przyniesiono	-0.031318355
-3.9963543	zbielałe	-0.031318355
-3.8605034	podniósł	-0.031318355
-3.1719046	oczy,	-0.16898265
-3.9963543	roztlała	-0.031318355
-3.9963543	obłąkana.	-0.031318355
-3.5047832	otworzył	-0.031318355
-3.5047832	usta	-0.031318385
-3.9963543	nieprzytomnie:	-0.031318355
-3.9963543	„jęczał	-0.031318355
-3.9963543	znam	-0.031318355
-3.9963543	płaczu	-0.031318355
-3.9963543	miłośnym	-0.031318355
-3.9963543	płakałeś	-0.031318355
-3.9963543	twojemi,	-0.031318355
-3.9963543	zabijesz	-0.031318355
-3.8605034	drugim	-0.031318355
-3.9963543	jękiem!	-0.031318355
-3.9963543	dziewicy,	-0.031318355
-3.9963543	posłyszany	-0.031318355
-3.8605034	śnie,	-0.1511984
-3.9963543	dziwnym	-0.031318355
-3.8605034	połamał	-0.031318355
-3.9963543	kształtem;	-0.031318355
-3.9963543	wyciągnąłem	-0.031318355
-3.8605034	sił	-0.031318355
-3.9963543	gwałtem	-0.031318355
-3.9963543	letargu	-0.031318355
-3.9963543	wstałem…	-0.031318355
-3.6523304	gdzież	-0.031318355
-3.9963543	?…	-0.031318355
-3.9963543	boleśnie	-0.031318355
-3.9963543	urokiem	-0.031318355
-3.9963543	przeraziła!	-0.031318355
-3.8605034	księżycowa	-0.1511984
-3.9963543	ciemniejsza?	-0.031318355
-3.9963543	przekląłem,	-0.031318355
-3.8605034	zwierciadło,	-0.1511984
-3.9963543	ciche,	-0.031318355
-3.9963543	burz	-0.031318355
-3.9963543	miało?	-0.031318355
-3.9963543	czucie	-0.031318355
-3.9963543	mdlało,	-0.031318355
-3.9963543	czucie,	-0.031318355
-3.9963543	bladło	-0.031318355
-3.6523304	spadały	-0.031318355
-3.8605034	śniegi.	-0.1511984
-3.9963543	minęło…	-0.031318355
-3.9963543	przemarzę.	-0.031318355
-3.8605034	paziu,	-0.031318355
-3.6523304	daj	-0.031318355
-3.9963543	nalaną	-0.031318355
-3.8605034	brzegi,	-0.1511984
-3.9963543	wiem	-0.031318355
-3.9963543	przynajmniej,	-0.031318355
-3.9963543	obfitej	-0.031318355
-3.6523304	czarze	-0.031318355
-3.9963543	trzymam	-0.031318355
-3.9963543	pełną,	-0.031318355
-3.9963543	dotkniętą	-0.031318355
-3.9963543	ustami;	-0.031318355
-3.9963543	spełnię	-0.031318355
-3.9963543	całej	-0.031318355
-3.9963543	ręki	-0.031318355
-3.9963543	odchyli	-0.031318355
-3.9963543	prośbą	-0.031318355
-3.6523304	łzami,	-0.24676271
-3.9963543	ziomków	-0.031318355
-3.8605034	jęki	-0.031318355
-3.9963543	pacierzem	-0.031318355
-3.8605034	grobu	-0.031318355
-3.9963543	hymnami”.	-0.031318355
-3.9963543	paź,	-0.031318355
-3.9963543	posłuszny	-0.031318355
-3.9963543	rozkazowi	-0.031318355
-3.9963543	podał	-0.031318355
-3.9963543	odstąpił	-0.031318355
-3.9963543	krokiem.	-0.031318355
-3.9963543	kształtnie	-0.031318355
-3.9963543	dłutowana,	-0.031318355
-3.9963543	niepełna	-0.031318355
-3.9963543	roślin	-0.031318355
-3.9963543	wytłoczonej	-0.031318355
-3.9963543	śliny;	-0.031318355
-3.8605034	chwycił	-0.031318355
-3.8605034	pożerał	-0.031318355
-3.8605034	okiem,	-0.1511984
-3.9963543	siny.	-0.031318355
-3.8605034	wypił	-0.031318355
-3.8605034	wolna	-0.031318355
-3.9963543	płomieniem	-0.031318355
-3.9963543	rozkwita;	-0.031318355
-3.9963543	zasłony	-0.031318355
-3.9963543	opadają	-0.031318355
-3.9963543	mgliste,	-0.031318355
-3.9963543	źrennicy	-0.031318355
-3.8605034	obłąkania	-0.031318355
-3.9963543	świta,	-0.031318355
-3.6523304	oczy	-0.05833064
-3.9963543	jasne,	-0.031318355
-3.9963543	błyszczące	-0.031318355
-3.9963543	przejrzeć	-0.031318355
-3.9963543	straciły	-0.031318355
-3.9963543	stały	-0.031318355
-3.9963543	iskrami,	-0.031318355
-3.9963543	gorączkową	-0.031318355
-3.9963543	śpieką,	-0.031318355
-3.9963543	pokryły	-0.031318355
-3.9963543	wsparł	-0.031318355
-3.9963543	dłoni,	-0.031318355
-3.6523304	wzroku,	-0.107457325
-3.9963543	bezsenne,	-0.031318355
-3.9963543	żyły	-0.031318355
-3.9963543	wybłysły	-0.031318355
-3.9963543	skroni	-0.031318355
-3.9963543	gałązki	-0.031318355
-3.9963543	bluszczu	-0.031318355
-3.9963543	powiązane;	-0.031318355
-3.6523304	włosy	-0.031318355
-3.9963543	jesienne	-0.031318355
-3.8605034	drżały	-0.031318355
-3.9963543	czole,	-0.031318355
-3.9963543	rozwiane;	-0.031318355
-3.9963543	marmurowej	-0.031318355
-3.9963543	pozór	-0.031318355
-3.8605034	postawie	-0.031318355
-3.9963543	rozkołysanie	-0.031318355
-3.8605034	zmysłów	-0.031318355
-3.9963543	pjane.	-0.031318355
-3.9963543	czym	-0.031318355
-3.9963543	inni	-0.031318355
-3.9963543	śnią	-0.031318355
-3.9963543	jawie,	-0.031318355
-3.9963543	jaśniejsze.	-0.031318355
-3.9963543	węża	-0.031318355
-3.9963543	kawały	-0.031318355
-3.9963543	rozcięte	-0.031318355
-3.5047832	życiem	-0.031318355
-3.9963543	drgały.	-0.031318355
-3.9963543	ciszej!	-0.031318355
-3.9963543	czarowny	-0.031318355
-3.8605034	lotem	-0.031318355
-3.9963543	błękicie…	-0.031318355
-3.8605034	dzikiej	-0.031318355
-3.9963543	rozkoszy	-0.031318355
-3.9963543	urok	-0.031318355
-3.9963543	niewymowny	-0.031318355
-3.9963543	naglonym	-0.031318355
-3.9963543	tchnieniu	-0.031318355
-3.6523304	zamknął	-0.031318355
-3.9963543	zmysły	-0.031318355
-3.9963543	poczęte	-0.031318355
-3.8605034	porywa	-0.031318355
-3.8605034	łamie	-0.031318355
-3.8605034	poczęty	-0.031318355
-3.9963543	odetchnieniu	-0.031318355
-3.9963543	kona.	-0.031318355
-3.9963543	skrzydło	-0.031318355
-3.9963543	silne	-0.031318355
-3.9963543	ramię	-0.031318355
-3.9963543	lekkiej	-0.031318355
-3.6523304	powietrza	-0.031318355
-3.9963543	pławiło	-0.031318355
-3.9963543	fali;	-0.031318355
-3.9963543	opadł	-0.031318355
-3.8605034	zniknął	-0.031318355
-3.5047832	uczuć	-0.031318355
-3.9963543	szali.	-0.031318355
-3.9963543	stanął…	-0.031318355
-3.8605034	tysiące	-0.031318355
-3.9963543	błyskawic	-0.031318355
-3.8605034	ognistym	-0.031318355
-3.9963543	dokoła.	-0.031318355
-3.9963543	zamachniętych	-0.031318355
-3.9963543	prawic	-0.031318355
-3.9963543	wiało	-0.031318355
-3.9963543	tysiącznym	-0.031318355
-3.3948522	mieczem	-0.031318385
-3.9963543	archanioła.	-0.031318355
-3.9963543	pogasły,	-0.031318355
-3.9963543	stopiły	-0.031318355
-3.8605034	ciemny,	-0.031318355
-3.9963543	przezroczysty	-0.031318355
-3.9963543	głęboki	-0.031318355
-3.9963543	tajemny,	-0.031318355
-3.9963543	nieskończoność…	-0.031318355
-3.9963543	morza.	-0.031318355
-3.8605034	błękitu	-0.031318355
-3.9963543	przestworza	-0.031318355
-3.9963543	wykwitał	-0.031318355
-3.9963543	mglisty	-0.031318355
-3.8605034	sennych	-0.031318355
-3.9963543	czarów.	-0.031318355
-3.8605034	gmach	-0.031318355
-3.9963543	tysiącznych	-0.031318355
-3.9963543	złożony	-0.031318355
-3.9963543	filarów,	-0.031318355
-3.9963543	lekką	-0.031318355
-3.9963543	jasnością	-0.031318355
-3.8605034	powietrzu	-0.031318355
-3.9963543	skreślony,	-0.031318355
-3.8605034	stóp	-0.031318355
-3.9963543	rozbiegł	-0.031318355
-3.6523304	strony	-0.031318355
-3.6523304	niebie.	-0.107457325
-3.9963543	połowa	-0.031318355
-3.9963543	uwiana	-0.031318355
-3.9963543	promieni	-0.031318355
-3.9963543	księżyca,	-0.031318355
-3.9963543	jasna	-0.031318355
-3.9963543	księżycowa,	-0.031318355
-3.9963543	przezroczu	-0.031318355
-3.9963543	błękitnawo	-0.031318355
-3.9963543	szklista;	-0.031318355
-3.9963543	strona	-0.031318355
-3.9963543	posępna,	-0.031318355
-3.9963543	ognista,	-0.031318355
-3.9963543	piekło.	-0.031318355
-3.9963543	egidy	-0.031318355
-3.9963543	kryło	-0.031318355
-3.9963543	jasności	-0.031318355
-3.9963543	sklepieniem;	-0.031318355
-3.9963543	schylone	-0.031318355
-3.9963543	kariatydy,	-0.031318355
-3.9963543	dwubarwnym	-0.031318355
-3.5047832	światła	-0.031318355
-3.9963543	uwiane	-0.031318355
-3.9963543	bliska	-0.031318355
-3.9963543	ogromne	-0.031318355
-3.8605034	ciemni	-0.031318355
-3.8605034	szatani,	-0.1511984
-3.9963543	biegły	-0.031318355
-3.9963543	oddaleniem	-0.031318355
-3.9963543	mniejsze,	-0.031318355
-3.9963543	dalsze	-0.031318355
-3.9963543	świetniejsze,	-0.031318355
-3.6523304	gwiazdy	-0.031318385
-3.9963543	niknęły	-0.031318355
-3.9963543	otchłani.	-0.031318355
-3.9963543	tchnąć	-0.031318355
-3.9963543	wyniosła	-0.031318355
-3.9963543	duchami	-0.031318355
-3.9963543	otoczona	-0.031318355
-3.9963543	sala,	-0.031318355
-3.9963543	lekka,	-0.031318355
-3.6523304	otchłań	-0.031318355
-3.9963543	tchnieniem	-0.031318355
-3.9963543	potrącona,	-0.031318355
-3.9963543	rozniosła.	-0.031318355
-3.8605034	stał	-0.031318355
-3.8605034	tchnienie	-0.031318355
-3.9963543	połykał	-0.031318355
-3.9963543	czarownego	-0.031318355
-3.9963543	zwierciadła.	-0.031318355
-3.9963543	lesie	-0.031318355
-3.9963543	ludzkie	-0.031318355
-3.9963543	cienie,	-0.031318355
-3.9963543	kleftów	-0.031318355
-3.9963543	dawna	-0.031318355
-3.9963543	pomarłych	-0.031318355
-3.9963543	widziadła;	-0.031318355
-3.6523304	gmachu	-0.031318355
-3.9963543	wplątani	-0.031318355
-3.9963543	promienie,	-0.031318355
-3.9963543	posępno	-0.031318355
-3.9963543	srebrni	-0.031318355
-3.9963543	ogniści,	-0.031318355
-3.9963543	liczni	-0.031318355
-3.9963543	zwichrzona,	-0.031318355
-3.9963543	wiązali	-0.031318355
-3.9963543	tłumy.	-0.031318355
-3.9963543	dotknięci	-0.031318355
-3.9963543	żywego	-0.031318355
-3.9963543	twarzach	-0.031318355
-3.9963543	zdradzili	-0.031318355
-3.9963543	ziemskiej	-0.031318355
-3.8605034	dumy.	-0.1511984
-3.8605034	widać,	-0.031318355
-3.9963543	znaczni	-0.031318355
-3.9963543	rysami	-0.031318355
-3.9963543	strojni	-0.031318355
-3.9963543	ziemskich	-0.031318355
-3.8605034	kolorów,	-0.1511984
-3.9963543	mogli	-0.031318355
-3.9963543	zasiąść	-0.031318355
-3.9963543	niebieskich	-0.031318355
-3.9963543	chorów;	-0.031318355
-3.9963543	sini,	-0.031318355
-3.9963543	lśniący	-0.031318355
-3.6523304	złota,	-0.107457325
-3.9963543	szkarłatów,	-0.031318355
-3.6523304	barwy,	-0.031318355
-3.9963543	oazis	-0.031318355
-3.3948522	stali	-0.031318385
-3.9963543	srebrno-ognistej	-0.031318355
-3.9963543	pustyni.	-0.031318355
-3.9963543	skoro	-0.031318355
-3.8605034	kole,	-0.031318355
-3.9963543	milijonowe	-0.031318355
-3.8605034	patrzały	-0.031318355
-3.9963543	duchy;	-0.031318355
-3.9963543	spojrzeń	-0.031318355
-3.9963543	zakuli	-0.031318355
-3.8605034	łańcuchy,	-0.1511984
-3.9963543	mógł	-0.031318355
-3.6523304	oczu	-0.031318355
-3.8605034	palące	-0.031318355
-3.8605034	uczuł	-0.031318355
-3.9963543	znamię	-0.031318355
-3.9963543	drżał	-0.031318355
-3.6523304	szmerem	-0.031318355
-3.8605034	rosnącym	-0.031318355
-3.9963543	potoku	-0.031318355
-3.9963543	setnymi	-0.031318355
-3.9963543	głosy	-0.031318355
-3.9963543	zawołali:	-0.031318355
-3.9963543	„czemuś	-0.031318355
-3.9963543	skonał,	-0.031318355
-3.9963543	konali?”	-0.031318355
-3.8605034	straszna	-0.031318355
-3.8605034	łamana	-0.031318355
-3.9963543	cierpieniem,	-0.031318355
-3.9963543	usta,	-0.031318355
-3.9963543	mówić	-0.031318355
-3.9963543	mógł…	-0.031318355
-3.6523304	złamane	-0.031318355
-3.9963543	westchnieniem,	-0.031318355
-3.9963543	„żyję”	-0.031318355
-3.9963543	łona…	-0.031318355
-3.9963543	dywanu	-0.031318355
-3.8605034	wyciągnął	-0.031318355
-3.9963543	walczył	-0.031318355
-3.9963543	przemógł.	-0.031318355
-3.9963543	wokoło…	-0.031318355
-3.9963543	„paziu!	-0.031318355
-3.9963543	czarę;	-0.031318355
-3.9963543	zapalonych	-0.031318355
-3.9963543	piłem,	-0.031318355
-3.8605034	ziemską	-0.031318355
-3.9963543	rozbiłem…	-0.031318355
-3.9963543	zginąłem,	-0.031318355
-3.9963543	karę;	-0.031318355
-3.9963543	piekielna	-0.031318355
-3.8605034	kara	-0.031318355
-3.9963543	życie…	-0.031318355
-3.5047832	świecie	-0.031318355
-3.9963543	rozwiązanej	-0.031318355
-3.9963543	struny,	-0.031318355
-3.9963543	razi	-0.031318355
-3.9963543	tonące	-0.031318355
-3.9963543	zachwycie!	-0.031318355
-3.9963543	wieko	-0.031318355
-3.9963543	przysypanej	-0.031318355
-3.9963543	truny,	-0.031318355
-3.9963543	każdej	-0.031318355
-3.9963543	garści	-0.031318355
-3.9963543	zapomnienia	-0.031318355
-3.9963543	posępnym,	-0.031318355
-3.8605034	jękiem	-0.031318355
-3.9963543	odpowiada;	-0.031318355
-3.9963543	milczy…	-0.031318355
-3.9963543	marzenia!	-0.031318355
-3.9963543	lej	-0.031318355
-3.8605034	trucizny,	-0.031318355
-3.8605034	pić	-0.031318355
-3.9963543	pozbędę,	-0.031318355
-3.9963543	ostatniej,	-0.031318355
-3.9963543	przejada.	-0.031318355
-3.9963543	czarę…”	-0.031318355
-3.9963543	„próżno	-0.031318355
-3.9963543	błagasz,	-0.031318355
-3.9963543	panie;	-0.031318355
-3.9963543	zdobędzie	-0.031318355
-3.9963543	siła;	-0.031318355
-3.8605034	niosło	-0.031318355
-3.9963543	rozkazanie,	-0.031318355
-3.9963543	(kłamał)	-0.031318355
-3.9963543	wrzuci…”	-0.031318355
-3.9963543	skończył,	-0.031318355
-3.9963543	przerażony	-0.031318355
-3.9963543	wzrokiem;	-0.031318355
-3.8605034	drżące	-0.031318355
-3.9963543	pochylony	-0.031318355
-3.8605034	naprzód	-0.031318355
-3.9963543	stąpił	-0.031318355
-3.9963543	krokiem,	-0.031318355
-3.6523304	krzyknął:	-0.031318355
-3.8605034	„…	-0.031318355
-3.6523304	widmo	-0.031318355
-3.9963543	otchłani,	-0.031318355
-3.9963543	upiora	-0.031318355
-3.9963543	przysłali	-0.031318355
-3.9963543	świecie…	-0.031318355
-3.9963543	ha!	-0.031318355
-3.5047832	anieli	-0.031318355
-3.9963543	piekieł!	-0.031318355
-3.9963543	wiecie,	-0.031318355
-3.9963543	żyje	-0.031318355
-3.9963543	rano	-0.031318355
-3.9963543	lalkę	-0.031318355
-3.9963543	ubrałem	-0.031318355
-3.9963543	słomianą;	-0.031318355
-3.8605034	podstępem	-0.031318355
-3.9963543	omyliłem	-0.031318355
-3.9963543	straże,	-0.031318355
-3.9963543	palnego	-0.031318355
-3.9963543	pożarze,	-0.031318355
-3.9963543	chciałżebym	-0.031318355
-3.9963543	wynurzyć	-0.031318355
-3.9963543	fali?…	-0.031318355
-3.9963543	widmo?…	-0.031318355
-3.8605034	czemuż	-0.031318355
-3.9963543	mienią?	-0.031318355
-3.6523304	chodź	-0.031318355
-3.9963543	chodź!	-0.031318355
-3.9963543	lampie…”	-0.031318355
-3.9963543	nieprzytomnie	-0.031318355
-3.9963543	nalewał	-0.031318355
-3.9963543	pozłacaną	-0.031318355
-3.9963543	liczonych	-0.031318355
-3.8605034	upadło	-0.031318355
-3.9963543	miarę.	-0.031318355
-3.9963543	zachwiany,	-0.031318355
-3.9963543	stąpał	-0.031318355
-3.9963543	nieśmiele,	-0.031318355
-3.9963543	zakrył	-0.031318355
-3.8605034	oczy;	-0.1511984
-3.9963543	lampą	-0.031318355
-3.8605034	cieniem	-0.031318355
-3.9963543	swojej	-0.031318355
-3.9963543	postaci	-0.031318355
-3.9963543	nachylonej	-0.031318355
-3.9963543	mroczy…	-0.031318355
-3.9963543	spalone	-0.031318355
-3.9963543	pragnieniem;	-0.031318355
-3.8605034	sennymi	-0.031318355
-3.9963543	tłoczone	-0.031318355
-3.9963543	ciężary,	-0.031318355
-3.9963543	oblicza	-0.031318355
-3.8605034	upadły	-0.031318355
-3.9963543	wypił.	-0.031318355
-3.6523304	całe	-0.031318355
-3.9963543	spłonęło	-0.031318355
-3.8605034	lice,	-0.1511984
-3.9963543	obłąkanym	-0.031318355
-3.9963543	rzucie	-0.031318355
-3.9963543	tajemnicę;	-0.031318355
-3.9963543	niepewne	-0.031318355
-3.9963543	przeczucie.	-0.031318355
-3.8605034	senne	-0.031318355
-3.9963543	ukazały	-0.031318355
-3.9963543	ciemno-ognista	-0.031318355
-3.9963543	miesięcznej	-0.031318355
-3.9963543	bieli:	-0.031318355
-3.9963543	larwy.	-0.031318355
-3.6523304	słuchał	-0.031318355
-3.9963543	milczeli.	-0.031318355
-3.9963543	anieli;	-0.031318355
-3.8605034	piorunu	-0.031318355
-3.9963543	strzała,	-0.031318355
-3.9963543	bezkarnie	-0.031318355
-3.8605034	wzrokiem	-0.031318355
-3.9963543	tknięty,	-0.031318355
-3.9963543	płód	-0.031318355
-3.9963543	narodzić	-0.031318355
-3.8605034	drugiego	-0.031318355
-3.8605034	biała	-0.031318355
-3.8605034	skrzydła	-0.031318355
-3.9963543	głów,	-0.031318355
-3.9963543	rąk,	-0.031318355
-3.9963543	trzecie.	-0.031318355
-3.9963543	aniołem,	-0.031318355
-3.9963543	skrzydeł	-0.031318355
-3.9963543	spłowiały,	-0.031318355
-3.9963543	pobladły,	-0.031318355
-3.9963543	zrosić	-0.031318355
-3.9963543	łzach	-0.031318355
-3.9963543	padołem.	-0.031318355
-3.9963543	błękitnawy	-0.031318355
-3.8605034	płomyk	-0.031318355
-3.307202	lice	-0.06772142
-3.9963543	bieli…	-0.031318355
-3.0688958	marzeń	-0.031318355
-3.9963543	śpiewali	-0.031318355
-3.5047832	hymn	-0.031318355
-3.9963543	krwawy.	-0.031318355
-3.8605034	ludzi!	-0.031318355
-3.9963543	falo	-0.031318355
-3.9963543	przewracasz	-0.031318355
-3.9963543	pienisz	-0.031318355
-3.9963543	mętna	-0.031318355
-3.9963543	usypiasz…	-0.031318355
-3.9963543	obudzi?	-0.031318355
-3.9963543	sława	-0.031318355
-3.9963543	paląca	-0.031318355
-3.9963543	namiętna?	-0.031318355
-3.9963543	tronami	-0.031318355
-3.9963543	niższa	-0.031318355
-3.9963543	czołem,	-0.031318355
-3.9963543	przerzedzona	-0.031318355
-3.9963543	wroga;	-0.031318355
-3.9963543	chciałaś	-0.031318355
-3.9963543	modliłaś	-0.031318355
-3.1719046	zemsty	-0.05833064
-3.9963543	aniołem.	-0.031318355
-3.9963543	pacierzu	-0.031318355
-3.9963543	zmarłego…	-0.031318355
-3.9963543	stoję	-0.031318355
-3.9963543	grobach,	-0.031318355
-3.9963543	krewni	-0.031318355
-3.9963543	przychodzą	-0.031318355
-3.9963543	ubrani	-0.031318355
-3.9963543	żałobach,	-0.031318355
-3.9963543	modlą	-0.031318355
-3.8605034	zmarłym	-0.031318355
-3.8605034	rycerzu,	-0.031318355
-3.9963543	wzywają	-0.031318355
-3.9963543	płynęła	-0.031318355
-3.8605034	wschodu	-0.1511984
-3.9963543	szarańcza	-0.031318355
-3.9963543	złowroga.	-0.031318355
-3.9963543	niszczona	-0.031318355
-3.9963543	głodu	-0.031318355
-3.9963543	upadła;	-0.031318355
-3.9963543	chmury	-0.031318355
-3.307202	ciemne	-0.031318355
-3.9963543	widziadła	-0.031318355
-3.9963543	wybiło	-0.031318355
-3.9963543	wieży	-0.031318355
-3.9963543	tysiące;	-0.031318355
-3.9963543	olbrzymy	-0.031318355
-3.9963543	milczące	-0.031318355
-3.9963543	rozgniotły	-0.031318355
-3.8605034	marmuru.	-0.1511984
-3.9963543	głazach	-0.031318355
-3.9963543	owady	-0.031318355
-3.9963543	stworzyły	-0.031318355
-3.3948522	duszą	-0.07538308
-3.9963543	gryzły	-0.031318355
-3.9963543	bezsilne	-0.031318355
-3.9963543	marmuru	-0.031318355
-3.9963543	posady,	-0.031318355
-3.9963543	marły	-0.031318355
-3.9963543	mrących	-0.031318355
-3.9963543	ożyła,	-0.031318355
-3.9963543	mrącego	-0.031318355
-3.9963543	narodu.	-0.031318355
-3.9963543	śmie	-0.031318355
-3.5047832	lud	-0.05833064
-3.6523304	uczucia	-0.031318355
-3.9963543	lodu;	-0.031318355
-3.9963543	milczał,	-0.031318355
-3.9963543	nieśmiały,	-0.031318355
-3.5047832	grobów	-0.031318355
-3.9963543	gęściejsze	-0.031318355
-3.9963543	porosną	-0.031318355
-3.9963543	cyprysy,	-0.031318355
-3.9963543	głośne	-0.031318355
-3.9963543	rozpacze;	-0.031318355
-3.9963543	pokażę	-0.031318355
-3.9963543	rysy,	-0.031318355
-3.9963543	śmiechu	-0.031318355
-3.9963543	wzbudzę	-0.031318355
-3.9963543	szatana;	-0.031318355
-3.9963543	zgraja	-0.031318355
-3.9963543	spłakana,	-0.031318355
-3.9963543	płacze.	-0.031318355
-3.9963543	wylany	-0.031318355
-3.307202	duch	-0.031318355
-3.9963543	obumiera,	-0.031318355
-3.9963543	plami,	-0.031318355
-3.9963543	otwiera	-0.031318355
-3.9963543	kwiaty,	-0.031318355
-3.9963543	nocami.	-0.031318355
-3.9963543	czekam,	-0.031318355
-3.9963543	wychodzą	-0.031318355
-3.9963543	meczetu,	-0.031318355
-3.8605034	otwarte.	-0.1511984
-3.9963543	modlitwą	-0.031318355
-3.9963543	sztyletu.	-0.031318355
-3.8605034	księgi	-0.031318355
-3.8605034	wspomnienia	-0.031318355
-3.9963543	zaginam	-0.031318355
-3.3948522	krew	-0.031318355
-3.9963543	pustyni,	-0.031318355
-3.9963543	wrące	-0.031318355
-3.9963543	drży	-0.031318355
-3.9963543	przebiegane	-0.031318355
-3.9963543	żółtawą	-0.031318355
-3.9963543	płomyków,	-0.031318355
-3.9963543	spiekłym	-0.031318355
-3.9963543	urodzony	-0.031318355
-3.9963543	wietrze,	-0.031318355
-3.9963543	szakal	-0.031318355
-3.9963543	pilnuję	-0.031318355
-3.9963543	gryzących	-0.031318355
-3.9963543	szyków.	-0.031318355
-3.9963543	trupami	-0.031318355
-3.9963543	pustynię	-0.031318355
-3.9963543	pokryją,	-0.031318355
-3.8605034	niebie	-0.031318355
-3.9963543	wyśrebrzy	-0.031318355
-3.9963543	razy,	-0.031318355
-3.9963543	szakale	-0.031318355
-3.8605034	sławy	-0.031318355
-3.9963543	wyją,	-0.031318355
-3.6523304	umarłych	-0.031318355
-3.8605034	zarazy,	-0.1511984
-3.6523304	lecę	-0.031318385
-3.9963543	żony	-0.031318355
-3.9963543	dzieci,	-0.031318355
-3.9963543	ażeby	-0.031318355
-3.9963543	płakały.	-0.031318355
-3.9963543	plamami	-0.031318355
-3.9963543	świeci,	-0.031318355
-3.9963543	opłucze	-0.031318355
-3.9963543	kryształy.	-0.031318355
-3.8605034	miasta	-0.031318355
-3.9963543	zamieniać	-0.031318355
-3.9963543	pustynie;	-0.031318355
-3.9963543	miastach	-0.031318355
-3.9963543	czują,	-0.031318355
-3.9963543	srebrnobłękitnej	-0.031318355
-3.9963543	nadpowietrznej	-0.031318355
-3.9963543	rzece,	-0.031318355
-3.9963543	krętymi	-0.031318355
-3.9963543	ulicami	-0.031318355
-3.8605034	płynie.	-0.1511984
-3.9963543	powracam	-0.031318355
-3.8605034	grodu,	-0.031318355
-3.8605034	sto	-0.031318355
-3.9963543	głów	-0.031318355
-3.9963543	ściął	-0.031318355
-3.9963543	miecznik:	-0.031318355
-3.9963543	postrach	-0.031318355
-3.8605034	narodu	-0.031318355
-3.9963543	bram	-0.031318355
-3.9963543	żółty	-0.031318355
-3.9963543	słonecznik	-0.031318355
-3.9963543	zachodu.	-0.031318355
-3.9963543	wlepiły	-0.031318355
-3.8605034	mgłę	-0.031318355
-3.8605034	białą,	-0.031318355
-3.9963543	kraj	-0.031318355
-3.9963543	rodzinny	-0.031318355
-3.9963543	zakrywa;	-0.031318355
-3.9963543	żywa,	-0.031318355
-3.9963543	płaczą,	-0.031318355
-3.9963543	stało.	-0.031318355
-3.9963543	natchnąłem	-0.031318355
-3.9963543	„mścijcie	-0.031318355
-3.9963543	”	-0.031318355
-3.9963543	rzekłem	-0.031318355
-3.9963543	„dam	-0.031318355
-3.9963543	broni…”	-0.031318355
-3.8605034	zarazy	-0.031318355
-3.9963543	łańcuchem	-0.031318355
-3.9963543	związały,	-0.031318355
-3.8605034	meczetów	-0.031318355
-3.9963543	zakradły	-0.031318355
-3.9963543	woni.	-0.031318355
-3.9963543	bramy	-0.031318355
-3.9963543	wybiegł	-0.031318355
-3.9963543	bramach	-0.031318355
-3.9963543	zaraza;	-0.031318355
-3.8605034	martwe	-0.031318355
-3.6523304	dał	-0.031318355
-3.9963543	pokłony.	-0.031318355
-3.9963543	korony	-0.031318355
-3.9963543	świecą	-0.031318355
-3.9963543	słupach	-0.031318355
-3.9963543	żelaza	-0.031318355
-3.9963543	poddanych	-0.031318355
-3.9963543	łupy,	-0.031318355
-3.9963543	wały	-0.031318355
-3.9963543	portu	-0.031318355
-3.9963543	zawiałem.	-0.031318355
-3.9963543	oniemiały,	-0.031318355
-3.8605034	spuścił	-0.031318355
-3.9963543	szalupy,	-0.031318355
-3.9963543	żaglu	-0.031318355
-3.6523304	szczycie,	-0.24676271
-3.8605034	cichymi	-0.031318355
-3.9963543	trupy,	-0.031318355
-3.9963543	anioł,	-0.031318355
-3.9963543	siedziałem.	-0.031318355
-3.9963543	bitny	-0.031318355
-3.9963543	popiele,	-0.031318355
-3.9963543	chciałem,	-0.031318355
-3.9963543	otwarli.	-0.031318355
-3.9963543	„złoty	-0.031318355
-3.9963543	aniele!”	-0.031318355
-3.9963543	rzekli	-0.031318355
-3.9963543	umarli	-0.031318355
-3.9963543	„weź	-0.031318355
-3.9963543	błękitny	-0.031318355
-3.9963543	mścij	-0.031318355
-3.9963543	”…	-0.031318355
-3.9963543	wziąłem	-0.031318355
-3.9963543	mściwy,	-0.031318355
-3.8605034	nieżywy	-0.1511984
-3.9963543	nazwał	-0.031318355
-3.9963543	skonały	-0.031318355
-3.6523304	dzikie	-0.031318355
-3.9963543	aniołów	-0.031318355
-3.9963543	pienia.	-0.031318355
-3.8605034	lambro	-0.031318355
-3.9963543	snach	-0.031318355
-3.9963543	gorączkowych	-0.031318355
-3.9963543	składał.	-0.031318355
-3.9963543	rymami	-0.031318355
-3.9963543	spadał,	-0.031318355
-3.9963543	brakło	-0.031318355
-3.9963543	tchnienia.	-0.031318355
-3.9963543	dywany.	-0.031318355
-3.9963543	blade,	-0.031318355
-3.9963543	sine,	-0.031318355
-3.9963543	obłąkany	-0.031318355
-3.9963543	przebiegał	-0.031318355
-3.9963543	zamgloną	-0.031318355
-3.9963543	krainę.	-0.031318355
-3.9963543	powleczonej	-0.031318355
-3.9963543	bieli	-0.031318355
-3.8605034	szatani	-0.031318355
-3.9963543	przelękną.	-0.031318355
-3.8605034	rzekł:	-0.031318355
-3.9963543	„duchy!	-0.031318355
-3.9963543	anieli!	-0.031318355
-3.9963543	malowali	-0.031318355
-3.9963543	najpiękniejszą	-0.031318355
-3.8605034	wschodnich	-0.031318355
-3.9963543	odalisk;	-0.031318355
-3.9963543	zapaliła.	-0.031318355
-3.9963543	wygasną	-0.031318355
-3.9963543	żyła,	-0.031318355
-3.9963543	utworzę	-0.031318355
-3.5047832	pośród	-0.08713509
-3.9963543	zwalisk	-0.031318355
-3.9963543	czucia,	-0.031318355
-3.9963543	brylantowy	-0.031318355
-3.9963543	eden…	-0.031318355
-3.9963543	klasztorna	-0.031318355
-3.9963543	krata	-0.031318355
-3.5047832	wieki	-0.031318355
-3.9963543	rozdzieliła	-0.031318355
-3.9963543	idą…	-0.031318355
-3.9963543	szalona	-0.031318355
-3.9963543	zemsta!…	-0.031318355
-3.9963543	burzę	-0.031318355
-3.9963543	mamże	-0.031318355
-3.9963543	piekieł	-0.031318355
-3.9963543	danaidą	-0.031318355
-3.9963543	świata,	-0.031318355
-3.9963543	napełnić	-0.031318355
-3.8605034	czyż	-0.031318355
-3.9963543	beze	-0.031318355
-3.9963543	zemścisz,	-0.031318355
-3.9963543	persname?	-0.031318355
-3.9963543	przynieśli	-0.031318355
-3.8605034	ciemną,	-0.031318355
-3.9963543	czołach	-0.031318355
-3.8605034	ogniem	-0.031318355
-3.9963543	wypisaną,	-0.031318355
-3.9963543	wyłamać	-0.031318355
-3.9963543	słowa…	-0.031318355
-3.9963543	słuchajcie,	-0.031318355
-3.9963543	ludy…	-0.031318355
