\data\
ngram 1=895
ngram 2=1496
ngram 3=1466
ngram 4=1368
ngram 5=1267
ngram 6=1165

\1-grams:
-3.2194211	<unk>	0
0	<s>	-0.54767543
-1.1559443	</s>	0
-1.6250833	persname	-0.053421747
-2.2471023	do	-0.023449393
-3.138765	geognamez	-0.023449393
-3.138765	otchłani	-0.023449393
-2.9624736	klęsk	-0.1452273
-1.8431208	i	-0.028305288
-3.138765	cierpień	-0.023449393
-3.138765	podnoszę	-0.023449393
-3.138765	głos	-0.023449393
-2.9624736	ciebie	-0.023449393
-3.138765	nirwano	-0.023449393
-2.7824197	przyjdź	-0.023449393
-3.138765	twe	-0.023449393
-2.9624736	królestwo	-0.023449393
-2.437028	jako	-0.023449393
-1.6910741	na	-0.041625828
-2.7824197	ziemi	-0.023449393
-2.364098	tak	-0.023449393
-1.6375036	w	-0.040102247
-2.9624736	niebie	-0.1452273
-2.437028	mnie	-0.06037361
-1.8431208	z	-0.031695977
-3.138765	szponów	-0.023449393
-3.138765	wyrwij	-0.023449393
-3.138765	bom	-0.023449393
-2.9624736	jest	-0.023449393
-3.138765	utrapion	-0.023449393
-3.138765	srodze	-0.023449393
-2.5247264	niech	-0.023449393
-2.7824197	już	-0.023449393
-2.9624736	więcej	-0.023449393
-3.138765	jarzmie	-0.023449393
-3.138765	krwawiącym	-0.023449393
-3.138765	kark	-0.023449393
-1.7863163	nie	-0.04078178
-3.138765	chodzę	-0.023449393
-3.138765	oto	-0.023449393
-2.1986299	mi	-0.043199807
-3.138765	ludzka	-0.023449393
-3.138765	podłość	-0.023449393
-3.138765	kałem	-0.023449393
-2.9624736	źrenice	-0.023449393
-3.138765	bryzga	-0.023449393
-1.6502895	się	-0.029074838
-3.138765	złości	-0.023449393
-3.138765	ludzkiej	-0.023449393
-3.138765	błocie	-0.023449393
-2.9624736	ma	-0.023449393
-3.138765	stopa	-0.023449393
-3.138765	ślizga	-0.023449393
-2.3016722	mię	-0.023449417
-3.138765	wstręt	-0.023449393
-3.138765	przepełnił	-0.023449393
-3.138765	ohyda	-0.023449393
-3.138765	zadusza	-0.023449393
-3.138765	bólach	-0.023449393
-3.138765	konwulsyjnych	-0.023449393
-3.138765	tarza	-0.023449393
-2.7824197	moja	-0.023449393
-3.138765	dusza	-0.023449393
-2.9624736	o	-0.023449393
-3.138765	dłonie	-0.023449393
-2.9624736	twoje	-0.023449393
-3.138765	połóż	-0.023449393
-3.138765	me	-0.023449393
-2.9624736	twym	-0.023449393
-3.138765	unicestwiającym	-0.023449393
-3.138765	oddechem	-0.023449393
-3.138765	pierś	-0.023449393
-3.138765	sycę	-0.023449393
-3.138765	żem	-0.023449393
-3.138765	żył	-0.023449393
-3.138765	pamiętam	-0.023449393
-3.138765	ani	-0.023449393
-3.138765	wiem	-0.023449393
-2.9624736	że	-0.023449393
-3.138765	żyć	-0.023449393
-3.138765	muszę	-0.023449393
-2.437028	od	-0.023449393
-2.9624736	myśli	-0.023449393
-3.138765	pamięci	-0.023449393
-3.138765	oderwij	-0.023449393
-2.9624736	moją	-0.023449393
-3.138765	duszę	-0.023449393
-3.138765	oczu	-0.023449393
-3.138765	mych	-0.023449393
-3.138765	odegnaj	-0.023449393
-3.138765	złe	-0.023449393
-3.138765	nikczemne	-0.023449393
-3.138765	twarze	-0.023449393
-3.138765	zburz	-0.023449393
-3.138765	przede	-0.023449393
-3.138765	mną	-0.023449393
-3.138765	bożyszcza	-0.023449393
-3.138765	ołtarze	-0.023449393
-3.138765	żywot	-0.023449393
-3.138765	silniejszych	-0.023449393
-3.138765	śmierć	-0.023449393
-3.138765	słabszych	-0.023449393
-3.138765	uciska	-0.023449393
-3.138765	błędny	-0.023449393
-3.138765	wzrok	-0.023449393
-2.9624736	rozpaczy	-0.023449393
-2.9624736	przed	-0.023449393
-2.9624736	oczy	-0.023449393
-3.138765	błyska	-0.023449393
-3.138765	otchłań	-0.023449393
-3.138765	łonie	-0.023449393
-3.138765	pogrzebie	-0.023449393
-2.0144947	jak	-0.052733384
-3.138765	----	-0.023449393
-2.3016722	to	-0.047713503
-2.9624736	był	-0.023449393
-3.138765	dzień	-0.023449393
-3.138765	błękitne	-0.023449393
-3.138765	zadumanie	-0.023449393
-2.9624736	cały	-0.023449393
-2.437028	świat	-0.023449393
-3.138765	modrym	-0.023449393
-3.138765	oceanie	-0.023449393
-2.634734	geogname	-0.023449393
-3.138765	zasnął	-0.023449393
-2.7824197	blask	-0.023449393
-3.138765	cisza	-0.023449393
-3.138765	zdawała	-0.023449393
-3.138765	wsłuchiwać	-0.023449393
-2.9624736	sama	-0.023449393
-3.138765	siebie	-0.023449393
-3.138765	omdlewał	-0.023449393
-3.138765	okrąg	-0.023449393
-3.138765	światła	-0.023449393
-3.138765	gorąca	-0.023449393
-3.138765	różany	-0.023449393
-3.138765	płonął	-0.023449393
-2.9624736	kwiat	-0.023449393
-3.138765	srebrniała	-0.023449393
-2.9624736	lilia	-0.023449393
-3.138765	drżąca	-0.023449393
-2.9624736	nad	-0.023449393
-3.138765	cichą	-0.023449393
-2.9624736	modrą	-0.023449393
-2.9624736	toń	-0.023449393
-3.138765	nieskończonego	-0.023449393
-3.138765	morza	-0.023449393
-3.138765	płynęła	-0.023449393
-3.138765	kwiatów	-0.023449393
-2.634734	woń	-0.023449393
-3.138765	lutni	-0.023449393
-3.138765	dźwięk	-0.023449393
-3.138765	przestworza	-0.023449393
-3.138765	wtem	-0.023449393
-2.7824197	jakby	-0.023449393
-3.138765	zwiewny	-0.023449393
-3.138765	rój	-0.023449393
-3.138765	motyli	-0.023449393
-3.138765	skrzydłem	-0.023449393
-3.138765	drżącem	-0.023449393
-3.138765	potrącił	-0.023449393
-3.138765	śpiący	-0.023449393
-3.138765	śpiącą	-0.023449393
-2.9624736	głąb	-0.023449393
-2.9624736	pod	-0.023449393
-3.138765	słońcem	-0.023449393
-3.138765	zadrgała	-0.023449393
-3.138765	senność	-0.023449393
-3.138765	sfer	-0.023449393
-3.138765	kwiaty	-0.023449393
-3.138765	zaszeptały	-0.023449393
-3.138765	niepokój	-0.023449393
-2.9624736	jakiś	-0.023449393
-3.138765	ogarnął	-0.023449393
-3.138765	nagle	-0.023449393
-3.138765	oczekiwanie	-0.023449393
-3.138765	cud	-0.023449393
-3.138765	dziwny	-0.023449393
-3.138765	iści	-0.023449393
-3.138765	błękitno	-0.023449393
-2.9624736	złotych	-0.023449393
-2.7824197	wód	-0.023449393
-3.138765	zielono	-0.023449393
-3.138765	liści	-0.023449393
-3.138765	dźwięczący	-0.023449393
-3.138765	wybiegł	-0.023449393
-3.138765	szmer	-0.023449393
-3.138765	lękliwy	-0.023449393
-3.138765	radosny	-0.023449393
-3.138765	narodziny	-0.023449393
-3.138765	wiosny	-0.023449393
-2.9624736	ze	-0.1452273
-3.138765	srebrzystych	-0.023449393
-2.9624736	pian	-0.023449393
-2.5247264	co	-0.023449393
-2.9624736	słońcu	-0.023449393
-3.138765	nieruchomie	-0.023449393
-3.138765	tęczach	-0.023449393
-3.138765	świetlanych	-0.023449393
-3.138765	skier	-0.023449393
-3.138765	leżą	-0.023449393
-3.138765	ogromie	-0.023449393
-3.138765	wśród	-0.023449393
-3.138765	blasku	-0.023449393
-3.138765	ciepła	-0.023449393
-3.138765	mgieł	-0.023449393
-3.138765	złocistych	-0.023449393
-3.138765	kryształu	-0.023449393
-3.138765	nagi	-0.023449393
-3.138765	niewieści	-0.023449393
-3.138765	kształt	-0.023449393
-3.138765	wynurza	-0.023449393
-3.138765	pomału	-0.023449393
-3.138765	zdumienie	-0.023449393
-3.138765	zdjęło	-0.023449393
-3.138765	przejrzyste	-0.023449393
-3.138765	milkną	-0.023449393
-3.138765	sfery	-0.023449393
-3.138765	przestał	-0.023449393
-3.138765	róży	-0.023449393
-3.138765	liliowe	-0.023449393
-3.138765	ścichły	-0.023449393
-3.138765	szmery	-0.023449393
-3.138765	zaklęta	-0.023449393
-3.138765	stanęła	-0.023449393
-3.138765	skrysztalona	-0.023449393
-3.138765	zadziwieniu	-0.023449393
-3.138765	spojrzała	-0.023449393
-3.138765	nieb	-0.023449393
-3.138765	opona	-0.023449393
-2.2471023	a	-0.06037361
-2.9624736	wyszła	-0.023449393
-2.9624736	biała	-0.023449393
-3.138765	naprzód	-0.023449393
-3.138765	swój	-0.023449393
-3.138765	promieny	-0.023449393
-2.9624736	uśmiech	-0.023449393
-3.138765	słała	-0.023449393
-2.9624736	potem	-0.023449393
-2.5247264	przez	-0.0681507
-3.138765	powoli	-0.023449393
-3.138765	szła	-0.023449393
-2.3016722	ku	-0.023449393
-3.138765	znacząc	-0.023449393
-2.9624736	swej	-0.023449393
-2.9624736	drogi	-0.023449393
-3.138765	ślad	-0.023449393
-3.138765	kroplami	-0.023449393
-3.138765	świetlistemi	-0.023449393
-3.138765	boski	-0.023449393
-3.138765	śle	-0.023449393
-3.138765	niebiosom	-0.023449393
-3.138765	lądom	-0.023449393
-3.138765	wodzie	-0.023449393
-3.138765	dziwował	-0.023449393
-3.138765	przecudnej	-0.023449393
-2.1986299	jej	-0.023449393
-3.138765	urodzie	-0.023449393
-2.9624736	ją	-0.023449393
-3.138765	osuszać	-0.023449393
-3.138765	biegł	-0.023449393
-3.138765	obcierała	-0.023449393
-3.138765	rosy	-0.023449393
-2.9624736	u	-0.023449393
-3.138765	nóg	-0.023449393
-3.138765	śnieżnych	-0.023449393
-3.138765	legł	-0.023449393
-3.138765	ocean	-0.023449393
-3.138765	modrowłosy	-0.023449393
-3.138765	ona	-0.023449393
-3.138765	swe	-0.023449393
-3.138765	suszyła	-0.023449393
-3.138765	ciało	-0.023449393
-2.9624736	białe	-0.023449393
-3.138765	pieszczą	-0.023449393
-3.138765	zachwytu	-0.023449393
-3.138765	oszalałe	-0.023449393
-3.138765	ślizgają	-0.023449393
-2.9624736	stóp	-0.023449393
-2.364098	po	-0.023449393
-2.9624736	nogach	-0.023449393
-3.138765	łona	-0.023449393
-3.138765	całują	-0.023449393
-3.138765	piersi	-0.023449393
-3.138765	szyję	-0.023449393
-3.138765	ramiona	-0.023449393
-3.138765	spijają	-0.023449393
-3.138765	perły	-0.023449393
-3.138765	zagięć	-0.023449393
-3.138765	lubieżne	-0.023449393
-3.138765	lotny	-0.023449393
-3.138765	okrążą	-0.023449393
-3.138765	tan	-0.023449393
-3.138765	uda	-0.023449393
-3.138765	smukłe	-0.023449393
-3.138765	śnieżne	-0.023449393
-3.138765	wolna	-0.023449393
-3.138765	suną	-0.023449393
-3.138765	wzdłuż	-0.023449393
-3.138765	pełnych	-0.023449393
-3.138765	biódr	-0.023449393
-3.138765	ustom	-0.023449393
-3.138765	wonią	-0.023449393
-3.138765	róż	-0.023449393
-3.138765	wzlatują	-0.023449393
-3.138765	nagłym	-0.023449393
-3.138765	wzlotem	-0.023449393
-3.138765	muskają	-0.023449393
-3.138765	włosy	-0.023449393
-3.138765	złociste	-0.023449393
-3.138765	miękkie	-0.023449393
-3.138765	śliczne	-0.023449393
-3.138765	złocisty	-0.023449393
-3.138765	szafir	-0.023449393
-3.138765	ócz	-0.023449393
-3.138765	owieją	-0.023449393
-3.138765	balsamiczne	-0.023449393
-3.138765	omdlewając	-0.023449393
-3.138765	kornie	-0.023449393
-3.138765	padną	-0.023449393
-3.138765	rękę	-0.023449393
-3.138765	swą	-0.023449393
-3.138765	podniosła	-0.023449393
-3.138765	światowładną	-0.023449393
-3.138765	naga	-0.023449393
-2.9624736	stała	-0.023449393
-2.7824197	tam	-0.023449393
-3.138765	dziwna	-0.023449393
-3.138765	potęga	-0.023449393
-3.138765	aż	-0.023449393
-3.138765	hadesu	-0.023449393
-3.138765	bram	-0.023449393
-3.138765	nieprzekroczonych	-0.023449393
-3.138765	sięga	-0.023449393
-3.138765	zadrżał	-0.023449393
-3.138765	wszeświat	-0.023449393
-3.138765	krąg	-0.023449393
-2.7824197	bo	-0.023449393
-3.138765	morskich	-0.023449393
-3.138765	głębokości	-0.023449393
-3.138765	sprawczyni	-0.023449393
-3.138765	mąk	-0.023449393
-3.138765	najsroższych	-0.023449393
-3.138765	dla	-0.023449393
-3.138765	ludzkości	-0.023449393
-2.7824197	czas	-0.023449393
-3.138765	żeśmy	-0.023449393
-3.138765	rozumieli	-0.023449393
-2.634734	ten	-0.023449393
-3.138765	przeminął	-0.023449393
-3.138765	wróci	-0.023449393
-2.634734	dziś	-0.0681507
-2.9624736	wami	-0.023449393
-3.138765	wszystko	-0.023449393
-3.138765	dzieli	-0.023449393
-3.138765	nic	-0.023449393
-3.138765	wy	-0.023449393
-3.138765	obchodzicie	-0.023449393
-3.138765	wasze	-0.023449393
-3.138765	obchodzi	-0.023449393
-3.138765	życie	-0.023449393
-3.138765	jedno	-0.023449393
-2.9624736	boli	-0.023449393
-3.138765	żeście	-0.023449393
-3.138765	skuci	-0.023449393
-2.9624736	pieśń	-0.023449393
-3.138765	pieśnią	-0.023449393
-3.138765	wyłącznie	-0.023449393
-2.7824197	tylko	-0.023449393
-3.138765	własną	-0.023449393
-3.138765	dbam	-0.023449393
-2.634734	czy	-0.023449393
-2.9624736	gdzie	-0.023449393
-3.138765	ucieleśnią	-0.023449393
-3.138765	inaczej	-0.023449393
-3.138765	czyjem	-0.023449393
-3.138765	młodem	-0.023449393
-3.138765	sercu	-0.023449393
-2.9624736	te	-0.023449393
-3.138765	słowa	-0.023449393
-3.138765	które	-0.023449393
-3.138765	wodę	-0.023449393
-3.138765	m	-0.023449393
-3.138765	rzucał	-0.023449393
-3.138765	płyną	-0.023449393
-3.138765	lub	-0.023449393
-3.138765	zagasną	-0.023449393
-3.138765	jesteśmy	-0.023449393
-3.138765	obcy	-0.023449393
-2.9624736	macie	-0.023449393
-3.138765	wróżów	-0.023449393
-3.138765	serc	-0.023449393
-2.7824197	waszych	-0.023449393
-3.138765	wykładaczy	-0.023449393
-3.138765	dusz	-0.023449393
-3.138765	czujnych	-0.023449393
-3.138765	stróżów	-0.023449393
-3.138765	kapłanów	-0.023449393
-3.138765	świętych	-0.023449393
-3.138765	chramów	-0.023449393
-3.138765	dzierżących	-0.023449393
-3.138765	szale	-0.023449393
-3.138765	prawd	-0.023449393
-3.138765	kłamów	-0.023449393
-3.138765	poetów	-0.023449393
-3.138765	dążeń	-0.023449393
-3.138765	jam	-0.023449393
-3.138765	wszystkiego	-0.023449393
-3.138765	uciekł	-0.023449393
-2.9624736	tego	-0.023449393
-3.138765	żyjcie	-0.023449393
-3.138765	chcecie	-0.023449393
-3.138765	czym	-0.023449393
-3.138765	jesteście	-0.023449393
-3.138765	macież	-0.023449393
-3.138765	liść	-0.023449393
-3.138765	drzewa	-0.023449393
-3.138765	zielonego	-0.023449393
-3.138765	kwiatu	-0.023449393
-3.138765	szum	-0.023449393
-3.138765	potoku	-0.023449393
-3.138765	jesteścież	-0.023449393
-3.138765	wschód	-0.023449393
-3.138765	słońca	-0.023449393
-3.138765	oku	-0.023449393
-3.138765	modrzewiowych	-0.023449393
-3.138765	gęstw	-0.023449393
-3.138765	powieście	-0.023449393
-3.138765	legenda	-0.023449393
-3.138765	złota	-0.023449393
-3.138765	kuta	-0.023449393
-2.7824197	we	-0.023449393
-3.138765	wnętrzu	-0.023449393
-3.138765	skał	-0.023449393
-3.138765	ogromnych	-0.023449393
-3.138765	albo	-0.023449393
-2.9624736	zbroja	-0.023449393
-3.138765	grzechota	-0.023449393
-3.138765	miecz	-0.023449393
-2.7824197	przy	-0.023449393
-3.138765	boku	-0.023449393
-3.138765	chrzęści	-0.023449393
-3.138765	stalowej	-0.023449393
-3.138765	łoskot	-0.023449393
-3.138765	pięści	-0.023449393
-3.138765	pragnącej	-0.023449393
-3.138765	gwarów	-0.023449393
-3.138765	wiekopomnych	-0.023449393
-3.138765	własnej	-0.023449393
-2.9624736	mojej	-0.023449393
-3.138765	poetą	-0.023449393
-3.138765	wicher	-0.023449393
-3.138765	rzuci	-0.023449393
-3.138765	harfy	-0.023449393
-3.138765	struny	-0.023449393
-3.138765	stroi	-0.023449393
-3.138765	szumi	-0.023449393
-3.138765	pojęta	-0.023449393
-3.138765	której	-0.023449393
-3.138765	niczym	-0.023449393
-3.138765	pęta	-0.023449393
-3.138765	zbójniku	-0.023449393
-3.138765	tle	-0.023449393
-3.138765	pieśni	-0.023449393
-3.138765	ludowych	-0.023449393
-3.138765	orawskiego	-0.023449393
-2.9624736	zamku	-0.023449393
-2.634734	chłopcy	-0.023449393
-2.9624736	pozierają	-0.023449393
-3.138765	popod	-0.023449393
-3.138765	buczki	-0.023449393
-3.138765	rozwijają	-0.023449393
-2.7824197	idzie	-0.023449393
-3.138765	bystra	-0.023449393
-2.7824197	woda	-0.023449393
-2.634734	hań	-0.023449393
-2.5247264	placename	-0.023449393
-3.138765	marnie	-0.023449393
-3.138765	giną	-0.023449393
-3.138765	orawskiem	-0.023449393
-2.9624736	zamczysku	-0.023449393
-3.138765	czyjże	-0.023449393
-3.138765	chłopiec	-0.023449393
-2.9624736	stoi	-0.023449393
-3.138765	futryny	-0.023449393
-3.138765	dy	-0.023449393
-3.138765	wartko	-0.023449393
-3.138765	siwa	-0.023449393
-3.138765	płynie	-0.023449393
-2.7824197	ale	-0.023449393
-3.138765	on	-0.023449393
-2.9624736	swojej	-0.023449393
-2.9624736	dziedzinie	-0.023449393
-2.9624736	mówiła	-0.1452273
-2.634734	mu	-0.0681507
-3.138765	matka	-0.023449393
-3.138765	goń	-0.023449393
-2.7824197	ty	-0.023449393
-3.138765	drogach	-0.023449393
-3.138765	by	-0.023449393
-2.7824197	ci	-0.023449393
-3.138765	zberczały	-0.023449393
-3.138765	łańcuszki	-0.023449393
-3.138765	chodź	-0.023449393
-2.1986299	za	-0.04522518
-3.138765	buki	-0.023449393
-3.138765	ludzkie	-0.023449393
-3.138765	barany	-0.023449393
-3.138765	ciemni	-0.023449393
-3.138765	gnił	-0.023449393
-3.138765	okowany	-0.023449393
-3.138765	pan	-0.023449393
-3.138765	zostawił	-0.023449393
-3.138765	patrz	-0.023449393
-3.138765	byś	-0.023449393
-3.138765	matczynego	-0.023449393
-3.138765	serca	-0.023449393
-3.138765	zakrwawił	-0.023449393
-3.138765	zalała	-0.023449393
-3.138765	łzami	-0.023449393
-3.138765	najmilejszy	-0.023449393
-3.138765	zbójnikami	-0.023449393
-3.138765	jastrzębiem	-0.023449393
-3.138765	cień	-0.023449393
-3.138765	włóczy	-0.023449393
-3.138765	tobą	-0.023449393
-3.138765	wszędy	-0.023449393
-3.138765	lecą	-0.023449393
-2.7824197	moje	-0.023449393
-3.138765	odejdziesz	-0.023449393
-3.138765	cóż	-0.023449393
-3.138765	haw	-0.023449393
-3.138765	zostanie	-0.023449393
-2.9624736	będę	-0.023449393
-2.9624736	ta	-0.023449393
-3.138765	limba	-0.023449393
-3.138765	samiutka	-0.023449393
-3.138765	polanie	-0.023449393
-3.138765	warkocz	-0.023449393
-3.138765	rozplecie	-0.023449393
-2.9624736	ino	-0.023449393
-2.9624736	wiatr	-0.023449393
-3.138765	duje	-0.023449393
-3.138765	źródła	-0.023449393
-3.138765	lico	-0.023449393
-3.138765	pocałuje	-0.023449393
-2.9624736	zostań	-0.023449393
-3.138765	doma	-0.023449393
-3.138765	poniewoli	-0.023449393
-3.138765	żałości	-0.023449393
-2.9624736	młode	-0.023449393
-2.7824197	serce	-0.023449393
-3.138765	niemi	-0.023449393
-3.138765	wsparty	-0.023449393
-3.138765	siekiérce	-0.023449393
-3.138765	odpowiada	-0.023449393
-3.138765	matce	-0.023449393
-3.138765	freirce	-0.023449393
-2.7824197	coś	-0.100731395
-3.138765	matusiu	-0.023449393
-3.138765	dobrze	-0.023449393
-3.138765	jeść	-0.023449393
-3.138765	dawała	-0.023449393
-3.138765	równo	-0.023449393
-3.138765	widzi	-0.023449393
-3.138765	dolina	-0.023449393
-3.138765	skała	-0.023449393
-3.138765	kie	-0.023449393
-3.138765	siekierą	-0.023449393
-3.138765	zatnę	-0.023449393
-3.138765	sękate	-0.023449393
-3.138765	jawory	-0.023449393
-3.138765	piana	-0.023449393
-3.138765	wody	-0.023449393
-3.138765	kurzą	-0.023449393
-3.138765	wióry	-0.023449393
-3.138765	widziałaś	-0.023449393
-2.634734	matko	-0.023449393
-3.138765	jakom	-0.023449393
-3.138765	wóz	-0.023449393
-3.138765	przeskoczył	-0.023449393
-2.634734	go	-0.0681507
-3.138765	boisko	-0.023449393
-3.138765	toczył	-0.023449393
-3.138765	kiedym	-0.023449393
-2.634734	se	-0.023449393
-3.138765	wywinął	-0.023449393
-2.7824197	ciupagą	-0.023449393
-3.138765	kirze	-0.023449393
-3.138765	ludziom	-0.023449393
-3.138765	okien	-0.023449393
-3.138765	porobiły	-0.023449393
-3.138765	dźwirze	-0.023449393
-3.138765	psa	-0.023449393
-2.9624736	choćby	-0.023449393
-3.138765	leciał	-0.023449393
-3.138765	ogon	-0.023449393
-3.138765	dopadnę	-0.023449393
-3.138765	przełazy	-0.023449393
-3.138765	ogłupią	-0.023449393
-3.138765	żadne	-0.023449393
-3.138765	chowała	-0.023449393
-3.138765	dziada	-0.023449393
-3.138765	kościele	-0.023449393
-3.138765	postarzeję	-0.023449393
-3.138765	legnę	-0.023449393
-3.138765	popiele	-0.023449393
-3.138765	pójdę	-0.023449393
-3.138765	choćbym	-0.023449393
-3.138765	zaginął	-0.023449393
-3.138765	imię	-0.023449393
-3.138765	zaginie	-0.023449393
-3.138765	płacz	-0.023449393
-2.9624736	darmo	-0.023449393
-3.138765	żali	-0.023449393
-3.138765	przyniosę	-0.023449393
-3.138765	zza	-0.023449393
-3.138765	gór	-0.023449393
-3.138765	pereł	-0.023449393
-3.138765	korali	-0.023449393
-3.138765	wrócę	-0.023449393
-2.437028	ja	-0.048290685
-2.9624736	cię	-0.023449393
-3.138765	niedługi	-0.023449393
-3.138765	jakbym	-0.023449393
-2.9624736	wrócił	-0.023449393
-3.138765	ukocha	-0.023449393
-3.138765	drugi	-0.023449393
-3.138765	poszedł	-0.023449393
-3.138765	zbój	-0.023449393
-3.138765	górę	-0.023449393
-3.138765	dolinami	-0.023449393
-3.138765	horni	-0.023449393
-2.9624736	nim	-0.023449393
-3.138765	idą	-0.023449393
-3.138765	ciupagami	-0.023449393
-3.138765	stąpa	-0.023449393
-3.138765	szumnie	-0.023449393
-3.138765	wysoko	-0.023449393
-2.9624736	niesie	-0.023449393
-3.138765	mało	-0.023449393
-3.138765	znajdzie	-0.023449393
-3.138765	wyższe	-0.023449393
-3.138765	drzewo	-0.023449393
-3.138765	lesie	-0.023449393
-2.9624736	aże	-0.023449393
-3.138765	ziemia	-0.023449393
-3.138765	jęczy	-0.023449393
-3.138765	piórko	-0.023449393
-3.138765	miga	-0.023449393
-3.138765	brzęczy	-0.023449393
-3.138765	świeci	-0.023449393
-3.138765	blacha	-0.023449393
-3.138765	mosiężnym	-0.023449393
-3.138765	łańcuszkiem	-0.023449393
-3.138765	kółeczkami	-0.023449393
-3.138765	zberczy	-0.023449393
-3.138765	ciupaga	-0.023449393
-3.138765	obuszkiem	-0.023449393
-3.138765	plecy	-0.023449393
-3.138765	pistolet	-0.023449393
-3.138765	pasem	-0.023449393
-3.138765	nóż	-0.023449393
-3.138765	mosiądz	-0.023449393
-3.138765	oprawny	-0.023449393
-3.138765	lasem	-0.023449393
-3.138765	zaśpiewałeś	-0.023449393
-3.138765	bratom	-0.023449393
-3.138765	sokole	-0.023449393
-3.138765	buk	-0.023449393
-3.138765	zaszumiał	-0.023449393
-3.138765	pomiędzy	-0.023449393
-3.138765	topole	-0.023449393
-2.9624736	śmiało	-0.023449393
-3.138765	bogaty	-0.023449393
-3.138765	będziemy	-0.023449393
-3.138765	mierzyli	-0.023449393
-3.138765	kotlikiem	-0.023449393
-3.138765	dukaty	-0.023449393
-3.138765	było	-0.023449393
-3.138765	sto	-0.023449393
-3.138765	tysięcy	-0.023449393
-2.634734	ich	-0.023449393
-3.138765	boję	-0.023449393
-3.138765	wilk	-0.023449393
-3.138765	zajęcy	-0.023449393
-3.138765	choćbyście	-0.023449393
-3.138765	zjechali	-0.023449393
-3.138765	szablami	-0.023449393
-3.138765	wywinę	-0.023449393
-3.138765	huknęli	-0.023449393
-2.9624736	towarzysze	-0.023449393
-3.138765	chórem	-0.023449393
-3.138765	szeroko	-0.023449393
-3.138765	daleko	-0.023449393
-3.138765	leci	-0.023449393
-3.138765	echo	-0.023449393
-3.138765	borem	-0.023449393
-2.9624736	buczka	-0.023449393
-3.138765	placenamegeogname	-0.023449393
-3.138765	nasze	-0.023449393
-3.138765	pieniążki	-0.023449393
-3.138765	nasza	-0.023449393
-3.138765	komora	-0.023449393
-3.138765	hetmanie	-0.023449393
-3.138765	dolinom	-0.023449393
-2.7824197	góry	-0.023449393
-3.138765	gradowe	-0.023449393
-3.138765	uniżają	-0.023449393
-3.138765	chmury	-0.023449393
-3.138765	spadł	-0.023449393
-3.138765	zagrodę	-0.023449393
-3.138765	orzeł	-0.023449393
-3.138765	wiatru	-0.023449393
-3.138765	koźlątko	-0.023449393
-3.138765	podpalił	-0.023449393
-3.138765	miasto	-0.023449393
-3.138765	wsze	-0.023449393
-3.138765	cztery	-0.023449393
-3.138765	rogi	-0.023449393
-3.138765	chciał	-0.023449393
-3.138765	ćmie	-0.023449393
-3.138765	macać	-0.023449393
-3.138765	między	-0.023449393
-3.138765	pola	-0.023449393
-3.138765	zobaczyli	-0.023449393
-3.138765	ogień	-0.023449393
-2.9624736	husary	-0.023449393
-3.138765	czerwony	-0.023449393
-2.9624736	im	-0.023449393
-3.138765	konie	-0.023449393
-3.138765	łąki	-0.023449393
-3.138765	zagony	-0.023449393
-3.138765	przyjechali	-0.023449393
-3.138765	duchem	-0.023449393
-3.138765	brzęczącym	-0.023449393
-3.138765	rynsztunku	-0.023449393
-3.138765	dopadli	-0.023449393
-3.138765	zbójników	-0.023449393
-3.138765	jeszcze	-0.023449393
-2.9624736	rabunku	-0.023449393
-2.9624736	broni	-0.023449393
-3.138765	ostro	-0.023449393
-3.138765	dwunastu	-0.023449393
-3.138765	husarów	-0.023449393
-3.138765	zwalił	-0.023449393
-3.138765	ziem	-0.023449393
-3.138765	koni	-0.023449393
-3.138765	trzynasty	-0.023449393
-3.138765	szablą	-0.023449393
-3.138765	dźgnął	-0.023449393
-3.138765	ziobro	-0.023449393
-3.138765	pójdziesz	-0.023449393
-3.138765	dobro	-0.023449393
-3.138765	bronią	-0.023449393
-3.138765	zbójnicy	-0.023449393
-3.138765	skaczą	-0.023449393
-3.138765	ponad	-0.023449393
-3.138765	dachy	-0.023449393
-3.138765	migają	-0.023449393
-3.138765	ogniu	-0.023449393
-2.9624736	gwiazdy	-0.023449393
-3.138765	blachy	-0.023449393
-3.138765	skuli	-0.023449393
-3.138765	żelazne	-0.023449393
-3.138765	okowy	-0.023449393
-3.138765	wiedli	-0.023449393
-3.138765	koniach	-0.023449393
-3.138765	dziedziniec	-0.023449393
-3.138765	zamkowy	-0.023449393
-3.138765	rychtar	-0.023449393
-3.138765	zamknął	-0.023449393
-3.138765	wysokiem	-0.023449393
-3.138765	stamtąd	-0.023449393
-3.138765	zapłakanym	-0.023449393
-3.138765	okiem	-0.023449393
-3.138765	tatrom	-0.023449393
-3.138765	potok	-0.023449393
-3.138765	przelewa	-0.023449393
-3.138765	patrzy	-0.023449393
-3.138765	zasmucony	-0.023449393
-3.138765	śpiewa	-0.023449393
-3.138765	rodziła	-0.023449393
-3.138765	miła	-0.023449393
-3.138765	wieszać	-0.023449393
-3.138765	pójdą	-0.023449393
-3.138765	będziesz	-0.023449393
-3.138765	hańbiła	-0.023449393
-3.138765	pierwej	-0.023449393
-3.138765	zwyrtnie	-0.023449393
-3.138765	niźli	-0.023449393
-3.138765	wypuszczą	-0.023449393
-3.138765	mury	-0.023449393
-3.138765	żałuj	-0.023449393
-3.138765	panie	-0.023449393
-3.138765	com	-0.023449393
-3.138765	frasunku	-0.023449393
-3.138765	ślubowałem	-0.023449393
-3.138765	mszę	-0.023449393
-3.138765	dukata	-0.023449393
-3.138765	ej	-0.023449393
-3.138765	dał	-0.023449393
-3.138765	cobym	-0.023449393
-3.138765	bym	-0.023449393
-3.138765	orał	-0.023449393
-3.138765	husarami	-0.023449393
-3.138765	młócił	-0.023449393
-2.7824197	bratowie	-0.023449393
-3.138765	kochami	-0.023449393
-2.9624736	będą	-0.023449393
-3.138765	nam	-0.023449393
-3.138765	rąbali	-0.023449393
-3.138765	głowiczld	-0.023449393
-3.138765	katowie	-0.023449393
-3.138765	żegnajmyż	-0.023449393
-3.138765	teraz	-0.023449393
-3.138765	mili	-0.023449393
-3.138765	jutro	-0.023449393
-3.138765	nami	-0.023449393
-3.138765	wiater	-0.023449393
-3.138765	zimny	-0.023449393
-3.138765	zakołysze	-0.023449393
-3.138765	hej	-0.023449393
-3.138765	polany	-0.023449393
-3.138765	zielone	-0.023449393
-3.138765	lasy	-0.023449393
-3.138765	żegnamy	-0.023449393
-3.138765	was	-0.023449393
-3.138765	dzisiaj	-0.023449393
-3.138765	wieczyste	-0.023449393
-3.138765	czasy	-0.023449393
-3.138765	oni	-0.023449393
-3.138765	śpiewają	-0.023449393
-3.138765	okowach	-0.023449393
-3.138765	zawodzi	-0.023449393
-3.138765	krowach	-0.023449393
-3.138765	strzegłaś	-0.023449393
-3.138765	źrenicy	-0.023449393
-3.138765	powiodą	-0.023449393
-3.138765	oj	-0.023449393
-3.138765	szubienicy	-0.023449393
-3.138765	chowałaś	-0.023449393
-3.138765	sokoła	-0.023449393
-3.138765	rzucą	-0.023449393
-3.138765	ciemnego	-0.023449393
-3.138765	doła	-0.023449393
-3.138765	dnie	-0.023449393
-3.138765	miesiąc	-0.023449393
-3.138765	świeciły	-0.023449393
-3.138765	kiedy	-0.023449393
-3.138765	przyjdzie	-0.023449393
-2.9624736	mój	-0.023449393
-3.138765	kochanek	-0.023449393
-3.138765	miły	-0.023449393
-3.138765	prędzej	-0.023449393
-3.138765	gniazdko	-0.023449393
-3.138765	zlepi	-0.023449393
-3.138765	jaskółka	-0.023449393
-3.138765	hali	-0.023449393
-3.138765	niż	-0.023449393
-3.138765	odżali	-0.023449393
-2.9624736	kwitnie	-0.023449393
-3.138765	majeranek	-0.023449393
-3.138765	więdnie	-0.023449393
-3.138765	zielony	-0.023449393
-3.138765	wianek	-0.023449393
-3.138765	srebrzy	-0.023449393
-3.138765	siano	-0.023449393
-3.138765	stodole	-0.023449393
-3.138765	świeże	-0.023449393
-3.138765	łzamim	-0.023449393
-3.138765	je	-0.023449393
-3.138765	srebrzyła	-0.023449393
-3.138765	niem	-0.023449393
-3.138765	leżę	-0.023449393
-3.138765	ślubnej	-0.023449393
-3.138765	chodziła	-0.023449393
-3.138765	sukience	-0.023449393
-3.138765	pierścionka	-0.023449393
-3.138765	trza	-0.023449393
-3.138765	krzyżyk	-0.023449393
-3.138765	ręce	-0.023449393
-3.138765	ściel	-0.023449393
-3.138765	łóżeczka	-0.023449393
-3.138765	dwoje	-0.023449393
-3.138765	drewniana	-0.023449393
-3.138765	trumienka	-0.023449393
-3.138765	będzie	-0.023449393
-3.138765	łóżko	-0.023449393
-3.138765	panienko	-0.023449393
-3.138765	najświętsza	-0.023449393
-3.138765	czyś	-0.023449393
-3.138765	zaniewidziała	-0.023449393
-3.138765	mego	-0.023449393
-3.138765	śmierci	-0.023449393

\2-grams:
-0.22503957	<s> </s>	0
-1.201571	persname </s>	0
-1.0341268	ciebie </s>	0
-0.9254613	nirwano </s>	0
-1.1153512	ziemi </s>	0
-0.47597408	niebie </s>	0
-0.9254613	srodze </s>	0
-0.9254613	chodzę </s>	0
-1.0341268	źrenice </s>	0
-0.9254613	bryzga </s>	0
-0.9254613	ślizga </s>	0
-0.9254613	zadusza </s>	0
-0.9254613	dusza </s>	0
-0.9254613	sycę </s>	0
-0.9254613	muszę </s>	0
-0.9254613	duszę </s>	0
-0.9254613	twarze </s>	0
-0.9254613	ołtarze </s>	0
-0.9254613	uciska </s>	0
-1.0341268	rozpaczy </s>	0
-0.9254613	błyska </s>	0
-0.9254613	pogrzebie </s>	0
-0.9254613	---- </s>	0
-0.9254613	zadumanie </s>	0
-1.0341268	cały </s>	0
-0.9254613	oceanie </s>	0
-0.9254613	siebie </s>	0
-0.9254613	gorąca </s>	0
-0.9254613	drżąca </s>	0
-0.9254613	morza </s>	0
-0.9254613	przestworza </s>	0
-0.9254613	drżącem </s>	0
-0.9254613	słońcem </s>	0
-0.9254613	zaszeptały </s>	0
-0.9254613	iści </s>	0
-0.9254613	liści </s>	0
-0.9254613	radosny </s>	0
-0.9254613	wiosny </s>	0
-0.9254613	nieruchomie </s>	0
-0.9254613	ogromie </s>	0
-0.9254613	kryształu </s>	0
-0.9254613	pomału </s>	0
-0.9254613	sfery </s>	0
-0.9254613	szmery </s>	0
-0.9254613	skrysztalona </s>	0
-0.9254613	opona </s>	0
-1.0341268	biała </s>	0
-0.9254613	słała </s>	0
-1.0341268	potem </s>	0
-0.9254613	świetlistemi </s>	0
-0.9254613	wodzie </s>	0
-0.9254613	urodzie </s>	0
-0.9254613	rosy </s>	0
-0.9254613	modrowłosy </s>	0
-1.0341268	białe </s>	0
-0.9254613	oszalałe </s>	0
-0.9254613	łona </s>	0
-0.9254613	ramiona </s>	0
-0.9254613	lubieżne </s>	0
-0.9254613	śnieżne </s>	0
-0.9254613	wzlotem </s>	0
-0.9254613	śliczne </s>	0
-0.9254613	balsamiczne </s>	0
-0.9254613	padną </s>	0
-0.9254613	światowładną </s>	0
-0.9254613	potęga </s>	0
-0.9254613	sięga </s>	0
-0.9254613	głębokości </s>	0
-0.9254613	ludzkości </s>	0
-1.1007146	czas </s>	0
-0.9254613	rozumieli </s>	0
-1.0341268	wróci </s>	0
-0.9254613	dzieli </s>	0
-0.9254613	obchodzicie </s>	0
-0.9254613	życie </s>	0
-0.9254613	skuci </s>	0
-0.9254613	pieśnią </s>	0
-0.9254613	własną </s>	0
-0.9254613	ucieleśnią </s>	0
-0.9254613	młodem </s>	0
-0.9254613	m </s>	0
-0.9254613	zagasną </s>	0
-0.9254613	wróżów </s>	0
-0.9254613	wykładaczy </s>	0
-0.9254613	stróżów </s>	0
-0.9254613	chramów </s>	0
-0.9254613	kłamów </s>	0
-1.0341268	tego </s>	0
-0.9254613	jesteście </s>	0
-0.9254613	zielonego </s>	0
-0.9254613	potoku </s>	0
-0.9254613	oku </s>	0
-0.9254613	powieście </s>	0
-0.9254613	złota </s>	0
-0.9254613	ogromnych </s>	0
-0.9254613	grzechota </s>	0
-0.9254613	chrzęści </s>	0
-0.9254613	pięści </s>	0
-0.9254613	wiekopomnych </s>	0
-1.0341268	mojej </s>	0
-0.9254613	rzuci </s>	0
-0.9254613	stroi </s>	0
-0.9254613	pojęta </s>	0
-0.9254613	pęta </s>	0
-0.9254613	śmierci </s>	0
-1.5515499	<s> persname	-0.0053397566
-1.6559349	persname persname	-0.0053397566
-1.627878	się persname	-0.0053397566
-1.3120772	o persname	-0.0053397566
-1.3120772	oczy persname	-0.0053397566
-1.0736324	to persname	-0.0053397566
-1.3981161	pian persname	-0.0053397566
-1.1674657	a persname	-0.0053397566
-1.4485064	ten persname	-0.0053397566
-1.5055201	placename persname	-0.0053397566
-1.3120772	stoi persname	-0.0053397566
-1.5117542	mu persname	-0.0053397566
-1.1247917	barany persname	-0.0053397566
-1.1247917	okowany persname	-0.0053397566
-1.1247917	pan persname	-0.0053397566
-1.1247917	łzami persname	-0.0053397566
-1.3981161	ta persname	-0.0053397566
-1.3120772	zostań persname	-0.0053397566
-1.3981161	serce persname	-0.0053397566
-1.4485064	matko persname	-0.0053397566
-0.87302995	go persname	-0.0053397566
-1.1247917	dopadnę persname	-0.0053397566
-1.1247917	żadne persname	-0.0053397566
-1.1247917	płacz persname	-0.0053397566
-1.3120772	wrócił persname	-0.0053397566
-1.1247917	poszedł persname	-0.0053397566
-1.1247917	stąpa persname	-0.0053397566
-1.1247917	obuszkiem persname	-0.0053397566
-1.1247917	bratom persname	-0.0053397566
-1.1247917	zjechali persname	-0.0053397566
-1.1247917	komora persname	-0.0053397566
-1.1247917	spadł persname	-0.0053397566
-1.1247917	miła persname	-0.0053397566
-1.1247917	panie persname	-0.0053397566
-1.1247917	ej persname	-0.0053397566
-1.1247917	mego persname	-0.0053397566
-2.2129521	persname do	-0.0053397566
-1.2371271	głos do	-0.0053397566
-1.6404622	już do	-0.0053397566
-1.6934888	się do	-0.0053397566
-1.973886	jej do	-0.0053397566
-1.2371271	aż do	-0.0053397566
-1.4996989	aże do	-0.0053397566
-1.4996989	buczka do	-0.0053397566
-1.2371271	rzucą do	-0.0053397566
-2.2258806	do geognamez	-0.0053397566
-1.2736745	geognamez otchłani	-0.0053397566
-1.2708728	otchłani klęsk	-0.0053397566
-1.2708728	otchłań klęsk	-0.0053397566
-1.541633	<s> i	-0.018952858
-0.5309099	klęsk i	-0.078121126
-1.5069969	przyjdź i	-0.0053397566
-1.6178197	ziemi i	-0.0053397566
-1.6756043	tak i	-0.0053397566
-1.3992689	myśli i	-0.0053397566
-1.1794112	złe i	-0.0053397566
-1.1794112	bożyszcza i	-0.0053397566
-1.7901053	jak i	-0.0053397566
-1.5069969	blask i	-0.0053397566
-1.1794112	światła i	-0.0053397566
-1.3992689	sfer i	-0.0053397566
-1.1794112	lękliwy i	-0.0053397566
-1.7246236	jej i	-0.0053397566
-1.1794112	szyję i	-0.0053397566
-1.1794112	zagięć i	-0.0053397566
-1.1794112	przeminął i	-0.0053397566
-1.1794112	prawd i	-0.0053397566
-1.1794112	dążeń i	-0.0053397566
-1.1794112	matce i	-0.0053397566
-1.1794112	oprawny i	-0.0053397566
-1.1794112	polany i	-0.0053397566
-2.6139045	i cierpień	-0.0053397566
-1.5691267	cierpień podnoszę	-0.0053397566
-1.2736745	podnoszę głos	-0.0053397566
-2.6814337	persname ciebie	-0.0053397566
-2.2014055	do ciebie	-0.0053397566
-1.2901008	<s> nirwano	-0.7781512
-3.1930702	<s> przyjdź	-0.0053397566
-2.481708	i przyjdź	-0.0053397566
-1.5552555	o przyjdź	-0.0053397566
-1.739711	przyjdź twe	-0.0053397566
-1.7315683	przyjdź królestwo	-0.0053397566
-1.2708728	twe królestwo	-0.0053397566
-2.3614173	persname jako	-0.0053397566
-1.5265894	królestwo jako	-0.0053397566
-1.2516106	popiele jako	-0.0053397566
-1.2516106	boję jako	-0.0053397566
-1.6781042	góry jako	-0.0053397566
-1.2516106	ogniu jako	-0.0053397566
-1.5213678	persname na	-0.0053397566
-1.6812286	i na	-0.0053397566
-1.5519617	jako na	-0.0053397566
-1.4339491	już na	-0.0053397566
-1.3412484	twoje na	-0.0053397566
-1.1435199	połóż na	-0.0053397566
-1.5519617	świat na	-0.0053397566
-1.4339491	blask na	-0.0053397566
-1.3412484	sama na	-0.0053397566
-1.1435199	leżą na	-0.0053397566
-1.3412484	zbroja na	-0.0053397566
-1.1435199	zbójniku na	-0.0053397566
-1.1435199	ludowych na	-0.0053397566
-1.5540607	mu na	-0.0053397566
-1.1435199	łańcuszki na	-0.0053397566
-1.1435199	buki na	-0.0053397566
-1.1435199	ciemni na	-0.0053397566
-1.1435199	wsparty na	-0.0053397566
-1.1435199	freirce na	-0.0053397566
-1.4339491	ciupagą na	-0.0053397566
-1.1435199	chowała na	-0.0053397566
-1.1435199	wiatru na	-0.0053397566
-1.1435199	miasto na	-0.0053397566
-1.1435199	jeszcze na	-0.0053397566
-1.1435199	zwalił na	-0.0053397566
-1.1435199	ślubowałem na	-0.0053397566
-1.1435199	dzisiaj na	-0.0053397566
-1.1435199	śpiewają na	-0.0053397566
-1.1435199	jaskółka na	-0.0053397566
-1.1435199	siano na	-0.0053397566
-1.1435199	łóżeczka na	-0.0053397566
-1.787726	na ziemi	-0.0053397566
-2.0897	ku ziemi	-0.0053397566
-2.0422714	po ziemi	-0.0053397566
-2.8542666	<s> tak	-0.0053397566
-2.2363174	i tak	-0.0053397566
-1.8353689	ziemi tak	-0.0053397566
-1.2467289	włóczy tak	-0.0053397566
-1.2467289	wody tak	-0.0053397566
-1.7635263	ich tak	-0.0053397566
-1.2467289	czasy tak	-0.0053397566
-2.0754764	<s> w	-0.0053397566
-1.4885328	persname w	-0.0053397566
-1.4273889	i w	-0.040207583
-1.3177568	cierpień w	-0.0053397566
-1.3177568	więcej w	-0.0053397566
-1.1284733	kałem w	-0.0053397566
-1.639559	się w	-0.0053397566
-1.6214131	jak w	-0.0053397566
-1.3177568	sama w	-0.0053397566
-1.1284733	omdlewał w	-0.0053397566
-1.1284733	dźwięk w	-0.0053397566
-1.4902312	co w	-0.0053397566
-1.1284733	zadziwieniu w	-0.0053397566
-1.3177568	ona w	-0.0053397566
-1.1284733	wszeświat w	-0.0053397566
-1.1284733	inaczej w	-0.0053397566
-1.1284733	które w	-0.0053397566
-1.40505	zamku w	-0.0053397566
-1.40505	woda w	-0.0053397566
-1.1284733	giną w	-0.0053397566
-1.3177568	zbójnikami w	-0.0053397566
-1.1284733	samiutka w	-0.0053397566
-1.1284733	zatnę w	-0.0053397566
-1.456301	se w	-0.0053397566
-1.1284733	dziada w	-0.0053397566
-1.5320004	ja w	-0.0053397566
-1.1284733	zbój w	-0.0053397566
-1.1284733	drzewo w	-0.0053397566
-1.1284733	nóż w	-0.0053397566
-1.3177568	im w	-0.0053397566
-1.1284733	duchem w	-0.0053397566
-1.1284733	skuli w	-0.0053397566
-1.1284733	koniach w	-0.0053397566
-1.1284733	zamknął w	-0.0053397566
-1.1284733	krzyżyk w	-0.0053397566
-2.5795193	na niebie	-0.0053397566
-2.6304426	w niebie	-0.0053397566
-2.3614173	persname mnie	-0.0053397566
-1.9985318	ku mnie	-0.0053397566
-1.8652723	dziś mnie	-0.0053397566
-1.2516106	wy mnie	-0.0053397566
-1.5265894	gdzie mnie	-0.0053397566
-1.2516106	szumi mnie	-0.0053397566
-2.2260342	<s> z	-0.0053397566
-1.6426561	persname z	-0.0053397566
-0.96967506	mnie z	-0.0053397566
-1.5728843	geogname z	-0.0053397566
-1.5069969	wód z	-0.0053397566
-1.5069969	pian z	-0.0053397566
-1.1794112	złocistych z	-0.0053397566
-1.3992689	ją z	-0.0053397566
-1.1794112	obcierała z	-0.0053397566
-1.1794112	ustom z	-0.0053397566
-1.5069969	bo z	-0.0053397566
-1.5069969	woda z	-0.0053397566
-1.3992689	chodź z	-0.0053397566
-1.1794112	piana z	-0.0053397566
-1.1794112	ludziom z	-0.0053397566
-1.1794112	idą z	-0.0053397566
-1.1794112	blacha z	-0.0053397566
-1.1794112	ciupaga z	-0.0053397566
-1.1794112	dolinom z	-0.0053397566
-1.1794112	orzeł z	-0.0053397566
-1.1794112	ziem z	-0.0053397566
-1.1794112	dukata z	-0.0053397566
-2.5691195	z szponów	-0.0053397566
-1.2736745	szponów wyrwij	-0.0053397566
-1.2736745	wyrwij bom	-0.0053397566
-1.2708728	bom jest	-0.0053397566
-1.5636122	śmiało jest	-0.0053397566
-1.5691267	jest utrapion	-0.0053397566
-1.2736745	utrapion srodze	-0.0053397566
-2.618006	<s> niech	-0.0053397566
-2.3419068	i niech	-0.0053397566
-1.2565478	pierś niech	-0.0053397566
-1.2565478	żył niech	-0.0053397566
-1.2565478	rzucał niech	-0.0053397566
-2.0422714	niech już	-0.0053397566
-1.5552555	więcej już	-0.0053397566
-1.2665938	omdlewając już	-0.0053397566
-1.7315683	już więcej	-0.0053397566
-1.7315683	ty więcej	-0.0053397566
-2.6967666	w jarzmie	-0.0053397566
-1.2736745	jarzmie krwawiącym	-0.0053397566
-1.2736745	krwawiącym kark	-0.0053397566
-2.3180327	<s> nie	-0.0053397566
-1.7676061	i nie	-0.0053397566
-1.6381694	niech nie	-0.0053397566
-1.1671149	kark nie	-0.0053397566
-1.7080548	mi nie	-0.0053397566
-1.1671149	słabszych nie	-0.0053397566
-1.6151643	świat nie	-0.0053397566
-1.3790551	nogach nie	-0.0053397566
-1.6109525	dziś nie	-0.0053397566
-1.1671149	wasze nie	-0.0053397566
-1.481258	zamku nie	-0.0053397566
-1.1671149	on nie	-0.0053397566
-1.1671149	matka nie	-0.0053397566
-1.481258	ci nie	-0.0053397566
-1.1671149	serca nie	-0.0053397566
-1.1671149	najmilejszy nie	-0.0053397566
-1.1671149	przełazy nie	-0.0053397566
-1.1671149	imię nie	-0.0053397566
-1.1671149	zaginie nie	-0.0053397566
-1.1671149	jakbym nie	-0.0053397566
-1.1671149	rogi nie	-0.0053397566
-1.1671149	ziobro nie	-0.0053397566
-1.1671149	leżę nie	-0.0053397566
-1.1671149	sukience nie	-0.0053397566
-1.1671149	ręce nie	-0.0053397566
-2.5584807	nie chodzę	-0.0053397566
-2.7522027	<s> oto	-0.0053397566
-2.1729372	persname mi	-0.0053397566
-1.6286066	oto mi	-0.0053397566
-2.136507	się mi	-0.0053397566
-1.491093	oczy mi	-0.0053397566
-1.2324046	cóż mi	-0.0053397566
-1.2324046	warkocz mi	-0.0053397566
-0.7110653	coś mi	-0.0053397566
-1.2324046	równo mi	-0.0053397566
-1.2324046	pierścionka mi	-0.0053397566
-1.2324046	ściel mi	-0.0053397566
-2.2647116	mi ludzka	-0.0053397566
-1.2736745	ludzka podłość	-0.0053397566
-1.2736745	podłość kałem	-0.0053397566
-2.6304426	w źrenice	-0.0053397566
-1.2708728	me źrenice	-0.0053397566
-1.5691267	źrenice bryzga	-0.0053397566
-1.5235053	jako się	-0.0053397566
-1.5420384	tak się	-0.0053397566
-1.4120966	oto się	-0.0053397566
-1.6014977	mi się	-0.0053397566
-1.1321864	tarza się	-0.0053397566
-1.3235116	że się	-0.0053397566
-1.1321864	łonie się	-0.0053397566
-1.2387359	jak się	-0.0053397566
-1.5869544	to się	-0.0053397566
-1.1321864	zdawała się	-0.0053397566
-1.3235116	jakiś się	-0.0053397566
-1.1321864	wynurza się	-0.0053397566
-1.1321864	dziwował się	-0.0053397566
-1.1321864	ślizgają się	-0.0053397566
-1.1321864	wolna się	-0.0053397566
-1.3235116	stała się	-0.0053397566
-1.4120966	bo się	-0.0053397566
-1.1321864	żeśmy się	-0.0053397566
-1.4642383	czy się	-0.0053397566
-1.3235116	gdzie się	-0.0053397566
-0.8767506	mu się	-0.0053397566
-1.1321864	zalała się	-0.0053397566
-1.4120966	ciupagą się	-0.0053397566
-1.0044916	ja się	-0.0053397566
-1.1321864	wysoko się	-0.0053397566
-1.3235116	broni się	-0.0053397566
-1.1321864	bronią się	-0.0053397566
-1.1321864	tatrom się	-0.0053397566
-1.1321864	będziesz się	-0.0053397566
-1.1321864	zwyrtnie się	-0.0053397566
-1.3235116	będą się	-0.0053397566
-1.1321864	żegnajmyż się	-0.0053397566
-1.1321864	niż się	-0.0053397566
-1.1321864	srebrzy się	-0.0053397566
-2.6967666	w złości	-0.0053397566
-1.2736745	złości ludzkiej	-0.0053397566
-1.2736745	ludzkiej błocie	-0.0053397566
-2.6814337	persname ma	-0.0053397566
-1.2708728	błocie ma	-0.0053397566
-1.5691267	ma stopa	-0.0053397566
-1.2736745	stopa ślizga	-0.0053397566
-1.4464754	persname mię	-0.0053397566
-1.6526506	oto mię	-0.0053397566
-1.2419014	ohyda mię	-0.0053397566
-1.2419014	żywot mię	-0.0053397566
-1.6526506	bo mię	-0.0053397566
-1.6679677	coś mię	-0.0053397566
-1.2419014	widziałaś mię	-0.0053397566
-1.2419014	niźli mię	-0.0053397566
-2.2622738	mię wstręt	-0.0053397566
-1.2736745	wstręt przepełnił	-0.0053397566
-1.2736745	przepełnił ohyda	-0.0053397566
-2.2622738	mię zadusza	-0.0053397566
-2.6967666	w bólach	-0.0053397566
-1.2736745	bólach konwulsyjnych	-0.0053397566
-1.2736745	konwulsyjnych tarza	-0.0053397566
-2.5336192	się moja	-0.0053397566
-1.719321	pieśń moja	-0.0053397566
-1.8325579	matko moja	-0.0053397566
-1.739711	moja dusza	-0.0053397566
-3.3165956	<s> o	-0.0053397566
-2.6814337	persname o	-0.0053397566
-2.6139045	i dłonie	-0.0053397566
-1.5636122	królestwo twoje	-0.0053397566
-1.2708728	dłonie twoje	-0.0053397566
-1.5691267	twoje połóż	-0.0053397566
-2.6377676	na me	-0.0053397566
-3.3165956	<s> twym	-0.0053397566
-2.6192694	się twym	-0.0053397566
-1.5691267	twym unicestwiającym	-0.0053397566
-1.2736745	unicestwiającym oddechem	-0.0053397566
-1.2736745	oddechem pierś	-0.0053397566
-2.086333	niech sycę	-0.0053397566
-3.4209857	<s> żem	-0.0053397566
-1.2736745	żem żył	-0.0053397566
-2.5584807	nie pamiętam	-0.0053397566
-1.2736745	pamiętam ani	-0.0053397566
-1.2736745	ani wiem	-0.0053397566
-1.2708728	wiem że	-0.0053397566
-1.5636122	niesie że	-0.0053397566
-1.5691267	że żyć	-0.0053397566
-1.2736745	żyć muszę	-0.0053397566
-2.535814	<s> od	-0.0053397566
-2.3185592	się od	-0.0053397566
-2.0839694	mię od	-0.0053397566
-1.9127879	świat od	-0.0053397566
-1.5265894	jam od	-0.0053397566
-1.2516106	borem od	-0.0053397566
-2.0684476	od myśli	-0.0053397566
-1.7315683	tylko myśli	-0.0053397566
-2.6139045	i pamięci	-0.0053397566
-1.2736745	pamięci oderwij	-0.0053397566
-1.2708728	oderwij moją	-0.0053397566
-1.7315683	tylko moją	-0.0053397566
-1.5691267	moją duszę	-0.0053397566
-2.086333	od oczu	-0.0053397566
-1.2736745	oczu mych	-0.0053397566
-1.2736745	mych odegnaj	-0.0053397566
-1.2736745	odegnaj złe	-0.0053397566
-2.6139045	i nikczemne	-0.0053397566
-1.2736745	nikczemne twarze	-0.0053397566
-2.7542996	persname zburz	-0.0053397566
-1.2736745	zburz przede	-0.0053397566
-1.2736745	przede mną	-0.0053397566
-1.2736745	mną bożyszcza	-0.0053397566
-2.6139045	i ołtarze	-0.0053397566
-2.086333	niech żywot	-0.0053397566
-2.2622738	mię silniejszych	-0.0053397566
-1.2736745	silniejszych śmierć	-0.0053397566
-1.2736745	śmierć słabszych	-0.0053397566
-2.5584807	nie uciska	-0.0053397566
-2.086333	niech błędny	-0.0053397566
-1.2736745	błędny wzrok	-0.0053397566
-2.5569656	i rozpaczy	-0.0053397566
-1.2708728	wzrok rozpaczy	-0.0053397566
-2.6814337	persname przed	-0.0053397566
-1.5636122	rozpaczy przed	-0.0053397566
-1.5636122	przed oczy	-0.0053397566
-1.7315683	moje oczy	-0.0053397566
-2.5584807	nie błyska	-0.0053397566
-2.086333	niech otchłań	-0.0053397566
-2.6967666	w łonie	-0.0053397566
-1.5691267	twym pogrzebie	-0.0053397566
-2.5355144	<s> jak	-0.0053397566
-2.0145438	persname jak	-0.0053397566
-1.7060661	ziemi jak	-0.0053397566
-1.6516175	woń jak	-0.0053397566
-1.45045	sfer jak	-0.0053397566
-1.2095332	żyjcie jak	-0.0053397566
-1.2095332	jesteścież jak	-0.0053397566
-1.573746	albo jak	-0.0053397566
-1.45045	zbójnikami jak	-0.0053397566
-1.45045	będę jak	-0.0053397566
-1.2095332	jawory jak	-0.0053397566
-1.6516175	matko jak	-0.0053397566
-1.45045	choćby jak	-0.0053397566
-1.2095332	kościele jak	-0.0053397566
-1.2095332	zagrodę jak	-0.0053397566
-2.7522027	<s> ----	0
-2.4827018	<s> to	-0.078121126
-1.7822609	persname to	-0.0053397566
-2.2090905	na to	-0.0053397566
-2.021884	mię to	-0.0053397566
-1.2419014	czyjże to	-0.0053397566
-1.2419014	dy to	-0.0053397566
-1.2419014	kirze to	-0.0053397566
-1.2419014	szablami to	-0.0053397566
-2.660541	<s> był	-0.078121126
-2.1664014	to był	-0.0053397566
-1.5691267	był dzień	-0.0053397566
-1.2736745	dzień błękitne	-0.0053397566
-1.2736745	błękitne zadumanie	-0.0053397566
-2.6814337	persname cały	-0.0053397566
-1.2708728	nagle cały	-0.0053397566
-1.5265894	cały świat	-0.0053397566
-1.2516106	okrąg świat	-0.0053397566
-1.5265894	jakiś świat	-0.0053397566
-1.2516106	zdjęło świat	-0.0053397566
-2.1213946	a świat	-0.0053397566
-1.2516106	niczym świat	-0.0053397566
-2.6377676	na modrym	-0.0053397566
-1.2736745	modrym oceanie	-0.0053397566
-3.0806544	<s> geogname	-0.0053397566
-2.4260316	na geogname	-0.0053397566
-1.9032798	przez geogname	-0.0053397566
-1.2615417	popod geogname	-0.0053397566
-1.8592118	geogname zasnął	-0.0053397566
-3.1930702	<s> blask	-0.0053397566
-1.2665938	zasnął blask	-0.0053397566
-1.2665938	śpiący blask	-0.0053397566
-3.4209857	<s> cisza	-0.0053397566
-1.2736745	cisza zdawała	-0.0053397566
-2.685569	się wsłuchiwać	-0.0053397566
-1.2708728	wsłuchiwać sama	-0.0053397566
-1.2708728	srebrzyła sama	-0.0053397566
-2.6967666	w siebie	-0.0053397566
-3.4209857	<s> omdlewał	-0.0053397566
-2.6967666	w okrąg	-0.0053397566
-2.086333	od światła	-0.0053397566
-2.6139045	i gorąca	-0.0053397566
-3.4209857	<s> różany	-0.0053397566
-1.2736745	różany płonął	-0.0053397566
-1.2708728	płonął kwiat	-0.0053397566
-1.2708728	róży kwiat	-0.0053397566
-1.5691267	kwiat srebrniała	-0.0053397566
-1.2708728	srebrniała lilia	-0.0053397566
-1.5636122	biała lilia	-0.0053397566
-1.5691267	lilia drżąca	-0.0053397566
-3.3165956	<s> nad	-0.0053397566
-1.7315683	ciupagą nad	-0.0053397566
-1.5691267	nad cichą	-0.0053397566
-1.2708728	cichą modrą	-0.0053397566
-1.9414071	przez modrą	-0.0053397566
-2.6304426	w toń	-0.0053397566
-1.5636122	modrą toń	-0.0053397566
-1.5691267	toń nieskończonego	-0.0053397566
-1.2736745	nieskończonego morza	-0.0053397566
-3.4209857	<s> płynęła	-0.0053397566
-1.2736745	płynęła kwiatów	-0.0053397566
-1.2615417	kwiatów woń	-0.0053397566
-1.2615417	zaklęta woń	-0.0053397566
-1.2615417	biegł woń	-0.0053397566
-1.5454884	macież woń	-0.0053397566
-2.382204	jak lutni	-0.0053397566
-1.2736745	lutni dźwięk	-0.0053397566
-2.6967666	w przestworza	-0.0053397566
-3.4209857	<s> wtem	-0.0053397566
-3.1930702	<s> jakby	-0.0053397566
-1.2665938	wtem jakby	-0.0053397566
-1.2665938	sokole jakby	-0.0053397566
-1.739711	jakby zwiewny	-0.0053397566
-1.2736745	zwiewny rój	-0.0053397566
-1.2736745	rój motyli	-0.0053397566
-1.2736745	motyli skrzydłem	-0.0053397566
-1.2736745	skrzydłem drżącem	-0.0053397566
-3.4209857	<s> potrącił	-0.0053397566
-1.2736745	potrącił śpiący	-0.0053397566
-2.6139045	i śpiącą	-0.0053397566
-1.5636122	modrą głąb	-0.0053397566
-1.2708728	śpiącą głąb	-0.0053397566
-1.5636122	głąb pod	-0.0053397566
-1.2708728	dźgnął pod	-0.0053397566
-1.5691267	pod słońcem	-0.0053397566
-2.681526	<s> zadrgała	-0.078121126
-1.2736745	zadrgała senność	-0.0053397566
-1.2736745	senność sfer	-0.0053397566
-2.6139045	i kwiaty	-0.0053397566
-1.2736745	kwiaty zaszeptały	-0.0053397566
-3.4209857	<s> niepokój	-0.0053397566
-1.2708728	niepokój jakiś	-0.0053397566
-1.2708728	cud jakiś	-0.0053397566
-2.0246272	świat ogarnął	-0.0053397566
-1.2736745	ogarnął nagle	-0.0053397566
-3.4209857	<s> oczekiwanie	-0.0053397566
-1.2736745	oczekiwanie cud	-0.0053397566
-2.685569	się dziwny	-0.0053397566
-1.2736745	dziwny iści	-0.0053397566
-2.5691195	z błękitno	-0.0053397566
-1.2708728	błękitno złotych	-0.0053397566
-1.2708728	zielono złotych	-0.0053397566
-2.5027797	na wód	-0.0053397566
-2.4490578	z wód	-0.0053397566
-1.5552555	złotych wód	-0.0053397566
-2.5691195	z zielono	-0.0053397566
-1.5691267	złotych liści	-0.0053397566
-3.4209857	<s> dźwięczący	-0.0053397566
-1.2736745	dźwięczący wybiegł	-0.0053397566
-1.2736745	wybiegł szmer	-0.0053397566
-1.2736745	szmer lękliwy	-0.0053397566
-2.6139045	i radosny	-0.0053397566
-2.6967666	w narodziny	-0.0053397566
-1.2736745	narodziny wiosny	-0.0053397566
-2.5569656	i ze	-0.0053397566
-2.273358	a ze	-0.0053397566
-0.54553425	ze srebrzystych	-0.078121126
-1.2708728	srebrzystych pian	-0.0053397566
-1.2708728	perły pian	-0.0053397566
-1.6914132	pian co	-0.0053397566
-1.5359361	zbroja co	-0.0053397566
-1.2565478	miecz co	-0.0053397566
-1.5359361	wiatr co	-0.0053397566
-1.2565478	przeskoczył co	-0.0053397566
-1.8077099	w słońcu	-0.0053397566
-1.2708728	naprzód słońcu	-0.0053397566
-1.739711	słońcu nieruchomie	-0.0053397566
-2.6967666	w tęczach	-0.0053397566
-1.2736745	tęczach świetlanych	-0.0053397566
-1.2736745	świetlanych skier	-0.0053397566
-1.2736745	skier leżą	-0.0053397566
-1.739711	wód ogromie	-0.0053397566
-3.4209857	<s> wśród	-0.0053397566
-1.2736745	wśród blasku	-0.0053397566
-1.2736745	blasku ciepła	-0.0053397566
-1.2736745	ciepła mgieł	-0.0053397566
-1.2736745	mgieł złocistych	-0.0053397566
-1.739711	wód kryształu	-0.0053397566
-3.4209857	<s> nagi	-0.0053397566
-1.2736745	nagi niewieści	-0.0053397566
-1.2736745	niewieści kształt	-0.0053397566
-1.2736745	kształt wynurza	-0.0053397566
-2.685569	się pomału	-0.0053397566
-3.4209857	<s> zdumienie	-0.0053397566
-1.2736745	zdumienie zdjęło	-0.0053397566
-2.0246272	świat przejrzyste	-0.0053397566
-1.2736745	przejrzyste milkną	-0.0053397566
-1.2736745	milkną sfery	-0.0053397566
-2.7542996	persname przestał	-0.0053397566
-1.2736745	przestał róży	-0.0053397566
-1.5691267	kwiat liliowe	-0.0053397566
-1.2736745	liliowe ścichły	-0.0053397566
-1.2736745	ścichły szmery	-0.0053397566
-1.739711	jakby zaklęta	-0.0053397566
-1.8592118	woń stanęła	-0.0053397566
-1.2736745	stanęła skrysztalona	-0.0053397566
-2.6967666	w zadziwieniu	-0.0053397566
-1.5691267	toń spojrzała	-0.0053397566
-1.2736745	spojrzała nieb	-0.0053397566
-1.2736745	nieb opona	-0.0053397566
-2.0101874	<s> a	-0.033006486
-1.2371271	biódr a	-0.0053397566
-1.6404622	tam a	-0.0053397566
-1.4996989	dziedzinie a	-0.0053397566
-1.2371271	pereł a	-0.0053397566
-1.2371271	niedługi a	-0.0053397566
-1.2371271	przelewa a	-0.0053397566
-1.2371271	okowach a	-0.0053397566
-1.2371271	sokoła a	-0.0053397566
-2.6814337	persname wyszła	-0.0053397566
-1.2708728	sprawczyni wyszła	-0.0053397566
-1.5636122	wyszła biała	-0.0053397566
-1.5636122	kwitnie biała	-0.0053397566
-2.6139045	i naprzód	-0.0053397566
-1.739711	słońcu swój	-0.0053397566
-1.2736745	swój promieny	-0.0053397566
-1.2708728	promieny uśmiech	-0.0053397566
-1.2708728	boski uśmiech	-0.0053397566
-1.5691267	uśmiech słała	-0.0053397566
-3.3165956	<s> potem	-0.0053397566
-2.273358	a potem	-0.0053397566
-1.5359361	ma przez	-0.0053397566
-1.5359361	potem przez	-0.0053397566
-1.6914132	idzie przez	-0.0053397566
-1.5359361	niesie przez	-0.0053397566
-1.2565478	potok przez	-0.0053397566
-1.5691267	głąb powoli	-0.0053397566
-1.2736745	powoli szła	-0.0053397566
-2.7991128	<s> ku	-0.0053397566
-1.2419014	szła ku	-0.0053397566
-1.5084786	wróci ku	-0.0053397566
-1.7478563	hań ku	-0.0053397566
-1.2419014	hetmanie ku	-0.0053397566
-1.2419014	okiem ku	-0.0053397566
-1.2419014	oj ku	-0.0053397566
-1.2419014	kiedy ku	-0.0053397566
-3.4209857	<s> znacząc	-0.0053397566
-2.0090687	jako swej	-0.0053397566
-1.2708728	znacząc swej	-0.0053397566
-1.5636122	swej drogi	-0.0053397566
-1.2708728	pola drogi	-0.0053397566
-1.5691267	drogi ślad	-0.0053397566
-1.2736745	ślad kroplami	-0.0053397566
-1.2736745	kroplami świetlistemi	-0.0053397566
-2.6139045	i boski	-0.0053397566
-1.5691267	uśmiech śle	-0.0053397566
-1.2736745	śle niebiosom	-0.0053397566
-1.2736745	niebiosom lądom	-0.0053397566
-1.2736745	lądom wodzie	-0.0053397566
-2.0246272	świat dziwował	-0.0053397566
-2.685569	się przecudnej	-0.0053397566
-2.1020622	z jej	-0.0053397566
-1.2324046	przecudnej jej	-0.0053397566
-1.2324046	nóg jej	-0.0053397566
-1.491093	stóp jej	-0.0053397566
-1.491093	nogach jej	-0.0053397566
-1.2324046	piersi jej	-0.0053397566
-1.2324046	tan jej	-0.0053397566
-1.2324046	wzdłuż jej	-0.0053397566
-1.2324046	włosy jej	-0.0053397566
-1.2324046	dziwna jej	-0.0053397566
-2.2258806	jej urodzie	-0.0053397566
-1.7315683	blask ją	-0.0053397566
-1.2708728	pieszczą ją	-0.0053397566
-1.5691267	ją osuszać	-0.0053397566
-1.2736745	osuszać biegł	-0.0053397566
-1.8592118	woń obcierała	-0.0053397566
-2.5691195	z rosy	-0.0053397566
-3.3165956	<s> u	-0.0053397566
-1.5636122	stoi u	-0.0053397566
-1.5691267	u nóg	-0.0053397566
-2.2258806	jej śnieżnych	-0.0053397566
-1.2736745	śnieżnych legł	-0.0053397566
-1.2736745	legł ocean	-0.0053397566
-1.2736745	ocean modrowłosy	-0.0053397566
-2.2999532	a ona	-0.0053397566
-1.739711	słońcu swe	-0.0053397566
-1.2736745	swe suszyła	-0.0053397566
-1.2736745	suszyła ciało	-0.0053397566
-1.2708728	ciało białe	-0.0053397566
-1.5636122	te białe	-0.0053397566
-3.4209857	<s> pieszczą	-0.0053397566
-2.5691195	z zachwytu	-0.0053397566
-1.2736745	zachwytu oszalałe	-0.0053397566
-3.4209857	<s> ślizgają	-0.0053397566
-2.2014055	do stóp	-0.0053397566
-2.0684476	od stóp	-0.0053397566
-1.5174397	stóp po	-0.0053397566
-1.6651909	ty po	-0.0053397566
-1.5174397	chodź po	-0.0053397566
-1.2467289	cień po	-0.0053397566
-1.2467289	pójdę po	-0.0053397566
-1.2467289	chciał po	-0.0053397566
-1.2467289	śpiewa po	-0.0053397566
-2.5795193	na nogach	-0.0053397566
-2.0684476	po nogach	-0.0053397566
-2.2258806	do łona	-0.0053397566
-3.4209857	<s> całują	-0.0053397566
-1.2736745	całują piersi	-0.0053397566
-2.6139045	i szyję	-0.0053397566
-2.6139045	i ramiona	-0.0053397566
-3.4209857	<s> spijają	-0.0053397566
-1.2736745	spijają perły	-0.0053397566
-2.2258806	jej zagięć	-0.0053397566
-2.6139045	i lubieżne	-0.0053397566
-2.6967666	w lotny	-0.0053397566
-1.2736745	lotny okrążą	-0.0053397566
-1.2736745	okrążą tan	-0.0053397566
-2.2258806	jej uda	-0.0053397566
-1.2736745	uda smukłe	-0.0053397566
-1.2736745	smukłe śnieżne	-0.0053397566
-2.5691195	z wolna	-0.0053397566
-2.685569	się suną	-0.0053397566
-1.2736745	suną wzdłuż	-0.0053397566
-2.2258806	jej pełnych	-0.0053397566
-1.2736745	pełnych biódr	-0.0053397566
-2.1391463	ku ustom	-0.0053397566
-2.5691195	z wonią	-0.0053397566
-1.2736745	wonią róż	-0.0053397566
-1.2736745	róż wzlatują	-0.0053397566
-1.2736745	wzlatują nagłym	-0.0053397566
-1.2736745	nagłym wzlotem	-0.0053397566
-3.4209857	<s> muskają	-0.0053397566
-1.2736745	muskają włosy	-0.0053397566
-2.2258806	jej złociste	-0.0053397566
-1.2736745	złociste miękkie	-0.0053397566
-1.2736745	miękkie śliczne	-0.0053397566
-3.4209857	<s> złocisty	-0.0053397566
-1.2736745	złocisty szafir	-0.0053397566
-1.2736745	szafir ócz	-0.0053397566
-1.2736745	ócz owieją	-0.0053397566
-1.2736745	owieją balsamiczne	-0.0053397566
-2.6139045	i omdlewając	-0.0053397566
-2.2258806	jej kornie	-0.0053397566
-1.2736745	kornie padną	-0.0053397566
-1.5691267	ona rękę	-0.0053397566
-1.2736745	rękę swą	-0.0053397566
-1.2736745	swą podniosła	-0.0053397566
-1.2736745	podniosła światowładną	-0.0053397566
-2.6139045	i naga	-0.0053397566
-1.7315683	moja stała	-0.0053397566
-1.2708728	naga stała	-0.0053397566
-3.1930702	<s> tam	-0.0053397566
-1.5552555	stała tam	-0.0053397566
-1.2665938	zamkowy tam	-0.0053397566
-2.2999532	a dziwna	-0.0053397566
-2.2258806	jej potęga	-0.0053397566
-3.4209857	<s> aż	-0.0053397566
-2.2258806	do hadesu	-0.0053397566
-1.2736745	hadesu bram	-0.0053397566
-1.2736745	bram nieprzekroczonych	-0.0053397566
-1.2736745	nieprzekroczonych sięga	-0.0053397566
-2.6139045	i zadrżał	-0.0053397566
-1.2736745	zadrżał wszeświat	-0.0053397566
-2.6967666	w krąg	-0.0053397566
-1.2665938	krąg bo	-0.0053397566
-1.2665938	poniewoli bo	-0.0053397566
-1.5552555	darmo bo	-0.0053397566
-2.5691195	z morskich	-0.0053397566
-1.2736745	morskich głębokości	-0.0053397566
-3.4209857	<s> sprawczyni	-0.0053397566
-1.5691267	wyszła mąk	-0.0053397566
-1.2736745	mąk najsroższych	-0.0053397566
-1.2736745	najsroższych dla	-0.0053397566
-1.2736745	dla ludzkości	-0.0053397566
-1.5552555	był czas	-0.0053397566
-1.8325579	ten czas	-0.0053397566
-2.1711216	za czas	-0.0053397566
-1.8592118	czas żeśmy	-0.0053397566
-2.685569	się rozumieli	-0.0053397566
-3.0806544	<s> ten	-0.0053397566
-1.9602951	jako ten	-0.0053397566
-2.2550938	jak ten	-0.0053397566
-1.2615417	pierwej ten	-0.0053397566
-1.8592118	czas przeminął	-0.0053397566
-1.6307862	nie wróci	-0.0053397566
-1.967451	mnie dziś	-0.0053397566
-2.4495416	się dziś	-0.0053397566
-1.3063632	a dziś	-0.0053397566
-1.2615417	źrenicy dziś	-0.0053397566
-2.5178204	z wami	-0.0053397566
-1.5636122	nad wami	-0.0053397566
-1.5691267	wami wszystko	-0.0053397566
-1.2736745	wszystko dzieli	-0.0053397566
-2.681526	<s> nic	-0.0053397566
-1.5691267	nic wy	-0.0053397566
-2.5584807	nie obchodzicie	-0.0053397566
-1.5691267	nic wasze	-0.0053397566
-2.5584807	nie obchodzi	-0.0053397566
-1.2736745	obchodzi życie	-0.0053397566
-2.1876764	to jedno	-0.0053397566
-1.2708728	jedno boli	-0.0053397566
-1.7315683	serce boli	-0.0053397566
-1.5691267	boli żeście	-0.0053397566
-1.2736745	żeście skuci	-0.0053397566
-2.660541	<s> pieśń	-0.0053397566
-1.7315683	tylko pieśń	-0.0053397566
-1.9533694	dziś pieśnią	-0.0053397566
-3.4209857	<s> wyłącznie	-0.0053397566
-1.9915457	mnie tylko	-0.0053397566
-1.2665938	wyłącznie tylko	-0.0053397566
-1.2665938	własnej tylko	-0.0053397566
-1.5691267	moją własną	-0.0053397566
-2.5584807	nie dbam	-0.0053397566
-2.0129664	tak czy	-0.0053397566
-1.2615417	dbam czy	-0.0053397566
-1.5454884	pozierają czy	-0.0053397566
-1.2615417	dolina czy	-0.0053397566
-1.8485214	czy gdzie	-0.0053397566
-1.2708728	poetą gdzie	-0.0053397566
-2.685569	się ucieleśnią	-0.0053397566
-1.8592118	czy inaczej	-0.0053397566
-2.6967666	w czyjem	-0.0053397566
-1.2736745	czyjem młodem	-0.0053397566
-3.4209857	<s> sercu	-0.0053397566
-1.2708728	sercu te	-0.0053397566
-2.204908	za te	-0.0053397566
-1.5691267	te słowa	-0.0053397566
-1.2736745	słowa które	-0.0053397566
-2.6967666	w wodę	-0.0053397566
-1.2736745	wodę m	-0.0053397566
-3.4209857	<s> rzucał	-0.0053397566
-2.086333	niech płyną	-0.0053397566
-1.2736745	płyną lub	-0.0053397566
-1.2736745	lub zagasną	-0.0053397566
-3.4209857	<s> jesteśmy	-0.0053397566
-1.2736745	jesteśmy obcy	-0.0053397566
-2.660541	<s> macie	-0.0053397566
-1.2708728	obcy macie	-0.0053397566
-1.739711	macie wróżów	-0.0053397566
-1.739711	macie serc	-0.0053397566
-1.2665938	serc waszych	-0.0053397566
-1.2665938	dusz waszych	-0.0053397566
-1.2665938	kapłanów waszych	-0.0053397566
-1.739711	waszych wykładaczy	-0.0053397566
-1.739711	macie dusz	-0.0053397566
-1.739711	waszych czujnych	-0.0053397566
-1.2736745	czujnych stróżów	-0.0053397566
-3.4209857	<s> kapłanów	-0.0053397566
-1.739711	waszych świętych	-0.0053397566
-1.2736745	świętych chramów	-0.0053397566
-3.4209857	<s> dzierżących	-0.0053397566
-1.2736745	dzierżących szale	-0.0053397566
-1.2736745	szale prawd	-0.0053397566
-2.6139045	i kłamów	-0.0053397566
-3.4209857	<s> poetów	-0.0053397566
-1.2736745	poetów dążeń	-0.0053397566
-2.681526	<s> jam	-0.0053397566
-2.086333	od wszystkiego	-0.0053397566
-1.2736745	wszystkiego uciekł	-0.0053397566
-2.3497167	jak tego	-0.0053397566
-1.2708728	uciekł tego	-0.0053397566
-3.4209857	<s> żyjcie	-0.0053397566
-2.382204	jak chcecie	-0.0053397566
-1.2736745	chcecie czym	-0.0053397566
-1.2736745	czym jesteście	-0.0053397566
-2.681526	<s> macież	-0.0053397566
-1.5691267	macież liść	-0.0053397566
-1.2736745	liść drzewa	-0.0053397566
-1.2736745	drzewa zielonego	-0.0053397566
-1.8592118	woń kwiatu	-0.0053397566
-1.2736745	kwiatu szum	-0.0053397566
-1.2736745	szum potoku	-0.0053397566
-3.4209857	<s> jesteścież	-0.0053397566
-2.382204	jak wschód	-0.0053397566
-1.2736745	wschód słońca	-0.0053397566
-1.2736745	słońca oku	-0.0053397566
-2.382204	jak modrzewiowych	-0.0053397566
-1.2736745	modrzewiowych gęstw	-0.0053397566
-1.2736745	gęstw powieście	-0.0053397566
-2.382204	jak legenda	-0.0053397566
-1.2736745	legenda złota	-0.0053397566
-3.4209857	<s> kuta	-0.0053397566
-1.2665938	kuta we	-0.0053397566
-1.9898233	ja we	-0.0053397566
-1.2665938	doła we	-0.0053397566
-1.739711	we wnętrzu	-0.0053397566
-1.2736745	wnętrzu skał	-0.0053397566
-1.2736745	skał ogromnych	-0.0053397566
-2.7522027	<s> albo	-0.0053397566
-2.3497167	jak zbroja	-0.0053397566
-1.2708728	miga zbroja	-0.0053397566
-1.9507511	co grzechota	-0.0053397566
-1.739711	albo miecz	-0.0053397566
-1.9180732	co przy	-0.0053397566
-1.8325579	ich przy	-0.0053397566
-1.2665938	zawodzi przy	-0.0053397566
-1.739711	przy boku	-0.0053397566
-1.2736745	boku chrzęści	-0.0053397566
-1.739711	albo stalowej	-0.0053397566
-1.2736745	stalowej łoskot	-0.0053397566
-1.2736745	łoskot pięści	-0.0053397566
-3.4209857	<s> pragnącej	-0.0053397566
-1.2736745	pragnącej gwarów	-0.0053397566
-1.2736745	gwarów wiekopomnych	-0.0053397566
-1.5691267	jam własnej	-0.0053397566
-1.5636122	myśli mojej	-0.0053397566
-1.2708728	harfy mojej	-0.0053397566
-3.4209857	<s> poetą	-0.0053397566
-2.0272136	mnie wicher	-0.0053397566
-1.2736745	wicher rzuci	-0.0053397566
-1.739711	tam harfy	-0.0053397566
-1.5691267	mojej struny	-0.0053397566
-1.2736745	struny stroi	-0.0053397566
-3.4209857	<s> szumi	-0.0053397566
-1.739711	pieśń pojęta	-0.0053397566
-1.739711	pieśń której	-0.0053397566
-1.2736745	której niczym	-0.0053397566
-2.5584807	nie pęta	-0.0053397566
-2.7542996	persname zbójniku	-0.0053397566
-2.6377676	na tle	-0.0053397566
-1.2736745	tle pieśni	-0.0053397566
-1.2736745	pieśni ludowych	-0.0053397566
-2.5691195	z orawskiego	-0.0053397566
-1.7268815	na zamku	-0.0053397566
-1.2708728	orawskiego zamku	-0.0053397566
-1.705143	zamku chłopcy	-0.0053397566
-1.9602951	placename chłopcy	-0.0053397566
-1.705143	nim chłopcy	-0.0053397566
-1.5454884	śmiało chłopcy	-0.0053397566
-1.8485214	chłopcy pozierają	-0.0053397566
-1.2708728	stamtąd pozierają	-0.0053397566
-2.685569	się popod	-0.0053397566
-1.8592118	geogname buczki	-0.0053397566
-1.2736745	buczki rozwijają	-0.0053397566
-2.0422714	tak idzie	-0.0053397566
-1.2665938	rozwijają idzie	-0.0053397566
-1.5552555	lesie idzie	-0.0053397566
-1.739711	idzie bystra	-0.0053397566
-1.2665938	bystra woda	-0.0053397566
-1.2665938	siwa woda	-0.0053397566
-1.5552555	ino woda	-0.0053397566
-1.5454884	jest hań	-0.0053397566
-2.1013942	to hań	-0.0053397566
-1.705143	woda hań	-0.0053397566
-1.2615417	pieniążki hań	-0.0053397566
-1.7619604	w placename	-0.0053397566
-2.3188815	z placename	-0.0053397566
-2.026847	ku placename	-0.0053397566
-1.796672	ten placename	-0.0053397566
-1.796672	hań placename	-0.0053397566
-1.8592118	chłopcy marnie	-0.0053397566
-1.2736745	marnie giną	-0.0053397566
-2.6967666	w orawskiem	-0.0053397566
-2.6304426	w zamczysku	-0.0053397566
-1.2708728	orawskiem zamczysku	-0.0053397566
-1.5691267	zamczysku czyjże	-0.0053397566
-1.8592118	hań chłopiec	-0.0053397566
-1.5636122	boli stoi	-0.0053397566
-1.2708728	chłopiec stoi	-0.0053397566
-1.5691267	u futryny	-0.0053397566
-1.2736745	futryny dy	-0.0053397566
-2.7542996	persname wartko	-0.0053397566
-1.2736745	wartko siwa	-0.0053397566
-2.0246272	placename płynie	-0.0053397566
-1.2665938	płynie ale	-0.0053397566
-1.2665938	majeranek ale	-0.0053397566
-1.2665938	trza ale	-0.0053397566
-1.739711	ale on	-0.0053397566
-2.5569656	i swojej	-0.0053397566
-2.119001	ku swojej	-0.0053397566
-2.0684476	po dziedzinie	-0.0053397566
-1.5636122	swojej dziedzinie	-0.0053397566
-1.5636122	dziedzinie mówiła	-0.0053397566
-1.2708728	zakrwawił mówiła	-0.0053397566
-0.5437995	mówiła mu	-0.0053397566
-1.2615417	piórko mu	-0.0053397566
-1.2615417	świeci mu	-0.0053397566
-1.2615417	huknęli mu	-0.0053397566
-1.9533694	mu matka	-0.0053397566
-2.5584807	nie goń	-0.0053397566
-2.1977725	mię ty	-0.0053397566
-1.2665938	goń ty	-0.0053397566
-1.2665938	pójdziesz ty	-0.0053397566
-2.086333	po drogach	-0.0053397566
-1.2736745	drogach by	-0.0053397566
-0.9389126	dziś ci	-0.078121126
-1.2665938	by ci	-0.0053397566
-1.2665938	przyniosę ci	-0.0053397566
-2.5584807	nie zberczały	-0.0053397566
-1.2736745	zberczały łańcuszki	-0.0053397566
-1.6307862	nie chodź	-0.0053397566
-1.8694818	tak za	-0.0053397566
-2.136507	się za	-0.0053397566
-1.8694818	po za	-0.0053397566
-1.7181166	czas za	-0.0053397566
-1.2324046	leciał za	-0.0053397566
-1.491093	cię za	-0.0053397566
-1.2324046	horni za	-0.0053397566
-1.2324046	pistolet za	-0.0053397566
-1.2324046	patrzy za	-0.0053397566
-1.2324046	wypuszczą za	-0.0053397566
-2.228347	za buki	-0.0053397566
-1.7346029	na ludzkie	-0.0053397566
-1.5691267	ludzkie barany	-0.0053397566
-2.6967666	w ciemni	-0.0053397566
-2.5584807	nie gnił	-0.0053397566
-1.2736745	gnił okowany	-0.0053397566
-1.5691267	ciebie pan	-0.0053397566
-2.2647116	mi zostawił	-0.0053397566
-1.2736745	zostawił patrz	-0.0053397566
-1.2736745	patrz byś	-0.0053397566
-1.2736745	byś matczynego	-0.0053397566
-1.2736745	matczynego serca	-0.0053397566
-2.5584807	nie zakrwawił	-0.0053397566
-2.7542996	persname zalała	-0.0053397566
-2.685569	się łzami	-0.0053397566
-2.7542996	persname najmilejszy	-0.0053397566
-1.6470593	z zbójnikami	-0.0053397566
-2.228347	za jastrzębiem	-0.0053397566
-1.2736745	jastrzębiem cień	-0.0053397566
-1.9507511	ziemi włóczy	-0.0053397566
-2.228347	za tobą	-0.0053397566
-1.2736745	tobą wszędy	-0.0053397566
-1.2736745	wszędy lecą	-0.0053397566
-2.5336192	się moje	-0.0053397566
-1.2665938	lecą moje	-0.0053397566
-1.2665938	łóżko moje	-0.0053397566
-1.739711	ty odejdziesz	-0.0053397566
-1.2736745	odejdziesz cóż	-0.0053397566
-2.2647116	mi haw	-0.0053397566
-1.2736745	haw zostanie	-0.0053397566
-2.5093353	nie będę	-0.0053397566
-1.2708728	zostanie będę	-0.0053397566
-1.4104626	jak ta	-0.0053397566
-1.5636122	choćby ta	-0.0053397566
-1.739711	ta limba	-0.0053397566
-1.2736745	limba samiutka	-0.0053397566
-2.6967666	w polanie	-0.0053397566
-1.2736745	polanie warkocz	-0.0053397566
-2.2647116	mi rozplecie	-0.0053397566
-1.2708728	rozplecie ino	-0.0053397566
-1.2708728	duje ino	-0.0053397566
-1.5636122	ino wiatr	-0.0053397566
-1.2708728	czerwony wiatr	-0.0053397566
-1.9507511	co duje	-0.0053397566
-2.5691195	z źródła	-0.0053397566
-1.2736745	źródła lico	-0.0053397566
-1.2736745	lico pocałuje	-0.0053397566
-1.2708728	pocałuje zostań	-0.0053397566
-1.2708728	doma zostań	-0.0053397566
-2.7542996	persname doma	-0.0053397566
-1.5691267	zostań poniewoli	-0.0053397566
-2.086333	od żałości	-0.0053397566
-1.2708728	żałości młode	-0.0053397566
-1.2708728	koźlątko młode	-0.0053397566
-2.5336192	się serce	-0.0053397566
-1.719321	moje serce	-0.0053397566
-1.5552555	młode serce	-0.0053397566
-1.5691267	przed niemi	-0.0053397566
-1.2736745	niemi wsparty	-0.0053397566
-2.6377676	na siekiérce	-0.0053397566
-1.2736745	siekiérce odpowiada	-0.0053397566
-1.2736745	odpowiada matce	-0.0053397566
-1.5691267	swojej freirce	-0.0053397566
-2.5027797	na coś	-0.0053397566
-2.0422714	po coś	-0.0053397566
-1.2665938	zaniewidziała coś	-0.0053397566
-1.2811984	mi matusiu	-0.0053397566
-1.5691267	matusiu dobrze	-0.0053397566
-1.2736745	dobrze jeść	-0.0053397566
-1.2736745	jeść dawała	-0.0053397566
-1.2736745	dawała równo	-0.0053397566
-2.685569	się widzi	-0.0053397566
-1.2736745	widzi dolina	-0.0053397566
-1.8592118	czy skała	-0.0053397566
-1.2736745	skała kie	-0.0053397566
-1.2736745	kie siekierą	-0.0053397566
-1.2736745	siekierą zatnę	-0.0053397566
-2.6967666	w sękate	-0.0053397566
-1.2736745	sękate jawory	-0.0053397566
-1.739711	ta piana	-0.0053397566
-2.5691195	z wody	-0.0053397566
-2.685569	się kurzą	-0.0053397566
-1.2736745	kurzą wióry	-0.0053397566
-1.2736745	wióry widziałaś	-0.0053397566
-2.156435	mię matko	-0.0053397566
-1.9032798	go matko	-0.0053397566
-1.2615417	rodziła matko	-0.0053397566
-1.2615417	strzegłaś matko	-0.0053397566
-1.8592118	matko jakom	-0.0053397566
-1.2736745	jakom wóz	-0.0053397566
-1.2736745	wóz przeskoczył	-0.0053397566
-1.8958744	co go	-0.0053397566
-1.705143	ci go	-0.0053397566
-1.2615417	trzynasty go	-0.0053397566
-1.2615417	chowałaś go	-0.0053397566
-2.6377676	na boisko	-0.0053397566
-1.2736745	boisko toczył	-0.0053397566
-1.2736745	toczył kiedym	-0.0053397566
-1.2615417	kiedym se	-0.0053397566
-1.2615417	legnę se	-0.0053397566
-1.9651631	ja se	-0.0053397566
-1.2615417	podpalił se	-0.0053397566
-1.8592118	se wywinął	-0.0053397566
-1.2665938	wywinął ciupagą	-0.0053397566
-1.2665938	wywinę ciupagą	-0.0053397566
-1.2665938	ostro ciupagą	-0.0053397566
-2.6377676	na kirze	-0.0053397566
-2.685569	się ludziom	-0.0053397566
-2.5691195	z okien	-0.0053397566
-1.2736745	okien porobiły	-0.0053397566
-1.2736745	porobiły dźwirze	-0.0053397566
-1.2736745	dźwirze psa	-0.0053397566
-1.2708728	psa choćby	-0.0053397566
-1.2708728	dukaty choćby	-0.0053397566
-2.382204	jak leciał	-0.0053397566
-2.228347	za ogon	-0.0053397566
-1.2736745	ogon dopadnę	-0.0053397566
-2.2622738	mię przełazy	-0.0053397566
-2.5584807	nie ogłupią	-0.0053397566
-1.2736745	ogłupią żadne	-0.0053397566
-2.1876764	to chowała	-0.0053397566
-2.6377676	na dziada	-0.0053397566
-2.6967666	w kościele	-0.0053397566
-2.685569	się postarzeję	-0.0053397566
-1.2736745	postarzeję legnę	-0.0053397566
-2.6967666	w popiele	-0.0053397566
-2.7542996	persname pójdę	-0.0053397566
-2.2999532	a choćbym	-0.0053397566
-1.2736745	choćbym zaginął	-0.0053397566
-1.2736745	zaginął imię	-0.0053397566
-2.5584807	nie zaginie	-0.0053397566
-2.5584807	nie płacz	-0.0053397566
-2.6814337	persname darmo	-0.0053397566
-1.7315683	ale darmo	-0.0053397566
-1.739711	serce żali	-0.0053397566
-1.2736745	żali przyniosę	-0.0053397566
-1.739711	ci zza	-0.0053397566
-1.2736745	zza gór	-0.0053397566
-1.2736745	gór pereł	-0.0053397566
-2.2999532	a korali	-0.0053397566
-1.2736745	korali wrócę	-0.0053397566
-2.0402136	to ja	-0.0053397566
-1.5265894	będę ja	-0.0053397566
-1.2516106	wrócę ja	-0.0053397566
-1.2516106	tysięcy ja	-0.0053397566
-1.2516106	com ja	-0.0053397566
-1.2516106	cobym ja	-0.0053397566
-2.2014055	do cię	-0.0053397566
-1.2708728	ukocha cię	-0.0053397566
-2.228347	za niedługi	-0.0053397566
-2.2999532	a jakbym	-0.0053397566
-2.5093353	nie wrócił	-0.0053397566
-2.6192694	się wrócił	-0.0053397566
-1.5691267	wrócił ukocha	-0.0053397566
-1.5691267	cię drugi	-0.0053397566
-1.2736745	drugi poszedł	-0.0053397566
-2.6377676	na zbój	-0.0053397566
-2.6967666	w górę	-0.0053397566
-1.2736745	górę dolinami	-0.0053397566
-1.2736745	dolinami horni	-0.0053397566
-2.5795193	na nim	-0.0053397566
-1.2378566	za nim	-0.0053397566
-1.8592118	chłopcy idą	-0.0053397566
-2.5691195	z ciupagami	-0.0053397566
-1.2736745	ciupagami stąpa	-0.0053397566
-2.7542996	persname szumnie	-0.0053397566
-1.2736745	szumnie wysoko	-0.0053397566
-2.6192694	się niesie	-0.0053397566
-1.2708728	konie niesie	-0.0053397566
-2.685569	się mało	-0.0053397566
-1.2736745	mało znajdzie	-0.0053397566
-1.2736745	znajdzie wyższe	-0.0053397566
-1.2736745	wyższe drzewo	-0.0053397566
-1.8170611	w lesie	-0.0053397566
-1.8485214	geogname aże	-0.0053397566
-1.5636122	buczka aże	-0.0053397566
-1.5691267	aże ziemia	-0.0053397566
-1.2736745	ziemia jęczy	-0.0053397566
-1.2736745	jęczy piórko	-0.0053397566
-2.685569	się miga	-0.0053397566
-1.739711	nim brzęczy	-0.0053397566
-1.2736745	brzęczy świeci	-0.0053397566
-2.685569	się blacha	-0.0053397566
-2.5691195	z mosiężnym	-0.0053397566
-1.2736745	mosiężnym łańcuszkiem	-0.0053397566
-1.2736745	łańcuszkiem kółeczkami	-0.0053397566
-1.2736745	kółeczkami zberczy	-0.0053397566
-1.2736745	zberczy ciupaga	-0.0053397566
-2.5691195	z obuszkiem	-0.0053397566
-1.9533694	przez plecy	-0.0053397566
-1.2736745	plecy pistolet	-0.0053397566
-2.228347	za pasem	-0.0053397566
-1.2736745	pasem nóż	-0.0053397566
-2.6967666	w mosiądz	-0.0053397566
-1.2736745	mosiądz oprawny	-0.0053397566
-1.739711	idzie lasem	-0.0053397566
-1.2736745	lasem zaśpiewałeś	-0.0053397566
-1.2736745	zaśpiewałeś bratom	-0.0053397566
-2.7542996	persname sokole	-0.0053397566
-1.739711	jakby buk	-0.0053397566
-1.2736745	buk zaszumiał	-0.0053397566
-1.2736745	zaszumiał pomiędzy	-0.0053397566
-1.2736745	pomiędzy topole	-0.0053397566
-1.8485214	chłopcy śmiało	-0.0053397566
-1.2708728	topole śmiało	-0.0053397566
-2.0246272	placename bogaty	-0.0053397566
-1.2736745	bogaty będziemy	-0.0053397566
-1.2736745	będziemy mierzyli	-0.0053397566
-1.2736745	mierzyli kotlikiem	-0.0053397566
-1.2736745	kotlikiem dukaty	-0.0053397566
-2.7542996	persname było	-0.0053397566
-1.2736745	było sto	-0.0053397566
-1.2736745	sto tysięcy	-0.0053397566
-2.4495416	się ich	-0.0053397566
-1.705143	tam ich	-0.0053397566
-1.5454884	husary ich	-0.0053397566
-1.2615417	wiedli ich	-0.0053397566
-2.086333	tak boję	-0.0053397566
-2.0246272	jako wilk	-0.0053397566
-1.2736745	wilk zajęcy	-0.0053397566
-1.2736745	zajęcy choćbyście	-0.0053397566
-1.2736745	choćbyście zjechali	-0.0053397566
-2.5691195	z szablami	-0.0053397566
-1.8592118	se wywinę	-0.0053397566
-1.5691267	wami huknęli	-0.0053397566
-2.1664014	to towarzysze	-0.0053397566
-1.2708728	mili towarzysze	-0.0053397566
-1.5691267	towarzysze chórem	-0.0053397566
-1.2736745	chórem szeroko	-0.0053397566
-1.2736745	szeroko daleko	-0.0053397566
-1.2736745	daleko leci	-0.0053397566
-1.2736745	leci echo	-0.0053397566
-1.2736745	echo borem	-0.0053397566
-2.2014055	do buczka	-0.0053397566
-2.0684476	od buczka	-0.0053397566
-2.2258806	do placenamegeogname	-0.0053397566
-1.2736745	placenamegeogname nasze	-0.0053397566
-1.2736745	nasze pieniążki	-0.0053397566
-1.8592118	hań nasza	-0.0053397566
-1.2736745	nasza komora	-0.0053397566
-2.7542996	persname hetmanie	-0.0053397566
-2.1391463	ku dolinom	-0.0053397566
-2.1662245	do góry	-0.0053397566
-2.4490578	z góry	-0.0053397566
-1.2665938	hej góry	-0.0053397566
-2.685569	się gradowe	-0.0053397566
-1.2736745	gradowe uniżają	-0.0053397566
-1.2736745	uniżają chmury	-0.0053397566
-1.2736745	chmury spadł	-0.0053397566
-2.0246272	placename zagrodę	-0.0053397566
-1.8592118	ten orzeł	-0.0053397566
-2.5691195	z wiatru	-0.0053397566
-2.6377676	na koźlątko	-0.0053397566
-1.5691267	młode podpalił	-0.0053397566
-1.8592118	se miasto	-0.0053397566
-2.6377676	na wsze	-0.0053397566
-1.2736745	wsze cztery	-0.0053397566
-1.2736745	cztery rogi	-0.0053397566
-2.5584807	nie chciał	-0.0053397566
-2.086333	po ćmie	-0.0053397566
-1.2736745	ćmie macać	-0.0053397566
-1.2736745	macać między	-0.0053397566
-1.2736745	między pola	-0.0053397566
-1.5691267	drogi zobaczyli	-0.0053397566
-1.2736745	zobaczyli ogień	-0.0053397566
-1.2708728	ogień husary	-0.0053397566
-1.2708728	blachy husary	-0.0053397566
-1.5691267	husary czerwony	-0.0053397566
-1.5636122	wiatr im	-0.0053397566
-1.2708728	migają im	-0.0053397566
-1.5691267	im konie	-0.0053397566
-0.9419024	przez łąki	-0.0053397566
-1.5691267	łąki zagony	-0.0053397566
-1.2736745	zagony przyjechali	-0.0053397566
-1.2736745	przyjechali duchem	-0.0053397566
-2.6967666	w brzęczącym	-0.0053397566
-1.2736745	brzęczącym rynsztunku	-0.0053397566
-1.2736745	rynsztunku dopadli	-0.0053397566
-1.2736745	dopadli zbójników	-0.0053397566
-1.2736745	zbójników jeszcze	-0.0053397566
-2.5795193	na rabunku	-0.0053397566
-2.5178204	z rabunku	-0.0053397566
-2.6192694	się broni	-0.0053397566
-1.5636122	rabunku broni	-0.0053397566
-2.7542996	persname ostro	-0.0053397566
-1.5691267	broni dwunastu	-0.0053397566
-1.2736745	dwunastu husarów	-0.0053397566
-1.2736745	husarów zwalił	-0.0053397566
-2.6377676	na ziem	-0.0053397566
-2.5691195	z koni	-0.0053397566
-1.2736745	koni trzynasty	-0.0053397566
-2.7542996	persname szablą	-0.0053397566
-1.2736745	szablą dźgnął	-0.0053397566
-1.5691267	pod ziobro	-0.0053397566
-2.5584807	nie pójdziesz	-0.0053397566
-1.5691267	ludzkie dobro	-0.0053397566
-1.2736745	dobro bronią	-0.0053397566
-2.685569	się zbójnicy	-0.0053397566
-1.2736745	zbójnicy skaczą	-0.0053397566
-1.2736745	skaczą ponad	-0.0053397566
-1.2736745	ponad dachy	-0.0053397566
-1.2736745	dachy migają	-0.0053397566
-2.6967666	w ogniu	-0.0053397566
-2.0090687	jako gwiazdy	-0.0053397566
-1.2708728	miesiąc gwiazdy	-0.0053397566
-1.5691267	gwiazdy blachy	-0.0053397566
-1.8592118	ich skuli	-0.0053397566
-2.6967666	w żelazne	-0.0053397566
-1.2736745	żelazne okowy	-0.0053397566
-1.2736745	okowy wiedli	-0.0053397566
-1.739711	przy koniach	-0.0053397566
-2.6967666	w dziedziniec	-0.0053397566
-1.2736745	dziedziniec zamkowy	-0.0053397566
-1.8592118	ich rychtar	-0.0053397566
-1.2736745	rychtar zamknął	-0.0053397566
-1.5691267	zamczysku wysokiem	-0.0053397566
-1.2736745	wysokiem stamtąd	-0.0053397566
-1.5691267	pozierają zapłakanym	-0.0053397566
-1.2736745	zapłakanym okiem	-0.0053397566
-2.1391463	ku tatrom	-0.0053397566
-2.685569	się potok	-0.0053397566
-1.5691267	łąki przelewa	-0.0053397566
-2.7542996	persname patrzy	-0.0053397566
-1.739711	nim zasmucony	-0.0053397566
-1.2736745	zasmucony śpiewa	-0.0053397566
-2.2622738	mię rodziła	-0.0053397566
-1.739711	moja miła	-0.0053397566
-2.2622738	mię wieszać	-0.0053397566
-1.2736745	wieszać pójdą	-0.0053397566
-1.2736745	pójdą będziesz	-0.0053397566
-2.685569	się hańbiła	-0.0053397566
-1.2736745	hańbiła pierwej	-0.0053397566
-2.0246272	placename zwyrtnie	-0.0053397566
-1.739711	góry niźli	-0.0053397566
-2.2622738	mię wypuszczą	-0.0053397566
-1.5691267	białe mury	-0.0053397566
-1.2736745	mury żałuj	-0.0053397566
-1.2736745	żałuj panie	-0.0053397566
-2.7542996	persname com	-0.0053397566
-1.739711	we frasunku	-0.0053397566
-1.2736745	frasunku ślubowałem	-0.0053397566
-2.6377676	na mszę	-0.0053397566
-1.2736745	mszę dukata	-0.0053397566
-1.5691267	rabunku ej	-0.0053397566
-2.7542996	persname dał	-0.0053397566
-1.2736745	dał cobym	-0.0053397566
-2.7542996	persname bym	-0.0053397566
-1.2736745	bym orał	-0.0053397566
-1.2736745	orał husarami	-0.0053397566
-1.2736745	husarami młócił	-0.0053397566
-1.2665938	młócił bratowie	-0.0053397566
-1.719321	bratowie bratowie	-0.0053397566
-1.2665938	kochami bratowie	-0.0053397566
-1.739711	bratowie kochami	-0.0053397566
-1.5636122	gwiazdy będą	-0.0053397566
-1.7315683	bratowie będą	-0.0053397566
-1.5691267	będą nam	-0.0053397566
-1.2736745	nam rąbali	-0.0053397566
-1.2736745	rąbali głowiczld	-0.0053397566
-1.2736745	głowiczld katowie	-0.0053397566
-1.2736745	katowie żegnajmyż	-0.0053397566
-2.685569	się teraz	-0.0053397566
-1.2736745	teraz mili	-0.0053397566
-1.5691267	towarzysze jutro	-0.0053397566
-1.2736745	jutro nami	-0.0053397566
-1.2736745	nami wiater	-0.0053397566
-1.2736745	wiater zimny	-0.0053397566
-1.2736745	zimny zakołysze	-0.0053397566
-1.2736745	zakołysze hej	-0.0053397566
-1.739711	góry polany	-0.0053397566
-2.6139045	i zielone	-0.0053397566
-1.2736745	zielone lasy	-0.0053397566
-1.2736745	lasy żegnamy	-0.0053397566
-1.2736745	żegnamy was	-0.0053397566
-1.2736745	was dzisiaj	-0.0053397566
-2.6377676	na wieczyste	-0.0053397566
-1.2736745	wieczyste czasy	-0.0053397566
-2.086333	tak oni	-0.0053397566
-1.2736745	oni śpiewają	-0.0053397566
-2.6967666	w okowach	-0.0053397566
-1.5691267	lesie zawodzi	-0.0053397566
-1.739711	przy krowach	-0.0053397566
-1.2736745	krowach strzegłaś	-0.0053397566
-1.5691267	swej źrenicy	-0.0053397566
-1.9533694	go powiodą	-0.0053397566
-1.2736745	powiodą oj	-0.0053397566
-2.1391463	ku szubienicy	-0.0053397566
-1.2736745	szubienicy chowałaś	-0.0053397566
-1.5691267	tego sokoła	-0.0053397566
-1.9533694	go rzucą	-0.0053397566
-2.2258806	do ciemnego	-0.0053397566
-1.2736745	ciemnego doła	-0.0053397566
-1.739711	we dnie	-0.0053397566
-1.2736745	dnie miesiąc	-0.0053397566
-2.685569	się świeciły	-0.0053397566
-1.2736745	świeciły kiedy	-0.0053397566
-2.0272136	mnie przyjdzie	-0.0053397566
-1.2708728	przyjdzie mój	-0.0053397566
-1.2708728	więdnie mój	-0.0053397566
-1.5691267	mój kochanek	-0.0053397566
-1.2736745	kochanek miły	-0.0053397566
-1.2736745	miły prędzej	-0.0053397566
-1.2736745	prędzej gniazdko	-0.0053397566
-1.2736745	gniazdko zlepi	-0.0053397566
-1.2736745	zlepi jaskółka	-0.0053397566
-2.6377676	na hali	-0.0053397566
-1.2736745	hali niż	-0.0053397566
-2.7542996	persname odżali	-0.0053397566
-1.5636122	lilia kwitnie	-0.0053397566
-1.2708728	odżali kwitnie	-0.0053397566
-1.5691267	kwitnie majeranek	-0.0053397566
-1.5691267	darmo więdnie	-0.0053397566
-1.5691267	mój zielony	-0.0053397566
-1.2736745	zielony wianek	-0.0053397566
-1.2736745	wianek srebrzy	-0.0053397566
-2.2647116	mi siano	-0.0053397566
-2.6377676	na stodole	-0.0053397566
-1.2736745	stodole świeże	-0.0053397566
-1.2736745	świeże łzamim	-0.0053397566
-1.2736745	łzamim je	-0.0053397566
-1.2736745	je srebrzyła	-0.0053397566
-2.6377676	na niem	-0.0053397566
-1.2736745	niem leżę	-0.0053397566
-2.6967666	w ślubnej	-0.0053397566
-1.2736745	ślubnej chodziła	-0.0053397566
-1.2736745	chodziła sukience	-0.0053397566
-2.5584807	nie pierścionka	-0.0053397566
-2.2647116	mi trza	-0.0053397566
-1.739711	ale krzyżyk	-0.0053397566
-2.6967666	w ręce	-0.0053397566
-2.5584807	nie ściel	-0.0053397566
-1.5691267	matusiu łóżeczka	-0.0053397566
-2.6377676	na dwoje	-0.0053397566
-1.2736745	dwoje drewniana	-0.0053397566
-1.2736745	drewniana trumienka	-0.0053397566
-1.2736745	trumienka będzie	-0.0053397566
-1.2736745	będzie łóżko	-0.0053397566
-1.739711	moje panienko	-0.0053397566
-1.2736745	panienko najświętsza	-0.0053397566
-1.2736745	najświętsza czyś	-0.0053397566
-1.2736745	czyś zaniewidziała	-0.0053397566
-2.2647116	mi mego	-0.0053397566
-2.7542996	persname śmierci	-0.0053397566

\3-grams:
-1.1975175	<s> persname </s>	0
-0.98492056	do ciebie </s>	0
-0.06898953	<s> nirwano </s>	0
-1.0557289	ku ziemi </s>	0
-0.4655286	na niebie </s>	0
-0.4655286	w niebie </s>	0
-0.887753	utrapion srodze </s>	0
-0.887753	nie chodzę </s>	0
-0.98492056	me źrenice </s>	0
-0.887753	źrenice bryzga </s>	0
-0.887753	stopa ślizga </s>	0
-0.887753	mię zadusza </s>	0
-0.887753	moja dusza </s>	0
-0.887753	niech sycę </s>	0
-0.887753	żyć muszę </s>	0
-0.887753	moją duszę </s>	0
-0.887753	nikczemne twarze </s>	0
-0.887753	i ołtarze </s>	0
-0.887753	nie uciska </s>	0
-0.98492056	i rozpaczy </s>	0
-0.887753	nie błyska </s>	0
-0.887753	twym pogrzebie </s>	0
-0.9254613	<s> ---- </s>	0
-0.887753	błękitne zadumanie </s>	0
-0.98492056	nagle cały </s>	0
-0.887753	modrym oceanie </s>	0
-0.887753	w siebie </s>	0
-0.887753	i gorąca </s>	0
-0.887753	lilia drżąca </s>	0
-0.887753	nieskończonego morza </s>	0
-0.887753	w przestworza </s>	0
-0.887753	skrzydłem drżącem </s>	0
-0.887753	pod słońcem </s>	0
-0.887753	kwiaty zaszeptały </s>	0
-0.887753	dziwny iści </s>	0
-0.887753	złotych liści </s>	0
-0.887753	i radosny </s>	0
-0.887753	narodziny wiosny </s>	0
-0.887753	słońcu nieruchomie </s>	0
-0.887753	wód ogromie </s>	0
-0.887753	wód kryształu </s>	0
-0.887753	się pomału </s>	0
-0.887753	milkną sfery </s>	0
-0.887753	ścichły szmery </s>	0
-0.887753	stanęła skrysztalona </s>	0
-0.887753	nieb opona </s>	0
-0.98492056	wyszła biała </s>	0
-0.887753	uśmiech słała </s>	0
-0.98492056	a potem </s>	0
-0.887753	kroplami świetlistemi </s>	0
-0.887753	lądom wodzie </s>	0
-0.887753	jej urodzie </s>	0
-0.887753	z rosy </s>	0
-0.887753	ocean modrowłosy </s>	0
-0.98492056	ciało białe </s>	0
-0.887753	zachwytu oszalałe </s>	0
-0.887753	do łona </s>	0
-0.887753	i ramiona </s>	0
-0.887753	i lubieżne </s>	0
-0.887753	smukłe śnieżne </s>	0
-0.887753	nagłym wzlotem </s>	0
-0.887753	miękkie śliczne </s>	0
-0.887753	owieją balsamiczne </s>	0
-0.887753	kornie padną </s>	0
-0.887753	podniosła światowładną </s>	0
-0.887753	jej potęga </s>	0
-0.887753	nieprzekroczonych sięga </s>	0
-0.887753	morskich głębokości </s>	0
-0.887753	dla ludzkości </s>	0
-1.0734355	był czas </s>	0
-0.887753	się rozumieli </s>	0
-1.0113378	nie wróci </s>	0
-0.887753	wszystko dzieli </s>	0
-0.887753	nie obchodzicie </s>	0
-0.887753	obchodzi życie </s>	0
-0.887753	żeście skuci </s>	0
-0.887753	dziś pieśnią </s>	0
-0.887753	moją własną </s>	0
-0.887753	się ucieleśnią </s>	0
-0.887753	czyjem młodem </s>	0
-0.887753	wodę m </s>	0
-0.887753	lub zagasną </s>	0
-0.887753	macie wróżów </s>	0
-0.887753	waszych wykładaczy </s>	0
-0.887753	czujnych stróżów </s>	0
-0.887753	świętych chramów </s>	0
-0.887753	i kłamów </s>	0
-0.98492056	uciekł tego </s>	0
-0.887753	czym jesteście </s>	0
-0.887753	drzewa zielonego </s>	0
-0.887753	szum potoku </s>	0
-0.887753	słońca oku </s>	0
-0.887753	gęstw powieście </s>	0
-0.887753	legenda złota </s>	0
-0.887753	skał ogromnych </s>	0
-0.887753	co grzechota </s>	0
-0.887753	boku chrzęści </s>	0
-0.887753	łoskot pięści </s>	0
-0.887753	gwarów wiekopomnych </s>	0
-0.98492056	myśli mojej </s>	0
-0.887753	wicher rzuci </s>	0
-0.887753	struny stroi </s>	0
-0.887753	pieśń pojęta </s>	0
-0.887753	nie pęta </s>	0
-0.887753	persname śmierci </s>	0
-1.6350502	<s> persname persname	-0.30103
-1.4499037	broni się persname	-0.30103
-1.2191896	persname o persname	-0.30103
-1.2191896	moje oczy persname	-0.30103
-1.0482574	persname to persname	-0.30103
-1.0195719	dy to persname	-0.30103
-1.340986	srebrzystych pian persname	-0.30103
-1.1002182	przelewa a persname	-0.30103
-1.1002182	okowach a persname	-0.30103
-1.3243272	jako ten persname	-0.30103
-1.3659079	z placename persname	-0.30103
-1.2191896	boli stoi persname	-0.30103
-1.4375613	mówiła mu persname	-0.30103
-1.0638455	ludzkie barany persname	-0.30103
-1.0638455	gnił okowany persname	-0.30103
-1.0638455	ciebie pan persname	-0.30103
-1.0638455	się łzami persname	-0.30103
-1.2863822	choćby ta persname	-0.30103
-1.2191896	pocałuje zostań persname	-0.30103
-1.2863822	moje serce persname	-0.30103
-1.3243272	strzegłaś matko persname	-0.30103
-0.84000766	co go persname	-0.30103
-0.84000766	trzynasty go persname	-0.30103
-1.0638455	ogon dopadnę persname	-0.30103
-1.0638455	ogłupią żadne persname	-0.30103
-1.0638455	nie płacz persname	-0.30103
-1.2191896	się wrócił persname	-0.30103
-1.0638455	drugi poszedł persname	-0.30103
-1.0638455	ciupagami stąpa persname	-0.30103
-1.0638455	z obuszkiem persname	-0.30103
-1.0638455	zaśpiewałeś bratom persname	-0.30103
-1.0638455	choćbyście zjechali persname	-0.30103
-1.0638455	nasza komora persname	-0.30103
-1.0638455	chmury spadł persname	-0.30103
-1.0638455	moja miła persname	-0.30103
-1.0638455	żałuj panie persname	-0.30103
-1.0638455	rabunku ej persname	-0.30103
-1.0638455	mi mego persname	-0.30103
-2.1303508	<s> persname do	-0.30103
-1.1584027	podnoszę głos do	-0.30103
-1.4581136	omdlewając już do	-0.30103
-1.6183465	ja się do	-0.30103
-1.4917872	zwyrtnie się do	-0.30103
-1.643784	nogach jej do	-0.30103
-1.1584027	<s> aż do	-0.30103
-1.3617307	buczka aże do	-0.30103
-1.3617307	od buczka do	-0.30103
-1.1584027	go rzucą do	-0.30103
-1.7425164	persname do geognamez	-0.30103
-1.1882912	do geognamez otchłani	-0.30103
-1.1860163	geognamez otchłani klęsk	-0.30103
-1.1860163	niech otchłań klęsk	-0.30103
-0.5183791	otchłani klęsk i	-0.30103
-0.5183791	otchłań klęsk i	-0.30103
-1.366965	o przyjdź i	-0.30103
-1.5545862	na ziemi i	-0.30103
-1.480598	ziemi tak i	-0.30103
-1.2872623	od myśli i	-0.30103
-1.1103034	odegnaj złe i	-0.30103
-1.1103034	mną bożyszcza i	-0.30103
-1.5491968	ziemi jak i	-0.30103
-1.366965	śpiący blask i	-0.30103
-1.1103034	od światła i	-0.30103
-1.3419842	senność sfer i	-0.30103
-1.1103034	szmer lękliwy i	-0.30103
-1.5108517	piersi jej i	-0.30103
-1.1103034	i szyję i	-0.30103
-1.1103034	jej zagięć i	-0.30103
-1.1103034	czas przeminął i	-0.30103
-1.1103034	szale prawd i	-0.30103
-1.1103034	poetów dążeń i	-0.30103
-1.1103034	odpowiada matce i	-0.30103
-1.1103034	mosiądz oprawny i	-0.30103
-1.1103034	góry polany i	-0.30103
-0.77816284	klęsk i cierpień	-0.30103
-1.4847896	i cierpień podnoszę	-0.30103
-1.1882912	cierpień podnoszę głos	-0.30103
-1.8453652	okowany persname ciebie	-0.30103
-1.7344205	głos do ciebie	-0.30103
-2.358579	<s> i przyjdź	-0.30103
-1.4009413	<s> o przyjdź	-0.30103
-1.5198987	<s> przyjdź twe	-0.30103
-1.5150316	i przyjdź królestwo	-0.30103
-1.1860163	przyjdź twe królestwo	-0.30103
-1.7820495	matko persname jako	-0.30103
-1.3808936	twe królestwo jako	-0.30103
-1.1703019	w popiele jako	-0.30103
-1.1703019	tak boję jako	-0.30103
-1.4821723	z góry jako	-0.30103
-1.1703019	w ogniu jako	-0.30103
-1.4455513	go persname na	-0.30103
-1.3771993	poszedł persname na	-0.30103
-1.4841353	ziemi i na	-0.30103
-1.398658	królestwo jako na	-0.30103
-1.3134774	więcej już na	-0.30103
-1.2422956	królestwo twoje na	-0.30103
-1.0798731	twoje połóż na	-0.30103
-1.398658	cały świat na	-0.30103
-1.3134774	zasnął blask na	-0.30103
-1.2422956	srebrzyła sama na	-0.30103
-1.0798731	skier leżą na	-0.30103
-1.2422956	miga zbroja na	-0.30103
-1.0798731	persname zbójniku na	-0.30103
-1.0798731	pieśni ludowych na	-0.30103
-1.4001136	huknęli mu na	-0.30103
-1.0798731	zberczały łańcuszki na	-0.30103
-1.0798731	za buki na	-0.30103
-1.0798731	w ciemni na	-0.30103
-1.0798731	niemi wsparty na	-0.30103
-1.0798731	swojej freirce na	-0.30103
-1.3134774	wywinął ciupagą na	-0.30103
-1.0798731	to chowała na	-0.30103
-1.0798731	z wiatru na	-0.30103
-1.0798731	se miasto na	-0.30103
-1.0798731	zbójników jeszcze na	-0.30103
-1.0798731	husarów zwalił na	-0.30103
-1.0798731	frasunku ślubowałem na	-0.30103
-1.0798731	was dzisiaj na	-0.30103
-1.0798731	oni śpiewają na	-0.30103
-1.0798731	zlepi jaskółka na	-0.30103
-1.0798731	mi siano na	-0.30103
-1.0798731	matusiu łóżeczka na	-0.30103
-1.5478457	jako na ziemi	-0.30103
-1.5478457	twoje na ziemi	-0.30103
-1.5478457	blask na ziemi	-0.30103
-1.6934787	szła ku ziemi	-0.30103
-1.6740406	cień po ziemi	-0.30103
-1.7458763	oprawny i tak	-0.30103
-1.7327307	na ziemi tak	-0.30103
-1.1662992	ziemi włóczy tak	-0.30103
-1.1662992	z wody tak	-0.30103
-1.5339216	się ich tak	-0.30103
-1.1662992	wieczyste czasy tak	-0.30103
-1.4181403	a persname w	-0.30103
-1.353674	barany persname w	-0.30103
-1.162996	<s> i w	-0.30103
-1.3085579	tak i w	-0.30103
-1.3085579	jak i w	-0.30103
-1.2705684	i cierpień w	-0.30103
-1.2237135	już więcej w	-0.30103
-1.0670041	podłość kałem w	-0.30103
-1.4575272	oto się w	-0.30103
-1.445654	sfer jak w	-0.30103
-1.2237135	wsłuchiwać sama w	-0.30103
-1.0670041	<s> omdlewał w	-0.30103
-1.0670041	lutni dźwięk w	-0.30103
-1.3549032	pian co w	-0.30103
-1.0670041	w zadziwieniu w	-0.30103
-1.2705684	a ona w	-0.30103
-1.0670041	zadrżał wszeświat w	-0.30103
-1.0670041	czy inaczej w	-0.30103
-1.0670041	słowa które w	-0.30103
-1.3469845	na zamku w	-0.30103
-1.2916677	siwa woda w	-0.30103
-1.0670041	marnie giną w	-0.30103
-1.2705684	z zbójnikami w	-0.30103
-1.0670041	limba samiutka w	-0.30103
-1.0670041	siekierą zatnę w	-0.30103
-1.3300986	legnę se w	-0.30103
-1.0670041	na dziada w	-0.30103
-1.3847082	będę ja w	-0.30103
-1.0670041	na zbój w	-0.30103
-1.0670041	wyższe drzewo w	-0.30103
-1.0670041	pasem nóż w	-0.30103
-1.2237135	migają im w	-0.30103
-1.0670041	przyjechali duchem w	-0.30103
-1.0670041	ich skuli w	-0.30103
-1.0670041	przy koniach w	-0.30103
-1.0670041	rychtar zamknął w	-0.30103
-1.0670041	ale krzyżyk w	-0.30103
-1.8291234	i na niebie	-0.30103
-1.0734016	i w niebie	-0.30103
-2.2475257	<s> persname mnie	-0.30103
-1.6549947	kiedy ku mnie	-0.30103
-1.7081738	a dziś mnie	-0.30103
-1.1703019	nic wy mnie	-0.30103
-1.3808936	poetą gdzie mnie	-0.30103
-1.1703019	<s> szumi mnie	-0.30103
-1.5436226	to persname z	-0.30103
-1.4595363	zjechali persname z	-0.30103
-1.4595363	spadł persname z	-0.30103
-0.9275967	persname mnie z	-0.30103
-0.9275967	dziś mnie z	-0.30103
-1.4130706	na geogname z	-0.30103
-1.366965	złotych wód z	-0.30103
-1.366965	perły pian z	-0.30103
-1.1103034	mgieł złocistych z	-0.30103
-1.2872623	pieszczą ją z	-0.30103
-1.1103034	woń obcierała z	-0.30103
-1.1103034	ku ustom z	-0.30103
-1.366965	krąg bo z	-0.30103
-1.366965	ino woda z	-0.30103
-1.3419842	nie chodź z	-0.30103
-1.1103034	ta piana z	-0.30103
-1.1103034	się ludziom z	-0.30103
-1.1103034	chłopcy idą z	-0.30103
-1.1103034	się blacha z	-0.30103
-1.1103034	zberczy ciupaga z	-0.30103
-1.1103034	ku dolinom z	-0.30103
-1.1103034	ten orzeł z	-0.30103
-1.1103034	na ziem z	-0.30103
-1.1103034	mszę dukata z	-0.30103
-2.0568013	mnie z szponów	-0.30103
-1.1882912	z szponów wyrwij	-0.30103
-1.1882912	szponów wyrwij bom	-0.30103
-1.1860163	wyrwij bom jest	-0.30103
-1.4067101	chłopcy śmiało jest	-0.30103
-1.4104981	bom jest utrapion	-0.30103
-1.1882912	jest utrapion srodze	-0.30103
-2.2534807	<s> i niech	-0.30103
-1.174342	oddechem pierś niech	-0.30103
-1.174342	żem żył niech	-0.30103
-1.174342	<s> rzucał niech	-0.30103
-1.6740406	i niech już	-0.30103
-1.4009413	ty więcej już	-0.30103
-1.1825366	i omdlewając już	-0.30103
-1.5150316	niech już więcej	-0.30103
-1.5150316	pójdziesz ty więcej	-0.30103
-1.8475412	więcej w jarzmie	-0.30103
-1.1882912	w jarzmie krwawiącym	-0.30103
-1.1882912	jarzmie krwawiącym kark	-0.30103
-1.5362922	przeminął i nie	-0.30103
-1.4566239	żył niech nie	-0.30103
-1.0999212	krwawiącym kark nie	-0.30103
-1.5007722	oczy mi nie	-0.30103
-1.0999212	śmierć słabszych nie	-0.30103
-1.4415257	niczym świat nie	-0.30103
-1.2717503	na nogach nie	-0.30103
-1.4387319	mnie dziś nie	-0.30103
-1.0999212	nic wasze nie	-0.30103
-1.4120216	na zamku nie	-0.30103
-1.0999212	ale on nie	-0.30103
-1.0999212	mu matka nie	-0.30103
-1.3483943	by ci nie	-0.30103
-1.0999212	matczynego serca nie	-0.30103
-1.0999212	persname najmilejszy nie	-0.30103
-1.0999212	mię przełazy nie	-0.30103
-1.0999212	zaginął imię nie	-0.30103
-1.0999212	nie zaginie nie	-0.30103
-1.0999212	a jakbym nie	-0.30103
-1.0999212	cztery rogi nie	-0.30103
-1.0999212	pod ziobro nie	-0.30103
-1.0999212	niem leżę nie	-0.30103
-1.0999212	chodziła sukience nie	-0.30103
-1.0999212	w ręce nie	-0.30103
-1.8253567	kark nie chodzę	-0.30103
-1.7246157	pan persname mi	-0.30103
-1.5637808	<s> oto mi	-0.30103
-1.711447	srebrzy się mi	-0.30103
-1.3555264	przed oczy mi	-0.30103
-1.1545075	odejdziesz cóż mi	-0.30103
-1.1545075	polanie warkocz mi	-0.30103
-0.6896256	na coś mi	-0.30103
-0.6896256	zaniewidziała coś mi	-0.30103
-1.1545075	dawała równo mi	-0.30103
-1.1545075	nie pierścionka mi	-0.30103
-1.1545075	nie ściel mi	-0.30103
-1.7547429	oto mi ludzka	-0.30103
-1.1882912	mi ludzka podłość	-0.30103
-1.1882912	ludzka podłość kałem	-0.30103
-1.8376391	kałem w źrenice	-0.30103
-1.1860163	na me źrenice	-0.30103
-1.4104981	w źrenice bryzga	-0.30103
-1.3787131	góry jako się	-0.30103
-1.3917474	wody tak się	-0.30103
-1.3734815	<s> oto się	-0.30103
-1.4324272	równo mi się	-0.30103
-1.0701858	konwulsyjnych tarza się	-0.30103
-1.2282851	niesie że się	-0.30103
-1.0701858	w łonie się	-0.30103
-1.1597279	zbójnikami jak się	-0.30103
-1.1597279	kościele jak się	-0.30103
-1.4226403	kirze to się	-0.30103
-1.0701858	cisza zdawała się	-0.30103
-1.2282851	cud jakiś się	-0.30103
-1.0701858	kształt wynurza się	-0.30103
-1.0701858	świat dziwował się	-0.30103
-1.0701858	<s> ślizgają się	-0.30103
-1.0701858	z wolna się	-0.30103
-1.2282851	moja stała się	-0.30103
-1.2970184	darmo bo się	-0.30103
-1.0701858	czas żeśmy się	-0.30103
-1.3359476	pozierają czy się	-0.30103
-1.2282851	czy gdzie się	-0.30103
-0.8434125	piórko mu się	-0.30103
-0.8434125	świeci mu się	-0.30103
-1.0701858	persname zalała się	-0.30103
-1.2970184	ostro ciupagą się	-0.30103
-0.9586798	wrócę ja się	-0.30103
-0.9586798	tysięcy ja się	-0.30103
-0.9586798	cobym ja się	-0.30103
-1.0701858	szumnie wysoko się	-0.30103
-1.2282851	rabunku broni się	-0.30103
-1.0701858	dobro bronią się	-0.30103
-1.0701858	ku tatrom się	-0.30103
-1.0701858	pójdą będziesz się	-0.30103
-1.0701858	placename zwyrtnie się	-0.30103
-1.2282851	gwiazdy będą się	-0.30103
-1.0701858	katowie żegnajmyż się	-0.30103
-1.0701858	hali niż się	-0.30103
-1.0701858	wianek srebrzy się	-0.30103
-1.8475412	się w złości	-0.30103
-1.1882912	w złości ludzkiej	-0.30103
-1.1882912	złości ludzkiej błocie	-0.30103
-1.8453652	obuszkiem persname ma	-0.30103
-1.1860163	ludzkiej błocie ma	-0.30103
-1.4104981	błocie ma stopa	-0.30103
-1.1882912	ma stopa ślizga	-0.30103
-1.3228191	oczy persname mię	-0.30103
-1.3228191	dopadnę persname mię	-0.30103
-1.3228191	żadne persname mię	-0.30103
-1.3228191	miła persname mię	-0.30103
-1.5841521	<s> oto mię	-0.30103
-1.1623329	przepełnił ohyda mię	-0.30103
-1.1623329	niech żywot mię	-0.30103
-1.4659859	poniewoli bo mię	-0.30103
-1.4757676	po coś mię	-0.30103
-1.1623329	wióry widziałaś mię	-0.30103
-1.1623329	góry niźli mię	-0.30103
-1.7539971	oto mię wstręt	-0.30103
-1.1882912	mię wstręt przepełnił	-0.30103
-1.1882912	wstręt przepełnił ohyda	-0.30103
-1.7539971	ohyda mię zadusza	-0.30103
-2.3109207	i w bólach	-0.30103
-1.1882912	w bólach konwulsyjnych	-0.30103
-1.1882912	bólach konwulsyjnych tarza	-0.30103
-1.8207091	tarza się moja	-0.30103
-1.6027346	<s> pieśń moja	-0.30103
-1.5727655	rodziła matko moja	-0.30103
-1.5198987	się moja dusza	-0.30103
-2.4666426	<s> persname o	-0.30103
-1.8349642	przyjdź i dłonie	-0.30103
-1.4067101	przyjdź królestwo twoje	-0.30103
-1.1860163	i dłonie twoje	-0.30103
-1.4104981	dłonie twoje połóż	-0.30103
-1.8387967	połóż na me	-0.30103
-1.8358413	łonie się twym	-0.30103
-1.4104981	<s> twym unicestwiającym	-0.30103
-1.1882912	twym unicestwiającym oddechem	-0.30103
-1.1882912	unicestwiającym oddechem pierś	-0.30103
-1.6921399	pierś niech sycę	-0.30103
-1.1882912	<s> żem żył	-0.30103
-1.8253567	niech nie pamiętam	-0.30103
-1.1882912	nie pamiętam ani	-0.30103
-1.1882912	pamiętam ani wiem	-0.30103
-1.1860163	ani wiem że	-0.30103
-1.4067101	się niesie że	-0.30103
-1.4104981	wiem że żyć	-0.30103
-1.1882912	że żyć muszę	-0.30103
-1.7704848	ślizgają się od	-0.30103
-1.6911964	bo mię od	-0.30103
-1.6144911	okrąg świat od	-0.30103
-1.4498785	<s> jam od	-0.30103
-1.1703019	echo borem od	-0.30103
-1.8372128	<s> od myśli	-0.30103
-1.5150316	własnej tylko myśli	-0.30103
-1.8349642	myśli i pamięci	-0.30103
-1.1882912	i pamięci oderwij	-0.30103
-1.1860163	pamięci oderwij moją	-0.30103
-1.5150316	wyłącznie tylko moją	-0.30103
-1.4104981	oderwij moją duszę	-0.30103
-1.8474964	<s> od oczu	-0.30103
-1.1882912	od oczu mych	-0.30103
-1.1882912	oczu mych odegnaj	-0.30103
-1.1882912	mych odegnaj złe	-0.30103
-1.8349642	złe i nikczemne	-0.30103
-1.1882912	i nikczemne twarze	-0.30103
-2.5090563	<s> persname zburz	-0.30103
-1.1882912	persname zburz przede	-0.30103
-1.1882912	zburz przede mną	-0.30103
-1.1882912	przede mną bożyszcza	-0.30103
-1.8349642	bożyszcza i ołtarze	-0.30103
-1.9146959	<s> niech żywot	-0.30103
-1.7539971	żywot mię silniejszych	-0.30103
-1.1882912	mię silniejszych śmierć	-0.30103
-1.1882912	silniejszych śmierć słabszych	-0.30103
-1.8253567	słabszych nie uciska	-0.30103
-1.9146959	<s> niech błędny	-0.30103
-1.1882912	niech błędny wzrok	-0.30103
-1.8250797	dążeń i rozpaczy	-0.30103
-1.1860163	błędny wzrok rozpaczy	-0.30103
-1.8453652	stoi persname przed	-0.30103
-1.4067101	wzrok rozpaczy przed	-0.30103
-1.4067101	rozpaczy przed oczy	-0.30103
-1.5150316	lecą moje oczy	-0.30103
-1.8253567	mi nie błyska	-0.30103
-1.9146959	<s> niech otchłań	-0.30103
-1.8475412	cierpień w łonie	-0.30103
-1.4104981	się twym pogrzebie	-0.30103
-1.9621649	<s> persname jak	-0.30103
-1.6287704	na ziemi jak	-0.30103
-1.4653217	kwiatów woń jak	-0.30103
-1.3859316	senność sfer jak	-0.30103
-1.1355395	<s> żyjcie jak	-0.30103
-1.1355395	<s> jesteścież jak	-0.30103
-1.5166776	<s> albo jak	-0.30103
-1.3859316	z zbójnikami jak	-0.30103
-1.325769	zostanie będę jak	-0.30103
-1.1355395	sękate jawory jak	-0.30103
-1.4653217	go matko jak	-0.30103
-1.325769	psa choćby jak	-0.30103
-1.1355395	w kościele jak	-0.30103
-1.1355395	placename zagrodę jak	-0.30103
-1.54473	persname persname to	-0.30103
-1.54473	ej persname to	-0.30103
-1.7369955	mu na to	-0.30103
-1.9049219	persname mię to	-0.30103
-1.1623329	zamczysku czyjże to	-0.30103
-1.1623329	futryny dy to	-0.30103
-1.1623329	na kirze to	-0.30103
-1.1623329	z szablami to	-0.30103
-1.8913077	persname to był	-0.30103
-1.4104981	to był dzień	-0.30103
-1.1882912	był dzień błękitne	-0.30103
-1.1882912	dzień błękitne zadumanie	-0.30103
-2.4666426	<s> persname cały	-0.30103
-1.1860163	ogarnął nagle cały	-0.30103
-1.3808936	persname cały świat	-0.30103
-1.1703019	w okrąg świat	-0.30103
-1.3808936	niepokój jakiś świat	-0.30103
-1.1703019	zdumienie zdjęło świat	-0.30103
-2.024473	<s> a świat	-0.30103
-1.1703019	której niczym świat	-0.30103
-1.8387967	świat na modrym	-0.30103
-1.1882912	na modrym oceanie	-0.30103
-1.7979586	ludowych na geogname	-0.30103
-1.6097394	idzie przez geogname	-0.30103
-1.1784201	się popod geogname	-0.30103
-1.5870376	<s> geogname zasnął	-0.30103
-1.1825366	geogname zasnął blask	-0.30103
-1.1825366	potrącił śpiący blask	-0.30103
